booster[0]:
bias:
-0.0492962
weight:
-0.00595163
-0.00391085
-0.00498775
-0.00272008
-0.00470384
-0.00414198
-0.00273074
-0.00234796
-0.00268922
-0.0018995
-0.00168313
-0.000855483
-0.00282936
-0.00286495
0.000210544
-0.00321632
0.00140206
0.000580673
0.00155015
-0.0016643
-0.00100737
-0.0017783
-0.00298741
-0.00168173
-0.000459763
-0.00163054
-0.00317671
-0.00233734
-0.000162823
-0.00283786
-0.000521018
-0.00107536
-0.00178182
-0.000758687
0.000342118
0.000748629
-0.00161827
-0.00195893
0.00126023
-0.000954747
-0.00286022
-0.00111307
-0.00245533
-0.000735552
-0.00173193
-0.000811439
-0.00498095
-0.00195903
-0.00199105
0.000472512
0.000562606
0.000456038
-0.000185621
-0.000871583
-0.00107282
-0.00181097
-0.00128259
-0.00160632
-0.00123801
-0.00174205
0.00288898
-0.00210645
-0.00169768
-0.00174007
0.000414724
-0.00132903
-0.00395795
-0.00271356
-0.00271352
-0.00248444
-0.0016667
-0.00135628
-0.00117127
-0.00120686
-0.0011647
-0.0011737
0.00160837
0.00119497
0.000138997
-0.000338028
-0.000229988
-0.00117064
-0.00162857
-0.000642282
-0.000901281
-0.00136634
-0.000533077
-0.000411935
0.00398387
0.00414265
0.00316287
0.00322218
0.00431584
0.0039199
0.00331253
0.00283384
-0.00115447
0.00454371
0.0016174
-0.00144454
0.000433639
-0.0010147
-0.000330435
0.00289561
-0.0023162
-0.00128213
-0.00346618
0.00100497
0.000194305
-0.000836831
-0.00187577
-0.00175715
-0.0014585
-0.0015425
-0.000783252
1.6297e-06
-0.00167137
-0.000711651
-0.0016211
-0.00785336
-0.00401513
-0.00111549
-0.00535367
-0.00193082
-0.000591181
-0.00206322
-0.00230343
-0.000379847
0.0128544
0.00291238
-0.00468351
0.00178101
0.00657874
0.00149478
-0.00406005
-0.0260688
0.00527209
-0.00345611
0.000971966
0.00200216
0.00609364
-0.00233945
0.014718
-0.000296127
0.0107613
0.00176763
0.00161225
0.00847216
0.00136801
-0.000992231
-0.00450725
0.00138943
-0.00326578
-0.0129112
-0.0218586
0.00194808
0.00237655
0.00051647
0.00241737
0.00240885
0.000899739
0.00416752
-0.00012464
0.00479172
-0.000244267
0.00540677
0.00276784
0.00121944
0.00838084
-0.0021811
0.0167827
-0.003271
-0.00121217
-4.06788e-05
0.00372629
0.00113209
0.00518311
0.0147892
-0.0217531
0.00101893
0.063229
-0.00968779
0.0364127
0.00470841
0.00056895
0.0135881
0.000517732
0.000680734
0.00116724
0.0050934
0.000885352
0.00566946
0.00106516
0.0025543
0.00515051
0.00304385
0.0119478
0.000511886
-0.0277726
-0.0268537
-0.0305907
0.0123389
0.00371538
0.00134184
-0.006822
-0.00807691
-0.0290047
-0.022398
-0.0126622
0.00375387
0.016639
-0.00494704
0.000500335
0.00124098
0.00146235
-0.00275192
-0.00142897
-0.00559034
-0.0242453
-0.0277562
0.00134517
-0.00289963
-0.00665988
-0.00126399
0.0202597
-0.0095771
-0.00672112
-0.0034262
0.00135715
0.000535188
0.000333357
-0.00131818
-0.0140906
-0.0020288
-0.0050466
-0.0221704
0.00167341
-0.00035337
-0.0072696
0.006343
0.00405048
-0.00140025
0.00363736
0.00832502
-0.00138334
0.0135612
-0.00576782
-0.0287164
0.00039939
0.00115409
-0.00317975
-0.0145631
0.00317982
-0.00315875
-0.0071467
0.000596344
0.00156028
0.00110578
-0.00204183
0.000995816
-0.0124977
-0.0105255
-0.00298209
0.0089325
0.0185063
-0.000716841
-0.011811
-0.00478823
-0.0398664
-0.0266169
-0.0100836
-0.00116274
-0.000377679
-0.0487188
-0.00413089
-0.00345515
-0.00342871
0.00299106
0.000560748
0.00236426
-0.00263846
-0.033404
0.000885518
0.00840832
-0.0152695
-0.00135866
-0.0156102
-0.000281723
0.0012285
0.00423103
0.00784447
-0.00133626
-0.0264659
0.00110608
0.00200833
-0.0026628
-0.0191749
-0.0252062
0.000238217
-0.00607285
0.00209982
-0.000971299
-0.00810982
-0.00857482
-0.00772341
-0.00112378
0.00268689
-0.00433731
-0.00242962
0.0015468
0.00064307
0.000407265
0.00225007
0.00939354
-7.47292e-05
-0.000635648
-0.000174625
9.45027e-05
-0.00436476
0.000316424
-0.000753279
-0.000521856
0.00944682
-0.0256163
0.00272986
0.0176427
0.0099473
-0.00399165
-0.00118761
0.0134868
0.0074777
0.0049079
0.00186778
-0.00407824
0.00388181
0.0160172
-0.00493646
-0.0142519
0.000819384
0.00255911
-9.4631e-05
-0.00465425
0.00197694
0.00272651
-0.00897983
-0.00190347
-0.0124116
0.00779359
-0.000152754
-0.0201352
-0.00631966
-0.00350644
0.00123612
-0.000766835
9.89387e-05
-0.00855756
0.00131033
0.00303109
0.00310916
0.00176782
0.00438679
-0.00208863
-0.00296145
0.00323559
0.0168057
-0.00340555
0.00142474
0.00197492
-0.00322363
0.000640965
-0.00219849
-0.001706
0.00133744
0.00335659
0.000747527
-0.000375309
0.0019096
-0.0123791
-0.00973835
0.00270911
-0.00261979
-0.00568004
-0.00221898
0.00583462
0.000641003
0.00324346
-0.0135249
-0.000702972
0.000885545
0.000844833
0.00139001
0.00298722
0.00412588
-0.0513148
-0.0325723
-0.0333206
-0.00726267
-0.00918701
-0.000652427
-0.0039422
0.00145314
-0.000489236
-0.0200542
-0.000861188
-0.0248967
0.00714192
0.0342753
0.00709713
0.00153143
-0.0012264
0.0397547
0.00935095
0.00453612
0.00191287
0.0168175
-5.96416e-05
0.000128817
-0.00654174
-0.00594171
0.00162411
-0.0116169
0.00159959
0.000475293
0.000189812
0.0147789
0.00455494
0.00832474
-0.0097763
-0.00366037
-0.00389739
-0.0107963
0.00180549
0.000266403
0.00286328
0.0269787
0.00313866
-0.00106187
0.000683301
0.00197847
-0.00997195
0.000414762
-0.000902438
0.00312674
0.0221788
0.00502288
-9.30923e-05
-0.00752677
0.00288605
0.0354855
-0.0264633
-0.00133391
0.00137312
0.0109994
0.00282617
0.00212111
0.00316772
0.0123315
0.00205947
0.0181257
0.00360737
0.00421438
0.00248656
0.0260239
0.00308731
0.0108052
0.00186947
-0.00381804
-0.00134804
-0.0278124
0.0357089
0.00201937
0.021607
-0.0175187
0.00711751
0.000637469
-0.00481508
-0.0352631
-0.0109346
-0.00672123
-0.00320268
-0.00281325
-0.068879
-0.000941232
0.00432847
0.00200098
-0.00948513
0.00294034
0.00189654
0.000429125
-0.00899706
0.00123364
0.000224683
-0.0224098
-0.00278213
0.00109806
0.000326791
0.00815919
0.0124809
0.0365728
0.00571671
0.00660543
-0.00660755
0.0293726
-0.00260801
0.0166161
0.00326072
0.0301922
0.00424991
0.00302807
-0.00874677
0.000482149
0.000427016
-0.00206625
-0.00345514
0.00523739
0.000630391
0.000433346
0.00760853
0.021717
-0.0276844
0.00271054
0.000611967
-0.000399295
-0.00108638
-0.00524619
0.00719865
0.0346252
-0.00070248
0.000606384
0.0680754
0.00313722
0.00275349
-0.0470043
0.00520436
-0.0530501
0.000235767
0.0643001
0.00518466
-0.000342982
0.00646151
-0.0111299
0.0179788
0.00483019
0.000210776
0.00411863
0.0343644
0.00513965
0.00460962
-0.00338874
0.00323647
-0.00400499
-0.0164667
0.00481137
0.0104258
0.00538925
6.53099e-05
0.0196529
0.0067989
0.0274308
-0.0166389
-0.0178598
-0.0105383
-0.00645552
-0.0113066
-0.00143418
-0.00306153
-0.000975936
0.00948002
0.0079928
0.00726941
-0.000863122
0.000424306
0.000500622
0.00115724
-0.00828808
0.00315064
-0.00727036
0.00223065
0.000748536
0.0114754
0.0014366
0.0238706
0.0119168
0.0443306
0.0182132
-0.000674727
0.00323584
-0.00624157
0.00268792
-0.0114315
-0.00155549
0.00769707
0.00786353
-4.40134e-05
-0.00237787
-0.0149677
0.0293374
-0.000257316
0.0104132
-0.0668194
0.00122637
-0.00174165
-0.0166829
-0.00111342
-0.00156244
0.00484524
-0.0051737
0.00398138
-0.00651135
-0.0118046
0.0046095
0.00244903
0.000512977
0.00255246
0.000265518
0.00224284
-0.00143164
-0.00381084
0.000782703
-0.000834597
8.33095e-06
-0.00882402
-0.00088256
-0.00246406
0.0084662
0.00892019
-0.00597393
-0.0452717
0.0350676
0.0228453
0.00897428
0.00162055
-0.00222265
-0.0082568
-0.0362469
-0.0478538
0.00246507
0.00216449
0.0093887
0.0607253
0.00215448
0.00354448
-0.00976613
0.0101611
-0.00720458
0.00509582
0.00474857
0.00452724
0.00533504
0.000933456
-0.00462202
-0.0182508
0.00540601
-0.0122153
-0.00394003
0.0239315
-0.0362658
-0.018209
0.0150053
-0.0175756
-0.00144054
0.0397308
0.0583726
-0.0216688
0.00171164
0.0216096
0.0463486
-0.0214687
0.0143872
0.00480467
-0.000586195
0.0107623
0.0345087
0.00542096
0.00361368
0.00804788
0.00559442
-0.00180136
0.000906784
-0.0170601
0.0580675
-0.00416595
-0.00962199
-0.00939714
-0.00577793
0.00404281
0.010309
0.00173177
0.0021225
0.00164424
-0.000838247
-0.00404185
0.0155396
-0.00256011
-0.00116983
-0.0287636
-0.0587656
0.000269124
-0.0187905
-0.0224025
0.00348121
0.00294677
0.00472336
0.0026022
0.00246659
0.0212891
-0.00300171
-0.0349424
-0.00511143
0.00167711
0.00174285
-0.0105376
-0.0231578
-0.00120803
-0.00350353
-0.00658086
-0.00864105
0.00997187
-0.00486128
-0.00314546
-0.00150005
0.00372002
0.00206583
-0.00059768
0.00530961
0.00738857
-0.00120414
0.00237538
0.000712177
-0.00150152
-0.000914723
0.00144828
-0.00177033
-0.066345
-0.00360193
0.00126172
-0.00460302
-0.0100481
0.00229285
-0.00266188
-0.00578165
-0.00349769
0.0054404
0.00210782
0.00792096
0.0112461
-0.00553254
0.00102512
-0.0154339
-0.000629786
-0.0419535
0.00192927
-0.00744514
-0.000464388
-0.00295077
-0.00150053
-0.00659342
-0.000237088
-0.00261394
0.000701338
0.0026893
0.00143717
0.00182564
-0.000943853
0.00187737
-0.000877688
0.00227171
0.00030438
0.00188236
0.00220659
-0.00116806
0.000557468
0.000304362
0.000844465
0.00118296
-0.000277955
0.00212502
-0.000340676
-0.000252024
0.00506589
0.00404424
0.00435228
0.000179578
0.00340734
-0.00126861
0.00355143
-0.00020023
-0.00190357
-0.00400976
0.000823986
0.00177249
0.00188353
-1.70878e-05
0.000825946
-0.000178734
0.00263732
0.000948124
0.000393919
-0.00111033
0.00476483
0.00367607
0.000451094
0.0051729
2.97499e-05
0.00228433
-0.00590569
0.00534467
-0.00166644
0.0012867
0.00167655
-0.00237657
0.00459152
0.00344028
0.000940734
-0.000394875
-0.000156421
-1.39872e-05
-0.000598644
-0.000129875
-9.58964e-05
-0.0027133
0.000488183
-0.0070607
0.00108286
-0.000325488
0.00355679
-0.0103816
0.000471288
0.000112481
-0.000810715
-0.000168874
0.00043747
-0.00247619
-0.00845896
-0.00372757
-0.0026472
-0.0111515
-0.0169018
0.000967853
0.0125679
-0.000752371
-0.0102408
-0.00101697
-0.000483215
6.92458e-05
0.000160496
0.0107902
9.21788e-05
-0.00012197
-0.000153944
0.000959752
0.00436249
0.000222682
-0.000585649
-0.000883485
-0.000112342
-0.000480381
-0.00103461
0.000939766
0.00140487
0.00014718
-0.000365572
-5.1374e-05
0.000373961
-0.0116872
-0.003953
-0.014398
0.00433155
-0.000295737
-0.00714651
0.000273002
0.000447128
0.00811985
-0.00164386
0.00030114
-0.000711152
-0.000429418
0.000647157
-0.000341799
-0.000430821
0.00393382
-0.00348726
0.00177592
0.000628001
0.000215574
0.000156092
0.000953052
0.000190806
-0.000893284
-0.000573949
-0.000934526
-0.00024664
-1.72263e-05
0.000177826
-0.0642298
0.00094412
0.000995027
-0.000378497
-0.000421526
0.000531359
-0.000132104
-7.53692e-06
0.000142002
-0.000186507
-0.00334089
0.000245216
0.000191007
0.00011934
-0.000524121
0.00279161
0.000427524
0.00133541
0.000162651
0.000402641
-0.000161116
-0.00164818
-0.000107734
-0.000268697
-0.00313142
-0.000433614
0.000578337
-0.00193103
0.000942373
0.0010711
-0.000751826
4.75966e-05
9.31353e-05
-0.0003731
-2.66759e-05
-0.000306161
-0.00145375
-0.000211773
0.000668787
8.32059e-05
0.000173159
0.000156492
-0.000136245
-3.85926e-05
0.000213773
-0.00351279
-0.00835595
-0.00299799
-0.00456197
-0.00255132
-0.00139843
-0.000499631
-0.000280735
-0.002541
0.00131366
-0.000152615
-0.00515054
0.000189544
-0.000216683
0.000147052
0.000288986
-0.000531881
0.0016429
-0.00249244
-0.00333565
0.000608863
4.0249e-05
-0.000422894
-0.000172249
0.00021527
0.0005297
-0.00746692
-0.00402607
8.0963e-06
-0.00455612
-0.0139189
-0.002039
0.000221261
0.000215852
-0.00167772
-0.000280829
-0.00236939
0.000636802
-6.95724e-06
-0.000212934
7.97049e-06
-9.75805e-05
-6.29602e-05
-0.00422078
0.000246352
0.000463704
-0.000723682
0.00189782
-0.0054542
-0.0046282
-0.0029368
-0.00251677
-0.00062215
-7.33693e-05
-0.000584091
-5.22167e-05
-0.000193898
-0.000357384
0.000784652
-0.000832568
-0.000468838
0.000170281
-0.000787126
-0.000336666
0.0011364
-0.00159229
-0.00047021
-9.17405e-05
-4.97604e-05
-0.000270156
-0.000265986
-0.00128681
-0.00107287
0.000145911
1.97179e-06
-0.000140108
-0.0002979
-0.00311202
-0.00223771
-0.000631475
-0.000450887
0.00107596
-0.000231094
-0.00151519
5.16164e-05
3.40758e-05
0.000360758
-0.000651068
-0.000231737
3.81729e-05
-0.000512714
0.000809528
-0.000136461
4.72158e-05
6.7051e-05
-0.000109442
-0.000182255
-0.00149082
0.000428626
6.03786e-06
0.000179033
-0.000564023
-0.00016933
-0.000106799
-0.00065408
0.000688485
0.00024757
0.000235951
-2.98129e-05
0.000295078
0.000301462
-0.000233787
-0.000517156
0.00028447
-0.000207728
0.000551984
0.000902081
0.000281941
0.000466563
0.000233473
-9.31219e-05
9.7944e-05
-0.00109076
-0.000426166
9.88453e-06
0.000420225
0.000292926
6.48875e-05
0.000699418
-0.000179862
-0.000375902
5.83789e-05
-2.04174e-05
0.000548082
0.000928309
0.000153765
0.000576497
-1.45453e-05
-0.000381121
0.000632261
-0.000683361
-5.82157e-05
-5.10457e-05
0.000957035
0.000966098
-9.42116e-05
0.000579567
-0.000885182
-0.000236783
-0.000362358
0.0012113
0.00026156
-0.000123208
0.000307306
-0.000416319
-0.000198397
-0.000347095
0.00104675
0.000966587
0.000179096
-8.01829e-05
-7.81812e-05
0.000304898
-0.00133037
0.000216085
0.000394653
0.00126131
7.70445e-05
0.00476864
0.000406979
0.000254384
-0.000443791
-0.000117165
0.000298349
2.51678e-05
0.000483932
-0.000974312
-4.03985e-05
5.64526e-05
-0.00102557
-0.000935417
-9.70575e-05
0.000163437
0.000212803
0.000146178
-0.00014451
0.000374566
-0.000197853
-0.000285699
-0.000141347
-0.000174719
-0.000765083
-0.000200899
-3.99701e-05
0.000212306
0.000184301
-7.45776e-05
0.000365516
-0.00102281
9.503e-06
0.00066436
0.000204797
0.000194195
0.000653908
-0.00031437
-0.000361954
0.000107243
-2.3537e-05
-0.000204322
-0.000510884
0.00148622
0.000134305
0.000415348
-4.58974e-05
0.000186767
-0.000808274
0.000191883
0.000169026
-0.000174404
-0.000782717
0.000911458
0.000581885
0.00127837
3.22582e-05
0.00059923
0.000120783
0.000180724
-0.000156292
-7.67811e-06
0.000565141
2.71171e-05
-0.000382263
-0.000453517
-0.000283056
0.000125166
0.000678957
0.00746392
0.00342695
-0.000268546
7.35978e-05
0.0109019
-2.20654e-05
-4.62783e-05
-0.000101265
-0.000311197
-8.96503e-05
-0.000403458
0.00011104
-9.57926e-05
-0.000430563
0.000219146
0.00132336
0.000486922
3.60492e-05
0.000238144
-0.000264908
0.000106002
0.0019547
0.00155402
0.000169254
-6.73101e-05
0.0160088
0.000673718
1.52048e-05
0.000609894
-0.000228223
-4.65763e-05
-0.000198547
-0.000618717
-4.31208e-05
-0.000274256
0.00017478
0.000157167
0.00229714
0.00173509
0.000657109
0.000239785
0.00221368
0.000186011
-7.66258e-05
0.00031409
7.46973e-05
0.00128213
-0.000228095
0.00216216
0.00189053
-0.000214356
4.05277e-05
0.00112237
8.66904e-05
0.00155726
0.000602517
-0.00013418
0.000101676
-0.000403421
0.00630866
-0.000287324
0.000763243
6.02546e-05
-0.000153363
0.000148556
0.0051069
-0.00013613
0.000454418
0.00198583
-0.000135509
6.95627e-05
2.1136e-05
-0.000295677
5.35387e-05
-8.6535e-06
-0.000135822
6.90735e-05
-0.0117073
-0.00101605
-0.00345767
-0.000934567
-0.00121279
-0.000263404
-0.0134658
-0.0005658
-0.0025303
-0.000802117
-0.000633552
0.000248043
-0.00620753
-0.000332531
-0.00188229
-0.000551438
-0.000402158
0.000356141
-0.00587159
3.61191e-05
-0.00131079
-0.000185518
-0.000370415
0.000652698
-0.0104442
0.00227755
0.00063383
0.00170729
-8.96127e-05
0.000639865
0.000138534
-0.000769067
-0.000292964
-0.000336864
0.000857873
0.000473148
-0.00148323
0.000415183
-0.000375389
0.000435885
-0.000268259
-0.00435081
-0.000139115
0.00126162
0.000171597
-0.000603432
0.000328217
-0.0090411
-0.000176473
-0.00260334
-0.000558249
-0.000125376
0.000357817
7.0714e-05
-0.00392232
0.00254122
0.000533925
0.00147948
9.84831e-05
0.000852844
-0.000130229
-0.000511046
-0.000525098
-6.54931e-05
0.000651017
-0.00196161
0.00277648
0.000844614
0.00235121
0.000169995
0.00121061
-0.000303624
-0.000526001
1.25994e-05
0.000539556
-0.00243531
-0.00208153
-0.00016901
-1.87801e-05
0.000327338
0.000253359
0.000342816
-0.00436386
-0.000258931
0.000235358
-0.000784648
-2.17814e-05
-0.00267248
0.000866796
4.54869e-05
-0.00105648
-5.96385e-05
-0.00140443
0.00156092
-0.00012629
-0.00125735
-0.000303445
-2.09997e-05
-0.000293051
-0.00141036
-0.000564136
-0.000193658
-8.98616e-05
-0.00281264
0.00143533
3.71051e-05
-0.000625663
-0.000200132
1.31725e-05
-0.00046748
-0.00137925
-0.000609634
-0.000271786
-0.000326889
-0.00434807
0.00258998
-5.67419e-05
-0.000221665
-0.000215219
2.92393e-05
0.000230406
-0.000336378
0.000196698
5.52766e-05
-0.00198522
-0.000334685
-0.00067557
-0.000561442
-0.000182566
9.1747e-05
-0.00281943
0.000154883
-0.000216777
-0.000534956
-0.000378228
-0.000161764
-0.00098119
0.00105775
0.000174659
0.00103251
-0.000130929
0.00672114
-0.000329627
-0.00078084
-0.000440548
-0.000322542
1.70252e-05
-0.00187026
0.000689313
0.000317864
-0.000604646
0.000151438
0.000318836
-0.000221712
0.00162948
5.28291e-05
-0.000182462
-0.000111532
0.000244919
0.000336333
-0.000185956
-0.000862736
-0.000774968
-0.0149909
0.00116218
-0.000456609
0.00016115
0.00262761
4.65948e-05
0.00157949
-0.000432388
-0.00022512
1.72097e-05
-0.000147727
-0.0015749
-0.000426535
0.000620475
-0.000125829
-9.36096e-05
4.2025e-05
-0.000290206
-0.00304712
-0.000258157
0.00218674
-0.000127332
-3.96306e-05
0.000103068
-0.000371169
-0.00181833
-0.000380591
0.00096237
-5.00238e-05
-0.000109351
2.53129e-05
-0.000213052
-0.000549973
0.000209879
0.000394935
-0.00188705
-0.000190857
-0.000798656
-0.00013444
0.000323085
-7.36763e-05
5.39174e-05
0.00010306
-0.001203
-0.000364874
0.000758385
-0.000221691
0.000107829
7.47539e-05
-0.000247165
-0.000931276
-0.000239176
0.00048821
-0.000144244
0.000281756
1.44185e-05
-0.000295001
0.000507318
-0.000327807
0.00124057
0.000588099
-0.000100148
7.16251e-05
-0.000237607
-0.0011633
0.000204907
-4.05935e-05
-0.000206526
6.73852e-05
0.000152508
-4.47097e-05
0.00257772
-0.000169533
0.000459215
2.40752e-05
9.87897e-05
3.43316e-06
-0.000542737
0.00527257
0.000325799
-4.28995e-05
0.000148733
0.000161101
-5.40373e-05
9.52716e-06
0.000301217
0.000127383
5.89519e-05
0.000550401
0.000128346
0.000220413
0.000209875
0.00102037
-0.000177311
0.000567072
6.66794e-05
0.00177448
-0.0010881
-0.000173623
-0.00104128
-0.000237622
-0.00013492
1.27899e-05
-0.000394706
-0.000454213
0.000224029
6.42697e-05
-0.00139802
-0.00475893
-0.00115234
-0.00276076
-0.000988434
-0.00135847
0.000376042
0.00337214
-0.000458353
-0.00124603
0.00864804
-0.00544782
-0.00108199
-0.00349417
-0.000837942
-0.00116405
0.000101269
0.000271128
-0.000958037
-0.000182421
0.00123428
-0.000593504
0.000133793
1.74637e-05
-2.42475e-05
6.62691e-05
0.000990686
0.00323378
0.000124535
-0.00035697
-0.00016308
-0.000624581
0.000639689
7.66124e-05
0.000221729
-0.000148431
0.000168685
-0.000254658
6.27674e-06
-0.00028034
-0.000300192
-2.49452e-05
-0.000524487
-0.000226313
0.000114275
-0.00028414
-8.71229e-05
0.000244653
-0.000165354
-5.06718e-05
-0.000838451
-0.000208707
-2.54386e-05
-0.00075202
0.000697965
0.000200738
0.00045381
-9.43984e-05
0.000319696
0.00155862
0.00282591
0.000528873
-0.000260917
-0.000253826
0.00322772
-0.0013178
0.00188921
0.00193091
-0.00091489
-0.000204612
-0.00095927
0.00714191
0.000500084
0.000117565
0.000340163
7.62504e-06
0.000172422
0.000331621
0.000103755
0.0001714
-8.27648e-05
-0.000253895
-0.00147155
-0.000635361
7.31911e-05
0.000641
-4.45082e-05
8.97899e-05
-0.000287082
2.03987e-05
-0.000231202
1.98798e-05
-0.000154849
0.00227656
-6.88767e-05
7.94832e-05
0.000504688
-6.06505e-05
0.000118456
0.00015981
-8.99269e-05
-0.000267678
0.000201139
-8.30027e-05
0.000664732
-0.000121987
0.000111808
-0.000673222
-0.00016938
0.000148276
-0.000346859
0.000512309
-9.33768e-06
-0.000107885
4.50824e-05
0.00472317
0.000807362
0.000221077
0.000304957
-1.44023e-05
0.000325885
0.000101178
-0.000295848
-0.000726608
0.000224561
-9.04764e-06
-0.00143443
5.29812e-06
0.000350672
0.000963422
0.000119388
0.000323477
0.000124862
0.000416996
-0.000235791
0.000106864
-7.32709e-05
-0.00144508
0.00206386
0.000650472
0.00165984
0.000246083
0.000849877
0.000104906
-0.0113827
-0.000133358
0.000842401
-5.34181e-05
0.00698633
0.000272979
0.000572556
1.19145e-05
0.000761717
7.79532e-05
0.000851906
0.000403706
-2.01709e-05
-0.000277662
0.000504009
-0.000331656
0.000263903
0.00163604
0.000516707
0.00208571
6.91299e-05
0.000326105
-0.000628798
-0.00178386
-6.63583e-05
0.00108242
0.000277502
0.0141801
0.000963305
0.000638753
0.00179994
0.000345031
0.000433593
-0.000731208
-0.0515069
0.000188759
0.000168413
3.71031e-05
0.00202764
0.000456179
0.00081662
-0.000164588
0.000296709
-0.00016386
0.00876438
-0.00065744
0.000334419
0.00032753
9.63417e-06
3.44164e-05
-0.000739792
0.000723658
0.000490646
-1.39696e-05
-8.16561e-05
-0.00832555
9.04115e-05
0.000492003
8.40555e-05
0.000190011
0.000129255
-0.000151638
0.00594245
0.000185476
0.000231426
0.000482646
0.000179392
0.000193532
3.98452e-05
0.000301017
6.78104e-05
0.000348482
0.000448571
0.000257351
7.99926e-05
-0.000690345
0.0114825
4.0073e-05
-0.0189972
-0.00389113
0.00141234
0.000172702
0.0072855
-0.00017372
-0.000531245
-0.000232574
0.000490092
-3.19397e-05
0.00244361
0.000168028
0.000407348
0.000108017
0.00175111
-4.19944e-05
-0.00139225
-6.25691e-05
0.00021193
0.00023117
-0.000107605
-0.000220274
0.00431619
0.000122762
0.000100609
-3.60809e-05
0.000121989
-4.84305e-05
-0.000349359
-0.000267874
0.000177474
0.000273022
0.000157894
1.22327e-05
0.000321842
0.000169143
0.000324685
0.000382073
0.000579632
-3.12083e-06
0.00387362
-2.95636e-05
-0.000496972
0.000120971
5.3257e-05
-8.33352e-05
0.0110023
-0.000153916
0.000706428
0.000292543
0.00032108
6.52063e-05
-0.000578848
-0.000269889
0.000149399
0.000546895
0.000512143
-6.55719e-05
-7.9372e-07
0.0276638
0.000445597
0.00141072
-0.000398246
0.000327715
-0.000547333
0.000546028
-0.000149921
0.000558778
-3.78015e-05
9.90218e-05
0.000185163
-6.90774e-05
0.000283686
0.000225665
-7.29114e-05
0.000103028
-0.000428495
0.000994892
3.18671e-06
-0.000223104
-0.000853741
0.000373396
-0.000399115
-0.000174468
-0.000169509
-5.14759e-05
-0.000229149
0.00137157
0.00143704
-0.000353771
8.28207e-05
-0.000236779
0.0046005
0.00104039
-0.000572522
-0.000234391
-0.000132536
-0.000181517
-0.000103794
0.00439514
2.58429e-05
-0.00053144
0.00054118
-0.000168666
0.000551479
0.000472952
-0.000355726
7.01204e-05
-0.000145298
-0.000204371
-0.000278408
-0.00642709
-0.000470735
-0.000259584
0.000300615
-0.000337388
0.000279439
0.0005636
-0.000742639
-0.00024894
-0.000191033
-0.000133253
-0.000333871
-0.00838126
0.00182929
-9.05886e-05
0.000431534
0.000288302
-0.000270561
0.000706965
0.000843926
0.000298313
-5.81115e-05
-6.23595e-05
-0.00121183
-0.0125824
-0.00833819
-0.00212929
9.4503e-05
-0.000196782
-0.00630602
-0.00115089
-0.000765377
9.19003e-05
0.000162521
-0.000615574
0.000611567
0.0013307
-0.000973097
-0.000267798
0.000100679
-0.000271046
-0.00365326
-0.000724767
-0.000651398
0.000154382
0.000131008
-0.000653913
0.000144186
-0.00833574
-0.000382619
0.00168897
0.00114359
0.00156694
-0.001948
0.000152512
0.000669181
0.000685486
0.000565075
-0.000576273
0.00122837
-0.019796
-0.019355
-0.000300213
-0.00103315
-0.000947969
-0.00051218
-0.00597687
-0.000283707
-0.0013325
-0.000258874
-0.000202678
-0.00036658
-0.000304777
-0.00322378
-0.021638
2.74906e-05
0.000777731
-1.18236e-05
-0.000200898
-0.000566686
-0.000504935
-0.000228578
0.000519242
0.000470253
-0.00056747
0.000807219
0.000363303
-0.000480912
0.00020401
0.000747399
0.000357758
-0.00102325
0.00013293
0.000331009
0.000374551
0.000226347
-0.000245853
0.000339024
-0.000370649
9.70833e-05
-0.000332165
0.000961675
0.000129477
0.00111196
0.000937893
0.000429088
0.000209539
-8.19189e-06
-0.000685655
-0.000197935
0.0181312
-0.00049781
-0.000187041
0.000680457
8.72201e-05
-0.000707187
-0.000350822
3.34848e-05
0.000243771
0.000173669
-0.000218433
0.000171079
-0.00345055
0.00112747
0.00142953
7.40851e-05
0.00138511
0.000350561
-0.000696159
0.00015618
0.0015239
0.000285639
-7.76567e-05
-0.000433944
-1.63722e-05
0.00410901
-0.00941741
0.000193814
2.05256e-05
-0.00134067
-0.000296875
3.72231e-05
0.000329414
0.000266064
-0.000323698
-0.010016
0.00025333
3.19545e-05
0.00278829
0.000446442
0.00130824
-0.00198647
-9.79588e-05
0.000400401
0.000855599
0.000407773
-0.000750612
0.000223755
0.00103298
-0.0012153
-0.000473267
0.00020858
-0.00181625
0.00211354
0.00147558
0.0021499
-0.000692082
-0.000303887
-0.00022374
-0.0022842
-0.00102939
0.000107718
-0.00087309
-0.00224006
-0.000923218
0.00117472
-0.0018089
0.000809546
0.000345441
-0.000571866
0.000564256
0.000454593
0.00196183
-8.97573e-05
-0.000899265
0.00217867
0.000152379
-0.00303142
-0.00119499
-0.00173916
-0.000686356
-0.0016148
-0.000273026
-0.00401386
-0.00211683
-0.00192981
0.000224036
0.0016263
0.00165646
-0.000358337
-0.000723437
-0.000282971
-0.00188036
-0.00101379
-0.00117323
-0.000717517
-0.00150602
0.00363856
-0.00192237
-0.00105804
-0.00125537
0.000812092
-0.00105537
-0.00530857
-0.00375659
-0.00346633
-0.00169959
-0.00193867
-0.0011544
-0.000942565
-0.0014424
-0.0013574
-0.00154753
0.00222471
0.00193562
0.00022372
-8.43862e-05
-0.000867793
-0.000996502
-0.00136627
-0.000175973
-0.00115134
-0.00108876
0.000258202
-0.000233193
0.0039238
0.00510182
0.00410419
0.00311899
0.00506336
0.00440854
0.00433924
0.00314936
-0.00122938
0.00495037
0.00248654
-0.00160724
0.000386559
-0.000825462
-0.000190104
0.00287663
-0.00221076
-0.00143462
-0.00370118
0.00160441
0.000760898
-0.000681152
-0.00145215
-0.00143642
-0.00138459
-0.00123168
-0.00134822
0.000433226
-0.00149282
-0.000413599
-0.00165956
-0.00870869
-0.00346327
-0.00188179
-0.00564343
-0.00213397
-0.00093126
-0.000921648
0.00718191
0.000679749
0.00735405
-0.000518461
-0.00350899
0.00095061
0.00975451
0.000702006
-0.00381759
-0.0174138
0.000750814
-0.00235981
0.00182776
0.00401619
0.00534307
-0.00232445
0.0131166
0.000132466
0.01018
0.00226126
0.000643696
0.00518952
0.000432397
-0.000238421
0.00460556
0.00100586
0.000856813
-0.0061736
-0.00166266
0.00171146
0.00234695
0.00076604
0.00255429
0.00241874
0.00121311
0.00406612
0.000255656
0.00499138
0.000340745
0.00535497
0.00322346
0.00177171
0.00932964
-0.00215802
0.012717
-0.00697846
-0.00199134
0.00152083
0.00583886
-0.000492319
0.00515928
0.0123644
-0.00990025
-0.000637698
0.0485735
-0.00741564
0.0537895
0.00803773
0.0013332
0.0131182
0.00049525
0.000668774
-0.00147531
0.00584846
0.000620753
0.00461273
0.00168342
0.00448869
0.00583013
0.00280633
0.00993949
0.00242905
-0.0115134
-0.0289736
-0.0276006
0.0190599
0.016595
0.00138627
-0.00768967
0.00625964
-0.0379255
-0.023542
-0.0170503
0.00304556
0.0149555
-0.00415197
-0.000760619
0.00117827
-0.000868734
-0.00254438
-0.00188355
-0.00578126
-0.0250189
-0.0258061
0.000720648
-0.00454658
-0.00786499
0.00492046
0.0164835
-0.0101022
-0.00631404
-0.00646751
0.00130463
0.000825694
0.00057364
-0.00102132
-0.0131126
-0.00137856
-0.00573061
-0.0137795
0.00392452
-0.000669621
-0.00681317
0.00584475
0.00405111
-0.00159168
0.00213076
0.012949
-0.00127072
0.0102207
-0.00602284
-0.0164495
0.000819557
0.00155275
-0.00333266
-0.0140586
0.00275589
-0.00327185
-0.00707936
0.00114524
0.00187979
0.000301916
-0.00180432
-1.37222e-05
0.00174608
0.00184924
-0.00108801
0.0103966
0.0192004
-0.00165878
-0.01166
-0.00350001
-0.0170546
-0.0262997
-0.00450162
-0.000910845
-0.000398815
-0.0223466
-0.00314331
0.00465267
-0.00410778
0.00789214
0.00123337
0.000915313
-0.00413368
-0.0217174
0.000534068
0.00909965
-0.00937724
0.00178916
-0.0105417
0.000528178
0.00145066
0.00484547
0.00662649
-0.00304349
-0.0178694
0.00109562
0.00130265
0.0127206
-0.0169677
-0.0194493
0.00102455
-0.00586964
0.0015782
7.46609e-05
-0.00909395
-0.00977043
-0.00820678
-0.00157183
0.00362231
-0.00510906
-0.00341703
0.00141344
-0.00458609
-0.000244528
0.0011744
0.0179212
0.000544317
0.000749707
-0.000220683
5.15472e-05
-0.00339373
0.00138455
-0.00146648
-0.000608624
0.00960973
-0.0254394
0.00242812
0.0151812
0.00976661
0.000548614
-0.00146426
0.0107756
0.00913683
0.00533279
0.00195985
-0.00239293
0.00361543
0.0145461
-0.00522912
-0.0116512
0.00261679
0.00538603
-0.00144244
-0.00486382
0.0019336
0.00183465
-0.00666377
-0.0029691
-0.0105851
0.0154856
-0.000547362
-0.018788
-0.00660624
-6.20061e-05
0.00161626
-0.000791418
7.46236e-05
-0.0055444
0.00397944
0.00249688
0.00651022
0.000330207
0.00320195
-0.000127531
0.00185293
0.00257543
0.0154413
-0.00316334
-8.84679e-05
0.00318645
0.00106215
5.70635e-05
-0.00248584
-0.0016116
0.00176879
0.0101333
0.000639045
-0.00132924
0.00102682
-0.0119821
-0.0144878
0.00156604
-0.000475843
-0.00529192
-0.00166567
0.00819154
0.000529946
0.00257835
-0.0157573
0.000867729
0.00288978
0.00129906
0.000739653
0.00240273
0.00521381
-0.0413421
-0.0350908
-0.0361874
-0.00639799
-0.0103865
0.00530041
-0.00424926
0.0013454
-0.0044198
-0.0207273
-0.00246476
-0.0343433
0.00917985
0.0170144
0.00589536
0.000686467
-0.00199984
0.0389411
0.00774953
0.0021119
0.00199611
0.0169661
0.000729101
-0.00181589
-0.00714695
-0.00707899
0.00577054
-0.0110806
0.00138178
0.000255103
-0.000184827
0.0201198
0.00480725
0.00824139
-0.00922297
-0.00447679
-0.00182619
-0.0135669
0.00177297
0.000309517
0.00187284
0.0221512
0.00469767
-0.00113646
0.000481298
0.00327655
-0.0148515
-0.00471956
-0.00178616
0.00300501
0.0269352
0.00712057
-4.09798e-05
-0.00460436
0.00468572
0.0180645
-0.0142423
-0.00172954
0.00149792
0.0110359
0.00294797
0.00161199
0.00288076
0.0104767
0.00213976
0.0139472
0.0032345
0.00435978
0.0023426
0.0301801
0.00296728
0.00868051
0.00174766
-0.00766677
0.00277766
-0.0139663
0.0296326
0.00155354
0.0315456
-0.0139328
0.00869988
-0.000724878
-0.000689915
-0.0375582
-0.0137295
-0.0075636
-0.00984974
-0.00289536
-0.0643864
-0.00172304
0.00216175
0.00109707
-0.00689986
0.00383192
0.00138055
0.000332163
-0.00748249
0.00238053
-0.000461333
-0.0259431
-0.00289795
0.00103847
0.00028393
0.00580667
0.00920805
0.0321156
0.00507871
0.00628911
-0.00927393
-0.00445706
-0.0169494
-0.00303751
0.00506376
-0.00467292
0.0105368
0.00581445
0.00098145
0.0137701
0.00865949
0.00873989
0.00353082
0.011926
0.0104985
0.00655717
0.0207221
0.0196566
-0.0541272
0.00690912
0.00678336
0.0072883
0.00765751
0.00301953
0.0293664
0.0146426
0.00313941
0.00291573
0.0524265
-0.00402292
0.0083508
-0.0522985
0.00458537
-0.11353
0.000102512
0.0509142
0.00870456
-0.000221387
0.00396167
-0.00128811
0.0337372
0.00960761
0.0121946
0.0141255
0.0279555
0.00423417
0.00192058
0.000171294
0.0229527
-0.00215378
-0.0314183
0.0143651
-0.00151779
0.0150558
6.30517e-05
0.0412693
0.00113177
0.0298756
-0.0127143
-0.0275411
-0.0228102
-0.0137894
-0.024106
0.00228056
8.03846e-06
0.000425475
0.0210879
0.0109812
0.0102075
0.00107316
0.00162168
0.00170661
-0.00277004
-0.00448613
-4.21242e-05
-0.0026492
0.00384192
-0.0260489
0.017807
0.00490204
0.0190991
0.00509798
0.0348424
0.0135268
0.00103833
0.00466205
-0.0134466
0.00246505
-0.023652
-0.00117235
0.00789442
0.00762158
5.36985e-06
0.016052
-0.024761
0.025894
-0.000613902
0.00854423
-0.0645844
-0.00657278
-0.00156353
-0.0220509
0.000744706
-0.00106017
0.00757983
-0.00237565
0.00420239
-0.0114035
-0.00836084
0.00513814
0.00234318
0.000502329
0.00275621
0.000245677
0.00411247
-0.000947407
-0.00489849
0.00024679
0.000272075
-0.000183833
-0.00862608
0.00037672
-0.00412446
0.00732445
0.00974885
-0.00168611
0.0112073
0.0462137
0.022664
0.00595512
-0.00133349
-0.000377203
0.0150731
-0.0339342
-0.043903
0.00151858
0.00174772
-4.76242e-05
0.0318102
0.0078004
-0.00296839
-0.0108629
-0.00723349
-0.00507872
0.00153224
0.00125966
0.00153797
0.00250438
-0.00123192
-0.00747143
-0.0192894
0.00232008
0.0081202
0.00618905
0.0135595
-0.0387989
0.00455511
0.0176711
-0.00442619
0.00374049
0.034193
0.0487181
-0.0166749
-0.00526142
0.0175451
0.046822
-0.0194186
0.0112624
0.00631456
-0.00195109
0.0153199
0.0267659
0.000510253
0.00181461
0.00778325
-0.000836458
1.12969e-05
0.0126343
-0.0182488
0.0389196
0.00106737
-0.00832109
-0.00695061
-0.00486094
0.00275948
0.0104638
-0.00153391
0.00106155
0.000513904
0.0048165
-0.00192922
0.0193595
0.000719069
0.000488435
-0.0284963
-0.0626054
-0.000728225
-0.0128465
-0.016556
0.00324538
0.00348117
0.00389507
0.00185125
0.00156059
0.0190314
-0.00390722
-0.0195431
-0.00464925
0.00114671
0.00105153
-0.0106352
-0.0248666
-0.000449046
-0.00239004
-0.00101596
-0.00285009
0.0147704
-0.00254132
-0.00177252
0.000623375
0.00297076
0.0047185
0.00201433
0.00497809
0.00738307
0.000591146
0.00208382
0.0026497
0.000371182
0.000532863
0.00387114
-0.000396982
-0.0520381
0.000513955
0.000759276
-0.00967303
-0.00888123
0.00159137
-0.00446253
-0.00574601
-0.00389393
-0.00131559
0.00358885
0.00729023
0.00923018
-0.00328944
0.00110193
-0.0112082
-0.00168211
-0.0390049
0.00163707
-0.0061188
0.00177637
-0.00136509
0.000769163
-0.00668225
-0.000570167
-0.00283061
0.000610214
0.00542409
0.00258381
0.00166157
0.000312031
0.00234467
-0.000809241
0.00345663
0.000416386
0.00245896
0.00347386
-0.00017626
0.00076057
0.00166418
0.00236594
0.0156838
0.000786558
0.00363625
0.000881689
0.00070125
0.00711408
0.00594322
0.00641411
0.000513669
0.00458157
-0.000961064
0.00499019
0.000175419
-0.00163111
-0.00278809
0.00201
0.00407425
0.00506385
0.00233086
0.00118725
0.000274011
0.00433696
0.0019569
0.000851656
-0.000808232
0.00565889
0.00426067
0.000744958
0.00607319
0.000756675
0.00482881
-0.00596996
0.00816018
-0.00183119
0.00239758
0.00144901
-0.00278315
0.00519033
0.00428862
0.00310115
-0.000172363
-9.39685e-05
-3.11473e-05
-0.000115867
-0.000289927
-0.00022203
-0.00159355
0.000467365
-0.0110234
0.00426001
-0.00074147
0.00384025
-0.0136452
0.000407009
0.00015117
-0.000712646
-0.000125246
0.000521138
-0.00272906
-0.0050067
0.00336335
-0.00116531
-0.00196983
-0.0102528
0.00212581
0.0222339
-0.000341488
-0.0037284
-0.00138976
-0.000287936
0.000170195
0.000393646
0.0225342
0.000689616
-0.000105269
-0.000241457
0.00314332
0.00737477
0.001155
-0.000750613
0.000471564
0.000460568
-3.18808e-05
-0.00104291
0.00470607
0.00158066
0.000263614
0.000141623
3.89047e-05
0.000477118
-0.00835256
-0.00401308
-0.0135928
0.00685305
8.8479e-05
-0.00820646
0.000657743
0.000424741
0.00899302
-0.00137393
0.00272945
-0.00103278
-0.000600005
0.00140712
-0.000469157
-0.000513027
0.012137
-0.00322453
0.00191728
0.000722261
0.0005038
0.00027611
0.00103325
0.000343061
-0.000679614
-0.000440445
-0.000813398
-0.000103627
0.000200363
0.000436844
-0.0449435
0.00127605
0.00114228
-0.000401275
-0.000449926
0.000956915
-0.000228891
-8.06061e-06
0.000417868
-8.06306e-05
-0.00378682
0.00132198
0.000433409
0.000314827
-0.000453541
0.00258182
0.000422523
0.00170966
0.000164262
0.000382016
-2.22416e-05
-0.00148468
0.000278832
0.000106249
-0.00432826
-0.000206351
0.000874436
-0.00238276
0.000750261
0.00148143
-0.000986192
0.000171046
0.000295622
-0.000496755
-2.35614e-05
-0.000338249
-0.00169354
0.000542005
0.0010232
0.000422294
1.2986e-05
0.0001639
1.5746e-05
1.25311e-05
0.000210371
-0.00198646
-0.00862005
-0.0018949
-0.00293132
-0.00310483
-0.00103212
-0.000193872
0.000146103
-0.00317391
0.00101579
-0.000335635
-0.00187022
0.00103456
-0.000295243
6.50911e-05
0.000606072
-0.000474457
0.00346639
-0.00226267
-0.00307875
0.000299494
3.82158e-05
-0.000326527
-0.000135481
0.000178938
0.000195886
-0.000433012
-0.00414045
0.0029614
-0.00332169
-0.016406
-0.00156945
0.000450587
0.000326961
0.00216767
-0.000617441
-0.00233975
0.000227956
-8.8171e-05
0.000531855
0.00223744
-0.000262345
-0.000227619
-0.00399218
0.000277288
0.000665134
-0.00107054
0.00373829
-0.0062902
-0.00500829
-0.0029756
-0.00210978
0.00140515
-4.6226e-05
-0.000638068
-0.00014257
0.000176702
-0.000512571
0.00109971
-0.000893328
-0.000484485
0.00021746
-0.000827874
-0.000486713
0.00059851
-0.0019734
-0.000508552
-0.000229841
0.000266376
-0.000412642
-0.00037911
-0.00111171
-0.00125535
0.000213804
-3.07873e-05
6.7764e-05
-0.000442573
-0.00274431
-0.00272949
-0.000872126
-0.000721493
0.00163542
-0.000353276
-0.00157096
0.000187821
3.51085e-05
0.000536516
-0.000614184
-0.000353125
-7.60721e-05
0.000895387
0.00116584
-0.000110815
5.92903e-05
0.000396337
-0.000213864
-0.000275228
-0.00124804
0.000620732
1.807e-05
0.000221988
-0.000415895
-0.000291574
-0.000192457
0.000107333
-0.000829718
-5.62868e-05
-0.000339664
-0.000223335
-8.17275e-05
0.000234118
-0.000310278
-0.000235795
0.000189893
-0.000483665
0.000383328
0.000968545
-0.000102093
0.000289989
9.22462e-05
-0.000291892
8.08751e-06
-0.00133522
-0.000634519
-8.5359e-05
0.000581956
0.00023125
4.06803e-05
0.000266543
-0.00027506
-0.000555
7.96763e-05
-0.000248077
0.00103031
0.00126892
0.000135971
0.000607008
-0.000141979
-0.00043962
0.00097318
-0.00062448
-0.000188637
1.91463e-05
0.00440356
0.00116576
-5.28394e-05
0.000852679
-0.000861524
-0.000346076
-0.00047372
0.00354593
0.00044021
-6.88247e-05
0.000399558
-0.000247608
-0.00030021
-0.000434233
0.00272673
0.000965161
0.00022311
0.000197458
-1.93932e-05
0.000418754
-0.00028534
-6.48555e-05
0.000347052
0.00313768
-3.27753e-05
0.0116225
0.000344081
0.000300272
-0.000273678
-5.60882e-05
0.000415081
0.000100159
0.000282759
-0.00127681
0.000339735
1.02155e-05
-0.00105853
-0.00107677
-0.000198721
0.000111992
0.000134331
0.000169286
0.000225735
0.000236994
-0.000299171
-0.000132033
-0.00190993
-0.0176735
-0.00486531
-0.00216458
-0.00201181
-0.000149533
-2.39265e-05
-0.0114746
-0.000283741
-0.00459143
-0.0010097
-0.000603285
0.000602743
0.000835801
-0.0104913
-0.00313984
-0.00137231
-0.000688139
0.000419939
5.00177e-05
-0.00640806
0.00193198
-0.000138232
-0.00123055
-0.00046009
-7.12481e-05
-0.00210147
-0.00151493
-0.000711361
0.000315037
-0.0104325
0.00154229
0.000859966
0.00141515
-9.5935e-05
0.00088055
0.00032071
-0.000298334
-0.000941687
-0.000127536
0.00121348
-0.0031764
-0.000992037
-0.00125394
-0.000407663
0.00046691
-0.00253038
0.00195839
0.000137075
-0.000137615
0.000584899
0.00299563
0.000720116
0.000105188
0.000320025
-0.000318475
0.00017702
-0.000295869
-6.17045e-05
-0.000650298
-0.000559388
0.000583775
-0.000362168
0.000547334
9.92939e-05
0.000248724
-0.000281899
0.000280702
0.00209984
0.00131335
-7.28269e-05
0.000160037
0.00827957
0.000794297
7.21346e-05
0.000588307
-0.000284465
3.37965e-06
-0.000304363
-0.000955675
-0.000493864
-0.000371092
0.000297959
-0.00286855
0.00236233
0.000883212
0.000936768
0.000405874
0.00106175
0.000121196
-0.000417891
0.000454767
0.000171844
0.000611638
-0.000361717
0.00301092
0.00206846
-0.000465611
5.23471e-05
-0.00373153
1.38301e-05
0.00217668
0.000384166
-0.000294277
0.000128906
-0.000630296
0.00460874
-0.000349708
0.00113497
-5.25744e-05
-0.000240564
0.000279113
0.00647865
-0.00019722
0.00083848
0.00201308
-0.000222626
-9.17247e-06
-0.00285068
-0.000484386
0.000213288
-0.000269519
-0.000229499
5.54246e-05
0.00191846
-0.000168332
0.00052516
-0.000131082
-0.000180723
9.66497e-05
0.00666002
-0.000379656
0.00015182
-0.00019764
-0.000171568
0.000156756
0.0025399
-0.000469443
-0.000113036
-0.000349947
-0.000153026
8.45755e-05
0.00139311
-0.00026343
0.000949592
0.000389612
8.70589e-05
0.000254962
0.00112749
-8.6857e-05
0.000119541
0.000396262
-8.46108e-05
4.97235e-05
-9.04659e-05
0.000924015
0.00038677
-1.76821e-05
0.00026486
-0.000109053
0.000211777
0.0020235
-3.81477e-05
5.42411e-05
-0.000959779
0.00554635
-0.000331435
0.00373526
0.00138431
-0.000283513
-1.0569e-05
0.00348579
-0.000115686
-0.00174511
-0.000394266
0.000254722
0.000270045
-2.64095e-05
0.000967951
0.00199324
0.000673928
0.00230883
0.000317603
0.000770341
-0.00019098
0.000349561
-0.000407397
0.000171003
0.000459525
0.00167746
0.0019253
0.00066951
0.00241263
0.000227182
0.000863424
0.000374565
-0.000363521
0.000331554
0.000561648
-0.00108338
-0.00165593
0.000291012
0.000294368
0.000262161
3.20355e-05
0.000268153
0.00416317
0.000228268
0.00109793
-0.000600587
-0.000237193
-0.000207963
0.00096035
0.000739776
-0.000776987
-0.000189164
0.00256593
0.00130071
-6.33841e-05
-0.000766226
-0.000236686
-1.64658e-05
-0.000281569
-0.00139757
-0.000529689
4.07901e-05
-0.000159036
-0.000855605
0.000628859
4.08163e-05
-0.000296904
-0.000177836
-3.75086e-05
-0.000496323
-0.00123998
-0.000509769
-6.64682e-05
-0.000378541
-0.00155439
0.00201062
-8.441e-05
1.85523e-05
-0.000205045
1.82194e-05
0.000459813
1.24202e-05
0.000918776
-6.0885e-05
0.00224921
-0.000300242
-0.00049889
-0.000605923
7.97429e-05
-6.12122e-06
-0.000737586
-0.00044168
-0.000194577
-5.1047e-06
-0.000351566
-0.000144116
-0.00101824
0.00155186
0.00124214
0.00249472
-0.000243466
0.0153378
-0.00027066
-0.000690428
-0.000391496
-0.000212229
-0.000110035
0.00018182
0.0010303
0.000591004
-0.000713457
0.000370069
0.000294561
-6.67965e-05
0.00566122
0.00020028
-2.98202e-05
0.000152242
0.000479389
0.000340438
-0.00010488
0.00166143
-0.000986408
-0.014958
0.00284978
0.00151744
0.000125206
0.0108237
0.00025093
0.00148644
-0.000394212
-0.000178486
-9.17394e-05
-0.000109017
-1.65945e-05
-0.000334491
0.000523987
0.000172928
0.000186158
1.73667e-05
-0.000204754
0.0010923
-9.46882e-05
0.00176594
9.46682e-05
0.000222349
0.00013801
-0.000295698
2.76503e-05
-0.000268094
0.00093109
0.000237559
0.000103117
2.99851e-05
-0.000104552
0.00294407
0.000172426
0.000991653
-0.0017698
-0.000277252
0.00124009
1.59935e-05
0.000487395
0.000132594
0.000267602
0.000131793
0.000590317
-0.000273624
0.000798027
-0.000102477
0.00044173
7.12951e-05
-0.00017135
0.00091396
-0.000107008
0.000594056
2.56683e-05
0.000629454
1.73575e-05
-0.000249588
0.00409122
-0.000171201
0.00116723
0.00102627
0.000100843
4.916e-05
-0.000133011
0.00105057
0.000409842
0.000124026
-8.41784e-05
0.00035947
0.000135599
7.99078e-05
0.00512862
-6.65946e-05
0.000390286
0.000170335
0.000203988
-2.38228e-05
-0.000533672
0.00892373
0.000381802
4.03814e-05
0.000376569
0.000162398
2.42685e-05
0.00252205
0.000443928
0.000208091
0.000177825
0.000839185
0.000128381
0.00160883
0.00045587
0.000693991
8.90013e-06
0.00124013
6.74171e-05
0.00302364
-0.00148239
-6.88079e-05
-0.000641136
-0.000121743
-0.000105398
0.000121302
-0.000249037
-0.000578033
0.000484228
3.13324e-06
-0.00198516
-0.00526395
-0.00117781
-0.00247038
-0.00101309
-0.00139014
0.000426835
0.00381811
-0.000373452
-0.00186009
0.00830838
-0.00654397
-0.00123703
-0.00379364
-0.000938337
-0.00130527
9.3311e-05
0.000569442
-0.000993312
-0.000236882
0.00374569
-0.00115815
0.000169486
0.000304966
2.97098e-05
9.47248e-05
0.00090656
0.00458195
0.000321125
-0.000543399
-0.000136316
-0.00129766
0.000381182
0.000100404
0.000570429
-0.000106223
0.0001364
-0.000226742
0.000132569
-0.000347194
-0.000181596
-0.000117616
-0.000570274
-0.000977205
7.99272e-05
-0.000383899
-9.90211e-05
3.12898e-06
-0.000138128
4.32814e-05
-0.00125637
-6.94004e-05
-0.00010785
-0.000434911
0.000538452
0.000276893
0.000771881
-5.62846e-05
0.000372814
0.00116678
0.00343581
0.00127371
-0.000443545
-0.000419852
-0.00148013
-0.00179727
0.0015739
0.00164941
-0.000920623
-0.000315242
-0.00132493
0.0116693
0.00022473
0.000175669
0.000750315
5.16551e-05
0.000230767
0.000371389
0.000118236
0.000309045
-0.00018629
-0.000307421
-0.000786093
-0.00136817
9.51153e-05
0.00104964
-8.61563e-06
9.79786e-05
-0.000525524
0.000165248
-0.000362283
7.54382e-05
-0.000282706
0.00552046
-0.000853194
9.91379e-05
0.000797585
-4.37091e-05
0.000126044
0.000188403
-9.82573e-07
-0.000389341
0.000305254
-0.000161037
0.002174
-0.000752399
0.000130135
-0.000762364
-0.000169028
0.000181299
-0.000423466
0.000746415
-2.26161e-05
-8.55443e-05
-0.000115425
0.00648033
0.000255198
0.00021856
0.000371921
-4.33582e-06
0.000289659
0.000111186
-0.00027396
-0.00113345
0.000331715
-8.78641e-05
-0.00218023
-0.00101895
0.000357295
0.00068161
0.00019032
0.000300912
0.000162146
0.000515397
-0.00036905
0.000217214
-0.000183328
-0.00187983
0.0017027
0.000633027
0.00169363
0.000316724
0.000607293
3.79222e-05
-0.0130477
-0.000161214
0.00123785
-0.000211508
0.00986433
0.000313223
0.000156228
-9.01396e-05
0.00103281
3.17442e-05
0.00178215
0.000557012
-0.000743073
-0.000424882
0.000732872
-0.000445745
0.000272277
0.00161205
0.000609781
0.00254898
0.000149674
0.000425669
-0.000933847
-0.00265516
-0.00028055
0.00134862
0.000270953
0.0171713
9.19485e-05
0.000607799
0.00175172
0.000416088
0.000287275
-0.00121359
-0.0565852
0.000301585
0.000195152
-0.000133432
0.00322582
0.000563374
0.000587199
-0.000256512
0.000409952
-0.000345564
0.0132147
-0.00207812
0.000304342
4.13709e-05
3.79355e-05
-1.32975e-05
-0.000966678
0.000557487
0.000368966
-8.4795e-05
-0.000158304
-0.0119874
0.000176013
0.000524225
6.84418e-05
0.000290507
9.38691e-05
-0.000197092
0.0102992
0.000218494
0.000193471
0.000656211
0.000260055
0.000131328
5.28846e-05
0.00173613
2.89362e-05
0.000403345
0.000485348
5.56585e-05
4.57873e-05
-0.000970503
0.015793
-7.12404e-05
-0.0236972
-0.00491957
0.00189353
0.00013582
0.010713
-0.000196358
-0.000594082
-0.000324556
0.000778902
-0.000125718
-0.059965
-0.00107901
-0.00595768
-0.00187922
-0.00162988
0.000386809
-0.022028
-0.00278966
-0.00111266
-0.000708364
4.70399e-05
-0.000223916
-0.0181488
0.00011615
-0.00208407
-0.000968391
-0.00028902
0.000267579
-7.63795e-06
-0.0230591
0.00131416
0.000482458
-0.000146403
1.96921e-05
0.000707426
0.000310832
-0.00171642
-0.00120708
-0.000352572
0.00106971
-0.0121383
-0.0010309
-0.00261419
-0.000402556
0.000480586
0.000227757
-0.00250183
-0.000245883
-0.000443312
-0.000503091
-1.28311e-05
0.000160941
-0.000239153
-0.0199506
0.000454108
0.000592811
0.000354662
-0.000142613
0.000536978
0.0227884
0.000908423
0.00130268
-0.000891643
0.000408151
-0.000356849
-0.00121935
0.000154288
0.000842668
7.02786e-06
-0.00184931
-0.000278583
-0.000717859
0.000339493
0.000367677
-0.000458499
0.000297628
-0.00608972
0.00139354
0.000383089
-0.000248077
-0.00338412
0.000211658
-0.000597365
-0.00010804
-5.44393e-05
-0.000458362
-0.000158123
-0.000810042
0.00145842
-0.00060368
0.000193974
-0.000481172
0.00663484
0.000608549
-0.00143554
-0.000395687
-0.000223675
-0.000529534
-9.44963e-05
0.00109334
-0.00248308
-0.000995785
0.000628218
-0.000331756
-0.00149078
-0.000141625
-0.000920651
-8.08789e-06
-0.000207968
-0.000743579
-0.000339354
-0.0180262
-0.00159985
-0.000296002
0.000120398
-0.000626524
0.000337444
0.000389769
-0.00146333
-0.000319613
-0.000159182
-0.000745456
-0.000361016
-0.0197011
0.00126927
-0.000296381
0.000385878
0.000120651
-0.000661629
0.000284466
0.00094014
0.000319255
1.71666e-05
-0.000466153
-0.000124796
0.00108108
0.00585524
-0.000938857
0.000718241
-0.00021094
-0.000645492
0.000571858
0.00109777
0.000163565
-9.82579e-05
-0.00048755
-0.000273925
0.0287572
0.0008156
-0.000271823
0.000113527
-0.000676167
-0.00232062
-0.000366627
1.86991e-05
8.07698e-05
-0.000257594
-0.000565004
-0.000214589
-0.00215402
-4.83718e-05
0.00124244
0.00109461
0.0013739
-0.000844593
0.000915025
0.00126587
0.000699968
0.000248012
-0.000575838
0.000998549
-0.00686325
-0.0128383
0.000963872
-0.00100241
-0.000927363
-0.000754209
-0.0025806
0.000137785
-0.0011372
-0.000350345
-0.000428609
-0.000462737
-0.000557413
0.00511879
-0.0134129
0.00186942
0.000628076
-9.11511e-06
-0.000234693
5.74174e-05
-0.000506382
-7.14684e-05
0.000553547
0.000463503
-0.000658058
0.000815506
0.00184521
-0.00046353
1.68758e-05
0.000577185
6.50939e-05
-0.00056987
0.000701744
0.00065413
0.000408654
2.41619e-05
-0.000177862
0.000275787
0.00548918
0.000551081
-0.000268215
0.000938367
-0.000193113
0.00206041
0.00256811
0.00133587
0.000217645
-0.000217029
-0.000713732
-0.000500544
0.0367686
0.000242796
-1.34113e-05
0.000798524
2.09009e-06
-0.000310665
-0.000189387
0.000353137
0.000261815
8.85512e-06
-0.000208371
0.000106733
-0.000605554
0.00743814
0.00299243
-5.89484e-05
0.00137566
0.000223997
-0.000461988
0.00103935
0.00251955
0.000271864
-0.000205539
-0.000391477
-0.000147396
0.00635545
-0.010492
0.000232482
-7.15725e-06
-0.00120605
-0.000138409
0.000200941
0.000350824
0.000193437
-0.000287094
-0.00708139
0.000791025
0.00105121
0.00314689
0.00159323
-0.000181429
-0.00206886
0.000771617
0.000795133
0.000841853
0.000988236
-0.00266903
-0.000177066
0.000791455
-0.00213168
-0.000783224
-0.00165107
-0.00306455
0.00144776
0.000330911
0.00175357
-0.00158102
-0.00108586
0.000520811
-0.00355107
-0.00174719
-0.000800155
-0.00153824
-0.00236753
-9.59658e-05
0.00104724
-0.0013234
0.00108875
-7.77338e-05
-1.10078e-05
0.00117612
-0.0010409
0.00294635
0.000352327
-0.0012803
0.00136194
-0.000513416
-0.00586013
-0.00332536
-0.00232487
-0.00171673
-0.00279518
-0.000637706
-0.00424517
-0.0033701
-0.00340439
-0.00120541
0.00212863
0.00364155
-0.0014388
-0.000707011
7.89952e-05
-0.00249124
-0.00122971
-0.00123144
-0.000571996
-0.00230981
0.00475695
-0.00201123
-0.000954318
-0.00134848
0.00103392
-0.00104609
-0.00801072
-0.00661458
-0.00573985
-0.00150198
-0.00388181
-0.00128687
-0.0014835
-0.00256341
-0.00306084
-0.00354677
0.00298297
0.0029974
-0.000336715
-0.000663041
-0.00371437
-0.0022462
-0.00218187
1.84328e-05
-0.00264139
-0.00152667
0.000861506
-0.00119725
0.00260264
0.00557434
0.00492418
0.00146215
0.00512235
0.00370031
0.00485643
0.00201285
-0.00304028
0.00454608
0.00331004
-0.00273679
-0.000488428
-0.00192881
-0.00122187
0.000973174
-0.00321135
-0.00312737
-0.00692511
0.0016188
0.000587574
-0.00144818
-0.00104093
-0.00147709
-0.00248319
-0.00193299
-0.00403414
-0.000417126
-0.0023049
-0.00167451
-0.00253864
-0.0120141
-0.00310792
-0.00406605
-0.00742793
-0.00299839
-0.00203277
-0.00143278
0.0183059
-0.000741461
-0.000575957
-0.00615217
-0.00402141
-0.00167908
0.0147155
-0.00151153
-0.00695009
-0.00251068
-0.00589561
-0.00452409
0.000109874
0.00109315
0.00245658
-0.00619944
0.00835619
-0.00308678
0.0041356
-0.00150563
-0.00240957
2.86108e-05
-0.0024515
-0.0015145
0.00858544
-0.000335969
0.00594548
-0.0010734
0.0121104
0.000954339
0.00189534
0.000290625
0.00194395
0.00136923
-0.00385041
0.00248937
-0.00277574
0.00363029
-0.00238503
0.00397602
0.00288488
-0.00049422
0.00993746
-0.00435352
0.00190096
-0.0150379
-0.00322798
-0.00138366
0.0025999
-0.0024816
0.00534487
-0.00319386
0.00116001
-0.00307476
0.0277101
-0.000419944
0.0562496
0.0113265
0.000340804
0.00396869
0.000249273
0.000456836
-0.00713606
0.00746603
0.000162853
0.00050858
-1.19804e-05
0.00253377
0.00221702
0.00151329
0.00547457
-0.00451018
0.00323388
-0.0322681
-0.0159488
0.0164017
0.0248282
0.0013471
-0.0084573
0.0223786
-0.0576944
-0.0230957
-0.0274087
0.00157655
0.0093026
-0.00171504
-0.00376446
0.000723279
-0.00445328
-0.00232086
-0.00226209
-0.00420425
-0.0215554
-0.0199535
-0.00141431
-0.008661
-0.00860184
0.0108209
0.00583833
-0.0088599
-0.00442994
-0.0115323
0.000837929
0.000809166
0.000428137
-0.00218265
-0.00885012
-0.00884014
-0.00693743
-0.00358842
0.00653183
-0.0020241
-0.00776051
0.00341978
0.00322217
-0.00484729
-0.00471033
0.0131066
-0.0022744
0.0044691
-0.0105792
0.00103908
0.000775137
0.00144033
-0.00529074
-0.0108384
0.00103059
-0.00460264
-0.00911049
0.00149241
0.00190984
-0.00171413
-0.00251422
-0.00471947
0.0177829
0.00813432
-0.00235208
0.00834775
0.0140378
-0.00614691
-0.0213583
-0.00905237
0.00379321
-0.0248765
-0.00338514
-0.00127386
-0.00131544
-0.00223538
-0.0038553
0.00957245
-0.00757074
0.014165
0.0005125
-0.000347817
-0.00860036
-0.00554407
-0.000705631
0.00783188
-0.0106834
-0.0006739
-0.00443485
-1.56523e-05
0.0012584
0.00453479
0.00295744
-0.00535719
0.00208318
0.00075848
-0.000288772
0.0275578
-0.0179909
0.00337393
0.000570542
-0.0100869
0.000682576
-0.00275028
-0.0114743
-0.0128114
-0.00912694
-0.00220756
0.00278564
-0.00708501
-0.00686755
-0.00228882
-0.0176824
-0.0020135
-0.00278582
0.0243241
0.000102712
0.0021838
-0.000301694
-0.000211057
-0.00506722
0.000873312
-0.00280463
-0.0009488
0.00620981
-0.0241934
0.00153043
0.00955603
0.00433935
0.00495841
-0.002399
0.00852992
0.00939333
0.00584988
0.00210034
-0.00223467
0.000517677
0.00903324
-0.00639968
0.000289704
0.00308395
0.00444225
-0.00436006
-0.00438178
0.00158095
-0.0006636
-0.00428234
-0.00447191
-0.000346179
0.0226057
-0.00209074
-0.0179998
-0.00795124
0.00564792
0.00148836
-0.00133054
-0.000203699
0.00113792
0.0005218
-0.000136146
0.0103956
-0.00265682
0.00364899
0.000751188
0.00979691
0.00110062
0.0083208
-0.00370686
-0.00460871
0.00197007
0.00440177
-0.00199807
-0.00352788
-0.00158094
0.00170111
0.0209008
0.000133676
-0.00350685
-0.00108736
-0.0107521
-0.0294032
0.00505423
0.00530474
-0.00261193
0.00159545
0.00607681
0.00424348
-0.0141284
-0.0418801
-0.00726857
0.0133126
0.0106387
0.00983498
0.0125549
-0.0024621
-0.0582921
-0.0999996
-0.100885
-0.0131932
-0.0280652
0.00922024
0.00341648
0.0058967
0.00999077
-0.0226083
0.00380565
-0.0634987
-0.000419702
-0.0189606
0.012738
0.00454894
0.00226259
0.0528105
0.018644
0.00553448
0.00647378
0.0324466
-0.00289309
0.00614833
-0.023253
-0.00226211
-0.00246686
-0.0145489
0.004852
0.00321646
0.00219346
0.026922
0.00659341
0.018346
-0.00388625
0.00229999
-0.0151196
-0.0206429
0.00418959
0.00271909
0.00374388
0.0162084
-0.0047665
0.00438865
0.00270918
-0.00344342
-0.0151261
-0.0132133
-0.000626553
0.0051394
0.0373121
0.010045
0.000123341
0.00629159
0.00696602
-0.00185594
0.00305055
-0.00187859
0.00282034
0.0121314
0.00432872
0.00251656
0.00376963
0.00623373
0.00350086
0.00693355
0.00389578
0.00540527
0.00288155
0.0336476
0.00360122
0.00111575
0.00228086
-0.0153221
0.0124622
0.0132623
0.0208832
0.00307214
0.0397325
-0.00742247
0.01631
-0.000557908
0.00604107
-0.0555422
-0.01928
-0.00847299
-0.0177048
-0.0107498
-0.0562449
-0.00307006
0.0013883
0.000880081
-0.00704276
0.00245411
0.00169638
0.000957455
-0.00501042
0.00162595
-0.000179287
-0.049755
-0.00294303
0.000398064
-7.56525e-05
-0.00201014
0.0031519
0.026115
0.0053698
0.00478182
-0.0103959
0.00242614
0.00218677
-0.00162721
0.00354366
-0.00495627
0.0040114
0.000900047
-0.0107116
-0.00413059
-0.00390146
-0.00245745
-0.00750192
0.00420039
0.00169355
-0.00246353
0.00711458
0.0193338
-0.0424403
0.0015937
-0.00021199
-0.00275178
-0.000574392
-0.00258602
0.00764932
0.0344137
-0.00137887
-8.4154e-05
0.0460381
-0.00200567
0.00464133
-0.0438938
0.00161978
-0.0570717
-0.00275784
0.046049
0.00340327
-0.00522466
-0.018792
0.0130231
0.0205083
-0.00221695
0.00956333
0.0102082
0.000362942
0.010464
0.00279221
-0.00741643
0.00498533
0.011785
-0.0221912
0.00670645
0.0119286
0.00587208
-0.00347049
0.0297237
-0.00187986
0.00850633
-0.0281134
-0.0195108
-0.0333056
-0.0217938
-0.0362947
-0.00361018
-0.00497644
-0.00308981
0.0129425
0.00642703
0.00649393
0.000898009
9.22594e-05
-0.000501751
-0.00684868
-0.00691986
-0.00127658
-0.00730854
0.00131025
0.00448365
0.0122268
0.00143099
-0.00751837
0.00257043
0.0310938
0.0302612
-0.00550455
0.00107824
-0.00836128
0.00261362
-0.0334914
-0.00297786
0.00772148
0.00961052
-0.00162858
0.0231209
-0.028199
0.0210286
-0.00303955
0.00900024
-0.0209283
0.00411558
-0.00373587
-0.0147724
-0.000529345
-0.00317372
0.00378257
0.00623149
0.0136714
-0.00646927
-0.00396534
0.00258393
-0.000569404
-0.000758929
0.00127175
-0.00167382
0.00153344
0.0096849
-0.00194624
0.00335791
-0.00343586
-0.00366274
-0.0148525
0.0164256
0.020155
-0.00152752
0.00442201
-0.00400184
0.0206018
0.0380996
0.0216159
0.00339166
-0.00415767
1.17194e-05
0.0523936
-0.0458279
-0.0513446
-6.59945e-06
0.000859538
-0.00452621
0.0147572
0.00795457
-0.000481451
-0.00572155
-0.0125908
-0.000635624
6.54408e-05
-0.000197255
0.000374594
0.00148282
-0.00517992
-0.00992855
-0.0192929
0.000709217
0.0198267
-0.00280332
0.00730577
-0.0203348
0.00535332
0.0139517
0.00331248
-0.00218216
0.0259783
0.0409359
-0.0119799
-0.00885602
0.0126814
0.0444336
-0.0183945
0.00811626
0.0108629
-0.00161866
0.0360041
0.0284795
-0.00211897
0.00133554
0.00895521
-0.0022689
0.00181164
0.0413217
-0.023345
0.00177097
0.00296639
-0.0117427
-0.00937425
-0.00991745
0.00309401
0.013928
-0.00273685
0.00102754
0.000479338
0.0120978
-0.00214935
0.0196707
0.00314455
0.000896976
-0.0411952
-0.0701056
-0.00197219
-0.0113249
-0.00709557
0.00296622
0.00341663
0.0034276
-0.00258864
0.00103665
-0.00997351
-0.00690838
-0.00474398
-0.00435757
0.000503921
0.000207283
-0.0139127
-0.0313553
-0.00177077
-0.00252649
-0.000379273
0.00737131
0.0140891
-0.00674281
-0.00311081
-4.38947e-05
0.00220286
0.00345544
0.00220599
0.00498256
0.00691762
-0.00432207
0.00167681
0.000515195
-0.00012667
-0.000789126
0.00192723
-0.0019705
-0.0289881
0.0031099
0.000443604
-0.0122477
-0.0118402
0.00135737
-0.00228821
-0.0186108
-0.00339962
-0.0061113
-0.00190441
0.00792819
0.00675654
-0.00288682
0.00125647
-0.00189392
-0.00359706
-0.022623
7.67856e-05
-0.00590613
0.00424204
-6.83774e-05
0.00343557
-0.00863768
-0.000563049
-0.00248961
0.000314874
0.00711245
-0.000148809
0.00221436
-0.000618736
-0.000431267
-0.00326451
0.00295499
-0.00209057
-5.43048e-05
0.00237141
-0.00134104
-0.00131703
-0.000176335
0.00156575
0.0286336
-0.00153242
0.00155318
-0.000848435
-0.00160685
0.00512094
0.00360833
0.0049514
-0.00197975
0.00215397
-0.00270305
0.00230766
-0.00126422
-0.00320012
-0.00337787
0.000737133
0.00383606
0.00626253
0.00321478
-0.00227557
-0.00210111
-0.00268101
0.00170748
-0.000344448
-0.00175043
0.00418934
0.00173856
-0.0011974
0.00380241
-1.40919e-06
0.00624257
-0.00753229
0.00743005
-0.00382159
0.00125984
-0.00267386
-0.00515488
0.00275555
0.00237533
0.00370902
-0.00325773
-0.000129084
-0.000554703
0.00185455
-0.000762662
-0.000610092
0.00223336
-0.000112874
-0.0298686
0.0133476
-0.00194508
0.00292503
-0.0271609
-0.000840335
-5.04576e-05
-0.00111397
-0.000217814
0.000342577
-0.0034676
0.00787753
0.0207454
0.00248442
0.0281941
0.00925123
0.00318
0.0365931
-0.0003446
0.0109399
-0.00383248
-0.000513673
5.10726e-05
0.00102287
0.039971
0.00161617
-0.000425806
-0.000762984
0.00537034
0.0139665
0.00327631
-0.00162008
0.0051227
-0.000617158
-0.000309191
-0.00158588
0.0100069
0.000159384
0.000137039
0.000357638
-2.42624e-05
0.000269276
0.000223063
-0.00391008
-0.00725813
0.00950024
0.000514798
-0.0125832
0.00102902
-0.000260428
-0.00517918
-0.00106544
0.00938908
-0.00229724
-0.00138423
0.0020595
-0.00135045
-0.00109005
0.0337377
-0.00295064
0.000357204
0.000301004
-0.000598382
1.3849e-05
0.000451605
5.30279e-05
-0.000845894
-0.000550726
-0.00100214
-0.000256677
2.82464e-05
0.000490662
-0.0163993
0.00129845
0.000598711
-0.000502801
-0.000802992
0.00147391
-0.000782632
-0.00048268
0.000492761
-0.000362989
-0.00569792
0.00286431
0.000264149
0.000321878
-0.00063001
0.00123996
9.26285e-05
0.00199041
-0.000104381
3.39021e-05
-0.000414482
-0.00317799
0.00101504
0.000747011
-0.00859085
-0.00080804
0.00110759
-0.00465268
-0.000145208
0.00183491
-0.00181235
-2.13916e-05
0.000333683
-0.000952079
-0.000254048
-0.00103293
-0.00221009
0.00112121
0.00160648
0.00109681
-0.00128543
-0.000107139
-0.000313835
-9.72855e-05
-0.000140592
0.00371208
-0.0090895
0.0029391
0.002897
-0.0048987
-0.000329338
0.00018981
0.00100402
-0.00465206
-0.000546668
-0.00177708
0.010191
0.00295263
-0.000739232
-0.00045212
0.000695331
-0.00060917
0.00800393
-0.0010199
-0.000879507
-0.00150739
-0.000271378
-0.000933529
-0.000276599
-0.000257843
-0.00100634
0.0162034
-0.0047732
0.00671468
-9.09636e-05
-0.0216968
0.000217794
0.00034638
-0.000209032
0.0144823
-0.00183774
-0.00209302
-0.00138206
-0.00032544
0.00303113
0.00812886
-0.000801882
-0.000711305
-0.00136749
0.000530412
0.00142137
-0.00194751
0.00877717
-0.0086074
-0.00403109
-0.00183977
0.0012039
0.00914584
-3.29932e-06
-0.000615226
-0.000404657
0.0017009
-0.000918902
-0.000184392
-0.000998828
-0.000303285
0.000530073
-0.000852802
-0.000877118
-0.00703571
-0.00761185
-0.00720176
-0.00618708
-0.00564549
-0.00146288
-0.000161816
-0.0167059
-0.00218619
-0.00288932
-0.00438571
-0.00216702
-0.000320509
-0.0371788
-0.00595878
-0.00559528
-0.00363006
0.000588482
0.000270454
-0.0149409
0.00135633
-0.00201013
-0.000400944
-0.00346486
-0.000180514
0.00126058
-0.00993018
0.00314716
-0.00188981
-0.00150847
-0.00086022
-0.000185635
1.33973e-05
-0.0120466
0.00175999
-0.00128695
-0.00171184
-0.00285233
-0.000244134
0.000405437
-0.0076868
-0.00214202
-0.000431455
-0.00137057
-0.000693554
-0.000213012
0.000686258
-0.00203842
0.00282816
-0.00158194
-0.00438088
-0.00488423
-0.00480275
-0.00027195
0.000172092
-0.000578169
-0.0003073
0.000326959
-0.00396277
-0.00238418
-0.000330862
0.000187385
0.000442418
0.00074159
0.000245112
-0.00198226
-0.00158332
0.000733908
-0.0122608
-0.00513292
-0.000163518
0.000345509
0.000909547
-0.000798259
-0.00112615
0.00180057
-0.0017001
-0.000302968
0.000190006
0.00588233
0.00160919
-0.000131964
0.000755437
-0.00200859
-0.000411886
-0.000473578
0.00434648
0.0006977
-0.00011836
-0.000314947
-0.000875625
-0.000358014
-0.000461622
0.00438923
0.000907508
0.000224637
0.000273048
-2.13262e-05
0.00062854
-0.00268265
-0.000679824
-0.00195853
0.00615768
-2.93664e-05
-0.000220217
-3.79575e-05
0.000315357
-0.000328767
-6.14418e-05
0.000656433
0.000138264
0.000194411
-0.00226298
0.00159395
6.58829e-05
-0.00271878
-0.00317876
-0.00186606
-0.000926253
5.68711e-05
0.000389179
-0.00500721
2.04317e-06
-0.00102187
0.000125801
-0.000416091
0.00127246
-0.00220825
-0.0021288
-0.00155055
0.000123462
0.000303821
-0.00589861
-0.000590545
-0.00294045
-0.000929134
0.000225585
0.000282776
0.00033539
-0.00416504
-0.0015106
-0.00212436
0.00021838
0.000154351
0.000351284
-0.0057587
-0.00126254
-0.000635334
-0.00139036
-0.000697882
-0.000511512
-0.000658576
-0.00224215
-0.000375639
-0.000415651
-0.00471686
-0.00202886
-2.09288e-05
-0.000407797
3.54877e-05
-0.00020982
0.000157954
0.000815476
-0.00128554
0.000390049
0.000569538
0.00053344
-0.000360384
-0.0024396
-0.000499636
-0.000116061
0.0010647
-0.00505149
-0.0014308
5.91391e-05
-0.00046465
0.0122185
-0.00298501
-0.000519913
-0.00145362
-0.000476219
-0.000439692
-0.000490361
0.000495437
-0.000724813
-0.000441822
-7.48565e-05
0.00691589
-0.00235731
-0.000578735
-0.00207145
-0.000468174
-0.000516998
0.000759744
0.00445856
0.00145009
-0.000324841
0.0128787
-0.00172216
-0.000272956
-0.000728204
-0.000296872
-0.000356273
-8.39254e-05
-0.000827319
-0.000214635
-0.000223101
3.31141e-05
0.00186756
0.00124718
0.00278816
0.00176362
0.000176982
0.011448
0.000542586
-3.20945e-05
0.00133747
-9.17813e-05
0.00227867
-0.000508108
0.00286548
0.0055296
-0.00041279
-0.000299993
0.00165465
-0.000293919
0.00196517
0.00151108
-3.54903e-05
-0.0001138
-0.00109573
0.00910774
-0.000342884
0.00124458
0.000451022
-2.66203e-05
0.00019774
0.0162479
-0.000292082
0.000532882
0.00476355
-4.89639e-05
-0.00026976
0.00141975
-0.000507551
0.000468464
-0.000123793
-0.000105878
-8.35144e-05
0.00857244
-0.000271398
0.000870447
5.10071e-05
-1.55323e-05
-9.42169e-05
0.0171923
-0.000355549
0.000111003
-1.58912e-05
-3.61952e-05
9.2725e-06
0.00714644
-0.000580662
0.00015488
-0.000554793
-3.2905e-05
-5.92864e-05
0.00583025
-0.000263388
0.000816646
0.00179346
0.000616777
0.000119289
0.00515011
-0.00280351
-0.000396652
-0.00169463
-0.000232171
-0.000560499
-6.86674e-05
0.000724807
0.0016064
0.000174987
-0.000104412
-0.000492411
-0.000476181
0.00442566
8.52163e-05
-0.000331211
-0.00151421
0.012594
-0.000603338
0.00357742
0.00265034
-8.36235e-05
-0.00024198
0.0039282
-0.000383389
-0.00289302
-0.000570201
0.000273634
0.000219628
7.51203e-05
0.00396358
0.000396792
0.000577263
0.00244502
0.000408175
0.000479381
-2.23296e-05
0.000520249
-0.000688291
0.00052018
0.000425358
0.00497814
7.35515e-05
0.000344121
0.00172166
0.000240395
0.000440623
0.000575791
-0.000574602
0.00082508
0.000698062
-0.00155488
-0.00255788
0.00114469
0.000278516
0.000121433
-0.000109891
0.000271068
0.0120558
0.000166585
0.00386129
-0.000661304
-0.000392706
0.000946587
-7.42608e-05
0.00283129
-0.000651246
-0.000254213
0.00717409
0.00039776
-0.000208185
-0.000356802
-0.000337523
-9.99876e-05
-0.000280051
-0.00205399
-0.00064137
0.000295714
-0.000215786
0.000808999
-0.000753842
-0.000119355
0.000112917
-0.000286822
-0.000219395
-0.000512979
-0.00148877
-0.000343205
0.000165264
-0.000452078
0.000608623
0.000274053
-0.000624528
-0.000867737
-0.00065084
-0.00047006
0.00017346
0.00105106
0.0021749
-0.000250052
0.00768941
-0.000433525
-0.000993521
-0.00134266
0.000254908
-0.000235471
0.000527057
-0.00213868
-0.000481756
0.000207692
-0.00060232
-0.000436662
-0.00128148
0.00181457
0.00585385
0.0059977
-0.000488953
0.0309468
-0.000174705
-0.00140731
-0.000684685
-0.000199218
-0.000313852
0.000674258
0.00148164
0.000942327
-0.00145429
0.000669842
0.000216321
0.000101846
0.0130942
0.000512583
-0.000215497
0.000791991
0.000832632
0.000367878
0.000137495
0.00536844
-0.00179633
-0.023795
0.0053006
0.001324
0.000217012
0.0208045
0.000587653
0.000454305
-0.000961644
-0.000502967
-0.000499383
-0.000227425
0.000171476
-0.000428047
-8.19815e-05
0.000345295
3.15745e-05
-0.000141092
-0.000221169
0.00433681
7.74312e-05
0.000556789
0.000406866
0.000270491
9.79232e-05
-0.0003
0.00160974
-0.000290523
0.000533401
0.00084911
-8.02808e-05
-8.58632e-05
-6.71141e-05
0.00851851
-0.000182425
0.00336314
-0.00274614
-0.000596697
0.00530276
0.000232133
0.000560621
0.000626548
0.000391988
9.597e-05
0.00219158
-0.00034573
0.000465957
-4.64336e-05
0.000419492
-6.70458e-05
-0.000233142
0.00290166
-4.26934e-05
0.000408106
0.000401672
0.000929769
-9.71842e-05
-0.000362897
0.00941605
1.86548e-05
0.000614659
0.00116884
-0.000146465
-0.00018235
-0.000116476
0.00444054
0.000792728
0.000238678
0.000470418
0.000800792
4.77747e-05
0.000290424
0.00816957
0.000175932
-0.000447625
0.000436122
-0.000203404
-0.000115271
-0.000414504
0.0122203
0.000129429
0.000344584
0.000687003
8.04744e-05
0.000106826
0.0109749
0.000737431
1.69056e-05
0.000271043
0.00105229
6.33572e-05
0.0034184
0.000870142
-0.000539508
0.000973114
0.00234167
-0.000110869
0.00346452
-0.00372553
-0.000258662
-0.000853354
-0.000236529
-0.000516722
6.77337e-05
7.22876e-05
-0.00123663
0.000888278
-0.000233873
-0.00671733
-0.0077827
-0.00162767
-0.00293094
-0.00138103
-0.00187526
0.000547567
-0.00448186
-0.000656475
-0.00330816
0.0037943
-0.00987433
-0.00179486
-0.00533398
-0.00137185
-0.00189464
4.76557e-06
0.0019965
-0.00193642
-0.000497261
0.0108169
-0.00273716
2.1914e-05
0.000484739
-6.20733e-05
-0.000106483
0.00047378
0.00150933
0.000342218
-0.00124052
-0.000221342
-0.00837984
-0.00109631
-0.000163965
0.000479202
-0.000307327
-0.000302714
-0.000298347
0.000232502
-0.000566054
-0.000193358
-0.000383921
-0.00163449
-0.00373206
-0.000281493
-0.00154023
-0.000335666
-0.000724858
-0.000105002
0.00016063
-0.00280012
0.000122859
-0.000318599
-0.000958625
-0.000230551
0.000278713
0.00124895
-6.26407e-05
0.000401324
-0.000157457
1.87872e-05
0.00232554
-0.00081248
-0.000743629
-0.0196899
-0.00303198
0.000379269
-0.00212642
-0.00240082
-0.000532312
-0.00231973
0.0110236
-0.000905161
0.000129592
0.00124814
-1.14031e-05
0.000196003
0.000145901
-0.000238881
0.000413069
-0.000397724
-0.000410971
-0.000647447
-0.00301013
-5.97993e-06
0.00181449
-5.27115e-05
3.593e-05
-0.00109783
0.000582724
-0.000525114
0.000134449
-0.000537355
0.0148392
-0.00237517
3.70101e-05
0.00150525
-7.58528e-05
0.000103835
0.000254741
0.000192637
-0.000474728
0.000387595
-0.000263899
0.00594083
-0.00327026
-8.52537e-06
-0.00135983
-0.00260203
-0.00165576
-0.00176636
-0.00525644
-0.00367204
-0.00182087
0.00041329
-0.015326
0.000549254
-8.85655e-05
-0.00115784
-0.000501944
0.000831045
0.000455386
-0.00249962
-0.00396177
-0.000952921
0.000829004
-0.0152694
0.000300816
0.000937486
0.00124197
0.000314587
0.0010325
0.000937997
-0.000355744
-0.00254138
-2.12347e-06
0.000555005
-0.00721432
0.00202515
0.000730814
0.00141593
0.000286093
0.00115422
0.000991253
-0.0421226
-0.00136637
9.29621e-05
0.000346445
-0.00869307
0.000822643
-0.00384985
-0.003188
-0.000301748
0.000949114
-0.029113
0.00150226
-0.00727805
-0.00191326
0.000425883
0.000456406
-0.00792529
0.00481952
0.00130655
0.00546211
0.000563102
0.00161366
-0.000510804
-0.00795948
-0.00341004
-0.00179551
0.0011358
-0.00141629
0.000405692
0.000838159
0.0023879
0.000698432
0.000683281
-0.00114875
-0.0852397
0.000222085
-0.000456239
0.000234198
-0.00228733
0.00084828
-0.00039195
-0.00105813
7.89166e-05
-1.7503e-05
-0.0114454
-0.00273355
0.000462891
4.43109e-05
0.000155832
0.000208536
-0.000924953
-0.000332763
-0.00684465
-0.0024186
0.000278673
-0.050822
0.000674933
0.000195725
-0.0010544
0.000353796
0.000320442
0.000152166
0.0127718
0.00051594
-0.00020054
0.000176967
0.000195604
0.000443288
0.000524494
-0.0103878
0.000365443
0.000366006
-5.82527e-05
-0.00152376
0.000424366
-0.000816033
0.0182295
0.000128039
-0.0392153
-0.00619016
0.00196188
0.000572075
-0.000666653
0.000140287
-0.00213844
-0.000427479
0.0013517
0.00012121
-0.0151594
0.000548108
-0.000365972
0.000251437
0.00450207
0.000235997
-0.0114073
0.000122029
0.000101759
0.000201805
-4.56276e-05
-2.7093e-05
-0.00178972
0.000368382
0.000286114
-0.0011386
0.000131198
6.33024e-05
-0.000205249
-0.0141306
-0.00196279
0.000327226
-0.000216848
5.84364e-05
0.000242383
0.000540736
-0.000280554
-0.00131318
0.00100891
0.000199042
-0.000643221
0.000247769
-0.00406136
0.000237276
-0.000275131
0.000309834
0.0183473
-5.37565e-05
0.00084766
0.000281775
0.000449718
0.000164468
-0.000402049
-0.0216564
2.81505e-05
0.001633
0.00361637
0.000536846
-8.77147e-05
0.031071
0.00144599
0.00345646
-0.000539049
0.00169693
-0.000815533
0.000230134
-0.00118695
0.000120733
-0.000456683
-0.000189788
0.000221865
-0.000441854
1.90715e-05
-0.000177618
-0.000882537
5.38425e-06
-0.00532122
0.00462872
-8.69752e-05
-0.000526923
0.000157588
0.00149606
-0.000346503
-0.000235132
-0.000415499
-0.000711723
-0.000396738
0.00688977
0.0044704
-0.000682201
-7.31275e-05
-0.000366514
0.00927834
0.00254655
-0.000107579
-0.000497605
-0.000571384
-0.000453334
-0.000149415
0.00532089
-0.00362089
-0.00157128
0.00010778
-0.000819713
0.00202489
0.000281801
-0.00142179
-0.000342573
-0.000663548
-0.00112515
-0.000824695
-0.0166658
-0.00131421
-0.000659044
-0.00146771
-0.00111691
0.00149211
0.00196117
-0.00211385
-0.000640927
-0.000520739
-0.00122788
-0.000784695
-0.0214827
0.00180863
-0.000667183
0.000142942
-0.000120988
-0.00100366
0.00125633
0.00194761
0.000193917
-0.00030256
-0.00076791
-0.000411326
0.00851715
0.00491564
-0.00197571
0.000303395
-0.00149605
-0.00157253
0.000879958
0.00144796
-0.000171132
-0.000384619
-0.000460138
-0.00083758
0.0301964
-7.71443e-05
-0.000773051
-0.000308364
-0.00186608
-0.00328441
-0.000463574
-0.000797795
-0.00018508
-0.000619092
-0.000450611
-0.000613606
-0.00312781
-0.00166146
0.000738716
0.00106626
0.00125859
-0.0016874
0.00272255
0.00210565
0.000654213
3.25117e-05
-0.00103125
0.000983972
-0.0013204
-0.0165796
-0.00340427
-0.00125045
-0.00115673
-0.00115553
-0.00046846
0.000366542
-0.00144759
-0.000722558
-0.000905522
-0.000710923
-0.000937769
0.0253193
-0.0264321
0.00458535
0.00056016
-5.73916e-06
-7.4811e-05
0.000445682
-0.00102688
0.000166188
0.000622901
0.000465114
-0.00100448
0.00102064
0.00169624
-0.000785759
-0.000719162
0.000131898
-0.000741933
-0.00142022
0.0012818
0.000526836
0.000178831
-0.000373659
-0.000344608
6.50725e-05
0.0109615
0.000824588
-0.000513262
0.000900515
-0.00103896
0.00174649
0.00187516
0.000812827
2.42361e-05
-0.00041492
-0.00119296
-0.000699635
0.0222916
0.000493116
-0.000218871
0.000736807
-0.000246162
-0.000217606
-0.000148328
0.000622953
0.000147294
-0.000261163
-0.000515188
2.32585e-05
-0.00168104
0.0173698
0.00537901
-0.000707373
0.00143518
5.80699e-05
-0.00100809
0.00424306
0.00381659
0.00022098
-0.000279766
-0.000716983
-7.37567e-05
-0.0161009
-0.0276651
0.000181947
-0.000317953
-0.00196719
-8.13829e-05
7.63349e-05
0.00024996
9.74451e-05
-0.000391286
-0.0105369
0.0012551
0.00151711
0.00493063
0.00248927
-0.00179702
-0.00186383
0.00244589
0.00174428
0.000386484
0.000830894
-0.00410041
-0.000517159
0.000805223
-0.00311486
-0.00125226
-0.00316911
-0.00454208
0.00130873
0.000405975
0.00244196
-0.00252123
-0.00141114
0.000533138
-0.00476447
-0.00234472
-0.00155013
-0.00185856
-0.00268136
0.00157447
0.00234604
1.38948e-05
0.00246112
-0.000899583
0.000558298
0.00254044
-0.00238473
0.00483916
0.0008772
-0.00196083
0.000692599
-0.00102325
-0.00603583
-0.00296299
-0.000605212
-0.000534317
-0.00225624
0.000984632
-0.00404508
-0.00228402
-0.00560322
-0.00263482
0.00301998
0.00436284
-0.00251447
-0.000836492
6.93796e-05
-0.0035063
-0.00180013
-0.00144806
0.000122661
-0.00236409
0.00682301
-0.00241199
-0.00138497
-0.00168133
0.0010231
-0.00138349
-0.010502
-0.00930447
-0.00746751
-0.00125772
-0.00394877
-4.16461e-05
-0.000516636
-0.00133948
-0.00313433
-0.00383452
0.00543315
0.0057554
0.000676798
0.00069768
-0.0061928
-0.00281703
-0.00170275
0.00204614
-0.0021323
6.83401e-05
0.000921436
-0.000704206
0.0024734
0.00742466
0.00676185
0.000884393
0.00631102
0.00414634
0.00700823
0.00185351
-0.00314488
0.00517246
0.00545947
-0.00170108
0.000449239
-0.00261137
-0.00154691
0.0002211
-0.00330615
-0.00264082
-0.0106676
0.00132414
-0.000131547
-0.000344278
0.00108239
0.000251579
-0.00185099
-0.0030168
-0.00679759
-0.00166539
-0.00270365
-0.00335596
-0.00190202
-0.0142158
-0.00359386
-0.00597666
-0.00970704
-0.00310557
-0.00160789
-0.00314948
0.0203095
-0.00311752
0.00437479
-0.00927399
-0.0052425
-0.00300674
0.0148028
-0.00316968
-0.0112499
0.0071829
-0.00939439
-0.00789744
-0.00238184
-0.0021291
0.00190742
-0.00871294
0.0066828
-0.00621061
-0.00304884
-0.00532554
-0.00444742
-0.00211731
-0.00647778
-0.00482473
0.00732234
-0.00198299
0.0015122
-0.00165943
0.00507271
0.000416474
0.00149264
-0.000772269
0.00124271
-0.000112841
-0.00827934
0.00102354
-0.00448515
0.00172314
-0.00484015
0.0031215
0.00408506
-0.00156315
0.010608
-0.0065117
-0.00184741
-0.0199605
-0.00407769
-0.00415331
-0.00255026
-0.00303761
0.00587706
-0.0127987
0.00715719
-0.00394012
0.018187
0.0118042
0.0414812
0.0132131
-0.000915185
-0.000113613
0.000288627
0.000386121
-0.0103269
0.00893948
-0.000168351
-0.00167307
-0.000943078
-0.00074929
-0.00176375
0.000234666
0.00419621
-0.0158383
0.00255549
-0.0322632
-0.00411289
0.0135802
0.0166315
0.00110241
-0.00739075
0.0268338
-0.0513151
-0.0145115
-0.0293646
0.000580802
0.00685062
0.000937594
-0.00622645
0.000243453
-0.00714246
-0.00209326
-0.00288891
0.00068201
-0.013806
-0.0132932
-0.0026751
-0.00761357
-0.00633464
0.00855758
-0.0020764
-0.00617293
-0.00243556
-0.0131308
0.000376325
0.000614955
-2.62015e-05
-0.00323277
-0.00234883
-0.016279
-0.00655455
0.000840902
0.00720605
-0.00307133
-0.00850113
0.00298759
0.00236487
-0.0088957
-0.0107769
0.00866564
-0.00337178
0.00143428
-0.0164082
0.00907935
0.000190468
0.00117381
-0.00692816
-0.00376681
-0.000376504
-0.00593582
-0.0135038
0.00219394
0.00455831
0.00617977
0.00680162
0.00428416
0.0411487
0.00212749
-0.0173559
0.0216894
0.0243898
0.00768027
-0.00916269
0.01168
0.00688128
-0.0457189
0.0175687
0.00640926
0.00338265
-0.00710377
-0.0118212
0.0140037
0.00338822
0.0351121
0.00827791
0.0142238
-0.0028363
0.0221114
0.00348657
0.0176423
-0.0129357
0.000272107
-0.00708992
0.00655209
0.00526275
0.0150941
0.019844
0.0045655
0.00846669
0.00435933
0.00625287
0.0475988
-0.00988906
0.0233474
0.0112274
-0.0175808
0.00762404
0.00169217
-0.0188063
-0.0251122
-0.0184799
0.00383981
0.00822453
-0.0148351
-0.0106007
0.00472273
-0.01553
0.00106938
0.000675753
0.028232
0.00620117
0.00497448
0.00342871
0.00250625
-0.010306
0.000991805
0.000544538
0.00281047
0.0114553
-0.00786368
0.00524881
0.00749812
0.00461561
0.00664846
0.00108498
0.0212341
0.0185725
0.00950599
0.00488843
0.00307322
-0.00160401
0.012438
-0.00636848
0.0108305
0.000766313
0.00370742
-0.00382207
-0.00140597
0.00440245
0.00127589
0.0001526
-0.00243047
-0.00546285
0.0221924
-0.00271786
-0.013157
-0.00972869
0.00899574
0.00232407
-0.000510992
0.000358555
0.00601489
-0.00777156
0.00110727
0.0169375
-0.000576813
0.00940753
0.00724662
0.00988861
0.00246713
0.00586577
-0.00703509
-0.00309652
-0.000812137
0.00242556
-0.00109393
-0.00213125
0.00348279
0.00371719
0.0223853
0.00194716
-0.00185179
0.000241996
-0.012503
-0.0177729
-0.000377076
0.00638875
-0.00267648
-0.000529678
0.00900722
0.00200198
-0.0166934
-0.021975
0.00398129
0.00173261
0.00333912
0.00139169
0.00453704
-0.00596992
-0.0208395
-0.0446957
-0.0466005
0.00357233
-0.0131716
0.0322428
-0.00600785
0.00277428
-0.013627
-0.0141825
-0.00621411
-0.0657544
-0.00753524
-0.0180073
0.00147768
-0.00124641
-0.00795704
0.0373172
0.0106151
-0.00598673
0.00232642
0.0170422
0.000539931
-0.00499689
-0.00978947
-0.00969222
0.0525391
-0.00351588
-0.000867506
-0.00072739
-0.0019536
0.0167069
0.00239201
0.0144818
-0.00499996
-0.00776623
-0.00822987
-0.0275407
0.00183978
-0.00071922
-0.00145716
0.0125437
-0.0109162
-0.000665256
-0.00063836
-0.00994815
-0.0264487
-0.0176551
-0.00459239
0.00294098
0.0319231
0.00212474
-0.00207825
0.00888718
0.00391025
-0.00475453
0.0111489
-0.00322026
0.00187798
0.00496118
0.00304198
-0.000614304
0.00212971
-0.000334267
0.00258788
-0.00347091
0.00241352
0.0044642
0.00203379
0.0341668
0.0030003
-0.00439755
0.00153407
-0.0248421
0.0121484
0.0337923
0.0110828
0.00157791
0.0369114
-0.00836169
0.0229952
-0.00495842
0.0080045
-0.00733377
-0.0254747
-0.0123098
-0.0270792
-0.00936473
-0.0521876
-0.0051092
0.00323016
-0.000552092
-0.0124889
0.000909571
0.000606696
-0.000169295
-0.00535408
0.00475598
-0.00170913
-0.0402561
-0.000615799
-0.00199098
-0.0016727
-0.010669
-0.00271147
0.0238584
0.00476806
0.00456908
-0.00369773
-0.00485847
0.00790727
-0.00745078
0.00265787
-0.0254536
0.00180236
-0.00151176
-0.0128492
-0.00762733
-0.00733656
-0.00353436
-0.00935738
0.00302576
0.000744486
-0.00535767
0.00734679
0.0151946
-0.0250014
0.000287478
-0.00143083
-0.0045967
-0.000721337
-0.00148915
0.00630113
0.032844
-0.0021272
-0.000358508
0.0498065
-0.00660563
0.00558646
-0.00938666
-0.00233504
0.00990328
-0.00199373
0.0383659
0.00346374
-0.00710054
-0.0257585
0.0324891
0.0213861
-0.00713914
0.0111459
0.0123842
-0.010907
0.0114647
0.00743248
-0.0103323
0.00303075
0.0221411
-0.0148755
0.00587936
0.00611296
0.00243862
-0.00529664
0.0278825
-0.00410105
0.00601113
-0.0304138
-0.0234765
-0.0445409
-0.0337473
-0.0518137
-0.00555896
-0.00659148
-0.00452909
0.0118761
0.00338553
0.00477243
0.00141168
-0.000363361
-0.00331791
-0.0153659
-0.00813377
-0.0100251
-0.00888785
0.000601743
0.00830884
0.010979
-0.00251542
-0.0198096
0.000896071
0.0294908
0.0514363
-0.00802955
0.000149306
-0.00370852
0.00193384
-0.0399381
-0.00278834
0.00616747
0.0105717
-0.000971375
0.0257063
-0.0299094
0.0197248
-0.00603652
0.00819841
-0.00671657
0.00507902
-0.00551839
-0.00418871
0.000209598
-0.0033999
0.00360888
0.00890722
0.0192277
-0.00351205
7.85916e-05
0.00123419
-0.00242002
-0.00199589
8.88553e-05
-0.0032734
0.000663509
0.0097526
-0.000889683
0.00445081
-0.00525428
-0.00620423
-0.0168743
0.0130394
0.0268057
-0.00536595
0.00172966
-0.00579291
0.0198496
0.0412258
0.0230248
0.0026478
-0.00550161
0.000474874
0.0559202
-0.0427599
-0.0364995
-0.00127339
0.000257303
-0.0068854
0.00763987
0.00731063
0.00223515
-0.00204121
-0.0150122
0.00335037
-0.000704739
-0.000957044
2.69673e-05
0.00111073
-0.0104667
-0.0135331
-0.0195775
0.000129651
0.0229669
-0.0209413
0.00664615
0.00868848
-0.000712785
0.00537214
0.00501339
-0.0108821
0.0250128
0.0418137
-0.00558158
-0.0064303
0.0104023
0.0473397
-0.0146403
0.00326244
0.0120174
-0.000906069
0.0466178
0.0279469
-0.00259266
0.00156978
0.00508814
-0.00503051
0.00166729
0.0621844
-0.0170397
-0.00905231
0.00261871
-0.014552
-0.0136181
-0.0154271
0.0025582
0.0148773
-0.00334605
0.00119479
0.000609558
0.0169577
-0.00209603
0.0163991
0.00657918
0.00219477
-0.0644524
-0.0412464
-0.00319032
-0.015462
0.00219641
0.00189778
0.00204706
0.0031475
-0.00319632
-0.000903004
-0.0188537
-0.00865358
-0.00530776
-0.00499109
-0.000216388
-0.000474867
-0.0192978
-0.0251322
-0.00238989
-0.00418486
-0.000492581
0.011248
0.00669089
-0.0082286
-0.00469761
-0.000927019
0.00223181
0.00205138
0.00208538
0.00594639
0.0050513
-0.00959741
0.00118934
-0.00457267
-0.00272954
-0.00347391
-0.00279209
-0.00534265
-0.0185412
-0.00227719
-0.000703214
-0.0163114
-0.0174746
0.000932414
-0.00302712
-0.0353858
-0.00312796
-0.00943644
-0.00768762
0.00877482
0.00269602
-0.00544157
0.000468441
0.00200196
-0.00568421
-0.00806152
-0.00193153
-0.00524744
0.00382661
-0.000691429
0.00310202
-0.00918838
-0.000411231
-0.0019922
-2.6211e-05
0.00762207
-0.00250531
0.00314832
-0.0017814
-0.00198571
-0.00416083
0.00353359
-0.00306567
-0.000981149
0.00222973
-0.0021704
-0.00245861
-0.0024246
0.000438898
0.0289234
-0.00469626
-0.000843853
-0.00315188
-0.00391462
0.00294108
0.000861335
0.00317187
-0.00284175
0.00073541
-0.00288144
0.000650898
-0.00153703
-0.00292515
-0.00391265
0.000731112
0.00221532
0.00523471
0.000889808
-0.0050392
-0.00477577
-0.0130166
0.00260841
3.40337e-05
-0.00159321
0.00359538
5.42896e-05
-0.00240646
0.00163359
-0.000327283
0.00478632
-0.0078657
0.00351119
-0.00466578
0.00021298
-0.0058982
-0.00606553
0.000440434
5.27161e-05
0.00126784
-0.0062766
-0.00020251
-0.00346237
0.00557524
-0.00120802
-0.000983635
0.00163056
-0.000843887
-0.0626991
0.0192443
-0.00311817
0.000942403
-0.0479493
-0.0018797
-0.000228243
-0.00136071
-0.000368183
0.000185703
-0.0043649
0.0169284
0.0248979
0.00386483
0.0498821
0.0102511
0.00210687
0.0437865
-0.00118452
0.0191565
-0.00662142
-0.00116207
0.000295476
0.00391797
0.0430453
0.00246955
-0.000789148
-0.00122584
0.00574053
0.0209463
0.0048344
-0.00258629
0.00983858
-0.00436652
-0.00156509
-0.00274737
0.00916712
-0.00136899
-5.44345e-05
0.000400274
-0.00019511
3.02671e-05
-0.0047252
-0.00292524
0.00485428
0.00819511
0.00118725
-0.0188066
0.00101033
-0.000589188
-0.0114622
-0.000882479
0.0182381
-0.00358258
-0.00200687
3.66973e-05
-0.00316753
-0.00176137
-0.0587388
-0.00567118
-0.00314962
-0.000628157
-0.0031493
-0.000939237
0.0013298
-1.95747e-05
-0.00539287
-0.00107396
-0.00538446
0.000358287
0.000290839
0.000876893
-0.019827
0.00358771
-0.00324307
-0.00555631
-0.000282583
-0.00106276
0.00025342
0.00108022
0.00131705
0.000826367
-0.00313687
-0.0184233
0.00149879
0.00107118
-0.000713938
0.00566026
0.000746975
0.00570321
0.000308523
0.000978573
0.000349627
-0.0227337
0.00365792
-0.000395141
-0.00939769
-0.000239387
0.00220893
-0.00717017
0.00100099
-0.000329292
-0.00645119
0.000732646
-0.000900463
-2.49493e-05
0.001126
-0.0109862
-0.000677067
-0.0233217
0.0029701
0.00170418
0.00163667
0.00053909
0.0024425
0.000352919
0.000752393
0.000366608
-0.0141374
0.000440571
0.00298553
-0.00890297
-0.00438661
0.000101548
0.00197547
-0.00405365
0.000485408
-0.010589
0.010726
0.00245603
-0.000402744
-2.75577e-05
-0.00556815
-0.000823382
-0.00667257
-0.00515951
-0.00627713
-0.000816757
-0.000161027
-0.000318126
-0.000354719
-0.000116203
-0.00113402
0.00919978
-0.00658191
0.00294516
-0.00481081
-0.0318689
-0.000541088
-0.000751093
-0.00129812
0.0186139
-0.00227461
-0.0032564
-0.00121404
-0.00348955
0.00312212
0.00638327
-0.000803281
-0.00058807
-0.00296627
-0.00122961
-0.00109736
-0.0025766
0.000189352
-0.0138074
-0.0118971
-0.00352363
0.000627318
0.00800339
0.000470254
-0.000855745
-0.00258684
0.00387303
-0.000827891
-0.0135191
-0.000647251
-2.70344e-05
0.000116493
-0.00100216
-0.000718829
-0.0329314
-0.00405413
-0.0004897
-0.00478442
0.00258918
-0.00131101
-0.00108067
-0.00787549
-0.00253814
0.0010706
-0.00141588
0.00150651
-0.00103599
-0.0171555
-0.00411927
-0.00248121
-0.00578535
0.00633815
-0.000647823
-0.0124207
5.17123e-05
0.000380732
0.00265273
-0.000771835
-0.00095344
-0.00140684
0.00879778
0.00110015
0.000232617
-0.000172122
0.00254441
-0.000719599
-0.000970926
-0.00301913
0.000317977
0.000483878
0.000253044
0.00181702
-0.000783547
-0.000882517
0.00485789
-0.00388329
-0.000863609
1.16278e-05
-0.000748115
-0.000476662
4.72285e-05
-0.00129884
0.00402146
0.00125712
-0.00224946
-0.00281761
-0.000149067
-0.000775836
-0.000187668
0.000199329
-0.000642731
0.00040283
-0.00416043
-0.00182953
-0.000268884
0.00116638
0.000423092
0.000539401
-0.000600117
-0.00141162
-0.00125796
0.000920883
-0.01916
0.00207296
0.00187601
0.000684381
0.00115349
-0.000128844
-0.000951804
0.00916593
-0.000162493
-0.00095925
-0.000579578
0.0376879
0.000191093
0.00037401
0.00554222
-0.000847199
-0.00101293
-0.00129348
0.0262839
5.51086e-05
0.000205909
0.0017487
0.000963016
-0.000942111
-0.00112522
0.0201004
-0.000388667
-4.28747e-05
0.000624461
-0.000133044
0.000328225
-0.00497207
-0.00152112
0.00250276
0.01287
-0.000720327
0.0182877
-0.00126368
4.21632e-05
9.16221e-05
-0.000160198
0.000400794
-0.000970586
-0.000448409
-0.00336602
0.00286554
-0.000493265
-0.00292971
-0.00465351
-0.00111081
-0.00121029
1.46669e-05
0.00074356
-0.00156895
-0.000388137
0.00166699
0.0006066
-0.00107706
0.0156915
-0.00372238
-0.00306213
-0.00260252
7.98946e-05
0.000601482
-0.00116955
-0.000633384
-0.00445375
0.000509651
0.00112156
0.000354993
0.000634397
0.00394549
-0.00275115
-0.00266538
0.000190782
6.269e-05
0.000610888
-0.00836955
-0.00250152
-0.00103958
-0.00111977
-0.00100864
-0.000788242
-0.000945794
-0.00427681
-0.000851641
-0.000504502
0.00186117
-0.00362196
-0.000507287
-0.00134159
-0.000118726
-0.00069174
0.000407204
0.00119257
-0.000392443
0.000834058
0.000441906
-0.000654388
-0.000324297
-0.00409922
-0.000754916
-0.000529021
-0.000106434
-0.0133379
-0.0131542
0.000378787
-0.00084897
-0.00465769
-0.00530346
-0.00115722
-0.00294411
-0.000886528
-0.00114479
-0.000519352
0.000718778
0.000372438
-0.000526415
-0.000558906
0.0159432
-0.00461949
-0.00127149
-0.00385002
-0.000846023
-0.00123632
-0.000858557
0.0103458
0.00373882
-0.000648454
-0.00538099
-0.00350487
-0.000773849
-0.00185274
-0.000585063
-0.000849019
0.000154081
-0.00116384
0.00169468
-0.00030294
-0.000161399
0.00854552
0.000253053
0.00392932
0.00262007
0.000231415
0.016329
0.000755851
0.00183096
0.00235567
-0.000207886
-0.0018252
-0.000615403
0.00400009
0.0142695
-0.000329061
-0.00053063
-0.00202652
-0.000472152
0.00270368
0.0057042
0.000224931
-0.000323943
-0.00152729
-0.00523359
-0.000323648
0.00173632
0.00158268
0.00027196
0.000137169
0.0154045
-0.00037958
0.000864215
0.0118208
0.000260793
-0.000429031
0.00436575
-0.000494138
0.00103183
0.00142354
0.000120126
-0.000211289
0.0142364
-0.000336276
0.00185571
0.000425069
0.00013981
-0.000220898
0.0192382
-0.000256569
0.000461537
0.00208311
0.000202756
-0.000118362
0.00928212
-0.000595494
0.000845301
-0.000466289
0.000145098
-0.000189523
0.0065109
-0.000250389
0.00124868
0.00708922
0.00105941
-1.11859e-05
9.24777e-05
-0.00465678
-0.000982682
-0.00318539
-0.000556566
-0.00114269
-2.61817e-05
0.000948175
0.00660309
0.000102452
-0.000351954
-0.000812206
-0.00049658
0.0108383
0.000151673
-0.000671514
-0.00188755
0.0142317
-0.000891475
0.00429523
0.00486833
-2.22444e-05
-0.000564933
-0.00690922
-0.000362673
-0.00503964
0.000288733
0.000443032
0.000336581
0.000386979
0.0112133
-0.000676676
0.000400562
0.00279596
0.000406409
8.4966e-05
0.000205468
0.000613331
-0.000423478
0.000892752
0.000376655
0.0067851
-0.00144009
-5.73645e-05
0.00118482
0.000124708
-8.05867e-05
0.000653633
-0.000287202
0.00125593
0.000753911
-0.00294501
-0.00481333
0.0035043
0.000201917
3.78116e-05
-0.000159291
0.000401767
0.0191535
-0.000188732
0.0116529
-0.00078043
-0.00056167
0.00143636
-0.00108033
0.00885485
-0.000763616
-0.000392585
0.0109034
0.000431204
-0.000326689
0.0010634
-0.000478583
-0.000105507
-0.000431318
-0.00388803
-0.00061892
0.000141322
-0.000364701
0.00167201
-0.000944464
-0.000136544
0.00165183
-0.000338928
-0.000176166
-0.000639408
-0.00291023
0.00024792
-4.14166e-06
-0.000641696
0.000887912
-0.000806359
-0.00115706
-0.0012563
-0.00111282
-0.000917275
-0.000745712
0.00488342
0.00303633
-0.000377154
0.0101808
-0.000447985
-0.00209528
-0.0022082
0.000153277
-0.00034491
-0.000642217
-0.00253067
-0.000532527
0.00151801
-0.000687654
-0.000473559
-0.00156969
0.00146295
0.0199249
0.00979449
-0.000723815
0.0346311
5.71752e-05
-0.00250267
-0.000140589
0.000187003
-0.000478564
-0.00511568
0.00173955
0.00135951
-0.00174513
0.000780964
0.000175853
0.000247954
0.0160158
0.00121481
-0.00106991
0.00352667
0.00116422
0.000530281
0.000538854
0.00873977
-0.00212984
-0.0335961
0.0135005
0.00178235
0.000818842
0.0194773
0.00116467
0.000155617
-0.00108869
-0.0010856
-0.000758002
-9.95548e-05
-0.00435866
-0.000599129
-0.000341745
0.000334624
-0.000843136
-0.000263227
-0.000378293
0.0100576
0.00023315
0.000353028
0.00106217
-0.000106272
0.000114307
-0.000306537
0.00607396
-0.000368226
0.000459625
0.00227365
-0.000933553
-0.000169942
-0.000158339
0.0143534
-0.000416298
0.0105778
-0.00505764
-0.000968369
0.00876894
0.000369235
0.000893689
0.00223494
0.0003577
0.000145197
0.0033488
-0.000549213
0.00054864
0.000261339
-0.000573653
-0.000171088
-0.000436716
0.00517744
-9.29436e-05
0.000446167
0.00138161
0.000488322
-0.000243699
-0.000647267
0.0122185
0.000198552
0.00137024
0.000166932
-0.000905433
-0.000281331
-0.000127075
0.00781012
0.00145807
0.000549151
0.00350995
0.00092581
3.6468e-05
0.000520197
0.00469476
0.000655126
-0.00175454
0.00169385
-0.00105913
-7.72488e-05
-5.40997e-05
0.00944984
9.07396e-05
0.00210275
0.000594588
2.80742e-05
0.000169495
0.0210869
0.00146413
-0.000333166
0.0002903
0.00101588
0.000114628
0.0035012
-0.000504993
-0.0174635
-0.0139569
-0.00775167
-8.63934e-05
-0.0465077
-0.00459094
-0.000883643
-0.00269709
-0.000865358
7.82773e-05
0.000698995
-0.00501984
-0.00942402
-0.000615332
0.00103578
-0.0379686
-0.00399184
-0.00114494
-0.000920259
-0.00109325
-0.000773134
-0.00308055
-0.0529695
-0.0024624
-0.000995621
0.0109465
-0.00771044
-0.00123126
-0.00445069
-0.00118145
-0.00120945
-0.00329311
-0.00228821
-0.00568065
0.000118818
-0.0211882
0.00130581
0.000213801
0.00202895
-0.000297502
0.000322317
-0.00409995
-0.0496705
-0.00207839
-0.000688418
0.000299164
-0.0143312
0.00250635
0.000453988
0.00299991
-6.60517e-05
0.000669846
0.000644127
-0.00182775
-0.00559563
-0.00189663
0.000635335
-0.00931172
-0.00130624
0.000373598
0.000505728
9.53427e-05
0.000532684
0.000946065
-0.000999266
-0.00804941
-0.000571552
0.000651488
-0.0199505
0.00347738
0.00119247
0.00415388
0.000388812
0.0016921
-0.00159924
-0.0285839
0.00283403
-2.70198e-05
0.000187508
-0.0208215
-0.00279013
-0.00126118
-0.0245141
-0.00903192
0.000317764
-0.0023055
-0.0238377
0.00191253
0.000600597
0.00348507
0.000288411
0.000967713
-0.000893955
-0.006779
-0.000132539
0.000350428
0.000446796
-0.0214556
0.000480424
0.000549599
0.0055816
0.000228643
0.000837328
-0.000719725
0.000229021
-0.00332806
-0.000377062
5.30908e-05
0.00228832
0.000706097
0.000521102
0.00461983
0.000116989
0.000824113
0.000929868
-0.000144075
-0.00231173
-9.16489e-05
0.000418351
-0.00338297
-0.00431857
6.91985e-05
-0.00122083
-0.000301495
0.000325538
5.09911e-05
0.00216125
0.000912442
-0.000348727
-2.27383e-05
0.0110795
0.000549415
0.000364356
0.00204171
-4.54038e-05
0.000643975
0.00041031
-0.00062682
-0.00596265
0.00015461
0.00029718
-0.0148069
-0.00419336
0.000328655
-0.000186765
0.000300426
2.33304e-05
0.000583832
0.00186542
-0.00260457
0.000565516
-0.000290584
-0.00660455
0.000131564
0.000406995
0.00167226
0.000390894
5.09973e-05
0.000678239
-0.00894906
0.00338901
0.000626703
-0.000564324
0.0102517
0.00108794
-0.00325591
-0.00222017
0.000718212
0.000683457
-0.025781
0.00183362
-0.00550598
0.000996147
0.00133953
-0.000332025
-0.0080479
0.00456277
0.00136704
0.00686144
0.000751481
0.0016317
-0.000590469
-0.00862511
-0.00231415
-0.00318454
0.000913774
0.0117588
-0.00226973
0.000393886
0.00187371
0.000563863
-0.000153321
-0.00255735
-0.0397395
0.00890272
-0.00136308
-0.000281282
0.00498508
0.000197801
-0.00109679
0.00284616
0.000181155
-0.000539918
-0.00184984
-0.00412447
0.000312885
0.000749862
0.000202856
5.1158e-05
-0.00102313
-2.9936e-05
-0.0138042
-0.00430398
0.000153019
-0.0767898
0.00125585
0.000762759
0.000510574
0.000457637
0.000434278
0.000255648
0.0385513
0.00116222
5.91766e-05
0.00488351
0.000426904
0.000423591
0.000740128
0.00531552
0.000931041
5.42863e-05
0.00303306
-0.00213641
0.000517614
-0.00119278
0.0330384
0.000513921
-0.0224257
-0.00673122
0.00411827
0.000827922
0.0127239
0.000341647
-0.00326404
0.00328818
0.00187668
8.27636e-05
-0.0150137
0.00100395
-0.00114911
0.00562479
0.00635375
0.000216513
-0.0136808
0.000150331
0.00182848
-8.36564e-05
-0.000126243
7.48878e-05
-0.00181961
0.000871126
0.000353454
-0.000961563
-7.44185e-05
1.52339e-05
-0.000124347
-0.0137611
-0.00342806
0.000286894
0.00028343
0.000131528
0.000157812
0.000986858
-0.00150848
0.00135898
0.0032493
0.000384301
-0.00859338
0.000213322
-0.00964191
0.000361392
-0.000564979
0.000621203
0.0125975
0.000383618
-6.78946e-05
0.00196025
0.000417161
0.000341026
-7.55661e-05
-0.0325762
0.000190416
0.00232536
0.0151329
0.000453432
-0.000180164
0.0160522
0.00232437
0.00412404
0.00106104
0.00247225
-0.00122523
-0.00207518
-0.00192474
-0.000218857
-0.000683637
0.000416864
0.000942708
-0.000923176
-0.000325072
-0.000578184
-0.00153785
-0.00013986
-0.0115549
0.00927866
-0.000306883
-0.000788149
0.00573109
0.00445355
-0.000238802
-0.000443957
-0.000797483
-0.0013575
-0.00070577
0.0110117
0.00844843
-0.000913827
-0.00032927
-4.89295e-05
0.0150023
0.00500455
0.0019782
-0.000689022
-0.000888022
-0.000192981
-0.000129118
-0.00603121
-0.0093121
-0.00226867
-0.000452147
-0.00134183
0.00593641
0.00074626
-0.00311188
-0.000735094
-0.00108366
-0.00161694
-0.00128945
-0.0183621
-0.00394249
-0.00103707
-0.00247182
-0.0015475
0.00184418
0.00647161
-0.00387514
-0.000909225
-0.000719456
-0.00180444
-0.00105141
-0.0302597
0.000102864
-0.000923008
-6.66814e-06
-0.000185068
-0.00161206
0.00114487
0.00238098
0.000223312
-0.000303567
-0.000988024
-0.000352303
0.0124999
-0.00293021
-0.00231702
0.000314767
-0.00205381
-0.00321998
-0.00306016
0.0010269
-5.8877e-05
-0.000298222
0.000240931
-0.000709177
0.0104838
-0.00794233
-0.000876128
-0.000417184
-0.00257342
-0.00517983
-0.00142741
-0.00285609
-0.000106127
-0.000621523
0.000556765
-0.000611438
-0.0141844
-0.0056141
0.0008569
0.00130735
0.00155558
-0.00291119
0.00664466
0.00367153
0.000865508
0.000117275
-0.00139357
0.00139549
0.00496766
-0.0258925
-0.0137908
-0.00161154
-0.00143869
-0.00174175
0.00611444
-0.00125612
-0.00252781
-0.00126983
-0.00153964
-0.00118514
-0.00149746
0.0327984
-0.0234427
0.00278386
0.000342484
-5.54594e-05
0.000115237
0.000990484
-0.00195647
0.000329389
0.000692812
0.000441655
-0.00115414
0.00117988
0.000450265
-0.000620058
-0.000827144
-7.99846e-05
-0.00113985
-0.00297447
0.00131538
0.000191844
0.000110806
-0.000489191
-0.00016126
0.000114765
0.0132687
0.000205208
-0.000223745
0.00118091
-0.00136256
0.00159633
-0.00534547
-0.00175993
0.000155205
-0.000201175
-0.00105638
-0.000485313
-0.00158445
-0.00205313
-0.000752132
0.000794279
-0.00044673
-0.000437532
-0.000776358
0.000523015
4.36519e-05
-0.00040945
-0.000874543
-5.09216e-06
-0.0202347
0.0290879
0.00519703
-0.000799581
0.00174794
0.000199546
-0.00249396
0.0124297
0.00444383
0.000399763
-0.000154865
-0.00102224
0.000226354
-0.0110505
-0.0419097
0.000302709
-0.000461992
-0.00377303
0.000187446
-0.000258215
0.000235142
0.000130816
-0.000207442
-0.0155237
-4.85844e-05
0.00368599
0.0107051
0.00544874
-0.00150946
0.000270878
0.00760039
0.00551837
0.00155746
0.00170881
-0.00360378
0.000974716
0.003185
-0.00245686
7.34941e-05
-0.00270436
-0.00448976
0.00353043
0.00388848
0.00597776
-0.0020388
0.000177558
0.0015064
-0.00431014
-0.00149257
-0.000668394
0.000121797
-0.00186444
0.00584011
0.00726076
0.00351487
0.00736984
0.000500865
0.00341743
0.00743769
-0.00151113
0.0104002
0.00390488
-0.000973286
0.00233453
0.000534732
-0.0026605
0.00111692
0.00498424
0.00418189
0.00167709
0.00675011
-0.00137702
0.00237282
-0.00717498
-0.002308
0.00698034
0.00677422
-0.0014844
0.00105522
0.00185055
-0.00264121
-0.000489019
0.00036707
0.00392895
0.00170863
0.0131652
-0.00130648
0.000146746
0.00022388
0.00315493
-4.35772e-05
-0.0108635
-0.0101273
-0.00688443
0.00130675
0.000844208
0.00501304
0.00509971
0.00524639
0.00117134
0.000658257
0.0118555
0.0122098
0.005199
0.00582708
-0.00708618
-0.00112236
0.00238055
0.00798891
0.00155429
0.00559643
0.00274353
0.00332566
0.00569867
0.0136327
0.0124771
0.00370875
0.011363
0.00820324
0.0134602
0.00522066
0.000794415
0.00923102
0.0118964
0.0037461
0.00559112
-0.000259612
0.0015681
0.00386787
-0.000196381
0.00268074
-0.0125488
0.00349659
0.00131713
0.00501773
0.00736988
0.00617421
0.00343342
-0.0017198
-0.00676514
8.63681e-05
0.000323492
-0.00224393
0.00256082
-0.0134015
-0.00182966
-0.00484388
-0.0099751
-8.00847e-05
0.00330369
0.00224742
0.0278351
0.00217987
0.0211112
-0.00629976
-0.0263636
-0.0172149
0.0311656
-0.00101343
-0.0134051
-0.0510915
0.0131577
-0.00559173
-0.0268566
0.00599516
-0.0123872
0.000884492
-0.00642852
0.00182439
-0.0224909
0.00285672
-0.00762866
0.0164203
0.0060606
-0.00180492
-0.0032404
0.00594504
0.0143993
0.00751504
0.0033224
0.00500571
0.00778027
0.00481719
0.007176
0.00651071
-0.00191728
0.000568551
0.00435754
0.00067507
0.00172978
0.003556
0.0182138
0.00767476
0.0136355
-0.00262611
0.0158704
-0.00939082
0.00305729
0.00585448
0.00569322
0.00535061
0.015152
0.00131934
0.008771
0.00130803
0.0175549
0.0175515
0.0291012
0.0288654
0.00602962
0.0141499
0.0043366
0.00471043
-0.000564862
0.0183379
0.00505229
0.00539263
0.0100911
0.00756797
0.00620195
0.0054242
0.0140862
-0.0142598
-0.00195109
-0.0384816
0.00460135
0.0209787
0.00764146
0.00508601
-0.00146539
0.0336827
-0.0284428
-0.00533857
-0.0251867
0.00786684
0.0138427
0.00608781
-0.000998387
0.00362766
-0.00040773
0.00161137
0.00040535
0.0119303
-0.00113139
-0.000203159
0.000852692
-0.00239221
-0.00172518
0.0080365
-0.00307764
0.000166823
0.0016905
-0.00602992
0.00199252
0.00159173
0.000801338
0.000717708
0.00740524
-0.0107354
-0.00347026
0.00656088
0.0120313
-6.70926e-05
-0.00139666
0.00811346
0.00663406
-0.00686697
-0.0104541
0.0082167
-0.000871348
0.00676737
-0.0184619
0.0173321
0.00144655
0.00313017
-0.00504535
0.0065761
0.00181313
-0.00324778
-0.00802487
0.0017625
0.00292968
-0.00194487
-0.000460688
-0.00764186
0.0285594
0.00212517
0.00393051
0.0144779
0.0118886
-0.00411393
-0.0303009
-0.0109294
0.00519414
-0.0156746
-0.0034467
-0.000978402
-0.00224385
-0.0122822
0.00612054
0.010401
-0.00936878
0.0231158
0.00198933
0.00426868
-0.0144344
0.00796553
-0.000605687
0.00806017
-0.0220537
-0.000401875
-0.0166534
0.00100998
0.00287092
0.00695517
0.00311427
-0.00374082
0.022477
0.00219039
0.00182025
0.0358442
-0.016262
0.0280119
6.09853e-05
-0.00968189
0.00401058
-0.00467438
-0.00331131
-0.0046379
0.00450427
-0.000910229
0.00273841
-0.00359059
-0.00692255
-0.00452076
-0.0253796
-0.00211563
-0.00308561
0.0219205
5.93924e-05
0.00951675
0.00135976
0.000801788
0.00385226
0.00662505
-0.00165534
0.00277852
0.00688271
-0.0110709
0.00326181
0.00793869
0.0104101
0.0019513
-0.000888353
0.0164486
0.00867234
0.0103027
0.00475639
-2.73626e-05
-0.00795444
0.00324079
-0.00835223
0.0194414
0.00871009
0.00115932
-0.00682005
-0.00130955
0.00402945
-0.00234476
0.000787056
-0.00455197
0.00391096
0.0107804
-0.00518111
-0.0100326
-0.014339
0.0126118
0.000437304
-0.00189508
-0.000315298
0.0131448
-0.00167104
-0.00121917
0.0160073
-0.00329846
0.00920924
0.00508043
0.0135655
0.00154663
-0.000751587
-0.00615704
-0.00679141
-0.00290855
0.00111643
-0.0025841
-0.00224767
0.00216355
0.00351766
0.0308453
0.000811378
-0.00279556
-0.000168012
-0.00782447
-0.0160054
-0.00309046
0.00827921
-0.00147739
-0.000257552
0.0109062
0.00320143
-0.0161226
0.0067043
0.0206595
0.000198675
0.00391813
0.00160261
0.00505385
0.000511263
-0.0114202
-0.0217245
-0.0244542
0.0291645
0.0177097
0.055188
-0.0069032
0.00357081
-0.015257
-0.00610027
-0.00794673
-0.0563463
-0.00375078
-0.0139086
0.000982133
-0.00234524
-0.0101215
0.0355441
0.0129463
-0.00617454
0.00237478
0.015995
0.00949995
-0.00625336
0.00624523
-0.0107005
0.0978395
0.00509463
-0.00213887
-0.000940362
-0.0023452
0.0158
0.00729633
0.0190523
-0.00296197
-0.00833122
-0.000411192
-0.0239315
0.00268184
-0.00111457
-0.00186745
0.0107749
-0.0037019
0.00107071
-0.000758007
-0.00538423
-0.0241934
-0.00618391
-0.00344734
0.0045268
0.0289879
0.00279569
-0.000536472
0.0147431
0.00722583
-0.0041187
0.0126525
-0.00212295
0.00265848
0.0036214
0.00381169
-0.000382814
0.00252984
7.04512e-05
0.00324494
-0.0070235
0.00259153
0.00609731
0.00228358
0.035908
0.00371977
-0.0060724
0.0018683
-0.0295362
0.0150926
0.0400808
0.00904738
0.00183699
0.0316564
-0.00813956
0.0369299
-0.00725694
0.0113867
0.0293614
-0.0312679
-0.0150885
-0.0321036
0.00297018
-0.0448646
-0.00590927
0.0248279
-7.37166e-05
-0.0140873
0.00426142
0.000564544
0.000536845
-0.00518421
0.0105576
-0.00123781
-0.0144245
0.00397286
-0.00205245
-0.00131819
-0.0130227
0.00242656
0.0233693
0.0085722
0.00406022
-0.000591183
-0.00302864
0.0166768
-0.00348256
0.00376422
-0.0277403
0.00290143
-0.000952646
-0.011025
-0.00736979
-0.00777537
-0.00280191
-0.00967453
0.0043879
0.00293048
-0.00494418
0.0113947
0.0204008
-0.00593621
0.000606377
-0.00107087
-0.00460318
0.00110211
0.00129956
0.00806795
0.0417247
-0.00232161
1.10325e-05
0.0610639
0.00333325
