booster[0]:
bias:
-0.0419677
weight:
-0.00465542
-0.00463426
-0.00315761
-0.00148747
-0.00362706
-0.00346059
-0.00198587
-0.000111831
-0.000214931
0.000740469
0.000677184
0.000910416
-0.00066296
-0.00151412
-0.000321332
-0.00238076
0.00052405
0.000385701
6.98483e-05
-0.000747622
7.45653e-05
0.000247551
-0.00234814
-0.00163967
0.000250876
-0.00124484
-0.00267373
-0.00242499
-0.000834732
-0.00191935
-0.000786688
-0.00119976
-0.00108953
-0.000565673
-0.00116081
6.39094e-05
-0.00151401
-0.000244995
0.000173222
-0.00158398
-0.00297109
-0.00136786
-0.00199253
-0.00135836
-0.00154734
-0.00170489
-0.00462034
-0.00320152
-0.0003411
0.00100865
0.00382577
0.000964178
-0.00100383
-0.000359669
-4.12048e-05
-0.00201817
-0.000500162
-0.00103264
-0.000863936
-0.00122447
0.000153689
-0.00135776
-0.000900479
-0.00170379
-0.000412257
-0.000201553
-0.00116228
-0.00070129
-0.0011487
-0.00147514
-0.00185307
-0.000213742
-0.00164922
-0.0015407
-0.000884558
-0.00162232
0.000595788
0.000940508
0.000224456
1.8279e-05
-0.00156574
-0.000699753
-0.00178637
-0.000624451
-0.000103706
-0.000670104
0.00368793
3.11331e-06
-0.000324771
0.000497781
0.000183041
-0.000689107
0.000597962
0.000572902
0.000837181
-0.000320686
-0.000863711
0.000531829
0.00115999
-0.00125426
0.000968944
-0.00128392
-0.000626332
-0.00134824
-0.00241929
-0.000383759
0.000197981
0.00801501
0.00640524
-0.000860509
-0.00137767
-0.00192061
-0.00141797
-0.000573664
-0.0022248
0.000574497
-0.00141406
-0.000409764
-0.000206008
-0.00804258
-0.0038913
0.00266227
-0.00423728
-0.000657306
-0.000586808
0.000250808
0.0816049
0.000944789
0.00868752
-0.0103923
-0.00387465
0.00179431
0.0125792
0.00222546
-0.00162853
-0.0349603
0.0016132
0.00084371
0.000906243
-0.000104173
0.00361754
-0.00161547
-0.00296316
0.0013644
0.00256401
0.000951926
0.000162821
0.00338747
-0.00379731
-0.000327758
-0.00385774
-0.000105787
-0.00353619
-0.0116258
0.0183683
0.000414312
0.000342751
-1.73497e-05
0.00123192
2.157e-05
0.00142587
0.00222794
-0.00045289
0.00268274
0.00094114
0.00308503
-0.0014656
0.000855054
0.00314381
-0.00103411
0.0125085
3.0232e-05
-0.00103328
0.00170753
-2.73314e-05
-0.000298798
0.00281898
0.013179
-0.00938751
0.000488986
0.0256779
-0.00743757
0.0076861
0.00681877
0.000967756
0.0134191
0.000215898
0.000567274
-0.000497409
0.00231166
0.000602857
0.00479546
0.000480629
-0.00319341
0.000415459
0.0024585
0.00755174
-0.00459653
-0.0264049
-0.0236712
-0.0303777
0.00839022
-0.00131943
-5.92146e-05
-0.000105434
0.0206337
-0.0160228
0.0112713
-0.00301905
-0.00374057
0.0151673
0.00169383
0.00508336
0.000287915
-0.00822934
-0.00161184
-0.00148739
0.0019951
-0.00965195
-0.0123321
0.00389315
0.00269177
-0.000736716
0.000428312
0.00307047
-0.00799661
-0.00227413
0.00266145
0.00110672
-0.00054232
0.000310942
-0.00217246
0.00715141
-0.000594878
-0.000695751
-0.00463067
-0.00120247
0.00139576
-0.00342716
0.00662245
0.00328165
0.000283832
-0.000191051
0.00257095
-0.00045758
-0.00349399
0.00997401
-0.0204886
-0.00137138
-0.00049345
-0.0040948
0.00435889
0.00267113
-0.00179969
-0.0013996
-0.00124933
0.000260093
0.00278045
-0.00178793
-0.00484579
-0.00318978
-0.0122978
-0.000834363
0.0107753
0.011321
-0.00647732
-0.00780634
-0.0053105
-0.0329058
-0.0207575
-0.00320548
-0.00368513
-0.00202233
-0.034608
-0.000978334
0.0079273
-0.00207818
-0.0142916
-0.000406458
0.00229071
-0.0058981
-0.0229533
-5.07879e-05
-0.00344884
0.00368811
-0.00680504
-0.0214432
0.000884829
-8.23902e-05
0.00525753
0.00610392
-0.000273927
-0.0098681
0.000445435
0.0025918
0.0110464
0.0175978
-0.005428
0.00628861
-0.00131892
0.000125301
-0.001287
-0.000683668
-0.00275546
-0.00144585
-0.0017835
0.00399431
0.00200221
0.00371512
0.00356357
0.00121695
-0.000550354
0.00125059
-2.10707e-05
0.00104874
0.00180716
-0.00115138
1.30433e-05
0.000854127
0.00468838
-0.00131678
0.000268124
0.0300525
-0.00718128
0.001705
0.0226977
0.000405718
-0.00369032
-0.00148186
0.0106071
0.000316183
-0.000775429
-0.00104278
-0.0051631
-0.00820032
-0.00666781
-0.00524468
-0.00649258
0.000977704
-5.21991e-06
-0.00134044
-0.00335428
-0.00222652
-0.00246177
-0.00569725
-0.00258492
0.000704139
0.00917701
-0.00104725
-0.0225834
-0.00225392
-0.00105089
0.000332213
-0.00177991
-0.00060169
0.00261631
-0.00245109
-0.00182711
-0.00553397
-0.00268814
0.00940639
0.000168935
0.00937823
0.00216656
-0.0148995
-0.00119406
0.0044317
0.00383792
-0.0111627
-0.00267103
-0.00498762
-0.0224165
-0.00228858
-0.0115122
-0.000190609
-0.00090247
-0.00116065
-0.0102005
-0.000861369
0.000700942
-0.000213007
-0.00725402
-0.00239429
0.00665454
-0.00229807
-0.00157231
-0.0156418
0.00147101
-0.00837258
0.000614741
0.000463958
0.00214927
0.00211668
-0.0589261
-0.0329786
-0.0343154
-0.00318346
-0.00757286
-0.00187979
-0.00516389
0.000509306
0.0106631
-0.0152068
0.000152586
-0.0238697
0.00148293
0.000475431
0.00262667
-0.000126544
0.00612838
0.0383629
0.00596986
0.000118724
0.00246496
0.0297775
0.000260979
-0.00241386
-0.00364735
-0.00380403
0.0468412
0.013439
0.00116433
0.000594613
-0.000651168
0.0398228
0.00558882
-0.00202058
-0.00844284
-0.00116091
0.0502623
0.00531648
3.38411e-05
-0.00149035
-0.00106786
-0.00281205
0.000650903
-0.000147859
-0.00218793
0.00177665
-0.016782
0.00680878
0.00273078
0.0030807
0.0252715
0.00206566
-0.00391014
0.0132353
-0.00405151
0.00627435
-0.0513576
0.00139703
-0.000567921
0.00649264
0.00137789
0.000259438
0.00070867
0.0038556
0.000721892
-0.0140026
0.00171672
0.00159099
0.00101634
0.00775231
0.00134962
-0.00819664
0.000637034
-0.00771409
-0.0105585
-0.0147163
-0.00772708
-0.00146238
0.0257013
-0.00407387
0.00953933
-0.00355744
-0.00147747
-0.0393142
-0.00774665
-0.00196444
-0.00278488
7.09678e-05
-0.0520292
-0.00119373
0.0062698
-0.000404791
-0.00363759
-2.68256e-05
-0.000345174
0.00116415
0.00588955
-0.000161865
-0.00135858
-0.0212796
-0.00241913
0.000311096
4.17876e-05
0.00718271
0.0151754
-0.0168919
0.00645341
-0.00470536
-0.0223615
0.0499454
-0.00266708
0.0171971
0.00192864
0.00705231
0.00507728
0.000222992
-0.000177693
7.07334e-05
0.00396011
0.000353616
-0.000970553
0.00324875
0.00137998
0.00183315
-0.00276065
7.78683e-05
-0.0256754
0.000608936
0.000556738
0.000311281
0.00213789
-0.00435041
0.00579581
0.00790446
-0.00122705
-2.26201e-05
0.0399089
-0.00315891
0.000395199
-0.0592642
0.00134174
-0.0507575
-0.00408069
0.0170634
0.00302726
-0.000157518
0.0116129
-0.0468371
0.017764
-0.00280251
-0.00483059
-0.00414677
0.00822775
-0.00424063
0.00103567
0.000470139
0.00533512
0.0115763
-0.00879008
0.00509934
-0.0124069
0.00164204
0.00393173
0.0257876
0.00921262
0.0061697
-0.00914806
-0.0196516
-0.0095797
-0.00582764
-0.0102687
0.000826842
-0.00215827
-0.00193458
0.00888816
0.0194197
0.0233886
-0.000685492
-0.000197216
0.000480363
0.00195075
-0.00420779
0.00357278
0.000326174
0.00104107
-0.0208103
0.00817505
0.00900723
0.00375902
0.00357506
0.0111937
0.00183535
-0.00281622
0.000876946
-0.00267338
0.000962249
-0.00989701
-0.000180456
0.00533908
0.00451409
0.0021872
0.0185041
-0.00841637
-0.0164113
-0.0021514
0.000804414
-0.0527434
0.0226606
-0.00147423
-0.0117098
0.00183414
-0.00572572
-0.00147433
0.00138229
-0.00510283
-0.00209877
-0.00205158
0.00512213
0.00236601
-0.00120032
0.000565495
-0.00117913
0.0041208
0.00475927
-0.00282788
0.000492083
-0.00112865
-0.000619278
-0.00730076
0.0188185
0.00889868
-0.00262103
0.000681316
-0.00480302
-0.0168072
0.00728516
0.010357
0.00467834
-0.00111959
-0.00199696
-0.0119343
-0.0309053
-0.0400587
0.000278504
0.000707002
0.00407053
0.0189247
0.00471801
0.00478745
-0.00770101
0.0142954
-0.000859032
0.00196118
0.00181664
0.00176269
0.0018422
0.000258545
-0.00474065
-0.0202611
0.00309598
-0.0840285
-0.013698
-0.0165572
-0.0490438
-0.0189544
0.00340156
0.0112325
-0.00443517
0.00050428
0.0175741
-0.035141
-0.0074294
0.0144821
0.0166144
-0.0138198
0.0036863
0.0136245
-0.00242544
-0.0214516
0.0371168
0.00912138
0.00392887
0.0100557
0.00128668
-0.00698416
0.00718501
-0.0208393
0.0212081
-0.00182693
-0.00598709
-0.00609097
-0.00309758
0.00452784
0.01048
0.00105036
0.00137326
0.000979433
0.000402384
7.24742e-05
0.0165693
0.000892514
0.00229526
-0.0296416
-0.0601157
-0.000185604
-0.0197509
-0.02328
0.0125358
0.00857752
0.0039146
0.00219355
0.00346181
-0.00599186
-0.00296874
0.0124859
-0.00177778
0.000511702
0.000457795
-0.011279
-0.0242578
-0.000508278
-0.00357816
0.00350956
0.00235282
0.0127205
-0.000273161
-0.000962834
-0.000492609
0.00241983
-7.03599e-05
0.000605844
0.00339662
0.00597721
-0.00123089
0.00100599
-0.00107135
-8.76736e-05
0.00046385
0.00292361
0.000546157
-0.0530474
0.000422476
-0.00174521
0.0139764
-0.00450344
0.00100408
0.0161668
-0.00620502
-0.00350008
0.0087334
-0.00157164
0.00385861
0.00928377
-0.00247927
-0.000776508
-0.0145269
-0.000583299
-0.0473542
0.00242058
-0.00289786
-0.000877625
-0.00226857
-0.000166336
-0.00471977
-0.000215797
-0.00288468
-0.000706252
0.00207987
-3.68357e-05
0.000577809
0.00211861
-0.000468969
-0.000634965
0.00211297
-0.000142867
-0.000411431
-0.000821215
4.71645e-06
0.000620438
0.0024457
0.00200189
0.00556918
0.000257607
0.00131683
-0.000433216
0.000256731
0.00294402
0.00279844
0.00355321
0.00109718
0.00145649
7.48833e-06
0.000511022
0.000578223
-0.000128418
-0.00230428
0.000399287
0.000565142
0.00121539
0.00270254
0.0011378
0.00187187
-0.00407303
-0.00077405
-0.00120757
-0.000468141
0.00113221
0.00258327
-0.00128775
0.00112131
0.00115933
0.0024626
-0.00328453
0.00443085
-0.000786677
0.00115061
-0.000254718
-0.000565262
0.00315546
0.000879516
0.0015014
0.0013575
0.000162155
-0.000406471
-0.000896663
-4.47355e-05
-9.56359e-05
-0.00214876
0.000772757
-0.00543744
-0.000737733
-0.000627119
-0.000586417
-0.00871065
0.00121993
7.06018e-06
0.000102134
-0.000173543
0.000174063
-0.00204069
-0.00242128
0.00133341
-0.00284521
-0.0104186
-0.0103193
0.00151473
0.0145166
-0.000458817
-0.00775326
-0.000174255
-0.000531635
0.00044649
-4.86079e-05
0.0193445
-0.000115369
8.12521e-07
-3.11476e-05
-0.000668224
0.0043145
-0.00151038
-0.000527985
-0.000768782
0.000175305
-0.000225317
-0.000586465
0.00386808
0.00176564
5.09887e-05
0.000143357
-0.000118566
0.000249576
-0.00353757
-0.00165975
-0.00518204
0.00566401
0.000104653
-0.00700927
6.43374e-05
0.000867174
0.0129794
-0.00109163
0.000620508
-0.0004225
-0.000224765
0.0015475
-0.000225115
-0.000445071
0.0025651
-0.00231387
0.000883402
0.000308062
-0.000142278
1.84259e-05
0.000512788
-4.21335e-05
-0.000509211
-0.000473287
-0.000655639
-0.000135741
-4.90692e-05
0.000280941
-0.0588109
0.000364867
0.00105387
-0.000265575
-0.000370078
0.000257057
-0.00022964
-8.13578e-05
0.000161278
-0.000219228
-0.00350399
-8.97049e-05
0.00015537
-4.84445e-05
-0.000400967
0.00193965
0.000391381
0.0010551
0.000190823
0.000381369
-0.000446719
-0.00129777
0.000469576
-5.38186e-05
-0.000119434
-4.29185e-05
0.000471516
-0.00146943
0.0004766
0.00033856
-0.000506157
0.000154166
-8.39785e-05
-0.000313398
8.75762e-05
3.35536e-05
-0.00121013
-5.05876e-05
0.000422383
0.000255067
-0.000328726
-2.02854e-06
-0.000333007
-0.0001045
-0.0001064
-0.000824076
-0.00371217
-0.000816854
-0.00187665
-0.00128251
-0.000231845
-0.000158074
0.000190301
-0.00108455
0.00173469
-0.000506381
0.000805426
-0.000150721
-0.000132823
9.035e-05
0.000410675
-0.000234907
0.000110552
-0.00155726
-0.00103595
0.000489718
-5.14741e-05
-0.000322639
-0.00018862
1.14647e-05
0.000413107
-0.00121862
-0.00238184
0.00188788
-0.00161811
-0.00949775
-0.00211522
0.000351873
0.000146171
-0.00573583
9.49531e-05
-0.00279731
0.00108801
-0.000149871
0.000822491
-0.000739286
0.000109624
5.53799e-05
-0.00439642
0.000112777
-0.000390341
-0.000709416
-0.000109503
-0.00427252
-0.00441502
-0.00204136
-0.00109533
0.00165406
-0.000382965
-0.000202841
7.67649e-06
-0.00035319
-0.000331361
0.0011366
-0.00110054
-7.70053e-06
0.000199859
-0.000794366
-0.000334739
0.00167998
-0.000572607
-7.52629e-05
-4.47128e-05
-0.000217683
-7.25797e-05
-0.000370397
-0.000669242
-0.000530758
0.00052978
-0.000325932
-0.000300801
-0.000166309
-0.00214747
-0.00198377
-0.000298102
-0.000330679
0.000440061
-0.000180414
-0.000804393
-0.00015336
0.000511497
0.000231249
-0.000529452
-6.81058e-05
-0.00062328
-0.00010354
0.000390715
0.000306609
4.2515e-05
-0.000204711
4.292e-05
-4.09313e-05
-0.00107092
-3.90729e-05
0.000510166
6.97981e-05
-0.000516177
-4.21053e-05
-0.000343636
-0.000380107
0.000303164
0.000275801
0.000120761
0.000121331
0.000425712
-2.67e-05
-0.000518307
0.000506909
-0.000186101
-0.00065903
-0.000823656
-0.000826333
0.000278883
4.28166e-05
5.95917e-05
-9.50461e-05
8.05788e-05
-0.000855454
-0.000308938
-0.000266552
0.000172043
0.000246415
2.66896e-05
0.000235507
2.02202e-05
-0.000364058
-1.79402e-05
-0.000135045
2.34345e-05
0.000827634
-0.000128545
-4.00143e-05
-0.000202726
2.8341e-05
7.27269e-05
-0.000596339
8.43972e-05
-0.000205918
2.39701e-05
3.34869e-05
0.000374841
0.000341057
-0.000735539
-6.36494e-05
-0.000346321
0.000932563
-4.06294e-05
0.000296926
0.00014429
-0.000417325
-5.20324e-05
-0.000380374
0.0010478
0.00114984
5.06623e-06
0.000162628
-0.000139013
8.98212e-05
0.00117664
0.000757896
-0.000536235
0.000628298
0.000146177
-0.000853411
0.00131084
0.000111919
0.000285794
-0.000156998
0.000227559
-0.000197783
0.000731488
-0.000558887
8.16541e-05
0.000151388
-0.000273453
-0.00100985
-6.67645e-05
0.000243611
0.000176504
-3.00759e-05
6.24488e-05
0.000504979
-0.000224455
-0.000243924
-3.99066e-05
-0.000759287
-0.000757823
-0.000113398
-3.1696e-05
0.000154175
-5.03499e-06
0.000281395
0.000363677
-0.000727019
6.5308e-05
0.000486491
8.62312e-05
-1.21953e-05
0.000890112
3.84493e-05
-0.000154583
-0.000160289
-0.000182437
-0.000177694
-8.93462e-05
0.000920484
-6.96812e-05
-0.000151624
-0.000130266
-9.26339e-05
-0.000338458
0.00074341
-2.21729e-05
-0.000255498
-0.00123247
0.00722609
0.00264442
0.00728457
0.00125987
0.00304703
0.00181347
8.90688e-05
-5.35637e-05
0.00141781
0.0002555
-0.000100959
-0.000384736
-0.000284674
0.000657182
0.000624628
0.0009091
0.00625911
0.00405593
0.000501688
6.18412e-05
0.00974786
-0.000943016
0.000218523
0.000126855
2.83814e-05
-6.34127e-05
0.000110062
-0.000111321
5.57342e-05
0.000111546
1.95855e-06
0.000692991
0.00092217
0.00067599
0.00139884
0.000266406
0.000378069
0.00118818
0.00154023
0.00242636
5.52631e-06
0.0159399
0.000913535
0.000387896
0.0011594
0.000130975
0.000185794
0.000326371
-0.000742811
3.9729e-05
-3.77824e-05
0.000171003
-0.00186207
0.00174583
0.00181032
0.00154347
8.85771e-05
0.00359807
-0.000660549
4.82145e-05
0.00128336
-5.98643e-05
0.00146278
8.47662e-05
0.000932274
0.000794331
0.000145453
0.00011919
-0.000289708
0.000343022
0.000414926
0.000190618
0.000291386
0.000306998
-0.000490675
0.00438843
-6.07126e-05
0.000213496
9.60451e-05
0.000184039
0.000246753
0.0032538
0.00011792
-0.000127994
0.0015509
0.000197165
0.000285248
-0.00133012
5.6999e-05
-0.000290627
8.81014e-05
0.000175805
0.000297065
-0.0114873
-0.000269121
-0.00354596
-0.000553744
-0.000440061
0.000161411
-0.0145038
0.000216684
-0.0026056
-0.00035301
-6.11804e-05
0.000469506
-0.0058075
0.000195642
-0.00167287
-0.000200631
0.000144147
0.000554813
-0.00575566
0.00069283
-0.00178881
0.000160446
0.000442715
0.000768774
-0.0101282
0.00508237
0.00156957
0.00500113
0.000831649
0.00146184
0.00123628
-0.00126276
-2.58349e-05
0.000344812
0.000747995
0.000790698
-0.00203095
-3.94744e-05
0.000116432
0.000342555
-0.00040895
-0.00512288
0.000137555
-0.000996192
9.43602e-05
9.24657e-05
0.000486567
-0.00970668
5.26864e-05
-0.0021499
-0.000316589
-2.71649e-05
0.000176172
-4.73629e-05
-0.00322874
0.00527592
0.00158771
0.00431464
0.000861094
0.00184008
7.21364e-05
-0.00100779
-0.000248706
0.000460251
0.000392382
-0.00123914
0.00514411
0.00168576
0.00487569
0.000807021
0.00187335
-0.000877739
-0.000163456
0.000686043
0.000597069
-0.001511
-0.00172224
-3.41893e-06
-9.67084e-05
0.000103073
6.83993e-05
2.19952e-05
-0.003117
-8.29645e-05
0.000243119
-0.000662807
-0.000107073
-0.00159246
0.00108622
0.000142048
-0.000656438
-6.78209e-05
-0.000449209
0.000660451
1.31623e-05
-0.000660394
-0.000123736
7.99454e-05
-0.00021136
-0.00101822
-0.000301795
-0.000130361
-3.45594e-05
-0.00242284
0.000835133
0.000119286
-7.00703e-05
-4.33669e-05
0.0001235
-0.000255731
-0.00108277
-0.000218222
-0.000160129
-0.000121316
-0.00398189
0.00139084
-0.00027043
-0.000721097
-0.000288266
-0.000258064
0.000234171
-5.76162e-05
-7.10198e-05
-2.0904e-05
-0.000100607
-0.000352622
-0.000424278
-0.000323251
-0.000207735
-3.13399e-05
-0.00173701
-0.0018857
-0.000385373
-0.00155158
-0.000360686
-0.000353953
6.39804e-05
0.000435165
0.000321271
0.000880331
-0.000156683
0.0051946
-0.000256496
-0.000735215
-0.000202374
-0.000298007
-0.00018246
-0.000873883
0.00196699
-0.000164293
-0.000329203
0.000539662
0.000143187
0.000298416
0.00132313
-3.16526e-05
-0.000376075
0.000119467
0.000221807
0.000107959
-0.000222557
-0.000411669
-0.000364587
-0.0130146
0.000370171
-0.000992371
-0.000101845
0.00453316
8.26597e-05
0.00113692
-0.000139887
-0.000209907
-0.000159784
-0.000284787
-0.000506785
-0.00014914
0.000186515
-2.79972e-05
-0.000161449
-1.65569e-05
-0.000254111
-0.00101035
-6.52929e-05
0.00151361
7.9276e-06
-8.25689e-05
3.5756e-05
-0.000301733
-0.00119117
-0.000168667
0.000473406
-3.80984e-05
-0.000187856
-3.01155e-05
-0.000192843
-0.00084148
0.000230102
0.000235643
-0.000977344
-0.000117125
-0.000358967
-3.67281e-05
-1.19395e-05
5.85086e-05
-1.60617e-06
3.95662e-05
-0.000706727
-0.000197655
0.000334656
-0.000102903
-7.7606e-05
2.55819e-05
-0.000191253
-0.00034023
-7.32767e-05
0.000134574
-8.43912e-05
0.00015206
2.30145e-05
-0.000186158
0.00109504
-8.56061e-05
0.000777933
6.34278e-06
-0.000130232
-9.42498e-06
-0.000293767
-0.00106453
0.000360748
-0.00024491
-0.000167495
0.000121102
1.65159e-05
-0.000101327
0.00126742
-5.15101e-07
0.000259039
-4.41156e-05
-6.88682e-05
3.27322e-05
-0.000151352
0.00435399
4.04709e-05
0.000118944
0.000131851
6.15787e-05
-0.000211507
-6.75063e-05
0.000345747
-3.76401e-05
0.000231528
0.000324819
7.32418e-05
0.000868497
0.000187232
0.000603598
9.83008e-05
0.000398471
-3.86066e-05
0.00130567
-0.00024597
-0.00022103
-0.000618593
-0.00026048
-5.18623e-05
-4.29138e-05
-0.000238933
-0.000243149
9.24895e-06
-5.20191e-05
-0.000682407
-0.00405108
-0.000917235
-0.00351475
-0.000853343
-0.000972004
0.00051521
0.00403322
-0.000512942
-0.000533679
0.00374648
-0.00436962
-0.000829587
-0.0040256
-0.000726612
-0.000764924
0.000323022
0.000307838
-0.000655513
-5.49336e-05
0.00158981
-0.000441981
-5.8629e-05
-0.000449226
-0.000139728
-8.33674e-05
0.00187451
0.00542932
-0.000133047
-0.000176618
-0.000187935
0.000459443
0.00055155
-0.000129204
-1.12846e-05
-0.000218461
-4.57936e-05
-0.000179805
0.000135465
-0.000126137
-0.000369219
-0.000113911
-4.01705e-05
-0.00147099
-0.000167482
-0.000949143
-0.000198155
-0.000135627
-0.000151672
7.44067e-05
-0.000622512
-0.000282222
-5.04622e-05
8.69185e-06
5.26818e-05
-0.000116752
-0.000330367
-0.000210926
2.25516e-05
0.00165851
0.00245222
-0.000304025
-0.000214078
-0.00025588
0.0210824
3.38629e-05
0.00153999
-0.00075706
-0.000294107
-0.000158382
-0.000594583
0.0087647
-0.00030067
-6.88714e-05
-0.000289057
-0.000101488
3.6608e-05
0.000475846
8.93846e-05
-6.44243e-05
-6.56356e-08
-9.95516e-05
-0.000306544
-0.00198007
-0.000115598
9.7183e-08
-0.000114757
-0.000167735
-0.000511757
-7.13347e-05
-0.000256062
-0.000105937
-0.000149876
0.00194776
-0.00210711
-0.000139439
-0.000183891
-0.000140481
-0.000196785
-0.000161156
-0.00011225
-0.000167338
-5.67262e-05
-0.000199298
0.001003
-0.000436814
6.38891e-05
4.50805e-05
-7.46277e-05
5.02953e-05
-0.000262184
0.000280058
-1.64237e-05
-5.12119e-05
-0.000300465
0.00414251
-0.000162325
6.73438e-05
-0.000161609
-4.89263e-05
5.83356e-05
-3.5078e-05
-0.000284077
-0.000481228
-0.000129657
-2.83335e-05
-0.000935424
0.00254562
0.00096445
0.00335842
0.000641555
0.00102813
0.00113069
0.000513412
-0.000103968
0.000574252
1.46697e-05
-0.00143202
0.00155014
0.000507471
0.00137355
0.000211703
0.000815489
0.000339696
-0.00996441
0.000134937
0.000680824
-0.000130241
0.00490815
-8.23454e-06
0.000746005
-6.15858e-06
0.000146217
-7.15136e-05
0.00264914
0.00041807
-0.000791765
-5.98501e-05
0.00031369
-0.000269584
-0.000425048
0.00111233
0.000284815
0.00111361
3.5163e-06
0.00018261
-2.74628e-05
-0.00139291
1.30834e-05
0.000324537
-3.53126e-05
0.0121783
0.000365177
0.000379227
0.00107779
0.00022803
0.000365239
-0.000197808
-0.0433036
0.0003134
1.36322e-06
-9.46174e-05
0.000663259
0.000867763
0.000895734
-0.000254217
0.000142357
-0.000148987
0.0100996
0.000892197
0.000396084
0.00183251
0.000122998
0.000137358
-0.000554689
0.00100099
-0.000103116
-9.73392e-06
-0.000234705
-0.00468112
0.00034112
8.34653e-05
0.00015406
2.81809e-05
5.81977e-05
-0.000295281
0.00519435
0.000279714
-6.15542e-06
0.000497406
2.67371e-05
-1.87656e-05
-6.44898e-05
0.00158127
0.000175922
-0.000210476
0.000177521
0.000274899
4.49279e-06
-0.000628744
0.00894717
-0.000100914
-0.0086051
-0.00569218
0.000744204
-3.99329e-05
0.00413679
-0.000123799
-0.000664014
-4.76282e-05
0.0001732
-7.82678e-05
0.00263356
0.000438486
-3.68781e-05
0.000153857
0.00150708
-9.48663e-05
3.53311e-05
-0.000131802
1.70909e-05
-9.8144e-05
-0.000221955
-0.000286729
0.00327124
5.03019e-05
9.43104e-05
1.92837e-05
-8.95427e-06
-0.000107007
-0.000338107
0.000464106
3.28745e-05
0.000166832
0.000700914
3.23091e-05
0.000152315
0.00028937
0.000131188
-0.000437451
0.000512032
-8.62524e-05
0.00483088
1.48646e-05
-0.00122616
-2.82454e-05
-0.000102737
-0.00013725
0.007612
-5.66478e-05
0.000231711
0.00025422
4.36906e-05
2.97043e-05
-0.000260832
0.00411452
0.00117979
8.03576e-05
0.000358922
0.000939158
-0.000179384
0.0119393
0.000780935
-0.000356118
-5.15863e-05
0.000339526
-0.000221906
-0.000321327
-0.000685209
-0.000189087
-0.000433801
0.000421929
0.000190802
-0.000382753
-0.00013553
-9.21347e-05
-4.97167e-05
-0.000300987
3.92969e-05
0.000483673
0.00031184
0.000114804
-0.000460883
0.000365118
-2.74322e-06
-0.000181156
-0.000290034
-5.75085e-05
-0.000255309
0.000642461
0.000977364
-0.0001638
0.000917743
0.0002231
0.000929501
0.000747463
0.000962745
7.36698e-05
8.50185e-05
-0.000175287
8.52099e-05
0.00350599
-0.00498412
-0.000812439
-0.000278073
-0.000582006
-0.000245142
6.27731e-05
-0.00069395
-0.000483097
-0.000526701
-0.000180591
-0.000677492
-0.00429369
-0.00114544
-0.000185178
-0.000234094
-0.000400586
0.000423157
0.000251594
-0.000645494
-0.000374813
-0.000268894
-0.000302457
-0.000417105
-0.00936901
0.000517159
-0.000304503
9.43191e-05
1.03912e-05
-0.000331352
0.000395262
0.000379466
6.48508e-05
-0.000160524
-1.46905e-05
-0.00122546
-0.0117625
-0.00537479
-0.00179108
-0.000774056
-0.000345676
-0.00664075
-0.000578657
-0.000908636
-0.000245644
5.0605e-05
-0.000482276
0.000512631
0.00174967
-1.73258e-05
-0.000226612
-0.000357709
-6.28151e-05
-0.00341447
-0.000375202
-0.000516679
3.3776e-05
0.000211996
-0.000343529
0.000157045
-0.00768524
1.44646e-05
0.000138959
8.50667e-05
5.63377e-05
-0.00163
0.000128091
-0.000394583
-0.000113276
1.61434e-05
-0.000336819
5.23516e-05
-0.0146477
-0.0195485
0.000610826
-0.000784088
-0.000850207
-0.000519202
-0.00505009
-0.000221058
-0.000907653
-0.000296479
-0.000343385
-0.00038509
-0.000423037
-0.0057486
-0.0121183
-0.000992132
0.0030483
0.000804213
0.000848486
-0.00086939
-0.000292097
0.000808999
0.001332
0.00134558
-0.000431314
0.00162936
-0.000422057
-0.000299353
-0.000130671
6.09126e-05
5.05872e-05
-0.0009345
2.68589e-05
-9.61486e-05
7.29605e-05
7.18719e-05
-0.000181939
3.17726e-05
-0.000248989
0.00015207
-0.000115617
0.000290084
0.000368443
0.000485874
-0.000180553
-7.04097e-05
7.05565e-05
-3.07537e-05
-0.000451491
-2.29565e-05
0.0140578
0.000373649
-0.000528154
0.000132208
-0.000133117
-0.00063086
-0.000215777
-0.000216392
-5.27956e-05
-3.11639e-06
-0.000115869
-8.92619e-05
-0.00186151
0.00182044
0.000894374
0.000124199
0.000586863
0.000298183
-0.000738791
0.000154903
0.000860133
0.000151784
-1.18987e-05
-0.000245741
0.000292135
0.0143861
-0.00574634
-5.66021e-05
4.63501e-05
-0.00101563
-0.000197156
6.96848e-06
0.000206724
0.000186817
-0.000178296
-0.00928149
0.000279021
-4.54656e-05
0.00143962
0.00103831
0.0011409
-0.00163778
-0.000271239
6.03958e-05
0.00208442
0.00190427
0.00118952
0.00186323
0.00138999
0.000220642
0.000314467
-0.00124507
-0.00168475
0.00069843
0.000682016
-0.000156078
-0.000367094
0.000338782
0.00119234
-0.00193343
-0.00126752
0.000557577
-0.000873745
-0.00211446
-0.00138738
3.31483e-06
-0.00146117
6.99063e-05
-0.00037218
-0.000111193
0.000294937
-0.00091797
0.00072152
-0.000258912
0.000640372
0.00055343
-0.00102689
-0.00241902
-0.000874818
-0.000901786
-0.000900535
-0.000951879
-0.00102032
-0.00330285
-0.00311367
-0.00038569
0.000468469
0.00501239
0.0014229
-0.00124902
-0.000506656
0.000801849
-0.00208871
-0.000253279
-0.000749917
-0.000509034
-0.000785902
0.000240195
-0.00117363
-0.00016808
-0.00113621
-4.47126e-05
0.000113122
-0.00168922
-0.00145
-0.00182167
-0.000535689
-0.00177964
0.000341106
-0.00105878
-0.00101916
-0.000492991
-0.00165772
0.00110399
0.00168397
0.0006265
0.000481836
-0.00207981
-0.000291259
-0.00162414
-0.00028134
0.000231697
-0.000303852
0.00461639
0.000325769
-0.00122114
0.00024772
2.84656e-05
-0.00166454
0.00024642
3.44029e-05
0.000712638
-0.000958387
-0.000683007
0.000122412
0.0018748
-0.00116865
0.00136286
-0.000925263
-0.000347136
-0.00214433
-0.00209122
-0.000127614
0.000211184
0.00897529
0.0076433
-0.000609476
-0.000803415
-0.00154615
-0.00129978
3.46876e-05
-0.00297678
0.00109842
-0.00112431
-9.14746e-05
0.000312182
-0.00813355
-0.0030473
0.00242957
-0.00430866
-0.000648123
-0.000718007
0.000738186
0.0906158
0.0013318
0.00764266
-0.0123006
-0.00433834
0.00189107
0.00964984
0.00202668
-0.00185237
-0.032878
0.00100958
0.00120412
0.00183426
0.000578858
0.00369123
-0.00213186
-0.00652057
0.0019017
-0.000450659
0.00100451
-0.000434039
0.00295438
-0.0045785
-0.000607084
0.000506512
-0.00132593
-0.00534967
-0.00618934
0.0359738
0.000178561
0.000211573
-0.000229249
0.00099015
-0.000681201
0.00195603
0.00237485
-0.000321831
0.00297479
0.00172145
0.00353272
0.000642243
0.000779937
0.00333981
-0.00109739
0.0174107
-0.0016295
-0.00157999
0.00195179
-0.00043628
-0.00184095
0.00324383
0.0190672
0.00402203
-0.00121
0.0265961
-0.00547716
0.0196973
0.00923067
0.00149249
0.0177122
0.00019585
0.000603627
-0.0021683
0.00230228
0.000770841
0.00474672
0.00274225
-0.00189039
0.00199415
0.00250485
0.00827689
-0.00433199
-0.0164378
-0.028766
-0.0336627
0.0180143
0.00819891
0.000116014
-0.00223667
0.0234276
-0.0219645
0.006366
-0.00534639
-0.00534093
0.00400053
0.00208821
0.00450342
7.9674e-05
-0.00759212
-0.00285427
-0.00316994
-0.0031082
-0.0137185
-0.0160627
0.000829664
0.00170715
-0.00244546
0.00453518
-0.0129794
-0.00943073
-0.00416457
0.0010264
0.000695124
-0.000655725
0.000360663
-0.00343024
0.00559409
-0.00230326
-0.00104786
-0.0025041
0.000510854
0.000580896
-0.00509062
0.00469757
0.00299735
-0.00255835
-0.00248071
0.00177297
-0.000471163
-0.00133233
0.012366
-0.0175726
-0.00138568
-0.000368808
-0.00580262
0.00382793
0.0020656
-0.0015476
-0.00112695
-0.0012124
0.000540541
0.00262706
-0.00145481
-0.00322519
0.00436373
0.00038959
-0.00125495
0.0134082
0.0176826
-0.00708528
-0.00525293
-0.00482749
-0.0139393
-0.0216127
-0.000442671
-0.0035157
-0.00196817
-0.0204429
-0.00030322
0.0114338
-0.00223313
-0.00851012
0.000853143
0.000958297
-0.00786419
-0.0158737
-0.000165589
-0.00165129
0.013535
-0.00445579
-0.0200263
0.00280594
0.000160622
0.00634528
0.00693256
-0.00260436
-0.00619049
0.000629923
0.00238239
0.0144181
0.0137423
-0.000632609
0.0078959
-0.00226908
-7.12783e-05
0.00132492
0.00116025
-0.00135999
0.000424628
-0.00282727
0.00489769
0.00335542
0.00531186
0.0050368
0.002126
-0.000919332
0.00204806
0.00518226
0.00191656
0.00424705
-0.00103146
2.64899e-05
0.000664524
0.00706105
-0.00185192
0.000717021
0.0286825
-0.00627416
0.00162603
0.0225946
0.00217869
-0.00434971
-0.00150826
0.0125531
0.00069846
-0.00120903
-0.00114657
-0.00366247
-0.0080121
-0.00585362
-0.00673365
-0.00873554
0.000634527
0.000308503
-0.00272604
-0.00369921
-0.00316732
-0.00284368
-0.00510838
-0.00439718
0.000989278
0.00444757
-0.00174498
-0.0228639
-0.00558213
-0.00116399
-0.00023019
-0.00184718
-0.00060776
0.000742277
-0.00382866
-0.00262393
-0.00353144
-0.00362695
0.00848491
0.000983602
0.008753
0.00207199
-0.010928
-0.00189466
0.00471014
0.0030572
-0.0134742
-0.00217041
-0.00487905
-0.0183504
-0.00374659
-0.00900023
-0.000195223
-0.00172541
-0.00168881
-0.0104048
-0.00283907
0.00056535
0.00199271
-0.00630031
-0.000908349
0.010434
-0.00212932
-0.00390499
-0.0177841
0.003024
-0.00693069
0.00140931
0.000234986
0.00216957
0.00310817
-0.0515038
-0.0370738
-0.0387626
-0.00144973
-0.00834687
0.00360336
-0.00489004
0.000857767
0.00708887
-0.0179275
-0.000895118
-0.0333074
0.0011376
-0.00592762
-0.00182218
-0.000167687
0.0032327
0.0364247
0.00569779
-0.00241578
0.00185902
0.022318
0.000573958
-0.00329681
-0.00523883
-0.00640984
0.0442238
0.00882438
4.44789e-05
0.000289831
-0.00167092
0.031873
0.000430581
-0.00240749
-0.00779939
-0.000867928
0.0105152
0.000845602
-2.41229e-05
-0.00166463
-0.001181
0.00433495
0.000120746
-0.000933674
-0.00304769
0.0017264
-0.0225679
-0.00656947
0.000439172
0.00262192
0.0318359
0.000579965
-0.00621811
0.0155767
-0.00346447
0.00690806
-0.0304645
0.000478886
-0.000776227
0.0029223
0.0015117
-0.000978013
0.000826403
-0.0056613
0.000750162
-0.0264731
0.00197955
-0.000978968
0.00111817
-0.00646207
0.00136188
-0.030196
0.000660016
-0.00885616
-0.00658633
-0.0101803
-0.00440045
-0.00133276
0.0331465
-0.00180489
0.0123076
-0.00233281
0.00350233
-0.0390811
-0.00868958
-0.00276994
-0.00350071
0.000203771
-0.0484332
-0.00147126
0.00806688
-0.000362655
-0.00244744
0.000825705
-0.000414255
0.00158243
0.00487131
0.000785938
-0.00148878
-0.0205773
-0.00258515
0.000659845
0.000330695
0.00652888
0.0142956
0.000335375
0.00701195
0.000165377
-0.0112704
0.031583
-0.0165741
0.00486868
0.00379875
-0.0184345
0.0119006
0.004001
0.0112417
0.0141889
0.0135497
0.0110634
0.00613998
0.0102299
0.0117429
0.00954524
0.00891341
6.58457e-05
-0.0458637
0.00530799
0.00733573
0.00766646
0.0108091
0.0036661
0.0240714
-0.0149738
0.00232755
0.00209421
0.028521
-0.0134485
0.00362722
-0.0546095
-0.000748842
-0.107104
-0.00619074
0.000350462
0.00597556
-0.00014639
0.0106298
-0.0315754
0.0285976
0.00349775
0.00660325
0.00532255
0.010605
-0.0027251
-0.000788745
0.00395919
0.0213831
0.0163075
-0.0207027
0.0131797
-0.0226289
0.0084992
0.00833258
0.0353146
0.00814328
0.0228952
-0.00772819
-0.0305418
-0.0203304
-0.0122471
-0.0216123
0.00348368
0.000888485
-0.000664083
0.0172609
0.024452
0.0306359
0.000909134
0.00114245
0.00380734
-0.00122252
-0.00157984
0.000474834
0.00317817
0.00296856
-0.0396439
0.0118308
0.00973956
0.00538432
-0.00403915
-0.000477983
-0.00886492
-0.00214938
0.00247655
-0.00874499
0.000406748
-0.0196225
0.00103164
0.00507185
0.000242302
0.000434522
0.0211376
-0.00644707
0.0013981
-0.00347753
0.00400211
-0.0504
0.00769409
-0.00128077
-0.0165826
0.00597668
-0.00384016
0.00411799
-0.00347755
-0.0113492
-0.010078
0.00332429
0.00550612
0.00195927
-0.00146354
0.00031785
-0.00128179
0.0051241
-0.000787516
-0.00448603
-0.00127265
0.000697592
-0.000972595
-0.0100858
0.00410945
0.00348504
-0.000434925
0.00309383
-0.0020691
0.0183175
0.00580989
0.00743593
0.00170239
-0.00414919
-0.00155408
0.00792893
-0.0264709
-0.0334199
-0.00214174
-0.000496925
-0.00709023
0.0121511
0.00927774
-0.00100024
-0.00946814
-0.0010229
-0.000979255
-0.00194109
-0.00170092
-0.00127873
-0.00091649
-0.00329471
-0.00757592
-0.025187
0.000627858
-0.0317887
-0.0129909
-0.0173538
-0.0374143
0.00586668
0.00464055
0.00430327
-0.00218056
-0.0117841
-0.00271718
-0.0338648
-0.0167736
-0.0025005
-0.00586501
-0.011491
-7.05377e-07
0.00965062
-0.00369462
-0.0105678
0.0254228
0.00676312
0.00264693
0.0048059
-0.00266083
-0.00749775
0.015892
-0.0271416
0.019265
0.00708557
-0.0025801
-0.00204015
0.000571917
0.00403337
0.0107327
-0.000897492
0.00104474
0.000608755
0.00562098
0.00299071
0.0218849
0.00413572
0.00547243
-0.029561
-0.0597773
-0.000539128
-0.0104991
-0.0150003
0.0123727
0.00875521
0.00316921
0.00256351
0.00138308
0.00219463
-0.00230084
0.00322634
-0.00153775
0.000110308
-0.000151825
-0.0116888
-0.0254935
0.000677323
-0.00278408
0.00588071
0.0049057
0.0105377
-0.0024932
-0.00134904
-0.000397947
0.00150998
-8.63762e-05
0.0012541
0.00289179
0.00437511
-0.00138925
0.000476066
-0.000561118
0.000481823
0.00124761
0.00360097
0.00171068
-0.0430286
0.0011734
-0.00212811
0.00907799
-0.00586041
0.000745305
0.0150175
-0.012213
-0.00384198
0.002678
-0.00232247
0.00394109
0.00789384
-0.00372428
-0.000802666
-0.0114791
-0.00117004
-0.0513267
0.00257461
-0.00266854
-0.000297298
-0.00199813
0.00075328
-0.00554833
9.24138e-05
-0.00256688
-0.000418994
0.00314341
-0.000792415
0.000887607
0.00269051
-0.0010045
-0.000835448
0.00243782
-0.000241615
-0.000736206
-0.00111318
0.000525389
0.000713671
0.00309971
0.00301443
0.00755825
0.000654338
0.00193552
-0.000390255
0.000803374
0.00399197
0.00341862
0.0044315
0.00116788
0.00145892
-4.06329e-05
0.000383789
0.000489346
-9.66038e-05
-0.00281803
0.000577691
0.0010832
0.00230301
0.00325278
0.00163334
0.00209213
-0.00416043
-0.000367182
-0.00142264
-0.000530981
0.000988151
0.00309459
-0.00185518
0.0016122
0.00181114
0.00243414
-0.00323375
0.00557178
-0.000868398
0.00196905
-0.000961756
-0.000559838
0.00384396
0.000654173
0.0014253
0.0015612
0.000243923
-0.000770976
-0.000801814
-0.000132271
-0.000179729
-0.00151002
0.000963145
-0.00764341
0.000720812
-0.00084294
-0.000544063
-0.0109251
0.00197506
0.000140042
0.000726274
-9.82311e-05
0.00036298
-0.00193618
0.00229984
0.0074861
-0.00200607
-0.00746679
-0.005091
0.00298475
0.0253345
0.000200345
-0.00239109
0.000790293
-0.000349052
0.000668613
-4.81947e-05
0.0322456
0.000306527
2.24805e-05
-9.40578e-05
0.00289588
0.00675168
-0.00174842
-0.000601356
9.83156e-05
0.000913435
0.000257415
-0.000573444
0.00815381
0.00272684
0.000253698
0.00110411
1.6146e-05
0.00056205
0.00146345
-0.000642802
-0.00123538
0.00921723
0.000706072
-0.00760251
0.00041539
0.00110846
0.0184988
-0.00079586
0.00201854
-0.000536147
-0.000252993
0.00205155
-0.000483097
-0.00051716
0.00846745
-0.00203915
0.00177206
0.00057215
0.000481936
0.000197473
0.000823263
1.14859e-05
-0.000393484
-0.000405256
-0.000563369
5.57541e-06
4.83963e-05
0.000428537
-0.046054
0.000693635
0.00130223
-0.000432661
-0.000490504
0.000498497
-0.000300187
-0.000131156
0.000298463
-0.000255978
-0.00392165
0.000317883
0.000225347
3.00626e-05
-0.000396141
0.00170431
0.000370773
0.00117135
0.000171185
0.000326168
-0.000488974
-0.00141096
0.000839175
0.000149695
0.000406209
5.24107e-05
0.000619996
-0.00183508
0.000482313
0.000513504
-0.00083438
0.000251123
-0.000121215
-0.000404634
7.83485e-05
-3.34386e-05
-0.00138265
0.000804927
0.000593363
0.000472146
-4.42516e-05
0.000120183
0.000100149
-6.02255e-06
-3.12666e-05
-0.000213257
-0.0034066
-0.000200777
-0.0011063
-0.00160305
-0.000167716
0.00014114
0.000158934
-0.000684821
0.00183847
-0.00101022
0.00390693
0.000535394
-0.000187073
3.43608e-05
0.000305305
-0.000303935
0.00127158
-0.00165581
-0.000520792
0.000657307
-4.51235e-07
-8.44703e-05
-0.000163844
7.02337e-05
0.000557164
0.00584719
-0.00243404
0.00453404
-0.00191691
-0.011952
-0.00181904
0.000519523
0.000294775
-0.00279343
2.11929e-05
-0.00303128
0.0011935
-0.000340913
0.00139789
0.000638597
5.59975e-05
-1.91533e-05
-0.00434841
-4.68418e-05
-0.000759122
-0.000880379
0.000397754
-0.00431195
-0.00597264
-0.00138723
0.000213664
0.00328672
-0.00030423
-0.000176187
-5.04135e-05
-8.83466e-05
-0.000446439
0.00190647
-0.00100732
4.81348e-05
0.00025671
-0.000792892
-0.000429628
0.00202834
-0.000427592
4.77255e-05
-0.000155578
5.8039e-06
-0.000125408
-0.000406068
-0.000353669
-0.000422053
0.000691629
-0.00062733
-0.000176688
-0.000235136
-0.00142464
-0.00240053
-0.000442597
-0.000590281
0.000687859
-0.000266695
-0.000602353
-9.87489e-05
0.000758217
0.00030754
-0.000435912
-0.000134637
-0.000725088
0.0012987
0.000632223
0.000457847
2.47304e-06
-5.37023e-05
-1.57195e-05
-3.06724e-05
-0.00083476
0.000102739
0.000739482
5.64337e-05
-0.000305626
-0.000119164
-0.000400018
0.000405915
-0.00056968
0.000109984
-0.000277965
2.84486e-05
0.000241707
-0.000169971
-0.000736429
0.00107036
-0.000306103
-0.00101142
-0.00143305
-0.00144442
0.00021169
-0.000140066
6.97316e-06
-0.000265021
-2.2486e-05
-0.00120028
-0.000547116
-0.000459952
9.11431e-05
0.000144736
-5.68858e-05
8.89664e-05
-9.88079e-05
-0.000619985
-0.000114897
-0.000726306
0.000379316
0.00105589
-0.000258046
-0.000180427
-0.000318431
0.00010531
-5.77778e-07
-0.000579192
1.96183e-05
-0.000229511
0.00212498
0.000207323
0.000531339
0.000453003
-0.000731384
-0.000144308
-0.000383717
0.00278278
6.05398e-05
0.000425022
0.000133457
-0.000334991
-0.000124374
-0.000433791
0.0025224
0.00153895
4.24079e-05
0.000513726
-0.000141531
0.000134576
0.00199244
0.000774875
-0.00112329
0.00153682
7.5674e-05
3.78012e-05
0.00185594
0.000208307
0.00073181
-0.000134069
0.000361538
-0.000215009
0.000644443
-0.000971943
0.000195083
0.000107366
-0.000477614
-0.00149371
-0.000192025
0.000273734
0.000103356
-8.45367e-05
0.00032132
0.00054117
-0.000420812
-0.000221875
-0.00167529
-0.0168909
-0.0047922
-0.00183041
-0.001956
-0.000380621
-0.000424739
-0.0110177
-0.000374104
-0.00448195
-0.000790859
-0.000873537
0.000258789
0.000344977
-0.0104366
-0.00311996
-0.000819614
-0.00106192
0.000252698
0.000184906
-0.00550309
0.00238168
-0.000138472
-0.0011835
-0.000438781
-0.000216378
-0.00190181
-0.000372702
-0.000923264
0.000283902
-0.0121859
0.00925202
0.0034135
0.00875429
0.00156184
0.00383574
0.00259182
-0.000945787
-0.000593885
0.00169115
0.000928241
-0.00318466
-0.00137235
-0.000833511
0.000763108
0.00107519
-0.00213158
-0.00287394
0.00191217
0.000613655
0.000590916
0.0013705
-0.000283885
0.000356983
0.000251947
-4.02241e-06
0.000115236
0.00014906
-0.00103513
-0.000336078
2.69279e-05
0.000503284
-0.00204003
0.00164117
0.00101543
0.0017715
0.000348605
0.00070012
0.000212585
0.00166466
0.0024369
0.000280583
0.00443087
0.00143538
0.000573565
0.00160942
0.000162191
0.000418673
0.000434884
-0.00130366
-0.000248005
-6.45664e-05
0.000481186
-0.00572679
0.00122471
0.00166449
0.001943
0.000312851
0.00283643
-0.00139756
-0.000108074
0.00170633
0.000147667
0.00108977
0.000133204
0.000697995
0.000781325
-5.26721e-06
0.000354972
-0.00701731
0.000659703
0.000111956
2.54147e-05
0.000235439
0.000533584
-0.000331055
0.000791365
4.99501e-06
1.86904e-05
5.93156e-05
0.000147724
0.000452451
0.00310321
0.000260101
-0.000428857
0.00154541
0.000124835
0.00045246
-0.00641294
6.03155e-05
-0.000550036
-4.72449e-05
0.000153042
0.000421467
-0.000618288
0.000461516
-0.000249954
1.29371e-05
0.000300781
0.000357422
0.00136473
0.000136555
-0.000526849
-2.98064e-05
0.00017983
0.000198423
0.000745294
-9.66011e-05
-0.000264995
-0.000162334
0.000179811
0.000216701
-0.000571424
0.000216246
-0.000283644
0.000311686
0.000476584
0.000354532
-0.00191077
0.00293487
0.00124143
0.00394747
0.00089223
0.001002
0.000976819
3.77573e-05
0.000304916
0.000560901
0.000395641
0.000300593
-0.000580255
0.00064655
0.000304637
5.60861e-05
-0.000882277
0.00117734
-0.000118211
0.000574609
0.000519294
0.000213475
0.000227098
-0.00217747
0.000166502
-0.00157218
-0.000284438
0.000282559
0.000134638
-0.000194347
2.39951e-05
0.00506224
0.00187748
0.00538155
0.00118943
0.00199831
7.41064e-06
-0.000647765
-0.000233258
0.00065274
0.000231241
0.00151235
0.00498013
0.00176453
0.0053666
0.000969549
0.00180507
-0.000679504
-7.55059e-05
0.000941406
0.000571424
-0.000418261
-0.00161222
0.000174146
-6.34637e-06
3.40895e-05
-6.82325e-05
-0.000109982
0.00194764
0.000337283
0.000596805
-0.00055391
-0.000255486
0.000236986
0.00152019
0.000407648
-0.000457471
-0.000172812
0.00221909
0.000451911
6.71048e-05
-0.000266728
-4.30215e-05
0.000172344
-0.000252751
-0.00121538
-0.000356637
-6.89247e-05
-9.59611e-05
-0.00157756
0.000624247
0.000169377
0.000319216
1.78157e-05
0.00015356
-0.000359829
-0.00126959
-0.000254365
-0.000167195
-0.000208608
-0.00284659
0.00165705
-0.000235959
-0.000400022
-0.000267961
-0.000259585
0.000363634
2.19672e-05
0.000147264
-8.95805e-05
0.00320877
-0.000397901
-0.000346251
-0.000469093
-0.000184632
-0.00013456
-0.000301867
-0.00256271
-0.000408287
-0.001515
-0.000375704
-0.000413222
-3.43843e-05
0.000679407
0.000547796
0.00142647
-0.00030585
0.010439
-0.000306455
-0.000747381
-0.000255234
-0.000338918
-0.000321141
0.000423097
0.00199678
-0.000163798
-0.000527865
0.000538375
9.05631e-05
0.00034506
0.00454651
9.12255e-06
-0.000467107
0.000269983
0.000334247
6.55289e-05
-0.000247633
0.00131198
-0.000333227
-0.0134913
0.000978039
-4.27991e-05
-0.000117296
0.0127389
0.000131833
0.00160748
-0.000127515
-0.000261635
-0.000233329
-0.000352984
0.000863165
-8.28798e-05
0.000161343
4.17089e-05
-0.000102264
-1.7398e-05
-0.000241516
0.00213517
3.79797e-05
0.00156072
5.5608e-05
-7.89164e-06
8.0196e-05
-0.000254007
0.000148364
-8.02289e-05
0.00053767
2.19252e-05
-0.000125174
-1.58467e-06
-0.000123421
0.00120701
0.000244224
0.000469353
-0.000464124
-0.000139587
0.00120874
2.38451e-05
-1.54572e-05
0.000102916
5.63016e-05
5.97562e-05
0.000400995
-0.000167834
0.000368432
-0.000165135
-2.00609e-05
3.01889e-05
-0.000167513
0.000927966
-6.96755e-06
9.59356e-05
-0.000146952
0.000286849
3.05455e-05
-0.000174564
0.00370438
-3.6673e-05
0.000734303
-7.94437e-05
-0.000140543
-5.48038e-06
-0.000281954
-0.000228673
0.00040366
-0.000368783
-0.000258796
0.000199908
-1.08656e-05
-5.03686e-05
0.00333688
0.000110554
0.000226992
-6.84216e-05
-7.39602e-05
8.16096e-05
-5.85808e-05
0.00729539
1.12661e-05
0.000210712
8.96225e-05
3.79729e-05
-0.000220355
0.00165352
0.00040386
-9.36232e-05
0.000375328
0.000425969
8.27882e-05
0.00218507
0.00033696
0.000561145
0.000265301
0.000804829
-7.79096e-07
0.00304092
-0.000117516
-0.000138656
-0.000256164
-0.000213276
4.75726e-05
-6.16726e-05
-0.000280205
-0.000379204
4.20881e-05
-0.00010682
-0.000581673
-0.0028694
-0.000643416
-0.00240954
-0.000657136
-0.000630958
0.000647019
0.00600091
-0.000431702
-0.000887969
0.0030382
-0.00372902
-0.000641002
-0.00342149
-0.000586625
-0.00050759
0.000417129
0.000492797
-0.000502074
-8.38866e-05
0.0037468
-0.000812558
-4.93015e-05
-0.000423849
-0.00013402
-7.77706e-05
0.00253816
0.0087282
-0.000171094
-0.00027071
-0.000207532
-0.000470412
3.06603e-06
-0.00019205
-8.05856e-05
-0.000253312
-0.000135536
-0.000239299
0.000300654
-0.000216686
-0.000542907
-0.000191208
0.00022124
-0.0024876
-0.000264283
-0.00151923
-0.000283768
-0.000402406
-0.000233198
0.000184422
-0.00102621
-0.000439922
-0.000135805
0.000737909
0.000128708
-7.99219e-05
-0.000139473
-0.000202266
7.88368e-05
0.00186737
0.00353347
-0.000123002
-0.000339931
-0.000409263
0.0368709
-4.96771e-05
0.00169202
-0.00184056
-0.000370525
-0.000215658
-0.000765421
0.0132726
-0.000188322
4.37298e-05
0.00019202
-2.11205e-05
0.0001612
0.000701268
5.26532e-05
6.01778e-05
-3.6955e-05
-0.000119506
0.000973312
-0.00240532
-4.652e-05
0.000384351
-4.68651e-05
-0.000108205
-0.000669152
-5.77528e-05
-0.000453662
-0.000110854
-0.000203366
0.00472505
-0.00254848
-8.88623e-05
8.64636e-05
-9.92464e-05
-0.000165264
-0.000217704
-9.8604e-05
-0.000306785
-2.42931e-05
-0.000277783
0.00272226
-0.000617724
0.000116981
0.000244123
-5.53145e-05
0.000112706
-0.000312929
0.000272251
-8.06633e-05
-6.21702e-05
-0.000429924
0.00679185
-0.000504874
6.29468e-05
-0.000158853
-5.46728e-05
3.39869e-05
-7.85741e-05
-0.000423564
-0.000840464
-0.000103337
-9.49414e-05
-0.00120115
0.00203355
0.00105167
0.00350061
0.000757516
0.00107558
0.00120137
0.000656238
-0.000235035
0.00065977
-3.96309e-05
-0.00181124
0.00118144
0.000518099
0.00132806
0.000250438
0.000652953
0.000340853
-0.0100216
0.00019759
0.000872525
-0.000221844
0.00870764
-6.31501e-05
0.000774989
-8.12976e-05
0.000139275
-8.66905e-05
0.00557141
0.00048505
-0.0010378
-0.000128583
0.000414091
-0.000273189
-0.000102965
0.00125038
0.000378626
0.00142795
4.16889e-05
0.000266222
-1.87197e-05
-0.00191759
-4.99805e-06
0.000476058
-9.8264e-05
0.0184457
-0.000124359
0.000432054
0.00100076
0.000293825
0.000350157
-0.000254653
-0.0459659
0.000473139
-5.79255e-05
-0.000185325
0.00193824
0.00115868
0.000982541
-0.000501039
0.000191151
-0.000207127
0.0192312
0.000113717
0.000394164
0.00190892
0.000135448
8.09908e-05
-0.000706853
0.00105261
-0.000345275
1.98768e-05
-0.000307798
-0.00531315
0.000327504
-1.88867e-05
0.000188282
-0.000171444
-2.03128e-05
-0.00040174
0.0100197
0.000246993
-8.59302e-05
0.000751145
-0.000125961
-9.07032e-05
-0.000120147
0.00472727
0.00018067
-0.000540416
0.000150198
0.00029784
-4.43342e-05
-0.000779685
0.0151007
-0.000149285
-0.00650691
-0.0069407
0.00106471
-8.01339e-05
0.00883543
-0.000193757
-0.00100602
-0.000139822
0.000219133
-0.000165382
-0.0523671
-0.000456764
-0.00589466
-0.00106514
-0.00140571
0.000432762
-0.0172895
-0.00277581
-0.000672403
-0.000885229
-7.00729e-05
-0.000289733
-0.016336
7.04811e-05
-0.00200362
-0.000376792
-0.000338871
0.000228846
4.54359e-05
-0.018419
0.00138886
0.000348151
0.000462498
-2.84653e-05
0.000420612
0.00042174
-0.00205391
-0.00170253
-0.000791075
0.000725515
-0.00924636
-0.00118712
-0.00308746
-0.00070859
0.000218108
3.81435e-05
-0.00659042
-0.000124685
-0.00135895
-0.000142
-0.00034864
7.65502e-05
0.000114013
-0.0118461
0.00185662
-0.000621957
0.000429518
0.000855222
0.000193662
0.00281587
0.00111941
-0.002412
-0.000255187
0.000296818
-0.000107268
-0.0027201
-0.000606229
-0.000263346
-0.000477234
-0.00145356
-0.000112816
-0.00112936
-0.000192378
-3.97196e-05
-0.00041387
-0.000294836
-0.00527086
0.000581448
0.000584018
0.000103644
-0.00293451
0.000300628
-0.000185848
-0.000144432
-0.000178921
-0.000374952
-0.000132905
-0.00158601
0.00105761
-0.000271977
0.00113057
6.38582e-05
0.000232425
0.000570551
0.000692022
-3.10368e-05
6.75551e-05
-0.000493852
0.000144778
0.00162637
-0.00587388
-0.00107478
-0.00013619
-0.000565749
-0.00250675
-0.000352139
-0.00125845
-0.000584006
-0.00053581
-0.00055248
-0.000676592
-0.0110353
-0.00214046
-8.96259e-05
-0.000349753
-0.000472642
0.000321193
0.000185363
-0.0012232
-0.000459661
-0.000226725
-0.0008524
-0.000388452
-0.0204065
9.05436e-05
-0.000493812
5.38648e-05
-0.000117957
-0.000660179
0.000135292
0.000283061
1.68504e-05
-0.000106071
-0.000338631
-0.000208264
0.000472324
0.00830933
-0.000151228
-2.84543e-05
1.49238e-05
-0.00103005
0.00128614
0.000917388
-0.000103656
-0.000152341
-0.000500698
-0.000207064
0.0313507
0.00132945
-0.000183964
-0.000273358
-0.000262289
-0.00206797
-0.000208213
7.88036e-05
-0.000124986
-0.000236998
-0.000491129
-0.000240724
-0.00124141
0.000476742
-0.000261858
-3.44708e-05
-0.000348623
-0.000107648
0.000652546
-0.000249799
-0.000267558
-0.000334635
-0.000361844
-0.000328008
0.000713422
-0.0128562
0.00284488
-0.000697803
-0.000749772
-0.000700357
-0.00208561
1.84722e-05
-0.000770077
-0.000422938
-0.0006083
-0.000608861
-0.000707653
-0.00395924
0.00634639
-0.000481032
0.00307094
0.000964976
0.00105407
-0.000340067
-0.000224248
0.00113786
0.00140683
0.00144294
-0.000530679
0.00172414
0.00130363
-0.00021153
-4.16907e-06
-1.78188e-05
-9.76712e-05
-0.0003429
0.000380263
3.18001e-05
7.48133e-05
-6.20345e-05
-0.000194683
-5.50191e-05
0.00633948
0.000430091
9.58609e-05
0.000153097
0.000229977
0.00169783
0.000511116
0.000663191
9.3365e-06
-0.000301599
-0.000586952
-0.000342907
0.0304627
0.000838934
-0.000560593
0.000220521
-0.000189279
-0.000365539
-0.00016124
-7.32105e-05
-5.8169e-05
-8.57832e-05
-0.000142188
-0.00019087
0.000256174
0.00871619
0.00179839
0.000164073
0.000453459
0.000179012
-0.000541321
0.000402453
0.00138968
6.55575e-05
-0.000174214
-0.00033506
8.45769e-05
0.0292963
-0.00588266
-6.83407e-05
5.9259e-06
-0.000903921
-0.000170912
8.20375e-05
0.000184687
0.00010014
-0.000225397
-0.0063606
0.000531565
-0.000671739
0.00177359
0.000700542
-0.0012261
-0.00267048
-0.000325322
-0.000654097
0.00148555
0.00164778
-0.000380355
0.00141568
0.000181703
-0.000811005
4.92904e-05
-0.00337775
-0.00337209
-0.00014021
-0.000565569
-0.00105769
-0.00126219
3.64054e-05
0.00182716
-0.00265505
-0.00182911
-0.000666384
-0.002076
-0.00327358
-0.00168743
-0.00103466
-0.00215865
-0.000594403
-0.00190918
-0.000144172
-0.00036749
-0.00268319
0.000166291
-0.00054224
0.000271392
-0.000939459
-0.0021332
-0.00353318
-0.00199498
-0.000473359
-0.00121424
-0.0012735
-0.000901226
-0.00201799
-0.00427477
-0.00157731
-0.000683195
0.00697339
0.00273232
-0.00252989
-0.000823416
0.00135576
-0.0028281
-0.000739652
-0.00125178
-0.00115593
-0.00179726
-0.000611018
-0.00179809
-0.000459289
-0.00164972
-0.0005874
-5.83472e-05
-0.00229374
-0.00287208
-0.00272792
0.00041453
-0.00282371
0.00130197
-0.000895026
-0.00105426
-0.000545282
-0.00254466
0.0018387
0.00312582
0.00079263
0.00126507
-0.00368898
-0.000240868
-0.00174008
0.000139605
0.00028116
0.000361546
0.00685261
-0.000105646
-0.00322696
-0.000720493
-0.000735331
-0.00401992
-0.00102434
-0.0015632
0.00018539
-0.00288129
-0.000816086
-0.00105498
0.00317489
-0.00137152
0.00161323
-0.000990447
-0.000501773
-0.00433064
-0.00222556
0.000183674
-0.000180051
0.0102576
0.00989597
-0.000924425
-3.93628e-05
-0.00120182
-0.00166493
0.000437762
-0.00496185
0.00138329
-0.000717353
-0.000519451
0.000822575
-0.00838
-0.00169369
0.00204113
-0.00480993
-0.000860867
-0.00151527
0.00145991
0.0988376
0.000976668
0.00617916
-0.0148535
-0.00741142
0.00196288
0.00855655
0.000796338
-0.00336445
-0.0419715
0.00157308
0.000821238
0.00648035
9.18347e-05
0.00340714
-0.00475506
-0.0167834
0.00138736
-0.0105287
-0.00089159
-0.0024799
0.00186077
-0.00645881
-0.00307578
0.000645311
-0.00439887
-0.0108626
-0.000832367
0.0408432
-0.000943608
-0.000765594
-0.00094649
-0.000183656
-0.0033608
0.000741635
0.00170543
-0.00229597
0.0023219
0.000948053
0.00432806
0.0031727
-0.00124114
0.00236944
-0.00225184
0.0210604
-0.00765422
-0.00286356
0.00191391
-0.00333735
-0.00448177
0.00275075
0.0212944
0.0122493
-0.00415082
0.0227899
0.00110957
0.0297672
0.0100464
0.00110322
0.0200127
-0.00018162
0.000211253
-0.00669676
0.0019429
0.000727006
0.00237381
0.00493241
-0.00167202
0.00154088
0.00181411
0.0078725
-0.00547778
-0.00881321
-0.0438651
-0.0396241
0.0180328
0.0134864
-0.000299771
-0.00466262
0.0225193
-0.0313502
0.00105643
-0.0167837
-0.00642952
-0.00817528
0.00278572
0.00161188
-0.000595477
-0.00767022
-0.00429686
-0.00525976
-0.0100292
-0.0132541
-0.0125187
-0.00393087
-0.00233909
-0.00350689
0.011862
-0.0270136
-0.00928286
-0.0051894
-0.00342995
0.000179367
-0.000766349
0.000183505
-0.00502018
0.00510423
-0.00272371
4.63955e-05
0.00387209
0.00219746
-0.00142049
-0.00808832
0.000802748
0.00206833
-0.00730441
-0.00694887
-0.0025146
-0.00135263
-0.000386977
0.0158707
-0.00627502
-0.00154233
-0.000328745
-0.00846303
0.00609214
0.000438859
-0.00209742
-0.00184743
-0.0013586
0.000672356
0.00112363
-0.00241516
-0.00313464
0.0118669
0.0086334
-0.00323792
0.0125774
0.0196347
-0.00835998
-0.0107043
-0.0116727
0.00676718
-0.0196071
-0.00264196
-0.00347734
-0.00270478
-0.00805838
0.000688192
0.00847602
-0.00530625
-0.00279171
-0.000580133
-0.0024388
-0.0139583
-0.00917793
-0.00145535
-0.000787378
0.0189656
-0.00906641
-0.0156772
0.00344092
-0.000118557
0.00691945
0.00718488
-0.00520173
0.00673267
0.000768444
0.00161424
0.0180825
0.00231351
0.0168509
0.00843409
-0.00408925
-0.000137109
0.00378997
0.00407801
0.00191492
0.00430961
-0.00384981
0.00314843
-0.000650723
0.00311506
0.00604377
0.00467916
-0.00162752
0.00298231
0.013258
0.00286072
0.00774505
-0.0008869
-0.000200693
-0.00155654
0.00810272
-0.0027408
0.000866298
0.0296367
-0.00179116
0.00135673
0.0158213
0.00736775
-0.002415
-0.00132301
0.0187944
-0.00747959
-0.00151538
-0.00110305
-0.000820783
-0.00279545
0.000141834
-0.00931674
-0.00808193
-0.00133405
0.000892211
-0.0055575
-0.00415282
-0.00423987
-0.00343714
-0.00472535
-0.00598027
0.00942253
-0.00198275
-0.0032817
-0.0133224
-0.010223
0.000795643
-0.000592053
-0.0014384
-0.000610374
-0.00123389
-0.00570856
-0.00407307
0.000364683
-0.00571213
0.00824446
0.00378529
0.0108154
0.00185391
-0.00270524
-0.00278538
0.00474161
0.00207621
-0.0140382
-0.00164837
-0.00462276
-0.00749034
-0.00823539
0.00105459
-5.80755e-05
-0.00357913
-0.00221487
-0.00780648
-0.0166549
0.003272
0.00517661
-0.00471268
0.00198594
0.00837832
0.000338552
-0.0170802
-0.044448
-0.00438239
0.00479254
0.00969092
0.00788845
0.0107066
0.00110844
-0.0696902
-0.109131
-0.109423
-0.00738388
-0.0244615
0.00492865
0.00561436
0.00565528
0.0222987
-0.0237338
0.00637412
-0.0607967
-0.00638697
-0.0162589
0.00686011
0.00522801
0.00838076
0.049235
0.0127518
0.00332841
0.00568049
0.0316227
-0.000489455
0.00543762
-0.0172194
-0.00152027
0.032779
0.00582309
0.00343124
0.00382175
0.000463856
0.0267661
0.0006009
0.00285026
-0.00438663
0.00592841
-0.0303917
0.000478059
0.00285349
0.000932299
0.00242402
0.00901687
-0.00595866
0.00310961
-0.0010788
-0.00094273
-0.0241647
-0.0154836
0.0025269
0.00534632
0.0342148
0.00483922
-0.00904779
0.0257656
0.000219287
0.00301876
-0.00340174
0.002603
0.000730861
0.00684521
0.00364865
0.000730226
0.00285425
-0.0089894
0.00285215
-0.0242062
0.00429461
-0.00026034
0.00258623
-0.0120814
0.00310115
-0.0431042
0.00215301
-0.0101284
0.0059169
-0.00790936
0.00351005
0.000389134
0.0376193
0.00462206
0.0199051
0.00288154
0.0125791
-0.0498102
-0.0106419
-0.00339377
-0.00440715
-0.0036287
-0.0461641
-0.00197613
0.012926
-0.000101747
-0.00115296
0.00152103
0.000438807
0.00312545
0.003025
-0.00014846
-0.000760914
-0.0258474
-0.00193863
0.00120647
0.000669661
0.00256611
0.00987237
0.0156494
0.00872503
0.00354283
-0.00379817
0.0445916
-0.000446179
0.0131208
0.00259968
0.00513036
0.00627978
0.000890523
0.00264147
-2.55272e-05
0.000820172
-0.0013879
-0.00546245
0.00373425
0.00358245
0.000573582
-0.00521139
0.0056485
-0.031667
0.000494459
0.000802913
-0.00188431
0.00462492
-0.000505188
0.00804466
0.0149119
-0.00020735
0.000389005
0.0322605
-0.0138004
0.000870423
-0.0136945
-9.74949e-05
-0.0496704
-0.00761743
0.0207337
0.00372704
-0.0019005
0.00173233
-0.00137322
0.0167989
-0.00018117
0.00655652
0.00394689
0.024119
0.00631238
0.00717877
-0.00120549
0.0101097
0.0249891
-0.0129928
0.00759097
-0.000831732
0.00358133
0.00555108
0.020758
0.00295393
0.0228156
-0.0197293
-0.0221476
-0.0283254
-0.0188483
-0.0319235
-0.000438165
-0.00264645
-0.0030451
0.0114088
0.0222658
0.0296244
0.000473131
0.000731232
0.0101726
-0.00221618
-0.00314239
-0.00104558
-0.00398461
0.00205723
0.00150138
0.00622867
0.00709924
0.0201998
-0.00912606
-0.000762981
-0.00612635
-0.00718838
0.00115329
-0.00438126
0.000133201
-0.0256779
0.000903214
0.00652879
0.000435462
-0.00117417
0.0150011
0.00542892
0.0206419
-0.00683102
0.00895574
-0.0165637
-0.00090659
-0.00386964
-0.0161478
0.00700176
-0.00442183
0.00747162
0.000916577
-0.00531427
-0.00462696
0.0089429
0.00422022
-0.000361708
-0.00300827
-0.00148251
-0.00312665
0.00313118
-0.00491864
-0.00440184
-0.00365311
-0.00041077
-0.00411853
-0.0165569
-0.00333319
0.0108098
0.000771937
0.00420932
-0.00475251
0.0131239
-0.00861865
0.00713649
0.00101003
-0.00666021
-0.00144239
0.0307671
-0.0322758
-0.0340444
-0.00410894
-0.00131615
-0.0116989
0.0219307
0.0107896
0.000561208
-0.0072175
-0.00358422
0.00242756
-0.00266947
-0.00228837
-0.00195532
-0.00157999
-0.0088955
-0.00896584
-0.0324644
-0.00030983
0.0133986
-0.0273477
-0.00949115
0.0108463
0.00993658
0.00469859
-0.00218972
-0.00514416
-0.0209393
-0.0157196
-0.029487
-0.0176864
-0.0138399
-0.0248235
-0.00987261
0.0027074
0.0110759
-0.00332626
0.0220612
0.0222122
0.00788058
0.00315458
0.00306063
-0.0022287
-0.00772389
0.0380634
-0.0497717
0.00650025
0.0138547
-0.00337007
-0.00347351
-0.00107633
0.00374859
0.0120406
-0.00207297
0.00133881
0.00096032
0.0104178
0.00276294
0.0251176
0.004672
0.00755187
-0.0472295
-0.0614233
-0.00131382
-0.00400051
-0.00322736
0.0120685
0.00876539
0.00298941
0.00145647
-1.70354e-05
-0.00477259
-0.00195797
-0.00644932
-0.00150917
-1.50689e-05
-0.000368114
-0.0144543
-0.0310594
0.00117587
-0.00514843
0.00657861
0.0094517
0.0083087
-0.00558043
-0.00178147
-0.000837117
0.000685221
-0.000152613
0.00175142
0.00250623
0.00384364
-0.002089
0.000426969
0.0023237
0.00269295
0.00342113
0.00497057
0.00566738
-0.0306387
0.00341316
-0.00249255
0.0056507
-0.00830597
0.000530054
0.014897
-0.0247446
-0.00365558
-0.00267046
-0.00416523
0.00414064
0.00566713
-0.0080398
-0.00101243
-0.00570119
-0.00218443
-0.0453031
0.00207068
-0.00285497
0.00182337
-0.000518706
0.00334044
-0.00860382
0.000468636
-0.00210744
-0.000429779
0.00454757
-0.00352082
0.000796006
0.00214124
-0.00230639
-0.00238755
0.00178425
-0.00137863
-0.0023522
-0.00202137
0.000675976
-0.000186963
0.00197961
0.00401933
0.00951183
-2.18242e-05
0.0017025
-0.00133632
0.00100459
0.00417733
0.0028809
0.00413679
0.000194584
-0.000303029
-0.00123299
-0.00148636
-0.000432698
-0.000814092
-0.00513602
-9.99437e-05
-0.000167034
0.00270086
0.000942016
0.00148796
0.000666094
-0.00636978
-0.000695468
-0.00307415
-0.00150049
-0.000812747
0.00247559
-0.0043241
0.00105627
0.00229358
-3.46993e-05
-0.00384395
0.00516782
-0.00146615
0.00309745
-0.00289848
-0.000771572
0.00416749
-0.0001953
-0.000130638
0.00148336
0.000637156
-0.00294261
-0.000324049
-0.000578185
-0.000602429
-0.0023549
0.00137204
-0.0190161
0.00531682
-0.00179968
-0.00160122
-0.0241903
0.00234638
9.47811e-05
0.00143778
-0.00015049
0.000296021
-0.00246054
0.00778649
0.0162032
-0.00269997
-0.0105723
0.000733685
0.00333534
0.0367516
0.000352721
-0.00156294
0.000752486
-0.00113559
0.00121953
-0.000137924
0.0455781
0.000838761
-0.000276635
-0.000550325
0.00564591
0.0116853
-0.00280039
-0.00123659
0.00254657
0.00104982
-0.000439137
-0.00079542
0.0134538
0.00280704
0.000297037
0.00235389
1.69301e-05
0.000583518
0.00729512
0.00106312
0.00909902
0.0123277
0.00118444
-0.0112618
0.000390691
0.00151234
0.0110526
-0.000547295
0.00465317
-0.00116337
-0.000579747
0.00099726
-0.00183868
-0.000994929
0.0225425
-0.00231662
0.00188647
0.000613336
0.000712995
0.000275117
0.000770375
-0.000245723
-0.000325005
-0.000467376
-0.000405331
8.67213e-05
-7.3077e-05
0.000466969
-0.0268768
0.00115167
0.00173184
-0.000680475
-0.000983791
0.000941463
-0.000657236
-0.00047081
0.000291291
-0.000631613
-0.00497965
0.00042682
-5.62775e-05
-6.7721e-05
-0.000550487
0.000944508
0.000259366
0.00149212
9.48653e-05
0.000133221
-0.000883322
-0.00197245
0.00159372
0.000776834
0.000687133
-0.000534203
0.000669717
-0.00318296
0.000397479
0.000584779
-0.0015974
0.000168588
-0.000367861
-0.000748315
-0.000117907
-0.000945339
-0.00185519
0.00146181
0.000724353
0.000719195
-0.000189859
0.000134473
0.000353781
2.73698e-05
-0.000141511
0.00340515
-0.00126058
0.0028047
0.00298578
-0.00247619
-0.000821536
0.000776935
-0.00034697
-0.00105231
0.00118126
-0.00309141
0.0118512
0.00228026
-0.000524799
-0.000301134
-0.000639715
-0.000456334
0.00343951
-0.00158029
0.0016455
0.000122002
-0.000141453
-0.000118641
-0.000291565
-0.000127298
0.000252378
0.0172636
-0.00343331
0.00726917
-0.00306472
-0.0179727
0.000331192
0.000580449
-0.000214559
-0.00546167
-0.000624954
-0.00405021
0.0012121
-0.000920064
0.0031927
0.00202218
-0.000354008
-0.000422646
-0.00404421
-0.000782521
-0.00220814
-0.00146274
0.0018602
-0.00614505
-0.0142509
-0.000690836
1.89459e-05
0.00832274
-0.000142473
7.09436e-05
-0.000225609
0.00106603
-0.000789515
0.00229814
-0.000849327
0.00044181
0.000661566
-0.000728865
-0.000719278
-0.001688
-0.00418706
-0.0058735
-0.00473643
-0.0056846
-0.00112268
-0.000254632
-0.0142633
-0.000696381
-0.00204439
-0.00420049
-0.0021972
-0.000137432
-0.0321704
-0.00500947
-0.00464729
-0.00262083
-0.000661475
0.000183551
-0.0113291
0.000741849
-0.000458653
0.000323839
-0.00333878
-0.000216796
0.000183254
-0.00850874
0.00198872
-0.000993403
-0.000973585
-0.00182555
-0.000201133
0.000187191
-0.0114579
0.000485169
-0.00011211
-0.00116997
-0.00311637
-0.000344394
-0.000156019
-0.00725157
-0.0017181
-0.000319434
-0.00182155
-0.000431842
0.000113059
-3.4659e-05
-0.00228169
0.00456576
-0.00211271
-0.00483632
-0.00781668
-0.00877065
0.000201142
-0.000904597
-0.00081159
-0.000987454
-8.79503e-05
-0.00383421
-0.00172541
-0.00108961
-0.000726478
4.44036e-05
0.000227278
0.00024085
-0.00192923
-0.00181176
6.17756e-05
-0.0130039
-0.00604536
0.000220764
-0.00043511
-0.000415714
-0.000863834
-7.41411e-05
0.000412045
-0.00195706
-0.000108741
-0.00012561
-0.000922021
0.000248301
0.000930213
0.000737868
-0.00185591
-0.000267907
-0.000393574
0.00303353
-6.44065e-05
0.000844317
-0.000338393
-0.00129615
-0.000255832
-0.000516043
0.004745
0.00272954
0.000184363
0.00132347
-0.000105066
0.000365543
-0.000946256
0.00135444
-0.00211716
0.0031872
7.301e-05
-0.0157386
0.00316979
0.000456981
0.00192052
-2.48909e-05
0.000715642
-0.000355959
0.00120045
-0.00151422
0.00119174
0.000176596
0.000417502
-0.00409451
-0.00108891
0.000123975
9.55376e-05
3.29192e-06
-0.0050074
0.00131731
-0.000911739
-0.000115434
-0.000220626
-0.00159786
-0.00260544
-0.00130405
-0.00100878
7.05367e-07
-0.000168996
-0.00580944
7.19818e-05
-0.00204871
-0.000276922
0.000400726
1.32061e-05
-0.000222378
-0.00511137
-0.000590248
-0.00117872
-0.000621147
-0.000143266
0.000192044
-0.00272479
-0.000265052
-0.000502478
-0.00122268
-0.000574026
-0.000604585
-3.01188e-05
0.000479865
-0.000893781
-0.000431217
-0.00811901
0.00587827
0.00283999
0.00798399
0.00221442
0.00272026
0.00242579
0.000169791
-0.000680177
0.00313137
0.000382163
0.00179171
-0.000861172
-0.0015777
0.00116021
0.000641257
0.00464724
0.00152992
0.00493744
0.000754149
-4.04687e-05
0.0171085
-0.00363417
-7.02303e-05
-0.00124387
-0.000118964
-0.000511635
-0.000421436
-0.000940559
-0.000163834
5.31551e-05
-0.000168022
0.00494691
-0.00119757
0.000641012
0.000200286
0.000412698
5.81197e-05
-0.00017801
0.00527676
0.00482126
8.51224e-05
0.0122767
-0.000547061
0.000383738
0.000605666
0.000208784
0.000130903
0.000621097
-0.00146336
0.000199255
-0.000118968
0.000252467
-0.00245115
0.00140673
0.00512526
0.00262874
0.000104403
0.0175601
-0.00199745
0.000368673
0.00312586
-9.28007e-05
0.00745518
0.000103137
1.83807e-05
0.00273279
-8.22463e-05
4.3722e-05
-0.00469336
0.000372323
-0.000770908
0.000703404
0.000300607
0.000346877
-0.000730778
0.00886539
-2.14419e-05
-0.000302576
0.000284685
0.000172677
0.000248226
0.0136056
0.000111261
-0.00130124
0.00500778
7.61952e-05
0.000275135
-0.00441906
0.000177136
-0.000601129
0.000375269
0.000235284
0.000301954
0.00409283
0.000424493
-0.000342492
0.000142879
0.000309804
0.000168786
0.0169373
0.000186309
-0.000894492
0.000572913
0.000247079
-7.99931e-06
0.0049066
-0.000137268
-0.000187809
-0.00021681
7.73012e-05
1.72999e-05
0.00378834
0.000304811
-0.00120583
0.00163045
0.000473183
0.000209072
0.00232049
0.000731712
0.00103721
0.00262192
0.00107704
0.000622027
0.0010567
-0.000731956
0.0016758
0.000789554
0.000329858
0.000204692
-0.00151117
0.00235455
0.00038981
-9.18738e-05
-0.000883996
0.00377561
-0.000291353
-0.00158433
0.00133495
0.000221619
6.93904e-05
-0.00387368
0.00028533
-0.00217882
-0.000315724
0.000562856
-3.55338e-05
-0.000401618
0.00165825
0.00438401
0.00221379
0.00650219
0.00159668
0.00207995
0.000151982
-0.00140617
-0.000295263
0.00110989
0.000109423
0.00573093
0.00477821
0.00191523
0.00646851
0.00133839
0.0018086
-0.0014353
0.000228831
0.00167578
0.000609251
0.0011201
-0.00235672
0.000889714
-7.62366e-05
-0.000173581
-0.000277938
-0.000293368
0.00671911
0.000641591
0.00255399
-0.000554819
-0.000499968
0.00357116
0.00146114
0.00184098
-0.0001354
-0.000372449
0.00818596
-0.000360269
1.90373e-05
0.000144245
-4.62563e-05
6.48828e-05
-0.00047037
-0.00227911
-0.000697747
-0.000144189
-0.000302698
-0.00159796
-0.000519523
0.000104999
0.000873723
5.12547e-06
7.97282e-06
-0.000604488
-0.00212011
-0.000266486
-0.000268585
-0.00041355
-0.0026758
0.000831631
-0.00055652
-0.000680456
-0.000518867
-0.0005686
0.000338643
0.000615826
0.000510371
-0.000342132
0.00983182
-0.000578094
-0.000516102
-0.00110852
-0.000324556
-0.000429727
0.00114165
-0.0045341
-0.000653948
-0.0018738
-0.000555982
-0.000683716
-0.000268304
0.00136052
0.00366743
0.00291312
-0.000632514
0.0222412
-0.000431139
-0.00110088
-0.000412442
-0.00058963
-0.000694327
0.000770513
0.00207873
-0.000415563
-0.00100981
0.00060845
-1.27485e-06
0.000488569
0.0124905
0.000119022
-0.000804165
0.00102582
0.000616189
-7.53338e-05
-0.000277649
0.0031982
-0.000562309
-0.0212604
0.00375289
0.000230872
-0.000177411
0.0274487
0.000148913
0.0022584
-0.000187231
-0.000619334
-0.000548341
-0.000569757
0.00216014
-0.000109285
-0.00019384
0.000368383
-0.000576016
-0.000183698
-0.000407626
0.00567526
0.000168967
0.00125447
0.000360095
-0.00024743
-2.73142e-05
-0.000322925
0.00167274
-8.46713e-05
0.000464944
0.000294457
-0.000511319
-0.000137255
-0.000146976
0.00260604
2.42638e-05
0.00219071
0.000287927
-0.000427212
0.00500369
7.78003e-05
-0.000104185
0.000355636
-9.03528e-05
-7.37374e-05
0.00139536
-0.000256257
0.000304264
-0.000333026
-0.000506605
-0.000138535
-0.000252356
0.0037801
4.88625e-05
-0.000128831
-0.0001892
0.000229727
-0.000130611
-0.00033317
0.011438
1.70404e-06
0.000430903
-0.00035394
-0.000549069
-0.000144191
-0.000417106
0.000399348
0.000398124
-0.0006115
-0.000268018
-3.38245e-06
-0.000295554
-0.000227251
0.00678898
0.00014761
3.67917e-05
-0.000284661
-0.000564243
-5.29138e-05
-0.000115496
0.00971152
-9.64461e-05
0.000702691
-0.000356358
-0.00024854
-0.000470579
0.00764703
0.000456244
-0.000268279
0.000986688
0.000332044
-8.91534e-05
0.00434887
0.000389436
-0.000105145
0.00116221
0.00117158
-0.000304169
0.00608579
-0.00109376
-0.00017587
0.000279572
-0.000233743
-4.70238e-05
-0.000168617
-0.000378966
-0.00094496
-1.13567e-05
-0.000427631
-0.00180411
-0.00170009
-0.000375575
-0.000521141
-0.000447189
-0.00021972
0.0008668
0.00699631
-0.00055526
-0.00159335
0.000964526
-0.00305796
-0.000454146
-0.00228988
-0.000439803
-0.000232029
0.000481684
0.0016003
-0.000546497
-0.000312419
0.0107954
-0.00204014
-9.89209e-05
-0.000449206
-0.000183904
-0.000178558
0.00432498
0.0175359
-0.000507571
-0.000607862
-0.000313979
-0.00611708
-0.00153083
-0.000460614
-0.00044922
-0.000459948
-0.000524234
-0.000357561
0.000642431
-0.000444952
-0.00134425
-0.000417386
6.18795e-05
-0.00487626
-0.000590935
-0.00289533
-0.000539852
-0.00105391
-0.000353241
0.000426241
-0.0024089
-0.00110431
-0.000371997
0.00256734
6.32053e-05
-8.9355e-05
0.000387597
-0.000215246
-1.93848e-06
0.00201562
0.00494204
0.000324542
-0.000644341
-0.000709887
0.0474806
-0.000608417
0.00115033
-0.00730128
-0.000489676
-0.000365694
-0.00139328
0.00991786
-0.000596855
0.000230715
0.0014954
0.000142951
0.000344194
0.00112063
-0.000223894
0.000437687
-0.00021835
-0.00016295
0.00282847
-0.00387622
7.42582e-06
0.000993733
4.63555e-05
-0.000137477
-0.0010487
4.59756e-05
-0.00112769
-0.000200555
-0.00041573
0.01226
-0.00371619
8.64522e-06
0.00086981
1.07946e-05
-0.000137805
-0.00031247
-0.000176287
-0.000691882
-0.000122434
-0.000443474
0.00796502
-0.00190935
0.000116909
0.00064423
-0.00215428
-0.0017312
-0.00176211
-0.00636749
-0.00287749
-0.00164099
-0.000277236
-0.0119434
-0.00140639
-0.000461153
-0.00229828
-0.000587955
0.000281893
0.00010278
-0.00298333
-0.00267938
-0.00145179
0.000514007
-0.0112344
0.00592295
0.00213332
0.00640164
0.00134541
0.00225507
0.00247748
-0.000854664
-0.00161325
0.000745647
0.000787214
-0.0065966
0.00138772
0.00054783
0.000707056
5.17207e-05
0.00088541
0.000928291
-0.0460053
1.37256e-05
-0.000968476
9.22937e-05
-0.00605774
0.000123326
-0.00279866
-0.00202715
-0.00158977
0.000446686
-0.0176663
0.000991712
-0.00728028
-0.000670261
-0.0001572
0.000238927
-0.00686631
0.00230295
0.000540374
0.00217321
3.31944e-05
0.00063432
-0.000401394
-0.00713951
-0.00173885
-0.00278208
0.000145963
0.0100177
-8.50714e-05
0.000590483
0.00099481
0.00041897
0.000570603
7.36496e-05
-0.0764681
0.00139084
-0.000886967
5.73764e-06
-0.00392265
0.00185567
0.00105768
-0.00114528
4.66938e-05
0.000110657
0.011619
-0.000452424
0.000561524
0.00222577
0.000251455
0.00019306
-0.000597622
0.000291184
-0.00724831
-0.00189558
-0.000177521
-0.0330899
0.000655741
-0.000796493
4.34741e-05
-0.000611626
6.66017e-05
-0.00018872
0.0112012
0.000484864
-0.000517025
0.0014659
-0.000715756
7.29645e-06
9.77194e-05
-0.00425126
0.000395834
-0.00142311
0.000290649
-0.000524353
0.000117596
-0.000661637
0.0228195
1.71818e-05
-0.015962
-0.00846159
0.00129874
8.0455e-05
-0.00285189
-4.856e-06
-0.00212374
0.000333985
0.000318983
-0.000112217
-0.00515688
0.000654494
-0.000988928
0.000671346
0.00126611
0.000248978
-0.00252706
-0.000611287
0.00011383
-0.000633633
-0.000257135
-0.000313715
-0.000748425
4.37441e-06
-9.85551e-05
-0.000248422
-0.000342459
-0.00015158
-0.000391455
-0.0103353
-0.0023882
-4.46182e-05
6.2684e-05
-0.000167255
-0.000220948
0.000301414
-0.000404794
-0.00293812
-0.000806779
0.000155924
0.00810388
0.000267742
-0.00630955
-0.000768638
-0.000291026
-5.37544e-05
0.0243419
-7.73067e-06
-0.000307877
0.00078315
-0.000259195
-7.12631e-06
-0.000165552
-0.00969011
0.00180484
-0.00046502
0.00323128
0.00106347
-0.000256337
0.0149842
0.00142219
-0.00186729
0.000413005
0.00104583
-0.000410982
-0.00140173
-0.0014594
-0.000578169
-0.000791633
0.00134004
7.8035e-05
-0.00145838
-0.000589426
-0.000486973
-0.000956012
-0.000633843
-0.00417483
0.00190917
0.000162138
-8.02492e-05
0.000927534
0.00138548
-1.89292e-05
-0.000318327
-0.000508116
-0.000875972
-0.000393578
0.0054749
0.0029063
-0.000427361
0.000859196
-0.00011322
-0.00137944
0.00208877
0.00222984
-0.000227537
-0.000211705
-0.00076673
-4.6356e-05
0.0105888
-0.00575868
-0.00136909
-0.00092262
-0.000985935
-0.00317223
-0.000631283
-0.00201762
-0.00112824
-0.00106392
-0.00119773
-0.00122056
-0.00669642
-0.00394577
-0.000612943
-0.00207599
-0.000860616
0.00107481
0.00110058
-0.00224928
-0.000874615
-0.000613704
-0.00173678
-0.000846873
-0.0248821
0.000294546
-0.000818696
-6.15773e-05
-0.000336265
-0.000386991
0.000501438
0.000491591
-0.000180993
-0.00040543
-0.000844618
-0.000506397
0.00453109
0.00999092
-0.000552488
-0.000461754
-0.000466319
-0.00121713
0.00286086
0.00191683
-0.000419143
-0.00045388
-0.000940401
-0.00048195
0.0448194
0.00225397
-0.000505833
-0.000384151
-0.000656383
-0.0026692
-0.000415443
0.000259792
-0.000278758
-0.000502039
-0.000938786
-0.000403993
-0.00237462
7.64213e-05
-0.000760531
-0.000272193
-0.000727034
0.000368299
0.00236863
-0.000696273
-0.000647792
-0.000633728
-0.00088943
-0.000563415
0.0068972
-0.0184951
0.00174948
-0.000968721
-0.00109703
-0.00107878
-0.00280196
-0.000333984
-0.00126551
-0.000867284
-0.00111915
-0.00115777
-0.00112271
-0.0024863
0.0201077
-0.000306016
0.00319541
0.00119273
0.00167404
-0.000409659
-0.000531059
0.00190089
0.00155164
0.00157092
-0.00103755
0.00196222
0.00158898
-0.000487037
-0.000425186
-0.000300888
-0.000521741
-0.000570991
0.000734792
-0.000350339
-0.000127807
-0.000319782
-0.000593598
-0.000311597
0.0136241
0.000341162
7.30726e-05
-0.000143323
-0.000211074
0.00227927
0.000155326
0.000940427
-0.000250234
-0.000582075
-0.00118407
-0.000660765
0.0191233
0.00178304
-0.000878512
0.000243514
-0.00040519
-0.000386366
-0.000349691
-0.000227374
-0.000239865
-0.000318194
-0.000669926
-0.000412265
0.000655823
0.0220229
0.00358024
-0.000106331
0.000171167
-9.42296e-05
-0.00093953
0.00225182
0.00204271
-0.000167835
-0.000340891
-0.000900834
-0.00011496
0.0321129
-0.0139753
-0.000109972
-0.000235254
-0.00124324
-0.000364212
-7.16658e-05
1.90219e-05
-0.000133249
-0.000751972
-0.0106921
0.000442427
-0.00208984
0.00222287
-0.000287619
-0.00320214
-0.00396212
-0.000551351
-0.00171642
0.000877635
0.00124811
-0.00132716
0.00127299
-0.000568117
-0.00154479
-0.00127486
-0.00659953
-0.00587933
-0.00184739
-0.00218186
-0.00249108
-0.00310874
-0.00109116
0.0013147
-0.00500727
-0.00377523
-0.0029421
-0.00395697
-0.00505827
-0.00213954
-0.00181421
-0.00277649
-0.00112453
-0.00397754
-0.00042421
-0.00100445
-0.00489374
-0.000148797
-0.00134428
6.32976e-05
-0.0025884
-0.00369507
-0.00412112
-0.00283211
0.000766398
-0.00133525
-0.00128811
-0.000459629
-0.00144121
-0.00480537
-0.00388361
-0.0012311
0.0100657
0.00453842
-0.00422464
8.75352e-05
0.00145366
-0.00401903
-0.00199106
-0.00196376
-0.00186627
-0.00282727
-0.000908286
-0.00266263
-0.00190559
-0.0029316
-0.00181631
0.00033804
-0.00121695
-0.00263736
-0.00176955
0.000961065
-0.00326461
0.00284669
-0.000272111
0.00011201
0.000204352
-0.00249723
0.00271903
0.00487814
0.00027852
0.00261687
-0.0071543
-0.000992665
-0.00216075
0.000392074
-0.00040643
0.00161532
0.00917032
-0.00111335
-0.00521677
-0.00121354
-0.000962957
-0.00606552
-0.00201138
-0.00302314
0.000481781
-0.00467024
-0.000535616
-0.00229367
0.00439532
-0.00140509
0.00144249
-0.00155335
-0.000653093
-0.00553248
-0.00273119
0.00160958
0.000994767
0.0118566
0.0122703
-0.000627682
0.00107148
-0.000761746
-0.00136434
-0.000269934
-0.00764177
0.00071597
-0.000333062
-0.00173627
0.0015795
-0.00800472
-0.00184861
0.0027429
-0.00632527
-0.00077958
-0.00202443
0.00241579
0.0966968
0.000528224
0.0122179
-0.0168177
-0.00982209
0.00393788
0.00974042
-0.000431714
-0.00568516
-0.0520581
0.0023865
0.000440162
0.0163797
0.000247218
0.00693799
-0.00590454
-0.0218026
0.00110279
-0.015727
-0.00271558
-0.0040496
0.00198602
-0.00786222
-0.00627322
-0.000866422
-0.0063473
-0.0169587
0.000807857
0.032004
-0.00162851
-0.00128538
-0.000700978
-0.000486543
-0.00506285
0.000423119
0.00204002
-0.00280662
0.00288673
0.000430239
0.0076508
0.00655377
-0.00220381
0.00188269
-0.00319804
0.020814
-0.0135555
-0.00350426
0.00318896
-0.00619357
-0.0052165
0.002528
0.0147076
0.00938275
-0.00512493
0.017785
0.0133806
0.0272967
0.0079975
0.00021497
0.0153352
-0.000887788
-0.000458037
-0.0101474
0.00205719
0.000644465
-4.24005e-05
0.00565335
-0.00272391
-0.00144082
0.00103018
0.00756855
-0.00957825
-0.011235
-0.056518
-0.0408467
0.011954
0.0037658
-0.000965793
-0.00027185
0.0204164
-0.00262356
0.0272038
-0.024774
-0.00466186
8.75942e-05
0.00675483
-0.00050751
-0.000396327
-0.00653328
-0.00225388
-0.00465692
-0.00258856
0.00495427
0.00419838
-0.00155271
-0.000362805
0.00300677
0.0151343
-0.0219164
-0.00554047
-0.00105175
-0.00542151
0.000384755
-0.000518052
-8.91307e-05
-0.0040734
0.0193407
0.000260747
0.00458565
0.00945711
0.00320143
-0.00199824
-0.00811306
0.00127779
0.00260085
-0.00750326
-0.00744918
-0.00548091
-0.00179748
0.00124951
0.0183886
0.00709114
-0.00104091
0.000339189
-0.00819996
0.0226745
0.000277636
-0.00206217
-0.00239535
0.00129769
0.00424958
0.010211
0.00774582
0.00646898
0.0307452
0.00447327
-0.0147082
0.0219888
0.0312833
0.00747101
-0.00338349
0.0030077
0.0113688
-0.0373319
0.0137987
0.00352217
0.000849067
-0.00927811
-0.00553735
0.00712316
0.00244441
0.0134079
0.003423
0.00604466
-0.0117386
0.00856319
0.000634624
0.00643608
0.0151566
-0.0210943
-0.0153976
0.00719801
0.00233627
0.0151476
0.0218534
0.00310261
0.0126949
0.00305649
0.00564435
0.0309276
7.6567e-05
0.0281263
0.0152844
-0.00709453
0.00479687
0.00595297
-0.00618647
-0.0115579
-0.00782774
0.000583698
0.0040178
-0.0149301
-0.00583904
0.0108893
0.00872206
-0.00040088
0.00470111
0.0191505
0.00674421
0.00513366
0.00103192
0.00117313
-0.00680268
0.00537571
-0.000816972
0.00241163
0.0350962
0.00940948
0.00345772
0.00692635
0.0067729
0.00139724
0.000978012
0.0279079
-0.0131032
0.000721075
0.000571557
0.00476792
0.00341487
0.011653
-0.0083202
0.000101155
-0.00211139
0.00585996
-0.00528965
-0.0021397
-0.00117614
-0.001129
-0.00107256
-0.00344077
0.0248486
0.00517546
-0.00354627
-1.91012e-05
-0.00894412
0.00504132
0.000811697
0.000353113
-7.67773e-05
0.0111049
-0.00593508
-0.00251837
0.00449726
-0.00445783
0.01105
0.0113434
0.019621
0.00354175
0.00357288
-0.00273555
0.00729706
0.00450246
-0.0120905
0.000310921
-0.00310049
0.00121307
-0.0100756
0.00782679
0.00094188
-0.00316016
-0.000163104
-0.00815998
-0.00297022
0.00181831
0.00962576
-0.0021014
0.00389713
0.0188989
-0.00140458
-0.00635378
-0.0192878
0.0105229
-0.00318191
0.00306048
-3.69798e-06
0.00251512
0.00269502
-0.0306457
-0.063025
-0.0635872
0.00357437
-0.015244
0.0174703
-0.00222474
0.00224799
-0.00521391
-0.0192916
-0.00397793
-0.0743194
-0.00760304
-0.0073193
-0.00208299
0.000646351
0.00124118
0.0347577
0.00387021
-0.00338905
0.00211496
0.0181514
0.0049961
-0.00644978
0.0033114
-0.00862709
0.101043
0.0180226
-0.00172833
0.000242645
-0.00279623
0.0133596
0.00230622
-0.0030348
-0.00567622
-0.00246476
-0.00994922
0.00825511
0.00161303
-0.00122371
-0.000631429
0.00912598
-0.00465663
-0.00221696
-0.00442298
-0.00210008
-0.0422569
-0.0119028
-0.000173156
0.00439344
0.018287
-0.00080475
-0.0125022
0.0304806
-0.00103175
0.00178613
0.012439
0.003922
0.000257359
0.00332796
0.00268726
-0.0019671
0.00145054
-0.0114302
0.00192743
-0.0240305
0.00304204
-0.00188964
0.00169278
-0.0111333
0.00237146
-0.04594
0.00136867
-0.0200543
0.00314389
-0.0117833
-0.000546006
-0.00292232
0.0270609
0.000300722
0.0228366
-0.000829985
0.00870559
-0.00522894
-0.0150303
-0.00750629
-0.0134591
-0.00259594
-0.0497747
-0.00395151
0.0095499
-0.00208822
-0.00662229
0.000199817
-0.000684191
0.00166345
0.000807758
0.00331402
-0.00209694
0.00505129
0.00116044
-0.00214969
-0.00146654
-0.00538588
0.00134014
0.0183997
0.00815674
0.00477187
0.000117795
0.0331219
0.00604456
0.00761108
0.00155089
0.00619884
0.00576651
-0.0002353
-0.000193819
-0.00226807
-0.00180587
-0.0015549
-0.0063494
0.0037389
0.00179329
-0.00289087
-0.0060352
0.00888096
-0.0110955
-0.000166721
-0.000893066
-0.0034409
0.00425833
-0.000402721
0.0066939
0.0420038
-0.000522339
-5.21482e-05
0.0367348
-0.0149966
0.000918341
0.0275813
-0.00225259
0.0127767
-0.00812487
0.0356685
0.00367115
-0.00294042
-0.00391448
0.0209227
0.0188542
0.0010363
0.0106652
0.00651569
0.0152615
0.00849855
0.013915
-0.00276544
0.0110053
0.0287804
-0.00216378
0.00738877
-0.000877881
0.00234731
0.00205179
0.0187223
-0.00464222
0.0187734
-0.0222167
-0.0198263
-0.03695
-0.0302108
-0.0465544
-0.00153041
-0.00454428
-0.00393094
0.00989439
0.0167067
0.02423
0.000201232
0.000519279
0.0142876
-0.00686446
-0.00357579
-0.00910676
-0.00751742
0.00173983
0.0138237
0.00559927
0.00801729
0.0145795
-0.012011
0.00445173
0.00781096
-0.00800337
0.000995683
0.00437139
-0.000224005
-0.0259165
0.000916786
0.00685132
0.00548087
0.000673173
0.0132855
0.00738271
0.0227869
-0.00781311
0.00901126
-0.00608902
0.00158171
-0.00542448
-0.00982324
0.00738483
-0.00522132
0.0108494
0.013094
0.0105311
0.0113546
0.0136994
0.00432619
-0.000899667
-0.00383167
-0.00198129
-0.00394068
0.00347388
-0.00192065
-0.0022674
-0.00602831
-0.00100645
-0.00619722
-0.0174758
0.00275157
0.0234387
0.00116053
0.00462408
-0.00672329
0.0155143
-0.00299459
0.0110208
0.00156329
-0.00829954
-0.000414587
0.0346588
-0.0253301
-0.0165908
-0.00502552
-0.00205172
-0.0143613
0.0229543
0.00961459
0.000864345
-0.00604711
-0.00622572
0.00839431
-0.00319905
-0.0027019
-0.00242821
-0.00198974
-0.0143414
-0.0108732
-0.03725
-0.00083347
0.0242834
-0.0414056
-0.00784228
0.0447297
0.00873966
0.00240801
0.00715492
-0.00977022
-0.0165246
-0.0113763
-0.0227721
-0.0132102
-0.00938222
-0.0172769
0.000465783
0.00478401
0.0172573
-0.00321891
0.0343554
0.0207323
0.00884402
0.00415517
0.000176636
-0.00379852
-0.00803517
0.0610991
-0.0432171
0.000868755
0.0162467
-0.00380781
-0.00493204
-0.00290876
0.00331156
0.0137783
-0.00348215
0.00115984
0.000757863
0.0169178
0.00369934
0.0258449
0.00674511
0.0100616
-0.072994
-0.0342084
-0.00276627
-0.00751267
0.00222488
0.0116171
0.00853688
0.00263586
0.00349024
-0.00344513
-0.00782436
-0.00346213
-6.1808e-05
-0.000712842
-0.000422351
-0.000921404
-0.0175561
-0.0264069
0.00114019
-0.0118931
0.0055568
0.0217975
0.0035103
-0.00548825
-0.00197231
-0.00226104
-0.000909646
-0.00116794
0.00125604
0.00139639
0.00228863
-0.00250153
0.000182555
0.00236858
0.00297083
0.00393958
0.00357181
0.00733823
-0.0258147
0.00302104
-0.00353485
0.00204468
-0.00787127
-0.000236762
0.0123049
-0.0323947
-0.00356773
-0.00503878
-0.00260156
0.00402974
0.00345134
-0.0100783
-0.00134575
-0.00212087
-0.00322971
-0.0313877
0.000830693
-0.0016279
0.00267779
0.000387591
0.00472812
-0.00997067
0.000462955
-0.00217251
-0.000964493
0.00539572
-0.00465008
0.000560806
0.00191323
-0.00145276
-0.00274769
0.00184741
-0.00188409
-0.00260827
-0.00151858
0.00115027
-0.000798932
-0.000393706
0.00463598
0.00947919
-0.00104332
0.000629944
-0.00238248
0.000889404
0.00282055
0.00140688
0.00255612
-0.000256428
-0.00172945
-0.00159627
-0.00225127
-0.000497529
-0.000351249
-0.00693445
0.000178898
-0.00278944
0.0011634
-0.00349028
0.00187394
-0.000682025
-0.0104436
-0.000595771
-0.00277403
-0.000997319
-0.00141863
0.00182712
-0.00563021
-0.000101445
0.00304933
-0.00328927
-0.00311692
0.00258949
-0.00137088
0.00313659
-0.00429232
-0.000615859
0.00324435
-0.00157356
-0.00365887
0.000569468
0.00138623
-0.0107058
0.00176133
-0.00106476
-0.00106016
-0.0148591
0.00183947
-0.0408206
0.0125058
-0.00278166
-0.00269388
-0.0499612
0.001926
-0.000132587
0.00169943
-0.000389
-5.69846e-05
-0.00358099
-0.00209148
0.0148585
-0.00694795
-0.0304494
-0.00529957
0.00152102
0.0398945
-0.000585331
-0.00876735
-0.00075293
-0.00250195
0.00214735
0.000331556
0.0432967
0.00126223
-0.000703959
-0.00105035
0.00232132
0.0139788
-0.00291453
-0.00203772
0.00430561
-0.00515045
-0.00222642
-0.0011693
0.0134051
0.00166565
0.000103114
0.00300815
-0.000145769
0.000258735
0.00484033
0.00170676
0.0184747
0.0108832
0.00106265
-0.0163626
-0.000260634
0.00234651
-0.00466005
-0.00107119
0.00873265
-0.0020042
-0.000923078
-0.00450156
-0.00372965
-0.00169865
-0.0593732
-0.0076139
-0.00427213
-0.00115698
-0.00396249
-0.00108315
0.000868692
-0.000924088
-0.00297108
-0.0013317
-0.00407975
0.000356304
9.77067e-05
0.000638372
-0.0325492
0.00281094
-0.00194568
-0.003121
-0.000179247
-0.000731381
6.7553e-05
0.000857618
0.000866254
0.000226644
-0.00219666
-0.0215808
0.000917247
0.000380435
-0.000649309
0.00374037
0.000695286
0.0032647
0.000262225
0.000491971
-0.00101607
-0.0144442
0.00261334
-0.000318868
-2.78639e-05
-0.000656648
0.00106982
-0.00537536
0.00139931
-0.00364039
-0.0038917
0.000557897
-0.00155418
-0.000601852
0.000511824
-0.0120546
-0.00130834
-0.0285306
0.00128702
0.000784098
0.000300999
0.000263956
0.000800489
0.000146595
0.000233746
0.00882882
-3.69217e-05
0.00377201
0.00771232
-0.00402681
-0.00375946
0.00147881
0.000431023
-0.00121542
0.000979204
-0.0115583
0.0130253
0.00188965
-0.000505198
-7.43329e-05
-0.00567622
-0.000292728
-0.0205751
-0.00446884
-0.000284897
0.000405986
-0.000199531
8.64712e-05
-0.000469039
-0.000101218
-4.17561e-05
0.0123436
-0.00548267
0.00536014
-0.00605416
-0.0263165
0.00235488
0.00055656
-0.00103478
-0.0248701
-0.000767651
-0.00559588
0.00251976
-0.00409821
0.00457079
-0.00494528
-0.00047075
-0.000461971
-0.00610452
-0.00288271
-0.00515816
-0.00186808
-0.00513399
-0.0109876
-0.0351512
-0.00212357
-0.00624989
0.0104609
0.000292483
0.000510919
-0.00142304
0.00331371
-0.000755522
-0.00929989
-0.000618732
0.00132178
0.000870561
-0.000736254
-0.000681787
-0.0256769
0.000187158
0.00100741
-0.00284983
0.00193417
-0.000698626
-0.000954227
-0.00752036
-0.000876334
0.00218026
-0.00431388
0.000969645
-0.000666512
-0.0166675
-0.00347897
-0.000883581
-0.00493261
0.00459511
-0.000570545
-0.00998272
-0.000925609
0.00300744
0.0031917
-0.000937263
-0.000759602
-0.00198505
0.00719569
-9.14931e-05
0.00202796
4.69042e-06
0.000911018
-0.000584847
-0.000504018
-0.00757009
-0.00106364
0.0026788
0.00103375
0.00111326
-0.000697527
-0.00126617
0.00167152
-0.00338173
-0.000663866
-0.00110535
-0.000463747
-0.000369081
-0.000882927
-0.00195756
0.00478459
0.000450354
-0.00273173
-0.00654567
-0.00550559
-0.000129788
-0.00105016
0.00010848
-0.0011853
-0.000245704
-0.00357143
-0.0019498
-0.00126044
-0.000206361
-0.00011518
-0.00018194
-0.000173622
-0.00358556
-0.00240541
-0.000126382
-0.02782
-0.00416451
0.00226244
-0.000475767
-0.00058064
-0.000176589
0.00136444
0.00458201
-0.000884682
-0.000523437
-0.000738274
0.0192792
-0.00108037
0.00233774
0.0044945
-0.000758043
-0.000733351
-0.000998234
0.0234428
-0.000870775
0.00215244
0.00155673
0.000188453
-0.000643711
-0.00106366
0.0207273
0.00173777
-0.000162926
0.00161998
-0.00032795
-0.000120562
-0.00587721
0.00257039
0.00161633
0.00792473
-0.000475309
0.000189372
0.00252404
0.000148221
0.00254387
-0.000239965
0.000224944
-0.00194542
0.00192686
-0.001819
0.00250037
-0.000332299
0.00578209
-0.00654528
-0.00074032
0.00153907
7.57402e-05
0.000108472
-0.00787956
0.00276511
0.000821978
0.000369962
-0.000627817
0.00619158
-0.00397115
-0.00210645
-0.000755537
-3.73471e-05
-6.86213e-05
-0.0103818
0.000471455
-0.00230953
0.000832808
0.00241673
1.45738e-05
-0.000230718
-0.00828867
0.000172681
-0.00149923
-0.00105525
-0.000277426
0.000494469
-0.00370502
-0.0014737
-0.000714896
-0.000980879
-0.000715709
-0.00083255
0.00126408
-0.000232352
-0.00116561
-0.00056477
-0.0111793
0.00513535
0.00296165
0.00850877
0.00299454
0.00252106
0.00306745
0.00022668
-0.000395077
0.0057174
0.000420913
-0.000147172
-0.00128064
-0.00318127
0.00217798
0.000580499
0.00802469
-0.00119521
-0.00911722
0.00168299
5.80225e-05
0.00480641
-0.00484937
-0.000173455
-0.00123276
-8.29312e-05
-0.000708921
5.25337e-05
-0.00217112
0.000819292
0.000679547
-0.000270796
0.0153275
-0.0015879
0.000766878
0.000514902
0.000729811
-5.03283e-06
-0.00326827
0.00655784
0.0123608
0.000341906
-0.00352839
-0.000868655
0.000469856
0.000921071
0.000369098
0.000161627
0.00155839
-0.00204911
0.0015285
7.13371e-06
0.000462077
-0.000775835
0.00025601
0.0045375
0.00460634
0.00023583
0.0229674
-0.00389623
0.00142821
0.00589184
3.25847e-06
0.00895578
0.000583948
-0.00162454
0.0068834
0.000745227
0.000242452
-0.0180129
0.000876897
-0.00250823
0.00247444
0.00139641
0.00063836
-0.00064516
-0.00202025
0.000546038
-0.00100935
0.000465848
0.000995442
0.000465862
0.0155652
0.000548161
-0.00252086
0.0128557
0.000719349
0.00059995
-0.00824197
0.000759584
-0.000692406
0.00201755
0.000927177
0.000529993
0.00468456
0.000875938
-0.000445091
0.000199606
0.00104134
0.000321475
0.0259816
0.000832697
-0.001348
0.002778
0.000862723
6.36098e-05
0.00465584
0.000360907
-2.87606e-05
-0.000622749
0.000504018
7.88469e-05
0.00491196
0.000756254
-0.00230547
0.00522016
0.0011926
0.000310265
-0.00299322
-8.87539e-05
0.00113031
0.00250215
0.00144782
0.000554238
0.00168715
-0.00171231
0.00620152
0.00133504
0.000387684
0.000469806
-0.00285258
0.00518422
0.000990237
-0.000131326
-0.000783081
-0.00235059
-0.000171507
-0.00471541
0.00180638
0.00126612
0.000164631
-0.01687
0.000493867
-0.00283465
0.000185938
0.00128104
-9.93413e-05
-0.000520542
0.000150188
0.00468319
0.0028798
0.00883807
0.00236504
0.00245921
0.000775289
-0.00238579
-0.000380526
0.00224304
0.00015602
0.00614272
0.00514777
0.00220399
0.0080549
0.00185018
0.00186726
-0.00246702
0.000515979
0.0031871
0.000816536
0.000707524
-0.00349026
0.00244861
-0.000108318
-0.000387464
-0.000524989
-0.00052054
-0.00144338
0.00139416
0.0067197
-0.000801534
-0.000834673
0.00479841
0.00215561
0.0048372
4.57897e-05
-0.000602386
0.0138449
-0.00157693
-0.00011984
0.000548441
-0.000123141
-0.00012289
-0.000810616
-0.00384297
-0.00152891
-0.000338659
-0.000546277
-0.00576539
-0.0021154
-9.29513e-05
0.00133137
-9.89884e-05
-0.00024779
-0.000974514
-0.00325103
-0.000582475
-0.000540681
-0.000678097
-0.00685417
-0.000494557
-0.000980208
-0.00108939
-0.000860819
-0.00099925
0.000769704
0.00255612
0.000861552
-0.000580675
0.0106428
-0.000779462
-0.000530991
-0.00177615
-0.000555893
-0.000702538
-0.00155497
-0.00609087
-0.000839444
-0.00171238
-0.000698553
-0.000936207
-0.00092133
0.00312447
0.0146064
0.00444681
-0.000971496
0.023905
-0.000466023
-0.00118635
0.000328513
-0.000647164
-0.00100333
-0.0052394
0.00289792
-0.000957828
-0.00122217
0.00105206
4.11409e-05
0.000903772
0.0197476
0.000397873
-0.00082545
0.00294458
0.00113585
-0.000112826
-0.000209655
0.000622386
-0.00112104
-0.035334
0.00920394
0.00272183
-5.28189e-05
0.0237807
0.000385884
0.00406458
-0.000254751
-0.001096
-0.000795086
-0.000548084
-0.002464
-0.000201741
-0.000168376
0.000168267
-0.0017816
-0.000287722
-0.000607254
0.00524622
0.000381687
0.00143694
0.000634765
-0.000870223
-4.33066e-05
-0.000341017
0.00375641
-0.000147037
0.000913225
0.000389628
-0.00151622
-0.000219623
-0.000221296
-0.00113682
-0.000119816
0.00736107
0.000388875
-0.000674694
0.00736526
0.000196521
0.000285275
0.000796946
-0.000374705
-6.71087e-05
-0.000415367
-0.000367185
0.000766838
-0.000969098
-0.00189086
-0.000200923
-0.000335238
0.0070909
9.79311e-05
-7.42212e-05
-0.00067779
-0.000344373
-0.000183404
-0.000426346
0.0170947
0.000138222
0.000537677
-0.00213463
-0.00143765
-0.000175878
-0.000553529
-0.00484456
0.000702911
-0.000499443
0.00108745
-0.000427883
-0.000452839
-0.000312566
0.0025218
0.000269094
7.55773e-05
-0.000630328
-0.00138205
-6.78483e-05
-5.4112e-05
0.00484785
9.76443e-05
0.00249046
-0.000760714
-0.000351907
-0.000575744
0.0112353
0.00094903
-0.000339787
0.00212825
0.000374996
-0.000130675
0.00243063
-0.00126571
-0.0165327
-0.00831198
-0.00719435
-0.000489003
-0.0377559
-0.00202756
-0.000741044
-0.00139893
-0.000660268
0.000683132
0.000641721
-0.00454427
-0.00566719
-0.00111542
0.000522705
-0.0228201
0.00247304
0.000351649
0.00187087
-0.000105969
0.000782986
-0.00264841
-0.0277736
-0.00222162
0.000159302
0.00800259
-0.00131838
-0.000278439
-0.00231481
-0.000620241
3.1521e-05
-0.00236453
-0.000427848
-0.00347306
-0.000295376
-0.0121962
-0.00167626
-0.000251244
-0.00100196
-0.000547569
-0.000118886
0.00276138
-0.0135649
-0.00292045
-0.000481121
-0.000173922
-0.0139566
-4.40462e-05
-0.000337405
0.000631832
-0.000493867
-0.000150004
0.000131676
-0.00064333
-0.00339673
-0.00352028
2.07569e-05
-0.00430055
-0.00393035
-0.000373079
-0.0023618
-0.000514897
-0.000611992
0.000112364
-0.000246204
-0.00498401
-0.00250775
-3.94697e-06
-0.00942522
0.00102675
0.000161613
0.00130848
-0.000101603
0.000367436
0.00226087
-0.0118461
-0.00153257
-0.000334787
-0.000284627
0.0145513
-0.000311207
-0.000710989
-0.0270283
-0.00270833
0.000182633
-0.00135896
-0.0258114
0.000508266
0.000634387
0.00341847
0.000503486
0.000879082
0.00132302
-0.00398066
0.000667571
0.000103465
0.000271493
-0.0160293
-0.00348748
0.000288988
0.00256222
0.000323997
0.000176784
-0.00102923
0.000587808
-0.00346564
-0.000231971
-0.000113324
0.00215154
-0.0031744
0.000317222
0.002468
0.000243107
0.000149184
-7.01855e-05
-0.000193289
-0.00211262
-0.000472903
-9.38563e-05
0.00453984
-0.00319162
7.97936e-05
0.00114484
-2.09124e-05
-7.80227e-05
-2.96474e-05
0.0014647
0.00157028
6.95014e-06
-0.000693563
0.0151678
-0.00141932
0.000168734
0.0010631
-3.59255e-05
2.29955e-05
-0.000169347
-0.000810451
-0.00393441
-0.000413616
-6.05655e-05
-0.00772551
0.00296483
0.0020228
0.00684673
0.00181907
0.00191667
0.00296203
0.00132919
-0.00166491
0.00196541
0.000259495
-0.00597869
-0.00151179
2.99948e-05
0.000429447
7.58031e-05
-0.000603516
0.000352274
-0.0132188
0.00483795
-0.000242509
-0.000672245
0.0126143
-5.64785e-05
0.000130877
-0.00213929
-0.00122075
-3.51267e-05
-0.00727803
0.00106486
-0.00260596
0.00193754
0.00134451
-0.000336751
-0.0036485
0.000605832
0.000398642
0.00239437
0.000138603
0.000223687
-0.00142454
-0.00598876
-0.00080738
-0.00341809
-0.000226316
0.0278087
-0.00267728
0.000171406
0.000385296
0.000356727
-0.000243406
-0.00120364
-0.0345973
0.00964524
-0.00170907
-0.000553772
-0.000433625
0.00143653
0.00312706
0.00113362
0.000778394
-0.00041747
0.0326736
-0.00318833
0.000216368
0.00198413
0.000229146
-0.000370346
-0.00105067
0.00156344
-0.0200531
-0.00242816
-0.000394697
-0.0468627
0.00111499
-0.000610258
0.00176429
-0.00128377
-3.83634e-05
-0.000367769
0.0301418
0.000812508
0.000134678
0.00652472
-0.00113241
-0.000225571
-3.57368e-05
0.0070925
0.000374546
-0.00218915
0.00170633
-0.00040137
3.0654e-05
-0.00121012
0.0367967
-1.11574e-05
-0.00191069
-0.00954315
0.00400442
0.000112666
0.00306085
-0.000273168
-0.00113745
0.00360729
0.000461768
-0.000264148
-0.00807267
0.00104014
-0.00211435
0.0041734
0.000457611
0.000271866
0.00019156
-0.000400329
0.00103898
-0.00142707
-0.000425175
-0.000381354
-0.00645624
0.000203773
0.000270777
0.000665867
-0.000620041
-0.000225195
-0.000430293
-0.0198982
-0.00376758
-0.00010065
0.00062223
-0.000131736
-0.000402871
0.000692454
-0.000820293
-0.00585408
-3.03511e-05
0.000313817
0.00420931
0.000850341
-0.0160033
-0.00137971
-0.000553064
2.68437e-05
0.0315488
5.06191e-05
-0.000912532
0.00155999
-0.000794705
-2.02004e-06
-0.000189833
-0.0402174
0.00252651
-0.00149063
0.0119156
0.00209125
-0.000274009
0.00730418
0.00221202
-0.00462802
0.00198832
0.00198803
-0.000699219
-0.00476643
-0.00227909
-0.00101027
-0.00106654
0.00380228
-0.000302033
-0.00215647
-0.0010965
-0.000949885
-0.00168526
-0.000986799
-0.0147809
0.00458328
0.000101149
0.000196137
0.00667613
0.00399954
0.000960486
-0.000166387
-0.000559349
-0.0014532
-0.000307277
0.00804485
0.00715967
-4.98821e-05
0.000938507
0.000588026
-0.00471711
0.00261879
0.00795566
-3.29707e-05
-5.67539e-05
-0.000321372
0.000245184
0.00699876
-0.00821871
-0.00160131
-0.00160879
-0.00126868
-0.00714404
-0.000938361
-0.0031759
-0.00168914
-0.00157795
-0.00176203
-0.00174778
-0.0303649
-0.0104221
-0.0013287
-0.00341338
-0.00121826
0.00247885
0.00320802
-0.00390872
-0.00131478
-0.000951407
-0.00192175
-0.00125712
-0.0398508
0.0021177
-0.00121067
-0.000188611
-0.000501331
0.000340903
-0.000481404
0.000301693
-0.000339072
-0.000570096
-0.00132136
-0.000709427
0.000882123
0.00226539
-0.000809996
-0.000710112
-0.000724211
-0.00157305
0.00108138
0.00380772
-0.000560597
-0.00064417
-0.000744866
-0.000545387
0.0249573
0.00112015
-0.000861884
-0.000481419
-0.00105058
-0.0034245
-0.00362383
0.000395934
-0.000355437
-0.000699551
-0.00113096
-0.000549717
-0.0184885
0.000306665
-0.00103164
-0.000472222
-0.000819316
0.000951592
0.00619463
-0.000811219
-0.00092606
-0.000870877
-0.00122832
-0.000745553
0.0089762
-0.0359739
0.00248558
-0.00135767
-0.00167192
-0.0015817
-0.00160026
-0.00368625
-0.00210407
-0.0015489
-0.0018244
-0.00159332
-0.00160319
-0.00681813
0.018458
-0.00138261
0.00349393
0.00153859
0.00274986
-0.000463329
-0.00170199
0.00338732
0.00189212
0.00185424
-0.0010956
0.00236199
0.000649936
0.000209438
-0.000701753
-0.000561687
-0.000884476
-0.000768506
-0.000133456
-0.000980804
-0.000305283
-0.00059269
-0.000922219
-0.00056803
0.0116263
-0.000286317
-6.86383e-05
-0.000523735
-0.00065294
0.00335509
-0.00338734
0.00120809
-0.000542726
-0.000897868
-0.00116188
-0.00109196
0.00186957
0.00336691
-0.0018296
9.25932e-05
-0.000804394
-1.69252e-05
-0.00164411
-0.000717476
-0.000515875
-0.000622678
-0.00118884
-0.00075806
-0.0132738
0.0355553
0.00420031
-0.000243648
1.79262e-05
-0.000297773
-0.00153042
0.00827545
0.00260564
-0.000279746
-0.000445311
-0.00117022
-0.000317212
0.0201428
-0.0146701
-7.80845e-05
-0.000412549
-0.00195736
-0.00107086
-0.000116237
-4.48832e-05
-0.000266291
-0.0011179
-0.0266012
-0.000117856
-0.00316334
0.00433405
-0.000545961
-0.00295147
-0.00486992
0.000510039
-0.0020114
0.00218561
0.00257551
3.0258e-05
0.00350891
0.00136533
0.000284958
-0.00163475
-0.00910508
-0.00792097
-0.00253373
-0.00215517
-0.00294815
-0.00456131
-0.00151426
0.00124011
-0.00694865
-0.00532558
-0.00428242
-0.0047785
-0.00656236
-0.00142615
-0.000928851
-0.0026621
-0.00040216
-0.00504748
0.000254746
-0.000697654
-0.00686569
0.000801057
-0.00102894
0.00215061
-0.00305105
-0.00463542
-0.00324259
-0.00219349
0.00374793
-0.000237476
6.74797e-05
0.0013644
-0.000771524
-0.00347401
-0.0062821
0.000787898
0.0167321
0.00839281
-0.00585429
0.00349213
0.00202326
-0.00519734
-0.00314844
-0.00204359
-0.00183214
-0.00266255
0.00081602
-0.00280996
-0.00303926
-0.00351584
-0.0022873
0.00300673
0.0024436
0.000513145
0.00221906
0.00188245
-0.00212693
0.00562403
0.0018327
0.00382273
0.00328899
0.000829417
0.00550899
0.0087231
0.000881047
0.00637876
-0.0106028
-0.000309656
-0.00122555
0.00215719
0.000309282
0.00528983
0.0154312
-0.000550393
-0.00530641
0.000966197
0.00103472
-0.00647827
-0.00112218
-0.00280752
0.00360387
-0.00486686
0.00163419
-0.00186953
0.00766894
0.000728455
0.00294591
-0.000827208
0.000976247
-0.00385097
-0.00219252
0.00589991
0.00624566
0.0175993
0.0184788
0.00138516
0.00360036
0.000653665
0.000727649
-0.000514795
-0.00943099
0.00131137
0.0016683
-0.00190429
0.00386398
-0.00589982
-0.00220934
0.0066264
-0.00845133
0.000765679
-0.00115502
0.00812391
0.0873539
0.00393582
0.0231536
-0.0172333
-0.0335071
-0.0107565
0.0240698
-0.000866349
-0.00980647
-0.107427
0.0220014
0.000946396
-0.00862465
0.00513117
-0.00854615
-0.00106044
-0.0419932
0.00635378
-0.034543
0.00281122
-0.0120728
0.0206225
0.0117142
-0.00356236
-0.0152513
0.00140135
-0.000903791
0.010541
0.0229009
0.00240119
0.00431188
0.00540286
0.00516287
0.000814592
0.004796
0.000295048
0.00219586
0.000607921
0.00405637
0.00926417
0.0183028
0.00291782
-0.000839506
-0.00124035
0.026856
-0.0115564
0.00213551
0.0087836
-0.00299548
0.000746883
0.00802001
0.00248773
-0.00714534
-0.00151187
0.0129799
-0.00353188
0.00651978
0.0160222
0.00407862
0.00793015
0.00121457
0.00184314
-0.00651749
0.00742625
0.00393672
0.000618896
0.0115612
0.00248347
0.0013513
0.0041005
0.0120442
-0.00461538
-0.0211192
-0.0799176
-0.0461029
0.00627182
-0.0193305
0.000874287
0.0107771
0.023428
0.054447
0.0747217
-0.0143415
0.00518703
0.0223938
0.0258947
0.00507828
0.00384504
0.000490344
0.00461632
-0.000226548
0.0192371
0.0359855
0.0299963
0.00957334
0.0137624
0.0163979
0.0196165
-0.00467074
0.00562242
0.0122851
0.00113039
0.00270586
0.0014642
0.00125885
0.00254395
0.0578455
0.0147902
0.0145843
0.0169729
0.00691132
0.00141452
-0.000397401
0.00780762
0.00748215
0.00045131
0.000182447
-0.0033861
0.000839914
0.00590733
0.0239179
0.0232886
0.00139298
0.00318247
-0.00433631
0.0602321
0.00339332
0.00131076
0.00603029
0.00171732
0.00362823
0.00353464
0.000801727
-0.00524314
0.0155278
0.00584038
-0.000926459
0.0131616
0.0201138
-0.00174467
-0.0236917
-0.0266783
0.00883381
-0.0172027
-0.00805445
-0.00291468
-0.00412601
-0.00736281
0.00731766
0.00190524
-0.0068402
0.00311083
-0.00187138
-0.00150358
-0.0200168
0.000413084
-0.00240421
0.000309611
0.0129911
-0.0317175
-0.0200912
0.00138759
-0.000107439
0.00869701
0.00975469
-0.00227193
0.0275125
0.00140373
0.00225535
0.022054
-0.0105338
0.0262347
0.00574636
-0.00166088
0.00242847
-0.00462381
-0.00471188
-0.00834666
-0.00443221
-0.00206201
-0.00549773
-0.0195431
-0.0144912
0.00130801
0.00194156
-0.00361693
0.000608776
0.0196663
0.00276482
0.000938169
-0.000463168
-0.000365774
-0.00235652
0.000652471
-0.0026775
0.00102759
0.0357729
0.00565364
0.00208298
0.00121929
0.00255403
-0.000114399
-0.000615349
0.0245012
-0.0326779
0.00105348
0.000184947
0.00305346
0.00236889
0.012204
-0.00877994
0.010853
0.00101082
0.00671327
-0.00763795
-0.00273023
0.00012202
-0.00233471
-0.0114656
-0.00320453
0.0520094
0.00544256
-0.00498782
0.0049498
-0.0100158
0.0098618
0.000664088
0.000347129
-0.000539134
0.0283731
-0.000889344
-0.0033856
0.00420278
-0.00596928
0.0111583
0.0103286
0.0290638
0.00330939
0.0040179
-0.000592323
0.00565906
0.00714328
-0.0115403
-0.000251882
-0.0031317
0.00143746
-0.0140857
0.0200883
2.79289e-05
-0.00397572
0.000650653
-0.00363305
0.000109155
0.00137573
0.0122982
-0.000603593
0.0050731
0.0207605
-0.00125906
-0.00260928
0.00178665
0.0198181
-0.00378262
0.00335451
0.000101769
0.00231508
0.00814046
-0.0240103
-0.0557535
-0.0557011
0.0144842
-0.0046707
0.0237122
-0.00113479
0.00247656
-0.00858609
-0.0103201
-0.00483341
-0.0663006
-0.00327086
-0.00478023
0.000298041
0.00100701
0.00479874
0.0332502
0.00376128
6.92401e-05
0.0030529
0.0193311
0.0126805
-0.00759057
0.0309954
-0.00779713
0.168305
0.0243349
-0.00113626
0.000913819
-0.00164819
0.0102329
0.0128253
-0.00208578
-0.00400028
-0.00301148
0.0156564
0.0251999
0.00312583
-0.000983376
-0.000267982
0.00767034
0.00553224
-0.00160108
-0.00411115
0.00441559
-0.0453481
0.00450613
0.00167764
0.00620107
0.0122771
0.000898005
-0.0121143
0.0338427
0.00252631
0.000544238
0.0210975
0.00753925
0.00140824
0.00519615
0.003801
-0.00170543
0.00207913
-0.00666148
0.00307199
-0.0186123
0.00377316
-0.000572551
0.00219641
-0.00238659
0.00344721
-0.0402967
0.00195151
-0.0276601
0.00486696
-0.0134709
-0.00102809
-0.00317627
0.0132782
-0.000503865
0.0281855
-0.00162993
0.00226926
0.013227
-0.0180223
-0.00809794
-0.0172738
