booster[0]:
bias:
-2.04471
weight:
0.000461771
0.000371155
0.000467396
0.000239854
3.7969e-05
0.000237455
0.000530708
0.000273773
0.000216608
9.33392e-05
0.000165092
0.000244648
3.81498e-05
0.000174234
0.000275371
0.000253801
0.000180362
0.000520913
0.00037774
0.000117788
0.000185336
0.000264408
-0.00035802
-0.000254135
-1.11848e-06
7.48023e-05
-5.75507e-05
-0.000335563
0.000341324
-0.000235425
0.00021091
0.000161336
-0.000193846
0.000254243
4.26852e-05
0.00045808
-0.000146662
-6.15277e-05
0.00030447
0.000224999
-9.68259e-05
6.68583e-05
-0.000377688
-3.68327e-05
-7.57363e-05
-7.58427e-05
-0.00119379
-0.000250212
-4.50373e-06
4.667e-06
-9.5493e-06
-6.10663e-05
5.45356e-05
-0.00039976
-4.44274e-05
-0.000358948
-0.000260668
-0.000600713
-0.00029233
-0.000475331
-4.18023e-05
-0.000694509
-0.00100866
-0.000780757
-0.000163393
-0.000348286
-0.000429752
-0.000521988
-0.000633821
-0.000541101
-0.000210196
-0.000324327
-0.000265411
-0.00046958
-0.000233193
-0.000294368
7.71922e-05
2.54372e-05
3.17005e-05
-0.000234691
-4.53258e-06
-0.000452969
-0.000315221
-0.000137522
-0.000125876
-0.000564329
2.90644e-05
-5.86267e-05
7.93646e-05
-6.68009e-06
-1.19545e-05
-5.88671e-06
2.05767e-05
2.0956e-05
2.63914e-05
-7.21127e-05
-0.000344549
0.000107985
-2.01445e-05
-0.000306127
6.691e-05
-0.000297634
-0.000239806
1.07893e-05
-0.000791654
-0.000297877
-0.000411703
0.000124399
4.83764e-05
-0.00031053
-0.000578522
-0.00043452
-0.000409176
-7.05408e-05
1.56818e-05
-0.000378965
-0.000304934
-0.000378647
-0.00032682
-0.00106599
-0.000841286
-8.35454e-05
-0.000720962
-0.000266974
-2.32242e-06
1.2823e-05
-1.87457e-05
0.000131617
4.64585e-05
-0.000114917
-0.000139903
0.000991304
0.000170624
0.000114875
-1.854e-05
-0.000588253
5.45394e-05
0.00014695
4.67969e-05
0.000158567
0.000299636
0.000138812
3.12725e-05
0.000186906
-7.62005e-06
0.000217152
0.000459464
4.50301e-05
-0.00015493
9.01275e-05
-3.81781e-05
0.00012066
-1.17082e-05
-1.5793e-05
-0.000111832
0.000222556
0.00023468
0.00012366
0.000134655
0.000165081
0.000211482
0.000106583
0.000182548
1.48555e-05
0.000137553
0.000202636
-2.56166e-05
0.000273283
0.00027078
0.000108186
2.91343e-05
6.39943e-05
0.000315768
0.000118617
0.00013399
0.000335591
0.000266313
7.63792e-05
-0.000151936
0.00046787
3.60932e-06
-0.000220735
-2.20112e-05
-1.69504e-05
-2.91477e-05
-2.03282e-05
0.000154752
0.000170571
7.63447e-05
0.000264183
0.000229495
0.000125319
8.91041e-05
6.81807e-05
4.81922e-05
0.000279138
0.000127376
8.70742e-05
-7.8716e-05
-0.000580881
-0.000335724
-7.49872e-05
-0.000134919
0.000171445
-0.00028713
2.77533e-05
-0.000554088
-0.00022157
-0.000241409
4.85917e-05
-5.20107e-05
-0.000358097
9.37671e-05
0.000308395
8.79838e-05
-0.00019415
0.000293372
-0.000115866
-0.00020401
-9.468e-05
-0.000174081
-0.000214926
-0.000709908
-0.000120736
-2.85199e-05
-0.000227331
-0.000187935
-2.97507e-05
6.55159e-05
-4.28632e-05
-5.89549e-05
-2.48137e-05
-0.000337415
2.5458e-06
-0.000966319
4.72118e-06
0.000212916
0.000155193
7.71126e-05
-6.87596e-05
0.000222002
-1.79881e-05
-5.89645e-05
2.51926e-05
0.000194555
1.8407e-05
-1.16241e-05
-2.09995e-05
2.43161e-05
6.0478e-05
9.9779e-06
-0.000410071
0.000212759
0.000183287
-1.8973e-05
2.81787e-06
6.3343e-05
0.000196157
0.000148085
5.89891e-05
5.35089e-05
-2.13878e-05
-2.43263e-05
0.000127511
-1.05854e-06
0.000210297
-2.97944e-05
4.74159e-05
-6.87082e-05
-0.000462853
1.90241e-05
-0.000133891
-6.37667e-05
-5.45534e-05
-0.000315598
1.79982e-06
5.97244e-05
8.39751e-05
0.000130261
6.66081e-05
0.000136866
-9.33137e-06
0.0001654
2.4983e-05
-4.57053e-05
-9.7311e-05
-0.00024101
0.000130744
0.000262854
0.000232577
9.91742e-05
0.000248898
-0.000214449
0.000197987
0.000257835
5.59579e-05
-5.31226e-06
-8.95452e-05
9.46848e-05
5.66741e-06
0.000282259
4.11322e-05
-0.00063955
-0.000874955
-0.000657645
0.000368787
-5.58937e-05
-0.000176547
-0.000151893
0.000115871
-8.09793e-05
-5.51612e-05
-0.000140091
-7.7702e-05
0.000110469
-0.000282569
9.90992e-05
9.34208e-05
-4.97146e-05
-9.7816e-05
0.000187146
-9.34642e-05
-7.5244e-07
2.38905e-05
0.00020224
-5.68191e-06
-0.000137482
-3.62887e-05
0.00024778
1.93206e-05
3.28715e-05
0.000283548
0.000295939
7.21268e-05
-7.70014e-06
-6.96272e-07
-0.000202049
-0.000141522
6.25999e-05
2.8164e-05
-4.02634e-05
-9.27013e-05
0.000266776
0.000173134
3.04783e-05
0.000329343
-0.000289755
5.17325e-06
-8.89912e-05
-2.04867e-05
-8.19021e-05
-0.000117496
3.01137e-05
-1.29391e-05
-5.25848e-05
-5.52642e-05
5.66049e-05
0.000175529
0.000156266
9.78833e-05
7.05939e-05
6.23162e-05
-0.000109709
0.000270889
-3.37383e-05
-0.000474032
8.78447e-05
-7.97871e-05
-1.48759e-05
0.00023247
8.98008e-05
-3.97189e-06
0.000200635
-9.9663e-05
0.000150925
2.20084e-06
0.000207029
-0.000400754
-1.83335e-05
0.000153435
-5.26967e-05
-0.0005488
2.34749e-05
-6.51272e-05
-7.18998e-05
8.81154e-05
-0.00239303
-0.000197742
1.94783e-06
0.000176369
0.000218399
0.000330869
0.0001136
-0.000163607
-0.000435961
-0.000445244
-0.00117637
-0.0018587
-0.000455834
9.54868e-05
0.000337497
1.71674e-05
-0.000287779
0.000105148
-0.000121207
0.000103455
3.71037e-05
6.36174e-05
0.000234416
-2.49423e-05
3.07869e-05
2.50755e-05
-9.45716e-05
0.000223109
3.86157e-05
-8.18768e-05
3.11816e-05
-0.00092623
0.000253206
-0.00020537
-3.00781e-05
0.000145054
0.00031713
0.000171547
1.46065e-05
-8.0957e-05
4.39596e-05
-0.000239264
3.83632e-05
-6.2549e-05
-0.000269813
0.000134904
0.000210872
0.000164634
-1.50856e-05
2.91262e-05
5.49423e-05
0.000206767
5.88887e-05
-1.63003e-05
-3.90277e-05
5.70563e-05
0.000130102
3.28242e-05
2.97647e-05
1.8304e-06
3.82646e-05
0.000187462
8.89319e-07
-1.84854e-05
-0.000179544
0.000118698
3.19212e-05
0.000150812
0.0001349
0.000206084
1.56428e-05
0.000165981
6.36263e-06
0.000213225
0.000112545
0.000165424
2.14362e-05
0.000154898
6.00266e-06
0.00013561
-5.2345e-05
4.50021e-05
-8.97045e-05
-4.47692e-05
0.00010624
1.92022e-05
2.42044e-05
0.000229591
6.23784e-05
7.77273e-05
-0.00079484
-4.6293e-05
7.00178e-05
-3.05138e-05
-0.000139504
-3.84859e-05
0.000159753
0.000321067
0.000171735
-1.75917e-05
0.000145804
0.000287608
5.60867e-05
-1.37998e-05
-0.00103698
0.00023422
-0.000836291
-0.000770273
-2.31855e-05
-2.71704e-05
0.000123106
4.47918e-05
-1.87938e-05
0.000154367
-1.23011e-05
-3.77391e-05
1.31487e-05
-0.000280692
3.68669e-05
0.000373555
7.2311e-06
0.000151605
0.000201434
-7.80192e-05
1.26369e-06
-1.27675e-05
0.000313947
0.000339833
0.000293636
-2.05947e-05
8.33802e-05
4.06559e-05
3.07414e-05
-0.00085901
0.000274672
0.000326414
0.000215407
6.28072e-05
-3.45622e-05
4.10593e-05
-0.000128846
0.000198543
5.92685e-05
-1.06923e-05
4.84765e-05
0.000193158
-0.000166234
0.000146253
-0.000853041
-9.63039e-05
-2.60381e-05
0.000247948
-2.57101e-05
-2.01505e-05
-5.9617e-05
0.000100425
6.44231e-05
2.55892e-05
0.000125057
1.07557e-05
-1.46734e-05
-0.000113874
1.28927e-05
4.19361e-05
-3.79831e-05
-0.000621272
9.06935e-05
-0.000107727
7.63431e-05
4.27121e-06
5.60266e-05
-2.04839e-05
-1.56159e-05
1.52139e-05
-0.000300798
-0.00519387
-0.00961349
-0.00480901
7.5452e-05
0.000214138
0.000270444
2.06956e-05
2.11241e-05
2.17038e-06
0.000121739
8.02807e-05
-5.57258e-06
7.72386e-05
4.27218e-05
8.63347e-05
3.56416e-05
0.000134814
-0.000140067
0.000143508
-1.84097e-06
-6.15086e-06
-0.000166284
9.46347e-06
-0.000435348
6.88369e-05
0.000174951
-0.00061988
0.000156685
-0.00384511
0.000367014
0.000182233
-4.68769e-05
8.0008e-05
4.36274e-05
-4.01732e-05
-2.73024e-05
1.1001e-05
-1.42835e-05
-8.40158e-05
-4.1738e-05
-1.39373e-05
-0.000390685
4.3668e-05
1.66343e-05
7.67057e-05
2.37614e-05
2.34118e-05
7.68366e-06
5.21569e-05
0.000138507
0.000133896
0.000137635
0.000190463
0.000172812
0.000109186
-6.76427e-06
-7.84529e-05
7.38656e-05
0.000150068
2.88706e-05
0.000159124
-9.58797e-06
-9.06087e-05
2.5303e-05
4.65465e-05
0.0002536
-1.0681e-05
3.27194e-05
0.000206481
0.00022837
0.000453909
0.000314801
-0.000204714
-0.00176257
-0.00116742
0.000299383
0.000638468
9.58311e-05
-2.38707e-05
7.89359e-07
3.45294e-05
-0.000111098
2.9208e-05
-0.000122676
0.000314782
0.000307138
0.000270355
0.000314582
0.000119088
1.34367e-05
-5.14021e-05
0.00028354
-9.48652e-05
7.34735e-05
-7.96568e-05
-0.000121371
-1.15204e-05
7.85834e-05
-1.74481e-05
0.000138281
1.55433e-05
3.31972e-05
-4.39869e-06
2.60128e-05
3.99646e-05
2.31603e-05
-0.000706807
-7.47798e-07
5.6529e-05
1.43372e-05
-4.18163e-05
3.64056e-05
-2.27939e-06
8.37932e-05
1.03421e-05
0.000127489
0.000201452
4.68891e-06
-0.000118322
3.30608e-05
-0.000246415
-0.000566029
-0.000518247
-0.000303574
1.38994e-05
7.39618e-05
0.000152712
0.000111899
0.000122225
-0.000252828
-0.000230185
-2.65923e-05
-0.000177709
-0.00029472
-0.000774555
-0.000890858
-0.000179943
-0.000444093
-0.000805589
0.000135879
9.30988e-05
0.000240474
0.000348508
0.000173292
1.00463e-05
-0.000302386
-2.63263e-05
-0.000696863
0.000148248
8.73511e-05
-0.00320745
-0.00270375
-0.000270363
-0.00311364
4.44933e-05
-0.000325939
2.99308e-05
3.78361e-05
5.86557e-05
3.60471e-05
0.000233416
0.000103257
5.68333e-05
0.000336874
3.29138e-05
1.99819e-05
0.000224426
1.3183e-05
-2.25911e-05
-1.27881e-05
2.15541e-05
5.35476e-07
-5.04589e-05
8.87325e-06
0.000123786
2.88387e-05
-2.72149e-05
0.000365364
5.74143e-05
5.92143e-05
-3.98358e-05
6.14733e-05
0.00010369
0.000330729
6.73515e-05
1.6666e-05
0.000196099
-0.000100492
1.92533e-07
-7.22174e-05
2.567e-05
-0.000217928
-0.000112801
-0.00014271
-0.000108596
-0.000353363
4.08339e-05
-4.30741e-05
7.94701e-05
1.8849e-05
0.000118228
0.000320914
0.000192529
0.000127168
0.000172741
0.000273072
0.00018657
0.000195554
0.000132474
3.23347e-05
0.000219012
5.28429e-05
9.63429e-05
1.25647e-05
6.90098e-05
8.84183e-05
7.9484e-05
6.17307e-05
0.000123547
0.00012412
0.000126788
0.00020634
0.000186257
0.000122727
0.000179815
0.000219485
8.18378e-05
2.28175e-05
0.000128896
9.06878e-05
0.000117743
8.29144e-05
0.000216395
0.000202015
9.14644e-05
3.29725e-05
0.000161716
0.000139079
0.000208456
0.000195269
0.000112041
0.00015898
0.000188858
0.000174099
-0.000131383
0.000159376
0.000159243
0.00010853
0.000222111
1.33226e-05
0.000137596
0.000110846
2.40244e-05
0.000246017
0.000752378
0.000491841
-0.00131287
0.000694487
0.000635383
-0.00146782
0.00105399
-0.001279
-0.000206898
-0.000572768
-0.000181253
-0.00173784
0.000167618
0.000448022
-0.000141524
-0.000222501
0.000530467
-0.00138751
-0.000132227
-0.000219836
-0.000317243
-8.20554e-05
-0.000167929
-0.000279867
-3.47171e-05
-0.000582704
-0.000104091
-0.000309124
-0.00064332
0.00095502
0.000729052
-1.75647e-05
0.000553327
0.00070508
0.000360019
-0.000377458
6.5118e-05
-1.48551e-05
-0.000381429
-0.0016644
0.000291761
-0.000273452
-0.0011051
-9.3021e-05
0.000174945
0.000203169
-0.00032192
-0.000517533
0.000457329
-0.000221027
-0.000671719
-0.000435447
-0.000288902
-0.000192396
-0.000712608
-0.00056304
0.000794327
-7.54874e-06
-0.000665766
-0.000450605
-4.99572e-05
-0.000301809
-9.04819e-05
-0.000403087
9.61524e-06
-0.000113425
-0.000350174
-8.20311e-05
-0.000257167
-0.000237723
-0.000820938
-7.58927e-05
0.00011863
-0.000456873
-0.000824434
-0.000873393
-0.000556473
-0.000234146
-4.4114e-05
-0.000113255
-0.000346896
0.00091712
0.000340662
-0.000248426
0.000174397
0.000147853
-0.000265197
-0.000123224
-0.000152804
-0.00038195
-0.000250977
0.000218022
0.000379843
-0.000583853
0.000397485
0.000733766
0.000128489
0.000148051
0.000738559
-0.000332214
-0.00020674
0.000191535
-0.000268566
-0.000340166
-0.000157895
0.000512548
-0.00069793
0.000126767
0.000616116
-0.000452261
0.000333597
0.000197643
1.95702e-05
-0.0001032
-0.000842183
-0.000658555
-0.000945967
0.000867051
0.000181633
0.000363285
0.00106036
0.000183648
0.000706336
0.000940861
-0.00019962
-0.00033855
-0.000290479
-0.000221166
-0.00112972
-0.000620035
-0.000740112
-0.000336858
-0.000492311
0.000682534
0.000438401
-0.000155446
-0.000134822
-8.54185e-05
-0.000346443
-0.000210511
-0.000896362
-2.49496e-05
-0.000688224
-0.00059823
0.00036656
0.000523658
-6.52736e-05
-0.000617276
0.000888977
3.95841e-05
-3.97808e-05
-0.000364182
-6.23075e-05
-0.000146285
-0.000445011
-0.000161591
-0.000618712
-0.000394356
-0.000123411
0.000118354
-0.000598745
0.00137288
0.000639101
-0.00051548
-0.000260572
0.000605567
0.000405901
-0.000255891
-8.13609e-05
1.24338e-05
-0.000614426
-0.00019642
-0.000409623
-9.55025e-05
-0.000265392
-0.000136852
-0.000218769
-0.000810375
-0.00163555
-0.000817302
-0.00092042
0.000190275
-0.00125659
-0.00170692
-0.00108376
-0.000214321
-0.00233912
0.000204329
-0.000148269
-0.00111902
-0.00295655
-0.00139773
-0.00292616
-0.000532342
-0.000341396
-0.00436239
-0.000802533
0.000464948
0.000297058
-0.001138
0.000402152
-0.00193373
-0.00162258
-0.000911851
-0.00223614
-0.000353459
0.000614269
-0.00334533
-0.000513912
0.000657353
0.000425288
-0.00229958
0.000512754
-0.000385043
-0.00248488
-0.000558341
-8.06263e-05
0.000133046
-0.000735865
0.00116589
0.000156928
-0.00309063
-0.000461822
0.000328558
-3.51867e-05
-0.00186329
0.000898611
-0.000236632
-0.00375696
0.000151065
0.000105152
-0.000131519
-0.000454663
0.000178736
0.000586254
-4.34307e-05
0.000122363
-0.000576227
-0.000839949
-0.000452154
-0.000704031
0.000144287
0.000203509
-0.000674552
0.000185089
0.00096825
-0.002031
-0.000268711
0.000203221
0.000548924
0.000981388
0.000746173
0.000350845
-0.000661828
-0.000439466
0.00142977
-0.000222457
-0.00174457
0.000339425
0.000539873
0.000705541
-0.000208253
-0.000213618
0.000888872
-0.00134313
0.00154965
-0.00036995
-0.00102097
-0.000260253
0.000364137
0.00076833
-0.00162294
0.000683091
-0.000285227
-0.00176096
-0.000259065
0.000498026
0.000262598
-0.000943721
0.00065796
-9.06559e-05
-0.0017724
0.000222559
0.000365681
-0.000151123
-6.61502e-05
0.000404576
-0.000217769
0.00106561
0.000410745
-1.26983e-05
-0.000166745
-0.000159424
0.000130101
0.000298691
-0.000191573
-0.000245568
0.000260109
-0.000277815
0.0013125
-0.000836244
0.000157148
6.73901e-05
-0.000369866
-0.00278662
-0.00102792
-0.00200052
0.001025
0.00119702
-0.00307188
0.000906915
-5.78057e-05
-0.000197699
-0.000291328
-0.00119621
-0.00275338
-0.00127132
-0.00304914
0.00158037
0.00134649
-0.0024195
-0.000115946
-0.00403066
-0.000944066
-0.00083873
0.00126574
0.00114383
-0.00192091
-0.000547102
-0.0016158
-0.0011198
0.000433086
-0.000493785
-0.00244555
-9.91249e-05
-0.00107231
-0.00040897
-0.00161368
-0.000787768
-0.000691308
-0.00180954
-0.000802963
-0.000168816
-0.00306077
0.000182024
0.00035883
0.000152798
-0.000167194
0.000318246
7.59139e-05
0.000680567
-0.00119288
-0.000190833
0.000136284
-0.000849061
-0.000819801
-0.00112108
-0.000878694
0.000135476
-0.00168765
0.000129427
8.38916e-05
-0.00100645
-0.000123609
5.10756e-05
5.34127e-05
0.000155812
-1.00501e-05
-0.000502853
0.000102452
-0.00064911
0.000317653
-0.000958254
-0.00127597
-8.65541e-05
-0.00103597
4.37518e-06
1.8097e-05
-2.74864e-05
-0.00057797
5.27715e-05
0.0008271
0.000469699
-0.000396461
-5.80764e-05
-0.000226181
5.18795e-05
0.000335061
2.79681e-05
-0.000457964
0.000235478
-0.000423178
-0.000734043
-0.000588191
-4.60075e-05
3.36016e-06
-0.00113224
0.000757949
5.71888e-05
7.57456e-05
0.000149628
-4.7816e-05
7.98357e-05
-0.000258298
-0.00017708
0.000125713
-2.46996e-06
-0.000527801
0.000669274
0.000579704
-0.000942345
-9.44402e-05
-0.00070496
-0.000187697
0.000541795
0.000498355
-0.000360644
-3.82327e-05
-0.000471683
-0.000254563
-0.000365156
0.000939644
5.07159e-05
-0.000500318
0.000136867
-0.000160727
1.6428e-05
0.000444179
0.000109257
-0.000904706
-0.000187957
-0.00139974
-0.00116728
-0.000239764
-0.000925958
-0.00127595
5.74234e-05
-0.00105229
0.000565685
0.000872587
0.000820225
0.000660863
0.000539532
-0.000197391
0.000352311
0.000408847
0.000209564
0.000251225
0.000654487
-0.00107912
8.26195e-06
-0.000222861
-0.000234191
0.000236861
0.00047936
-0.00128567
3.6827e-05
0.000803973
0.000495601
0.000304498
0.000239181
-0.000731371
0.000114824
0.000369019
8.89202e-05
-9.01354e-06
0.000210804
-0.000155269
0.000834114
-3.53986e-06
0.000290994
-8.77625e-05
-0.000120256
0.000105281
0.000476193
-0.000232111
-0.000136737
-0.000725049
-0.000817345
-0.000328741
0.000803574
0.000575705
-0.000256294
-2.18543e-06
-0.000443198
-0.000456002
-0.00524592
-0.00102056
-0.00141696
0.00145564
0.00120203
-0.00214526
2.70428e-05
-0.000108569
-7.07332e-05
-0.000230969
-0.000103908
-0.000486609
7.14682e-05
-0.00102774
-0.00125826
0.000265083
-0.0010957
4.93189e-05
8.23382e-05
1.0945e-05
-0.000150174
2.61649e-06
9.50016e-05
-0.00163811
-0.000939956
0.000380472
-0.0038567
-0.00365036
-0.000131391
-0.000581728
0.00131042
0.000980756
0.00111785
-0.000952251
0.000128639
0.000721471
-0.000885957
0.000306558
-0.00150158
0.000927815
0.000552321
-8.30007e-05
0.000562283
-0.000806047
0.000247523
-0.00024318
-0.000469027
-0.00105385
-3.9011e-06
0.000416547
-0.00287698
-0.000353478
0.000102211
0.00166706
-0.00317539
0.000239312
-0.000112241
-0.000267745
-0.000748902
-6.67454e-05
0.000384103
-0.00167018
0.000152881
0.000594931
0.00110541
-0.00287538
-0.000146557
-0.00117538
-0.00045637
-0.00166601
-0.000987979
0.000541314
0.000513762
-0.000112122
0.000382386
-0.000613353
-0.0010059
-0.00110524
-0.00125511
-0.00135738
0.000528689
-0.00240598
-5.40301e-05
-0.00150489
-0.000563848
-0.00248327
-0.00110044
-0.000147114
0.00066195
0.000451295
0.000389818
0.000270022
0.000325825
-0.000562296
-0.00187231
-0.000932745
-0.00377328
0.000293547
-0.00141995
-5.94834e-05
0.000482104
-0.000438859
3.33264e-05
-0.000206673
-0.000385344
-0.000378326
6.26999e-05
0.000115936
-9.34046e-05
0.000328091
0.00130422
0.000832968
-0.0015336
0.000244941
-0.000910034
0.00025498
-0.000609823
4.4464e-05
-6.69584e-05
-0.000504635
0.000153986
-0.00114229
-0.00146132
-9.88142e-05
-0.000275293
-0.00188505
5.50037e-05
0.000521395
0.000565669
0.000138486
0.00056492
0.000518232
-0.000541378
-0.000280264
0.00112571
0.000485763
-9.84643e-05
0.000789261
0.000241613
-0.00170139
-3.00436e-05
0.000938643
0.000605903
-6.9234e-05
0.000610729
0.000701752
-0.000767049
0.000851015
0.00081113
-0.000219328
0.000276319
-0.00073888
0.000360381
0.000238382
0.00043186
-0.000143281
0.000910023
-0.00143878
-0.000357606
0.000646002
0.000422366
0.000373756
0.000606606
0.000441213
-0.00111862
0.000301202
0.000588793
0.00057019
0.000756957
0.000699127
0.000669202
-0.00046569
-0.000295261
0.000701954
0.000698273
-0.000624828
0.000619146
0.000508025
-0.00104975
0.000440448
0.000414397
0.000400683
0.000454459
0.000475312
0.000183769
-0.000127373
0.000528349
0.000843742
0.000426163
-0.000236233
0.00106563
0.000777184
-0.000281874
0.000610616
2.5833e-06
0.000194833
0.000557284
0.00025392
-0.00146509
0.000954643
0.00073967
-0.000102408
0.00104802
0.00137936
-0.00154018
0.000523444
0.000488369
0.000316512
0.000206465
-2.47522e-05
1.21971e-05
-8.38968e-05
-0.00150152
-0.000707508
-0.00239847
-0.000632673
-0.000672958
-0.000943648
-0.000392296
0.000525599
0.000484996
-0.00150134
-0.000349423
-0.00222662
-0.000741916
-0.00294868
-0.00182615
0.000823683
0.000393544
-0.00114234
2.39484e-05
0.000149062
-0.000371111
-0.00173895
-0.000760127
-0.00235867
-0.00130432
0.000561453
0.000800925
-0.000814076
0.00030522
-0.000871827
3.00698e-05
-0.000908755
-0.000492527
-0.00274774
-0.000635839
0.000669834
0.00010641
-0.00187087
-0.000263802
0.000205293
-0.000288103
-7.51249e-05
-0.000803111
-0.000283506
-0.00173807
-0.000419268
-0.000603095
0.000110465
-0.000257046
-0.000755922
0.000135069
-0.00115838
-5.49278e-06
-0.000498505
-0.000214672
-0.00114282
-7.34622e-05
-0.000361754
0.000509047
-0.00152603
-0.000454931
0.000308954
-0.000998937
0.000102683
-0.000326559
-0.000264992
-0.00107763
2.85757e-05
0.00155677
0.000520703
-6.71929e-05
0.000389633
0.000330685
2.95577e-05
-0.000416742
0.000401465
0.000353061
-0.00223021
-0.000211659
-8.61968e-05
-0.000219577
3.79893e-05
-0.00161264
-0.0007607
-0.00256017
-0.000961542
1.92074e-05
-3.44575e-06
-0.00230914
0.00047771
0.000518269
-0.00123675
0.000123278
-0.00080152
-0.000308556
-0.00164372
-0.000242449
-5.12455e-05
0.000501463
0.000402615
0.00071152
0.000458827
-0.00066416
0.000130365
-0.00122337
-0.00045618
-0.00256196
-0.000446187
0.00016243
0.000235111
0.000377247
0.00103083
0.000408334
-0.000846586
-0.000156583
-0.00106086
-0.000542102
-0.0018551
-0.000769945
-0.000729896
0.000888408
0.000428245
0.000339726
0.000101756
0.00031396
0.000202059
0.000251169
-0.000238946
-0.00107859
0.000434147
0.00129344
-9.06002e-05
-0.000838436
0.000243177
0.000400838
-0.000536585
-3.29675e-06
-5.68367e-05
-6.87612e-05
-0.000655578
-0.000155466
-0.000800068
0.00139808
-0.000884541
-0.000127692
-0.000107725
-0.00041769
-5.74836e-05
-0.000493626
-0.000207737
-0.00116185
-8.16365e-05
0.000166888
-0.000218671
0.000287525
7.20552e-06
-0.000293611
0.000129948
0.000474751
0.000151736
8.86893e-05
0.000225481
0.000246279
-0.000476272
0.000902313
-8.53987e-05
0.00027214
0.000160672
-0.000376239
-0.000697949
0.000355904
0.000728462
0.000239335
-2.48046e-05
0.000734498
0.000318947
-0.000629657
-0.000124925
-0.000468413
0.000342816
0.000288201
5.78982e-05
6.88127e-05
-2.04241e-05
-0.000257704
9.46331e-05
-0.000365214
-0.000276343
0.000171145
-5.11044e-05
2.01241e-07
-0.00039092
5.0792e-05
0.00111739
0.000450997
-0.000270601
-3.01681e-05
-0.000342054
0.000195664
0.000635249
5.66861e-05
0.000224138
0.000509584
0.000263653
0.000254514
-3.85313e-05
-0.00037818
0.000355188
-0.00159848
0.000165383
0.000676343
4.05342e-05
0.000347647
0.000525127
0.000164698
-0.000241555
-6.90722e-05
0.000526234
0.000195743
-0.000103917
0.000282711
0.000342228
-0.000877427
0.000606572
0.000534902
0.000662628
1.42846e-05
0.000890282
-5.70782e-05
0.000119013
0.000746073
-0.000180507
-0.000324638
0.000292507
0.000480898
-8.44916e-05
0.000332468
-0.000264751
0.000214942
0.000209626
0.000622417
-0.000315484
0.000577877
0.000218036
0.000358491
0.000208807
-0.000381016
-0.000512415
0.000264148
0.000738254
0.00079639
0.000842332
0.000821702
-0.000111258
0.000731625
0.000245905
0.000150034
0.000252796
0.000761439
0.000497285
-0.000514188
-7.95385e-05
-0.000748457
-0.000280832
-0.00116376
-0.000492442
0.000716515
0.0004763
0.000353058
-9.6554e-05
-0.000356532
-2.80218e-06
0.000628926
0.000340336
-0.000449476
0.000104765
0.000526139
5.00317e-05
0.000877164
0.000847355
0.000535248
0.000993833
0.00127578
0.000956105
-0.000345497
-4.97601e-05
0.00140283
0.000675274
-9.93352e-05
-0.000136267
0.000260077
0.000803849
0.000227177
0.000218785
0.000306898
-0.000622937
0.000188805
0.000207102
0.000232141
-0.000445471
-0.00457317
-5.15039e-05
-0.00105824
0.000506716
0.000595091
-0.00153697
0.000383211
-0.00156159
0.000740533
3.49691e-05
-0.000813302
-0.00264615
-0.000247042
-0.00125021
-8.39441e-05
0.000148219
-0.00118611
-0.000102932
-0.00138505
0.000460943
-0.0015311
-0.000423568
-0.00140223
0.000309332
0.000326989
-0.00150635
-0.00170393
-0.000683636
-0.000896531
-0.000571784
5.33798e-05
0.000125738
-0.00130996
0.000542207
0.000117152
-0.00278739
0.000274922
-0.0011532
0.00033304
0.000440917
-0.00066151
0.00035637
-0.000456661
5.84222e-05
-0.00052233
0.000344254
-0.000870262
0.000125473
0.000491219
-0.00183872
-0.000415976
2.94245e-05
-0.000127702
-9.48164e-05
-0.00198712
0.000238786
-0.00109692
-0.000430553
-0.000279795
-0.00133488
0.000307709
-0.000171699
0.000157213
7.63706e-05
-0.000995087
0.000700129
-0.00107238
0.000171398
0.000140114
0.00120223
0.000953212
-0.000358226
0.00041612
0.00118628
0.00148083
0.00118953
8.37471e-05
0.000677725
0.00037829
0.000275877
0.000744594
0.000489322
0.00107168
-0.00567091
0.000114866
0.000688933
0.00113055
0.000982015
-0.000739509
0.00105749
-0.000707062
6.30884e-05
-6.13057e-05
0.0001303
0.000173836
-0.00210215
0.000393814
-2.95067e-05
0.000315407
0.000403642
-0.00109456
0.000299794
-0.000132188
-0.00174059
3.07512e-07
-0.00261503
-0.00196617
-0.000830153
-0.000362519
0.000436805
-0.00194627
-0.000826554
-0.000720949
-0.000683564
-0.000885719
-1.51171e-05
-5.09515e-06
0.000206872
0.000150989
-0.000770642
-0.000415879
-0.000750189
-0.00248558
-0.0007548
0.000539336
0.000593999
-0.00181279
0.000201209
-0.000419603
-0.00129543
-0.000248381
0.00088926
0.000435598
-0.00077136
9.29365e-05
0.000762635
0.00163835
0.000935355
-0.000885642
0.00149133
-7.56199e-05
0.000479015
-0.000434147
0.000611549
0.000896358
0.0002306
0.000236666
0.000207434
0.0012226
0.000552664
-0.000462015
0.000666374
6.16514e-05
8.08525e-05
-0.000299017
-0.000606483
-0.000245438
-0.000889432
4.30283e-06
-0.00096994
0.000133493
0.000479315
-0.000758403
0.000349296
3.08511e-05
-0.00028755
0.000465011
-0.000308585
0.000582001
0.00142349
-0.000265664
0.00051967
0.00110975
0.00122964
0.000478758
-0.000452198
0.000500795
0.000124398
8.95048e-06
-8.13639e-05
0.00021605
-0.00303862
-0.000446049
-0.000619924
0.00116929
0.00135124
-0.00129953
-0.00125521
0.000295642
0.000158651
0.000198054
0.000190012
5.1215e-05
-0.00021549
4.83235e-05
0.000265135
3.56196e-05
4.36982e-06
-7.70803e-05
-4.13327e-05
6.46293e-05
-0.000103978
1.44757e-05
0.000133219
4.66816e-05
3.37216e-05
0.000312047
0.000222029
-2.59207e-05
4.26824e-05
9.97974e-05
-0.000337899
-0.000260926
-9.10942e-05
-1.64287e-06
-9.43589e-05
-0.000233826
0.000249926
-0.000189954
0.000157022
9.42313e-05
-0.000164898
0.000186232
5.93554e-06
0.000356178
-0.000113127
-7.01684e-05
0.000229501
0.000171959
-1.62255e-05
0.000103072
-0.000198166
3.56143e-05
1.32283e-05
1.57923e-05
-0.000811202
-0.000103795
-1.2602e-05
5.90974e-06
1.57488e-05
1.82696e-05
5.61897e-05
-0.000278342
-2.48211e-05
-0.000232541
-0.000184547
-0.000409364
-0.000162379
-0.000288978
-5.62013e-06
-0.000449591
-0.000709563
-0.000543166
-0.000100071
-0.000244861
-0.00029528
-0.000380987
-0.000457028
-0.000335585
-9.83363e-05
-0.000147694
-0.000135558
-0.000280725
-0.000100716
-0.000158023
0.000129243
9.90859e-05
8.58472e-05
-0.000100306
2.03866e-06
-0.000297213
-0.000169742
-2.06698e-05
-2.85502e-05
-0.000333871
5.48662e-05
2.83877e-05
6.63016e-05
3.22915e-05
2.13607e-05
4.03307e-06
3.91489e-05
2.4497e-05
6.26538e-05
-4.84565e-05
-0.000187541
0.000103387
5.29324e-05
-0.000149535
0.000110196
-0.000181909
-0.000139225
2.30087e-05
-0.0005268
-0.000160331
-0.000294038
0.000117273
5.71258e-05
-0.000163561
-0.000334829
-0.00022425
-0.000229657
-3.52414e-05
1.76955e-05
-0.00026097
-0.000203756
-0.000245181
-0.000164363
-0.000736947
-0.000584147
-5.958e-05
-0.000487088
-0.000128033
6.26341e-05
1.4006e-05
-1.53703e-05
0.00010192
3.13458e-05
-0.000136212
-0.000101001
0.000666426
0.000157736
4.12966e-05
-4.71566e-06
-0.000412882
4.44686e-05
0.000122426
1.9765e-05
0.000129568
0.000187202
0.000111178
1.11767e-05
0.000146405
-2.69256e-05
0.000159366
0.000272589
3.39122e-05
-0.00016568
6.2256e-05
-2.97492e-05
6.89367e-05
-1.62262e-05
-1.38485e-05
-7.28813e-05
0.000150895
0.000206134
0.000110663
0.000101104
0.000119435
0.000164097
1.33211e-05
0.000144967
-4.1534e-05
0.000104805
0.000102677
-2.61872e-05
0.00020899
0.00015784
9.0326e-05
3.05182e-05
5.51345e-05
0.000278084
8.78592e-05
9.81398e-05
0.000304203
0.000247458
7.13427e-05
-0.000106116
0.000415622
4.05298e-06
-0.000148585
-1.23018e-05
-6.58391e-06
-1.18276e-05
-6.71637e-06
0.000112965
0.000133484
5.55702e-05
0.000244204
0.000210432
0.000118821
8.53441e-05
6.33806e-05
4.43043e-05
0.000243583
0.00011996
6.51565e-05
-5.55287e-05
-0.000407092
-0.000233829
-5.47032e-05
-9.51032e-05
0.000153547
-0.000169382
2.67287e-05
-0.000380009
-0.000153601
-0.000172452
5.26239e-05
-3.00693e-05
-0.000257765
8.11352e-05
0.000274209
8.48968e-05
-0.000113887
0.000269757
-6.37804e-05
-0.000124204
-5.93227e-05
-0.000114177
-0.000144524
-0.000468303
-8.27495e-05
-2.03401e-05
-0.000146241
-0.000121862
-2.46147e-05
9.02553e-05
-3.51493e-05
-8.97384e-05
1.68685e-05
-0.000205181
2.25022e-06
-0.000626882
5.50182e-06
0.000202287
0.00014534
7.91869e-05
-4.10641e-05
0.000206286
-5.41449e-06
-4.89026e-05
2.3906e-05
0.000184522
1.73849e-05
-1.3509e-05
-1.22986e-05
5.13569e-05
7.80855e-05
2.70985e-05
-0.000251661
0.000192632
0.000172264
-1.03289e-05
2.7567e-05
6.67921e-05
0.000175474
0.000145905
5.66726e-05
5.31944e-05
-1.50649e-05
-2.19254e-05
0.000111618
-1.15744e-06
0.000194172
-2.86279e-05
4.23071e-05
-4.78082e-05
-0.000333158
2.2329e-05
-9.6833e-05
-5.51688e-05
-3.79209e-05
-0.000224013
2.12774e-06
4.4854e-05
8.40913e-05
0.00012031
5.61722e-05
0.000102875
1.18129e-05
0.00013337
3.46591e-05
-3.87035e-05
-6.23106e-05
-0.000168365
0.00013028
0.000252767
0.000217384
9.33125e-05
0.000229224
-0.000148784
0.000160014
0.000225372
5.47081e-05
-3.93001e-06
-5.33247e-05
9.52124e-05
5.11226e-06
0.000267407
5.61305e-05
-0.000441726
-0.000607039
-0.000457032
0.000335011
-2.45284e-05
-0.000119748
-0.000103772
0.000117378
-5.16611e-05
-4.42849e-06
-7.09914e-05
-5.97345e-05
0.000117981
-0.000182628
0.000127592
0.00010229
-2.87074e-05
-6.12016e-05
0.000161166
-3.15783e-05
3.34859e-06
3.0602e-05
0.000174961
-3.28074e-06
-8.9845e-05
-1.63025e-05
0.000232714
2.20789e-05
3.14094e-05
0.000287827
0.000293879
7.55548e-05
-5.5481e-06
1.34069e-05
-7.91154e-05
-7.39028e-05
4.74292e-05
1.96457e-05
-4.4361e-05
-2.41655e-05
0.000259662
0.000161088
3.00286e-05
0.00031006
-0.000185265
9.30406e-06
-6.61003e-05
-8.21432e-06
-3.05851e-05
-7.16801e-05
8.1653e-05
4.39367e-05
-2.98528e-05
-3.55288e-06
4.11744e-05
0.000153797
0.000150081
8.64039e-05
6.14825e-05
6.27817e-05
-6.03897e-05
0.000250054
-1.48923e-05
-0.000285859
8.14814e-05
-1.79682e-05
6.32968e-06
0.000216744
0.000113878
-2.57369e-07
0.000183928
-7.90849e-05
0.000152522
-1.57511e-05
0.000175442
-0.000275816
-1.24673e-05
0.000145837
1.58709e-06
-0.000319576
5.04147e-05
-3.17477e-05
3.81502e-05
6.23227e-05
-0.00161556
-0.00012434
1.99923e-05
0.000187677
0.000194122
0.000303911
8.91504e-05
-0.0001142
-0.000303569
-0.00030987
-0.000805361
-0.00126727
-0.000307221
8.78633e-05
0.000322885
1.28349e-05
-0.000186059
8.35512e-05
-8.67182e-05
8.13325e-05
2.30921e-05
6.95042e-05
0.000204246
-1.30915e-05
2.76208e-05
2.13977e-05
-8.40312e-05
0.000205155
3.5805e-05
-5.66319e-05
1.93471e-05
-0.000639684
0.000230785
-0.000137712
-2.0347e-05
0.000119295
0.000283316
0.000148142
1.48169e-05
-3.2807e-05
3.81824e-05
-0.000178368
2.61167e-05
-4.20749e-05
-0.000186268
0.000143084
0.000200079
0.00014432
-1.02093e-05
3.06465e-05
4.9777e-05
0.000166225
5.44489e-05
-1.5516e-05
-1.91072e-05
6.9002e-05
0.000147468
3.01001e-05
3.05315e-05
1.32496e-05
4.47533e-05
0.000168009
8.67226e-08
-8.01052e-06
-9.22749e-05
0.000141661
3.67385e-05
0.000144446
0.000121242
0.0001771
2.63002e-05
0.000159974
9.75344e-06
0.000185338
0.000116572
0.000133575
2.89311e-05
0.000142669
1.00784e-05
0.000115087
-5.57966e-05
4.11017e-05
-5.29362e-05
-4.32092e-05
9.01461e-05
1.74589e-05
2.05978e-05
0.000163328
5.48669e-05
6.96e-05
-0.000545943
-4.9154e-05
5.52332e-05
-3.44157e-05
-9.44453e-05
-2.92416e-05
9.34784e-05
0.000232915
0.000146751
-1.41885e-05
0.000142138
0.000254688
6.09583e-05
9.16748e-06
-0.000662573
0.000201571
-0.000579541
-0.000541
-2.04334e-05
-1.96392e-05
8.69282e-05
3.39967e-05
-1.25333e-05
0.000143106
-8.21009e-06
-2.5695e-05
1.49817e-05
-8.7761e-05
4.19113e-05
0.000424211
3.0806e-05
0.000177127
0.000242766
-4.90485e-05
1.97285e-05
7.84083e-06
0.000322623
0.000345585
0.000317943
1.17353e-05
9.21723e-05
4.48317e-05
6.42536e-05
-0.000547578
0.000309841
0.000323616
0.000215856
7.31283e-05
-8.52685e-06
4.11769e-05
-6.89745e-05
0.000222917
8.88482e-05
-4.26952e-07
6.03933e-05
0.000206387
-0.000110537
0.000139155
-0.000574836
-1.28061e-05
-4.15034e-06
0.000236988
1.07883e-05
-1.34781e-05
-3.65494e-05
9.39898e-05
6.1665e-05
2.72288e-05
0.000109498
8.0516e-06
-8.96647e-06
-6.02807e-05
1.21351e-05
3.55035e-05
-1.14315e-05
-0.000411105
7.30855e-05
-6.86828e-05
6.5637e-05
4.0994e-06
4.99178e-05
-8.85847e-06
-1.1654e-05
9.57038e-06
-0.000194439
-0.00352292
-0.0065077
-0.00326125
5.11056e-05
0.00017458
0.000216989
1.30041e-05
2.26937e-05
3.46828e-06
0.000112668
5.55047e-05
-3.9571e-06
6.57087e-05
3.90991e-05
7.87017e-05
1.9186e-05
0.000119063
-9.59996e-05
0.000128065
1.02452e-06
-3.13777e-06
-7.0696e-05
2.96999e-05
-0.000265402
5.22926e-05
0.000149343
-0.000385861
0.000129642
-0.00259617
0.000295207
0.000151153
-1.35669e-05
9.25976e-05
4.16344e-05
-2.77311e-05
-1.83015e-05
2.26744e-05
-9.39738e-06
-5.65884e-05
-2.30515e-05
7.91466e-06
-0.000246034
3.46212e-05
1.40857e-05
7.26301e-05
2.26575e-05
2.84086e-05
1.21823e-05
4.81474e-05
0.000122214
0.000119612
0.000144883
0.00017845
0.000160227
9.58326e-05
4.85631e-06
4.09216e-06
7.09213e-05
0.000123693
1.72637e-06
0.000146525
-1.74514e-06
-4.83245e-05
2.72892e-05
4.24328e-05
0.000111794
-1.12363e-05
2.88187e-05
0.000163004
0.000157024
0.000307915
0.00022139
-0.000137851
-0.00126549
-0.000837115
0.000160291
0.000442183
4.84582e-05
-2.45771e-05
7.13071e-07
8.28665e-06
-0.000118675
2.17816e-06
-6.79579e-05
0.000219994
0.000210224
0.000185349
0.000228638
5.37098e-05
-6.68637e-07
-4.9661e-05
0.000215182
-6.571e-05
5.08029e-05
-6.12667e-05
-8.69761e-05
-6.54965e-06
5.72278e-05
-8.35879e-06
0.000107194
1.86175e-05
3.2889e-05
7.43092e-07
2.73971e-05
4.12655e-05
2.66139e-05
-0.000475073
1.25627e-05
7.16918e-05
5.99425e-05
-2.80095e-05
3.52037e-05
-6.67162e-06
7.00195e-05
1.31995e-05
0.000121975
0.000197236
7.83381e-06
-8.32565e-05
2.13193e-05
-0.000155742
-0.000369043
-0.000344826
-0.000189656
3.76189e-05
8.53903e-05
0.000138403
0.000120402
0.000135672
-0.000157526
-0.000143579
-9.53822e-06
-0.00010833
-0.000185592
-0.000539517
-0.000612511
-0.000168928
-0.000308975
-0.000558776
0.000129708
0.000100391
0.000228514
0.000226125
0.000163626
5.04264e-06
-0.000204206
-1.52707e-05
-0.000434175
0.000141942
8.0528e-05
-0.00221536
-0.00186303
-0.000149196
-0.00197846
3.88995e-05
-0.000199236
2.72587e-05
4.2353e-05
9.67919e-05
1.06419e-05
0.00020966
6.6034e-05
4.0352e-05
0.000305386
1.5605e-05
7.28592e-06
0.000205574
-1.07699e-05
-2.94144e-05
-2.65565e-05
2.03642e-06
-1.42978e-05
-3.57934e-05
-4.10842e-06
0.000108415
2.57888e-05
-1.9438e-05
0.000317231
5.19952e-05
3.48982e-05
9.54248e-06
5.31397e-05
7.82679e-05
0.000308655
5.86239e-05
1.00044e-05
0.000194095
-6.85881e-05
-9.68397e-06
-5.0124e-05
8.78748e-06
-0.000152286
-9.99308e-05
-0.000120619
-9.60747e-05
-0.000260181
3.67682e-05
-1.52752e-05
7.55936e-05
3.13651e-06
7.96358e-05
0.000298231
0.000149507
8.96508e-05
0.000138266
0.000216817
0.000145223
0.000154186
0.000101706
3.4413e-05
0.000170212
3.91107e-05
7.47822e-05
9.53626e-06
5.08361e-05
6.22235e-05
6.19371e-05
4.48422e-05
8.80412e-05
8.88013e-05
9.45299e-05
0.000154883
0.000137827
9.70257e-05
0.000139108
0.000168947
6.89541e-05
2.66312e-05
0.000103727
6.72519e-05
9.14283e-05
6.33382e-05
0.000168363
0.000155759
6.92992e-05
2.49643e-05
0.000131152
0.000117851
0.000160568
0.000145238
8.18135e-05
0.000113902
0.0001525
0.000134185
-8.31905e-05
0.00012336
0.000133409
8.36937e-05
0.000170229
1.83815e-05
9.97061e-05
7.36588e-05
1.15313e-05
0.000194664
0.00038225
0.000282884
-0.000754767
0.000239414
0.000218973
-0.000918839
0.000647338
-0.000892248
-0.000116899
-0.000596505
-0.00023224
-0.00114758
0.000114789
0.000227145
-0.000104449
-0.000229749
0.000329157
-0.00103244
-9.04007e-05
-0.000145242
-0.000220029
-4.80561e-05
-0.000111046
-0.000248187
-2.9079e-05
-0.000475898
-7.46131e-05
-0.000311753
-0.000559641
0.000572578
0.000468307
-1.18189e-05
0.0004698
0.000269757
-2.01013e-05
-0.000320347
1.85631e-05
-8.56726e-05
-0.000487172
-0.00107916
0.000176689
-0.000243268
-0.000908708
-7.2971e-05
0.000139377
0.000169006
-0.000195338
-0.000317906
0.000337828
-0.000145311
-0.000488473
-0.000284298
-0.000224201
-0.000164783
-0.000543704
-0.000456181
0.000455569
-9.5569e-06
-0.000490996
-0.000268641
-0.000261013
-0.000451581
-9.94281e-05
-0.000507849
-0.00017027
-6.40208e-05
-0.000225402
-3.8744e-05
-0.000149791
-0.000142602
-0.000532582
-4.15753e-05
2.47433e-05
-0.000334406
-0.000577591
-0.000578409
-0.000416511
-0.000204896
-8.20449e-05
-7.90743e-05
-0.000300487
0.000543774
0.00025654
-0.000319402
0.000177108
-9.60563e-05
-0.000395877
-0.000117036
-0.000263392
-0.000382483
-0.000218546
0.0001369
0.000361517
-0.00036531
0.000341449
0.000672098
0.000166735
0.000261968
0.000650899
-0.00027833
-9.33943e-05
0.00021523
-9.41196e-05
-0.00025907
-0.000182519
0.000439852
-0.000616601
9.28908e-05
0.000379346
-0.000281636
0.00027943
0.000162929
-0.000131645
-0.000244361
-0.000589852
-0.000590308
-0.000626774
0.000738183
0.000161673
0.000280626
0.000723139
0.000154462
0.000499354
0.000649344
-0.000139332
-0.00025962
-0.000207987
-0.000160123
-0.000878462
-0.000508486
-0.000636376
-0.000290273
-0.000469177
0.000440878
0.000306206
-0.000119355
-3.28462e-05
-0.000260933
-0.000479458
-0.000197653
-0.000791812
-3.19636e-05
-0.000492988
-0.000429681
0.000255927
0.000333725
-3.50743e-05
-0.000426061
0.000601964
2.69461e-05
-2.77219e-05
-0.000303999
-5.73205e-05
-0.000117477
-0.000315328
-0.000137167
-0.000574617
-0.00039504
-9.75722e-05
-7.38553e-05
-0.000461758
0.000928854
0.000436526
-0.000417447
-0.000147068
0.000206892
6.52078e-05
-0.000202884
-0.000153309
-9.42629e-05
-0.000646677
-0.00013791
-0.000310464
-6.92796e-05
-0.000208048
-0.000109856
-0.00017732
-0.000489659
-0.00118754
-0.000633271
-0.000538401
-1.59369e-05
-0.000825711
-0.00115384
-0.00079444
-0.000200387
-0.00155843
-2.30851e-05
-0.000128515
-0.000856573
-0.00208219
-0.00104605
-0.00183427
-0.000581581
-0.00043273
-0.00278965
-0.000630484
0.000263946
0.000180831
-0.000648659
6.59251e-05
-0.00126128
-0.00106241
-0.000767942
-0.00160998
6.38032e-05
0.000267222
-0.00214541
-0.000397508
0.000407214
0.00023621
-0.00144681
0.000121166
-0.000436378
-0.00158196
-0.000458927
-0.00014447
3.96783e-05
-0.000278348
0.000615903
-1.18211e-05
-0.00196751
-0.000406062
0.000165361
-9.33563e-05
-0.00114754
0.000405321
-0.00032699
-0.0024023
0.000166037
0.000179019
-2.04282e-05
-0.000222916
0.000226128
0.000378444
6.6938e-05
7.67673e-05
-0.000224125
-0.000415728
-0.000198014
-0.00035874
0.000122905
0.000207316
-0.000332393
0.000124521
0.000796978
-0.00156912
-0.000196784
0.000273998
0.000567185
0.000654631
0.000463742
0.000247511
-0.000492843
-0.000467621
0.00108415
-0.000136092
-0.00122368
0.000151776
0.000581775
0.000717047
9.98385e-07
-0.000207147
0.000606805
-0.000765753
0.000850251
-0.000386842
-0.00064068
-0.00024638
0.000207751
0.000467914
-0.000987116
0.000248295
-0.000371874
-0.00110316
-0.000221264
0.000302728
0.0001026
-0.000515723
0.000238313
-0.000197747
-0.00106539
0.000169186
0.000213345
-9.09445e-05
-6.11779e-05
0.00028284
-0.000174466
0.000721649
0.000280516
4.26386e-05
-0.000365644
-0.000107899
0.000103852
0.000154028
-0.000124173
-0.000210162
0.000179959
-0.000303307
0.00090955
-0.000629929
0.000161514
-0.000189982
-0.00030101
-0.00207129
-0.000747384
-0.0012168
0.000660416
0.00097624
-0.00196827
0.000601047
-3.04305e-05
-2.80391e-05
5.99861e-05
-0.00064085
-0.00153639
-0.000292111
-0.000905703
0.00188492
0.00186911
-0.00144064
0.000598271
-0.00251425
-0.000169733
0.000182458
0.00143174
0.00127976
-0.00116228
-0.000240466
-0.000615125
-0.000139082
0.000554522
-0.000177373
-0.00140486
2.91413e-06
-0.000516753
-0.000180275
-0.000867551
-0.000397489
-0.000406384
-0.00109958
-0.000171635
-0.000214557
-0.00200114
0.000183532
0.000340464
0.000166387
4.11183e-05
0.000276618
5.08836e-05
0.000547743
-0.000743346
8.4788e-05
-2.3548e-05
-0.000518103
-0.000490687
-0.000728632
-0.000606517
-3.30491e-05
-0.00101459
8.97981e-05
5.15447e-05
-0.000743184
-0.000293073
4.77459e-05
2.10813e-05
3.44855e-05
-1.11479e-05
-0.000368973
-4.86216e-06
-0.000523074
0.000298756
-0.000653712
-0.000802863
-0.000267087
-0.00056308
-2.00366e-05
-7.57333e-05
-3.87818e-05
-0.000434373
-3.69711e-05
0.000565714
0.0003175
-0.000233505
-0.000287625
-0.000141651
4.81635e-06
0.000159839
-2.33906e-06
-0.000325834
0.000101856
-0.000310896
-0.000480263
-0.000398683
3.20544e-05
-0.000185979
-0.000694628
0.000515886
3.45956e-05
3.8458e-05
-7.72651e-05
1.98389e-05
6.23132e-05
-0.000149462
1.32307e-05
-0.000129596
6.47386e-05
-0.00044498
0.00050548
0.000386339
-0.00052279
-0.000249319
-0.000444563
-0.00025335
0.000427222
0.000326269
-0.000114772
-0.000191177
-0.000492964
-0.000152429
-0.000306885
0.000712225
-1.04981e-05
-0.000229874
-3.93893e-05
-5.99274e-05
-7.05969e-05
0.000365996
6.12198e-05
-0.00053335
-0.000280449
-0.000898925
-0.000827396
-0.000103145
-0.000624951
-0.000715151
-0.000121621
-0.000729194
-0.000167618
0.000400349
-0.000216091
-0.000164051
-0.000298849
-0.000166747
-0.000189016
2.80773e-05
-0.000397927
-0.000515898
-9.6878e-05
-0.000747806
-0.000454559
-0.000403571
-0.000643727
-0.000248859
-0.000104779
-0.000880305
-0.000269556
0.000492626
0.000135808
4.67728e-05
-0.00014403
-0.000497697
4.05008e-05
0.000105051
2.59747e-05
-0.000132231
3.7906e-05
-0.000202114
0.000543046
-8.99251e-05
0.000194433
-0.00023599
-0.000210961
5.50982e-05
0.000288656
-0.000139245
-0.000255207
-0.000630767
-0.000528251
-0.000292122
0.000574849
0.000365627
-5.44783e-05
-0.000113383
-0.000286587
-0.000199919
-0.00385021
-0.000699172
-0.000813709
0.00102893
0.000932746
-0.00141234
2.22024e-05
-6.78331e-05
-3.58265e-05
-0.000116164
-9.2376e-05
-0.00033928
-7.54808e-05
-0.000695619
-0.000787269
9.25231e-05
-0.000671817
3.43544e-05
3.67815e-05
1.15473e-05
-8.80533e-05
-2.53828e-05
-6.66433e-05
-0.00110466
-0.000587923
0.000205252
-0.00245403
-0.00272534
-0.000123008
-0.000208022
0.000877982
0.000619953
0.000857773
-0.000648503
-4.94736e-05
0.000504611
-0.000651128
3.55419e-05
-0.000944679
0.000581279
0.000376366
-7.27293e-05
0.000197696
-0.000491881
0.000236754
-0.000106245
-0.000269913
-0.000680573
5.85062e-05
0.000349099
-0.0022804
-0.000268115
0.000212635
0.00108953
-0.00226091
0.000231382
-7.57065e-06
-0.000122756
-0.000465333
1.67365e-05
0.000310993
-0.00138497
0.000124402
0.000492887
0.000714174
-0.00204349
-0.000121826
-0.000915563
-0.00032722
-0.00126052
-0.000775814
0.000146311
0.000355725
-1.55922e-05
4.75806e-05
-0.000453794
-0.000801147
-0.0010332
-0.000933248
-0.000913777
0.000151222
-0.00166215
-1.75659e-05
-0.00102566
-0.0003625
-0.00170783
-0.000758617
-0.000170185
0.000324864
0.000348991
0.000287378
1.26759e-05
0.000186495
-0.000431877
-0.0015504
-0.000684186
-0.00262451
4.67649e-06
-0.000991699
-9.85487e-05
0.000209622
-0.000343295
-9.09131e-05
-0.000319368
-0.000388335
-0.000241183
0.000135899
-0.000108428
-9.75103e-05
0.000200872
0.000809206
0.000576422
-0.000972119
0.000154749
-0.000647658
0.000170679
-0.000413011
-5.44034e-05
-5.66967e-05
-0.000316358
6.23596e-05
-0.000827517
-0.00113429
-0.000260102
-0.000294077
-0.00124474
5.27034e-05
0.000274975
0.000381285
0.000100992
0.000206169
0.000315175
-0.000341292
-0.000164133
0.000730376
0.00031804
-5.73736e-05
0.000380394
0.000115503
-0.001075
6.55344e-06
0.000542565
0.000414563
-5.38338e-05
0.000258137
0.000451834
-0.000475862
0.000388016
0.000575104
-0.000214054
-4.67171e-05
-0.000463963
0.000303394
1.38238e-05
0.000281921
-9.73188e-05
0.000488548
-0.000896624
-0.000233462
0.000338094
0.000277981
0.000274062
0.000245751
0.000260877
-0.000693033
0.000241901
0.000310747
0.000402229
0.000545048
0.000319608
0.000418793
-0.000288717
-0.000136926
0.00043764
0.000475304
-0.00042335
0.0002873
0.00034001
-0.000655213
0.000350571
0.000205543
0.000284779
0.000315325
0.000207917
7.5243e-05
-0.000114551
0.000483067
0.000423504
0.000269854
-8.60406e-05
0.00069124
0.000574443
-0.00017147
0.000348667
-2.41974e-05
0.000189762
0.000232669
0.000101724
-0.000951136
0.000744074
0.000338704
-0.000102291
0.000759756
0.000854529
-0.000966948
0.000440871
0.000265603
0.000249125
0.000129956
-0.000190564
-6.09679e-05
-5.44448e-05
-0.00107701
-0.00048353
-0.0016828
-0.000476829
-0.000394018
-0.000814489
-0.000273224
0.000502655
0.000210255
-0.001036
-0.000233837
-0.00162199
-0.000499909
-0.00214042
-0.00133878
0.000512702
0.000253664
-0.00087793
-8.03283e-05
8.1689e-05
-0.000266548
-0.00130368
-0.000531177
-0.00173999
-0.000980289
0.000288189
0.00056166
-0.000659689
-2.48268e-05
-0.000529229
3.03687e-05
-0.000623991
-0.0003228
-0.00187461
-0.000441652
0.000422097
5.4655e-05
-0.001211
-0.000314866
0.000125486
-0.000197799
-5.71654e-05
-0.000592632
-0.000190622
-0.00121847
-0.000331645
-0.000404983
-5.39371e-05
-0.000177075
-0.000373118
-4.32542e-05
-0.000836124
-4.3478e-06
-0.000392617
-0.000146378
-0.000825498
-9.01781e-05
-0.00020658
0.00026684
-0.00101078
-0.0001353
9.22402e-05
-0.000637145
9.17404e-05
-0.00024092
-0.000168615
-0.000753209
2.37077e-05
0.000988891
0.000334498
4.16346e-06
0.000155829
0.000138236
1.86933e-05
-0.000447294
0.000248263
0.000230822
-0.00155852
-0.000346151
-0.000235561
-0.000135752
7.30141e-05
-0.00104605
-0.000482303
-0.00170087
-0.000590322
-0.000132569
-3.52109e-05
-0.00149102
0.000268615
0.000349084
-0.000782736
0.000131402
-0.000461673
-0.00016068
-0.00102694
-7.12057e-05
-1.60164e-05
0.000240938
0.000282979
0.000521254
0.00024182
-0.000411067
0.00013658
-0.000730982
-0.000260431
-0.00163537
-0.000188878
0.000240851
2.24047e-05
0.000268366
0.000835485
0.000204132
-0.000509999
-0.000102453
-0.000757197
-0.000355364
-0.00125863
-0.000557935
-0.00046385
0.000571702
0.000290772
0.000338868
-7.62236e-05
0.000184831
0.000165285
0.000207241
-0.00014294
-0.000694529
0.000326457
0.0010343
-0.000241028
-0.000542975
0.000292937
0.000169474
-0.000395907
-1.77436e-05
-5.87556e-05
-5.0416e-05
-0.000416028
-0.000158848
-0.000608102
0.000960664
-0.000635326
3.68112e-05
-0.000244922
-0.000348011
-3.13184e-05
-0.000353241
-0.000129586
-0.000798294
-6.52932e-05
9.88854e-05
-0.000153712
0.000247341
-2.49494e-05
-0.000437725
5.7602e-05
0.0004144
3.94373e-05
3.99042e-05
0.000194992
8.45483e-05
-0.000327022
0.000714251
-0.000108291
0.000221566
9.30686e-05
-0.000432986
-0.000543188
0.000311594
0.000651893
0.000234905
0.000163131
0.000649624
0.000283037
-0.000499193
-7.45253e-05
-0.000333634
0.000170413
0.000181456
5.04864e-05
5.68082e-05
4.98139e-06
-0.00013881
6.0119e-05
-0.000381612
-0.000192511
0.000151053
-7.60454e-05
-0.000213778
-0.000311161
2.26095e-05
0.000677168
0.000325573
-0.000142154
-0.000167304
-0.000229809
0.000172983
0.000513859
8.80576e-05
0.000274482
0.000429875
0.000191189
0.000118345
-5.27866e-05
-0.000267795
0.000119459
-0.00105361
0.000212083
0.000450293
-4.29835e-06
0.000291791
0.000270864
4.85293e-05
-0.000151646
2.71973e-06
0.000344852
0.000109875
-1.0972e-05
9.24753e-05
0.00020218
-0.00058054
0.000571394
0.000331005
0.000450878
7.42168e-05
0.000576589
-0.000131567
7.70756e-05
0.000581277
-0.000130469
-0.000235501
0.000254579
0.000247423
-5.72909e-05
0.00027727
-0.000256928
0.00018596
0.000152282
0.000287702
-0.00017092
0.00114104
0.000301141
0.000689865
0.000393514
-5.19823e-05
-0.000256208
0.000491273
0.000823094
0.00130002
0.00112212
0.00131909
-2.68184e-05
0.00129253
0.000380458
0.000434508
0.000888447
0.000906249
0.000766224
-0.000294031
2.0496e-05
-0.000265747
-8.98704e-05
-0.000510221
-0.000207493
0.000883245
0.000388975
0.000305787
0.000125749
-0.000307848
2.57174e-05
0.000563772
0.000286728
7.36765e-05
-9.34823e-07
0.000437316
5.46278e-05
0.000873375
0.000573502
0.000424591
0.000843002
0.000899452
0.000724913
-0.000207037
-8.12996e-05
0.00101407
0.000505494
-2.05054e-05
-0.000282968
0.000167877
0.000686231
0.000154607
0.000206981
0.000251616
-0.000631715
0.000108346
0.000126002
0.000201958
-0.000380466
-0.00317087
-7.47294e-05
-0.000505278
0.000199979
0.000209334
-0.00133917
0.000160013
-0.00099392
0.000462261
4.8189e-05
-0.00066325
-0.00173662
-0.000222306
-0.000765082
-0.000189619
-7.74428e-05
-0.00108564
-0.000232568
-0.000843237
0.000252192
-0.00113508
-0.000295237
-0.0010827
0.000231608
0.000201553
-0.000909603
-0.00133277
-0.000711693
-0.000833295
-0.000594456
5.80927e-05
7.85102e-05
-0.000913688
0.00041102
4.17136e-06
-0.00188695
0.00016229
-0.000559541
0.000150057
0.00015877
-0.000684849
0.000113377
-0.000292158
1.60794e-05
-0.000433872
0.000274411
-0.000754398
8.1794e-05
0.000349211
-0.00108583
-0.0003903
-0.000112539
-0.000273279
-0.000207382
-0.00130722
0.000123569
-0.00080857
-0.000287687
-0.000287344
-0.000947867
0.000195538
7.20443e-05
-3.28901e-05
-0.000179545
-0.000897466
-7.31697e-05
-0.000848935
7.57696e-05
-0.000166414
0.000508097
0.000298982
-0.000443287
5.3629e-05
0.000693054
0.000524959
0.000308088
-0.000498061
0.000127188
0.000230697
0.000102996
0.000268879
5.9813e-05
0.000522441
-0.00428669
-0.000171402
0.000423572
0.000488267
0.000380868
-0.000858278
0.000589472
-0.000502406
-8.85328e-05
-0.000122197
4.9271e-05
-4.35267e-06
-0.00163475
0.000162032
-1.00317e-05
4.96281e-05
6.85627e-05
-0.00106411
0.000108706
-9.73819e-05
-0.00121015
-3.58924e-05
-0.0017135
-0.00129024
-0.000626605
-0.000277632
0.000249037
-0.0010873
-0.000631621
-0.00061044
-0.000692809
-0.00068523
-1.6433e-06
-2.34636e-06
0.000116263
0.000146605
-0.000492665
-0.000218335
-0.000585625
-0.00169584
-0.000375667
0.000422017
0.000425874
-0.00140509
0.000136233
-0.000288298
-0.000952209
-8.43959e-05
0.000669873
0.000351203
-0.00067921
1.48089e-05
0.000695345
0.00113181
0.000548414
-0.000812515
0.00111505
-6.51971e-05
0.000221388
-0.000186571
0.000546283
0.000661408
8.3384e-05
0.000138304
0.000298967
0.000846724
0.000316157
-0.000508459
0.000447659
3.91526e-05
6.43859e-06
-0.000205189
-0.000407941
-0.000259224
-0.000755494
-3.64293e-05
-0.000542691
-4.05296e-05
0.000140561
-0.000776162
0.000147028
2.33442e-05
-0.00021131
0.000278639
-0.000133077
0.000488268
0.00107865
-0.000329005
0.000379868
0.00093123
0.000830994
0.000226228
-0.000551977
0.000330219
7.79315e-05
-8.37757e-06
3.09948e-05
0.000210814
-0.00231484
-0.000375019
-0.000248156
0.000821174
0.000924542
-0.00111037
-0.000858358
0.000100251
0.000122559
0.000251452
0.000153113
4.71787e-05
-2.7671e-05
0.000156483
0.000226173
2.88153e-05
2.44511e-05
-3.49314e-05
-1.40503e-05
7.18714e-05
-2.51031e-05
3.63817e-05
0.000123926
1.32806e-05
3.96911e-05
0.000232553
0.000198125
-7.46347e-06
4.37036e-05
7.70351e-05
-0.000184888
-0.000140721
-6.38629e-05
1.74199e-05
-1.12896e-05
1.54815e-05
0.000226567
-1.54755e-05
0.000179899
8.13335e-05
-5.73477e-05
0.000173407
1.70939e-05
0.000294405
-2.23882e-05
-3.68897e-05
0.000178748
0.000141166
0.000115685
0.000181267
5.06277e-05
0.000151222
0.000145555
0.000145138
-0.000341901
8.92554e-05
-2.68162e-05
1.55349e-05
4.96988e-05
0.000103707
6.61035e-05
-0.00011773
-1.3913e-05
-8.31079e-05
-8.99747e-05
-0.000197774
-7.167e-06
-6.51563e-05
4.81714e-05
-0.00018101
-0.000358469
-0.000259892
-2.94154e-05
-0.000131384
-0.000125154
-0.000195087
-0.000225408
-0.000100802
5.0446e-05
6.89792e-05
3.18622e-05
-4.11189e-05
6.96362e-05
1.79382e-05
0.000206909
0.000202317
0.000173843
8.07084e-05
2.29405e-05
-0.000102606
2.10454e-05
0.000143356
0.000111297
-3.37065e-05
9.53918e-05
0.000153438
8.02382e-05
0.000101137
8.74604e-05
4.4821e-05
9.04142e-05
6.10842e-05
0.000132586
1.29598e-05
2.90815e-05
0.000128159
0.000167025
7.37467e-05
0.0001945
-2.1356e-05
8.03874e-06
6.56271e-05
-0.000179665
3.72306e-05
-0.000137082
0.000132367
9.15829e-05
4.29088e-05
-5.34577e-06
6.65324e-05
1.59437e-05
3.60318e-05
5.026e-05
-9.9499e-05
-5.50938e-05
-6.54227e-05
6.28544e-05
-0.00031408
-0.000249542
-5.76107e-06
-0.000180693
7.34985e-05
0.000177615
3.31903e-05
-9.80977e-06
8.5203e-05
1.36901e-05
-0.000140089
-3.56697e-05
0.000271911
0.000146061
-1.64109e-05
2.7876e-05
-0.000200935
4.11526e-05
0.000105911
-9.1718e-06
0.000104724
5.42457e-05
9.64808e-05
-1.28797e-05
0.000118946
-4.98218e-05
0.000107846
4.5026e-05
3.29504e-05
-0.000153558
5.11618e-05
-1.80623e-05
3.60537e-05
-1.666e-05
-1.07218e-05
-2.9253e-05
0.000112165
0.000202103
0.000111664
9.37465e-05
8.85604e-05
0.000123271
-0.000101684
0.000118084
-0.000107978
8.28967e-05
-1.46802e-05
-1.46103e-05
0.000150979
2.06282e-05
9.67434e-05
3.7261e-05
5.33504e-05
0.000249765
6.21095e-05
6.60202e-05
0.000278579
0.000234932
6.76085e-05
-4.99355e-05
0.000368444
4.63674e-06
-5.91171e-05
-1.46738e-06
1.20819e-05
2.68094e-05
1.52067e-05
0.000107547
0.000129329
4.32732e-05
0.000228189
0.000208098
0.000123009
8.52011e-05
6.07641e-05
4.26016e-05
0.000218075
0.000118504
4.58671e-05
-2.74436e-05
-0.000196648
-0.000109508
-2.95424e-05
-4.67736e-05
0.000162511
-1.34322e-05
2.62913e-05
-0.000165999
-6.90183e-05
-8.05568e-05
6.55957e-05
2.50866e-07
-0.000124602
7.9331e-05
0.000256534
8.54919e-05
3.17358e-06
0.000248684
7.09996e-06
-2.26907e-05
-1.35797e-05
-2.89291e-05
-5.20923e-05
-0.000161254
-2.97749e-05
-8.62272e-06
-3.37401e-05
-3.09785e-05
-1.15977e-05
0.000147937
1.76729e-05
-7.86591e-05
8.16512e-05
-4.47572e-05
1.07289e-05
-0.000196216
7.26581e-06
0.000193809
0.000146677
8.62382e-05
6.58265e-07
0.000204272
1.89883e-05
-2.68733e-05
2.51543e-05
0.000194994
1.81626e-05
-1.24085e-05
-4.08136e-07
0.000103891
0.000122554
5.97919e-05
-5.98678e-05
0.000186195
0.000171795
7.50379e-06
7.82142e-05
0.000100988
0.000164697
0.000155557
6.2119e-05
5.48747e-05
-7.40699e-06
-6.3506e-06
9.74942e-05
-7.37149e-07
0.000177123
-2.32446e-05
3.97463e-05
-2.22046e-05
-0.000171202
2.92771e-05
-3.01413e-05
-1.03459e-05
-1.76319e-05
-9.96408e-05
2.67722e-06
3.9107e-05
8.66249e-05
0.000116226
4.8372e-05
7.16548e-05
3.77536e-05
0.000120328
5.61536e-05
-2.86064e-05
-1.87067e-05
-8.18404e-05
0.000139155
0.000257623
0.000205821
8.89628e-05
0.000210302
-6.61427e-05
0.0001469
0.000204178
5.38117e-05
-1.6015e-06
-1.05795e-05
9.96178e-05
1.322e-05
0.000258682
7.46964e-05
-0.00020153
-0.000283021
-0.000212937
0.000302014
1.79992e-05
-5.17558e-05
-4.54761e-05
0.000121661
-1.1512e-05
7.15582e-05
1.87803e-05
-3.47811e-05
0.000137965
-6.08849e-05
0.000180762
0.000131617
3.69137e-06
-1.49258e-05
0.000150481
4.90777e-05
1.06218e-05
4.01031e-05
0.000158699
-2.71246e-07
-2.9107e-05
8.14096e-06
0.000225579
2.69097e-05
3.07188e-05
0.000310003
0.000313137
8.06147e-05
-2.88226e-06
3.22468e-05
4.98884e-05
4.28924e-06
3.57287e-05
1.23783e-05
-3.68162e-05
6.2732e-05
0.000255158
0.000153138
2.80593e-05
0.000290005
-7.12587e-05
1.28463e-05
-2.11043e-05
6.31866e-06
2.69263e-05
-1.4178e-05
0.000147785
0.000119972
2.45777e-05
5.27193e-05
2.77356e-05
0.00013847
0.000145703
7.59449e-05
5.41723e-05
6.4573e-05
-6.0958e-06
0.00023985
9.88955e-06
-7.23956e-05
7.65419e-05
4.61464e-05
2.95145e-05
0.000205773
0.000152183
4.53103e-06
0.000167385
-5.11328e-05
0.000165283
-2.48369e-05
0.000148724
-0.000118664
2.12957e-05
0.000192116
0.000122904
5.17069e-05
0.000150903
3.56774e-05
0.000290016
5.9517e-05
-0.00063435
1.54389e-05
7.71374e-05
0.000270324
0.000238506
0.00034355
8.53418e-05
-5.1806e-05
-0.000137636
-0.000140686
-0.000321007
-0.000520035
-0.000112959
0.000114204
0.000381992
1.3632e-05
-5.65129e-05
8.53163e-05
-3.55694e-05
6.69351e-05
5.91354e-06
9.28877e-05
0.000207661
1.6782e-05
2.527e-05
2.2061e-05
-5.50934e-05
0.000210596
3.49331e-05
-7.20024e-06
1.36119e-05
-0.000279952
0.00021235
-5.04299e-05
-8.12395e-06
0.000105644
0.000258561
0.000143623
1.48472e-05
3.26786e-05
3.37085e-05
-9.7698e-05
1.45912e-05
-1.60925e-05
-8.04388e-05
0.000167594
0.00019356
0.000130043
-4.33239e-06
3.86378e-05
4.61716e-05
0.000130207
5.47443e-05
-1.32729e-05
7.45546e-06
9.03368e-05
0.000176777
2.6928e-05
3.02892e-05
3.77943e-05
5.28137e-05
0.000147855
-1.07944e-06
4.79336e-06
2.55884e-05
0.000183529
4.63018e-05
0.000150422
0.000115559
0.000156268
4.34074e-05
0.000167977
1.52632e-05
0.000166253
0.000130129
0.000116297
4.10616e-05
0.000147949
1.70554e-05
0.000113145
-5.52047e-05
3.7901e-05
-8.36426e-06
-3.7158e-05
7.73007e-05
1.57158e-05
1.94039e-05
7.88043e-05
5.018e-05
6.25085e-05
-0.000244374
-4.34727e-05
4.39866e-05
-3.59874e-05
-2.64042e-05
-1.70175e-05
4.40173e-05
0.000114349
0.000136411
-8.77022e-06
0.000144824
0.000230121
7.69278e-05
3.714e-05
-0.000225818
0.000178738
-0.00026779
-0.00023971
-1.26655e-05
-3.42985e-06
4.8197e-05
2.25495e-05
-4.96688e-06
0.000134157
-3.21056e-06
-1.13032e-05
1.67203e-06
-8.45065e-06
2.39432e-05
0.000293196
2.12519e-05
0.000117816
0.000155771
-7.92646e-05
-1.19512e-05
-4.24726e-05
0.000256417
0.000265574
0.000237526
-3.68564e-05
1.86059e-05
2.82122e-05
5.78582e-05
-0.000241825
0.000210901
0.000219003
0.000150199
3.94708e-05
-1.40335e-05
2.63093e-05
-2.4526e-05
0.000173549
2.72389e-05
7.5183e-06
4.5762e-05
0.000191658
-5.10772e-05
0.000102389
-0.000260413
5.59037e-05
1.21484e-05
0.000221969
4.10608e-05
-6.98872e-06
-8.89387e-06
8.7304e-05
5.65848e-05
3.08058e-05
9.95978e-05
3.16872e-06
-2.44854e-06
4.41516e-06
2.18888e-05
3.25862e-05
2.08356e-05
-0.000178444
6.70995e-05
-2.71884e-05
6.24058e-05
4.2287e-06
4.57976e-05
6.25131e-06
-4.31146e-06
6.92376e-06
-7.75956e-05
-0.00160982
-0.002972
-0.00149203
5.03681e-05
0.000156634
0.000204785
1.07673e-05
2.98227e-05
6.52306e-06
0.000146319
8.78796e-05
1.08678e-05
5.31667e-05
4.97175e-05
6.721e-05
1.16957e-05
0.000142568
-4.64804e-05
0.000119497
7.08825e-06
-1.9517e-06
2.9288e-05
4.93395e-05
-8.44809e-05
4.5284e-05
0.000150871
-0.000128403
0.000103351
-0.00117101
0.000264258
0.000115966
2.64105e-05
0.000111317
4.10802e-05
-1.32877e-05
-7.5511e-06
4.20166e-05
-3.68891e-06
-2.54132e-05
-3.55623e-06
4.66013e-05
-8.22068e-05
3.10675e-05
2.96594e-05
6.99688e-05
2.00219e-05
3.18827e-05
1.50384e-05
4.37205e-05
0.00011654
0.000116903
0.000169922
0.000185048
0.000167381
8.9052e-05
1.55831e-05
8.50699e-05
6.53002e-05
0.000110218
-4.96302e-06
0.000137478
3.96657e-06
-1.16305e-05
3.77977e-05
4.82287e-05
9.95464e-05
6.37074e-07
2.98945e-05
0.000170494
0.000174229
0.000282272
0.000243422
-5.44582e-05
-0.000568133
-0.000369611
0.000160254
0.000394279
4.67869e-05
-1.90227e-05
4.18969e-06
1.28722e-05
-7.56084e-05
-1.38373e-06
4.52324e-05
0.000218015
0.000207076
0.00019179
0.000229898
3.17845e-05
3.61582e-05
-3.21888e-05
0.000209406
-2.94707e-05
3.3661e-05
-3.06814e-05
-3.92078e-05
-5.69925e-06
3.36193e-05
3.20048e-06
8.0474e-05
2.31016e-05
3.38353e-05
7.36722e-06
3.06121e-05
4.30868e-05
3.07479e-05
-0.000208943
3.12534e-05
8.89963e-05
0.00013131
-9.83953e-06
3.40245e-05
-6.26867e-06
6.04186e-05
1.58587e-05
0.000116951
0.000188771
9.71553e-06
-4.48579e-05
6.48929e-06
-5.50716e-05
-0.000144769
-0.000148667
-6.17938e-05
6.43989e-05
9.65056e-05
0.000126187
0.000146854
0.00016424
-4.92284e-05
-4.48909e-05
9.12298e-06
-2.95e-05
-5.82861e-05
-0.000266353
-0.000283347
-0.00013717
-0.00015002
-0.000268917
0.00012812
0.0001124
0.000226707
7.04183e-05
0.000154909
-2.37951e-06
-7.67559e-05
-4.21381e-06
-0.00013698
0.000157739
9.77296e-05
-0.00103518
-0.000863226
-1.49701e-06
-0.00077276
3.04056e-05
-6.18153e-05
2.45974e-05
4.70581e-05
0.000139167
-2.53122e-06
0.000199949
3.47759e-05
3.51713e-05
0.000288066
4.95271e-06
3.57638e-06
0.000208891
-2.50668e-05
-2.22081e-05
-2.55668e-05
-8.47885e-06
-1.76977e-05
-1.8738e-05
-8.96933e-06
0.000113928
2.4276e-05
-3.14367e-06
0.000286678
4.91278e-05
1.40908e-05
0.000105515
4.64776e-05
5.72238e-05
0.000300924
5.42297e-05
1.2692e-05
0.00020975
-2.40119e-05
-1.05366e-06
-1.87265e-05
1.25528e-05
-6.07876e-05
-6.58442e-05
-7.53345e-05
-6.34115e-05
-0.000127957
6.37455e-05
4.65215e-05
9.58496e-05
-1.06867e-06
4.8028e-05
0.000299724
0.000114209
6.14888e-05
0.000116487
0.000166452
0.000117461
0.000122156
8.01084e-05
5.63911e-05
0.000131686
3.6822e-05
6.38399e-05
8.41601e-06
4.4039e-05
4.62746e-05
5.67697e-05
4.17719e-05
5.93859e-05
6.09014e-05
6.95486e-05
0.000115078
9.67459e-05
8.8396e-05
0.000103198
0.000133544
7.66937e-05
4.38644e-05
8.8284e-05
5.26562e-05
6.8851e-05
5.19014e-05
0.000124316
0.000118994
4.96314e-05
3.17566e-05
0.000111428
0.000112865
0.000120218
0.000102013
6.33863e-05
7.49433e-05
0.000126895
9.86481e-05
-1.13828e-05
9.00992e-05
0.000124587
6.77039e-05
0.000124219
4.54064e-05
6.96577e-05
4.68417e-05
1.098e-05
0.000145625
-1.0308e-05
3.7146e-05
-0.000117873
-9.92345e-05
-7.80671e-05
-0.000385385
0.000186681
-0.000433749
-2.37993e-05
-0.000528472
-0.000254272
-0.000494085
8.57386e-05
7.47431e-05
-2.49118e-05
-0.00014355
0.000168155
-0.000564745
-3.80235e-05
-5.72287e-05
-0.00010071
-8.22726e-06
-4.57257e-05
-0.000184831
-1.76328e-05
-0.000318484
-3.73541e-05
-0.000280855
-0.000392383
0.000145724
0.000126492
-1.94203e-06
0.000350452
-8.14506e-05
-0.000282987
-0.000229201
-2.74327e-05
-0.000135472
-0.000486452
-0.00051391
3.43235e-05
-0.00016662
-0.000629983
-4.1993e-05
0.000120567
0.000174456
-2.99486e-05
-6.56438e-05
0.000245548
-5.76957e-05
-0.000254097
-0.000102873
-0.000139156
-9.17561e-05
-0.000326644
-0.000289301
5.64031e-05
-1.21672e-05
-0.000251068
-6.91598e-05
-0.000404172
-0.000505395
-9.70278e-05
-0.000520353
-0.00025271
-3.90446e-05
-5.78991e-05
2.62804e-05
1.86849e-05
-1.61346e-05
-0.000158132
3.54899e-05
-3.01824e-05
-0.000193443
-0.000266053
-0.000241785
-0.00022059
-0.000136604
-0.00011532
-3.85616e-05
-0.000211036
8.96994e-05
7.65948e-05
-0.000320327
0.000130804
-0.0002651
-0.000445589
-9.04568e-05
-0.000327855
-0.000345371
-0.000241444
6.75311e-05
0.0003676
-9.09677e-05
0.000307167
0.000688365
0.00024709
0.000479142
0.000628432
-0.000173888
2.37195e-05
0.000254179
8.04013e-05
-0.000150208
-0.000189477
0.000369533
-0.000503142
0.000103655
8.21284e-05
-0.000177111
0.000230704
7.52458e-05
-0.000198232
-0.00032542
-0.000320207
-0.00043744
-0.000331453
0.000583021
0.00012064
0.00020175
0.000400016
0.000141199
0.000310344
0.000359655
-7.89585e-05
-0.000168193
-0.000123123
-9.65265e-05
-0.000582784
-0.000378224
-0.000510282
-0.000235972
-0.000400123
0.000128261
0.000102615
-7.77224e-05
6.37531e-05
-0.000368083
-0.000541628
-0.000191131
-0.000655105
-8.70773e-05
-0.000274529
-0.000242224
0.000142372
0.000148137
1.4913e-05
-0.000203126
0.000295593
4.50721e-05
-1.27374e-05
-0.000215031
-4.89082e-05
-8.44893e-05
-0.000159527
-9.76856e-05
-0.000486037
-0.000358905
-6.1989e-05
-0.000259085
-0.000273802
0.00036983
0.000138824
-0.000300528
-2.79847e-05
-0.000158033
-0.000220113
-0.000129689
-0.000215236
-0.000176704
-0.000582886
-0.000121156
-0.000180238
-4.30548e-05
-0.000127846
-7.01208e-05
-0.000127175
-5.31294e-05
-0.000725076
-0.000443128
-8.73123e-05
-0.000108903
-0.000415046
-0.000427576
-0.000518242
-0.00022106
-0.000599071
-0.000127388
-0.00014533
-0.000243006
-0.000793021
-0.000342607
-0.000302685
1.01654e-05
-0.000110533
-0.00105415
-0.000138846
0.000271861
0.000137376
0.00025579
0.000214796
-0.000506405
-0.000241091
-0.000469295
-0.000618726
0.000712928
0.000296957
-0.000856916
-2.78611e-05
0.000232867
0.000102242
-0.000319589
2.29817e-05
-0.000321349
-0.000638573
-0.000236717
-0.000135675
-2.69962e-05
0.000290283
0.000221457
-5.7802e-05
-0.000802495
-0.000256413
1.92842e-05
-0.000124899
-0.000261601
1.88747e-05
-0.000315201
-0.000969906
0.000214975
0.000360886
0.000150956
0.000150938
0.000345246
0.000180184
0.00019284
2.39487e-05
0.000206198
8.9586e-05
0.000104855
5.13581e-05
0.0001522
0.000236815
0.000106891
9.16628e-05
0.000654797
-0.00102518
-0.000170332
0.000371741
0.000561421
0.000390295
0.00024044
0.000169935
-0.000261789
-0.000417896
0.000755021
-3.4138e-05
-0.000671657
-3.43802e-05
0.000657819
0.000752258
0.00026323
-0.000200368
0.000223461
-9.46692e-05
0.000136463
-0.000348339
-0.000272119
-0.000188356
2.86391e-05
0.000115686
-0.000226149
-0.000130549
-0.000363059
-0.000440375
-0.000125817
6.82326e-05
-7.15455e-05
-1.13924e-05
-0.000109985
-0.000203646
-0.000391335
0.000122956
7.59186e-05
-1.58668e-06
-3.07927e-05
0.000162542
-0.000112029
0.000287336
9.74255e-05
8.4009e-05
-0.000493067
-5.71906e-05
9.09828e-05
2.85008e-05
-2.39376e-05
-0.000136647
0.000112867
-0.000294305
0.000393402
-0.000458201
6.4153e-05
-0.000406151
-0.000260317
-0.00121332
-0.000420689
-0.000235981
0.000394127
0.000840329
-0.000784618
0.000175943
-6.04758e-05
0.000125135
-0.000578278
-0.000343214
-0.00131852
-0.000514651
-0.000518411
0.000594854
0.000893188
-0.00064077
0.000234034
-0.00171007
-0.000411256
0.000164838
0.000563639
0.00063507
-0.000552566
-0.000422163
-0.000568661
-0.000216458
1.3471e-05
-0.000337269
-0.000647747
-1.04698e-05
-0.000434102
-8.89393e-05
-0.000600819
-0.000322995
-0.00048187
-0.000687586
-1.25923e-05
-0.000342118
-0.00096038
0.000142609
0.000210029
0.000140088
8.51558e-05
0.000191561
1.83628e-07
0.000108882
-0.000462544
0.000248379
-7.30365e-05
-0.000411692
-0.000405947
-0.000438743
-0.000290363
-6.7638e-05
-0.000523929
3.78041e-05
-1.24822e-05
-0.000326149
-0.000272891
8.94172e-06
2.80384e-05
5.27417e-05
2.67221e-05
-7.90446e-05
3.57713e-05
-0.000214693
0.000139067
-0.000383463
-0.000199632
-0.000221507
-0.000219215
2.26899e-06
-1.43308e-05
-4.66261e-06
-0.000138893
6.28102e-06
0.000218025
9.08569e-05
-3.12085e-05
-0.000306723
-6.66179e-05
3.30815e-06
0.00012155
9.05341e-06
-7.08608e-05
9.06944e-05
-5.23009e-05
-0.000450395
-0.000274946
0.000112798
-0.000182789
-0.000307085
0.000188756
-4.78389e-05
3.20988e-05
-0.000133113
-2.24294e-05
-0.000135628
-0.000165591
0.000165654
-0.000203963
-6.86647e-05
-0.000207051
0.00025816
0.000127854
-9.28078e-05
-0.000248214
-0.000207287
-0.00018712
0.000224043
6.32902e-05
0.000114998
-0.000199932
-0.000378982
-8.1573e-05
-0.000114106
0.000315039
-0.000162019
2.55925e-05
-9.15097e-05
-6.0157e-05
-3.5965e-05
0.000167552
-4.14963e-05
-0.000140751
-0.000229875
-0.000406587
-0.000370925
-0.000131374
-0.000417235
-0.000166525
-0.000172466
-0.000319638
-9.11948e-05
0.00019348
-0.000325228
7.63225e-05
-0.000286131
-0.000109758
-8.44913e-05
-5.59421e-05
-0.000288462
-0.00018268
-0.000123936
-0.000334542
-0.00019066
-0.000249121
-0.000467401
-8.18403e-05
-0.000132347
-0.000412316
-0.000131196
0.000217201
-1.60022e-05
9.09323e-05
-0.000173057
-0.000239268
3.86648e-05
7.49349e-05
3.33798e-05
2.62785e-06
3.27602e-05
-4.85033e-05
0.00022967
-0.000122055
0.000188954
-0.000223024
-0.000171761
-4.85205e-06
7.05807e-05
1.54127e-05
-0.000256063
-0.00043285
-0.000244698
-0.000168214
0.000286784
9.37816e-05
0.000154027
-0.00015699
-0.000137863
0.000135991
-0.00222868
-0.000438251
-0.000147173
0.000610498
0.000676416
-0.000642671
2.82713e-05
-2.10882e-05
9.88486e-06
-8.29122e-06
-6.57915e-05
-0.000134665
-0.000272924
-0.00042891
-0.000275163
-3.0433e-05
-0.000320332
3.12616e-05
1.37606e-05
2.47269e-05
-4.1937e-06
-2.53228e-05
-0.000263987
-0.000606429
-0.000189563
0.000102021
-0.00103654
-0.00164009
-0.000170301
0.000218973
0.000515985
0.000342159
0.000671785
-0.000327361
-0.000266124
0.000178271
-0.000293299
-0.000120063
-0.000425262
0.000159196
0.000108506
-1.61248e-05
-3.71956e-05
-0.000228979
0.000255158
0.00016596
4.39487e-06
-0.000122294
0.00023012
0.000364248
-0.0015643
-0.000229506
0.000337618
0.000589739
-0.00124774
0.000251645
0.00023024
8.7121e-05
-8.5803e-06
0.000214432
0.000309302
-0.00104395
1.92506e-05
0.000369238
0.000396486
-0.00109518
-6.57235e-05
-0.000503808
-0.000145414
-0.000672048
-0.000430053
-0.000281375
0.000118614
7.78744e-05
-0.000136822
-0.000316307
-0.000418066
-0.000889655
-0.000544803
-0.00036989
-6.2176e-05
-0.000864414
6.35076e-05
-0.00030368
-7.83578e-05
-0.000632431
-0.000211251
-0.000137285
-7.49089e-05
0.000170249
0.000157492
-0.000107286
-4.28511e-06
-0.000111787
-0.00112799
-0.000405643
-0.00114068
-0.000115191
-0.000556003
-6.68647e-05
-8.63209e-05
-0.000233169
-0.000123741
-0.000283373
-0.000235317
-0.000170939
0.000392818
-0.000334521
-0.00012617
0.000199609
0.00042621
0.00045019
-0.000420559
0.000139133
-0.000338282
5.36842e-05
-0.000169826
-2.1299e-05
-6.91918e-05
5.91642e-05
-2.9309e-05
-0.000471655
-0.000611755
-0.00026631
-0.000147644
-0.00058888
0.00018816
1.88359e-06
0.000125721
0.000146286
3.9966e-06
0.000242544
-0.000148532
0.000125953
0.000272343
8.33212e-05
8.51322e-05
0.000121998
0.000144674
-0.000430296
0.000186396
9.4771e-05
0.000145151
5.79345e-05
5.36178e-05
0.000312411
-0.000200499
-9.89405e-05
0.000244263
-0.000160632
-0.000219207
-0.000238774
0.000377857
-0.000221386
5.74272e-05
6.26742e-05
0.000211098
-0.000363515
4.72023e-05
-4.30971e-06
6.42059e-05
0.000216605
3.16908e-05
0.000201772
-0.000286313
0.000286702
-9.03062e-06
0.000149523
0.000353715
7.12868e-05
0.000266054
-0.000137008
0.000159817
0.000133114
0.000178915
-0.000112567
7.04545e-05
0.000273288
-0.000269046
0.000331963
-3.51718e-05
9.5945e-05
0.00017432
4.90675e-05
5.66334e-05
-0.000150338
0.00054774
-4.76205e-05
5.40229e-05
0.00015286
0.000414398
0.000464744
-8.50872e-05
5.52672e-05
-0.000100162
0.000215023
1.84357e-05
4.98554e-05
-0.000445781
0.000607384
-0.000102099
-0.000150425
0.000464748
0.000407198
-0.000399049
0.000413619
8.91697e-06
9.45055e-05
1.54993e-05
-0.000259533
-0.000191129
2.06689e-05
-0.000461212
-0.000174744
-0.000736983
-0.000193153
2.04645e-05
-0.000686765
-0.000216664
0.000458246
4.12531e-05
-0.000584564
-6.87925e-05
-0.000799698
-0.000180046
-0.00106937
-0.00067047
0.000156261
7.69224e-05
-0.000474137
-0.000119842
7.15697e-06
-0.000110086
-0.000675571
-0.000222276
-0.000886917
-0.000501513
-2.84736e-05
0.000199519
-0.000409184
-0.00023669
-0.000230782
6.71354e-05
-0.000182282
-8.47183e-05
-0.000770603
-0.000115101
0.000147665
-1.63912e-05
-0.000435646
-0.000259752
0.000151356
-9.60533e-05
-1.14291e-05
-0.000265762
-5.46636e-05
-0.000539036
-0.000160023
-9.95656e-05
-0.000249908
-0.000163803
2.28861e-05
-0.000114203
-0.000541619
2.08097e-05
-0.000184243
-4.04452e-05
-0.000376998
-5.03602e-05
4.55595e-05
-3.38275e-05
-0.000503271
0.000180086
-3.14653e-05
-0.000364896
0.000113591
-4.82832e-05
-1.75467e-05
-0.000298129
8.72265e-05
0.00033181
0.000100783
0.000101976
1.58139e-05
3.65401e-05
-4.84378e-07
-0.000415063
6.058e-05
6.40758e-05
-0.000727535
-0.000348992
-0.000317356
-6.38216e-05
0.000147849
-0.000275306
-0.000117645
-0.00060347
-5.70068e-05
-0.000307833
-0.000119343
-0.000503013
0.00015366
0.000280189
-0.000327212
0.00017265
3.46501e-05
4.82482e-05
-0.000233661
0.000218024
0.000119353
-0.000130089
6.45553e-05
0.000242897
0.000105221
-0.000183062
0.000176458
-5.1508e-05
7.16974e-06
-0.000476658
0.000205534
0.000421419
-0.000283492
4.99058e-05
0.000576192
9.59447e-05
-0.000220483
-2.11059e-05
-0.000348112
-0.000119039
0.000103032
0.000174671
0.000317869
0.000307311
0.000259105
0.000736029
0.000201404
1.91566e-05
0.000250131
0.000757153
0.000126882
0.000381783
0.000596489
0.00115305
-0.000237462
-9.35578e-05
0.000624686
0.000278385
-0.000256229
4.29554e-05
0.000221572
5.02744e-05
0.000139474
3.83716e-05
-0.000187808
0.000516639
-0.000289001
0.00035097
-0.000191641
-0.000289308
3.86462e-05
-7.47664e-05
5.09247e-06
-0.000257098
1.12654e-05
9.59356e-05
-7.55079e-05
0.00011988
-7.80565e-05
-0.000514044
-5.00945e-05
0.00042106
-9.85283e-05
-4.23978e-05
0.000153724
-1.41002e-05
-0.000182669
0.000505611
-0.000136313
8.30584e-05
-1.32658e-05
-0.000431391
-0.000416529
0.000280249
0.000618443
0.000253662
0.000416312
0.000573395
0.000248821
-0.000341022
-7.32807e-05
-0.000169579
6.24651e-05
4.22213e-05
5.95638e-05
9.81563e-05
5.74685e-05
5.21005e-05
6.15429e-05
-0.000358674
-9.22263e-05
5.72881e-05
-0.000135509
-0.000378234
-0.000251352
-1.65391e-06
0.000142109
0.000120895
-2.71771e-05
-0.000245858
-0.000111009
0.000166125
0.000431096
0.000150036
0.000367495
0.000366664
0.000159289
-5.22693e-05
-7.169e-05
-0.000121278
-2.68646e-05
-0.000443993
0.000321634
0.000168412
-8.09651e-05
0.000240187
0.000106344
6.54704e-06
-8.52072e-05
0.00016015
0.000112069
-1.42111e-05
0.000124273
-1.15159e-05
0.000135958
-0.000261256
0.000611945
5.84116e-05
0.000159125
0.000193862
0.000321251
-0.000154262
6.48198e-06
0.000441565
-6.74568e-05
-0.000122146
0.000198856
0.000111881
-3.90892e-05
0.000232224
-0.000258257
6.80775e-05
3.43245e-05
1.52166e-05
-9.11e-05
0.000391364
-8.92982e-05
6.98976e-05
0.000105757
-0.000370604
-0.000182155
-0.000181402
0.000171717
0.000347046
0.000253132
0.000425111
-7.78375e-05
0.000668832
-0.000176744
-4.33734e-05
0.000113108
0.000211129
0.000274543
-0.000161203
-1.88719e-05
-0.000333454
-6.63045e-05
-0.000434252
-0.000260821
0.000499492
-4.36033e-05
7.97924e-05
9.13385e-05
-0.000361813
-2.5181e-05
7.32216e-05
9.47619e-05
0.000155581
-0.00016821
0.000248846
7.39232e-06
0.000718283
4.47542e-05
0.000102188
0.000483653
0.000511815
0.000535469
-0.000109914
-5.07907e-05
0.000419772
0.000218035
5.33525e-05
-0.000228708
4.43395e-05
0.000664246
2.10759e-05
7.14606e-05
8.32414e-05
-0.000526533
-0.000169239
0.000139671
0.000285917
-9.69104e-05
-0.0017185
-0.000132971
5.18882e-05
0.000103032
6.43295e-05
-0.000926864
0.000183107
-0.000454492
0.00014534
0.000231084
-0.000299923
-0.000794325
-0.000246521
-0.000107844
-9.59065e-06
-3.4519e-05
-0.00079287
-9.46538e-05
-0.000409044
1.31283e-05
-0.00053426
-1.74882e-05
-0.000536543
0.00011192
1.66663e-05
-0.000284399
-0.000710041
-0.000498431
-0.000603852
-0.000386596
-1.73818e-05
2.24153e-05
-0.000395092
0.000332881
6.92502e-06
-0.000981537
-2.57127e-06
3.38309e-06
9.99533e-05
3.66631e-05
-0.00060905
2.15538e-06
-0.000158846
-5.74819e-05
-0.000263774
0.000235196
-0.000485218
-8.04803e-05
0.000100844
-0.000366091
-0.000227445
-0.000105056
-0.000364848
-0.00016281
-0.000595547
-5.8532e-06
-0.000439406
-8.84615e-05
-0.00019486
-0.000657368
1.72445e-05
0.000162729
-0.000134018
-0.000270849
-0.000734899
-0.000127216
-0.000486555
1.40051e-05
0.000100415
0.000409172
0.000178718
-0.000376961
-6.14985e-05
0.000575468
0.000318024
0.000132035
-0.000461168
4.67437e-05
6.52297e-05
8.18658e-06
0.000328612
0.000187017
0.000392604
-0.00236865
-0.000189295
0.000440286
0.000337285
0.000184353
-0.00057744
0.000437913
-0.000270747
-0.000127902
6.78928e-05
0.000210814
5.41192e-05
-0.00101456
-1.1276e-05
0.000198708
2.92541e-05
-5.16665e-05
-0.00080908
9.33248e-05
-5.0551e-05
-0.000597447
-5.40949e-05
-0.000626178
-0.000438808
-0.000314009
-0.000169073
2.06719e-05
-0.000231036
-0.000353448
-0.000393139
-0.000602597
-0.000382677
1.61272e-06
-1.26956e-05
-8.02195e-06
0.000148081
-0.000150349
-3.40535e-06
-0.000456122
-0.000920824
-1.14917e-05
0.000307665
0.000252593
-0.000884417
0.000101455
-0.00028321
-0.000597527
0.000125022
0.000441075
0.00029342
-0.000615167
-0.000106437
0.000555554
0.000617805
0.000211205
-0.000646426
0.000754327
-0.000106318
-8.25607e-05
0.000159382
0.000517339
0.000435561
-0.000103301
1.63803e-05
0.000366164
0.000518175
0.000165832
-0.000467723
0.000296995
3.67674e-06
-8.82644e-05
-7.31486e-05
-0.000112745
-0.000178709
-0.000622062
-0.000124267
-8.47982e-05
-0.000111169
-9.79263e-05
-0.000670634
4.60157e-05
7.81899e-06
-0.000161803
6.20252e-05
0.000131489
0.000444239
0.000778499
-0.00043005
0.000162469
0.00069281
0.000522825
9.24148e-05
-0.000544242
0.000240046
1.76834e-05
-2.23247e-05
0.000269516
0.000329577
-0.00146646
-0.000299433
0.000219402
0.000595107
0.000602749
-0.000756079
-0.000421657
-0.000101219
0.000133393
0.000312241
0.000156737
8.19623e-05
8.01017e-05
0.000236815
0.000243365
6.28263e-05
6.32517e-05
3.32061e-05
4.34276e-05
0.000114176
4.57567e-05
8.02941e-05
0.000152135
2.67721e-05
8.67724e-05
0.000242427
0.000232845
4.13373e-05
8.84126e-05
9.29262e-05
-7.81924e-05
-4.42727e-05
1.46233e-06
6.73442e-05
5.45232e-05
0.000160702
0.000253189
8.4592e-05
0.000231843
0.000110218
2.26186e-05
0.000211036
6.91598e-05
0.000316841
6.21999e-05
1.67426e-05
0.000201932
0.000168987
0.000211854
0.000259153
0.000203061
0.000244621
0.000243235
0.000241514
-9.66755e-05
0.000210661
-5.62716e-06
6.46998e-05
0.000106831
0.000164743
0.000127606
1.25078e-05
3.46297e-05
3.05647e-05
2.16016e-06
-5.676e-05
0.000116121
8.20605e-05
0.000135378
-3.19197e-05
-0.000156749
-8.55755e-05
5.44218e-05
-3.73031e-05
-1.32115e-05
-6.41822e-05
-7.09182e-05
3.36404e-05
0.000161712
0.000197294
0.000152172
0.0001015
0.000183376
0.000128437
0.000279761
0.000286788
0.00026256
0.00020351
7.53218e-05
2.27206e-05
0.000145542
0.000263977
0.000212462
0.000144765
0.000144877
0.000248312
0.000142998
0.000177195
0.000167913
0.000114135
0.000163771
0.000133357
0.000208096
9.44518e-05
0.000165332
0.000189166
0.000257027
0.000217303
0.000275894
8.40072e-05
0.000114529
0.000126715
1.72039e-05
0.000158351
-3.81656e-05
0.000175076
0.000142087
0.000173558
0.000178619
0.000233786
0.000162066
0.000112094
0.000106938
4.50658e-06
4.69966e-05
4.38899e-05
0.00019503
-9.41658e-05
-6.6625e-05
5.79329e-05
-1.90312e-05
0.000195509
0.000267225
6.32347e-05
-4.84051e-06
0.000100617
6.61152e-06
-0.000112301
1.06986e-05
9.33894e-05
0.000145293
3.83701e-06
6.15048e-05
-0.000109863
5.07798e-05
0.000111582
-1.99689e-05
0.000106628
-2.87669e-06
0.000110025
-2.21903e-05
0.000129904
-5.72823e-05
0.00010682
-5.32677e-05
4.80962e-05
-0.000117033
7.03212e-05
-1.25721e-05
5.86883e-05
-1.11727e-05
-8.23634e-06
-1.25911e-05
0.000156769
0.000237698
0.000132007
0.000133241
0.000106072
0.000123164
-0.000147942
0.000125015
-0.000130461
9.36463e-05
-6.17062e-05
6.44999e-06
0.000146151
-3.92726e-05
0.000128614
4.642e-05
6.152e-05
0.00025642
6.31143e-05
6.41953e-05
0.00027971
0.000239533
6.93965e-05
-2.51023e-05
0.00036348
5.03243e-06
-2.12622e-05
1.99394e-06
2.63806e-05
6.1419e-05
3.07663e-05
0.000158834
0.000175858
5.2347e-05
0.000227801
0.000229119
0.000139053
9.03052e-05
6.37674e-05
4.59526e-05
0.000224679
0.000126083
4.69424e-05
-1.55518e-05
-0.000105864
-5.49997e-05
-1.7218e-05
-2.5477e-05
0.00020248
6.53298e-05
2.69602e-05
-7.16835e-05
-3.0686e-05
-3.41905e-05
7.99483e-05
1.69191e-05
-5.87894e-05
9.41214e-05
0.000275584
9.10088e-05
7.27018e-05
0.00024778
4.44906e-05
2.55483e-05
9.32433e-06
2.06651e-05
-5.42982e-06
-1.57878e-05
-3.70016e-07
-1.7294e-06
2.82191e-05
1.83388e-05
4.3146e-07
0.000203805
8.84898e-05
-8.15168e-06
0.00012594
2.61355e-05
2.45348e-05
1.05251e-05
8.98898e-06
0.000194148
0.000161106
9.49055e-05
2.75633e-05
0.000223723
3.91527e-05
-6.60341e-06
2.96848e-05
0.000224669
2.08781e-05
-7.48378e-06
6.02765e-06
0.000150601
0.000170161
8.70847e-05
2.43531e-05
0.000204122
0.000187386
5.64554e-05
0.000195296
0.000252007
0.000227011
0.00021368
9.81305e-05
6.92491e-05
-3.36501e-06
3.49142e-05
0.000123321
2.9202e-06
0.000194226
-7.75645e-06
5.47692e-05
-6.48928e-06
-8.60753e-05
4.6606e-05
7.16537e-05
0.000119724
-7.37006e-06
-6.29628e-06
3.90888e-06
6.7985e-05
9.58176e-05
0.000143206
5.55943e-05
8.68258e-05
5.33705e-05
0.000176506
9.09336e-05
-1.91583e-05
1.04431e-05
-3.84889e-05
0.000161085
0.000302372
0.00021316
9.18859e-05
0.000210364
-2.61553e-05
0.000191293
0.000221171
5.4235e-05
1.80938e-07
5.69385e-06
0.000104702
3.14337e-05
0.000264097
8.43096e-05
-9.33029e-05
-0.000137805
-0.000103192
0.000293313
3.99239e-05
-2.3376e-05
-2.10433e-05
0.000124925
1.03654e-05
0.000114859
6.31113e-05
-2.06096e-05
0.000156617
-7.52539e-06
0.000220009
0.000164433
3.06898e-05
5.89772e-06
0.000166681
8.56989e-05
1.49313e-05
4.52297e-05
0.000170559
1.0533e-06
9.4512e-07
1.9268e-05
0.000235591
3.02785e-05
3.10031e-05
0.000341558
0.000345508
8.50937e-05
-1.49524e-06
4.34746e-05
9.92287e-05
3.43068e-05
4.45871e-05
1.31326e-05
-1.40298e-05
0.000107276
0.000260982
0.000159609
2.65247e-05
0.000285309
-3.06182e-05
1.32721e-05
2.62097e-05
1.25953e-05
4.81104e-05
1.41853e-05
0.000183777
0.000165735
8.82459e-05
7.43465e-05
3.13286e-05
0.000146384
0.000146126
7.49923e-05
5.34562e-05
6.68066e-05
1.43508e-05
0.00025487
2.42921e-05
1.52209e-05
7.78502e-05
7.15212e-05
4.04001e-05
0.000211945
0.000182789
7.69267e-06
0.000167861
-3.44703e-05
0.000184068
-9.19684e-06
0.000154378
-4.03158e-05
1.64584e-05
0.000158202
0.000116179
0.000111747
0.000130171
4.01008e-05
0.000277821
4.14182e-05
-0.00028097
3.71392e-05
6.06864e-05
0.000244607
0.000199756
0.000300789
6.94067e-05
-3.01131e-05
-7.82155e-05
-7.95109e-05
-0.000150118
-0.000248506
-4.84512e-05
0.000104226
0.000350824
1.02376e-05
-1.81052e-05
7.21535e-05
-2.30679e-05
5.86008e-05
-1.15226e-06
9.80591e-05
0.000203009
2.55086e-05
2.36569e-05
2.10291e-05
-3.44588e-05
0.000214021
3.46896e-05
1.90251e-05
1.64096e-05
-0.000138317
0.000210623
-1.51908e-05
-2.95758e-06
0.000120932
0.000271127
0.000178334
1.5145e-05
6.72273e-05
3.70238e-05
-4.64226e-05
2.2302e-05
-4.89073e-06
-2.79916e-05
0.000227839
0.000223761
0.000161047
-1.53253e-06
5.09201e-05
5.68105e-05
0.000161442
6.60104e-05
-6.65249e-06
2.34221e-05
0.00012287
0.00022376
2.71941e-05
3.64149e-05
7.23854e-05
5.72527e-05
0.000155611
-1.46204e-06
1.00871e-05
0.000102286
0.000257022
6.26437e-05
0.000213543
0.00014592
0.000209594
5.90541e-05
0.000227406
2.08391e-05
0.000211275
0.00015313
0.000180141
5.07302e-05
0.00021047
2.34111e-05
0.000178501
-4.18997e-05
4.04457e-05
1.07428e-05
-2.61224e-05
8.75939e-05
1.58724e-05
2.60288e-05
4.31318e-05
5.88588e-05
6.46254e-05
-0.000115936
-2.69201e-05
5.24306e-05
-2.83515e-05
1.43066e-05
-9.98859e-06
8.17367e-05
4.97846e-05
0.000170153
-2.21218e-06
0.000156936
0.000257703
0.000104321
5.19894e-05
-4.44239e-05
0.000205583
-0.00013254
-9.05018e-05
5.10561e-06
2.31774e-05
4.18907e-05
2.14113e-05
-1.33484e-06
0.000140383
-9.92043e-07
-5.48581e-06
1.98396e-06
5.89778e-05
2.20568e-05
0.000296159
2.12839e-05
0.000122436
0.000161584
-6.40126e-05
-3.12777e-06
-3.07321e-05
0.000253886
0.000263234
0.000244969
-1.74092e-05
2.63205e-05
3.03205e-05
6.21391e-05
-9.60118e-05
0.000231619
0.000219742
0.000158194
4.92557e-05
2.57443e-06
2.86461e-05
-3.89169e-06
0.000200004
0.00010257
1.28405e-05
5.19547e-05
0.000205982
-2.06799e-05
0.000103707
-0.00012388
0.000105047
2.00147e-05
0.000252108
7.23665e-05
-4.81501e-07
5.28727e-06
8.67723e-05
5.78198e-05
3.65854e-05
0.000104783
8.95201e-07
3.64694e-07
3.86891e-05
3.606e-05
3.42939e-05
3.39741e-05
-8.381e-05
7.23671e-05
-1.03529e-05
6.63536e-05
4.29051e-06
4.52128e-05
1.27176e-05
5.0307e-07
7.25555e-06
-2.9306e-05
-0.000790966
-0.00146676
-0.000735432
6.45863e-05
0.000160008
0.000225368
1.28959e-05
3.50698e-05
8.25133e-06
0.000183865
0.000138928
2.43169e-05
5.74111e-05
6.10805e-05
6.87591e-05
1.36524e-05
0.000178847
-2.51993e-05
0.000119979
1.16833e-05
-1.83458e-06
7.10809e-05
5.77023e-05
-1.00068e-05
5.04777e-05
0.000175204
-2.25329e-05
0.000109532
-0.000558979
0.000292789
0.000113249
4.58431e-05
0.0001228
4.17474e-05
-6.03876e-06
-2.37665e-06
5.68892e-05
-1.11335e-06
-1.2003e-05
3.61108e-06
7.61471e-05
-1.47478e-05
3.46427e-05
5.04156e-05
7.08934e-05
1.84315e-05
3.25787e-05
1.55031e-05
4.27416e-05
0.000124876
0.000127958
0.000202827
0.000207672
0.000192896
9.28589e-05
1.92153e-05
0.000117681
7.81078e-05
0.000118594
1.84885e-05
0.000138488
4.387e-06
-2.30275e-06
5.0099e-05
6.07608e-05
0.000112091
5.64582e-06
3.07969e-05
0.000182563
0.000198136
0.000287459
0.000261846
-3.66197e-05
-0.000267239
-0.000167975
0.000182452
0.000393546
5.73624e-05
-1.45719e-05
5.95311e-06
2.24161e-05
-4.52286e-05
4.73524e-06
9.07385e-05
0.000246491
0.000237358
0.000228804
0.000265556
3.32816e-05
6.21366e-05
-2.29469e-05
0.000242379
-1.34236e-05
3.2333e-05
-1.25769e-05
-1.59799e-05
-7.11153e-06
2.56394e-05
7.57702e-06
7.78808e-05
2.53101e-05
3.5184e-05
1.04573e-05
3.35131e-05
4.42888e-05
3.24593e-05
-0.000106567
4.48617e-05
9.72989e-05
0.000194076
-1.53375e-07
3.44989e-05
1.01418e-05
8.16125e-05
1.89759e-05
0.000121837
0.000195738
1.07363e-05
-2.70454e-05
8.29608e-07
-1.32384e-05
-5.10612e-05
-6.72153e-05
-7.85955e-06
9.2549e-05
0.000107544
0.000146637
0.000218749
0.000227516
-1.40534e-06
-4.52866e-07
1.88444e-05
5.77041e-06
1.47236e-06
-0.000150204
-0.000142199
-6.90541e-05
-7.82703e-05
-0.000143272
0.000149708
0.000138339
0.000262099
-1.00281e-06
0.000158305
-4.85672e-06
-1.09077e-07
-1.23649e-06
-1.55313e-05
0.00021903
0.000159622
-0.000526811
-0.000433697
7.74542e-05
-0.000346191
2.62356e-05
-1.56892e-05
2.47874e-05
5.0389e-05
0.000159652
1.55557e-05
0.000231069
4.06502e-05
5.40668e-05
0.000315785
1.58925e-05
1.73869e-05
0.000250541
-1.34836e-05
5.04664e-07
-1.89392e-06
3.53951e-06
1.64755e-08
-1.21082e-05
-1.52929e-06
0.000153275
2.69729e-05
1.38316e-05
0.000317425
5.31576e-05
1.52084e-05
0.000186366
4.83224e-05
6.02246e-05
0.000326809
6.15302e-05
2.5789e-05
0.000244856
2.847e-06
3.08023e-05
-7.1715e-07
4.67695e-05
-7.67219e-06
-3.24678e-05
-3.83141e-05
-3.30762e-05
-4.97615e-05
0.00011921
0.000110941
0.000140119
1.40134e-05
5.17794e-05
0.00033876
0.000116267
6.91379e-05
0.000128599
0.000164143
0.000130583
0.000127506
8.799e-05
8.69299e-05
0.000138485
5.20149e-05
7.5864e-05
1.0151e-05
5.82731e-05
5.78876e-05
7.24791e-05
6.07074e-05
6.39175e-05
6.64098e-05
7.5431e-05
0.000123693
9.8787e-05
0.000109967
0.000102926
0.000148092
0.000106532
6.52705e-05
9.9905e-05
6.1874e-05
7.03951e-05
5.97048e-05
0.000120854
0.000125088
4.98783e-05
5.64528e-05
0.000122005
0.000134732
0.000122065
0.000103299
7.57002e-05
7.74177e-05
0.000136696
9.74096e-05
3.51343e-05
8.79603e-05
0.000145362
7.86545e-05
0.000122461
8.18983e-05
7.68837e-05
5.65673e-05
2.58113e-05
0.000139098
-0.000158413
-7.09096e-05
9.39685e-05
-4.81666e-06
3.18935e-05
-0.000222628
-9.39678e-06
-0.000241233
-5.67694e-06
-0.000366665
-0.000209864
-0.000246118
0.000116406
0.000151237
5.29793e-05
2.04037e-05
0.000203601
-0.000312622
-1.83897e-05
-2.31247e-05
-5.44209e-05
3.40007e-06
-2.26415e-05
-0.000132569
-8.53147e-06
-0.000216039
-2.01136e-05
-0.000215337
-0.000241888
-1.96528e-05
-4.71385e-05
3.31564e-06
0.000265493
-2.13344e-05
-0.000151238
-0.000163586
-3.636e-05
-0.00011925
-0.000324061
-0.000340635
-2.77293e-05
-8.99947e-05
-0.000462509
-2.52443e-05
0.000145963
0.000268305
6.89073e-05
0.000122208
0.000292286
-2.52805e-05
-0.000136705
-2.64293e-05
-9.43881e-05
-8.79027e-06
-0.000213028
-0.000166529
-0.000102054
-1.19676e-05
-0.000112715
-2.10681e-06
-0.000311161
-0.000350862
-7.99768e-05
-0.000402761
-0.000114876
-3.49023e-05
0.000113251
0.000149995
0.000427434
0.000150597
0.000379413
0.000302813
0.000289062
-2.40451e-05
8.18213e-05
6.27538e-06
7.48139e-05
0.000107757
6.14298e-05
-1.96284e-05
-6.78624e-06
-2.74237e-05
-1.97146e-05
-0.00010102
0.000193479
5.42756e-06
-0.000175718
4.52291e-05
-0.0002022
-0.000250994
-0.000253265
0.000147157
0.000496628
0.00012054
0.000355201
0.000888511
0.000352312
0.000766013
0.000773852
-3.34671e-05
5.62199e-05
0.000294153
0.000136632
-8.38798e-05
-0.000153109
0.000373026
-0.000403122
0.000168469
-3.41752e-05
-0.000202176
0.000225689
2.8632e-05
-6.66188e-05
-0.000230312
-0.000223002
-0.000279251
-0.000232924
0.000502687
8.49862e-05
0.000204083
0.000394783
0.000175281
0.000355845
0.000336873
-6.32768e-05
-0.000127282
-9.72861e-05
-7.55e-05
-0.000443615
-0.000312815
-0.000421916
-0.000198265
-0.000322247
-1.96962e-06
-8.18341e-06
-6.02685e-05
9.37005e-05
-0.000246653
-0.000419866
-0.00017744
-0.000534212
-0.000120371
-0.000187555
-0.000167907
0.000134298
0.000205605
7.84346e-05
1.76677e-05
0.000270621
9.9655e-05
-6.36368e-06
-0.000155216
-4.10136e-05
-6.83429e-05
-8.85164e-05
-7.14407e-05
-0.000384474
-0.000288715
-4.10983e-05
-0.000235499
-0.00016675
0.000140404
-2.02231e-05
-0.000241933
1.54338e-05
-0.0001154
-0.000132799
-8.71149e-05
-0.00019984
-0.000155412
-0.000417227
-0.00012737
-0.000109302
-3.16406e-05
-8.12333e-05
-4.51579e-05
-0.000101501
0.000253397
-0.000509243
-0.000364084
0.000133426
6.08469e-05
-0.000271099
-3.79341e-07
-0.000391223
-0.000240721
-0.000105048
5.4768e-05
-0.000154901
-0.000274765
-0.000651688
-0.000428872
-0.000125547
-0.000302385
-0.000246113
-0.000580111
-0.000183948
-7.61307e-05
-0.000104997
0.000105577
-7.34189e-05
-0.000282152
-9.71545e-05
-0.000539603
-0.000608302
0.000535217
0.000126375
-0.00051712
-1.61326e-05
-3.52883e-05
-0.000112219
-5.50003e-05
-7.4577e-05
-0.000261889
-0.000373319
-0.000151033
-0.000276758
-0.00018087
0.000305587
0.000119288
-3.11859e-05
-0.000470546
-0.000149515
-0.000116005
-0.000198416
3.10456e-05
5.28817e-05
-0.000163612
-0.000518731
0.000263483
0.000528475
0.000256143
0.000408102
0.000478144
0.000194645
0.000205348
2.49116e-05
0.000343618
0.000236909
0.000188721
0.000164217
0.000251626
0.000286109
0.000313435
0.000145124
0.00072318
-0.000862719
-0.00022719
0.000431684
0.000487266
0.000500143
0.000415212
0.000225744
-0.000144198
-0.000293819
0.000794923
-1.01286e-05
-0.000506759
-7.71222e-05
0.000717851
0.000786177
0.000368989
-0.000239521
2.98883e-05
0.000131578
7.93902e-05
-0.000195155
-0.000175736
-8.94953e-05
-7.41371e-05
-4.93309e-05
6.40832e-05
-3.28136e-05
-0.000148604
-0.000250098
6.15078e-06
-7.35008e-05
-0.000159845
0.000159123
-6.24465e-06
-4.87334e-06
-0.000234469
0.000137247
0.000114914
6.25017e-05
5.12032e-05
0.000180225
-7.36505e-05
6.41114e-05
-1.82505e-06
6.41483e-05
-0.000343438
-4.28103e-05
0.000116377
6.53702e-05
4.36438e-05
-4.09179e-05
0.000147079
-0.000211036
0.000130921
-0.000435129
-6.96082e-05
-0.000317139
-0.000273793
-0.000909815
-0.000332971
0.00011644
0.000490535
0.000911879
-0.000391126
-6.59651e-05
-0.000158568
0.000110586
-0.000411705
-0.000231228
-0.00105689
-0.00039804
-6.05891e-05
0.000609228
0.000954928
-0.000318015
0.000418389
-0.0012177
-0.000341989
0.000357684
0.000640774
0.00070235
-0.000298689
-0.0004392
-0.00043916
-0.000110542
0.000155971
-0.000145566
-0.000371718
4.80621e-05
-0.000144301
2.17012e-05
-0.000236366
-8.94431e-05
-0.000507677
-0.000456882
9.90169e-05
-0.000127062
-0.000528341
0.000164203
0.000267559
0.000167708
0.000200349
0.000233192
7.69867e-05
-6.02446e-05
-0.000363258
0.000331499
8.14636e-05
-0.00041167
-0.000362985
-0.000357689
-8.09331e-05
6.44775e-05
-0.000372969
1.87414e-05
-3.88154e-05
-5.18496e-05
-9.60401e-05
-1.06614e-05
6.97391e-05
0.000178896
7.87162e-05
0.000133145
0.000150987
1.54725e-06
4.53656e-05
-0.000323004
7.45743e-05
-4.36614e-05
-0.000132852
5.01562e-05
0.000123132
4.90296e-05
7.83799e-05
0.000115464
7.03647e-05
-2.85152e-05
7.06556e-05
-0.000128639
-3.75054e-05
4.83869e-05
0.000235109
5.95618e-05
0.000152455
0.000198849
0.000147952
-0.000472247
-0.000264909
0.00016748
1.85038e-06
-0.000167626
6.24665e-05
-8.93914e-05
8.73891e-05
4.85297e-05
-6.17052e-05
-0.00022568
-0.000229873
0.000239469
-1.76731e-05
-0.000163156
4.45733e-05
0.000144441
1.09456e-05
0.000144103
-5.58576e-05
-0.000117209
-2.02293e-05
0.000131163
-5.679e-05
0.000252244
-1.27933e-05
-0.000185702
-5.60065e-05
0.000115781
0.000139348
-0.000218224
0.000198119
8.23592e-05
-7.78011e-05
0.000130327
8.18013e-05
-7.86014e-05
0.000116376
-1.524e-05
-0.000212797
-2.58306e-05
-0.000136877
-0.000346862
0.000125487
3.60013e-05
-0.000176151
9.37735e-05
9.24582e-05
-0.000317455
0.000227866
-6.78818e-05
-9.75779e-05
6.46069e-05
-9.01546e-05
-0.000266768
7.76641e-05
7.78845e-05
-0.000188543
7.17446e-05
-0.000174931
-0.000392535
0.000110832
7.67023e-05
-0.000246137
7.10145e-05
9.17591e-05
-0.000108965
0.000165796
2.35483e-05
-0.000142383
8.2768e-05
0.000207231
8.24252e-05
0.000204026
0.000158719
0.000136327
0.000102496
-0.000156964
0.000238595
-2.40998e-05
-6.89744e-06
-2.92549e-05
-2.83782e-05
0.000163591
-5.34284e-05
-0.000229711
-0.00014263
3.76395e-05
0.000156076
-2.36605e-05
0.000280332
2.31087e-05
-8.4067e-05
0.000409754
-0.00149572
-0.000357971
0.000203787
0.00067822
0.00075012
-0.000353364
8.03584e-05
0.000138893
7.83519e-05
0.000170158
7.46525e-05
0.000102787
-0.000324249
-0.000356355
3.55519e-05
0.000144069
-0.00023128
8.10623e-05
0.000148658
8.22456e-05
0.000171068
9.54022e-05
-0.000314037
-0.000454256
4.98955e-05
0.000278477
-0.000558305
-0.00115519
-0.000207077
0.000409126
0.000594609
0.00046168
0.000772809
-0.000201368
-0.000345658
-3.20015e-06
-3.32212e-05
6.56767e-05
-0.000268605
-2.36341e-05
-4.64569e-05
6.92738e-05
0.000132255
-0.000164313
0.000311053
0.000431245
0.000175568
0.000256317
0.000438568
0.000468466
-0.00127733
-0.000284035
0.000343411
0.000577
-0.000843543
0.000299283
0.000467879
0.000223751
0.000319846
0.000421103
0.000392805
-0.000921081
-0.000105148
0.000281228
0.000415512
-0.000706392
-1.64155e-06
-0.000173776
-2.10901e-05
-0.000264123
-0.000145136
-0.000415608
-4.46848e-05
8.59844e-05
2.75339e-05
-0.000273673
-0.000102821
-0.000770027
-0.000419312
-0.000148046
9.79664e-05
-0.000557317
0.000139718
0.000160025
9.27811e-05
-2.47754e-05
0.000168526
-5.92472e-05
-0.00024582
4.03176e-05
8.36605e-05
4.70065e-05
-9.07824e-05
0.000165963
-0.000899565
-0.000337412
-0.000455345
6.72131e-05
-0.000397993
3.00154e-05
-0.000202967
-0.000246316
-1.73431e-05
-7.43958e-05
-1.07184e-05
-0.000173199
0.000612506
-0.000417841
-0.000190627
0.000263454
0.000470846
0.000544972
-0.000243703
0.000201631
-0.000207298
-8.10807e-06
-6.75048e-05
0.000161194
-7.96402e-05
0.000326146
-6.15456e-05
-0.000365323
-0.000291234
-5.83342e-05
8.02881e-05
-0.00035655
0.000342867
-0.000110276
-2.73937e-05
0.000200821
0.000148182
0.000355913
-8.6546e-05
0.000345792
7.69816e-05
-7.08632e-05
0.000178827
0.000243211
0.000321391
-0.000209162
0.000353702
-8.77349e-05
-2.22724e-05
0.000143376
0.000185885
0.000391352
-0.000116247
-0.000254725
4.97743e-05
-9.48233e-05
-6.47382e-05
-0.000187525
0.000498695
-0.000312626
-0.0001001
0.000172339
0.000315133
-0.000193311
0.000251661
-0.00014421
-8.64584e-05
0.000209359
0.000166093
0.000317761
-0.000162229
0.000381682
-0.000154863
-1.82606e-05
0.000281448
0.000178894
0.000339845
-9.79304e-05
0.000368227
-1.20573e-06
2.49877e-05
5.46863e-05
0.000182083
0.00037728
-0.000144953
0.000398741
-0.000149313
-4.04375e-05
0.000120308
0.00016404
0.000170057
-0.000180196
0.000669616
-0.000232581
-7.38018e-05
0.000278082
0.000481959
0.000545345
-6.1948e-05
-7.5129e-05
-0.000183276
0.00023265
0.000139825
0.000177463
-0.000273528
0.000650285
-0.000273171
-0.000213222
0.00035958
0.000435544
-0.000209279
0.000794723
-4.22772e-05
1.55067e-05
7.41617e-05
0.000199681
-0.000222249
0.000199958
0.000313822
0.000122593
0.000200773
0.00030891
0.000564771
-0.000467939
-0.000170404
0.000665216
0.000427238
-0.000404682
8.7062e-05
-0.000113282
5.35118e-05
-0.000261449
-0.00012352
7.18166e-05
1.08752e-05
-6.74688e-05
2.45145e-05
2.60251e-06
2.93545e-05
-0.000149727
-9.43666e-06
-0.000248495
-0.000101566
-0.000106457
6.5141e-06
-0.000175427
-1.48447e-05
-0.000141894
0.000145015
0.000223
8.34019e-05
-9.477e-05
0.000197623
6.12673e-05
-3.87816e-05
-5.56883e-05
-6.54882e-05
0.000320738
-3.95484e-05
4.30643e-05
-1.46674e-06
4.33827e-05
-0.000126683
2.95307e-06
0.000112543
-0.000282049
-0.000209029
0.000150633
3.1897e-05
-0.000438478
6.40075e-05
2.38905e-05
4.30421e-05
-6.01925e-05
3.98673e-05
0.00022819
-0.000129994
-0.000367071
0.000267796
8.96878e-05
-0.000304154
0.000171456
0.000173034
0.000101569
3.2375e-05
0.000215402
8.57382e-05
9.62983e-06
0.000154331
0.000130746
0.000150389
-7.04326e-06
-0.000312027
-1.68745e-05
-1.00126e-05
-0.000318502
-0.000138033
-0.000224156
-3.92413e-05
0.000222973
0.000220544
9.21463e-05
3.79543e-05
0.000313506
-0.000318661
-0.000163179
-8.92921e-06
0.000287103
0.000413449
-0.000165326
0.000233831
0.00040592
0.000189029
0.000255211
0.000474769
0.000280935
-0.000287158
-8.10334e-05
0.000141749
0.00022588
-0.000111079
0.000239081
0.000411637
0.000177332
0.00018412
0.000515089
0.000602388
-0.000376936
-0.00010046
0.000477422
0.0002421
-0.000139976
4.84356e-05
-4.04336e-05
2.12122e-05
-0.000129359
-3.20142e-05
0.000102013
-4.7616e-05
-6.09683e-05
0.000201321
-2.6005e-05
-0.000129996
0.00019161
0.000415908
0.000113877
0.000162429
0.000398257
0.000765357
-0.000589441
-0.00029418
0.00037964
0.000179971
-0.0003234
4.76892e-05
0.000202741
6.73238e-05
0.000176644
7.80501e-05
-5.56666e-05
0.000198508
-0.000312545
0.000295929
-6.45439e-05
-0.000330192
7.97206e-05
8.2649e-05
7.66974e-05
7.58294e-06
9.11982e-05
0.000168646
-4.94267e-05
-4.41838e-05
-0.000149
-0.00037456
-0.000114241
0.000515013
-0.000190141
-0.000120983
8.42364e-05
0.000167149
-0.000145745
0.000512193
-0.000159737
-4.94549e-05
-8.56217e-05
-0.000217712
-0.000417382
0.000320799
0.00076212
0.000315633
0.000659806
0.000671487
0.000278416
-0.000287479
-0.000124689
-0.000129258
0.000249731
-2.15242e-05
0.00011144
0.000269682
0.000128519
0.000279472
0.000187689
-0.000226702
-5.24065e-05
-4.69899e-05
-0.000183749
-0.000219105
-0.000259326
2.3373e-05
-0.000106414
-2.437e-05
-2.18358e-05
-7.61574e-05
-7.2039e-05
0.000201867
0.000524582
0.000210331
0.00049319
0.00044247
0.000259062
-0.000143857
-8.58375e-05
-7.11925e-05
0.000153212
-0.000219475
0.000460847
1.37302e-06
-0.000172487
0.000235337
0.000263094
0.000163428
-8.11909e-05
0.00033371
-3.1724e-05
-0.000112434
0.000195384
0.000161582
0.000286685
-0.000148284
0.000726386
-9.92918e-05
-2.97499e-06
0.00025651
0.000409833
-3.47952e-05
-3.53444e-05
0.000457238
-4.06683e-05
-6.06899e-05
0.000126795
0.00027854
-3.85618e-05
0.000279838
-0.000285158
-6.47301e-05
-8.58504e-05
0.00011639
-5.96023e-05
0.00044244
-0.000202016
-6.87881e-05
6.99283e-05
-0.00016636
-0.000148038
-0.000341831
-1.6109e-05
0.000235902
0.00033065
0.000479909
-9.29755e-05
0.000749739
-0.000313495
-0.0001476
9.35207e-05
0.000307999
0.000406933
-0.000109896
4.04778e-05
-9.12761e-05
2.63684e-05
-0.000129772
-7.79732e-05
0.000533993
-0.000206186
-8.58855e-06
0.000126536
-0.0001734
-4.63806e-05
-0.000109917
6.14921e-06
0.000215946
-2.65165e-05
0.00036558
-1.54188e-05
0.000759556
-0.000174068
-6.30565e-05
0.000369789
0.000551314
0.000589627
-7.45776e-05
6.43266e-05
0.000156612
4.83113e-05
0.00010225
-1.00654e-05
-5.66247e-06
0.000709658
-4.41543e-05
-8.24738e-05
-5.15506e-05
-0.000381616
-0.000317154
0.000217959
0.000399864
0.000141338
-0.00108069
-0.000185904
0.000228199
0.000236765
0.000193117
-0.000614591
0.000349668
-0.00025147
3.53602e-06
0.000374745
-4.35121e-05
-0.000410315
-0.000289655
0.000207941
0.000228585
0.000157701
-0.000519425
0.00012732
-0.000273449
-6.88819e-05
-0.000164469
0.000189051
-0.000168694
5.44568e-05
-7.21437e-05
-4.72463e-05
-0.000264297
-0.000195278
-0.000346572
-0.000110254
-5.75718e-05
1.65372e-06
-7.65633e-05
0.000362798
0.000128648
-0.000593626
-7.25518e-05
0.000224375
0.000247478
0.000174201
-0.000420402
0.000111497
-0.000110797
-7.71609e-05
-9.23196e-05
0.000252083
-0.000227701
-0.00014396
-3.24487e-05
-0.000101379
2.04779e-05
9.05653e-05
-0.000290819
2.46671e-05
-0.000312351
-3.63843e-05
-0.000161813
0.000133687
6.60894e-06
-0.000521404
-6.19969e-05
0.000177385
5.4423e-05
-6.84429e-05
-0.000497776
4.58974e-05
-0.000341174
-6.30915e-06
0.000304172
0.00048338
0.000241961
-0.000332538
-9.77319e-05
0.00049188
0.000423777
0.00027551
-0.000316838
0.00018205
-9.71441e-07
-1.70818e-05
0.000481481
0.000380287
0.00043739
-0.0015309
-0.000213864
0.000430538
0.000487808
0.000320603
-0.000338372
0.000524094
-0.000187366
-0.000100716
0.000274769
0.000388872
0.000210864
-0.000725146
-7.78267e-05
0.000347814
0.000247574
0.000139971
-0.000542205
0.000275805
-2.86895e-05
-0.00034102
-4.26515e-05
-0.000108273
-9.84782e-06
-7.74785e-05
-0.000121366
-6.98841e-05
2.20343e-05
-7.13218e-05
-0.000107198
-0.000386578
-8.69528e-05
-4.71517e-06
-1.8115e-05
-5.12377e-05
0.000232595
0.000133047
0.000186619
-0.000354263
-0.000620867
0.000202432
0.000428855
0.000352218
-0.000509106
0.000234855
-0.000308045
-0.000398638
0.000319983
0.000481453
0.00040419
-0.000559798
-0.000144272
0.000530334
0.00063302
0.000318151
-0.000403698
0.00078429
-0.000133232
-0.000153336
0.000429359
0.000604569
0.000433159
-0.000165737
-2.79665e-05
0.000351924
0.000571894
0.000308332
-0.000312761
0.000397214
-9.91784e-06
-0.000109419
6.0454e-05
0.000134542
2.72615e-05
-0.000551036
-0.000180587
0.000121142
8.82234e-05
5.27592e-05
-0.000461623
0.000211641
-1.30831e-06
-0.000146924
-1.15212e-05
0.000344101
0.00051571
0.000780009
-0.000462321
3.52883e-05
0.000553292
0.000595639
0.000260096
-0.000389831
0.000352113
-4.96351e-06
-1.92564e-05
0.000495469
0.000510994
-0.00106761
-0.000274852
0.000444533
0.000717497
0.000687067
-0.00045501
-0.000243237
-0.000139847
0.000186035
0.000379154
0.000201181
0.000139366
0.000179984
0.000317942
0.000292911
0.000132257
0.000126999
0.000120882
0.000126294
0.0001824
0.000124439
0.000146381
0.000199976
7.50843e-05
0.000160924
0.000297509
0.000295857
0.000117356
0.000161719
0.000146979
2.19001e-05
5.40046e-05
9.33278e-05
0.000138458
0.000130182
0.000275479
0.000311993
0.000179876
0.000304771
0.0001709
0.000113733
0.000282044
0.000146113
0.000376888
0.000153393
9.38024e-05
0.000258977
0.000226097
0.000290135
0.000333872
0.000316792
0.000325456
0.000324024
0.000324459
7.29369e-05
0.00029992
4.69641e-05
0.00013191
0.000183451
0.000221432
0.000208385
0.000128297
0.000114863
0.000135261
0.000101061
7.64511e-05
0.000237003
0.000207523
0.000239821
8.52879e-05
1.13459e-06
5.50096e-05
0.000151595
6.18202e-05
7.58849e-05
4.11493e-05
5.12403e-05
0.000137894
0.0002554
0.000290687
0.000253562
0.000195937
0.000273318
0.000208021
0.000346889
0.000361334
0.000347281
0.00029931
0.000139555
0.000127171
0.000239863
0.000362921
0.000291789
0.000271492
0.000199134
0.000328313
0.000222033
0.000255949
0.000250787
0.000191896
0.00024417
0.000219225
0.000283437
0.000182806
0.000266284
0.000260723
0.000337441
0.000323541
0.000352951
0.000168348
0.000205981
0.000189926
0.000158169
0.000243865
4.39703e-05
0.000231179
0.000200885
0.000273896
0.000303659
0.000348236
0.000268295
0.00019595
0.000168688
9.43624e-05
0.000132516
0.000133339
0.000288664
4.76313e-05
