booster[0]:
bias:
-1.8628
weight:
0.000350938
0.000133308
0.0003737
0.000408224
1.47308e-05
8.82e-05
0.000328826
0.000551446
0.000534466
0.000427074
0.000543991
0.000484954
0.000375309
6.57345e-05
4.77782e-05
0.000191527
0.000114751
0.000335972
0.000138133
3.06631e-05
0.000103946
0.000240578
-0.000336207
-0.000238526
-2.69793e-05
-1.3809e-05
-0.000167363
-0.000455952
0.000153184
-0.000168043
2.60972e-05
0.000108724
-7.63692e-05
0.000107615
-6.02924e-05
0.000212343
-0.000206545
0.000298225
0.000188104
-6.60831e-06
-0.000309468
-0.000153885
-0.000508626
-0.000234658
-0.000252299
-0.000268364
-0.00125285
-0.000484225
-3.99207e-05
0.000297751
0.000456745
-1.02403e-05
-0.000199412
3.32177e-06
-3.37647e-05
-0.000523841
-0.00020877
-0.000518289
-0.000278152
-0.00043918
-0.000125481
-0.00058272
-0.000918557
-0.000785821
-0.000214318
0.000143374
-4.95498e-06
-2.02423e-05
-0.000117677
-0.000608724
-0.000344757
-0.000477348
-0.000375333
-0.000564912
-0.000393953
-0.00046153
-0.000119681
-0.000150808
-0.000180012
-0.000371939
-0.000136603
-0.000465536
-0.000463028
-0.000350368
-0.000267148
-0.000680536
0.000300199
-0.000246225
-6.75269e-06
-5.99217e-05
-9.33195e-05
-6.49475e-05
-6.2215e-05
-3.15177e-05
-5.94091e-05
-9.9832e-05
-0.000540338
-1.45677e-05
-0.000184334
-0.000483001
-0.000114517
-0.000366375
-0.000321737
-0.000145512
-0.000943813
-0.000422644
-6.08769e-05
0.000645994
0.000481047
-0.000436378
-0.000703108
-0.000677864
-0.000555747
-0.000204222
-0.000143309
-0.000301793
-0.000345084
-0.000397478
-0.000451399
-0.00116654
-0.000930671
0.000263698
-0.000781637
-0.000343336
-0.000205709
-2.47728e-05
3.72404e-05
4.21258e-05
7.15974e-05
-3.53674e-05
-0.000253116
0.00114861
7.63106e-05
0.000114614
-0.000148013
-0.000528222
2.29752e-05
-8.35075e-06
0.000101496
-3.66214e-06
0.000337284
-1.27149e-05
6.34422e-05
3.98324e-05
4.56552e-05
6.4379e-05
0.000598408
4.81089e-05
-0.000161282
-4.38116e-05
-2.23905e-05
-0.000120097
-5.72835e-05
-1.11303e-05
-8.8105e-05
-5.61417e-05
-2.95332e-05
-4.02196e-05
1.34065e-05
-9.52176e-05
2.98831e-05
0.00028826
1.45862e-05
0.000158174
6.75589e-06
0.000332167
-1.0929e-06
9.16244e-05
0.000300843
-8.89119e-05
-2.78423e-05
-4.26496e-05
2.07426e-05
1.21016e-05
1.91336e-05
8.58892e-05
1.70897e-05
-2.61522e-05
-0.000137369
0.000140897
-4.91006e-07
-0.000209933
-3.50479e-05
-6.90475e-06
-0.00020756
-9.93518e-05
-6.4016e-05
-2.0419e-05
-4.5349e-05
1.25119e-05
4.31493e-06
-4.36449e-05
-1.07182e-05
-2.71395e-05
-3.00077e-05
9.31867e-05
-7.18254e-06
-1.04193e-06
-7.00206e-05
-0.000556698
-0.000345857
-6.9261e-05
-0.000125384
-5.21316e-05
1.28605e-05
7.63329e-06
-0.000298212
-5.63258e-06
-6.45088e-05
7.54218e-05
5.35485e-05
2.58289e-05
0.000148801
0.00024985
1.76762e-05
7.4699e-06
0.000122591
6.51989e-05
-4.03854e-05
-9.72665e-06
7.48645e-05
-3.33282e-05
-0.000189644
-0.000125742
3.39218e-05
-0.000100234
2.82341e-05
-3.75348e-05
0.000119418
0.000114362
8.69397e-05
9.77195e-05
7.34864e-05
-5.45271e-06
-0.00031089
8.24977e-06
3.2654e-05
5.2649e-05
4.03774e-05
2.85524e-05
0.000236208
0.000112967
9.37915e-05
-6.32144e-06
0.000179045
9.37822e-07
3.11349e-05
-4.13553e-06
1.96593e-05
8.13973e-05
8.30339e-05
1.45031e-05
0.000215767
0.000134484
3.04731e-05
3.17369e-05
0.00012832
0.000189562
0.000122305
-3.47365e-05
-2.28814e-06
-1.99705e-05
-9.51963e-05
7.72416e-05
-4.32896e-06
8.63667e-05
-3.45811e-05
1.43201e-06
-7.11595e-05
-0.000463076
-1.22317e-05
-0.000309319
-0.000339566
-4.83822e-05
-0.000342117
-4.1347e-06
-5.94411e-05
-3.73586e-05
-0.000174119
-7.13683e-05
-0.000169191
-4.77421e-05
-4.27996e-05
-5.61502e-05
-3.77589e-05
-0.000189029
-0.000290321
4.75081e-05
-3.62684e-05
0.000123969
3.41723e-05
0.000114062
-0.000181516
2.1488e-05
0.000158832
1.55045e-05
-5.28003e-06
-4.79888e-05
6.63071e-05
-5.19841e-05
0.000100912
-1.51194e-05
-0.000475865
-0.000691574
-0.000498562
0.000121126
-4.57163e-05
-0.000135481
-0.000114388
4.24156e-05
-7.72311e-05
-0.00020236
-0.000174108
-8.25513e-05
6.78058e-06
-0.000232364
-0.000149566
-0.000123718
-7.64386e-05
-8.56714e-05
-2.59592e-05
-0.000255922
-4.34591e-05
-5.03118e-06
7.3279e-05
-5.00903e-06
-0.000149932
-8.38385e-05
8.36651e-05
-5.00939e-06
-1.80488e-06
-5.58316e-05
-0.000128096
-1.05972e-05
-9.35954e-06
-1.78728e-05
-0.00025096
-6.96553e-05
1.24641e-05
5.89818e-06
-7.868e-05
-0.000171542
9.7271e-05
-5.25166e-06
1.4672e-05
0.00012265
-0.000217545
9.28427e-07
-0.000188415
-2.35253e-05
-0.000107896
-0.000160994
-0.000114295
-0.000130594
-0.000352201
7.05002e-05
1.67292e-06
-3.37076e-06
1.20361e-05
-7.66336e-05
-3.70754e-05
2.00556e-05
-8.29673e-05
0.000129033
-3.90867e-05
-0.000402334
1.03131e-05
-6.855e-05
-8.94726e-05
9.48321e-05
-4.28491e-06
-1.63526e-05
-3.18605e-05
-0.000115869
-2.30909e-05
-2.34608e-05
6.86003e-05
-0.000410929
-2.16452e-05
8.16776e-05
-0.000170402
-0.000776677
-0.000121047
-0.000109176
-0.000416852
-1.24808e-05
-0.00257786
-0.000261624
-0.000147825
1.67549e-05
3.66483e-05
0.000126412
2.82114e-05
-0.000150852
-0.000410432
-0.000420063
-0.00109787
-0.0017775
-0.000446735
-5.95134e-05
2.99326e-05
-9.11818e-07
-0.00022621
-2.24741e-05
-0.000171744
2.5389e-05
4.84785e-05
0.000152518
0.000104796
0.000104865
9.91084e-06
-6.23524e-05
3.27346e-05
0.000139964
3.69483e-05
-8.00263e-05
-4.8975e-05
-0.000456165
0.000118493
8.60775e-05
-1.11926e-05
0.000119974
0.000276633
0.000151026
5.87649e-06
0.000118374
-9.1485e-05
-0.000350803
-4.7918e-05
4.19409e-05
3.50998e-05
0.000198981
6.33578e-05
0.000101853
-1.56487e-05
-1.98884e-06
-7.45058e-05
5.03502e-05
4.05146e-05
-8.65418e-06
3.79839e-05
0.000155082
0.000191016
1.79954e-05
1.63143e-05
7.22158e-05
3.43415e-05
4.29764e-06
3.45091e-06
-2.0267e-05
0.000191148
0.000160074
0.000122892
0.000242504
0.000200573
0.000189209
0.000124737
0.000232889
3.95116e-05
0.000199932
0.000177758
0.000210031
9.23711e-05
0.000246661
6.99964e-05
0.000208336
-7.96989e-05
3.49776e-06
-7.65253e-05
-3.21186e-05
-8.75704e-05
4.75388e-07
-4.28752e-06
0.000261447
8.27364e-06
1.23198e-05
-0.000799903
-9.8766e-05
-4.67647e-05
-6.61402e-05
-0.000217103
-6.18256e-05
-0.000180771
0.000318174
-5.51025e-05
-5.00276e-05
-0.000121923
1.22146e-05
-2.5374e-05
-8.33274e-05
-0.00103408
-2.01948e-05
-0.000842786
-0.00079553
-6.85235e-05
-8.59553e-05
5.25069e-05
1.12212e-05
-1.85277e-05
3.15328e-05
-1.13647e-05
-3.69891e-05
1.12581e-05
-0.00029332
-2.67938e-05
9.81531e-05
-3.05909e-05
5.87921e-05
3.22298e-05
2.69822e-05
-3.94115e-05
-8.63306e-06
0.000126529
0.000141151
0.000133986
4.32845e-05
3.49308e-05
-7.30863e-05
-4.0972e-05
-0.000900746
8.14487e-05
8.95322e-05
3.86472e-06
-0.000143973
-0.000198373
-2.71836e-05
-0.000128059
-5.77782e-05
-3.99624e-05
-1.51697e-05
-3.79001e-05
-3.87435e-05
-0.000167501
4.90096e-05
-0.00091287
-0.00022554
-3.75238e-05
0.000123251
-8.29652e-05
-2.67587e-05
-9.17668e-05
4.25395e-05
-1.2222e-05
-1.91837e-05
-3.07276e-05
7.85522e-06
-1.63447e-05
-0.000139764
-1.27103e-05
7.95101e-06
-3.79144e-06
-0.000493824
-9.76768e-06
-0.000115147
1.12165e-05
-2.87325e-06
3.03461e-05
-2.4022e-05
-2.32179e-05
-2.94974e-05
-0.000319155
-0.00509973
-0.0094221
-0.00469742
-8.25334e-06
3.56039e-05
-2.41604e-05
-2.83683e-05
1.67119e-05
-4.24071e-06
-4.97914e-05
-3.20745e-05
-4.51798e-05
1.83482e-06
-8.31067e-05
1.9236e-05
-7.73761e-05
5.00875e-06
-0.000130931
4.75446e-05
-2.36835e-05
-8.08621e-06
-0.00021167
-4.01113e-05
-0.000450971
-1.57373e-05
9.24197e-05
-0.000571509
4.02617e-05
-0.00380718
0.000122561
6.83997e-05
-8.00491e-05
7.43934e-06
1.00773e-05
-3.75311e-05
-2.70356e-05
-3.4753e-05
-1.45115e-05
-7.84373e-05
-3.787e-05
-0.000118775
-0.000301069
-8.49797e-05
-0.000159677
2.91673e-05
1.52785e-05
1.15956e-05
7.03646e-06
2.72588e-05
2.774e-05
1.72704e-05
-7.4912e-05
3.20667e-05
-3.60803e-06
2.72614e-05
-1.79223e-05
-0.000156936
-2.87678e-05
-2.01931e-05
-7.5716e-05
6.5916e-05
-4.39427e-06
-6.09927e-05
-5.06803e-07
-1.20597e-05
5.42421e-05
-7.93237e-06
3.44089e-05
0.000150007
0.000129474
2.32688e-05
0.000138461
-0.000117283
-0.00168032
-0.0011195
0.000100135
0.000263219
-4.31301e-05
-1.55234e-05
-4.42657e-06
-0.000120686
-0.000293791
-5.06957e-05
-0.000117423
1.82863e-07
-1.54923e-05
-8.3804e-06
2.12928e-05
-1.74872e-05
-0.000163056
-8.45109e-05
5.91164e-05
-9.85472e-05
1.47305e-05
-0.000114739
-0.000134759
2.82693e-05
5.56097e-05
-1.19678e-05
4.16454e-05
1.09874e-05
2.89963e-05
-1.18809e-05
5.35772e-08
2.58358e-05
2.98825e-05
-0.000610541
-3.21252e-05
3.18004e-05
-0.000190815
-7.13492e-05
1.47786e-05
5.86736e-05
8.04013e-05
-1.97055e-05
7.23062e-05
-9.22196e-05
6.95107e-06
-9.97558e-05
3.79225e-05
-0.000239611
-0.000514557
-0.00044885
-0.000288649
-2.44008e-05
2.74192e-05
-7.07747e-05
-2.90366e-05
-2.11554e-05
-0.000211191
-0.000180847
-2.03017e-05
-0.000142498
-0.000245007
-0.000754533
-0.0009016
-0.000220162
-0.000421958
-0.000771931
0.000327782
0.000252383
0.000191943
0.000480475
8.49789e-05
2.32463e-05
-0.000378296
-2.21259e-05
-0.000587056
-4.49026e-05
-1.31162e-06
-0.00328059
-0.00280073
-0.000380309
-0.00276622
2.8896e-05
-0.000261385
5.03866e-06
1.37611e-05
-8.51505e-06
7.4984e-06
4.22807e-05
4.66418e-05
-8.29986e-06
7.53918e-05
2.21016e-05
-1.68074e-05
0.000127879
3.94451e-05
3.78156e-05
4.37646e-05
5.64674e-05
3.96122e-05
-4.56386e-05
-1.34197e-05
-0.000141852
1.72828e-05
-9.61854e-05
3.91648e-05
2.60735e-05
-2.77343e-05
-0.000578813
3.24005e-05
-2.85403e-05
9.39133e-05
1.80003e-05
-6.08263e-05
-6.41114e-05
-0.000107698
-3.36568e-05
-6.998e-05
-9.0842e-06
-0.000240785
-7.64418e-05
-0.000116399
-7.19541e-05
-0.000377213
-5.01896e-05
-0.000171484
-0.000128841
-1.61437e-06
3.40386e-05
4.86073e-06
1.86159e-05
2.72852e-05
1.15382e-05
8.87357e-05
5.07934e-05
2.9549e-05
5.98993e-06
-0.000115622
6.9882e-05
-9.11073e-06
4.02608e-05
8.09424e-06
2.05584e-05
4.04856e-05
1.3895e-05
2.39174e-05
6.15057e-05
7.74502e-05
6.26255e-05
5.12091e-05
5.09761e-05
-5.56025e-06
3.15627e-05
6.59271e-05
-2.70604e-05
-9.62918e-05
-3.53243e-05
-2.35472e-05
1.11572e-05
1.10909e-05
5.50336e-05
4.21594e-05
1.99348e-05
-5.48644e-05
-2.43008e-05
-2.42204e-05
4.78748e-05
4.91858e-05
-2.19975e-05
6.64186e-05
3.06014e-05
5.67193e-05
-0.000230377
4.98076e-05
4.76463e-06
7.668e-07
5.26121e-05
-9.99688e-05
5.70002e-05
2.64408e-05
-1.90499e-05
8.41789e-05
0.000909331
0.000254795
-0.00122221
0.000212999
3.45598e-05
-0.00114145
0.000991285
-0.00112378
-0.000122153
-0.000640168
-0.000248905
-0.00151227
6.24432e-05
9.97218e-06
-0.00019815
-0.000590042
3.86924e-05
-0.00123751
-0.00012576
-0.000149146
-0.00027538
-9.7609e-05
-0.000130123
-0.000237599
-3.46176e-05
-0.000373551
-8.59613e-05
-0.00016149
-0.000625994
0.0011648
0.000325777
-2.53737e-05
0.000480029
0.00025361
-1.22418e-05
-0.0003106
4.56999e-05
-0.000162891
-0.000529456
-0.00139639
0.000208788
-0.000397867
-0.000878436
-6.82668e-05
-3.09406e-05
-0.00037133
-0.00043852
-0.00103353
-0.000125149
-0.000202544
-0.000417656
-0.000316426
-0.000190784
-3.4265e-05
-0.00056589
-0.000555635
0.00106631
-3.90177e-06
-0.000720741
-0.000419786
5.35887e-06
-0.000220637
-5.34413e-05
-0.000386498
-0.000329533
-1.98788e-05
-0.000448116
-0.000220728
-0.000696374
-0.000354829
-0.00114723
-0.000479289
-0.000178178
-0.000568632
-0.000812845
-0.000657809
-0.000552198
-0.000329514
-5.73603e-05
-0.000101171
-0.000407218
0.00112845
3.89845e-05
-0.000568903
7.93743e-05
-0.000131572
-0.00040666
-0.00021532
-0.000247397
-0.000348441
-0.000206039
-0.000286605
-0.000314131
-0.000757603
0.000180568
4.55695e-05
-6.22799e-05
-0.000449746
8.70249e-05
-0.000396245
-0.000280375
0.000118032
-0.000211131
-0.00023752
-6.29679e-05
0.000330763
-0.000366311
-5.53489e-05
0.000503206
-0.000549064
9.52417e-05
2.99321e-05
-0.000191646
-0.00019834
-0.000515768
-0.000629473
-0.000805625
0.000362571
0.000103687
0.000238466
0.000543112
8.90627e-05
0.000130462
0.000426779
-0.000168857
-0.00022456
-0.00016401
-0.000131626
-0.000753114
-0.000311019
-0.000306368
-0.000259915
-0.000395853
0.000784986
0.000203916
-0.000101234
-0.000325507
-0.000241605
-0.000347739
-0.000268309
-0.000669955
-0.000120943
-0.000574462
-0.000417469
0.000215699
9.50753e-05
-0.00014917
-0.000909003
0.000386818
-0.000126644
-3.74447e-05
-0.000301893
-5.36708e-05
-0.000111011
-0.000371024
-0.000133885
-0.000259455
-0.000339169
-9.81441e-05
0.000114265
-0.000496205
0.00139105
0.00032794
-0.000152277
-0.000218321
0.000357132
8.32167e-05
-0.000219568
-0.000132815
-9.18744e-05
-0.000682135
-0.000135458
-0.000349549
-0.000105511
-0.000234288
-0.000118604
-0.000118386
-0.00113701
-0.000885934
-0.000749915
-0.00102309
-0.000348012
-0.00107684
-0.00214467
-0.000474234
-0.000215453
-0.00265929
-0.000267768
-0.000220776
-0.000790264
-0.00241572
-0.00109472
-0.0029576
-0.00093099
-0.000596165
-0.00362405
-0.000921103
0.00077411
6.47654e-06
-0.00103471
-6.7884e-05
-0.00170837
-0.00167312
-0.000439359
-0.0017388
-0.000785187
-2.85851e-05
-0.00267242
-0.000739112
0.000883005
0.000215017
-0.00206805
3.80555e-05
-0.000417785
-0.00209599
-0.000591012
0.00019996
-9.46743e-06
-0.000596921
0.000518146
-6.63385e-05
-0.00247991
-0.000566629
0.000689117
-0.000182231
-0.00163912
0.000245943
-0.00041771
-0.00325182
-5.1314e-05
-0.000363325
-0.000304997
-0.000747335
-0.000232787
0.00016219
-0.000516336
-0.000121001
-0.000700615
-0.000983011
-0.000605617
-0.000904939
-4.88082e-05
-0.000112999
-0.000817721
3.86087e-05
0.000212823
-0.0011174
-0.000282373
-0.000335573
-3.86943e-05
0.000222633
0.000152186
0.000153742
-0.000591561
-0.00051404
0.000537651
-0.000217003
-0.00163909
0.000321449
-0.000216095
-0.000240284
-0.000566775
-2.37983e-05
0.000476055
-0.00127942
0.000794113
-0.000533131
-0.000858978
-0.00039576
0.000694632
0.000497798
-0.00143587
0.000247649
-0.000535869
-0.00154537
-0.000563118
0.000728796
9.48657e-05
-0.000891041
9.20787e-05
-0.000577621
-0.00158943
8.9859e-05
5.42497e-05
-0.00021025
-0.000338483
2.02405e-05
-0.000171707
0.00118174
0.000185756
9.07041e-06
-0.000198305
-0.000105716
1.41456e-05
4.60246e-05
-0.000219868
-0.000447258
-9.27964e-05
-0.000476754
0.00126046
-0.000682499
0.000381032
-0.00017004
-0.000176221
-0.00220606
-0.00086229
-0.00238372
0.000225684
0.00011063
-0.00270406
0.000948946
-0.000210721
-0.000107529
-0.000388836
-0.000929866
-0.00208009
-0.00102614
-0.00328069
0.000568747
0.00015296
-0.0021569
-0.000356323
-0.00327609
-0.000746999
-0.00142585
0.000383974
0.000454279
-0.00189491
-0.000440783
-0.00118905
-0.00116035
-1.30091e-05
-0.000412665
-0.00218137
-5.5503e-05
-0.000834663
-0.000347773
-0.00128916
-0.000655909
-0.000360548
-0.00107389
-0.000849912
-0.000248015
-0.00311002
0.000528386
0.00153585
0.00059471
0.0014928
0.00107718
0.00160147
-0.000132139
-0.000994012
0.0021436
0.000471228
-0.000792044
-0.00116966
-0.000943279
0.00118955
0.00119017
-0.00182983
9.23745e-05
0.000140526
0.00100557
0.000419066
0.000114505
0.000281049
0.00126929
0.000297737
0.000871148
0.000792895
0.000748942
-0.000135913
-0.000642689
0.000862055
0.000284196
-0.000817535
0.000333764
0.0012032
0.00036415
0.000952763
0.00076705
0.000522495
0.000541302
0.000768435
0.000547845
-0.000168487
0.000301791
0.0012214
0.000304403
0.000709351
0.000859443
0.000955412
-0.00095652
-0.000375845
0.000902913
0.000535588
-0.000972581
0.000402218
0.000181906
0.00153211
0.000502958
-5.44804e-05
-0.000470548
-0.000113526
0.00225247
0.000511866
-5.56102e-05
0.00041117
0.000382952
0.000411173
0.000246275
0.000550271
-0.000627851
0.000684861
0.000167086
0.000385101
0.000782231
0.000755903
-2.90129e-05
-0.000188893
0.000490903
0.000302391
7.24331e-05
0.000592546
0.000826228
-0.000193933
0.000866348
-1.67748e-05
0.000122768
0.000346145
0.000553303
-0.00137902
0.000409294
-0.000837635
-0.000666922
0.000306972
0.000982188
-0.000994697
0.00154875
0.000256196
0.000766641
0.00173451
0.00127717
-0.000270497
0.00123912
-0.000130355
0.000250349
0.00167858
0.0010468
-0.00109631
0.00091461
-0.000509391
-7.45743e-05
0.00123782
0.00100875
-0.00133579
0.000946245
0.00041564
0.000363563
0.00100105
0.00082018
-0.000706352
0.000441586
0.00154424
0.000476387
0.00158289
0.00112651
0.00143463
0.000219263
-0.000102087
0.00162973
0.000340037
0.000700267
-0.000259894
0.000336
0.000936135
0.000254549
-0.000416299
-0.00081802
0.000119768
0.000438913
0.000420583
0.000657862
0.000493447
-0.000359815
-0.000668051
-0.00447303
-0.00101836
-0.00163804
0.000418547
0.000264241
-0.00212403
0.000366511
0.00135047
0.000384974
0.00134166
0.000988235
0.000132806
-0.000733319
-0.000953908
0.000949655
0.000538164
-0.0010338
0.000381082
0.00115931
0.000429959
0.00105786
0.0007277
-0.000745031
-0.00128667
0.00137863
0.00101735
-0.00337589
-0.0028389
-0.000215458
-0.00135691
0.000190738
0.000216062
0.000145978
-0.000954744
0.000189782
0.000491645
-0.0011364
-0.000220556
-0.00121808
0.000792485
0.000337562
-0.000287886
-7.11392e-05
-0.000672055
7.23544e-07
-0.000770007
-0.000573251
-0.00147363
-0.00046884
-0.000547657
-0.00174741
-0.000460695
-0.000743153
0.000369736
-0.00295654
1.70511e-05
-0.000564183
-0.000372855
-0.00110373
-0.000468823
-0.000454743
-0.00097774
-0.000101693
-9.89436e-05
-1.71966e-05
-0.00272787
-0.00014518
-0.00112445
-0.000441944
-0.00153822
-0.000961001
0.000487206
0.000298732
-0.000174445
-8.33413e-05
-0.000684241
-0.000955749
-0.000923764
-0.00117427
-0.00125744
-0.000100462
-0.00231611
-0.000184173
-0.00175669
-0.000628443
-0.00258729
-0.00130644
-6.03357e-05
0.000587472
0.00032
0.000354854
-0.000313219
0.000162495
-0.000780667
-0.00165798
-0.000781341
-0.00363129
-0.000335476
-0.00131258
0.000926262
-0.000202003
-0.000485981
0.000789582
0.00025855
0.000630764
-0.000548112
-6.6473e-05
-8.22065e-05
-8.70221e-05
0.000588764
0.000908731
0.000435915
-0.00146003
0.000255962
-0.000797686
0.000221939
-0.000580052
0.000231683
-0.000195203
0.000180393
-8.22717e-05
-0.000926537
-0.0013129
-0.000167254
-9.62435e-05
-0.00190351
3.3216e-05
0.000311039
0.000393834
-0.000151716
6.38008e-05
3.48923e-06
-0.000527227
0.000152246
0.000843281
0.000357351
-9.25019e-05
0.000370051
-6.10724e-05
-0.00160204
6.31811e-05
0.000653422
0.000418742
-0.000199523
0.00021423
0.000225239
-0.000729178
0.000628931
0.000576454
-0.000343874
-0.000140452
-0.000655619
0.000504745
1.45473e-05
0.00030202
-0.00013655
0.000524285
-0.00130807
-0.000301321
0.00040278
0.000271783
6.06809e-05
0.000140327
7.67336e-06
-0.00108005
0.000294297
0.000369137
0.000358616
0.000490083
0.000215145
0.000197907
-0.000503244
3.42539e-05
0.000435007
0.000472814
-0.000623008
0.000290474
9.98244e-05
-0.000954365
0.00119172
0.000308977
0.000166755
0.00046791
0.000354531
0.000219957
-0.000241545
0.000261842
0.000593897
0.000257934
-0.000821008
0.000573817
0.0003759
-0.000255738
0.000270733
4.94155e-05
0.000640318
0.000634685
0.000341479
-0.00156621
0.0011295
0.000271413
2.02453e-05
0.000744531
0.000912062
-0.00141862
0.000991406
0.000460038
0.000230612
0.000337755
-9.18636e-05
-0.000183016
-0.000103722
-0.00148754
-0.000623697
-0.00228629
-0.000580736
-0.000526502
-0.00053351
-0.000266679
0.000140567
-3.93521e-05
-0.00107308
-0.000407355
-0.00204793
-0.000787119
-0.0027231
-0.00164974
0.000590717
0.000376666
-0.00150529
-2.66685e-05
8.10765e-05
-0.000397255
-0.00155239
-0.000791305
-0.00215375
-0.00115757
0.000411911
0.000639641
-0.000919971
-0.000112753
-0.000812643
1.21429e-06
-0.000886959
-0.000466957
-0.00255431
-0.000572207
0.000433174
0.000152663
-0.00201278
-0.000478393
-0.000192846
-0.000234912
-6.23811e-06
-0.000598378
-0.000170034
-0.0013422
-0.000261682
-0.000380459
-0.000188095
-0.000137442
-0.000996687
-0.000207223
-0.000849934
-1.20542e-05
-0.000392122
-0.000171133
-0.00089009
-6.69569e-05
-0.000192619
9.17038e-05
-0.00137853
-0.000685622
-9.39769e-05
-0.000751201
5.65359e-05
-0.000345908
-0.000220842
-0.000936687
-7.4085e-05
0.00119176
0.00045609
-0.000137154
-3.56149e-05
-1.61477e-05
8.30154e-05
5.43749e-05
0.000248643
0.000270079
-0.00219888
-7.20299e-05
-0.000132718
-0.000165752
-7.39173e-05
-0.0016687
-0.000735216
-0.00246721
-0.000993495
-0.000239687
-2.25336e-05
-0.00259376
4.26376e-05
0.00027146
-0.00103405
-2.12339e-06
-0.000939733
-0.000272739
-0.00163543
-0.000485836
-0.000212224
0.000480918
0.000152732
0.000319173
-1.50855e-05
-0.000542196
-7.46784e-06
-0.00142572
-0.00041283
-0.0025828
-0.000725675
2.80805e-05
8.5119e-05
0.000216778
0.000647175
6.12719e-05
-0.000672226
-0.000174967
-0.000905255
-0.000417004
-0.0014873
-0.00077153
-0.000322314
0.000706266
0.000178872
0.000175935
-0.000307457
5.33297e-05
0.0001351
0.000213946
-0.000187199
-0.000925931
0.000331002
0.00075762
1.2131e-05
-0.000801793
-0.000520139
2.91364e-05
-0.000359687
0.000325053
0.00127588
0.000358296
0.00116721
0.00098966
0.00109047
0.000652883
-0.000629905
0.001532
0.000186272
-0.000454118
-2.54582e-05
-0.000271492
-0.000130025
-0.000816489
-9.79054e-05
0.000577622
-0.000179851
0.000277109
6.6408e-05
-0.000298533
-8.67528e-05
0.00053152
0.000115669
9.61371e-05
0.000276335
8.1155e-05
-0.00056332
0.00134536
6.20886e-05
0.000194271
0.000502292
-0.000247008
-0.000664502
0.000181151
0.000286276
0.00011197
-0.000419263
0.000188782
-1.36388e-05
-0.000501956
-7.29899e-05
-0.000676186
1.83427e-05
0.000201372
6.87688e-05
0.000114225
4.11963e-05
-0.000152314
5.14693e-05
3.21057e-05
-0.00024376
0.000128408
-0.000194398
-0.000179042
-0.000538801
0.000153056
0.00107541
0.000242717
-0.000332248
-0.000251095
-0.000283563
0.000172135
0.000559267
0.000150162
0.000263252
0.000191151
0.000199159
0.000299848
-2.58812e-05
-0.000213847
0.000211406
-0.00140378
0.00131015
0.000347953
0.00017768
0.000508808
0.000705401
0.000401562
-0.000341039
0.000781673
0.000310468
0.000256078
7.83375e-05
0.000288814
0.000493149
-0.000890592
0.000442313
0.000340785
0.000499954
-0.00037198
0.000687211
-4.62145e-05
1.00274e-05
0.000745401
-0.000149131
-0.000349142
0.000357739
0.000338597
-9.05163e-05
9.79762e-05
-0.000122296
0.000144424
0.000273539
0.000311341
-0.000271706
0.00149554
8.36997e-05
0.000287777
0.000297288
-7.23533e-05
-0.00058359
0.000148745
0.000497614
0.000519671
0.000454879
0.000424207
-0.000259628
0.000766114
5.34109e-05
9.3706e-05
0.000318191
0.000499208
0.000235677
-0.00052085
3.24751e-05
-0.000180722
-6.41205e-05
-0.000468908
-0.000112328
0.00153477
0.00024713
0.000244677
7.35474e-05
-0.000108029
-2.0523e-05
0.000242323
0.000215672
-0.000427019
-1.99827e-05
0.000374403
6.00713e-05
0.000581069
0.000512491
0.000538994
0.000427429
0.000740947
0.000493476
-0.000265105
0.00121032
0.00105863
0.00048422
0.000622427
0.000220717
0.000194948
0.001938
0.000228258
0.000138102
0.000801712
-0.000392266
6.44424e-05
-0.000412392
-0.000474187
-0.00115121
-0.00373936
-6.49359e-05
-0.00164306
-0.000693925
-0.000341949
-0.00138038
-0.000567888
-0.00137235
0.000420911
0.000120087
-8.61834e-05
-0.00228402
-4.04794e-05
-0.000647262
-0.000151089
-6.0136e-05
-0.000905461
-0.000101674
-0.00129212
0.000464458
-0.000265197
0.000578336
0.000455009
0.00024054
0.000331145
0.000632999
0.000268028
0.000327967
-0.000454989
0.000527068
8.41439e-05
5.90187e-05
-0.00176568
9.25284e-05
-0.000445368
-0.00223976
0.000148222
-0.00195732
-0.000743638
-0.000420817
-0.000640136
-0.000417779
-0.000392901
-5.54939e-05
-0.000667119
0.000205848
-0.000973418
0.000401868
0.000438589
-0.00163676
-0.000744207
-0.000416291
-0.000150711
-0.000483649
-0.00197283
0.000154718
-0.000961111
-0.000589637
-0.0002152
-0.00112077
0.000208708
-0.000135889
-7.59345e-05
-8.68324e-05
-0.000750775
0.000637755
-0.00104994
0.000123151
-0.000134607
0.000742904
0.000751125
-0.00019412
0.000415215
0.000726101
0.00085755
0.000612165
-3.48851e-05
0.000543
0.000250346
0.000205494
0.000321287
-2.54744e-06
0.000661404
-0.00486739
0.00019675
0.000297681
0.000282996
0.000417984
-0.000705206
0.000519664
-0.000698306
8.18006e-05
-0.000337524
-0.00025913
-1.22374e-05
-0.0019048
0.000246276
-0.000467138
-0.000368717
-4.56251e-05
-0.00093873
-3.64162e-05
-0.000112663
-0.00167709
-2.14319e-05
-0.00257343
-0.00175772
-0.00116855
-0.000150147
0.000193233
-0.00171921
-0.0013261
-0.00132542
-0.000998928
-0.0013461
-3.08363e-05
2.23685e-05
9.51064e-05
0.00128885
0.000424793
0.00173889
-0.00145869
-0.002002
0.00177856
0.00212168
0.00221208
-0.00137265
0.00146146
-0.000913845
-0.000932876
-0.000630793
0.000182202
-0.000160408
-0.000533017
1.63359e-05
-0.00015217
0.00037469
0.000217087
-0.000897198
0.000461446
-0.000193927
0.000370357
-0.000801665
0.000111885
0.000471628
0.000246678
0.000134274
-0.000369043
0.000291878
0.000113611
-0.000597411
0.000283938
8.36804e-05
4.99192e-05
-0.000787633
-0.000727548
-0.000286219
-0.00077588
-8.07582e-05
-0.00101049
-0.000233672
0.000168166
-0.000677761
6.04698e-05
2.10443e-05
-0.00041888
0.0003096
-0.000686181
0.000142428
0.000617624
-6.72817e-05
0.000258048
0.000381532
0.0002872
5.70589e-06
-0.000524364
0.000183182
0.000111019
-1.30751e-05
-0.000575481
-0.000375081
-0.00225932
-0.000472188
-0.00133073
1.33855e-05
0.000442299
-0.0011874
-0.00126894
0.000211764
6.48675e-05
-1.32906e-05
0.000103677
0.000214193
-0.000266829
-9.75989e-05
9.3829e-05
0.000290025
0.000284288
0.000232063
0.000304888
0.0002856
0.0001895
-6.99244e-05
-5.16229e-05
9.62022e-06
-7.24265e-06
0.00016242
2.44664e-05
-8.81254e-05
-8.1603e-06
8.07213e-05
-0.000311369
-0.000238018
-9.76551e-05
-6.7165e-05
-0.000191421
-0.000361377
8.95251e-05
-0.000166232
-1.20657e-05
4.91492e-05
-7.36779e-05
6.04135e-05
-6.75819e-05
0.000143995
-0.000157035
0.000246643
0.000142786
-1.56139e-05
-0.000201918
-9.03548e-05
-0.000323724
-0.000133188
-0.00014279
-0.000150197
-0.000850734
-0.000314626
-2.65594e-05
0.00029116
0.000435751
7.1868e-05
-0.000127758
9.06588e-05
1.18745e-05
-0.000348876
-0.000130121
-0.000331389
-0.000156427
-0.000263932
-5.48372e-05
-0.000363387
-0.000625066
-0.000530384
-0.000123113
0.000191124
8.82684e-05
7.41389e-05
1.10077e-05
-0.000382313
-0.000206716
-0.000281612
-0.000224654
-0.000359949
-0.000235592
-0.00029656
-3.14952e-05
-4.7008e-05
-7.76985e-05
-0.000209661
-7.60186e-05
-0.000295878
-0.000289111
-0.000196896
-0.000140843
-0.000429068
0.000320197
-0.000127711
1.8163e-05
-3.50348e-07
-2.98379e-05
-2.28492e-05
-1.33827e-05
4.75291e-06
8.05062e-07
-4.85861e-05
-0.000350115
1.76405e-05
-7.81955e-05
-0.000297717
-3.67735e-05
-0.000236232
-0.000202374
-9.12332e-05
-0.000646821
-0.000264694
2.02235e-05
0.000587219
0.0004546
-0.000274706
-0.000444553
-0.000432122
-0.000362078
-0.00012606
-9.11813e-05
-0.000184436
-0.000227328
-0.000257524
-0.000275547
-0.000798294
-0.000639105
0.000261487
-0.00053512
-0.000205385
-0.000110485
4.68598e-06
3.49836e-05
5.11224e-05
5.54321e-05
-4.70928e-05
-0.000174582
0.000845243
7.27775e-05
7.4968e-05
-9.60496e-05
-0.000375446
2.40072e-05
2.0467e-06
7.334e-05
5.75947e-06
0.000235786
-2.88021e-07
4.38201e-05
4.01325e-05
2.69161e-05
5.27487e-05
0.000423068
4.3831e-05
-0.000143501
-2.79998e-05
-1.7338e-05
-0.000125496
-4.95043e-05
-8.80046e-06
-5.84959e-05
-5.77719e-05
-1.04859e-05
-2.45418e-05
5.45805e-06
-9.58005e-05
2.77218e-05
0.000198057
1.99731e-05
0.000102298
1.21774e-05
0.000232469
4.94373e-06
7.40217e-05
0.000208258
-5.19848e-05
-1.57662e-05
-2.97121e-05
2.12717e-05
1.07738e-05
1.42858e-05
8.26385e-05
2.53562e-05
-1.00295e-05
-9.62805e-05
0.000126505
2.73185e-07
-0.000146549
-2.37233e-05
5.92872e-06
-0.000157209
-6.80664e-05
-3.68053e-05
-7.44912e-07
-4.40592e-05
1.78887e-05
1.7974e-05
-2.26019e-05
-4.11758e-06
-2.18954e-05
-2.60765e-05
9.19645e-05
2.01349e-06
-3.06349e-07
-5.00634e-05
-0.000397908
-0.000250193
-4.95831e-05
-8.95881e-05
-2.65133e-05
7.00584e-05
8.07372e-06
-0.00017974
2.43045e-05
-2.04717e-05
7.91799e-05
5.65027e-05
6.805e-05
0.000142625
0.000242899
2.33963e-05
5.1164e-05
0.000117968
8.55692e-05
6.46248e-06
1.11327e-05
9.23527e-05
4.64223e-06
-5.37283e-05
-8.59272e-05
3.37267e-05
-3.53633e-05
6.10503e-05
-3.10218e-05
0.000135449
0.000145919
0.000132623
0.000119408
0.000132358
4.33564e-06
-9.92777e-05
9.10343e-06
3.84749e-05
5.35174e-05
4.63202e-05
4.18759e-05
0.000228943
0.000113316
9.40602e-05
-5.78464e-06
0.000182761
2.49364e-06
3.31186e-05
2.49462e-06
6.41779e-05
0.000113771
9.08419e-05
9.62297e-05
0.00020604
0.000138154
4.27455e-05
7.37958e-05
0.000156266
0.000181928
0.000130024
-2.20502e-05
2.099e-06
-1.35399e-05
-6.68101e-05
7.22704e-05
-2.96877e-06
8.69919e-05
-2.91231e-05
4.62779e-06
-5.01591e-05
-0.000335888
-3.37197e-06
-0.000218898
-0.000263535
-3.38586e-05
-0.000233374
-2.83156e-06
-5.58449e-05
-2.52871e-05
-0.000148103
-6.97556e-05
-0.000162105
-2.54269e-05
-4.12207e-05
-3.15655e-05
-2.7744e-05
-0.00014198
-0.000217299
6.4292e-05
4.94343e-06
0.000124471
3.56655e-05
0.000108041
-0.000123763
4.10007e-05
0.000147155
1.60306e-05
-4.56328e-06
-2.32792e-05
7.15731e-05
-3.31664e-05
0.000105305
5.68931e-06
-0.000325003
-0.000475983
-0.000343053
0.000114255
-2.02583e-05
-9.40965e-05
-7.90964e-05
5.39195e-05
-5.00654e-05
-0.000141913
-0.000108899
-6.22686e-05
3.11117e-05
-0.000151982
-8.84285e-05
-7.72969e-05
-4.96701e-05
-5.62091e-05
-2.12778e-05
-0.000189081
-3.59424e-05
2.59486e-06
6.86398e-05
-2.94441e-06
-0.000105992
-6.62313e-05
9.33032e-05
-1.92733e-07
2.29764e-06
-1.29686e-05
-7.09873e-05
1.05446e-06
-6.48104e-06
-2.59408e-06
-0.000152655
-2.84074e-05
1.50167e-05
6.43239e-06
-7.28605e-05
-9.47711e-05
0.000109102
5.74518e-06
1.5717e-05
0.000121739
-0.000143272
3.17189e-06
-0.000152093
-1.28594e-05
-6.76878e-05
-0.000115395
-6.48171e-05
-5.49014e-05
-0.000232037
9.44853e-05
1.25959e-06
-2.33114e-07
1.82619e-05
-6.95792e-05
-3.64339e-05
2.37376e-05
-5.0395e-05
0.000129077
-2.02843e-05
-0.000260823
1.27226e-05
-3.24791e-05
-6.95971e-05
0.000102284
3.22397e-05
-1.09211e-05
-1.87366e-05
-8.92623e-05
-3.02353e-07
-2.94625e-05
6.24523e-05
-0.000287031
-1.48507e-05
8.56061e-05
-0.000101404
-0.00051073
-7.79191e-05
-7.22484e-05
-0.00027065
-1.05249e-05
-0.00176823
-0.000169359
-0.000115008
4.52667e-05
3.39018e-05
0.000119531
2.69471e-05
-0.000105964
-0.000287479
-0.000293966
-0.00075763
-0.00122433
-0.000307899
-4.44426e-05
5.46292e-05
-3.23934e-06
-0.000145227
-2.86436e-05
-0.000120201
1.91076e-05
2.92981e-05
0.000143215
0.000101835
9.78282e-05
8.75717e-06
-6.03897e-05
3.3294e-05
0.000126489
3.37558e-05
-3.77217e-05
-5.00706e-05
-0.000265443
0.000109012
9.12421e-05
-5.54486e-06
0.000100943
0.000260854
0.000132653
4.96911e-06
0.000126427
-8.87256e-05
-0.000284645
-4.81583e-05
4.28344e-05
6.66832e-05
0.000211033
7.53535e-05
0.000101696
-1.07048e-05
9.77971e-06
-7.11115e-05
3.70521e-05
4.34131e-05
-6.09624e-06
4.03221e-05
0.000149122
0.00019428
1.73809e-05
1.50584e-05
7.05607e-05
3.81468e-05
9.58901e-06
1.59345e-06
-1.0391e-05
0.000215816
0.000181069
0.00011592
0.000241669
0.000184515
0.000184924
0.000115504
0.000233174
3.74542e-05
0.000192816
0.000165868
0.000201066
8.60606e-05
0.0002401
6.38095e-05
0.000202279
-6.83324e-05
4.31592e-06
-4.67782e-05
-2.87617e-05
-8.44692e-05
1.28662e-06
-3.92664e-06
0.000197319
7.87438e-06
1.60388e-05
-0.000550518
-9.45355e-05
-4.86492e-05
-6.3863e-05
-0.00014797
-5.10279e-05
-0.000181791
0.000241796
-4.93615e-05
-4.55359e-05
-8.88379e-05
1.74774e-05
-6.46328e-06
-5.2941e-05
-0.000705293
-1.98154e-05
-0.000585344
-0.000553649
-5.16254e-05
-6.25458e-05
3.2095e-05
5.52426e-06
-1.25908e-05
3.0501e-05
-7.71248e-06
-2.50912e-05
1.49053e-05
-0.000114119
-1.53442e-05
0.000168658
-1.72868e-06
8.87079e-05
8.96672e-05
5.03797e-05
-1.89931e-05
1.08394e-05
0.000143744
0.000157296
0.000160571
7.13641e-05
5.18185e-05
-6.44554e-05
-1.95117e-06
-0.000593343
0.000120554
0.000107714
1.26174e-05
-0.000120985
-0.000164894
-2.39733e-05
-7.21023e-05
-1.5143e-05
-1.28635e-07
-5.19199e-06
-1.67777e-05
-2.15423e-05
-0.000113572
5.18351e-05
-0.000618332
-0.000149317
-1.803e-05
0.00010696
-5.25189e-05
-2.12113e-05
-6.55738e-05
3.83963e-05
-1.36504e-05
-1.50197e-05
-3.1119e-05
7.05037e-06
-1.05629e-05
-9.41512e-05
-1.87531e-05
4.09934e-06
5.93654e-06
-0.000328393
-2.09167e-05
-7.81577e-05
5.53132e-06
-2.62354e-06
2.58308e-05
-1.92079e-05
-1.98088e-05
-3.19278e-05
-0.000219017
-0.00347875
-0.00641193
-0.00320689
-3.13752e-05
1.35884e-05
-5.41701e-05
-3.26152e-05
1.50607e-05
-4.0053e-06
-5.0876e-05
-4.99646e-05
-3.71074e-05
2.31195e-06
-8.15535e-05
1.61302e-05
-8.5106e-05
-8.26456e-06
-9.06366e-05
3.82753e-05
-2.3729e-05
-3.28106e-06
-0.000126001
-1.77503e-05
-0.000299821
-2.88002e-05
7.18815e-05
-0.000369367
3.53188e-05
-0.00259018
8.33391e-05
5.61819e-05
-5.61583e-05
1.03249e-05
7.73683e-06
-2.59009e-05
-1.86245e-05
-3.65108e-05
-9.7861e-06
-5.36672e-05
-2.63112e-05
-9.95733e-05
-0.00019412
-8.48022e-05
-0.000148274
2.90576e-05
1.28971e-05
1.2981e-05
7.78787e-06
2.45732e-05
1.48325e-05
3.99355e-06
-6.53025e-05
1.81273e-05
-1.01689e-05
1.86284e-05
-1.306e-05
-9.1314e-05
-1.41784e-05
-2.9786e-05
-9.57829e-05
5.91316e-05
-2.71479e-06
-3.8788e-05
2.3599e-06
-1.15189e-05
-6.17303e-05
-1.17369e-05
2.86857e-05
0.00010858
6.79744e-05
-7.62995e-05
5.66488e-05
-9.22346e-05
-0.00120848
-0.000804092
-1.2297e-05
0.000124073
-7.41631e-05
-1.53777e-05
-4.1192e-06
-0.000131852
-0.000285575
-6.56427e-05
-8.21862e-05
-4.24702e-05
-5.51694e-05
-4.04775e-05
-1.16598e-05
-5.59063e-05
-0.00013449
-6.68136e-05
3.09334e-05
-6.78442e-05
3.67882e-06
-9.29481e-05
-9.53986e-05
1.5598e-05
3.65288e-05
-8.46851e-06
3.0192e-05
1.23659e-05
2.73894e-05
-7.10274e-06
3.12537e-06
2.51231e-05
2.92126e-05
-0.000419953
-1.71942e-05
4.00308e-05
-0.000111949
-5.13547e-05
1.54384e-05
5.92893e-05
8.20482e-05
-1.61328e-05
7.83944e-05
-5.33753e-05
1.15075e-05
-8.15283e-05
2.38381e-05
-0.000157023
-0.000344507
-0.000301791
-0.00018602
1.38556e-06
3.608e-05
-5.14463e-05
2.32964e-05
3.48674e-05
-0.000133398
-0.000112358
-6.94231e-06
-8.72193e-05
-0.000153133
-0.000527996
-0.000619967
-0.000173064
-0.000291723
-0.000533949
0.000305496
0.000243567
0.000203993
0.000354952
8.83456e-05
1.27382e-05
-0.000263249
-1.52826e-05
-0.000383788
-3.80728e-06
3.87006e-05
-0.00228163
-0.0019367
-0.000258336
-0.00179639
2.62229e-05
-0.000171914
5.12197e-06
1.89769e-05
2.57977e-05
1.32207e-05
5.09417e-05
3.80004e-05
6.50053e-06
7.89424e-05
1.88664e-05
-3.81476e-06
0.000143673
4.23739e-05
4.74287e-05
5.11631e-05
5.21833e-05
4.46987e-05
-3.34411e-05
-8.97745e-06
-0.000104685
1.62306e-05
-6.57096e-05
5.26208e-05
2.58331e-05
-2.82562e-05
-0.000383803
2.91226e-05
-1.85902e-05
0.000101166
1.95398e-05
-4.35913e-05
-1.60846e-05
-7.46486e-05
-2.37856e-05
-4.86609e-05
-4.71831e-06
-0.000162251
-4.63526e-05
-7.84046e-05
-4.43017e-05
-0.000261805
-1.83875e-05
-0.000113376
-8.47324e-05
2.89225e-06
2.60571e-05
2.33102e-05
1.9468e-05
2.31054e-05
2.05819e-05
7.75675e-05
5.00961e-05
3.1168e-05
1.05977e-05
-7.12023e-05
6.23211e-05
-1.08088e-07
4.67781e-05
5.96784e-06
3.02197e-05
4.40868e-05
2.80838e-05
3.66437e-05
5.59503e-05
6.85074e-05
5.9053e-05
4.48392e-05
4.35011e-05
7.96572e-06
2.86607e-05
6.05428e-05
-3.47234e-06
-6.07272e-05
-1.849e-05
-1.22318e-05
1.36073e-05
1.30834e-05
4.72685e-05
3.81412e-05
1.50487e-05
-2.89639e-05
-6.15627e-06
-2.95592e-06
4.25641e-05
4.07863e-05
-1.15696e-05
5.53235e-05
3.45592e-05
4.66801e-05
-0.000152056
4.46521e-05
2.03945e-05
1.06647e-05
4.41413e-05
-5.63966e-05
5.12003e-05
2.23113e-05
-1.07468e-05
6.97964e-05
0.000646044
0.000147678
-0.000732241
-8.57447e-06
-0.000136535
-0.000743871
0.000688686
-0.000781519
-6.23096e-05
-0.000561726
-0.00024696
-0.0010126
5.85752e-05
-3.07125e-06
-0.000122697
-0.000399982
1.21062e-05
-0.000875442
-8.54886e-05
-9.47602e-05
-0.000186413
-6.47397e-05
-8.51062e-05
-0.00018758
-2.57084e-05
-0.000269943
-6.12113e-05
-0.000130624
-0.000489082
0.000866399
0.000232054
-1.63709e-05
0.000411535
4.98643e-05
-0.000193944
-0.000234825
9.87335e-06
-0.000171855
-0.000515047
-0.000939223
0.000143886
-0.000312434
-0.000653929
-4.19587e-05
-1.36551e-05
-0.000245541
-0.000283041
-0.00069306
-9.23936e-05
-0.000139972
-0.000271323
-0.000193512
-0.000136701
-4.34735e-06
-0.00041395
-0.00041033
0.000776089
-6.66575e-06
-0.000526856
-0.000273538
-0.00010691
-0.000278616
-7.57539e-05
-0.000449543
-0.000364496
-1.97163e-05
-0.000307645
-0.000152187
-0.000504326
-0.000242202
-0.000808323
-0.000367815
-0.000166927
-0.000431197
-0.000578701
-0.000430276
-0.000406435
-0.000277546
-7.80945e-05
-7.06366e-05
-0.000310351
0.000821958
0.000101379
-0.000537455
6.56186e-05
-0.000227656
-0.000408789
-0.000187976
-0.00028849
-0.00031289
-0.000169628
-0.000246218
-0.000224885
-0.000533539
0.000164451
9.05362e-05
2.35048e-06
-0.000251777
0.000102034
-0.000289006
-0.000185703
0.00014017
-8.37847e-05
-0.000161416
-7.96215e-05
0.00026959
-0.000292794
-3.29316e-05
0.000352598
-0.000283252
8.07907e-05
2.43374e-05
-0.000236151
-0.000232937
-0.000370371
-0.000517538
-0.000557243
0.000307478
9.94399e-05
0.000187512
0.00037023
8.25913e-05
9.41322e-05
0.000277914
-0.000123769
-0.000159504
-0.000105963
-8.91318e-05
-0.00055418
-0.000247638
-0.00024027
-0.000200763
-0.000341364
0.000585436
0.000154079
-7.30607e-05
-0.000209363
-0.000307486
-0.000380668
-0.000230163
-0.000535936
-0.000101468
-0.00039783
-0.000287538
0.000162327
7.56967e-05
-8.61421e-05
-0.000596508
0.000270824
-8.512e-05
-2.54165e-05
-0.000238445
-4.21611e-05
-8.60676e-05
-0.000259754
-0.000104782
-0.000246016
-0.000301297
-7.45003e-05
1.07972e-05
-0.000367721
0.00102327
0.000240721
-0.000124198
-0.000132912
0.000112853
-9.83237e-05
-0.000167603
-0.000194557
-0.000154437
-0.000627433
-0.000110683
-0.000258759
-7.57499e-05
-0.00017329
-8.76153e-05
-9.17378e-05
-0.000736222
-0.000560999
-0.000547011
-0.000660973
-0.000413255
-0.000732685
-0.00148145
-0.000276746
-0.000169238
-0.00185931
-0.000358489
-0.000180779
-0.000579095
-0.00160505
-0.000807819
-0.00197916
-0.000842831
-0.000590985
-0.00237482
-0.000708227
0.00062027
-3.94391e-06
-0.000619825
-0.000236095
-0.00113464
-0.00113887
-0.000295832
-0.00122423
-0.000424883
-0.000198994
-0.00176032
-0.000573467
0.000708991
0.000117921
-0.00132819
-0.000162567
-0.000406089
-0.00137956
-0.000465391
0.000194855
-3.33134e-05
-0.000261116
0.000191366
-0.00015617
-0.00163181
-0.000454196
0.000575728
-0.000166016
-0.00103394
-1.8364e-05
-0.000427744
-0.00213373
-1.33234e-05
-0.000242084
-0.000186529
-0.000510375
-0.000150141
8.117e-05
-0.000373228
-0.000113708
-0.00039636
-0.000616551
-0.000378144
-0.000585166
-1.85094e-05
-8.04431e-05
-0.000509152
-9.5909e-07
0.000128107
-0.000791514
-0.00015069
-0.000224944
-1.22287e-05
4.48807e-05
2.73921e-06
0.000102903
-0.000483134
-0.000519177
0.000328282
-0.000158853
-0.00116429
0.000165786
-0.000105077
-0.000128048
-0.000353355
5.9178e-05
0.000338755
-0.000768899
0.000386134
-0.000470955
-0.000570305
-0.000332162
0.000579468
0.000306382
-0.000885916
-6.02469e-06
-0.000526281
-0.00100493
-0.000457215
0.000599518
1.40699e-05
-0.000526075
-0.000123248
-0.000556031
-0.00100328
7.97626e-05
4.01244e-05
-0.000126116
-0.000212597
9.22816e-06
-0.000131922
0.000895323
0.000134502
4.45252e-05
-0.000295375
-7.95181e-05
2.57454e-05
2.98373e-05
-0.000132198
-0.000301313
-7.2729e-05
-0.000410105
0.000939152
-0.000454128
0.000361845
-0.000279481
-0.000136919
-0.0016025
-0.000612757
-0.00158385
4.88541e-05
6.54623e-05
-0.0017755
0.000731919
-0.000117854
3.71628e-05
4.21295e-05
-0.000510847
-0.00100282
-0.000155214
-0.00131156
0.00101982
0.000774248
-0.00132116
0.000296427
-0.00192177
-9.53867e-05
-0.000454462
0.000627505
0.000596999
-0.00119617
-0.00013013
-0.000429223
-0.000389242
0.00012348
-0.000166807
-0.00129973
1.77282e-05
-0.000419555
-0.000170717
-0.000740073
-0.000377736
-0.000130306
-0.000689346
-0.000425508
-0.000289821
-0.00208802
0.000466307
0.00129618
0.000524412
0.00132369
0.000889861
0.00131369
-0.000107775
-0.000685225
0.0018329
0.0003028
-0.000515458
-0.000837285
-0.000673575
0.000986637
0.000865093
-0.0011643
6.17916e-05
7.17901e-05
0.000812817
0.000228801
7.60633e-05
0.000228621
0.000962159
0.000253348
0.000684886
0.000593779
0.000626653
-0.000115298
-0.000501937
0.000754249
0.000113405
-0.000461957
0.000278575
0.000949703
0.000307871
0.000789872
0.000599833
0.000345398
0.000335752
0.000652469
0.00031093
-0.000113664
0.000241861
0.000926833
0.000247808
0.000575456
0.000660772
0.000817155
-0.000713066
-0.000296415
0.000672664
0.000344307
-0.000617065
0.000262113
8.75681e-05
0.00120613
0.000270811
-1.66807e-05
-0.000376532
-0.000103444
0.00188956
0.00026771
7.07638e-06
0.000314782
0.000274641
0.000256671
0.000293142
0.00036649
-0.000419367
0.000543823
0.000124005
0.000229002
0.000687154
0.00054897
-6.52733e-05
-0.000127915
0.000428012
0.000198177
-3.87837e-06
0.000528774
0.00059112
-0.000112642
0.000686869
-1.90754e-05
5.31063e-05
0.000368877
0.000411687
-0.000919011
0.000454635
-0.000606559
-0.000466602
0.000407871
0.000702517
-0.000725284
0.000749987
-9.12938e-05
-0.000140735
0.000694824
0.000457548
-0.000229404
0.000664492
-0.000382842
-0.000302846
0.000697327
0.000405161
-0.000786465
0.00042918
-0.00062413
-0.000422643
0.000633981
0.000507736
-0.000941353
0.000623712
0.000192686
9.39185e-05
0.000646635
0.000503768
-0.000499358
0.000354931
0.0012053
0.000389845
0.00128166
0.000908336
0.00119834
7.1745e-05
-0.000117093
0.00131176
0.000282933
0.000607492
-0.000218427
0.000205074
0.000837654
0.000241442
-0.000274165
-0.000556936
0.000182739
0.000296055
0.000280598
0.00069151
0.000465463
-0.000250009
-0.000352901
-0.00316259
-0.000613211
-0.000998728
0.000284686
0.000207812
-0.00142835
0.000352491
0.00125419
0.000387708
0.00128865
0.000926289
0.000309263
-0.000639494
-0.00056192
0.00106849
0.000490571
-0.00065955
0.000364225
0.00106358
0.000412849
0.00103527
0.000692648
-0.000657959
-0.000791858
0.00134628
0.00089292
-0.00217269
-0.0020172
-0.000114632
-0.000848152
8.03079e-05
9.27653e-05
9.34013e-05
-0.000667291
0.000121852
0.000388481
-0.000799301
-0.000290355
-0.000776358
0.000559792
0.00027584
-0.000199879
-0.000191881
-0.000418747
3.69039e-05
-0.000483462
-0.000355626
-0.000960491
-0.000283108
-0.000383442
-0.0012825
-0.000245597
-0.00046253
0.000182307
-0.00210885
4.6904e-05
-0.000347326
-0.000215206
-0.000718081
-0.000292132
-0.000325744
-0.000740347
-8.35637e-06
-3.68931e-05
-6.03018e-05
-0.00193503
-9.93792e-05
-0.000797098
-0.000296812
-0.00108017
-0.000686422
0.000246383
0.000258898
-8.74376e-05
-0.000197703
-0.000500508
-0.000723607
-0.000751176
-0.000776258
-0.000850281
-0.000223921
-0.00161243
-0.00012276
-0.0011963
-0.000416167
-0.00176011
-0.000894448
-5.49234e-05
0.00037499
0.000269353
0.000266666
-0.000356918
7.96969e-05
-0.000568941
-0.0012351
-0.00049929
-0.00249583
-0.000395839
-0.000923816
0.000817286
-0.000277904
-0.00028801
0.000655374
0.000234624
0.000579893
-0.000369045
5.75478e-05
-0.000159698
-4.29746e-05
0.00050373
0.000611657
0.00032955
-0.00095967
0.00019192
-0.000562297
0.000150754
-0.000409375
0.000162
-0.000152899
0.000269405
-8.39626e-05
-0.000624306
-0.000953467
-0.000189408
-5.59823e-05
-0.00128618
5.09712e-05
0.000185291
0.000288944
-0.000140828
-7.98421e-05
-5.78318e-05
-0.000349668
0.000201564
0.000576684
0.000268513
-7.20695e-05
0.000168769
-8.05423e-05
-0.00103876
9.31051e-05
0.000415403
0.000316031
-0.000169412
4.99605e-05
0.000120306
-0.000476194
0.000382196
0.000441853
-0.000276983
-0.000271179
-0.00042868
0.000451467
-5.68545e-05
0.000237734
-9.60484e-05
0.000297791
-0.000843792
-0.000178615
0.00024331
0.0002153
1.3163e-05
-1.55488e-05
-3.7846e-05
-0.000696492
0.000261518
0.000224188
0.000287354
0.000332076
4.70406e-05
9.12643e-05
-0.000330717
0.000141305
0.000287697
0.000337465
-0.000449994
0.000128815
3.91241e-05
-0.00061984
0.000993911
0.000176493
0.000160105
0.000344195
0.000216481
0.000182812
-0.000180666
0.000252447
0.000364068
0.000190954
-0.000583978
0.000354861
0.000259678
-0.000167553
0.000140463
5.9927e-05
0.000511485
0.000415405
0.000263101
-0.00105349
0.000898434
9.50303e-05
2.41243e-05
0.00053803
0.000585803
-0.000923154
0.000836923
0.000307153
0.000222102
0.000244752
-0.000136591
-0.000157937
-5.84668e-05
-0.00104495
-0.00041186
-0.00158442
-0.000407983
-0.000315642
-0.00039684
-0.000113377
0.000151253
-0.000139439
-0.000699993
-0.000271196
-0.00142605
-0.00052646
-0.00189484
-0.00115304
0.000431662
0.000242029
-0.00112616
-9.4363e-05
4.36832e-05
-0.000270731
-0.00109052
-0.000539285
-0.00150355
-0.000818103
0.000292837
0.000479523
-0.00070397
-0.000259212
-0.000518862
4.85674e-06
-0.00062104
-0.000312616
-0.00175294
-0.000412332
0.000315277
8.70442e-05
-0.00143323
-0.000454162
-0.000214491
-0.000166743
6.14385e-06
-0.000430357
-0.000100893
-0.000931897
-0.000190001
-0.000254313
-0.000170053
-5.32894e-05
-0.000684701
-0.000266629
-0.000585308
-2.55615e-06
-0.000292516
-0.000111899
-0.00063559
-6.3118e-05
-0.00011184
3.67053e-05
-0.000831119
-0.000449866
-0.000183892
-0.00049683
5.93116e-05
-0.000244367
-0.000132511
-0.000639007
-5.48607e-05
0.000819413
0.000290245
-8.16893e-05
-0.000150849
-0.000119164
5.19272e-05
2.13918e-05
0.000168939
0.000172635
-0.00154871
-0.000135771
-0.000187638
-0.000115591
-2.2816e-05
-0.00108966
-0.000467604
-0.0016285
-0.000628723
-0.000200688
-3.87925e-05
-0.00176373
-6.46944e-05
0.000142012
-0.000681395
2.39121e-05
-0.000566258
-0.000134666
-0.00101319
-0.000274404
-0.000152226
0.000345433
0.000142296
0.000236931
-0.000117457
-0.000354739
1.87653e-05
-0.000891153
-0.000231732
-0.00165837
-0.000428153
9.23492e-05
1.87767e-05
0.000184238
0.000494783
-4.42093e-05
-0.000425526
-0.000110778
-0.000613819
-0.000256335
-0.000979597
-0.000541446
-0.0001431
0.00048576
0.000151487
0.000190349
-0.000331552
2.83766e-05
0.00011565
0.000174002
-0.000100488
-0.000601278
0.000245903
0.000537851
-1.76937e-05
-0.000457888
-0.000338304
-9.32169e-05
-0.000258394
0.000294892
0.00111202
0.000332429
0.0010784
0.000871572
0.000984425
0.000427388
-0.00042532
0.00129709
0.000125265
-0.000344332
-4.76644e-06
-0.000171397
-7.04871e-05
-0.000538412
-7.74589e-05
0.000464831
-0.000122749
0.000259518
1.66501e-05
-0.000326671
-8.26017e-05
0.0004176
7.72505e-05
5.80685e-05
0.000178412
-6.79826e-06
-0.000402925
0.00107219
4.21106e-05
0.000184669
0.000365852
-0.000245897
-0.000489226
0.000157535
0.000250727
0.000117279
-0.000215643
0.000169904
-4.46923e-05
-0.000356208
-4.37648e-05
-0.000544267
-8.6132e-05
0.000120847
6.70444e-05
0.000114414
6.00851e-05
-5.01232e-05
4.47166e-05
8.46321e-06
-0.000169716
0.000134242
-0.000203941
-0.000247695
-0.000397725
0.000106034
0.000766256
0.000204481
-0.000233477
-0.00028884
-0.000195784
0.000151056
0.000449933
0.000155704
0.000277451
0.000162853
0.000152062
0.000208508
-4.81379e-05
-0.000169776
6.18876e-05
-0.000942702
0.00111307
0.000223164
0.000111894
0.000388694
0.000476334
0.000300145
-0.000240511
0.000675522
0.000206916
0.000162905
6.77712e-05
0.000152035
0.000348789
-0.000611985
0.000368785
0.000225557
0.000347817
-0.000282752
0.000454697
-6.67693e-05
-5.61509e-07
0.000564834
-0.00010462
-0.000249356
0.000258768
0.000181953
-7.14512e-05
7.20522e-05
-9.66652e-05
0.000150749
0.000179959
0.000110242
-0.000154991
0.0018295
0.00023114
0.000613955
0.00042104
0.000248993
-0.00032992
0.000439203
0.00062836
0.000937515
0.00075
0.00086553
-0.000145645
0.00113047
0.000260388
0.000342285
0.000731658
0.000628061
0.000441883
-0.000323173
0.000101707
0.000125455
6.18022e-05
-6.54295e-05
5.8467e-05
0.00141262
0.00024795
0.000211602
0.000162734
-7.25752e-05
-4.94423e-06
0.000269251
0.00017793
-0.000170348
-0.000103308
0.00023551
4.89999e-05
0.000452555
0.000372531
0.000382713
0.000252732
0.000364492
0.000247446
-0.000177869
0.000979857
0.000717645
0.000347271
0.000494826
4.52803e-05
0.000122721
0.00153162
0.000160904
0.000111132
0.000577141
-0.000423928
3.49179e-05
-0.000404416
-0.000415633
-0.00101633
-0.00257089
-0.000132744
-0.00113864
-0.000795049
-0.000547884
-0.00128567
-0.00066339
-0.000912728
0.00023201
0.000110757
-8.43762e-05
-0.00153476
-0.000119244
-0.000374703
-0.000221671
-0.000202628
-0.000894574
-0.000197498
-0.000811233
0.00025567
-0.000117466
0.000514886
0.00041036
0.000168313
0.00018251
0.000704611
0.000232853
0.000171597
-0.000466813
0.000352256
6.50296e-05
3.40383e-05
-0.00131327
1.45115e-05
-0.000465369
-0.00156422
6.16662e-05
-0.00135157
-0.000749769
-0.000541061
-0.000684416
-0.000507308
-0.000264422
-6.98553e-05
-0.000588157
0.000145209
-0.000874896
0.000275607
0.000295436
-0.00111144
-0.000718124
-0.000502612
-0.000278782
-0.000547824
-0.00132489
7.16428e-05
-0.000723131
-0.000455787
-0.00025464
-0.00075017
0.00011916
-3.19115e-05
-0.000229239
-0.00026251
-0.000745199
-6.87799e-05
-0.000850784
5.01877e-05
-0.000430709
0.00014945
0.000161816
-0.000262646
6.34859e-05
0.000277252
7.12013e-05
-9.56358e-05
-0.000539185
6.89109e-05
0.000142506
6.91518e-05
-9.28919e-05
-0.00030628
0.000196124
-0.00361819
-8.46354e-05
5.55955e-05
-0.00014558
-1.23481e-05
-0.000815661
0.000165431
-0.000512752
-4.76648e-05
-0.000331691
-0.000226893
-0.000111007
-0.00140107
9.37134e-05
-0.00036548
-0.000413117
-0.000183907
-0.000875217
-0.00010824
-8.29876e-05
-0.00118485
-3.92206e-05
-0.00174707
-0.0011527
-0.000865645
-0.000122325
0.000107989
-0.00105035
-0.000980465
-0.00101544
-0.000831543
-0.000990542
-1.32964e-05
9.79736e-06
5.34994e-05
0.00116425
0.000554535
0.00163193
-0.00110403
-0.00130076
0.00171654
0.00185566
0.00188936
-0.000956565
0.00130353
-0.000620625
-0.000594822
-0.000407515
0.000160232
-0.000108878
-0.000396852
4.31704e-06
-7.10456e-05
0.000206176
7.39493e-05
-0.000744455
0.000296694
-0.000153461
0.000213694
-0.000479584
0.000162268
0.000348502
0.000159923
8.38692e-05
-0.000195428
0.000163556
2.73343e-05
-0.000535673
0.000172136
4.72616e-05
1.80707e-05
-0.000575184
-0.000449946
-0.000219207
-0.000602505
-3.35971e-05
-0.000629334
-0.0002392
3.22566e-05
-0.00063535
-1.06774e-05
1.68949e-05
-0.000308169
0.000200208
-0.000462094
0.000153071
0.000429175
-8.89516e-05
0.000220718
0.000312359
0.000124484
-8.48682e-05
-0.000526022
9.44359e-05
6.58277e-05
-1.58549e-05
-0.000350792
-0.000272265
-0.00164895
-0.000328029
-0.000885731
-6.2755e-05
0.000243895
-0.00098313
-0.000888453
8.63368e-05
5.06673e-05
6.48816e-05
7.80777e-05
0.000191829
-0.000110851
3.12593e-06
8.30248e-05
0.000236274
0.00024344
0.000221138
0.000266999
0.000251375
0.00019801
-4.5027e-05
-1.55576e-05
-5.64673e-06
1.44494e-05
0.000108215
3.81425e-05
-5.30525e-05
1.23528e-05
4.3839e-05
-0.000171151
-0.000127788
-6.55925e-05
-2.99731e-05
-0.000103892
-0.000133418
9.0407e-05
-4.32738e-05
2.33827e-05
3.50739e-05
-6.34108e-06
5.83486e-05
-3.54049e-05
0.000111399
-6.29879e-05
0.000214535
0.00011288
-3.8986e-06
-5.35826e-05
2.03042e-06
-8.87391e-05
-4.48251e-06
-6.95535e-06
-6.85467e-06
-0.000381574
-0.000108552
-2.88943e-05
0.000269089
0.000393662
0.000158432
-5.8845e-05
0.00018244
8.41668e-06
-0.000158819
-6.19988e-05
-0.000154707
-5.21492e-05
-9.11757e-05
7.93257e-06
-0.000139996
-0.000314503
-0.000259155
-5.36193e-05
0.000204841
0.000180332
0.000169162
0.00014954
-0.000169023
-6.09047e-05
-6.637e-05
-7.06691e-05
-0.000134381
-6.31311e-05
-0.000110119
5.99476e-05
6.09738e-05
2.51327e-05
-2.68998e-05
-2.07133e-05
-0.000112962
-9.75685e-05
-2.79033e-05
-2.47572e-06
-0.000138389
0.000323749
3.38627e-07
4.46074e-05
6.57335e-05
4.08831e-05
2.4201e-05
4.15987e-05
4.40107e-05
7.32404e-05
1.12458e-05
-0.000125334
5.60963e-05
4.40525e-05
-7.96494e-05
5.17837e-05
-8.58881e-05
-6.37079e-05
-2.27819e-05
-0.000299052
-7.05384e-05
0.000115815
0.000504355
0.000412521
-8.27606e-05
-0.000140131
-0.000139695
-0.000129185
-5.66167e-05
-2.86709e-05
-5.07952e-05
-8.65099e-05
-9.43988e-05
-6.44902e-05
-0.00036103
-0.000297722
0.00025599
-0.000246195
-3.6122e-05
9.37983e-06
3.98043e-05
3.0633e-05
6.20999e-05
3.3358e-05
-5.78368e-05
-8.26199e-05
0.000444681
7.19326e-05
2.80389e-05
-3.35833e-05
-0.000193409
2.81653e-05
1.65711e-05
3.80131e-05
1.74588e-05
0.000102049
1.75477e-05
1.639e-05
4.23125e-05
8.75611e-07
3.98892e-05
0.000187002
4.26279e-05
-0.000110617
-5.74181e-06
-1.08619e-05
-0.000116033
-3.7091e-05
-5.81699e-06
-2.4503e-05
-4.42527e-05
2.24087e-05
7.77002e-06
1.4385e-05
-8.38762e-05
2.78029e-05
7.32254e-05
2.9067e-05
2.50008e-05
2.06576e-05
0.000100346
1.42772e-05
5.70526e-05
8.39009e-05
-4.50319e-06
-1.02471e-06
-1.17962e-05
2.77833e-05
1.34169e-05
1.15667e-05
8.52455e-05
3.88737e-05
6.89835e-06
-4.6764e-05
0.000119413
1.15273e-06
-6.7861e-05
-1.00167e-05
2.29146e-05
-8.93251e-05
-3.04758e-05
3.67898e-06
3.12661e-05
-3.73745e-05
2.80635e-05
4.12936e-05
6.17107e-06
4.71582e-06
-1.4478e-05
-2.08761e-05
9.55372e-05
1.49996e-05
3.49664e-07
-2.61755e-05
-0.00020688
-0.000134928
-2.64322e-05
-4.72134e-05
8.96433e-06
0.000143908
8.51947e-06
-3.70321e-05
6.07832e-05
3.15011e-05
8.58161e-05
6.16198e-05
0.000117219
0.000135708
0.000238843
3.1633e-05
0.000108665
0.000117253
0.000111978
6.42229e-05
3.68417e-05
0.000117269
4.8438e-05
0.000114354
-3.51066e-05
3.39136e-05
4.5925e-05
0.000103696
-2.31501e-05
0.000161709
0.000188015
0.000181326
0.000146847
0.00020041
1.99882e-05
0.000156416
1.04008e-05
4.68179e-05
5.37354e-05
5.39274e-05
5.84835e-05
0.000223092
0.000115082
9.57657e-05
-5.61465e-06
0.000187763
4.7166e-06
3.60676e-05
1.08383e-05
0.000117044
0.000152722
0.00010148
0.000190084
0.000196744
0.000142266
5.73904e-05
0.000123746
0.000189602
0.000173919
0.000139588
-8.00887e-06
6.64432e-06
-6.54825e-06
-3.17204e-05
6.18987e-05
-1.58985e-06
8.84255e-05
-2.40362e-05
7.06123e-06
-2.71978e-05
-0.000182636
4.68409e-06
-0.000113956
-0.000177326
-1.76931e-05
-0.000109475
-1.68874e-06
-4.91019e-05
-1.05557e-05
-0.000125288
-6.64434e-05
-0.000154905
3.60395e-07
-4.01324e-05
-3.77991e-06
-1.85263e-05
-9.25929e-05
-0.000131972
7.89261e-05
4.7995e-05
0.000124058
3.76203e-05
0.000103388
-5.30943e-05
6.25064e-05
0.000133613
1.6445e-05
-4.05349e-06
5.37989e-06
7.53789e-05
-8.62913e-06
0.000112285
2.77166e-05
-0.000149807
-0.000224164
-0.00016147
0.000110432
9.36134e-06
-4.52332e-05
-3.80698e-05
6.56478e-05
-1.69483e-05
-6.7558e-05
-3.16554e-05
-3.68251e-05
6.19721e-05
-5.81938e-05
-1.58729e-05
-2.50415e-05
-1.86502e-05
-2.1472e-05
-1.09069e-05
-0.000112196
-2.54498e-05
1.2007e-05
6.5643e-05
-8.79662e-07
-5.30081e-05
-4.33504e-05
0.000105215
6.01521e-06
4.68632e-06
4.72812e-05
4.03649e-06
1.41635e-05
-2.77094e-06
1.71932e-05
-4.55402e-05
2.12748e-05
1.79222e-05
7.98225e-06
-6.16773e-05
-4.44462e-06
0.000126341
2.1512e-05
1.67802e-05
0.000127031
-5.24563e-05
6.84661e-06
-9.94475e-05
3.16539e-07
-1.4795e-05
-5.73565e-05
4.0451e-06
3.99574e-05
-8.86061e-05
0.000120481
2.90559e-06
8.50688e-06
2.73567e-05
-6.18505e-05
-3.42785e-05
2.86863e-05
-9.12308e-06
0.000134367
2.65496e-06
-8.76875e-05
1.66246e-05
1.09762e-05
-4.33363e-05
0.000112782
7.713e-05
-4.07369e-06
-4.02623e-06
-5.62203e-05
3.10875e-05
-3.18266e-05
5.82793e-05
-0.000135363
1.38217e-05
0.000136508
2.69504e-05
-0.000115586
2.77748e-05
-6.32259e-06
-1.64575e-06
1.4062e-05
-0.000759803
-2.47952e-05
-4.81552e-05
0.000126234
7.93536e-05
0.000157018
3.85461e-05
-4.95161e-05
-0.000134584
-0.000137601
-0.00032774
-0.000536388
-0.000132291
-6.25098e-06
0.000121043
-3.57173e-06
-4.36527e-05
-2.41733e-05
-5.43816e-05
1.49765e-05
7.13342e-06
0.000137749
0.000108228
9.17244e-05
7.73314e-06
-5.78811e-05
3.56958e-05
0.000109565
2.99663e-05
1.47898e-05
-5.25068e-05
-3.56942e-05
9.66877e-05
0.000102452
1.5054e-06
7.02492e-05
0.000222005
0.000101736
3.28825e-06
0.000136218
-8.78268e-05
-0.000217791
-5.50252e-05
4.5082e-05
0.00010198
0.000205075
7.50997e-05
8.9707e-05
-5.0253e-06
2.1376e-05
-7.18e-05
1.16157e-05
4.2215e-05
-5.55315e-06
4.31785e-05
0.000135924
0.000188029
1.44838e-05
9.31918e-06
6.59084e-05
4.23614e-05
9.0452e-06
-7.82381e-07
1.35308e-06
0.000240289
0.000190283
0.000105616
0.000221614
0.000159033
0.000161709
0.000104814
0.000217617
3.49137e-05
0.000170385
0.000149481
0.000171327
7.88152e-05
0.000217886
5.65325e-05
0.000178926
-6.06008e-05
4.65354e-06
-1.47025e-05
-2.52882e-05
-8.48434e-05
1.34901e-06
-4.92304e-06
0.000100257
6.15938e-06
1.72973e-05
-0.000253443
-9.14134e-05
-5.21824e-05
-6.3482e-05
-6.78388e-05
-3.87261e-05
-0.000192698
0.000125827
-5.13655e-05
-4.15268e-05
-5.78536e-05
1.72567e-05
1.1819e-05
-1.71281e-05
-0.000326799
-2.26365e-05
-0.000274519
-0.000259303
-4.01218e-05
-4.54409e-05
5.46438e-06
-2.10661e-06
-5.74625e-06
2.79775e-05
-3.36353e-06
-1.11461e-05
3.31278e-06
-4.11653e-05
-2.43975e-05
6.65073e-05
7.27063e-07
3.98158e-05
3.02821e-05
1.43184e-05
-4.42941e-05
-3.40204e-05
0.000101261
0.000105573
9.74905e-05
2.62121e-05
-1.79494e-06
-7.15986e-05
9.37993e-06
-0.000280422
5.62669e-05
4.95811e-05
-2.43253e-05
-0.000128357
-0.000151716
-2.90428e-05
-2.15024e-05
-7.19871e-06
-6.75991e-06
4.08297e-06
-6.14585e-06
-1.1665e-05
-5.23009e-05
4.34138e-05
-0.000281249
-6.2867e-05
2.22796e-06
0.000107394
-7.66059e-06
-1.21526e-05
-3.07895e-05
3.86858e-05
-7.74619e-06
-2.43887e-06
-1.55983e-05
3.62945e-06
-3.76597e-06
-3.0997e-05
-6.67255e-06
6.70069e-06
2.5015e-05
-0.00013179
-1.28029e-05
-3.49197e-05
1.38187e-05
-8.11161e-07
2.52161e-05
-6.72323e-06
-1.26095e-05
-2.95181e-05
-9.82612e-05
-0.00159773
-0.00294221
-0.00147776
-2.09291e-05
2.59645e-05
-2.1902e-05
-2.85044e-05
2.13919e-05
-1.0469e-06
1.15069e-05
4.72062e-06
-9.06912e-06
7.53048e-06
-5.91822e-05
1.37372e-05
-7.94382e-05
2.67942e-05
-4.35358e-05
4.17001e-05
-1.76107e-05
-8.34894e-07
-1.85251e-05
1.25408e-05
-0.000115604
-2.63312e-05
8.53531e-05
-0.000131013
3.87404e-05
-0.00118322
9.97211e-05
4.68193e-05
-1.86349e-05
3.02187e-05
8.78474e-06
-1.09001e-05
-8.58785e-06
-1.44575e-05
-4.16539e-06
-2.47106e-05
-8.35245e-06
-3.90244e-05
-5.96649e-05
-7.43465e-05
-0.000110659
3.44755e-05
1.2405e-05
1.78174e-05
1.06105e-05
2.47752e-05
2.35847e-05
1.55861e-05
-7.32526e-06
4.37612e-05
2.37457e-05
2.20022e-05
-1.5227e-06
7.40985e-07
7.41665e-06
-1.66643e-05
-8.31012e-05
6.16363e-05
1.77722e-06
-1.00593e-05
1.54383e-05
2.86976e-06
-3.84251e-05
-1.61424e-06
2.78381e-05
0.000120137
9.64542e-05
-4.94381e-05
9.76495e-05
-4.92824e-05
-0.000547116
-0.000358806
1.40551e-05
0.000131729
-5.99857e-05
-9.87251e-06
-4.31237e-07
-0.000114618
-0.00023152
-5.85699e-05
1.5325e-05
3.33788e-06
-7.02427e-06
9.69054e-06
3.51565e-05
-4.48123e-05
-5.83105e-05
-3.43719e-05
5.81193e-05
-3.05346e-05
-2.93542e-06
-6.10626e-05
-4.46963e-05
-1.41995e-06
1.80398e-05
-1.1707e-06
2.04294e-05
1.56072e-05
2.72852e-05
-5.36826e-07
8.63656e-06
2.72555e-05
2.97438e-05
-0.000186486
4.11144e-06
5.45573e-05
-1.45152e-05
-2.7008e-05
1.64911e-05
5.93296e-05
8.37687e-05
-1.2454e-05
8.42283e-05
-1.49876e-05
1.52913e-05
-5.41088e-05
6.85743e-06
-6.62412e-05
-0.000150795
-0.00013493
-7.10932e-05
2.27727e-05
4.19798e-05
-3.78265e-05
6.76803e-05
8.57429e-05
-4.67697e-05
-3.6844e-05
6.06815e-06
-2.6329e-05
-5.00306e-05
-0.000263761
-0.000288392
-0.000130657
-0.000141648
-0.000258068
0.000265624
0.000219375
0.000210101
0.00017896
9.02126e-05
-4.41137e-07
-0.000129252
-5.40136e-06
-0.000139214
4.16376e-05
8.06872e-05
-0.00110212
-0.000913441
-0.000116081
-0.000771627
2.22458e-05
-5.97511e-05
5.40713e-06
2.62258e-05
6.71664e-05
1.95167e-05
6.09628e-05
2.81328e-05
2.25501e-05
8.35527e-05
1.70042e-05
1.31854e-05
0.000164456
4.47031e-05
5.79604e-05
5.78764e-05
4.69849e-05
5.01347e-05
-1.95271e-05
-2.68441e-06
-5.82412e-05
1.57384e-05
-2.5373e-05
7.00987e-05
2.60144e-05
-2.25224e-05
-0.000151504
2.62824e-05
-2.9408e-06
0.000112661
2.33253e-05
-1.74308e-05
4.44177e-05
-3.28998e-05
-6.51827e-06
-2.00498e-05
3.74292e-06
-6.56877e-05
-7.5994e-06
-2.89397e-05
-8.43314e-06
-0.000120311
2.75119e-05
-3.73916e-05
-2.90017e-05
1.14925e-05
2.11067e-05
5.04937e-05
2.37476e-05
2.44098e-05
3.32339e-05
6.5806e-05
5.06905e-05
3.62061e-05
2.02154e-05
-1.61136e-05
5.45901e-05
1.25217e-05
5.47307e-05
3.6424e-06
4.15968e-05
4.84323e-05
4.50191e-05
5.05586e-05
4.87357e-05
5.80453e-05
5.49321e-05
3.95958e-05
3.65205e-05
2.54012e-05
2.69965e-05
5.75222e-05
2.63886e-05
-1.64945e-05
5.21238e-06
1.66464e-06
1.7203e-05
1.73787e-05
3.98793e-05
3.57292e-05
9.00442e-06
3.74179e-06
1.80088e-05
2.49729e-05
3.90682e-05
3.26985e-05
4.65046e-06
4.20102e-05
4.10693e-05
3.6828e-05
-5.79138e-05
3.82082e-05
4.07082e-05
2.23558e-05
3.63953e-05
-3.92636e-06
4.38258e-05
2.03606e-05
6.99883e-07
5.25914e-05
0.00031614
1.4976e-05
-0.000205584
-0.000265534
-0.00033442
-0.000362205
0.000297231
-0.000380103
-6.70218e-06
-0.000461291
-0.000228251
-0.000459805
4.18862e-05
-8.62706e-05
-4.84857e-05
-0.000271837
-7.08794e-05
-0.00045795
-4.6161e-05
-4.01607e-05
-9.63511e-05
-3.14729e-05
-3.84403e-05
-0.000140952
-1.68391e-05
-0.000174142
-3.39792e-05
-0.000115353
-0.00034954
0.000464669
9.12618e-05
-9.88255e-06
0.000263274
-0.000229474
-0.0003901
-0.000158119
-2.63204e-05
-0.00015679
-0.000476749
-0.000485394
4.57258e-05
-0.000226435
-0.000392528
-2.49719e-05
-6.16033e-06
-0.000185255
-0.000120295
-0.000409553
-0.000112505
-6.90694e-05
-0.000117006
-5.63614e-05
-8.12269e-05
4.71834e-06
-0.00023259
-0.000263672
0.000380862
-1.09295e-05
-0.000308613
-0.000113564
-0.000230368
-0.000321105
-9.16856e-05
-0.000436699
-0.000384138
-3.88141e-05
-0.000146474
-7.76065e-05
-0.000313085
-0.000117342
-0.000458035
-0.000256863
-0.000168679
-0.000274743
-0.0003252
-0.000194369
-0.000257494
-0.000225129
-0.000117215
-3.50498e-05
-0.000213079
0.000399616
0.000120994
-0.000451026
7.02724e-07
-0.000332875
-0.000397641
-0.000170401
-0.000307844
-0.000258319
-0.000173956
-0.000209158
-0.000144321
-0.000297919
0.000147988
0.00014486
8.31333e-05
-2.19563e-05
0.000122247
-0.000174655
-7.9644e-05
0.000151791
3.94876e-05
-7.82912e-05
-9.60745e-05
0.000189076
-0.000211674
1.585e-06
0.000127587
-2.43705e-05
5.59576e-05
-9.3248e-06
-0.00027145
-0.000259377
-0.000211253
-0.000365049
-0.000324713
0.0002238
7.31195e-05
0.000109737
9.39497e-05
5.5549e-05
-4.18506e-05
4.50794e-05
-6.87676e-05
-8.60649e-05
-4.61138e-05
-4.22794e-05
-0.000323623
-0.000174194
-0.00017889
-0.000133372
-0.000285555
0.00029679
6.89621e-05
-4.36189e-05
-0.000110314
-0.000392052
-0.00040121
-0.000179443
-0.000382789
-0.000108976
-0.000202797
-0.000148319
7.1793e-05
-6.34674e-05
-4.35311e-05
-0.000380861
3.92645e-05
-5.14365e-05
-1.32045e-05
-0.000168094
-3.29483e-05
-5.86136e-05
-0.000132781
-6.78179e-05
-0.000230355
-0.000267149
-4.84875e-05
-0.000133482
-0.000219325
0.00051453
0.000109892
-9.59308e-05
-5.22924e-05
-0.000199349
-0.00031669
-0.000104856
-0.000212742
-0.000182005
-0.000523822
-0.000108066
-0.000155446
-4.55306e-05
-0.000102064
-5.51209e-05
-6.14591e-05
-0.000296258
-0.000261573
-0.00028344
-0.00025747
-0.000427173
-0.000397528
-0.000697246
-0.000118002
-0.000101445
-0.000924815
-0.000398356
-0.000156433
-0.000108276
-0.000467377
-0.000165179
-0.000579095
-0.00023671
-0.000258493
-0.000971659
-0.000257032
0.000583018
0.000105272
9.62434e-05
-7.1014e-05
-0.000481317
-0.000374639
-6.62944e-05
-0.000345504
0.000200249
-0.000131393
-0.000763846
-0.000261862
0.000520915
0.000112205
-0.000420269
-0.000251826
-0.000310702
-0.00061299
-0.000279346
0.000185314
7.87831e-06
0.000107203
-0.000165886
-0.000241984
-0.000735513
-0.00032536
0.000379466
-9.42027e-05
-0.000350251
-0.000353352
-0.000440148
-0.000936382
3.5593e-05
-9.85599e-05
-3.73147e-05
-0.000235866
-6.18853e-05
-5.59203e-05
-0.000201688
-0.000117403
-3.37787e-05
-0.000175461
-0.000104181
-0.00019107
-3.36972e-06
-4.58113e-05
-0.00015249
-5.05802e-05
9.51526e-06
-0.000460693
-2.81731e-05
-0.000106722
7.65332e-06
-0.000171258
-0.00020418
3.33503e-05
-0.000328136
-0.000456952
5.99034e-05
-8.82341e-05
-0.000653978
6.83496e-06
5.07395e-06
-1.32144e-05
-0.000110043
5.11192e-05
0.000148303
-0.000259424
-0.00021106
-0.000427907
-0.000281922
-0.00026979
0.000330856
9.32516e-05
-0.00032512
-0.000384981
-0.000539381
-0.000451035
-0.000360667
0.000337787
-5.21771e-05
-0.000166321
-0.000444078
-0.000553865
-0.000434906
3.48512e-05
-0.000107103
-6.46187e-05
-0.000216489
-0.00010212
-8.93981e-05
0.000467385
5.68672e-05
4.97995e-05
-0.000430195
-5.18214e-05
9.61762e-06
-9.6255e-05
-6.15444e-05
-0.000251204
-0.000126195
-0.000362925
0.000478755
-0.000222322
0.0002428
-0.000441592
-0.000111769
-0.000906191
-0.000297301
-0.000617372
-0.000128322
3.96612e-05
-0.000773997
0.000374148
-1.70763e-05
9.2399e-05
-0.000539965
-0.000316502
-0.000884095
-0.000348378
-0.000908081
-3.54725e-05
2.48093e-05
-0.000641439
-3.00883e-05
-0.00123321
-0.000264186
-0.000314938
-1.79791e-05
9.08327e-05
-0.000602169
-0.000232101
-0.000333078
-0.000411806
-0.000240602
-0.000261072
-0.000629771
6.26185e-06
-0.000338789
-8.10341e-05
-0.000490477
-0.000287522
-0.000156713
-0.000473512
-0.000217786
-0.000310645
-0.0010324
0.000377441
0.000979139
0.000430726
0.00107805
0.000687663
0.00101712
-0.000283625
-0.000318197
0.00146396
0.00029414
-0.000389751
-0.000633869
-0.000274977
0.00091088
0.000727795
-0.000603493
1.84444e-05
-3.37032e-07
0.000839968
0.000259971
1.08179e-05
0.000227749
0.000841809
0.000264329
0.000761309
0.000600964
0.000700026
-0.000186635
-0.000201535
0.000857002
0.000196711
-0.000202948
0.000276735
0.000867915
0.000304816
0.000854088
0.000594518
8.98488e-05
0.000120238
0.000607827
0.000311629
-6.43096e-05
0.000235655
0.000820906
0.000245791
0.000681401
0.000638566
0.000876113
-0.000553419
-0.000105862
0.000617988
0.000380596
-0.00029801
4.42017e-05
-1.45415e-05
0.00092763
0.000237457
-5.3381e-05
-0.000395386
-2.26787e-05
0.00153813
0.000246079
-7.64738e-05
0.000468881
9.3436e-05
0.000100385
0.000487784
0.000370495
-0.000219312
0.000553561
9.80952e-06
8.16197e-05
0.000688261
0.000507871
5.0754e-05
-8.68821e-05
0.000571517
-3.79169e-05
-1.59576e-05
0.000567209
0.000510343
-9.88185e-05
0.000667276
-0.000119832
-2.14861e-05
0.000506755
0.000422001
-0.000446787
0.000682196
-0.00049118
-0.00021103
0.000585813
0.000577275
-0.000354768
0.000713849
-0.000167797
-8.74659e-05
0.000682341
0.000416899
-0.000146429
0.000676167
-0.000361586
-0.000132802
0.000702731
0.000394385
-0.000388389
0.000583462
-0.000456835
-0.000189168
0.000599367
0.000466809
-0.000472024
0.000665188
-8.69206e-06
4.89036e-05
0.000550632
0.000452802
-0.000260595
0.00031768
0.00100275
0.000347984
0.00111889
0.000783549
0.00106614
-0.000105934
-5.07393e-05
0.00099417
0.000311785
0.00058021
-0.000205383
6.3568e-05
0.000727215
0.000268999
-7.16801e-05
-0.000289739
0.000281909
9.2246e-05
9.47198e-05
0.000681976
0.000417076
-0.000144162
-6.19075e-05
-0.00171054
-0.000269471
-0.000389049
6.45909e-05
0.000100524
-0.000689299
0.000317208
0.00102596
0.000361626
0.00106871
0.00076854
0.000457613
-0.000615986
-0.000253109
0.00102097
0.000372797
-0.000346711
0.000325545
0.000866478
0.00036827
0.00088965
0.00059295
-0.000624399
-0.000365465
0.00117519
0.000696109
-0.000973847
-0.00112491
-7.28944e-05
-0.000306285
-5.26381e-05
-4.43178e-05
4.38523e-05
-0.000355587
-2.10866e-05
0.000195567
-0.000475309
-0.00036098
-0.0003784
0.000235978
0.00013727
-0.000145459
-0.000313676
-0.000215721
7.56434e-05
-0.000181247
-0.000104732
-0.000401173
-8.78624e-05
-0.000184714
-0.000783716
-5.94735e-05
-0.000167222
9.61164e-07
-0.00116119
8.31648e-05
-9.86187e-05
-2.67872e-05
-0.000273009
-8.55769e-05
-0.000151405
-0.000479776
4.76555e-05
1.95416e-05
-7.5689e-05
-0.00102653
-4.46409e-05
-0.000417003
-0.000125356
-0.000551589
-0.000367121
-5.20024e-05
0.000172084
-5.14081e-06
-0.000266329
-0.000322726
-0.00040036
-0.000562197
-0.000309533
-0.000386433
-0.000290726
-0.000846625
-4.162e-05
-0.000523543
-0.000157186
-0.000782546
-0.000393781
-3.63388e-05
0.000102905
0.000176173
0.00014807
-0.000340309
-3.05402e-05
-0.00025747
-0.000751054
-0.000184943
-0.00114815
-0.000384984
-0.000519754
0.000704576
-0.000391863
-5.93683e-05
0.000532785
0.000255097
0.000572075
-0.000233153
0.000247927
-0.000245468
-1.3666e-05
0.000405828
0.000306232
0.000256107
-0.000456787
0.000124894
-0.000291141
5.5139e-05
-0.000202614
0.000121455
-0.000117907
0.000404698
-0.000103515
-0.000295179
-0.000503502
-0.000163466
4.6311e-05
-0.000639645
8.3208e-05
1.69811e-05
0.000137864
-0.000108433
-0.000191107
-8.50241e-05
-0.000171579
0.000260456
0.000237485
0.00013591
-3.97312e-05
-2.4829e-05
-6.11337e-05
-0.000453333
0.000133988
0.000116409
0.00016533
-0.000124088
-9.93196e-05
2.83614e-05
-0.000228651
7.36332e-05
0.000243191
-0.000205367
-0.000378377
-0.000235234
0.000380562
-0.000152937
0.000124797
-6.49712e-05
5.84375e-05
-0.000381354
-4.31037e-05
3.03799e-05
0.000116039
-4.3022e-05
-0.000160844
-6.76296e-05
-0.000319848
0.000206465
2.31429e-05
0.000160769
0.000130835
-0.000123156
-1.39521e-05
-0.000170742
0.000248218
8.75192e-05
0.00015152
-0.000248644
-3.85336e-05
-1.08293e-05
-0.000286546
0.000757458
-2.61349e-06
0.000117766
0.000190397
8.1934e-05
0.000158717
-0.000153885
0.000247199
6.28002e-05
8.74835e-05
-0.000293413
0.000119486
0.000148232
-9.90582e-05
-4.3983e-05
3.51848e-05
0.000369845
0.000191932
0.00020005
-0.000524972
0.000648245
-0.000134601
-4.99997e-06
0.00029381
0.00022847
-0.000427326
0.000635738
9.36226e-05
0.00016352
0.000102968
-0.000162848
-0.000177556
3.6467e-07
-0.000520952
-0.000154185
-0.000769152
-0.000200998
-4.63196e-05
-0.000294321
1.13739e-05
0.000135981
-0.000219827
-0.000367916
-0.000112636
-0.000729723
-0.000224748
-0.000970045
-0.000596196
0.000192451
7.52245e-05
-0.00071147
-0.000143821
1.29109e-06
-0.000122468
-0.000578352
-0.000246978
-0.000786411
-0.000443121
9.79763e-05
0.000244212
-0.000461869
-0.000401138
-0.000252436
1.37708e-05
-0.00032094
-0.000125756
-0.000856453
-0.000227866
0.000129651
1.63537e-08
-0.000751675
-0.000393389
-0.000207362
-9.27e-05
2.7976e-05
-0.00021564
-9.73094e-06
-0.000442214
-9.26062e-05
-7.5366e-05
-0.000219658
1.30762e-05
-0.000324161
-0.000286058
-0.000356642
1.71042e-05
-0.000159907
-3.20772e-05
-0.000327945
-4.72023e-05
1.27113e-05
-0.000101734
-0.000202448
-0.000185311
-0.000245224
-0.000315836
6.38188e-05
-0.00013956
-2.52923e-05
-0.000321808
-4.18891e-05
0.000331033
8.70223e-05
-1.53493e-05
-0.000240361
-0.000192613
9.72652e-06
-9.067e-06
4.68755e-05
4.92172e-05
-0.000740793
-0.000148646
-0.000213892
-7.23607e-05
4.27196e-05
-0.00042332
-0.000147915
-0.000677337
-0.000207652
-0.000219388
-6.75698e-05
-0.000798046
-0.00014958
3.76805e-05
-0.00032228
5.90961e-05
-0.000149755
2.97913e-05
-0.000332162
-3.86805e-05
-6.3793e-05
0.000112938
0.000105727
7.14051e-05
-0.000195767
-0.000181573
5.47232e-05
-0.00028321
-1.46198e-05
-0.000619848
-8.88315e-05
0.000178815
-0.000144622
0.000121419
0.000253743
-0.000122218
-0.000213098
-3.63625e-05
-0.000292284
-6.76121e-05
0.000173299
0.000115796
0.000455058
0.000323864
0.000279173
0.00058726
2.02899e-05
-1.03781e-05
0.000191375
0.000607994
0.000130791
0.000307856
0.000463835
0.000655747
0.000125385
0.000151885
0.000120408
7.33872e-05
-0.000147023
0.000318493
0.00113238
0.000364703
0.00119934
0.00088297
0.00100682
0.000188922
-6.09683e-05
0.0011538
0.000201624
-0.000231561
5.1616e-05
2.37218e-05
3.51617e-05
-0.000130214
-2.24444e-05
0.000361185
-5.82651e-05
0.000212243
-3.76826e-05
-0.000325069
-9.36034e-05
0.000312299
-1.15007e-05
1.5256e-05
7.9072e-05
-0.000105735
-0.00023271
0.000707039
-3.48092e-06
0.000138824
0.000175619
-0.000259801
-0.00033672
0.000116816
0.000145264
0.000111407
-5.64985e-05
7.75938e-05
-0.000115979
-0.000209859
-3.86501e-05
-0.000384174
-0.000238627
1.82318e-05
5.08386e-05
4.35915e-05
6.86363e-05
-1.11428e-05
-2.20586e-05
-6.70917e-05
-8.26747e-05
9.32194e-05
-0.000271892
-0.000378256
-0.000264136
2.6156e-05
0.000327165
0.0001249
-0.000178884
-0.00038008
-0.00010115
0.000110256
0.000243408
0.000145674
0.000196301
5.93473e-05
5.06163e-05
5.48245e-05
-7.13336e-05
-0.00012294
-0.000146295
-0.000426364
0.000828378
1.88527e-05
3.19646e-05
0.00023131
0.000183358
0.000160521
-0.000146045
0.000519525
2.91262e-05
4.94523e-05
5.62197e-05
-3.13739e-05
0.000156632
-0.000302712
0.000252515
3.86576e-05
0.000148269
-0.000161
0.000154954
-0.00010254
-2.8426e-05
0.000324574
-5.28544e-05
-0.000138104
0.000138619
-8.77419e-06
-5.5148e-05
3.80986e-06
-8.79023e-05
0.000117941
2.85337e-05
-0.000146498
-9.52627e-05
0.000855834
-8.02104e-05
0.000112334
0.000109128
-8.57412e-05
-0.000225058
-7.97065e-05
0.00015652
8.71793e-05
-2.59386e-06
9.65982e-05
-0.00013145
0.000460121
-0.000133085
1.44442e-05
1.88783e-05
3.44898e-05
2.47527e-05
-0.000187713
5.29563e-05
-1.82189e-05
5.63498e-05
-9.38809e-05
-2.97802e-05
0.000880927
-4.21208e-05
7.03211e-05
8.5248e-05
-0.000100876
-4.84405e-05
-2.9853e-05
7.39768e-05
-9.38325e-05
-0.000174322
0.000126326
-5.64019e-07
0.000316621
5.16589e-05
0.000159206
4.53967e-05
0.00011127
0.000131424
-0.000118182
0.000827106
0.000217618
0.00020526
0.000426577
0.000114838
3.17359e-05
0.00128736
4.04994e-05
0.000145418
0.000411309
-0.000273463
-0.000120185
-0.000236886
-0.000160775
-0.000537618
-0.00133779
-7.87647e-05
-0.00043373
-0.000539271
-0.000418242
-0.000795546
-0.000401001
-0.000450943
0.000110358
0.000302471
0.000175785
-0.00071707
-6.46245e-05
0.000177664
0.000101977
-7.01961e-06
-0.000555018
4.6263e-05
-0.000396742
9.70332e-05
0.000264031
0.000590277
0.000574927
6.02612e-05
5.18918e-05
0.000797658
0.000461664
0.000261022
-0.000228942
0.000407222
-9.41859e-06
1.27849e-05
-0.000654858
4.38769e-05
-0.000264221
-0.000855289
1.61742e-05
-0.000561668
-0.000496961
-0.000404468
-0.00051755
-0.000364202
-0.000153321
-6.14475e-05
-0.00036906
0.000128705
-0.000569842
8.61799e-05
0.00014741
-0.000481014
-0.000467682
-0.000373853
-0.000296931
-0.000404492
-0.000626109
2.54471e-06
-0.000375874
-0.000220013
-0.000162468
-0.000451085
3.07241e-05
5.1492e-05
-0.000234049
-0.000264209
-0.000551099
-0.000102468
-0.000487841
1.44075e-05
-0.000185531
0.000123145
8.05642e-05
-0.000195135
-3.49272e-05
0.000238297
-2.32361e-05
-0.000168019
-0.00041988
2.16085e-06
3.14197e-05
1.25994e-05
-3.87635e-05
-0.000123663
0.000108359
-0.00186559
-8.74907e-05
0.000101383
-0.000157263
-0.000121468
-0.000532872
7.07141e-05
-0.000287166
-7.38441e-05
-0.000130942
-1.12442e-06
-1.66888e-05
-0.000779442
3.61734e-06
-6.58581e-05
-0.000279242
-0.000200315
-0.000612002
-7.91162e-05
-4.23636e-05
-0.000604517
-4.23402e-05
-0.000762852
-0.000446973
-0.000480132
-8.64492e-05
-4.09947e-06
-0.000326827
-0.000606946
-0.000661143
-0.000585954
-0.000586407
-6.97395e-07
-1.27482e-05
-7.94478e-06
0.000937148
0.000596373
0.00135689
-0.000791092
-0.000637957
0.00142897
0.00138473
0.00135485
-0.000494346
0.00101966
-0.000433355
-0.000271819
-0.000197394
6.08252e-05
-8.90113e-05
-0.000318181
-6.06501e-05
-5.25392e-05
-5.36878e-05
-0.000131276
-0.000543567
7.02866e-05
-0.00014479
6.58551e-06
-0.000158376
0.000177926
0.000185596
1.57652e-05
1.05201e-05
-2.09128e-05
-7.21197e-06
-7.19726e-05
-0.000410254
4.31695e-05
9.79908e-07
-2.88623e-05
-0.000364609
-0.000153995
-0.000155678
-0.000428677
-2.71744e-05
-0.000232249
-0.000245648
-0.000122589
-0.000505466
-8.77386e-05
5.36484e-06
-0.000201866
6.30443e-05
-0.000207416
0.000161323
0.000226503
-0.000150464
0.000135521
0.000219084
-2.03454e-05
-0.000148361
-0.000441552
1.09752e-05
1.10353e-05
-1.72631e-05
-7.60505e-05
-0.000104123
-0.000945564
-0.000173165
-0.000329476
-8.48752e-05
5.99138e-05
-0.000638266
-0.0004558
-3.9225e-05
5.56572e-05
0.000117978
7.6332e-05
0.000195576
-2.56441e-05
6.40427e-05
9.54912e-05
0.000222767
0.00023259
0.000232574
0.000263825
0.000250223
0.000213696
-2.2862e-05
1.89339e-05
8.46307e-07
4.26778e-05
0.000105455
6.62793e-05
-1.77239e-05
4.03519e-05
3.48309e-05
-9.57074e-05
-6.39068e-05
-2.64443e-05
6.6507e-06
-5.13006e-05
-1.63654e-05
0.000108433
2.46688e-05
6.15928e-05
4.47724e-05
3.55082e-05
7.70833e-05
-1.06829e-06
0.000122541
-2.00789e-06
0.000215382
0.000121396
2.38143e-05
2.79479e-05
6.11974e-05
3.16867e-05
6.78443e-05
6.77364e-05
7.15757e-05
-0.000165034
-9.40458e-09
-2.18605e-05
0.000271061
0.00038693
0.00020873
-3.99821e-06
0.000244384
1.32634e-05
-5.26556e-05
-1.05938e-05
-5.97338e-05
1.27778e-05
1.04134e-06
6.58281e-05
-2.36526e-05
-0.000159551
-0.000121313
-2.44796e-06
0.000226743
0.000226482
0.000223709
0.000225079
-7.20061e-05
2.10202e-05
4.27286e-05
1.41118e-05
-2.15836e-05
2.94856e-05
-1.23967e-05
0.000116544
0.000124507
8.52279e-05
7.20342e-05
1.56175e-05
-1.89718e-05
6.84108e-07
6.37803e-05
6.95085e-05
9.05878e-06
0.000330901
6.95254e-05
8.05306e-05
0.000115323
9.59619e-05
6.64447e-05
8.8747e-05
8.44948e-05
0.000127839
6.02824e-05
-7.79207e-06
9.43278e-05
0.000113562
3.35356e-05
0.000106472
-4.87568e-06
1.58413e-05
2.8593e-05
-0.000126853
3.20991e-05
0.000170179
0.000470156
0.000397002
1.91419e-05
4.08491e-06
1.59726e-06
-8.12459e-06
-1.7913e-05
1.45508e-05
1.83411e-05
-1.02889e-05
-1.14075e-05
3.99427e-05
-0.000157612
-0.000137975
0.00026345
-0.000112719
5.1973e-05
7.83294e-05
5.69337e-05
2.65894e-05
6.8713e-05
2.13331e-05
-5.06072e-05
-4.10344e-05
0.000241942
7.54906e-05
2.40303e-05
-5.74741e-06
-0.000112284
3.46367e-05
2.4714e-05
1.95688e-05
2.48074e-05
3.71195e-05
2.9127e-05
2.33375e-06
4.59926e-05
-1.1114e-05
3.75992e-05
6.85577e-05
4.80262e-05
-7.64705e-05
7.56307e-06
-7.98588e-06
-8.25121e-05
-2.67478e-05
-4.16016e-06
-1.08641e-05
-2.38209e-07
6.05789e-05
3.83707e-05
4.82029e-05
-5.40218e-05
3.13787e-05
1.08822e-05
3.64677e-05
-1.24931e-05
2.7e-05
3.53771e-05
2.41103e-05
5.4191e-05
2.22218e-05
2.00644e-05
7.64767e-06
1.01674e-06
4.33378e-05
1.75559e-05
1.28072e-05
9.67172e-05
5.29242e-05
1.41333e-05
-2.49351e-05
0.000130763
1.61331e-06
-3.2541e-05
-4.09668e-06
3.28397e-05
-4.77102e-05
-1.20035e-05
4.31907e-05
6.59715e-05
-2.46592e-05
3.98813e-05
6.5298e-05
2.7025e-05
1.14253e-05
-8.31743e-06
-1.59493e-05
0.00010682
2.61745e-05
6.91534e-07
-1.57836e-05
-0.000122088
-8.28334e-05
-1.59747e-05
-2.85785e-05
4.36872e-05
0.000176706
9.25034e-06
2.24168e-05
7.40352e-05
5.23401e-05
9.11488e-05
6.35624e-05
0.000132059
0.000136962
0.000249164
3.90115e-05
0.000136935
0.000125632
0.000123343
8.94923e-05
4.81502e-05
0.000129487
6.57953e-05
0.00018587
-9.16732e-06
3.36873e-05
8.46648e-05
0.000123438
-1.67345e-05
0.000187817
0.000222646
0.000220989
0.000163468
0.000226332
2.88784e-05
0.000267702
1.13201e-05
5.60092e-05
6.21948e-05
6.10614e-05
6.71881e-05
0.000231124
0.000117886
9.85318e-05
-3.27506e-06
0.000198836
7.36636e-06
3.80628e-05
1.50157e-05
0.000151306
0.000183336
0.000111178
0.000227326
0.000203817
0.000151495
9.61179e-05
0.000220362
0.000310307
0.000223743
0.000185836
2.42573e-05
2.00262e-05
-3.2629e-06
3.63303e-06
8.10084e-05
1.66029e-06
0.000109475
-1.35478e-05
1.9456e-05
-1.44596e-05
-0.000103832
1.76597e-05
-1.82639e-05
-6.21078e-05
-9.93153e-06
-3.87678e-05
-6.42805e-07
-2.33555e-05
3.78031e-06
-9.46494e-05
-5.51808e-05
-0.000127391
1.48382e-05
-3.21767e-06
2.17779e-05
-1.36882e-05
-6.68806e-05
-9.10364e-05
8.96975e-05
8.5712e-05
0.000128139
4.0572e-05
0.000106717
-2.02363e-05
8.39898e-05
0.000133192
1.67209e-05
-3.9647e-06
1.5595e-05
7.33685e-05
3.43645e-06
0.000115684
3.47328e-05
-7.41247e-05
-0.000115353
-8.29039e-05
0.000108762
2.00807e-05
-2.34865e-05
-2.05578e-05
6.61932e-05
-3.07081e-06
-3.8531e-05
-1.27276e-07
-2.53301e-05
7.34264e-05
-1.95019e-05
9.47893e-06
-1.21857e-05
-5.92744e-06
-6.95528e-06
-6.41383e-06
-8.22223e-05
-2.01414e-05
1.5738e-05
6.09191e-05
-3.08367e-07
-2.95539e-05
-3.36053e-05
0.000106449
8.2909e-06
2.75483e-06
7.72709e-05
3.7879e-05
1.80557e-05
-1.20925e-06
2.59497e-05
-3.7152e-06
3.94134e-05
1.79315e-05
8.29435e-06
-5.53904e-05
3.05333e-05
0.000135539
3.05843e-05
1.70062e-05
0.000132417
-1.34864e-05
8.48382e-06
-6.94356e-05
6.03313e-06
1.00825e-05
-2.90648e-05
3.98288e-05
8.33158e-05
-2.57306e-05
0.000128877
4.82025e-06
1.9323e-05
3.26078e-05
-5.73468e-05
-3.19321e-05
3.11723e-05
9.66387e-06
0.000141033
1.33559e-05
-1.11084e-05
1.9246e-05
3.19876e-05
-3.00354e-05
0.00011903
9.914e-05
-1.05915e-06
5.78637e-06
-3.99718e-05
4.8093e-05
-2.54725e-05
6.0985e-05
-6.45631e-05
2.79992e-06
0.000100498
2.05904e-05
-4.96482e-05
6.91382e-06
-2.63119e-06
-2.66458e-06
3.44705e-06
-0.000384804
-9.22078e-06
-5.38334e-05
0.000106631
4.75775e-05
0.000120666
2.2452e-05
-2.89865e-05
-7.7646e-05
-7.882e-05
-0.000175617
-0.000280655
-7.17475e-05
-4.84874e-06
0.000113227
-5.89391e-06
-1.17033e-05
-2.69878e-05
-3.15122e-05
7.95436e-06
-6.40667e-07
0.000131645
0.000119314
8.66052e-05
7.9075e-06
-5.39328e-05
4.14931e-05
0.000114511
2.94564e-05
3.67243e-05
-4.42525e-05
4.80622e-05
0.000106258
0.000102519
4.305e-06
8.41123e-05
0.000233831
0.000130772
3.51641e-06
0.000145058
-7.7571e-05
-0.000165873
-4.15864e-05
4.47818e-05
0.000119641
0.000252452
0.000115451
0.000121391
-2.34864e-06
2.87672e-05
-5.67359e-05
4.75914e-05
4.42751e-05
-9.53464e-07
4.72976e-05
0.000148462
0.000214478
1.47624e-05
1.36564e-05
8.40119e-05
4.59741e-05
2.29199e-05
-1.43256e-06
6.75299e-06
0.000265245
0.000244149
0.000109942
0.000262648
0.000172878
0.00020547
0.00010511
0.000258631
3.57546e-05
0.000206147
0.000154675
0.00021795
7.8064e-05
0.000257133
5.47458e-05
0.000223129
-4.75437e-05
9.13904e-06
-1.00318e-06
-1.80672e-05
-6.73634e-05
2.27073e-06
9.00872e-07
5.19974e-05
1.52726e-05
2.1337e-05
-0.00012713
-7.85419e-05
-3.97524e-05
-5.56879e-05
-3.3722e-05
-3.14013e-05
-0.000146067
5.90101e-05
-2.05134e-05
-3.54143e-05
-3.6658e-05
5.90482e-05
3.75238e-05
3.23261e-06
-0.000159598
1.37955e-05
-0.000137984
-0.000108926
-2.2353e-05
-2.07024e-05
3.71804e-06
-1.50357e-06
-2.61202e-06
3.78297e-05
-1.43308e-06
-5.52087e-06
3.25519e-06
2.24557e-05
-2.18409e-05
8.07387e-05
7.12857e-06
4.76468e-05
4.4651e-05
1.79573e-05
-3.56027e-05
-2.6057e-05
0.000110156
0.000115618
0.000105601
3.50926e-05
6.05901e-06
-6.43525e-05
2.08627e-05
-0.000133931
7.96177e-05
6.20052e-05
-8.0086e-06
-0.000110076
-0.000129652
-2.36894e-05
2.07574e-06
3.27641e-05
5.4618e-05
9.16004e-06
4.82348e-06
8.06654e-06
-2.41958e-05
4.6392e-05
-0.000135763
-1.13483e-05
1.16749e-05
0.000126179
2.25399e-05
-6.2004e-06
-1.37373e-05
4.16237e-05
-1.51198e-06
6.28103e-06
-1.77993e-06
1.19156e-06
-8.66027e-07
-1.32116e-06
3.88091e-06
9.99034e-06
3.17288e-05
-5.21657e-05
-3.81859e-06
-1.67831e-05
2.06115e-05
1.93605e-07
2.60274e-05
-2.14518e-08
-8.86199e-06
-2.65382e-05
-4.63445e-05
-0.000798061
-0.00147371
-0.000742087
-6.66893e-06
3.75122e-05
1.01803e-05
-2.44604e-05
2.47075e-05
6.01525e-07
5.21645e-05
4.94045e-05
6.28544e-06
1.01259e-05
-4.37805e-05
1.14817e-05
-7.17173e-05
5.71002e-05
-2.31418e-05
4.75175e-05
-1.28333e-05
-1.16052e-06
2.98651e-05
2.71208e-05
-3.22183e-05
-1.82866e-05
0.000103712
-3.23111e-05
4.33142e-05
-0.000582668
0.000127742
4.48819e-05
1.66025e-06
4.52292e-05
1.06223e-05
-3.97862e-06
-4.1665e-06
4.16121e-06
-1.73179e-06
-1.21989e-05
7.94234e-07
2.14083e-06
-2.93738e-06
-6.46625e-05
-8.39849e-05
3.90045e-05
1.34699e-05
2.15071e-05
1.29809e-05
2.64002e-05
3.80212e-05
3.32854e-05
4.01092e-05
7.54164e-05
5.90373e-05
2.99474e-05
5.97087e-06
4.73737e-05
2.14779e-05
4.39095e-07
-5.65182e-05
6.78529e-05
4.75449e-06
3.32207e-06
2.55385e-05
1.56824e-05
-9.68286e-06
3.75812e-06
2.79243e-05
0.000133395
0.000121727
-1.98298e-05
0.000126256
-3.89717e-05
-0.000262725
-0.000167202
4.67104e-05
0.000151069
-4.30474e-05
-6.54265e-06
1.45937e-06
-0.000100423
-0.000197636
-5.0172e-05
6.10867e-05
4.6502e-05
3.79141e-05
5.56586e-05
8.07483e-05
-2.43396e-05
-2.05279e-05
-2.07606e-05
9.39363e-05
-1.44741e-05
-4.58128e-06
-4.42464e-05
-2.18944e-05
-7.48437e-06
1.21401e-05
3.09512e-06
1.73633e-05
1.77712e-05
2.82681e-05
2.91431e-06
1.27161e-05
3.01863e-05
3.06445e-05
-8.59217e-05
1.78779e-05
6.49101e-05
4.80877e-05
-1.46484e-05
1.78898e-05
6.62588e-05
9.88248e-05
-9.31049e-06
9.02e-05
7.83785e-06
1.80622e-05
-3.26957e-05
8.88146e-07
-2.84058e-05
-6.85584e-05
-6.42555e-05
-2.23476e-05
3.95214e-05
4.8254e-05
-1.91761e-05
0.000111562
0.000128871
-9.43635e-06
-4.40399e-06
1.21295e-05
-1.31927e-07
-4.7926e-06
-0.000148704
-0.000146126
-8.96181e-05
-7.62184e-05
-0.00013976
0.000250908
0.000212069
0.000228436
8.88161e-05
9.4144e-05
-4.29968e-06
-6.23998e-05
-2.09095e-07
-2.70518e-05
9.07137e-05
0.000122687
-0.000590036
-0.000470929
-4.37725e-05
-0.000391392
2.11121e-05
-1.05582e-05
7.1703e-06
3.19434e-05
9.01146e-05
2.51197e-05
8.25804e-05
2.74431e-05
3.14888e-05
0.000103595
2.3021e-05
2.29713e-05
0.000190457
4.43587e-05
6.18243e-05
5.97995e-05
4.54654e-05
5.13403e-05
-1.36846e-05
-7.83393e-07
-1.91689e-05
1.71114e-05
-4.60097e-06
9.86991e-05
2.83228e-05
-1.54249e-05
-3.44157e-05
2.74673e-05
7.78322e-06
0.000131383
2.975e-05
-2.35247e-06
8.78782e-05
-1.09992e-05
1.41896e-05
-4.78834e-06
2.0764e-05
-2.24719e-05
8.07449e-06
-7.74477e-06
5.44384e-06
-5.51642e-05
6.79751e-05
1.39497e-05
1.29555e-05
1.65613e-05
2.2856e-05
8.30178e-05
2.79692e-05
3.09038e-05
4.22222e-05
6.39611e-05
5.45069e-05
4.23422e-05
2.8429e-05
9.57355e-06
5.44819e-05
1.94014e-05
5.73355e-05
2.72302e-06
4.61786e-05
5.05213e-05
5.19845e-05
5.59619e-05
4.53849e-05
5.36765e-05
5.32965e-05
4.13656e-05
3.61414e-05
3.61912e-05
2.88842e-05
6.16518e-05
4.29972e-05
3.96837e-06
1.99963e-05
7.9705e-06
1.89526e-05
1.93711e-05
3.91417e-05
3.7568e-05
6.384e-06
2.1144e-05
3.2251e-05
4.11216e-05
4.14674e-05
3.19502e-05
1.56173e-05
3.76421e-05
4.63917e-05
3.40728e-05
-1.64049e-05
3.50538e-05
5.32464e-05
2.85793e-05
3.6905e-05
2.1348e-05
4.21098e-05
2.27495e-05
5.89035e-06
4.63103e-05
0.000145104
-3.38285e-05
-1.07442e-05
-0.000259717
-0.000297582
-0.000231732
9.41036e-05
-0.000208716
2.55138e-06
-0.000357466
-0.000180489
-0.000242161
3.82459e-05
-0.000111293
-1.36335e-05
-0.000216964
-9.47452e-05
-0.000266224
-3.24005e-05
-2.23094e-05
-6.44425e-05
-2.06534e-05
-2.29166e-05
-0.00011177
-1.10619e-05
-0.000128919
-2.16431e-05
-9.69316e-05
-0.000255104
0.000246399
1.67899e-05
-7.425e-06
0.00016627
-0.000250577
-0.000339979
-0.000120076
-2.86019e-05
-0.000110158
-0.000358991
-0.000323866
-5.86491e-07
-0.000166651
-0.000255923
-2.06415e-05
3.7136e-06
-0.000148476
-4.85531e-05
-0.000281753
-0.000103546
-3.91688e-05
-5.45768e-05
-5.99525e-06
-5.73979e-05
1.95968e-05
-0.000143138
-0.000174699
0.000170536
-1.10768e-05
-0.000189726
-4.95124e-05
-0.000206253
-0.000240175
-7.42457e-05
-0.000304788
-0.000278089
-4.13947e-05
1.08581e-05
3.07838e-05
3.60919e-05
2.52727e-05
-4.47539e-06
-2.54331e-05
0.000112419
-8.63788e-05
-3.1603e-05
6.37996e-07
-2.31438e-05
-2.007e-05
2.50218e-05
-1.83498e-05
-5.3919e-05
0.000235865
0.000114095
-0.00021934
6.29933e-05
-0.000171099
-0.000218727
-7.39189e-05
-0.000200647
-0.000186404
-0.000174163
-0.000121242
-2.40251e-05
-0.000135452
0.00016705
0.000260776
0.000146786
0.000167515
0.000193225
-9.47936e-05
-3.3047e-05
0.000154885
7.74995e-05
-4.35269e-05
-8.56999e-05
0.00015873
-0.000164226
3.13418e-05
1.64269e-05
2.04348e-05
4.58992e-05
-1.98792e-05
-0.000232531
-0.000233017
-0.0001486
-0.000268309
-0.0002359
0.000165198
3.85778e-05
6.58521e-05
-5.08047e-05
3.42232e-05
-0.000133394
-8.21498e-05
-4.65314e-05
-5.88553e-05
-2.93311e-05
-2.76892e-05
-0.000234201
-0.00014221
-0.000162763
-0.000111614
-0.000261036
0.000143742
1.4762e-05
-3.33999e-05
-7.75417e-05
-0.000385306
-0.000363309
-0.000145015
-0.00030566
-0.000115984
-0.000130276
-9.7916e-05
1.87159e-05
-0.000156816
-3.73916e-05
-0.000325998
-9.29439e-05
-4.33959e-05
-8.72904e-06
-0.000136483
-3.01363e-05
-4.76029e-05
-8.04466e-05
-4.98131e-05
-0.000205478
-0.000242185
-3.58738e-05
-0.000172202
-0.000149821
0.000258584
3.05116e-05
-8.77968e-05
-2.34318e-05
-0.000271492
-0.000335514
-7.3801e-05
-0.000166908
-0.000139047
-0.000409303
-0.000107981
-0.000109361
-3.29482e-05
-6.89385e-05
-4.06151e-05
-4.79915e-05
-9.46828e-05
-0.000158202
-0.00016433
-6.65404e-05
-0.000320179
-0.000268042
-0.000333462
-7.41078e-05
-7.53196e-05
-0.000467442
-0.00029708
-0.000141653
-0.000232748
-0.000408905
-0.000239443
-0.000389873
-0.000571768
-0.00041981
-0.00058125
-0.000333768
0.000186985
-3.68555e-05
-7.79375e-05
-0.000361828
-0.000279938
-0.000221861
-0.000170828
-0.000292302
0.00016143
-0.000281963
-0.000495485
-0.000263046
0.000223089
9.3146e-07
-0.000218046
-0.000368595
-0.000275349
-0.00037821
-0.000209163
2.73391e-05
-4.53343e-05
0.000112688
-0.000264354
-0.000224236
-0.00046176
-0.000233601
0.000193065
-7.75249e-05
-0.000117799
-0.000319659
-0.000308022
-0.000530064
7.95971e-05
4.17432e-05
5.41302e-05
-2.35104e-05
5.18331e-05
-1.34774e-05
-9.49836e-05
-7.51097e-05
0.000117741
-3.93535e-07
6.1505e-06
-3.78487e-05
9.41733e-05
4.01937e-05
5.48558e-05
1.38806e-05
0.000139472
-0.000365838
1.28324e-05
2.89333e-05
7.21178e-05
-1.27134e-05
-3.24237e-05
9.31888e-05
-0.000186683
-0.000271409
0.000170401
-5.38945e-05
-0.000476936
-8.72249e-06
0.000155048
0.000135491
4.8204e-05
-7.27696e-06
6.74297e-05
-6.07247e-05
-0.000241532
-0.000256646
-0.000190044
-0.000173225
0.000176331
2.57741e-05
-0.000102341
-0.00031599
-0.000350467
-0.000270062
-0.000222096
0.000170535
-5.06299e-05
-2.95419e-05
-0.000352707
-0.000352906
-0.000274228
3.38694e-05
-0.00011054
-2.48924e-05
-0.000169483
-9.93937e-05
-6.29943e-05
0.000226852
1.6857e-05
3.6776e-05
-0.000320857
-4.11751e-05
1.65833e-05
-0.000108944
-2.21799e-05
-0.000195807
-0.000109878
-0.000271143
0.000233022
-0.000139923
0.000161098
-0.000352087
-0.000118427
-0.000647916
-0.000174286
-0.000194875
1.96417e-06
0.000192326
-0.000418458
0.000153277
-9.29107e-06
7.71857e-05
-0.000412196
-0.000222096
-0.000663719
-0.000201542
-0.000372608
4.05432e-05
0.000178105
-0.000346535
0.000146055
-0.000817374
-0.000162521
-2.1036e-05
9.50487e-05
0.000178189
-0.00034009
-0.000234379
-0.000177518
-0.000257704
-0.000103643
-0.000104797
-0.000374486
4.07687e-05
-0.000144983
1.90889e-06
-0.000228542
-0.000129196
-0.000174272
-0.00032488
-6.21879e-05
-0.00014221
-0.000580066
0.000352423
0.000870288
0.000400315
0.000983066
0.000621949
0.000893644
-0.000365033
-0.000183674
0.00124952
0.000370354
-0.000379637
-0.000566692
-0.00015527
0.0008564
0.000700091
-0.000417368
-1.27702e-06
-2.67145e-05
0.000851902
0.000336429
-1.34303e-05
0.000237621
0.000793537
0.000277158
0.000781285
0.000617516
0.000731072
-0.000248468
-0.000122625
0.000853
0.000297237
-0.000135375
0.000287138
0.000844044
0.000314598
0.000878212
0.000612268
-2.91305e-05
1.30285e-05
0.000582372
0.000388986
-4.08207e-05
0.000249315
0.000807037
0.000262321
0.000753252
0.000663224
0.000915449
-0.000521847
-6.61777e-05
0.000592799
0.000482833
-0.000177282
-5.07256e-05
-5.62637e-05
0.000800832
0.000315453
-7.78341e-05
-0.000412828
-3.75148e-05
0.00133658
0.00034919
-0.000145472
0.000624044
3.73644e-06
2.97842e-05
0.000605257
0.000462188
-0.000133596
0.000609947
-4.92893e-05
1.24618e-05
0.000714992
0.000575596
0.000170167
-6.50727e-05
0.000706226
-0.000149533
-2.90163e-05
0.000626492
0.000570719
-9.8227e-05
0.000724834
-0.000170419
-4.28042e-05
0.000616561
0.000514598
-0.000247779
0.000842097
-0.000444116
-0.000121626
0.000687757
0.000643848
-0.000209371
0.000762
-0.000210775
-4.29514e-05
0.000703331
0.000505128
-0.000114874
0.00071167
-0.00035667
-8.57143e-05
0.000764301
0.00049869
-0.000234105
0.000715864
-0.000397628
-0.000102521
0.000649659
0.000562685
-0.000289867
0.000736948
-0.000104927
4.66954e-06
0.000539211
0.000527283
-0.000161065
0.000316603
0.000948382
0.000345107
0.00107721
0.000765264
0.00102652
-0.000183655
-4.02202e-05
0.000863029
0.000407015
0.000625046
-0.000209996
2.50263e-06
0.000727792
0.000374743
7.07282e-05
-0.000178535
0.000415722
-1.58087e-06
1.79907e-05
0.000706381
0.000485434
-9.6469e-05
0.000134587
-0.00107758
-0.000151248
-6.87266e-05
0.000125827
0.000180939
-0.000393619
0.000317245
0.000948769
0.000364733
0.000990606
0.000730843
0.000598816
-0.000581048
-0.000158748
0.00101917
0.000427862
-0.000251636
0.000323203
0.000808157
0.000362046
0.000850847
0.000580758
-0.000584157
-0.000231696
0.0011025
0.000708242
-0.000558533
-0.000747407
-6.70626e-05
-3.7258e-05
4.54991e-05
4.25706e-05
0.000147855
-0.000221725
-9.57125e-05
8.07444e-05
-0.000279905
-0.000242964
-0.000255017
7.83174e-05
4.71712e-05
-8.66761e-05
-0.000207582
-0.000161009
0.000109734
7.68493e-07
2.03709e-05
-0.000117835
4.40387e-05
-2.4358e-05
-0.000588895
-3.14609e-05
-3.81275e-05
5.31912e-05
-0.000771155
0.0001123
5.34928e-05
6.79679e-05
-4.14064e-05
4.40769e-05
-1.37847e-05
-0.000388927
1.6033e-05
4.03468e-05
1.74012e-05
-0.000648262
-8.0609e-06
-0.000205222
-3.67253e-05
-0.00027576
-0.000184606
-0.000165089
8.87448e-05
2.62596e-05
-0.00015001
-0.000257514
-0.000172771
-0.000467466
-0.000139301
-0.000181909
-0.000166205
-0.000539143
1.10055e-05
-0.00017876
-2.82176e-05
-0.000316685
-0.000126304
-1.66246e-07
-2.55265e-05
9.66476e-05
9.11116e-05
-0.000203558
-7.79701e-05
-3.5611e-05
-0.000538572
-9.07795e-05
-0.000536655
-0.000231024
-0.000363212
0.000668008
-0.000450376
-1.43609e-05
0.000527706
0.000347316
0.000633902
-0.000195944
0.000381781
-0.000279257
-3.64075e-05
0.000386487
0.000288826
0.000311617
-0.000276419
0.000123822
-0.000179394
9.19945e-06
-0.000108929
0.000179604
-0.000102542
0.0005048
-0.000122122
-0.000186176
-0.00024797
-3.62302e-05
0.000173706
-0.00039482
0.00013761
-7.15081e-05
4.52226e-05
-5.32678e-05
-0.000109327
-6.24217e-06
-0.00010563
0.000316312
7.34004e-05
4.48363e-05
6.32014e-06
1.42372e-05
3.91379e-05
-0.000241247
0.000187837
-2.64556e-05
6.66427e-05
-6.75758e-05
-4.27501e-05
7.1241e-05
-0.000140854
-6.01621e-05
0.000118662
-0.000151552
-0.000285503
-0.000181549
0.000385258
-0.000203432
3.90528e-05
-1.72307e-05
7.78334e-05
-0.000220527
5.90649e-05
-7.81036e-05
3.84425e-05
-3.33272e-05
-9.35798e-05
7.00226e-06
-0.000191752
0.00021402
-8.55775e-05
6.74516e-05
6.91959e-05
-7.1801e-05
2.87338e-05
-0.000117996
0.000322558
-1.61088e-05
5.58519e-05
-0.000124086
-8.9987e-07
4.84551e-05
-0.000167844
0.000679076
-9.59103e-05
6.09362e-05
0.000147699
0.000133709
0.000218922
-0.000154047
0.000299165
-8.12062e-05
2.43804e-05
-0.000115895
0.000130662
0.000183796
-7.4884e-05
-0.000139642
-6.55276e-06
0.000349001
0.000227562
0.000261487
-0.000322251
0.000595806
-0.000241268
-4.05289e-05
0.000223134
0.00020922
-0.000246814
0.000862657
3.40288e-05
0.000141367
0.000159255
0.000211404
-0.000172201
0.000132217
9.18609e-05
7.69618e-05
-1.62402e-05
0.000154802
0.000369638
-0.000114566
9.36862e-05
0.0003606
7.01979e-05
-0.000246613
4.34225e-06
-0.000257939
-4.41681e-05
-0.000402959
-0.00023335
0.00010978
1.5747e-05
-0.000383823
-6.66866e-05
1.93493e-06
-2.91092e-05
-0.00026869
-9.1885e-05
-0.000393979
-0.00022539
1.79909e-05
0.000116361
-0.000291948
-0.000315742
-0.000160034
3.60209e-05
-0.000126368
-2.40048e-05
-0.000412709
-0.000104495
3.65105e-05
-2.8586e-05
-0.000398814
-0.000299708
-0.000147593
-5.24593e-05
4.2034e-05
-0.000104009
3.68828e-05
-0.000213027
-4.595e-05
1.66125e-05
-0.000249672
4.67054e-07
-0.000159565
-0.000239001
-0.000286468
2.97065e-05
-9.41449e-05
1.00129e-05
-0.000181978
-4.1423e-05
7.49335e-05
-0.000180024
-7.19621e-06
-6.88962e-05
-0.000212722
-0.000278021
6.72391e-05
-8.96287e-05
2.64745e-05
-0.00018368
-3.81913e-05
0.000107912
1.12396e-05
1.88764e-05
-0.000218754
-0.000167358
-5.504e-06
-1.65801e-05
-1.67497e-05
-1.37271e-06
-0.000351062
-8.33374e-05
-0.000178134
-5.05987e-05
7.55859e-05
-0.000118594
-1.36238e-06
-0.000247575
-1.13459e-05
-0.000227326
-7.75684e-05
-0.000336344
-0.00010881
6.01143e-05
-0.000183985
8.06588e-05
4.2761e-05
0.000106859
-3.55965e-05
7.39341e-05
-3.69427e-06
-1.29792e-05
4.9057e-05
-8.38284e-06
-0.000152153
-0.000119536
7.81476e-05
2.51383e-06
8.80474e-05
-0.000154099
7.69385e-05
0.000234328
-0.00021802
5.54429e-05
0.0001423
-6.9308e-05
-0.000147741
9.77325e-07
-0.000128536
2.1126e-05
-0.000162325
-0.000152514
0.000152074
3.09344e-05
5.98879e-05
0.000122186
-0.000224739
-0.000108635
9.98757e-05
0.00012956
6.93401e-05
-7.01945e-05
0.000133356
0.000215646
-0.000194712
3.19033e-05
-9.16574e-05
-0.000124127
-0.000229767
0.000262097
0.000839062
0.000305924
0.000886217
0.000687737
0.00082361
-0.000103885
-8.48258e-05
0.000835475
0.000180346
-0.000273585
5.34419e-05
3.68407e-05
5.98855e-05
-2.49787e-05
-1.11997e-05
0.000307822
-4.10002e-05
9.89767e-05
-9.13828e-05
-0.000239913
-0.00011614
0.000317846
-0.000103995
-3.01978e-05
3.06278e-05
3.88877e-06
-0.000175815
0.000627202
-4.63511e-05
7.58486e-05
0.00010472
-0.000102025
-0.000321066
0.000141334
0.000246961
0.000155632
0.00018146
0.000172531
-7.54078e-05
-0.000168922
-5.23475e-05
-0.000287665
-7.11375e-05
-2.50538e-05
8.8393e-05
0.000161821
0.000119375
0.000169757
7.44023e-05
9.17609e-06
-4.7552e-05
4.87316e-05
-0.000232261
-0.000207825
-0.000231165
4.47437e-05
0.000102811
7.96994e-05
-9.32781e-05
-0.000211297
-6.64734e-05
0.000131138
0.000305016
0.000175951
0.000313342
0.000153707
0.000157712
-3.70411e-05
-6.82493e-05
-7.47035e-05
2.25869e-08
-0.000228675
0.00083415
-0.000102993
-2.14311e-06
0.000249735
0.000296284
0.000274761
-0.000114688
0.000576012
-8.23382e-05
-2.69178e-07
0.000143969
0.000105123
0.000265965
-0.000179945
0.000325891
-7.12944e-05
5.58885e-05
-4.83326e-05
0.000223928
9.44307e-07
-4.63543e-05
0.000317617
-3.31273e-05
-7.27045e-05
9.18419e-05
0.000100297
-4.90434e-05
8.61047e-05
-0.000109441
6.30564e-05
-2.76557e-05
-6.1809e-05
-6.56867e-05
0.000794529
-0.000172545
4.60154e-05
8.70131e-05
5.42737e-05
-0.000168146
-0.000183109
6.04799e-05
3.65633e-05
6.50553e-05
0.000169057
-0.000112782
0.000491102
-0.000226025
-1.98449e-05
1.64308e-05
0.000103835
0.000137733
-0.000126405
9.3487e-05
0.000135739
0.000121525
0.000111448
9.16463e-05
0.000816744
-0.000170124
2.04955e-05
0.000118992
3.03148e-05
-6.06509e-05
-0.000165056
2.91472e-05
1.1108e-05
-6.24249e-05
0.000223232
-2.04327e-05
0.000332206
-0.000103907
4.46833e-05
5.04323e-06
0.000138788
0.000179105
-9.04179e-05
0.000782335
-3.08539e-05
0.000102776
0.000409911
0.000248375
-3.33492e-06
0.00117802
-2.97015e-05
7.56396e-05
0.000297817
-0.000155078
-0.00022255
-0.000124308
-1.83186e-05
-0.000238376
-0.000828441
-7.67378e-05
-0.000142613
-0.000303333
-0.00023024
-0.000460115
-0.000165338
-0.000266547
5.20379e-05
0.000416925
0.000347804
-0.000386639
-6.94064e-05
0.000447332
0.00036759
0.000209785
-0.000280561
0.000273838
-0.000259559
4.41721e-05
0.000466749
0.000634402
0.000689249
5.22315e-06
-1.08257e-05
0.000761487
0.000630671
0.000407947
-5.54215e-06
0.000524311
-4.4906e-05
4.61312e-06
-0.000314315
9.80498e-05
-7.80117e-05
-0.000543191
-4.64284e-06
-0.000192741
-0.000243009
-0.00019066
-0.000306508
-0.000171316
-0.000112685
-4.8891e-05
-0.000215767
0.000140166
-0.000319585
4.15684e-07
6.05428e-05
-0.000203729
-0.000213536
-0.000166112
-0.000201994
-0.000198756
-0.000339866
-8.37157e-06
-0.000174985
-5.28235e-05
-2.68433e-05
-0.000346716
-1.02432e-05
7.17882e-05
-9.02726e-05
-0.000112137
-0.0003154
2.41945e-06
-0.000334386
2.53596e-06
-3.9082e-05
0.000176367
0.000119326
-0.000178047
-6.1641e-05
0.000216679
6.91267e-05
-4.14017e-05
-0.000243208
8.43118e-05
-9.67609e-06
-5.08368e-07
5.53354e-05
2.91264e-05
0.000140163
-0.00113099
-9.82008e-05
0.000124582
-1.17785e-05
-1.47921e-05
-0.000287566
0.000138213
-0.000197564
-4.94247e-05
2.96986e-05
0.000161089
0.000124031
-0.000543109
-2.75183e-05
0.000138482
-5.38415e-05
-4.50092e-05
-0.000351716
6.6638e-05
-2.28344e-05
-0.000353836
-2.77049e-05
-0.000274986
-0.000101416
-0.000198832
-7.15124e-05
-3.66578e-05
-2.45279e-05
-0.000288682
-0.000341701
-0.000316887
-0.000256079
7.62573e-07
-1.98501e-05
-2.03741e-05
0.000857328
0.000661332
0.00124519
-0.000649502
-0.000376564
0.00127643
0.00123075
0.00117672
-0.000169891
0.000944988
-0.000397201
-9.77114e-05
-4.82381e-05
9.57353e-05
1.80051e-05
-0.000303006
-7.43657e-05
1.79651e-05
1.09769e-05
-5.56152e-05
-0.00030021
0.000116537
-0.000144335
-2.97765e-05
2.49529e-05
0.000235662
0.000184063
-5.79722e-05
-1.35123e-05
4.74034e-05
4.97036e-05
1.737e-05
-0.000229855
9.78037e-05
-1.289e-05
-2.9571e-05
-0.000225986
2.61467e-05
-2.52364e-05
-0.000363815
-3.48612e-05
-4.56807e-05
-0.000110131
-4.16421e-05
-0.0003009
1.03467e-05
3.11903e-07
-0.00015766
1.76271e-05
-4.70292e-05
0.000215473
0.000241514
-0.000196509
7.16874e-05
0.000181275
6.5323e-05
-2.71213e-05
-0.000268931
7.5808e-05
-7.63456e-06
-1.13972e-05
0.00010649
6.80941e-05
-0.000658021
-0.000115298
-4.32436e-05
6.158e-05
0.000127835
-0.000349142
-0.00027076
-5.15486e-05
8.07854e-05
0.000163181
9.76128e-05
0.000215228
4.2067e-05
0.000117106
0.000124275
0.000235372
0.000241799
0.000257654
0.000279572
0.000267658
0.00023682
1.22252e-05
5.93279e-05
2.47999e-05
8.25909e-05
0.000131513
0.000105269
2.79549e-05
7.90017e-05
5.28235e-05
-3.45222e-05
-6.8292e-06
2.77529e-05
5.0604e-05
1.5529e-07
6.69453e-05
0.000140217
8.01243e-05
0.000106396
7.45864e-05
7.97313e-05
0.000112707
4.3704e-05
0.000155783
5.5466e-05
0.000235017
0.000150736
6.51133e-05
8.63031e-05
0.000111192
0.000110849
0.000121796
0.000122019
0.000127671
-3.59415e-05
7.28407e-05
1.47824e-06
0.000285722
0.000397916
0.000247557
5.36181e-05
0.000293604
4.08842e-05
2.76993e-05
4.30858e-05
1.92141e-05
7.41191e-05
7.15947e-05
0.000129029
5.98928e-05
-4.90387e-05
-2.25825e-05
5.54419e-05
0.000256557
0.000253977
0.00026082
0.00027477
-3.47082e-06
