booster[0]:
bias:
-5.97164
weight:
0.000101685
0.00012728
0.000257307
0.000278927
0.00028651
0.000274534
0.000219095
0.000516162
0.000567964
0.000466056
0.000567096
0.000492614
0.000518386
0.000208208
0.000107468
0.0002343
0.000157515
0.000220817
0.000172529
0.000227001
0.000273107
0.000443568
6.75083e-05
7.31405e-05
0.000164517
0.000148889
0.000165386
0.000264366
0.000265527
0.000446978
0.000253528
0.00018838
0.000313116
0.000252381
5.82824e-05
0.000256428
0.000184779
0.000425145
0.000207607
9.21116e-05
8.61467e-05
0.000145602
0.000201957
0.000136598
0.000156678
0.000154086
-4.35206e-05
8.64944e-05
0.000301249
0.00038647
0.000716426
0.000312681
7.51651e-05
0.0004514
0.000393259
9.28205e-05
0.000258884
0.000239331
0.000284525
0.000210597
0.00019411
0.000374742
0.000142125
0.000111097
5.78611e-05
0.000519392
0.000442145
0.000476195
0.000474059
0.000196775
5.62474e-05
0.000222238
5.22455e-05
7.08288e-05
0.000103139
7.38783e-05
0.000165826
0.000211955
0.000145331
0.00018539
3.64073e-06
9.31631e-05
7.55571e-05
0.000146136
0.000117202
0.000181609
0.000504027
0.000133912
4.10509e-05
0.000149943
0.000134725
5.73174e-05
0.000106641
9.88792e-05
0.000159321
8.59845e-05
5.4088e-05
6.96839e-05
0.000196426
0.000104314
0.000137766
3.48674e-05
4.80458e-05
-1.34919e-05
-4.33138e-05
0.000125682
0.000289458
0.000726703
0.000557987
4.43897e-05
0.000144099
5.71035e-05
1.9848e-05
8.05413e-05
-3.47422e-05
9.67848e-05
3.16284e-06
4.4335e-05
9.26385e-05
-0.000149052
-0.000126812
0.000324486
-7.37344e-05
0.000115504
9.81351e-05
6.82035e-05
4.12933e-05
8.90181e-05
2.06745e-05
-0.000171799
2.96708e-05
0.000302702
6.30729e-05
4.00046e-05
1.08753e-05
-0.000113945
-2.36004e-05
5.57196e-05
2.39121e-05
2.40896e-05
4.69039e-05
3.18231e-05
-9.54483e-06
3.54565e-05
-1.04667e-05
1.66374e-05
1.86009e-05
-9.01692e-06
-0.000149535
3.38148e-05
5.51242e-07
-0.000141445
-3.12995e-05
-2.9101e-06
7.71754e-07
-2.71026e-05
2.80914e-06
-6.95995e-05
3.90783e-06
-0.000110738
1.91618e-05
8.2233e-06
3.59144e-05
-1.50381e-05
1.31037e-05
4.94198e-05
-8.01142e-05
3.65953e-05
1.53769e-05
1.63079e-05
-4.14326e-05
-2.16901e-05
-2.16482e-05
1.16016e-05
3.3212e-06
5.15499e-05
-4.3044e-06
-7.93761e-06
7.61571e-06
9.09713e-05
-3.63304e-06
1.51376e-05
7.46377e-06
6.52132e-05
-7.69659e-05
-7.32538e-06
3.62101e-06
1.64677e-05
-8.69542e-05
9.26573e-06
-3.58794e-06
1.75604e-05
-3.35369e-05
-4.16557e-05
-4.94512e-05
3.46397e-05
-1.14661e-05
-3.75777e-05
-2.88178e-06
-5.2576e-05
-4.44881e-05
-9.66558e-06
-1.34049e-05
-2.59903e-05
0.000284143
5.32785e-06
0.000143456
0.000153398
0.000157929
5.13745e-05
8.10754e-05
0.000270904
0.000138206
0.000194769
5.15475e-06
0.000176791
0.000106826
0.000173134
0.000150641
6.77688e-05
0.000177642
0.000140333
0.000394774
-1.47073e-05
3.96207e-05
0.000183426
0.000213155
2.80753e-05
0.000185459
5.70375e-05
0.000205495
0.000154759
0.000438565
1.85225e-05
0.000521663
5.82789e-06
1.89888e-05
8.67358e-05
6.35597e-05
9.74699e-05
0.000204853
0.000133422
0.000125489
-1.92753e-05
0.000128648
1.07847e-06
4.19669e-05
2.19608e-05
7.65151e-05
0.000116186
9.81327e-05
0.000454397
0.000176555
8.26633e-05
6.48836e-05
4.9725e-05
0.000111869
0.000145158
0.000100825
-7.08598e-05
-2.08485e-05
-9.36043e-07
8.42387e-07
5.77324e-05
1.84565e-06
7.45588e-05
-3.28358e-05
-2.23018e-05
-1.47019e-05
-9.32903e-05
-8.00471e-06
-0.000240796
-0.000362278
-4.09236e-06
-4.04113e-06
-3.27213e-06
-8.53504e-05
-3.85894e-05
-0.000121981
-4.51277e-05
-0.000177475
1.39695e-05
-9.5121e-05
-6.50826e-05
-2.08037e-05
-8.04382e-05
-0.000120118
4.3591e-05
-4.02357e-05
7.49687e-05
1.52774e-05
7.97316e-05
-1.25435e-05
-0.000113577
6.6402e-05
4.62357e-06
-5.49289e-06
4.23658e-05
5.84148e-05
3.30837e-06
6.49458e-05
1.05178e-05
8.41036e-05
6.89298e-05
6.35611e-05
0.000103163
4.10535e-05
4.22265e-05
3.61272e-05
4.00086e-05
-2.7163e-05
-5.96932e-05
1.1389e-05
-2.0375e-05
2.77261e-05
5.39062e-05
-7.50765e-05
-5.12035e-05
2.13824e-05
2.85757e-05
-9.20384e-05
-2.07098e-06
-1.51876e-05
1.26969e-05
0.000106271
1.53414e-06
-3.75126e-05
-4.17653e-05
3.33224e-05
7.6553e-06
1.26953e-05
-1.47426e-05
-9.01332e-05
-4.02572e-05
-5.06263e-06
-1.64085e-05
3.70907e-05
5.38699e-05
8.87108e-06
-1.53615e-05
-8.26206e-05
7.34872e-05
9.38789e-05
-4.62824e-05
-3.17867e-06
0.000105631
4.59501e-05
9.89837e-07
-0.000157835
3.87274e-06
2.77343e-05
-3.44255e-05
1.486e-05
-1.96312e-05
-0.000226096
0.000214388
-3.65848e-05
-5.12569e-05
-1.08701e-06
-6.26263e-05
-1.75307e-05
2.10098e-05
2.68863e-05
7.29732e-05
-2.89908e-06
3.01364e-05
1.4897e-06
4.38238e-05
-5.25283e-05
4.64251e-05
4.35108e-05
-1.70747e-07
9.31771e-06
-3.2281e-05
1.18408e-05
-5.66971e-05
-3.32721e-06
-7.30202e-05
-2.09133e-05
6.17757e-05
-1.51262e-05
-0.00012854
-8.50598e-05
-2.096e-05
-9.92613e-05
-2.41733e-05
-0.000388718
-5.12595e-06
-0.000109728
2.78028e-05
-3.47511e-05
5.79245e-05
-9.83602e-06
-1.18271e-05
-3.25352e-05
-3.62168e-05
-5.27115e-05
-0.000121565
-2.51833e-05
-8.70289e-05
-2.16746e-05
-1.98375e-05
1.57969e-05
-8.80602e-05
-6.77582e-05
-3.12875e-05
5.22419e-06
0.000144497
6.58976e-05
9.16353e-05
6.24843e-06
-4.70969e-05
9.96699e-06
0.000108445
2.85926e-05
4.60159e-05
-6.04105e-05
0.000228371
7.93724e-05
0.000231032
1.39654e-05
4.24906e-05
0.000184931
6.95839e-05
3.16078e-06
0.000212501
-6.80578e-05
-0.000148985
-6.76933e-05
8.18007e-05
0.00019402
0.000200984
3.7596e-05
4.99527e-05
-3.99504e-06
1.52002e-05
-4.4644e-05
-3.15749e-05
1.28704e-05
-6.13753e-06
5.96158e-05
0.000149788
0.000199935
1.97408e-05
-2.42679e-06
8.03614e-06
3.55546e-05
-7.28663e-05
5.76592e-06
7.78936e-06
0.000372004
0.000217846
0.000124805
0.000224891
0.000141418
0.000136391
0.000126035
0.000214573
3.79672e-05
0.000136809
0.000155879
0.000161858
9.91261e-05
0.00021278
6.93686e-05
0.000152826
-9.03923e-05
-4.80647e-06
-1.32471e-06
-5.27736e-05
-9.9803e-05
-7.77477e-06
-3.40771e-05
4.72347e-05
-2.23253e-05
-2.53938e-05
-0.000118511
-0.000133947
-8.48076e-05
-7.52914e-05
-5.97497e-06
-3.48184e-05
-0.000313925
8.0488e-05
-0.000102721
-6.22159e-05
-0.000101604
-9.06161e-06
-9.82187e-06
1.16984e-05
-0.000133087
-5.88631e-05
-0.000124681
-0.000148817
-5.7649e-05
-5.92939e-05
-4.00949e-05
-2.06334e-05
-1.20652e-05
5.97485e-06
-1.76257e-06
1.69008e-05
-9.69395e-06
3.79896e-05
-2.03634e-05
1.27103e-05
-1.12087e-05
-6.37132e-06
-2.95375e-05
-1.74164e-05
-6.20759e-05
-6.032e-05
8.07905e-05
7.86681e-05
1.72014e-05
4.72729e-06
-5.81217e-05
-5.39122e-05
-2.02303e-05
-0.000108564
-3.20395e-05
-1.57286e-05
-6.94744e-05
-0.00012303
-0.000133256
-3.80232e-05
9.28501e-06
-0.00010615
-0.000115815
1.61502e-05
-2.64304e-05
-4.09422e-05
-5.00165e-05
-4.83691e-06
-0.000125586
-4.82832e-05
5.21806e-06
2.21958e-05
-1.77992e-05
-1.2367e-05
-2.63311e-05
3.75056e-05
-3.74529e-05
-1.9324e-05
-6.4471e-05
0.000140078
-2.242e-07
-5.46349e-06
-3.33081e-05
-4.11677e-06
3.78269e-05
4.04129e-05
-2.48108e-05
-1.67156e-05
-1.39606e-05
-1.74106e-06
2.17903e-05
1.26051e-05
-2.58047e-05
-2.00382e-05
-6.2816e-05
-0.000559713
-0.00101782
-0.000507484
-6.5466e-05
-1.67699e-05
-0.000106711
-3.61177e-05
1.32887e-05
-4.48631e-06
-2.42837e-05
-0.000107773
-5.66391e-05
-2.8001e-06
-5.59324e-05
-1.07231e-05
-6.9495e-05
-3.99465e-05
-5.07471e-06
3.80967e-05
-2.4586e-05
0.000180171
4.82248e-05
2.14131e-05
1.2224e-05
-6.67343e-05
1.32838e-05
5.47002e-05
2.42807e-06
-0.000400813
-7.94709e-05
2.55528e-06
-1.62923e-05
3.27728e-05
8.43185e-06
-1.32045e-05
-1.6304e-05
-6.12369e-05
-2.59549e-06
-4.80106e-06
2.05821e-06
-3.86124e-05
5.27012e-05
-7.70801e-05
-0.000132043
2.3734e-06
-5.07815e-06
1.55687e-07
-3.85572e-06
-2.06817e-06
-3.587e-05
-4.50963e-05
-0.000110764
-2.89079e-05
-5.86342e-05
-1.17204e-05
-8.85171e-06
9.56991e-06
3.66641e-05
-6.21516e-05
-0.000124939
5.07609e-05
5.87625e-06
1.58641e-05
-3.08475e-06
-2.79591e-05
-3.00797e-05
8.38121e-06
4.06852e-05
0.000156677
0.00014153
-9.99398e-06
0.000129653
4.53669e-05
-5.41014e-05
-2.4861e-05
9.23085e-05
0.000187738
-4.63868e-05
-7.93426e-06
3.84814e-06
-6.31812e-05
-0.000112635
-3.4968e-05
0.000152955
7.99194e-05
5.63969e-05
9.59842e-05
0.000113918
-1.56339e-05
-3.4316e-05
-3.27138e-05
0.000142964
-1.25779e-05
-1.22751e-05
-5.2861e-05
-4.24584e-05
3.30122e-05
6.05329e-05
9.05914e-06
1.36665e-06
2.38028e-05
3.63153e-05
8.22315e-06
1.2597e-05
3.4074e-05
4.67197e-05
8.14805e-05
-9.68378e-06
6.80007e-05
8.202e-05
-1.7077e-05
2.42609e-05
8.32144e-05
0.000125015
-1.3196e-05
7.96684e-05
-4.13321e-05
7.44957e-05
-2.28952e-05
2.76856e-06
3.86299e-05
6.0265e-05
5.07982e-05
5.25573e-05
5.63443e-05
5.10631e-05
-3.12649e-05
7.98113e-05
8.37803e-05
6.99284e-05
7.22269e-05
2.70816e-05
6.14735e-05
8.48653e-05
-6.39981e-05
-8.39821e-05
-5.78062e-05
-1.90402e-05
-6.21404e-05
0.000280768
0.000247647
0.000244017
0.00011564
8.0873e-05
2.18828e-06
-4.40796e-05
3.39372e-06
0.000123932
6.81652e-06
0.000103173
-0.000543607
-0.000402198
-4.4932e-05
-9.08747e-05
-4.90361e-06
5.7176e-05
-3.43233e-06
-1.87426e-06
6.13688e-05
3.88925e-05
9.05473e-05
9.19815e-06
6.59205e-05
9.43328e-05
-5.79815e-06
2.4783e-05
0.000185315
1.20816e-05
6.15369e-05
3.84548e-05
3.95477e-05
2.72328e-05
-5.88561e-06
7.47102e-06
-0.00010035
3.61583e-06
2.0982e-05
2.65249e-05
9.3616e-06
-2.98176e-05
-0.000184106
6.72493e-06
1.26164e-06
9.55048e-05
2.1846e-06
1.82958e-05
1.35574e-05
-1.62912e-05
-1.45741e-05
-2.99953e-06
-3.42691e-05
4.34023e-05
2.07456e-05
1.40596e-05
2.20405e-05
2.08581e-05
4.43473e-05
2.74576e-05
-4.50622e-05
4.80649e-06
1.26387e-05
9.56979e-06
5.63486e-05
4.23731e-06
4.64834e-05
7.23866e-05
4.46117e-05
2.95429e-05
1.96828e-05
4.24019e-05
3.48442e-05
3.94047e-05
7.58281e-05
-1.17014e-05
6.4379e-05
5.65347e-05
7.2023e-05
6.07284e-05
4.31091e-05
5.0661e-05
5.93412e-05
4.1338e-05
3.59085e-05
7.30718e-05
2.03091e-05
6.28016e-05
7.45601e-05
4.16862e-05
2.85357e-05
1.66349e-05
1.82872e-05
6.72143e-05
1.72932e-05
5.82772e-05
-3.90775e-05
1.79852e-05
4.95997e-05
5.9038e-05
3.9835e-05
2.53692e-05
1.87745e-05
6.65702e-06
5.123e-05
5.46097e-05
3.94766e-05
4.047e-05
3.74331e-05
1.73198e-05
8.38163e-06
4.34173e-05
1.61169e-05
9.45222e-07
2.77746e-05
3.69899e-06
0.000408356
-0.000263039
6.86555e-05
-0.00027292
-0.000296239
0.000125601
0.000110637
-1.83155e-05
1.52482e-05
-0.000372254
-0.000305381
-6.86757e-06
1.84554e-05
-7.25246e-05
8.16126e-05
-4.32764e-05
-0.000155131
4.74149e-05
1.43413e-05
5.56108e-05
1.79298e-05
3.36725e-06
3.73271e-05
-7.8663e-05
-2.21984e-05
-4.19179e-05
-2.05578e-05
-6.9244e-05
-0.00028546
0.000490015
-0.000168159
4.15421e-06
-6.23297e-05
-0.000318436
-0.000400798
-0.000131115
-1.82581e-05
-0.000319425
-0.000595545
0.000328284
-0.000179385
-0.000210258
0.000179406
1.49453e-05
-0.000103933
-0.000297658
-1.1833e-06
-0.000328032
-0.00034388
1.11319e-05
0.000152341
0.000126411
-2.72953e-05
0.000117952
-0.000108269
-0.000298299
0.000339858
-9.68135e-06
6.97257e-05
-1.36134e-05
-0.000524515
-0.000431501
-7.33118e-05
-0.000672525
-0.000656154
3.7144e-05
5.73388e-05
-0.000129957
-0.000454195
-0.000120526
-0.000544344
-0.000405168
-0.000142361
-0.000114709
2.21838e-05
8.18098e-05
-0.000159307
-0.0002025
-5.72228e-05
-5.71519e-06
-0.000329297
0.000278084
-6.91297e-05
-0.000571432
-0.000198634
-0.000683985
-0.000355014
-0.000157036
-0.000472025
-0.00030105
0.000301742
-0.000151039
-6.56457e-05
7.54927e-05
6.29237e-06
6.23349e-05
9.80066e-05
0.000120735
-2.721e-05
9.35014e-05
-5.48923e-05
0.000273231
0.000201026
-5.01707e-05
-0.000109738
0.000138874
-0.00013706
-0.000219878
-0.000171712
0.000162381
-2.79125e-05
-3.64075e-05
-0.000526603
-0.000101988
0.000163466
-0.000293423
6.29798e-05
0.000178293
0.000166616
-8.81291e-05
-0.000450392
-8.44405e-05
-0.000566044
-0.000468985
6.32001e-05
4.95238e-05
9.65845e-05
5.78289e-05
4.25624e-05
4.6734e-05
-1.29834e-05
0.000189219
-0.000392917
0.000254167
-0.000207078
3.49315e-05
-0.000325332
-0.00052201
-0.000344749
-3.41559e-05
-0.000144485
0.000165277
3.95608e-05
4.87967e-05
-0.00011747
-0.000262348
-3.84305e-05
-0.000278586
-0.000308924
0.000122939
-4.62987e-06
-0.000118417
-3.44791e-05
-4.17786e-06
3.72375e-05
-4.71271e-05
-0.000228023
-0.000243823
-2.97612e-05
-0.000334399
-0.000175612
0.000283963
-0.000292377
7.21464e-05
-5.03664e-05
-0.000506857
-0.000454957
-9.04477e-05
-0.000155685
-0.00044959
-0.000625843
0.000158589
-0.000117737
-4.06255e-05
-5.57279e-05
-2.7494e-05
-9.23856e-06
0.000140161
9.67158e-05
-0.000162803
-0.000344787
-0.000663518
0.000276752
-0.000286331
0.000163903
-6.75814e-05
-0.00092887
-0.000649435
0.000231448
-0.000616291
3.50649e-05
-0.000139734
-0.000630573
-0.000718637
-0.000850013
0.000145851
-0.000537303
0.000515425
-0.000175628
-0.000745913
-0.000693439
1.81555e-05
-0.000114078
8.86478e-05
6.39175e-05
-3.926e-05
-0.000668398
0.000299455
-0.000518003
0.000406134
-0.000259392
-0.000221286
-0.000464655
-0.000517509
0.000100524
-0.00026385
0.000252454
-0.000239771
-8.80642e-05
-0.000392874
-0.000461646
0.000261549
-0.000424011
0.000502377
-0.000272104
-0.000186681
-0.000513554
-0.00054428
5.416e-05
-1.23119e-05
-9.91342e-05
4.66194e-05
-0.000107189
-6.46408e-05
6.78646e-05
-0.000184617
-0.000126273
0.000259435
0.000172939
8.41296e-05
0.000103805
-5.69735e-05
-0.00014302
0.000121303
-0.0002618
-0.0001324
-0.000308347
-6.4175e-05
-9.59309e-05
-7.79254e-05
-0.000362311
-0.000256579
-0.000150614
-0.000105746
-0.000577482
-0.000311384
-5.27845e-05
-0.000107024
-0.000330124
9.59106e-05
6.78699e-05
3.47578e-05
0.000114264
-0.000293326
-0.000162312
-0.000496606
-0.00033569
3.63239e-05
-0.000352397
0.000416493
-0.000340322
-0.000293866
-0.000553573
-0.000605427
2.2599e-05
-0.000403926
0.000308172
-0.000367776
-0.000268607
-0.000589417
-0.000740376
0.000170592
-3.60054e-05
-0.000176357
4.2629e-05
-0.000181597
-0.000136404
-4.77076e-05
0.00030844
-0.000180741
-2.54419e-05
-0.000409347
8.51016e-08
-1.5763e-05
-0.000156717
8.19997e-05
-0.00013837
-0.00011892
-0.000343775
0.00026015
0.000399253
0.000372336
-0.000381654
0.000486287
-0.00069699
-0.000176522
-8.37664e-05
-0.000309083
-0.000224564
-0.000200067
0.000483427
-3.75637e-05
-0.000162985
-0.000496004
0.000281892
-0.000739484
-0.000216693
-0.00017378
-0.000284836
-0.000295395
-0.000203164
-2.11996e-05
-0.000563006
-0.000227103
-0.00010196
-0.000299418
-0.000282533
-0.000204376
-4.64525e-05
7.46221e-05
-0.000720547
-0.000599716
-0.000252798
0.000172419
-7.20964e-05
-0.000390056
-3.69292e-05
-0.000440676
-0.000367073
0.000244343
-0.000109126
-0.000324675
-0.000436214
-0.000442283
0.000392698
0.00110738
0.000503758
0.00139166
0.000785395
0.00141729
-0.00015457
1.80053e-05
0.00248252
0.000232924
0.000339134
-0.000274922
0.000103141
0.00154786
0.000835066
8.57364e-05
1.90732e-05
-3.85801e-05
0.00156035
0.000118486
3.00105e-05
0.000173065
0.000798368
0.000293317
0.000955425
0.000517668
0.00109521
-0.000115255
2.44503e-05
0.00172379
0.000137435
4.7409e-05
0.000263372
0.000831191
0.000337092
0.00103058
0.000509529
1.62914e-05
-6.54899e-05
0.000676386
2.61355e-05
-1.73531e-05
0.000164723
0.000585704
0.000217026
0.000669871
0.000372573
0.000908068
-0.000428395
2.8392e-07
0.000792776
0.000245633
3.20606e-06
1.49193e-05
-5.88042e-05
0.000936943
0.000158658
0.000202723
-0.000533458
-1.61612e-05
0.00210356
2.80155e-05
0.000357464
0.00053763
2.59938e-05
-0.000245027
0.000767377
0.000143072
-8.52326e-05
0.000537671
-1.64293e-05
-0.000243951
0.000782878
0.000308205
-5.30743e-05
-2.66982e-05
0.000481253
-9.73786e-05
-5.5809e-05
0.000750399
0.000331026
5.13009e-05
0.000384583
-7.9383e-05
-0.000166195
0.000750132
0.000244118
-0.000196505
0.000802633
-0.000235161
-4.47753e-05
0.00119824
0.000355961
-6.35933e-05
0.000828911
6.23217e-05
0.000421389
0.0016807
0.000839248
5.39392e-05
0.00108237
0.000201532
0.000998242
0.00249639
0.00104865
6.54361e-05
0.0015143
0.000557822
0.00112352
0.00170167
0.00115318
5.34773e-05
0.00129021
0.000182158
0.000549075
0.00112262
0.000955422
-1.01632e-05
0.000426994
0.00147336
0.000525054
0.00197214
0.0011367
0.00182577
0.000181006
0.000437175
0.00230528
0.000681787
0.000909224
0.000127875
4.11702e-05
0.00177313
0.00057382
0.000208802
-1.52694e-05
0.000706674
5.44046e-05
-3.06299e-05
0.00141599
0.000629666
-2.64076e-05
0.000612789
-0.000344914
0.0005012
0.000883003
0.000335439
5.24766e-05
-0.000129923
0.000429832
0.00171575
0.000628967
0.00206031
0.00119964
0.000969537
-0.000319629
0.000721665
0.00299683
0.000668366
0.00036265
0.000405056
0.00122766
0.000530291
0.00149734
0.000864676
-0.000356975
0.000778273
0.00267216
0.00117029
0.000387196
-0.000282565
0.000128858
0.000374648
1.93453e-05
-3.72727e-05
0.000109596
-9.50806e-05
0.000103531
8.5284e-05
-0.000568447
-0.000259561
0.000352324
0.000185667
0.00011824
-0.000435034
-0.000294313
0.000289228
6.75928e-05
0.000252585
0.000184248
0.000274521
0.000198512
0.000121639
8.05389e-05
0.0004193
0.000344835
-0.000128692
-0.000170903
3.88604e-05
0.000241027
0.000194273
0.000250031
0.0001668
7.20546e-05
-0.000173434
0.00030093
0.000234815
1.49761e-05
-0.000271746
-9.68089e-05
-0.000213513
-1.54136e-05
-0.000195721
-0.000268946
-8.27474e-05
0.00017353
-8.72783e-05
-0.000387625
0.000116488
-0.000148531
-0.000132232
0.000386929
0.00011513
-0.000386409
9.12478e-08
-8.57828e-05
-9.27799e-05
-2.23852e-06
-4.14025e-05
-0.000153477
-1.08296e-06
-0.000123087
0.000101597
-2.65788e-05
-0.000422132
5.77334e-05
3.59114e-05
-0.000285058
0.00041667
0.000165719
-0.000402635
0.000121781
0.000804677
-0.000217797
0.000373256
0.000370845
0.000301842
0.000591049
0.000163598
0.000424643
-0.00027145
0.00015378
0.000630318
0.00021341
-5.66691e-05
4.3765e-06
-0.000150311
-6.36318e-05
-4.65777e-05
-2.41232e-05
9.28162e-05
4.10311e-05
0.000799856
-6.06278e-05
0.000148593
-0.000157998
-9.75347e-05
-4.71156e-05
-2.51369e-05
-0.000198199
-5.7429e-05
-0.000109428
-0.000584519
-0.000330863
-0.000413273
2.42952e-06
0.000105691
5.95509e-05
-9.92151e-05
-0.000470064
-0.000255477
-0.000349691
-3.88177e-05
-0.000199067
-7.6709e-05
-0.000113351
-0.000663644
-0.000314708
-0.00044984
-5.27412e-06
0.000184947
-4.81667e-06
-0.000640416
-0.000589575
0.000299723
0.000179143
-0.000209947
1.99446e-06
-0.000566201
-0.000174415
1.76685e-05
-0.000392217
-0.000113201
-9.81689e-05
-0.000600827
-0.000350656
-0.00043576
5.42721e-05
-0.000306827
-0.000145217
-0.000141714
-0.000641943
-0.0004043
-0.000530881
5.99433e-05
0.000219413
-2.4078e-05
-0.000228343
-0.000618006
-0.000327648
-0.00044521
-1.21445e-05
0.000676127
-6.45731e-05
1.76217e-06
-1.63657e-05
8.0131e-06
5.39592e-05
0.000110232
5.37286e-05
-8.9816e-05
-0.000194212
-0.000559524
-0.000227586
-0.000319906
2.84218e-05
-0.000194131
1.28403e-05
0.000167409
7.85369e-07
-0.000244129
-6.35223e-05
0.000160225
-0.00021785
-5.79606e-05
-0.000377816
-0.000101335
-1.09356e-05
0.000321396
1.5769e-05
5.11199e-05
-0.000205251
-0.000177542
0.000122226
-5.50013e-05
-0.000449142
-1.90102e-05
-0.000518502
-0.000252607
3.54284e-05
7.77075e-05
0.000137051
-0.000208072
-0.00033641
0.000480946
-0.000135571
-0.000722019
-0.000154733
-0.000877489
-0.000601371
0.000229725
-5.04681e-05
-0.00116698
-0.00031132
-8.75151e-06
-0.000177142
-0.000692847
-0.000228464
-0.000858652
-0.000572886
0.000211707
-5.29978e-05
-0.000968773
-0.000681353
0.000162515
-9.0203e-05
-0.000436637
-2.19094e-05
-0.000522838
-0.000419227
0.000175311
-1.25456e-05
-0.000837325
-0.000624188
-0.000554297
-3.29724e-05
-4.14841e-05
-0.000227174
5.96794e-06
-0.000212969
-0.000218708
-9.52005e-05
-0.000168451
8.17795e-05
-0.000237073
-0.000404177
0.000548595
-8.6011e-05
-0.00028445
-2.87675e-05
-0.000276502
-0.000260773
-3.88317e-05
-9.2649e-05
0.000190509
-0.000220777
-0.000380521
0.000569908
-3.53706e-06
-0.000258709
4.07683e-05
-0.000271274
-0.000160816
8.21694e-05
-0.000110015
-0.000189957
-0.000430545
-0.000415957
2.33356e-05
-0.000192645
-2.22525e-06
-7.89236e-05
-0.00019306
-0.000152279
-0.000464416
3.83202e-06
-1.53969e-05
-0.000141611
8.44278e-05
-0.000199419
-9.28552e-05
-0.000146263
-0.000264209
-0.000641484
-0.000335805
-0.000392045
3.61863e-06
-4.03582e-05
-0.000175548
0.000101108
-0.000173138
-0.000135911
-0.000424222
6.33899e-05
-0.000279774
-0.000378228
-0.000412031
4.91936e-05
-5.79453e-05
-0.000166802
7.3728e-05
-0.000185539
-0.000179499
-9.5022e-05
-0.000258104
-0.000213198
-0.000693036
-0.000319471
0.000175591
-1.37251e-05
6.93094e-06
0.000189474
0.000146503
-0.000101372
0.000311852
-0.000123193
-0.000181686
0.000120798
-0.000440258
0.000144282
-4.87099e-05
-0.000212455
4.93322e-05
-0.000236895
-0.000226107
-0.000329616
-0.000108805
2.76829e-05
-0.000864034
-0.000316097
0.000464418
0.000185662
0.000821386
0.000318916
0.00109154
0.000611408
0.000991855
0.000117636
-4.24919e-05
0.00111567
-6.85488e-05
0.000303031
-2.50548e-05
-7.95768e-05
3.86076e-05
-0.000101008
-0.000130908
8.88721e-05
5.39392e-07
1.07306e-05
-0.000255782
-0.000249484
4.32795e-05
-5.80334e-05
-2.29e-05
-0.000152163
-0.000468994
-0.00016267
7.3514e-05
0.000455106
-4.59439e-05
2.58982e-06
-4.80961e-05
-0.000186071
4.85459e-05
2.17885e-05
-1.02776e-05
8.32507e-05
3.54374e-06
-8.83728e-05
-0.000167156
-6.13361e-05
4.23504e-05
-0.000280017
-9.82857e-05
7.04138e-05
-1.8921e-05
-8.70345e-05
6.24004e-05
-3.97932e-05
-0.000175009
-0.000188169
-1.44279e-05
-9.25116e-06
-0.000508076
-0.000307623
2.04698e-05
-0.000130507
5.40372e-05
-0.000119548
-0.00050491
-0.000419665
5.41303e-05
9.98132e-06
-3.96613e-05
0.000134305
7.97098e-06
-0.000138518
-0.000203499
3.08762e-05
-6.35057e-05
-0.00030023
-0.000278272
-6.26286e-05
0.0010619
-0.000184198
-0.000119953
-0.000221041
2.43001e-05
-0.000190198
8.94447e-06
0.000613367
-0.000138241
-0.000134944
-0.000156119
-0.000150069
-0.000113427
-8.35236e-05
4.92399e-05
-0.000105446
-0.000246995
-0.000495099
-0.000193675
-0.000299812
6.21909e-05
-0.000233641
-9.52018e-06
-2.25341e-05
-0.000292881
-9.79329e-05
6.17479e-06
-7.2792e-05
-0.000100059
-4.21735e-07
-0.000418923
-0.000405989
1.06137e-05
0.000745409
-0.000132396
-5.08429e-05
-7.12065e-05
-7.75989e-05
0.000101799
-0.000284744
-0.000331759
-0.000890498
-0.00052329
-0.00060665
-9.18569e-07
0.000184496
-0.000210718
-0.000202298
-0.000732216
-0.000388477
-0.000437568
-2.77054e-05
1.56112e-05
2.291e-05
0.00012761
1.87612e-05
-6.72681e-05
0.000741134
-0.000139248
-8.125e-05
5.9037e-05
-5.86762e-05
9.17184e-05
-0.000174875
-0.000264323
-0.000195704
-0.000435653
-0.000285004
2.45214e-05
-0.000245075
-0.000250238
-0.000262901
-0.000801752
-0.000428365
-0.000470894
-3.82691e-06
0.000755026
-6.09471e-06
-5.47068e-05
0.000370144
-4.82678e-08
2.83239e-05
0.00152269
-3.86352e-05
-3.91616e-05
0.000285851
-0.000142464
0.000151621
-0.000388973
6.52166e-05
-0.000527021
-0.000583771
-0.000344958
-0.000216444
-0.000828309
-0.000677515
-0.000798517
-0.000657717
-0.000108236
-0.000458492
0.000516917
0.000249571
-0.00025548
-0.000175079
0.000460889
-0.000147756
-0.00024996
-0.000498465
-0.000133169
-4.91421e-05
-0.000381083
0.000626218
0.00095537
0.0012986
-5.86847e-06
-0.000234481
0.00160915
0.000996977
0.00022696
-0.000329789
0.000539415
0.000101779
-0.00012649
-0.000470998
-5.27991e-05
-0.000565305
-0.000714235
-0.000343413
-0.000489656
-0.000969275
-0.000923092
-0.000844537
-0.000860428
-4.46676e-05
-0.000417103
-9.24847e-05
6.96574e-05
-0.000568728
-0.000140307
-0.00025315
0.000123099
-0.000474154
-0.000463707
-0.000719949
-0.000588103
-0.000278907
-0.00031618
-0.000332747
1.43324e-05
-0.000476537
-0.000256454
-0.000315783
-0.000233967
-0.000585742
-0.000521943
-0.000715839
-0.000396944
-0.000136588
-5.8904e-05
9.30578e-05
0.000527202
7.48202e-05
5.44931e-06
2.48766e-05
0.000322508
0.000240637
0.000278451
-2.10044e-05
0.000128606
6.38485e-05
-8.7501e-05
0.0004389
0.000840667
0.000326158
-0.000260618
0.000322165
0.000341326
0.000323858
0.000229718
0.000205031
0.000218015
4.56588e-05
-9.88523e-05
0.000233233
0.000839746
0.000284308
0.000294891
6.85817e-05
0.000589014
0.000241823
7.56252e-05
1.17633e-05
0.000101185
8.88308e-06
-0.000233537
-6.58256e-05
0.00074519
0.00104688
0.000131706
6.97009e-05
-0.000131565
0.00100639
0.000150934
-6.45188e-05
-0.000448166
-2.29428e-05
-9.18301e-06
3.60817e-05
-0.000264854
0.0015061
0.0019528
0.00254507
3.98018e-05
0.00078602
0.0033906
0.00237221
0.00224565
0.000367205
0.00163315
0.000125168
0.000421629
6.69992e-05
0.000284445
-8.23588e-05
-0.000109027
-9.05225e-05
2.01294e-06
7.52378e-06
-0.00017245
-0.00024183
-0.000139399
5.16766e-05
-0.000278675
0.000208385
0.000482337
-3.3936e-05
2.28043e-07
-9.59348e-05
4.17907e-05
-0.000123268
-8.79975e-05
-0.000435354
-0.000120309
8.23847e-06
-4.28594e-05
-0.000472006
0.000390415
-0.00026709
-2.5251e-05
-7.74822e-05
2.02131e-05
-0.000299232
-0.000305949
-0.000326426
-0.000346412
-5.53485e-05
-1.84109e-05
-0.000275133
1.94999e-05
0.000419444
0.000106004
-0.000207109
-6.06584e-05
-1.27948e-05
-0.000208705
-0.000194695
-0.000544122
-6.69068e-05
1.54734e-05
-7.70573e-05
0.000463359
-1.52693e-05
-0.000232978
-8.87036e-05
0.000160576
0.000135787
-2.95621e-05
-0.000283887
-0.000174057
-0.000417035
6.08281e-05
8.75971e-05
0.000150889
0.000182993
5.66783e-05
8.13885e-05
5.62058e-05
0.000274212
0.000313596
0.000259966
0.000311746
0.000274783
0.00027341
9.90157e-06
-3.49982e-05
-1.56998e-06
-2.75584e-05
3.5739e-05
-3.84835e-06
-1.33252e-05
4.80511e-05
0.000162489
-9.28486e-05
-6.42307e-05
-3.54325e-05
-2.48714e-05
-4.17827e-05
3.42331e-05
8.85829e-05
0.000127589
4.72929e-05
1.88426e-05
7.27202e-05
6.20588e-05
-7.95497e-05
7.45911e-05
2.34799e-05
0.000215756
8.33569e-05
-4.96535e-05
-2.13081e-05
3.22888e-05
5.79445e-05
2.59113e-05
3.66916e-05
4.31768e-05
-0.000130083
-1.71561e-05
9.32825e-05
0.000251537
0.000493522
0.000190717
-6.70388e-05
0.000281023
0.000154668
-5.08176e-05
5.85351e-05
2.74456e-05
8.33282e-05
3.96545e-05
3.78782e-05
0.000121706
-1.66114e-05
-2.61788e-05
-7.56299e-05
0.00029586
0.000319589
0.000310764
0.000325682
4.76504e-05
-2.03253e-05
9.81963e-05
-2.85294e-05
-8.09333e-06
8.95531e-06
-1.24407e-05
7.36932e-05
0.000107507
5.06581e-05
8.05746e-05
-5.52671e-05
-4.83604e-06
-1.23361e-05
3.91321e-05
4.17751e-05
6.78218e-05
0.00035946
5.06022e-05
-2.69816e-05
7.24705e-05
4.52173e-05
-7.97756e-06
4.34162e-05
2.13776e-05
8.67691e-05
2.85036e-06
-1.1795e-05
-4.14386e-07
0.00012132
3.0958e-05
6.8301e-05
-2.7836e-05
-2.71149e-05
-5.98366e-05
-0.000102063
3.55684e-05
0.000194749
0.000542588
0.000440586
-2.2261e-06
5.27667e-05
1.49046e-05
-3.28948e-05
-1.09559e-05
-7.36518e-05
2.89735e-05
-3.51262e-05
-1.71079e-05
5.48685e-05
-0.000140799
-0.000133521
0.000246317
-9.907e-05
3.91426e-05
3.33275e-05
2.34951e-05
3.54003e-05
3.82178e-05
1.26482e-05
-0.00016752
-1.18369e-05
0.000181419
5.66363e-05
-1.59056e-05
-2.8572e-05
-8.71358e-05
-2.4156e-05
1.4658e-05
1.28595e-06
3.56491e-07
1.00205e-05
-3.2041e-06
-1.63746e-05
-9.19791e-07
-2.01949e-05
-1.69243e-05
-3.56413e-05
-1.73831e-05
-0.000160548
-2.26028e-05
-3.85917e-06
-0.00017038
-4.22458e-05
-4.82996e-06
-1.20738e-06
-9.00277e-05
-2.26446e-05
-7.96475e-05
-4.44239e-05
-0.00013262
-1.4444e-05
-3.04708e-05
2.61212e-06
-4.22556e-05
-1.75546e-05
1.02142e-05
-7.08367e-05
4.41172e-06
-1.81105e-05
-2.18146e-05
-3.432e-05
-3.02415e-05
-3.16213e-05
-6.15205e-06
-1.51838e-05
4.07261e-05
-6.09403e-06
-1.12762e-05
3.9204e-06
6.64452e-05
-2.61615e-06
1.09241e-06
3.06994e-06
3.89032e-05
-8.52264e-05
-1.61093e-05
-3.7034e-05
-1.35564e-05
-8.71229e-05
2.46703e-07
-1.17238e-05
2.21218e-06
-3.14773e-05
-4.27795e-05
-4.87835e-05
2.55766e-05
-1.44911e-05
-4.11503e-05
-4.62326e-06
-5.2376e-05
-4.50895e-05
-1.00724e-05
-1.45778e-05
-5.81323e-05
0.000244421
3.71445e-06
0.000121476
0.000130171
0.000125414
5.01242e-05
7.05878e-05
0.000221985
0.000118825
0.000174062
6.68136e-06
0.000144713
9.33979e-05
0.000150767
0.000127067
5.79564e-05
0.000148027
0.000113613
0.000330688
-1.45003e-05
3.45279e-05
0.000138433
0.000175197
9.09588e-06
0.000151644
3.41219e-05
0.000137978
0.000133124
0.000372379
5.59553e-06
0.000432963
5.43535e-06
1.92303e-05
5.85782e-05
5.26534e-05
7.84268e-05
0.000183642
0.000114318
9.95183e-05
-2.48915e-05
0.000107398
-1.34297e-06
3.49563e-05
1.8527e-05
6.82367e-05
0.000102938
8.15142e-05
0.000382464
0.000156504
7.46564e-05
5.43228e-05
5.42146e-05
9.9771e-05
0.00013133
9.13788e-05
-5.78298e-05
-1.79675e-05
-4.74437e-07
-1.46275e-05
4.37859e-05
-1.84719e-07
6.91158e-05
-3.18301e-05
-2.06643e-05
-1.30037e-05
-7.92925e-05
-9.20894e-06
-0.000204345
-0.000321535
-3.89904e-06
-1.55223e-05
-3.23956e-06
-8.77189e-05
-3.24345e-05
-0.000121748
-5.07037e-05
-0.000183091
1.35444e-05
-0.000106889
-5.31226e-05
-2.05209e-05
-7.63749e-05
-0.000109178
4.13829e-05
-2.99433e-05
7.11258e-05
1.51506e-05
7.38911e-05
-8.35297e-06
-0.000104837
5.50312e-05
3.63782e-06
-6.776e-06
3.44828e-05
5.22942e-05
-1.26582e-05
6.06025e-05
7.71868e-06
4.99113e-05
4.39178e-05
3.9668e-05
8.37219e-05
2.41636e-05
2.78889e-05
2.1111e-05
3.584e-05
-2.22215e-05
-7.08834e-05
8.30488e-06
-2.25421e-05
2.8455e-05
3.87412e-05
-7.64436e-05
-6.80219e-05
-1.31398e-06
1.58425e-05
-9.48769e-05
-1.87952e-05
-1.53822e-05
1.31378e-05
5.30734e-05
9.89163e-07
-3.32253e-05
-4.63099e-05
2.91352e-05
5.38891e-06
8.26519e-06
-1.1228e-05
-7.42704e-05
-3.21613e-05
-4.73902e-06
-8.05163e-06
1.70287e-05
4.80183e-05
-8.29992e-06
-1.53995e-05
-0.000101548
5.15796e-05
8.54263e-05
-3.83079e-05
-3.52961e-06
9.5057e-05
3.11028e-05
-1.51231e-06
-0.000180717
3.16855e-06
1.39571e-05
-3.3395e-05
7.60751e-06
-1.37631e-05
-0.000204451
0.000182216
-3.85424e-05
-5.02597e-05
3.32699e-06
-6.23503e-05
-2.02116e-05
2.0414e-05
1.89183e-05
6.88749e-05
-2.17664e-06
1.86028e-05
1.26748e-06
3.37964e-05
-5.27979e-05
4.74882e-05
4.16291e-05
-2.71245e-06
-3.50598e-06
-3.47361e-05
7.25548e-06
-5.99024e-05
-1.15123e-05
-5.72619e-05
-2.18709e-05
5.89844e-05
-8.6526e-06
-8.28037e-05
-6.43922e-05
-1.49515e-05
-7.30953e-05
-3.13149e-05
-0.000266162
-1.12299e-05
-9.99865e-05
3.37107e-05
-3.28289e-05
5.73739e-05
-1.66717e-05
-9.87418e-06
-2.70964e-05
-2.84534e-05
-4.46716e-05
-8.80799e-05
-2.08165e-05
-7.53671e-05
-9.00612e-06
-2.09406e-05
1.67487e-05
-8.97039e-05
-5.23297e-05
-3.37602e-05
4.58952e-06
0.000128942
6.09137e-05
7.588e-05
5.20938e-06
-4.74988e-05
5.88153e-06
9.02434e-05
2.49416e-05
3.24725e-05
-6.19232e-05
0.000198857
7.1854e-05
0.000188918
1.18264e-05
2.39031e-05
0.000171912
5.48768e-05
1.99477e-06
0.000183561
-6.73149e-05
-0.000141615
-6.77441e-05
6.92763e-05
0.000167855
0.000192053
3.0189e-05
5.02053e-05
-2.81185e-06
6.23072e-06
-5.12514e-05
-4.3878e-05
5.08792e-06
-6.84227e-06
5.05202e-05
0.000129453
0.000183061
1.69291e-05
-6.00932e-06
6.85586e-06
3.34545e-05
-6.33005e-05
4.25456e-06
8.4115e-06
0.000323581
0.000196061
0.000109226
0.00020758
0.00012637
0.000125252
0.000109854
0.000197721
3.42704e-05
0.00012759
0.000137682
0.000142936
8.76621e-05
0.00019604
6.04337e-05
0.000139089
-8.70207e-05
-5.06771e-06
1.72519e-06
-4.80241e-05
-9.81233e-05
-6.82881e-06
-3.30303e-05
2.89592e-05
-1.95934e-05
-2.05868e-05
-8.19576e-05
-0.000131021
-8.0342e-05
-7.41223e-05
-1.4725e-05
-3.28225e-05
-0.000297425
5.90816e-05
-9.45637e-05
-5.98965e-05
-9.64372e-05
-1.5165e-05
-1.61855e-05
1.10814e-05
-0.000101813
-5.5527e-05
-8.97482e-05
-0.000122775
-6.50711e-05
-6.9541e-05
-4.60926e-05
-2.08468e-05
-8.02663e-06
7.91821e-06
-1.0795e-06
1.08832e-05
-8.38924e-06
5.8484e-05
-1.79002e-05
5.7571e-05
-8.22382e-07
2.78903e-05
3.71122e-05
1.39345e-05
-3.27682e-05
-2.34021e-05
0.000120706
0.000125222
9.59813e-05
6.58343e-05
2.83273e-06
-3.58263e-05
1.29533e-05
-3.4222e-05
9.13936e-05
8.41822e-05
-3.57785e-07
-6.74772e-05
-8.43482e-05
-1.85449e-05
2.42862e-05
3.15312e-05
8.86351e-05
1.97961e-05
-7.57426e-07
1.91206e-05
-1.85752e-05
3.33111e-05
-7.36603e-05
1.70439e-05
1.52454e-05
0.000109819
3.16691e-05
-4.65138e-06
-8.95031e-06
4.33043e-05
-1.62805e-05
-1.70794e-06
-2.95134e-05
9.1027e-05
1.00126e-06
1.96104e-05
-5.71237e-06
3.10124e-06
5.39178e-05
6.50629e-05
-4.03554e-06
-7.12964e-06
5.14022e-06
3.44773e-07
2.35885e-05
2.03971e-05
-1.62104e-05
-1.7684e-05
-3.31225e-05
-0.000310703
-0.000571042
-0.000263928
-3.63419e-05
2.65474e-05
-4.2112e-05
-2.79082e-05
2.16545e-05
-7.47291e-07
4.61472e-05
-2.42161e-05
-2.23463e-05
7.78184e-06
-3.61041e-05
1.41348e-06
-5.95262e-05
1.36628e-05
-3.27408e-07
4.42887e-05
-1.89869e-05
0.000116827
5.84016e-05
2.51635e-05
3.20254e-05
-5.34935e-05
4.95532e-05
7.90448e-05
2.65262e-05
-0.000229474
-1.01084e-05
1.39338e-05
-4.38492e-06
4.37468e-05
9.30286e-06
-8.57656e-06
-1.02983e-05
-3.58112e-05
-1.35352e-06
-1.4833e-06
2.49023e-06
-3.96832e-06
6.79057e-05
-6.38572e-05
-0.000102188
1.18478e-05
-3.3072e-06
3.53007e-06
-9.69874e-07
3.07952e-06
-1.13904e-05
-2.97699e-05
-4.1026e-05
7.89253e-06
-2.10634e-05
-2.17744e-06
-2.38476e-06
3.93023e-05
4.5555e-05
-4.34942e-05
-9.79729e-05
5.36293e-05
5.03982e-06
1.73043e-05
4.89872e-06
-1.55831e-05
-4.25321e-05
4.28295e-06
3.62688e-05
0.000128703
9.43032e-05
-7.10367e-05
5.41623e-05
1.7273e-05
-8.1856e-05
-5.62213e-05
-2.29356e-05
3.48742e-05
-8.29857e-05
-1.09986e-05
1.2373e-07
-9.00319e-05
-0.000155988
-6.257e-05
7.54051e-05
-2.3314e-05
-4.83454e-05
-1.65092e-05
3.60661e-06
-0.000101268
-7.60263e-05
-4.13445e-05
3.04638e-05
-1.06659e-05
-2.95133e-05
-5.41744e-05
-3.48925e-05
1.85785e-05
2.53227e-05
2.42314e-06
-2.63904e-05
1.75388e-05
2.88666e-05
3.31526e-06
6.41022e-06
2.32744e-05
3.81654e-05
2.47955e-05
-2.18102e-05
4.72268e-05
1.43185e-05
-1.64048e-05
1.75566e-05
4.81709e-05
6.3612e-05
-1.97515e-05
6.06686e-05
-7.1045e-05
4.8118e-05
-2.45976e-05
2.45371e-06
1.20319e-05
2.39076e-05
1.51746e-05
2.12537e-05
1.33229e-05
3.09557e-05
-6.829e-05
8.02098e-07
1.9885e-05
3.48531e-05
3.81267e-05
1.57008e-05
3.37601e-05
4.76292e-05
-6.65781e-05
-6.36323e-05
-0.000131552
-2.73658e-05
-5.86837e-05
0.0002217
0.00018023
0.00018316
6.98186e-05
6.56022e-05
1.96882e-06
-6.37776e-05
-2.49031e-06
4.47131e-05
-4.68923e-05
4.96325e-05
-0.000415431
-0.000286437
-6.42492e-05
-9.40807e-05
-6.79826e-06
3.0219e-05
-7.44634e-06
-8.0124e-06
2.8944e-05
3.65967e-06
5.39885e-05
-2.0505e-05
1.96019e-05
5.58085e-05
-2.10186e-05
7.43983e-07
0.000130555
-7.30666e-06
1.8285e-05
1.56109e-05
1.45439e-05
1.22632e-06
-6.9734e-06
-1.53983e-05
-0.000114766
9.74898e-07
-8.57818e-06
-4.90505e-06
3.87547e-06
-4.67299e-05
-0.00015582
2.91139e-06
-1.58563e-05
7.8546e-05
-6.01768e-06
-1.12617e-05
-6.09072e-06
-2.54692e-05
-4.21982e-05
-9.04079e-06
-6.19257e-05
1.13621e-05
-8.99544e-06
-1.76674e-05
-4.99224e-06
-2.04632e-05
3.29881e-05
-1.7354e-06
-5.61034e-05
-2.25036e-05
-1.00278e-05
-6.51653e-06
1.61745e-05
-2.08502e-05
1.13688e-05
3.3832e-05
1.08065e-05
2.97816e-06
-4.94432e-06
8.37511e-06
-5.65133e-07
8.91104e-06
4.46032e-05
-1.1486e-05
2.88348e-05
2.78836e-05
3.55779e-05
3.07504e-05
1.67175e-05
2.44129e-05
3.46796e-05
1.90239e-06
1.00331e-05
2.26688e-05
-2.82022e-06
2.1002e-05
2.53647e-05
1.02464e-05
-9.26311e-07
-9.16351e-06
-9.41777e-07
2.91557e-05
-4.4862e-06
1.03071e-05
-4.16338e-05
-7.85539e-06
1.88698e-05
1.95041e-05
1.11146e-05
-1.66057e-06
-9.4554e-06
-1.0892e-05
1.44591e-05
1.84089e-05
1.16065e-05
2.0332e-05
7.60409e-06
-6.18637e-06
-1.03443e-05
8.81334e-06
-4.04578e-06
-1.78019e-05
-4.46794e-06
-1.45205e-05
0.000252299
-0.000224385
5.84628e-05
-0.000466336
-0.000509827
9.56261e-05
2.67889e-05
-1.30954e-05
4.56457e-06
-0.000441631
-0.000325575
-2.9253e-07
-2.4197e-05
-0.000251774
2.67369e-05
-0.000243584
-0.000245256
-1.55881e-05
2.62152e-06
3.76184e-05
-4.68223e-06
1.75939e-07
2.86699e-05
-0.000121022
-2.60939e-05
-9.17723e-05
-2.10965e-05
-0.000115332
-0.000337072
0.000336468
-0.00013687
-6.91547e-06
-9.4357e-05
-0.000488577
-0.000554503
-0.00013937
-4.44048e-05
-0.00029829
-0.000638636
0.000213914
-0.000157768
-0.000238225
1.04024e-05
-6.01163e-06
-0.000129116
-0.000383811
-3.83549e-05
-0.000442564
-0.000413246
1.01188e-08
8.21711e-05
0.000104211
-5.20439e-05
2.6672e-05
-0.000112851
-0.000347847
0.000226629
-6.19285e-06
-3.71269e-05
-2.25293e-05
-0.000545793
-0.000487333
-9.4811e-05
-0.000683588
-0.000683703
3.07195e-05
1.67425e-05
-0.000124373
-0.0004747
-0.000118446
-0.000549414
-0.000399951
-0.000210284
-0.000174608
-0.000128023
1.02502e-06
-0.000226826
-0.000270991
-0.000204411
-4.76385e-06
-0.000357425
0.00017196
-3.89895e-05
-0.000629565
-0.000243145
-0.000694261
-0.00041318
-0.000241996
-0.000526439
-0.000309111
0.000157974
-0.000240348
-0.000182763
-9.52141e-05
-7.86559e-06
-6.10759e-05
5.79954e-05
-6.99124e-05
-0.000136601
6.77537e-06
-5.40466e-05
0.000194425
0.000112511
-7.18379e-05
-0.000141479
3.74475e-05
-0.000182504
-0.000256599
-0.00015964
0.000142961
-0.00010724
-0.000133608
-0.000536293
-0.000211185
9.9698e-05
-0.000335963
3.38874e-05
8.70114e-05
4.3609e-05
-8.25212e-05
-0.000506599
-7.21215e-05
-0.000566489
-0.000486869
2.77666e-05
1.90017e-05
6.09503e-05
3.21713e-05
-4.24786e-05
-1.27104e-05
-9.95523e-05
7.32461e-05
-0.000384879
0.000156751
-0.00012647
1.14084e-05
-0.000272675
-0.000575446
-0.000408034
-8.94309e-05
-0.000233173
0.000100985
7.87634e-06
1.74613e-05
-0.000126244
-0.000349679
-5.58887e-05
-0.0003527
-0.000358574
7.58853e-05
-7.91956e-06
-0.000136549
-4.25252e-05
-2.49726e-05
9.29247e-06
-5.87651e-05
-0.000276751
-0.00029049
-3.02823e-05
-0.00036289
-0.000176838
0.000187296
-0.000179907
-1.91279e-05
-3.81573e-05
-0.000579446
-0.000520058
-9.19419e-05
-0.000222345
-0.000412824
-0.000626429
9.53691e-05
-0.000120192
-3.69912e-05
-6.84307e-05
-3.69833e-05
-3.30486e-05
6.32197e-05
8.95278e-05
-0.000106325
-0.000285645
-0.000649846
0.000174415
-0.000223016
0.000110044
-2.74363e-05
-0.000750757
-0.00063975
0.000137791
-0.000551241
2.83431e-05
-0.000117203
-0.000459183
-0.000762944
-0.000806889
0.000114969
-0.000526994
0.000391643
-0.000108316
-0.000539661
-0.000720582
1.50728e-05
-0.000121439
4.57716e-06
3.1994e-05
-6.44229e-05
-0.000666632
0.000203656
-0.000523313
0.000307363
-0.00017829
-0.000153362
-0.000578472
-0.000525135
7.74467e-05
-0.000303252
0.000179552
-0.000161794
-6.70648e-05
-0.000501674
-0.000529438
0.00017608
-0.000447035
0.000396688
-0.000182807
-0.000119586
-0.000585949
-0.000560422
4.52623e-05
-2.06142e-05
-0.000155028
2.30273e-05
-0.00018179
-0.000108374
-2.98799e-05
-0.000194662
-0.000141892
0.000191469
0.000110432
6.33545e-05
7.07468e-05
-0.000121617
-0.00017046
5.9894e-05
-0.000272518
-0.000200281
-0.000266883
-2.7047e-06
-0.000145093
-0.000134307
-0.00043345
-0.000321191
-0.000176131
-0.000135113
-0.000558499
-0.000324824
-4.37767e-05
-0.000124217
-0.000293117
3.48894e-05
8.17711e-06
-2.09924e-05
0.000109202
-0.000194144
-0.000118114
-0.000575314
-0.000412457
3.10857e-05
-0.00034848
0.000325359
-0.000212819
-0.000208099
-0.000617258
-0.00061086
2.26249e-05
-0.000407979
0.00024468
-0.000248606
-0.000196994
-0.000644493
-0.000713714
0.000128241
-4.58442e-05
-0.000235993
1.40841e-05
-0.000227142
-0.000190032
-5.51289e-05
0.000205014
-0.000110883
-2.42477e-05
-0.000431001
-2.34766e-06
-2.87868e-05
-0.000193442
3.13194e-05
-0.000219872
-0.000153812
-0.000382741
0.000159569
0.000233738
0.000251563
-0.000475353
0.00030362
-0.000564948
-0.000102219
-9.03317e-05
-0.000346072
-0.000264251
-0.00013874
0.000318413
1.08443e-05
-0.000136188
-0.000389514
0.000225084
-0.000424914
0.000285275
0.000544101
0.000355409
0.000443127
-4.9215e-05
0.000470133
-5.88452e-05
0.000441236
0.000531252
0.000448154
0.000313416
-5.7058e-05
0.000141892
0.000821285
0.000218141
0.000185147
0.000275959
0.000258682
6.14886e-05
0.000201815
0.000122737
0.000243088
6.08931e-05
0.000414554
0.000295422
0.000267557
1.6647e-05
-0.000227156
0.000443415
0.00125734
0.000533163
0.00166306
0.000873446
0.00149285
0.000135904
0.000556609
0.00253665
0.000537923
0.000319228
0.000117335
0.000587472
0.00176618
0.0011852
0.000152358
1.99889e-05
3.07474e-05
0.00173478
0.000426608
3.3817e-05
0.000244691
0.00107343
0.000356202
0.00132898
0.000779824
0.00119426
-7.00782e-07
0.000440009
0.00188593
0.00039459
0.000101351
0.000305257
0.00106235
0.000360627
0.0013589
0.000665855
1.38452e-05
0.000103405
0.000726053
0.000311755
-3.31189e-06
0.000213606
0.000822538
0.000266084
0.00108223
0.000640477
0.00109959
-0.000116584
0.000354336
0.0011288
0.000475128
4.87383e-05
6.92098e-06
6.65965e-05
0.00102173
0.000391244
0.000165533
-0.000355239
0.000357851
0.00210695
0.000293856
0.000288183
0.000788869
1.95741e-05
-7.6808e-05
0.00102339
0.000333826
-3.70081e-05
0.000665412
-1.00776e-05
-1.01266e-05
0.00101511
0.000498404
0.000101591
-4.20029e-06
0.000780512
-6.82492e-05
0.000216814
0.000947168
0.000574889
5.83954e-05
0.000571012
-6.36748e-05
-2.80839e-05
0.000981638
0.000394169
-0.00010955
0.00110382
-0.000144443
0.000288812
0.00134748
0.000549133
-3.48878e-05
0.000720864
-4.82163e-05
5.36081e-05
0.000978891
0.000421128
8.765e-06
0.000653544
-0.000136247
0.000272516
0.00120151
0.000363371
-1.54333e-05
0.000738651
2.92818e-05
0.000255499
0.000699923
0.000438619
-3.47972e-05
0.000676284
-5.62676e-05
0.000130199
0.000514997
0.000387392
-3.20743e-05
0.000283246
0.000926938
0.000342518
0.00122411
0.000675022
0.00120874
-8.0888e-05
0.000105521
0.00131041
0.000349301
0.00052268
-6.77943e-05
-5.10256e-05
0.000902243
0.000203579
2.40338e-05
-3.87953e-05
0.000273772
-5.09203e-05
-0.000112416
0.000778442
0.000238921
-2.50743e-05
3.95207e-05
-0.000500795
0.000109587
0.000202151
-0.000153887
-0.000304358
-0.000133375
0.000303867
0.00119539
0.000442936
0.00135971
0.000828713
0.000524318
-0.00048815
0.000233599
0.0019294
0.000280464
0.000206028
0.000298718
0.000830776
0.000390247
0.000985735
0.000576635
-0.000523682
0.000312465
0.00180422
0.000718324
0.00019877
-0.000384522
-4.21847e-05
1.74301e-05
-0.00035007
-0.000341876
-0.00016298
-9.16889e-05
-5.5838e-05
6.09262e-05
-0.000667327
-0.000436027
0.000209895
3.97527e-05
6.43518e-05
-0.000488939
-0.000522022
0.000178848
7.18565e-06
-6.05117e-05
7.71385e-05
-9.68901e-05
-7.51509e-05
-0.00026072
-0.000194747
0.000137317
-0.000102741
-0.000442822
-0.000233394
1.3397e-05
-3.64484e-05
8.34564e-05
-4.93183e-05
-7.56822e-05
-0.000229291
-0.000351521
0.000113302
-0.000122463
-0.000330191
-0.000229937
-0.000115963
-0.000406218
-6.88278e-05
-0.000428352
-0.000392894
-0.000241992
6.63834e-05
-0.000229109
-0.000553508
4.01888e-05
-0.000329882
-0.000321082
0.000184134
-0.000229772
-0.000524882
-4.06639e-05
-0.000103314
-0.000294202
-4.73428e-05
-0.000281008
-0.000310557
-0.000112545
-0.000196244
6.10703e-05
-9.23229e-05
-0.000571464
1.37147e-05
-0.000148977
-0.000373263
0.000252073
-0.000130969
-0.00054238
3.74582e-05
0.000642398
-0.00037209
0.00019666
0.000229977
0.000161468
0.00043157
9.76723e-05
0.000201924
-0.000372248
6.4817e-05
0.000292939
-3.66347e-05
-0.000172532
-5.83993e-06
-0.000250698
-5.66394e-05
-2.92481e-05
-3.68649e-05
4.89052e-06
1.97045e-05
0.000503117
-9.9466e-05
9.4365e-05
-0.000360564
-0.00023219
-0.000121427
-3.91609e-05
-0.000322977
-0.000137282
-8.17432e-05
-0.000579072
-0.000438062
-0.000498339
2.52313e-06
-3.9488e-05
-2.16782e-05
-8.2089e-05
-0.000522824
-0.000359819
-0.000416915
-2.71576e-05
-0.000260183
-0.000158875
-7.38692e-05
-0.000633569
-0.000448101
-0.000468066
-5.7563e-06
2.32257e-06
-9.46873e-06
-0.000570526
-0.000663633
0.000194378
1.05027e-05
-0.000251648
-4.08897e-05
-0.000562661
-0.000276355
1.04603e-05
-0.000416422
-0.000165113
-7.15654e-05
-0.000563978
-0.000435247
-0.000469021
3.25867e-05
-0.000332167
-0.000221906
-9.72079e-05
-0.000624881
-0.000485723
-0.000538723
3.69457e-05
9.81523e-05
-6.95678e-05
-0.000153262
-0.000568552
-0.000395626
-0.000470666
-7.1708e-06
0.00045411
-0.000132071
-6.91016e-06
-0.000134956
-0.000159887
-4.45476e-05
5.22626e-05
-4.06118e-05
-0.000175444
-0.000132408
-0.000560145
-0.000308136
-0.000353051
1.63649e-05
-0.000240727
2.33838e-05
-3.09663e-05
-0.000129548
-0.000291897
-4.77258e-05
4.56124e-05
-0.000281753
-6.42521e-05
-0.000392225
-0.000236999
-7.40949e-06
0.00023209
-4.57598e-05
5.22316e-05
-0.000216826
-0.00026802
4.4728e-05
-6.98654e-05
-0.000455374
-2.86692e-05
-0.000524875
-0.000295376
-0.000111929
-4.57778e-05
8.97308e-05
-0.00027259
-0.000415571
0.00028878
-0.000108484
-0.000594769
-0.000126273
-0.000739244
-0.000501707
0.000120552
-2.90765e-05
-0.000996269
-0.00033325
-2.18724e-05
-0.000148625
-0.000591746
-0.000179156
-0.000725104
-0.000493046
9.32554e-05
-1.80583e-05
-0.000833985
-0.000701451
0.000110875
-9.46714e-05
-0.000438726
-5.22288e-05
-0.000486283
-0.000439765
0.000105559
-2.58921e-06
-0.000746425
-0.000636261
-0.000560285
-2.79886e-05
-5.93683e-05
-0.000296132
-1.92544e-05
-0.000284366
-0.000262363
-0.000189925
-0.000195505
6.57474e-05
-0.00031005
-0.000441785
0.000309667
-9.47682e-05
-0.000328326
-5.94039e-05
-0.00034839
-0.000280136
-0.000134435
-0.000159199
0.000119447
-0.000278241
-0.000440986
0.000359051
-2.42052e-05
-0.000291936
2.52841e-06
-0.000324182
-0.000182104
-1.0495e-05
-6.84245e-05
-0.000160407
-0.000442073
-0.000449326
2.02648e-05
-0.000225817
-3.26692e-05
-4.79419e-05
-0.000154827
-0.00020173
-0.000478119
2.09269e-06
-1.54902e-05
-0.000172388
7.58978e-05
-0.000190215
-0.000117441
-0.000189719
-0.000173423
-0.000524212
-0.000357622
-0.000393679
6.75807e-06
-3.52716e-05
-0.000161482
8.27928e-05
-0.000156408
-0.000158453
-0.000391616
-4.41131e-05
-0.00013952
-0.000381228
-0.00044312
3.86893e-05
-5.20336e-05
-0.000119694
7.5592e-05
-0.000134712
-0.000168154
-9.84531e-05
-0.000298536
-8.09603e-05
-0.000595814
-0.000355434
0.000121117
-3.40621e-05
-6.96224e-05
0.000126145
6.40518e-06
-0.00014889
0.000157107
-0.000181304
-7.87798e-05
-1.49684e-05
-0.000440367
6.56022e-05
-4.36916e-05
-0.000264128
1.82829e-05
-0.000287385
-0.000294115
-0.000333489
-0.000188598
5.50414e-05
-0.000732801
-0.000355536
0.000272387
0.00016177
0.000681992
0.000269432
0.000875498
0.00051391
0.000798862
6.9494e-06
-4.89099e-06
0.000877365
-8.52009e-05
0.000156096
-3.94218e-05
-0.000136832
7.29078e-06
-0.000137877
-0.000166772
2.85678e-05
-3.13059e-06
5.60376e-05
-0.0002605
-0.000322326
1.4948e-05
-9.33346e-05
-7.13441e-05
-7.3515e-05
-0.000402066
-0.000186373
4.09518e-05
0.000348247
-6.24564e-05
4.98419e-05
-7.94598e-05
-0.000212017
-1.26615e-05
5.45161e-06
-4.71244e-05
5.12899e-05
-3.79821e-05
-0.000112389
-0.000204642
-8.95251e-05
5.64745e-05
-0.000288833
-0.00016943
4.3027e-05
-3.40719e-05
-0.000115414
3.93711e-05
-0.000111521
-0.000181207
-0.000231361
-1.10068e-05
3.01142e-05
-0.000489288
-0.000342747
-1.85561e-05
-0.000144623
-1.56619e-05
-4.19565e-05
-0.000475511
-0.000427705
3.49102e-05
1.67714e-06
-7.65011e-05
0.000111113
-3.50607e-05
-0.000155699
-0.000211545
-2.08288e-05
-3.90759e-05
-0.000252258
-0.000309929
-3.49383e-05
0.000810332
-0.000198686
-7.51663e-05
-0.000216714
-4.2285e-05
-0.000197086
3.41927e-06
0.000441029
-0.000148143
-4.53793e-05
-0.000199949
-0.000199469
-0.000153791
-5.59108e-05
-1.43032e-05
-0.000150311
-0.000143893
-0.000422285
-0.000229116
-0.000296166
3.76008e-05
-0.000212994
-8.66536e-06
-3.73577e-05
-0.000233369
-0.000142056
2.71165e-06
-0.00012373
-0.000119358
4.18122e-05
-0.000393493
-0.000431034
1.86311e-05
0.000906811
-1.04071e-05
0.000392913
0.000134586
0.000315479
0.000129233
6.30604e-05
0.00012314
-5.12449e-05
0.000182255
0.000301632
2.68863e-05
0.000828277
4.64996e-05
0.00025793
0.000257347
0.000228656
0.00020063
1.84873e-06
9.47824e-05
0.000400828
0.000211551
0.000479423
0.000174074
0.00109731
-6.41776e-05
5.38056e-05
0.000194015
0.00012212
7.90068e-05
7.72451e-06
-8.36539e-05
0.000225533
-0.000191588
9.1799e-05
2.93506e-05
0.000200518
-0.000178689
2.43702e-05
-0.000374646
1.50304e-05
-0.000189346
6.39263e-06
0.000831986
4.58778e-07
9.88751e-05
0.000436415
0.000190633
1.94029e-05
0.00155617
-4.25384e-05
0.000203759
0.000475434
-2.32344e-05
9.02531e-05
-0.000278407
0.000161645
-0.000298415
-0.000353959
-9.12171e-05
-1.57892e-05
-0.000523662
-0.00043352
-0.000506963
-0.000381702
-6.6533e-05
-0.000283375
0.000542328
0.00033269
-0.000104787
8.03712e-05
0.000598016
0.000116537
-6.08269e-05
-0.000315297
6.88339e-05
-1.39776e-05
-0.000239172
0.000679118
0.000897046
0.00113246
-2.0084e-05
-8.86459e-05
0.00140957
0.00103586
0.000332766
-0.000182946
0.000588304
7.54955e-05
-8.52451e-05
-0.000360845
-3.19009e-05
-0.000419074
-0.00051397
-0.000169609
-0.000260384
-0.00072312
-0.000685872
-0.000665699
-0.000646478
-2.42094e-05
-0.000291064
-0.00012203
6.18999e-05
-0.000504382
-0.000141637
-9.72838e-05
0.000141257
-0.000364014
-0.000374148
-0.000631802
-0.000491788
-0.000180485
-0.000245789
-0.000277334
4.35022e-05
-0.000400721
-0.000221774
-0.000172327
-0.000154369
-0.000470681
-0.000435984
-0.000567898
-0.000472281
-0.000155703
-5.57304e-05
-0.000170374
0.000107917
-0.00031294
-0.000150928
-0.000129795
-8.82542e-05
-0.000456326
-0.000413508
-0.000597854
-0.000353114
2.35335e-05
-0.000153888
-0.000262879
4.57702e-05
-0.000321987
-0.000606646
-0.000110321
-0.000179594
-0.000475805
-0.000434147
-0.000394356
-0.000363895
-4.11858e-05
-0.000252014
-0.000187576
0.00027426
-0.000217017
-0.000104123
-0.000140446
-3.66414e-05
-0.000397085
-0.000412396
-0.000569482
-0.000308385
-6.79777e-06
-0.000200119
-9.5758e-05
7.03895e-06
0.000403428
-0.000413685
-3.9352e-05
-0.00028168
0.000306614
-0.000452443
-0.000619563
-0.000767184
-0.000485853
-3.43878e-05
1.85861e-05
-0.000322192
0.000996851
0.00118587
0.00164856
-0.000347125
0.000143638
0.00221384
0.00154279
0.00150918
-0.000179659
0.00104182
-8.66125e-05
-8.5694e-05
-0.000209415
-8.98054e-05
-0.000417024
-0.000299176
-0.000213235
-0.000454372
-0.000526079
-0.000519521
-0.000624427
-0.000494375
-1.17615e-05
-0.000478996
-8.13201e-05
0.000206517
-0.000284029
-0.000107572
-0.000100104
-0.000126029
-0.000455775
-0.00036351
-0.000605272
-0.000345981
2.77737e-06
-0.000196702
-0.000616658
0.000114043
-0.000507282
-0.000238846
-0.00023582
-0.000284823
-0.000629037
-0.000569624
-0.000628866
-0.000575247
-7.15786e-05
-4.77585e-05
-0.00027234
-0.000210766
0.000208121
-0.000277215
-0.000279225
-0.000108087
-0.000164819
-0.000460476
-0.000389232
-0.00069672
-0.00023809
8.28233e-06
-7.0256e-05
0.000168097
-0.00030704
-0.000348635
-0.000191853
-0.000123141
-0.000205781
-0.000268172
-0.000508177
-0.00013474
-0.000443114
-8.97966e-06
6.39605e-05
4.34395e-05
0.00013101
-2.43137e-05
4.75078e-05
5.6894e-06
0.000178161
0.0002118
0.000183796
0.000217233
0.00020031
0.000187648
-3.67504e-05
-5.43755e-05
-5.19424e-05
-4.65748e-05
9.21482e-07
-1.85291e-05
-6.1475e-05
-6.97884e-06
4.84716e-05
-0.00010146
-8.62973e-05
-7.35014e-05
-4.83258e-05
-7.50445e-05
1.11532e-05
4.28026e-05
4.77931e-05
7.80943e-06
-2.05272e-05
2.44956e-05
1.17407e-05
-8.22839e-05
2.20366e-05
-9.66154e-06
0.000159978
3.94409e-05
-5.5312e-05
-1.54198e-05
7.23028e-06
5.43916e-05
2.23589e-05
3.52073e-05
4.09021e-05
-7.47034e-05
-3.88953e-06
-2.04022e-06
0.000198882
0.000381178
0.000168641
-7.7144e-05
0.000222768
5.07055e-05
-6.09877e-05
-8.89694e-06
-1.58309e-05
2.39421e-05
2.125e-05
1.6748e-05
3.85298e-05
-5.19305e-05
-6.40828e-05
-6.36484e-05
0.000209146
0.000259325
0.000236301
0.000255012
1.03439e-05
-1.52115e-05
8.04762e-05
-4.91363e-06
2.50154e-06
1.65699e-05
-8.3093e-06
7.19053e-05
9.90802e-05
4.21821e-05
7.71882e-05
-6.01949e-05
-5.54055e-06
-9.89354e-06
4.7664e-05
4.56386e-05
6.43733e-05
0.00029738
4.48339e-05
-2.1477e-05
6.19504e-05
3.53072e-05
-1.0584e-05
1.92517e-05
1.05709e-05
7.01652e-05
-3.64745e-06
-6.00428e-06
1.64925e-06
9.80169e-05
4.00069e-05
6.22906e-05
-1.79064e-05
-1.42917e-05
-4.84493e-05
-7.28906e-05
3.73032e-05
0.00015933
0.000434644
0.000352377
1.07389e-05
6.7336e-05
3.75938e-05
-3.40406e-06
-3.45793e-05
-5.94754e-05
9.3173e-06
-2.59195e-05
-1.34965e-05
5.58671e-05
-8.17313e-05
-7.90888e-05
0.000214021
-6.67357e-05
3.17661e-05
3.38581e-05
1.51682e-05
3.12943e-05
2.13493e-05
8.47695e-06
-0.000137868
-2.38932e-05
9.38827e-05
5.5119e-05
-3.11696e-05
-3.92715e-05
-5.16812e-05
-1.01358e-05
-4.55581e-06
8.60457e-07
-8.70036e-06
-1.18304e-05
-1.30049e-05
-1.89523e-05
-1.13119e-05
-2.46299e-05
-2.37712e-05
-7.11477e-05
-1.02499e-05
-0.000139286
-4.11331e-05
-4.1763e-06
-0.000172188
-3.97007e-05
-4.90778e-06
-1.48105e-06
-0.000103242
-2.0349e-05
-6.01002e-05
-4.28241e-05
-0.00012753
-1.98028e-05
-4.92238e-05
-6.87765e-06
-5.10002e-05
-2.50985e-05
-9.84742e-06
-4.37069e-05
-6.52585e-06
-3.69285e-05
-3.45989e-05
-1.66527e-05
-2.56173e-05
-2.26293e-05
-9.93823e-06
-1.88012e-05
4.68961e-05
7.49447e-06
-8.97472e-06
1.12706e-06
6.46149e-05
-1.05382e-06
-1.86222e-06
9.84404e-07
2.01188e-05
-6.71212e-05
-1.77045e-05
-4.40027e-05
-2.00227e-05
-7.16655e-05
7.11877e-06
-2.798e-06
-1.64862e-06
-2.08335e-05
-3.54637e-05
-4.03053e-05
3.37255e-05
-4.03644e-06
-3.506e-05
-4.94631e-06
-4.38296e-05
-3.91747e-05
-8.98802e-06
-1.31927e-05
-3.77213e-05
0.000208887
3.60949e-06
0.000100583
0.000107046
9.07308e-05
5.81955e-05
6.34046e-05
0.000177992
0.000104994
0.000177994
1.43954e-05
0.000130825
9.16509e-05
0.00013335
0.000112987
5.23729e-05
0.000130299
9.22319e-05
0.000276081
-5.00393e-06
3.13733e-05
0.000109352
0.000141083
-5.42014e-06
0.000135431
8.64368e-05
0.00013302
0.000131201
0.000302049
4.67284e-06
0.000371636
6.63915e-06
2.62642e-05
4.85599e-05
4.75471e-05
6.46557e-05
0.000180089
0.000101295
8.35802e-05
-2.64627e-05
0.000106244
-9.40125e-07
3.42603e-05
1.56682e-05
9.06507e-05
0.000118066
7.75672e-05
0.00031198
0.000150772
8.44321e-05
4.83288e-05
8.63784e-05
0.000130343
0.000126823
9.6735e-05
-3.89849e-05
-1.16677e-05
-1.50336e-07
-2.05287e-05
3.7868e-05
-2.3529e-06
7.16181e-05
-2.84296e-05
-1.53233e-05
-1.05536e-05
-5.76522e-05
-5.40358e-06
-0.000138695
-0.000247138
-3.32373e-06
-2.06168e-05
-2.90446e-06
-7.23425e-05
-2.2388e-05
-0.000113023
-5.05168e-05
-0.000172341
1.53826e-05
-9.52192e-05
-2.80188e-05
-1.82945e-05
-6.61171e-05
-8.83328e-05
4.73416e-05
-5.76981e-06
7.93696e-05
2.03459e-05
7.25502e-05
1.40531e-06
-5.6278e-05
6.19877e-05
4.60696e-06
-7.76137e-06
2.92523e-05
5.13581e-05
-1.61448e-05
6.9284e-05
1.4577e-05
2.34859e-05
1.92752e-05
1.60089e-05
7.65981e-05
1.98241e-05
1.23537e-05
8.04931e-06
3.89925e-05
-1.26299e-05
-5.60651e-05
1.31604e-05
-2.0805e-05
4.18492e-05
2.63416e-05
-4.15797e-05
-5.40691e-05
-1.25045e-05
8.57813e-06
-7.32165e-05
-3.33078e-05
-1.20947e-05
1.35619e-05
3.08361e-05
6.07794e-07
-2.43072e-05
-4.38541e-05
4.13039e-05
4.60439e-06
4.52237e-06
1.87333e-05
-2.62365e-05
-1.60515e-05
-3.12208e-06
7.28896e-06
8.37716e-06
4.90593e-05
-1.38867e-05
-9.9808e-06
-9.94607e-05
4.26352e-05
9.42782e-05
-1.88638e-05
-1.66708e-07
9.61671e-05
2.27957e-05
-1.27867e-06
-0.000161614
5.04027e-06
1.12025e-05
-2.36915e-05
1.45888e-05
2.82754e-05
-0.000120933
0.000149445
-3.14996e-05
-3.27661e-05
1.05449e-05
-5.80906e-05
-2.09428e-05
2.21761e-05
1.68626e-05
7.91656e-05
4.70427e-06
2.19386e-05
5.2669e-06
2.98849e-05
-4.68764e-05
5.99857e-05
5.46079e-05
-4.10498e-06
-8.60262e-06
-3.19718e-05
1.9066e-05
-5.72521e-05
1.18684e-06
-2.87877e-05
-1.06719e-05
7.83378e-05
3.41766e-05
3.55444e-05
1.89299e-05
1.80587e-05
7.99567e-05
-5.98739e-06
-5.82445e-05
4.05758e-05
-3.90738e-05
0.000126874
6.07482e-05
0.000148134
9.78859e-06
-2.19281e-06
-7.94207e-06
-8.33393e-06
2.51956e-05
1.76066e-05
1.35927e-05
-1.90605e-06
0.000148171
-1.14249e-05
3.91417e-05
-3.59194e-05
-9.56999e-06
-1.52855e-05
3.20941e-06
0.000142434
0.000144863
8.96015e-05
8.09194e-06
-3.48247e-05
3.2514e-05
0.000138011
2.78025e-05
5.71776e-05
-3.82218e-05
0.000201379
9.86201e-05
0.000151773
1.01468e-05
8.05216e-05
0.000237628
0.000135263
2.48355e-06
0.000174577
-5.25155e-05
-9.35171e-05
-4.37745e-05
5.80762e-05
0.000157507
0.000274983
9.88711e-05
0.000105193
-9.12198e-07
1.87784e-05
-3.62913e-05
2.16668e-05
1.82276e-05
-1.17335e-06
5.07714e-05
0.000143928
0.000216599
1.56859e-05
3.70459e-06
4.95339e-05
3.65868e-05
-1.97623e-05
2.10136e-06
1.05622e-05
0.000316645
0.000255958
0.000109195
0.000267052
0.000147129
0.000182473
0.000105038
0.000246403
3.52927e-05
0.0001785
0.000148832
0.00019501
8.35269e-05
0.000239825
5.6552e-05
0.000205221
-6.35103e-05
1.33941e-06
1.04019e-05
-3.47923e-05
-7.14203e-05
-3.31312e-06
-2.05124e-05
2.07547e-05
-3.09421e-06
-3.12459e-06
-3.46357e-05
-0.000104822
-5.8795e-05
-6.25591e-05
-7.87166e-06
-2.64841e-05
-0.000204235
2.67473e-05
-3.82572e-05
-4.92058e-05
-6.09435e-05
3.27725e-05
2.18911e-05
1.84735e-05
-2.69338e-05
-1.37565e-05
-3.47909e-05
8.16569e-06
-5.2937e-05
-4.72426e-05
-3.25438e-05
-1.48625e-05
-3.14974e-06
2.12367e-05
-1.83047e-07
4.17767e-06
-7.58596e-06
6.18846e-05
-1.81377e-05
3.98748e-05
-3.4083e-06
8.26267e-06
1.39607e-06
-1.34173e-05
-5.27148e-05
-6.26513e-05
8.22503e-05
7.66083e-05
5.20369e-05
1.41137e-05
-4.61096e-05
-4.85601e-05
1.89968e-06
-3.00641e-05
8.95013e-06
6.09724e-06
-4.39395e-05
-0.000102697
-0.000108911
-3.28082e-05
1.6946e-05
-2.59476e-05
-3.79981e-05
1.5033e-05
-2.14321e-05
-6.93571e-06
-9.51467e-06
-1.30264e-06
-3.37805e-05
-1.92269e-05
1.23685e-05
6.0413e-05
-3.27892e-06
-1.03141e-05
-3.10401e-06
3.44023e-05
-2.23911e-05
-6.50522e-06
-3.30403e-05
3.33435e-05
1.25044e-06
1.02607e-05
-2.82489e-05
-7.37351e-07
3.51342e-05
4.08766e-05
-1.7421e-05
-6.2374e-06
-3.67308e-06
-1.08973e-06
1.85467e-05
5.24059e-06
-1.24507e-05
-2.02049e-05
-2.56744e-05
-0.000157803
-0.000298219
-0.000144027
-5.86319e-05
-8.18828e-06
-6.9513e-05
-3.34753e-05
1.26053e-05
-2.03123e-06
8.25695e-06
-4.98813e-05
-1.8602e-05
-1.43039e-05
-4.31945e-05
-1.6836e-05
-7.04373e-05
1.89748e-06
-7.45263e-07
3.39427e-05
-2.27271e-05
4.28189e-05
3.60218e-05
2.04155e-05
1.96687e-05
-5.71838e-05
4.04384e-05
6.36979e-05
2.05005e-06
-0.000109744
-1.32151e-05
-1.30873e-06
-1.93697e-06
3.19677e-05
5.72248e-06
-7.17147e-06
-4.729e-06
-4.88182e-05
-6.44339e-07
-6.51268e-07
-1.67021e-06
-3.33533e-05
4.9459e-05
-6.35686e-05
-9.68873e-05
1.40373e-05
-1.64256e-06
5.94268e-06
-6.28665e-09
4.84549e-06
-2.1481e-05
-3.14995e-05
-6.17265e-05
-1.1164e-05
-2.86965e-05
-1.32106e-06
-5.02289e-06
3.55747e-05
4.99007e-06
-3.93194e-05
-0.000121251
5.1002e-05
1.84574e-06
8.68113e-06
9.08587e-06
-1.21461e-05
-6.57114e-05
2.68616e-06
3.23832e-05
0.000115534
8.6741e-05
-7.55676e-05
6.06219e-05
3.05338e-06
-3.32497e-05
-1.82361e-05
-4.24004e-05
3.85496e-05
-7.72502e-05
-9.263e-06
-3.01854e-07
-8.93658e-05
-0.000155966
-6.48449e-05
7.24279e-05
-2.24985e-05
-3.49797e-05
-7.30079e-06
9.74218e-06
-9.96752e-05
-4.70733e-05
-2.27754e-05
2.20437e-05
-5.22576e-06
-3.10604e-05
-4.15344e-05
-1.3928e-05
6.2276e-06
4.47307e-06
2.09938e-06
-2.88543e-05
1.63766e-05
2.60973e-05
1.99341e-06
6.78785e-06
2.16716e-05
3.34739e-05
1.31549e-05
-9.0576e-06
4.53344e-05
1.85658e-05
-7.69214e-06
1.46173e-05
4.26509e-05
4.86284e-05
-1.97725e-05
5.70269e-05
-5.51023e-05
2.50765e-05
-1.79621e-05
1.24967e-06
7.06648e-06
1.33959e-05
7.22526e-06
1.42178e-05
-1.0256e-06
2.1863e-05
-6.72528e-05
4.35806e-06
2.7212e-05
2.64607e-05
2.40775e-05
1.16976e-05
2.36985e-05
3.41344e-05
-4.65554e-05
-3.04688e-05
-0.000148927
-2.13785e-05
-3.62603e-05
0.000178573
0.000142618
0.000166229
2.45767e-05
6.14566e-05
7.62835e-07
-5.28599e-05
-2.16977e-06
3.11945e-05
-3.84482e-05
5.02345e-05
-0.000213428
-0.000137115
-3.6736e-05
-8.10391e-05
-4.0362e-06
2.46216e-05
-8.19462e-06
-2.01081e-06
3.58624e-05
-1.4661e-05
3.74443e-05
-2.38196e-05
2.19834e-06
4.52873e-05
-2.51463e-05
-6.02271e-06
0.000121184
-5.42379e-06
1.59042e-05
1.05642e-05
6.69797e-06
3.53298e-06
-6.94926e-06
-1.92832e-05
-8.99347e-05
-2.94619e-08
-1.49734e-05
-1.23914e-06
3.54073e-06
-4.71176e-05
-9.98382e-05
2.85485e-06
-1.99564e-05
7.8903e-05
-5.88558e-06
-2.23149e-05
1.19077e-05
-2.35981e-05
-4.7125e-05
-7.25097e-06
-6.4623e-05
-1.9691e-06
-1.54271e-05
-2.44305e-05
-1.10018e-05
-2.91909e-05
8.8294e-06
-1.56045e-05
-4.71195e-05
-2.35389e-05
-1.74524e-05
9.20741e-06
-6.83811e-06
-2.21927e-05
-1.08315e-06
1.27407e-05
1.49692e-06
-7.23745e-06
-9.99434e-06
-5.60639e-06
-8.8942e-06
-5.06667e-06
2.53479e-05
-8.77855e-06
1.37377e-05
1.28123e-05
1.88506e-05
1.62251e-05
4.24478e-06
9.57969e-06
1.7154e-05
-1.32784e-05
-4.542e-06
-1.39593e-06
-1.13232e-05
-1.31531e-06
6.47187e-06
-7.68185e-06
-1.49501e-05
-2.02691e-05
-9.82009e-06
3.19921e-06
-1.19321e-05
-9.46407e-06
-3.48025e-05
-1.56298e-05
4.47078e-06
3.26625e-06
-4.26937e-07
-1.57954e-05
-1.74729e-05
-1.65546e-05
5.75478e-07
-2.64921e-06
-2.33611e-06
3.92557e-06
-6.64888e-07
-1.40708e-05
-1.79107e-05
-5.61609e-06
-1.01666e-05
-2.22306e-05
-1.58723e-05
-1.84687e-05
0.00014059
-7.00127e-05
0.000127734
-0.000507327
-0.000511553
8.64315e-06
-2.18892e-05
2.85957e-06
7.80018e-06
-0.000425851
-0.000302921
-1.19019e-05
-4.70799e-05
-0.00027238
-6.29124e-06
-0.000287634
-0.000280639
-4.23056e-05
-1.25681e-05
1.41654e-05
-3.0574e-05
-4.64912e-06
1.26692e-05
-0.00015583
-2.54309e-05
-0.000144217
-1.81792e-05
-0.0001236
-0.000352077
0.000218691
8.8033e-06
-1.56144e-05
-6.6876e-05
-0.000505922
-0.000537705
-0.000143269
-4.94312e-05
-0.000213255
-0.000563774
3.53891e-05
-9.9254e-05
-0.000248809
-0.000102308
-3.73331e-05
-0.000118225
-0.000389892
-4.47613e-05
-0.000418124
-0.000389395
-9.95513e-06
2.81348e-05
8.20925e-05
-7.20603e-05
-3.13666e-05
-9.75411e-05
-0.000338709
0.000113467
-2.90365e-06
-9.82786e-05
-7.60203e-06
-0.00047356
-0.000428175
-8.5035e-05
-0.000511005
-0.000550836
7.07178e-06
-4.49002e-06
-9.89703e-05
-0.000400113
-9.17012e-05
-0.000436952
-0.000339691
-0.000223401
-0.000199002
-0.000163463
-3.29103e-05
-0.000261535
-0.000285935
-0.000218862
-3.52159e-06
-0.000347686
6.94867e-05
9.34668e-05
-0.000506846
-0.00020722
-0.000585521
-0.000380391
-0.000258653
-0.000447418
-0.000281097
-9.17239e-06
-0.000245929
-0.000178568
-0.000153118
9.83193e-06
-4.80139e-05
6.63821e-05
-4.99136e-05
-0.000101488
-3.05299e-05
-4.32589e-05
0.000126735
9.25894e-05
-7.82951e-05
-0.000144504
7.56659e-06
-0.00016791
-0.000215341
-0.000149713
0.000179773
-9.69652e-05
-0.000117446
-0.000445997
-0.000230736
5.0947e-05
-0.00030074
-4.66154e-05
5.44677e-05
-7.79689e-06
-6.57324e-05
-0.000406233
-6.18916e-05
-0.000435624
-0.000424108
4.43975e-06
-5.89318e-06
2.63108e-05
1.34965e-05
-9.25608e-05
-6.12127e-05
-0.000124681
-2.6704e-05
-0.000354079
5.30974e-05
-1.73163e-05
-6.31087e-06
-0.000177227
-0.00053521
-0.000398251
-0.000106634
-0.0002507
6.70892e-06
-1.79754e-05
-1.16558e-05
-0.000130483
-0.000356417
-7.36348e-05
-0.000339666
-0.000374973
4.79372e-05
-1.01687e-05
-0.000149649
-4.74001e-05
-3.86468e-05
-1.41232e-05
-6.45692e-05
-0.000276592
-0.000299812
-3.05389e-05
-0.000340141
-0.000161013
7.16912e-05
-9.91862e-06
-0.000100361
-1.63029e-05
-0.000559958
-0.000512115
-8.56348e-05
-0.000201985
-0.000300993
-0.000543316
8.44759e-06
-0.000114049
-3.01786e-05
-7.50116e-05
-4.4265e-05
-5.38283e-05
0.000126969
8.86578e-05
7.00319e-05
-0.000101749
-0.000496342
2.15789e-05
-7.09894e-05
0.000111326
0.000103531
-0.000386202
-0.000485568
2.05371e-05
-0.000335609
0.000140622
0.000125879
-8.20282e-05
-0.000442954
-0.00051647
5.8816e-05
-0.0002532
0.000474237
0.00013918
0.000115436
-0.000128573
1.49898e-05
0.000102189
0.000116186
0.00052294
0.000435035
4.75876e-06
0.000107595
-0.000117482
0.000484612
0.000224911
0.000255472
5.21838e-05
-0.000194213
4.91886e-05
-0.000120156
0.000417346
0.000252155
0.000368128
9.03845e-05
-7.37591e-05
7.42031e-05
-0.000189002
0.000531262
0.000197956
0.000234202
7.58765e-06
-0.000170449
3.39496e-05
8.23539e-05
0.000196434
0.000142954
0.000221302
0.000156635
0.000205854
-6.49757e-06
-5.15252e-05
0.000360477
0.000259334
0.000144946
0.000160402
9.05804e-05
2.36224e-05
0.000284968
-6.91349e-05
0.000165912
-4.54141e-05
0.000326082
9.55288e-05
0.000190501
3.43938e-05
8.98283e-05
-1.09654e-05
3.73508e-05
-0.000215933
0.000104001
1.56135e-05
-0.000116241
-9.38102e-05
0.000282018
0.000250729
0.000165513
0.000255657
4.31741e-05
0.000163302
-0.000235907
-0.000182647
8.85102e-06
-0.000251057
0.000404911
9.25204e-05
8.10879e-05
-0.000239861
-0.000337548
3.90878e-06
-0.000263306
0.000337062
7.96296e-05
5.54227e-05
-0.000299005
-0.000368001
4.50653e-05
1.36648e-05
-2.84712e-05
6.57267e-05
-1.21465e-05
-5.08282e-05
-4.77372e-05
0.000146083
1.6898e-05
3.3297e-05
-0.000259834
-4.12144e-06
2.40283e-05
-6.69406e-05
7.77726e-05
-4.82564e-05
-6.31192e-05
-0.000294704
9.53268e-05
0.000202179
0.000289143
-0.0003069
0.000113099
-0.000332919
0.000154484
0.000230434
-1.81555e-05
0.000105141
-8.72321e-05
0.000157919
0.000226596
0.000103181
-0.00037328
5.65326e-05
-0.00034958
0.00017529
0.000190665
4.77741e-05
1.92293e-05
-7.6752e-05
8.15614e-05
-0.000300301
0.000143148
0.000134257
-3.15052e-05
-6.97539e-05
-8.87753e-05
-0.000148879
0.000286473
-0.000170327
-0.000265726
-6.43412e-05
1.14867e-06
-1.85219e-05
-0.000196685
8.07289e-06
-0.000191252
-0.000208768
7.10096e-05
5.90927e-05
-2.33551e-05
-0.000228139
-0.000164716
0.000298744
0.000794578
0.000372596
0.00101858
0.000549001
0.000966539
-0.000217845
0.000195823
0.00158392
0.000302248
-1.29127e-05
-0.000223777
0.000243499
0.00106573
0.000681862
-4.07482e-05
-2.58251e-06
5.71506e-06
0.00107691
0.00018227
8.58418e-06
0.000166163
0.0006289
0.000245609
0.000780737
0.000453539
0.000803805
-0.000197698
0.000199835
0.00116437
0.000209021
7.91793e-06
0.000226593
0.000687241
0.000263629
0.000860956
0.000451938
-7.87283e-05
5.17236e-05
0.000538944
0.000195372
-6.34051e-06
0.000159288
0.000596967
0.000185802
0.000653658
0.000445153
0.000824528
-0.00034506
0.000206722
0.000625873
0.000324252
-2.42631e-06
-7.33063e-05
2.97262e-05
0.00069907
0.000207854
3.89124e-05
-0.000399504
0.000197744
0.0014627
0.000184401
4.03298e-05
0.000542175
-6.50358e-05
-8.11902e-06
0.000663778
0.000244297
-2.92526e-05
0.000488102
-9.28152e-05
2.86312e-05
0.000679939
0.000367129
4.85725e-05
-1.01723e-05
0.000641824
-0.000199092
8.12728e-05
0.000633709
0.000409196
-7.74609e-06
0.000492
-0.000185113
9.72742e-06
0.000654471
0.000312869
-6.35324e-05
0.000880687
-0.000288484
0.000173011
0.000919358
0.000462672
-4.46414e-05
0.000585586
-0.000163536
9.03103e-06
0.000697508
0.000294606
-1.64964e-05
0.000551808
-0.000260422
0.000204768
0.000816329
0.00030427
-4.15606e-05
0.000638966
-0.000147979
0.000157859
0.000531906
0.000363165
-5.23835e-05
0.000584063
-0.000172456
0.000137021
0.000399881
0.000314145
-3.06265e-05
0.000229939
0.000728535
0.000277747
0.000925752
0.000554953
0.000965356
-0.000210748
0.000126126
0.000877129
0.000277006
0.000453298
-0.000155003
1.15694e-05
0.000704222
0.000175476
1.98828e-05
-3.83188e-05
0.000236288
-0.000102718
-1.52251e-05
0.000667955
0.000202691
-2.06179e-05
2.38438e-05
-0.000424232
0.000177237
0.000127513
-0.000153971
-0.000221088
-0.000110836
0.000251434
0.000858058
0.000343786
0.000943251
0.000628753
0.0004889
-0.000526467
0.000194869
0.00137677
0.000223939
3.3957e-05
0.000239322
0.00063776
0.000303591
0.0007255
0.000444066
-0.000526413
0.000220461
0.00132122
0.000565216
1.46637e-05
-0.000316707
4.40772e-05
3.38519e-05
-0.000312351
-0.000285259
-0.000173905
-6.93291e-05
-0.000111435
9.34006e-05
-0.000448321
-0.000457932
4.1782e-05
-4.45406e-05
9.49091e-05
-0.00033605
-0.000466603
3.91564e-05
8.87011e-06
-7.83207e-05
5.9162e-05
-0.000127848
-8.56475e-05
-0.000231707
-0.000262625
0.000163987
-9.78373e-05
-0.000339447
-0.000224508
1.2615e-05
-8.74194e-05
7.12937e-05
-5.70996e-05
-8.98619e-05
-0.000224378
-0.000268981
0.000124066
-0.000140541
-0.000258763
-0.000192979
-0.000103289
-0.000359417
-6.4122e-05
-0.000368024
-0.000351807
-0.000274882
0.000124081
-0.000147695
-0.000469665
-4.55909e-05
-0.000279483
-0.000313301
0.000196905
-0.000135247
-0.000453796
-0.000100682
-8.86891e-05
-0.000228816
-2.86857e-05
-0.000225357
-0.000245937
-0.000141586
-0.000193055
8.97507e-05
-7.27749e-05
-0.000462296
-3.98318e-05
-9.86728e-05
-0.000337432
0.000216683
-4.90232e-05
-0.000447915
-6.42184e-05
0.000537995
-0.000407049
0.00021151
0.000233745
0.000187723
0.000428446
-4.88868e-06
0.000238912
-0.000341464
0.000142736
0.000246697
6.58659e-07
-5.38465e-05
-4.76517e-05
-0.000202556
-4.49284e-05
1.37497e-05
-1.93297e-05
4.42029e-05
-1.40868e-05
0.000414511
-0.000106588
0.000137736
-0.000244527
-0.000192026
-5.87839e-05
-8.45975e-05
-0.000172174
-0.000156579
4.08427e-05
-0.000369951
-0.00035099
-0.000342503
-1.37585e-05
7.22407e-05
-7.70849e-05
6.1893e-05
-0.000293043
-0.000266501
-0.000257034
-3.71462e-05
-0.000129138
-0.000174077
4.76013e-05
-0.000404231
-0.000337448
-0.000332541
-2.36714e-05
-0.000119113
8.31294e-05
-0.000388272
-0.00055568
3.96194e-05
0.000102266
-0.000248755
8.90205e-05
-0.000337372
-0.000209892
-2.92938e-05
-0.000217013
-0.000179693
7.50735e-05
-0.000385239
-0.000341616
-0.000319537
-1.59196e-05
-0.000142566
-0.000220691
4.60337e-05
-0.00038736
-0.000378831
-0.000372859
-6.77597e-06
0.000156377
-0.000110254
-1.13369e-05
-0.000333512
-0.000302584
-0.000290799
-2.58902e-05
0.00037275
-0.000171514
8.57961e-05
-0.000123748
-0.000119627
-5.6745e-06
-3.48278e-05
2.88305e-05
-0.000229181
3.14412e-05
-0.000319662
-0.000230801
-0.000215585
-1.20282e-05
-0.00023806
0.000140282
3.13312e-05
-5.1258e-05
-0.000149807
-6.28212e-05
0.00012709
-0.000308303
6.84431e-05
-0.000248386
-0.000111872
-4.17307e-05
0.000234411
-0.000109908
0.000129136
-0.00015696
-0.00023889
-6.09017e-05
-4.24719e-05
-0.000282008
2.04307e-07
-0.000296374
-0.000217897
-3.71487e-05
-0.000117146
0.000219678
-0.000151398
-0.000325508
2.52609e-05
-5.86289e-05
-0.000387245
-5.54754e-05
-0.000475949
-0.000332388
2.79945e-05
-4.72836e-06
-0.000657048
-0.000279608
-3.42417e-05
-9.02408e-05
-0.000396434
-0.000101435
-0.000465787
-0.000338485
-8.18418e-06
0.000106119
-0.000541309
-0.000562812
1.76274e-05
-6.02716e-05
-0.000275034
-1.25772e-05
-0.000290131
-0.000277195
1.89207e-05
5.95338e-06
-0.000432702
-0.000499137
-0.000349672
-2.85746e-05
-4.50714e-05
-0.000220915
-4.25605e-06
-0.000201419
-0.000207197
-0.00013558
-0.000187313
0.000177743
-0.000213022
-0.000352282
2.60081e-05
-6.46959e-05
-0.00027025
-3.65404e-05
-0.000256835
-0.000241762
-7.85272e-05
-0.000168536
0.000234151
-0.00017406
-0.00033873
7.51596e-05
-8.37665e-06
-0.000220924
2.13717e-05
-0.000215542
-0.000162432
-8.68872e-05
-1.93059e-05
-8.08384e-05
-0.000390871
-0.000361148
8.87661e-06
-0.000192351
-6.38982e-05
-6.68368e-06
-5.13723e-05
-0.000142379
-0.000402949
-8.95886e-06
1.15045e-05
-3.9825e-05
9.14861e-05
-4.68374e-05
-2.36858e-05
-0.000177253
-2.76217e-05
-0.000238787
-0.000283585
-0.000249581
-1.69283e-05
-2.37009e-06
-2.78835e-05
0.000108563
1.55953e-05
-6.12664e-05
-0.00027625
-9.70486e-05
6.15556e-05
-0.000257154
-0.000346037
-2.44238e-06
-1.6145e-05
1.17687e-05
0.000107819
5.03648e-05
-3.82247e-05
-2.91682e-06
-0.000270138
8.11017e-05
-0.000333485
-0.000256139
2.48274e-05
-3.49864e-05
-0.000106667
9.11459e-05
0.000189227
-2.5754e-05
0.00026309
-0.000117045
0.000226102
0.000323503
-2.37055e-05
-1.55747e-06
8.9886e-05
0.000407991
0.000193761
0.000613576
0.000271401
0.000348722
0.000125181
0.000528144
2.34322e-05
0.000224301
0.000121376
0.000274235
0.0011096
0.00036909
0.00135206
0.000863185
0.001043
0.000146805
0.000403388
0.00115581
0.000406704
7.76954e-05
6.59734e-05
0.000200065
0.000122998
0.000286688
3.54541e-05
0.000309209
-3.54232e-07
0.000276433
-6.60393e-05
-1.88276e-05
-1.46798e-05
0.000310538
-6.23379e-05
0.000156626
-3.75614e-05
0.000158169
1.14197e-06
0.000662386
-5.04879e-05
0.000243875
0.00017401
4.73236e-05
-4.59676e-05
0.000103535
0.000299006
0.000161215
0.000441525
0.000157892
-5.80297e-05
-7.47217e-05
0.000166749
-0.000133921
8.70239e-05
1.06129e-05
4.76884e-05
0.000145697
0.000116037
0.000277772
-3.44437e-06
-7.01408e-05
-3.78859e-06
0.000176602
-0.000221998
-0.000116155
-4.6613e-05
-5.09375e-05
-3.44698e-05
0.000187816
-0.000117079
-0.000187233
1.14445e-05
6.61825e-05
0.000190736
0.000176845
0.000302117
7.02128e-05
4.07267e-05
-4.44114e-05
2.79068e-05
-8.13038e-05
-3.56086e-05
-1.74374e-05
0.000890345
-0.000154746
0.000189506
2.71374e-05
0.000249511
6.70032e-05
-1.19269e-05
0.000563519
-0.000114191
0.000141917
1.40677e-05
5.19765e-05
0.000129948
-3.33899e-05
0.000243139
-0.000151192
5.38354e-05
-0.000167773
4.59716e-05
-0.000124492
5.09605e-06
5.68705e-05
-5.56104e-06
-8.41994e-06
-2.47241e-05
6.16311e-05
-3.60822e-06
4.24017e-05
-0.000101924
0.000203367
-0.000137032
-0.000199038
-1.99125e-06
0.000637209
-0.000167407
0.000187644
-2.22898e-05
4.46942e-05
5.42852e-06
-0.000218477
3.44315e-05
-0.000351569
-0.00020251
-0.000108194
-3.09015e-05
0.000336295
-0.000199678
0.000125547
-0.000215469
-9.78157e-05
-8.36491e-05
-2.51655e-05
3.70376e-05
0.000106592
0.000116659
0.000132028
8.599e-06
0.000631417
-0.00019035
4.92419e-05
9.44167e-05
2.90702e-05
1.52974e-05
-0.00013208
-8.69504e-06
-4.51377e-05
-0.000259911
-2.46476e-05
4.41783e-06
5.95884e-05
-0.00023295
7.71749e-05
-0.000354378
-0.000124449
-0.000166493
-1.48343e-05
0.000660046
-0.000139123
0.000111129
0.000349083
0.000143169
-1.25882e-06
0.00116158
-7.99217e-05
0.000192156
0.000250924
-0.000120987
-9.56357e-05
-0.000283262
8.6583e-05
-0.000328253
-0.000229077
1.58486e-05
-1.75186e-05
-0.000508013
-0.000404354
-0.000461085
-0.00034816
-6.099e-05
-0.000148341
0.000431865
0.000280988
-6.72418e-06
8.21497e-05
0.000600819
0.000199375
1.4433e-05
-0.000299088
0.000116478
-5.05496e-05
-0.000132816
0.000529257
0.000714501
0.000840296
-3.61725e-05
1.10987e-05
0.00107011
0.000758344
0.000298913
-0.0001293
0.000470563
1.4776e-05
-4.15827e-05
-0.000305961
-4.00432e-05
-0.000356765
-0.000298789
-1.27546e-05
-0.000153373
-0.000558373
-0.000540733
-0.000496572
-0.00051297
-2.56199e-05
-0.000153331
-0.000188185
4.95321e-05
-0.00044301
-0.000128244
4.59549e-05
6.85225e-05
-0.000347926
-0.000344589
-0.000460256
-0.000434595
-9.46108e-05
-0.000142194
-0.000226839
1.69098e-05
-0.000313141
-0.000172275
-4.56833e-06
-8.33572e-05
-0.000349634
-0.000337649
-0.000395459
-0.000349762
-0.000131866
-3.0214e-05
-0.000124622
0.000100478
-0.000254886
-0.000136052
-2.52251e-05
3.97482e-06
-0.000315425
-0.000331516
-0.000391912
-0.000263757
-7.33353e-07
-8.06393e-05
-0.000188672
4.25421e-05
-0.000239371
-0.000382069
4.36822e-05
-5.79343e-05
-0.000338804
-0.000310835
-0.000283809
-0.000239598
-5.5445e-05
-0.000131725
-0.000140678
0.000241063
-0.000146421
-0.000149539
-2.19843e-06
4.08507e-05
-0.000277616
-0.000301842
-0.000414306
-0.000202176
-1.15996e-06
-0.000110681
-5.54454e-05
-2.88135e-05
0.000259744
-0.000318617
-2.76454e-05
-9.49719e-05
0.000255384
-0.000379582
-0.000485149
-0.000545585
-0.000372538
-9.05708e-06
6.19058e-06
-0.000180778
0.000784401
0.000881143
0.00131685
-0.000361836
0.000181225
0.0016068
0.0011818
0.00116368
-9.78256e-05
0.000855931
-0.000193924
6.18609e-06
-0.000167815
-5.9975e-05
-0.000332839
-0.000255687
-2.71864e-05
-0.000316285
-0.000417084
-0.00038809
-0.00043424
-0.000348991
-4.61224e-05
-0.000283616
-3.91209e-05
0.000184237
-0.000208946
-0.000113711
-2.18979e-05
-2.70116e-05
-0.000333722
-0.000275512
-0.000404281
-0.000271849
-1.14176e-06
-0.000128482
-0.000437455
0.000110553
-0.000378048
-0.000201177
-1.21234e-05
-0.000125476
-0.000447492
-0.000442486
-0.000442289
-0.000410448
-3.3604e-05
-5.2917e-05
-0.000144445
-0.000151441
0.000186308
-0.000207001
-0.000241375
1.74373e-05
-7.46434e-05
-0.000312066
-0.000292344
-0.000482261
-0.000183664
1.21214e-06
-4.00726e-05
0.000149855
-0.000203347
-0.000300225
2.56139e-05
-2.71429e-05
-0.000174403
-0.000206646
-0.000367825
-7.88497e-05
-0.000263714
1.44533e-05
0.000102311
4.68319e-05
0.000143534
2.61704e-05
7.87019e-05
3.72238e-05
0.000181794
0.000206488
0.000196812
0.000223548
0.000207765
0.000194494
-1.6629e-05
-1.86328e-05
-2.58965e-05
-1.21283e-05
3.18205e-05
1.64022e-05
-2.83575e-05
1.50167e-05
4.89864e-05
-7.18296e-05
-4.85046e-05
-4.21005e-05
-1.71596e-05
-4.27331e-05
5.21876e-05
6.71204e-05
6.84538e-05
4.50534e-05
1.64551e-06
5.42428e-05
3.87407e-05
-4.21913e-05
5.61693e-05
1.67527e-05
0.000177238
6.58804e-05
-1.54839e-05
2.3514e-05
4.24184e-05
9.02488e-05
5.67164e-05
7.20954e-05
7.51482e-05
-1.68003e-05
3.72121e-05
-1.30007e-05
0.000210938
0.000366218
0.000197045
-3.91561e-05
0.000246663
4.60551e-05
-2.00583e-05
6.19915e-06
1.04365e-05
5.15757e-05
5.17377e-05
5.54044e-05
6.04654e-05
-2.92576e-05
-2.87314e-05
-2.28672e-05
0.000220452
0.000250029
0.000232887
0.000257135
2.04645e-05
2.41592e-05
0.000105172
3.67482e-05
4.10809e-05
5.22645e-05
2.23329e-05
0.000106925
0.000123464
7.09323e-05
0.000112001
-3.68707e-05
2.05019e-05
2.63659e-05
8.44185e-05
7.14108e-05
9.91266e-05
0.000292503
7.42552e-05
2.05543e-05
9.21451e-05
6.8937e-05
2.11089e-05
5.32316e-05
4.28025e-05
0.000101737
2.75121e-05
3.73763e-05
3.69135e-05
0.000123782
7.72613e-05
8.99492e-05
1.72467e-05
2.62166e-05
-7.25116e-06
-1.88966e-05
7.39431e-05
0.000174952
0.000410325
0.000337468
5.29567e-05
0.000100588
8.2419e-05
4.32162e-05
-1.45118e-05
-2.2912e-05
2.93131e-05
5.96361e-06
2.09102e-05
8.57388e-05
-2.66103e-05
-3.60307e-05
0.000224066
-2.76743e-05
6.51275e-05
7.17182e-05
2.62641e-05
2.71771e-05
2.73976e-05
6.48248e-06
-0.000102873
-1.68849e-05
5.61669e-05
6.00547e-05
-1.49059e-05
-2.68455e-05
-3.39713e-05
5.00629e-06
-6.36536e-07
2.64645e-06
-1.89239e-06
-1.72777e-05
-2.79073e-06
-1.8341e-05
-5.57576e-07
-2.37416e-05
-1.25873e-05
-7.59341e-05
2.97369e-06
-0.000102787
-2.78011e-05
-3.68751e-06
-0.000130008
-3.11993e-05
-4.16387e-06
-6.69063e-07
-5.82635e-05
1.92842e-05
-2.07885e-05
-1.55021e-06
-9.29197e-05
-9.48018e-06
-5.2034e-05
2.29027e-06
-5.0296e-05
-1.32015e-05
-1.59686e-05
-1.75374e-05
3.46272e-06
-4.02767e-05
-1.71e-05
-3.9157e-06
-1.39982e-05
4.5348e-08
-3.50505e-06
-1.2214e-05
6.45466e-05
2.46815e-05
-2.09063e-06
5.82956e-07
8.3824e-05
1.02023e-07
1.42115e-06
1.58504e-06
1.92295e-05
-4.26803e-05
-1.17786e-05
-6.72785e-06
1.63539e-05
-5.03015e-05
2.0046e-05
2.09979e-05
1.13546e-05
-1.00179e-05
-2.66903e-05
-3.16875e-05
5.43267e-05
9.38971e-06
-2.6252e-05
-4.5006e-06
-3.65282e-05
-3.34413e-05
-7.35661e-06
-1.11454e-05
-2.9862e-06
0.000200982
4.52171e-06
9.21141e-05
9.70441e-05
7.68234e-05
6.67733e-05
6.17081e-05
0.000157924
0.00010715
0.000200032
2.21791e-05
0.000136002
0.000101192
0.000128869
0.000109381
5.15033e-05
0.000128342
8.36593e-05
0.00025803
4.07134e-06
3.04403e-05
0.000104411
0.000132216
-6.94387e-06
0.000150303
0.000135662
0.000169374
0.000140353
0.000273758
1.25907e-05
0.000357368
7.88936e-06
3.46977e-05
5.33827e-05
5.0358e-05
6.22693e-05
0.000190769
0.000100405
8.09589e-05
-2.27581e-05
0.000126891
1.38506e-06
3.61695e-05
1.55923e-05
0.000119435
0.00014733
8.54374e-05
0.000283976
0.000162157
9.97256e-05
6.23569e-05
0.00014322
0.000204337
0.000165897
0.000140131
3.23538e-07
5.51623e-06
4.54187e-07
6.55524e-06
6.90105e-05
1.28178e-06
0.000104692
-1.25162e-05
8.02942e-06
-3.72178e-06
-3.0315e-05
1.66531e-05
-5.15452e-06
-5.20168e-05
-6.79882e-07
2.00831e-05
-7.70651e-07
-1.47189e-05
2.37892e-06
-4.70674e-05
-2.4333e-05
-0.000102808
2.8542e-05
3.71544e-05
3.42648e-05
-7.8241e-06
-3.95458e-05
-5.65344e-05
9.36438e-05
0.000138808
0.000127063
4.40048e-05
0.000107059
1.59333e-05
0.000116042
0.000142406
1.36852e-05
-4.29292e-06
3.24163e-05
7.96227e-05
9.69243e-06
0.000132773
3.90354e-05
3.43505e-05
2.87327e-05
2.47471e-05
0.000130491
4.53274e-05
1.72067e-05
1.61705e-05
6.90825e-05
8.37285e-06
2.09498e-05
4.72324e-05
-7.46997e-06
9.25983e-05
3.85013e-05
6.75698e-05
7.02601e-05
7.56688e-06
1.89941e-05
2.02061e-05
7.34327e-06
-3.60459e-06
2.35814e-05
9.50199e-05
1.4294e-06
-4.65198e-06
-2.34265e-05
0.000105959
1.28035e-05
1.24999e-05
0.000131363
0.000103619
1.15721e-05
9.27866e-08
2.92601e-05
4.65687e-05
6.25117e-05
6.99068e-06
2.25978e-06
-3.29646e-05
0.000101475
0.000147662
3.41325e-05
6.98393e-06
0.000141458
3.1339e-05
6.01017e-06
-4.31391e-05
9.7757e-06
3.13237e-05
-1.17485e-06
7.50007e-05
0.000102849
3.85625e-05
0.000148271
-1.39462e-05
1.82384e-05
2.78293e-05
-3.44208e-05
-9.66669e-06
3.0199e-05
2.60397e-05
0.000134714
1.7502e-05
5.14315e-05
1.96802e-05
4.85122e-05
-2.71136e-05
9.41115e-05
9.57633e-05
4.80486e-07
2.73717e-05
-2.22734e-05
5.9683e-05
-2.54705e-05
4.08704e-05
-1.09428e-06
-3.53817e-07
9.03097e-05
4.80005e-05
4.10786e-05
1.62438e-05
1.52622e-05
5.59355e-05
-1.04333e-05
-2.0263e-05
2.00265e-05
-5.38745e-05
0.000101498
2.9796e-05
0.000112751
2.54346e-07
-3.9841e-06
-1.10558e-05
-1.15309e-05
1.86179e-06
1.77322e-06
2.87441e-06
-1.3541e-05
0.00010701
-1.51048e-05
2.74946e-05
-5.32239e-05
-9.64422e-06
-1.84995e-05
4.93175e-07
0.000122123
0.000112711
7.01768e-05
6.30134e-06
-3.76966e-05
2.49165e-05
0.000107159
2.39719e-05
4.14934e-05
-4.46943e-05
0.000161899
8.76036e-05
0.0001267
8.71407e-06
5.43804e-05
0.000206496
0.000103306
1.37761e-06
0.00015347
-5.39473e-05
-0.000100777
-4.92325e-05
5.08549e-05
0.000135973
0.00024742
9.30585e-05
0.000100554
-5.21978e-07
1.26734e-05
-3.60077e-05
2.01786e-05
1.51124e-05
-2.6562e-06
4.65772e-05
0.000129839
0.000203982
1.25147e-05
6.39251e-07
5.32642e-05
3.52868e-05
-1.03164e-05
6.10889e-07
1.03894e-05
0.00027987
0.000241191
0.00010087
0.000249624
0.000139854
0.00018147
9.75739e-05
0.000241949
3.33846e-05
0.000175617
0.000135928
0.000195956
7.65403e-05
0.000233183
5.11363e-05
0.000196321
-6.20427e-05
3.1598e-06
9.72597e-06
-2.8149e-05
-6.43943e-05
-2.61847e-06
-1.70043e-05
6.404e-06
-2.54813e-06
8.05885e-07
-1.90668e-05
-9.69203e-05
-5.25379e-05
-5.98008e-05
-1.02153e-05
-2.42486e-05
-0.000179533
4.36473e-06
-2.9235e-05
-4.60431e-05
-4.8899e-05
4.29511e-05
1.71448e-05
1.9255e-05
-2.76629e-06
-1.289e-06
-1.58858e-05
5.39434e-06
-4.72847e-05
-4.60837e-05
-3.0912e-05
-1.36954e-05
-1.19648e-06
2.57155e-05
1.10542e-07
1.46681e-06
-6.3014e-06
6.98482e-05
-1.74391e-05
4.43418e-05
3.44076e-07
1.32466e-05
1.40221e-05
-1.33495e-05
-4.83516e-05
-5.858e-05
8.40995e-05
8.43881e-05
6.34789e-05
1.02377e-05
-3.84902e-05
-4.65021e-05
9.43742e-06
-1.31109e-05
1.93306e-05
1.77686e-05
-3.65923e-05
-9.28634e-05
-0.000100937
-3.2301e-05
2.08394e-05
1.99675e-06
-1.42508e-05
1.53022e-05
-1.43734e-05
4.73053e-06
-1.69156e-06
5.09652e-06
-1.4435e-05
-1.45896e-06
1.64753e-05
7.94225e-05
9.28477e-06
-8.56502e-06
2.56989e-06
3.54902e-05
-1.68404e-05
-1.26033e-06
-2.27986e-05
1.19564e-05
1.52106e-06
1.6463e-05
-2.31287e-05
1.06681e-06
3.43025e-05
3.56895e-05
-1.54683e-05
-3.59631e-06
2.53959e-06
-1.01131e-06
1.89116e-05
4.53104e-06
-9.55921e-06
-1.89016e-05
-1.43966e-05
-8.30343e-05
-0.000165083
-7.85851e-05
-4.87649e-05
3.47823e-06
-3.93898e-05
-3.12698e-05
1.37759e-05
-1.22248e-06
3.16136e-05
-6.77387e-06
-7.16906e-06
-1.26158e-05
-3.52734e-05
-1.31308e-05
-6.6474e-05
2.09296e-05
2.34568e-07
3.719e-05
-2.10018e-05
1.52894e-05
4.38172e-05
2.42434e-05
3.33857e-05
-4.72891e-05
6.01958e-05
6.51258e-05
5.49476e-06
-5.20194e-05
2.65771e-05
4.39299e-06
8.17362e-06
4.08264e-05
6.00816e-06
-4.36956e-06
-2.01439e-06
-3.34048e-05
-1.27581e-07
-2.68253e-08
1.46427e-06
-1.55402e-05
4.89425e-05
-5.5686e-05
-8.58257e-05
2.10492e-05
2.74971e-06
1.18498e-05
4.9592e-06
9.86504e-06
-3.79113e-06
-1.1977e-05
-2.44873e-05
2.27952e-05
1.06698e-06
4.64056e-06
1.94781e-07
4.97823e-05
6.20774e-06
-2.92581e-05
-0.00010118
5.37426e-05
3.26255e-06
1.13551e-05
1.55157e-05
-1.53565e-06
-4.81039e-05
4.37496e-06
3.15622e-05
0.000123285
9.87755e-05
-5.44951e-05
7.91641e-05
-6.70953e-06
-1.07009e-05
-5.43151e-07
-1.06177e-05
7.22985e-05
-5.99221e-05
-7.41119e-06
3.98523e-07
-8.22422e-05
-0.000146448
-5.84358e-05
7.92681e-05
1.54279e-05
1.35248e-07
2.26332e-05
4.37851e-05
-7.454e-05
-2.10205e-05
-1.27114e-05
4.94805e-05
-2.54643e-06
-2.51656e-05
-3.25635e-05
-5.1879e-06
2.4907e-07
8.48567e-07
4.15224e-06
-1.96914e-05
1.7601e-05
2.68158e-05
3.01501e-06
9.77036e-06
2.4674e-05
3.30489e-05
1.43176e-05
4.58688e-06
5.37163e-05
4.47825e-05
-2.36015e-06
1.49165e-05
4.85371e-05
7.00712e-05
-1.79773e-05
6.1159e-05
-3.15022e-05
2.02294e-05
-1.10081e-05
4.29246e-08
9.03918e-06
1.88721e-05
1.29388e-05
1.90316e-05
1.28639e-05
3.05356e-05
-4.86531e-05
4.32356e-05
6.83937e-05
2.81353e-05
2.52022e-05
1.38626e-05
2.37038e-05
3.7613e-05
-3.43006e-05
-1.67147e-05
-0.0001167
-1.5783e-05
-2.51631e-05
0.000177846
0.000146136
0.000184702
1.16724e-05
6.48335e-05
-8.10477e-07
-3.43344e-05
3.17683e-07
4.685e-05
1.72613e-05
8.60759e-05
-0.000120965
-7.19269e-05
-7.48639e-06
-7.88222e-05
1.6178e-06
3.02839e-05
-4.32366e-06
8.75246e-06
5.6255e-05
-4.19387e-06
5.31417e-05
-1.0316e-05
8.56522e-06
6.7835e-05
-1.58647e-05
2.6215e-06
0.000147661
6.54119e-06
2.6672e-05
2.1453e-05
1.35617e-05
1.4701e-05
-6.47182e-06
-1.30421e-05
-5.18759e-05
4.05391e-06
-8.17301e-06
4.37526e-05
8.53855e-06
-3.51398e-05
-2.79827e-05
7.8237e-06
-9.61706e-06
0.000105629
4.98393e-06
-1.32685e-05
5.39832e-05
-1.41933e-05
-2.16758e-05
-3.10034e-06
-3.10833e-05
4.20697e-06
-4.73178e-06
-1.21224e-05
-2.74269e-06
-1.44029e-05
4.37764e-05
1.61081e-05
-4.12702e-06
-1.09778e-05
-5.04738e-06
4.93438e-05
7.44415e-07
-4.05568e-06
9.61427e-06
2.20465e-05
1.40729e-05
7.15173e-06
3.1541e-06
2.73472e-06
6.24494e-06
1.40371e-06
3.03113e-05
-5.50485e-06
2.03899e-05
2.03964e-05
2.57674e-05
2.43171e-05
1.14449e-05
1.70321e-05
2.18532e-05
8.53507e-07
4.17675e-06
1.20768e-05
-9.40724e-07
1.64298e-05
1.9978e-05
-2.10811e-06
-2.21686e-06
-1.1732e-05
-3.6041e-06
4.65305e-06
4.57595e-08
-1.2886e-06
-2.35759e-05
-7.63787e-07
1.32672e-05
1.69303e-05
9.42095e-06
-4.1314e-06
-4.65199e-06
-3.42506e-06
1.24996e-05
2.491e-06
4.68487e-06
8.19702e-06
1.63111e-05
-1.67239e-06
-3.74177e-06
8.04734e-06
1.07012e-06
-7.62881e-06
-8.40876e-06
-4.06937e-06
0.000168072
1.31216e-06
0.00021743
-0.00029157
-0.000284195
-3.59592e-05
-1.2864e-05
4.45047e-06
2.07972e-05
-0.000303846
-0.000235337
-2.24392e-05
-9.98952e-06
-0.000165872
2.14074e-05
-0.000152056
-0.000186654
-9.15181e-06
-1.57081e-05
6.89713e-06
-2.84622e-05
-5.33888e-06
6.2309e-06
-0.000135059
-1.81115e-05
-0.000109598
-1.25312e-05
-9.14763e-05
-0.000269211
0.000202268
6.33588e-05
-1.39039e-05
-2.48112e-07
-0.00028587
-0.000325262
-0.000126931
-3.00628e-05
-0.000124838
-0.000392221
-4.24062e-05
-5.42054e-05
-0.000196458
-7.98757e-05
-3.64059e-05
-7.33585e-05
-0.000231822
-7.10135e-06
-0.000227446
-0.000265529
-8.79964e-06
2.41521e-05
7.33822e-05
-6.40114e-05
1.39579e-05
-6.85033e-05
-0.000239709
8.57768e-05
-1.33871e-06
-6.74245e-05
2.03614e-05
-0.000305839
-0.000267654
-4.91548e-05
-0.000286564
-0.000345445
-6.46544e-06
3.85743e-05
-4.03597e-05
-0.000162945
1.15601e-05
-9.97866e-07
-8.37549e-05
0.00013078
-2.5295e-05
0.000100865
0.000132164
3.75087e-05
4.79301e-05
7.59925e-05
-4.3418e-07
-6.17741e-05
0.00013086
0.000201396
-8.54463e-05
0.000102721
-5.72474e-05
2.38632e-05
1.96967e-05
-0.000142599
-0.000152325
-3.82098e-05
2.2159e-05
0.00021196
0.000150054
0.000145907
0.000437815
0.000211228
0.000498268
0.000322757
0.000191229
1.76534e-05
0.000251624
0.000219076
-1.51923e-05
-2.85219e-05
0.000235725
-4.00448e-05
1.50649e-05
-7.11865e-05
0.000229848
0.000128582
0.000103787
-3.92992e-05
5.5504e-05
8.22501e-05
-7.90304e-05
-6.47018e-05
0.000260992
0.000106256
4.04359e-05
-1.10263e-06
5.27103e-05
2.2868e-05
-7.13802e-05
1.83546e-05
8.93008e-06
3.92901e-05
3.16964e-05
-3.06762e-05
-2.60309e-05
9.50929e-06
4.17637e-05
-0.000239651
4.64581e-05
3.99607e-05
-1.16894e-06
-4.85815e-05
-0.000191241
-0.000111232
-4.76549e-05
-5.8982e-05
-2.70603e-05
1.07903e-05
5.68379e-06
-2.88155e-05
-4.00109e-05
2.71945e-05
2.45596e-05
-0.000112395
0.000128031
-5.73794e-06
-9.89894e-05
-3.07475e-05
-2.30139e-05
-1.70489e-06
-4.59719e-05
-0.000121697
-0.000183648
-2.289e-05
-0.000161346
-9.90046e-05
6.62894e-05
7.39723e-05
-5.4553e-05
1.76052e-05
-0.000212863
-0.000182883
-5.78877e-05
-7.53023e-05
-0.000162057
-0.000294824
-1.78595e-05
-7.62515e-05
-1.54918e-05
-5.11417e-05
-3.24337e-05
-4.05665e-05
0.00036318
0.000146689
0.000180858
9.87071e-05
-0.000143455
-3.13089e-05
0.000137427
0.000149578
0.000180847
-5.38457e-05
-0.000124002
-2.17949e-05
-0.000222552
0.000126147
0.000145515
6.58899e-05
-0.000282515
-0.000397626
-5.63662e-05
-0.000253246
0.000271879
8.84414e-05
0.000106605
-0.000287994
-3.2003e-05
2.698e-05
-3.02337e-05
0.000239465
0.000325325
-0.000188544
-6.14679e-05
-0.000230786
0.000239941
0.00014039
0.00014055
-0.000245676
-0.00027927
-4.62958e-05
-0.000207802
0.000186152
0.00012513
0.000210813
-0.000200005
-0.000220475
-6.42051e-05
-0.000259472
0.000296352
0.000123143
0.000169313
-0.000219928
-0.000240836
-6.57428e-05
5.65025e-05
7.43857e-05
9.28771e-05
9.14132e-05
6.7956e-05
6.55576e-05
-4.29761e-05
-6.65163e-05
0.000253771
0.000175942
0.000104818
0.000124546
3.63571e-05
4.41946e-06
0.000193197
-5.86322e-05
0.000100155
-0.000130349
0.000213276
4.12749e-05
0.000128596
2.09697e-05
3.10335e-05
-1.96919e-05
3.42405e-06
-0.000158986
0.00010231
5.50379e-06
-0.000165696
-5.28085e-05
0.000207831
0.000178863
0.000110685
0.000145817
4.59786e-05
0.000147362
-0.000314375
-0.000204059
-3.32509e-05
-0.000220258
0.000254252
9.09577e-05
9.17369e-05
-0.000261694
-0.00028562
-4.09726e-05
-0.000256019
0.000224296
8.93187e-05
6.94885e-05
-0.000292278
-0.00031367
-3.61622e-05
2.81888e-06
-8.69732e-05
2.76975e-05
-9.63523e-05
-0.000124056
-4.79314e-05
6.76341e-05
2.82435e-05
2.62784e-05
-0.00022291
-9.67658e-06
3.90718e-06
-0.000108286
3.9914e-05
-8.95355e-05
-9.79316e-05
-0.0002908
3.81688e-05
7.74019e-05
0.000175229
-0.000273759
9.46905e-06
-0.000281792
0.000137924
0.000262558
0.00010165
0.00019192
-9.04903e-05
6.11951e-05
0.000179498
9.51882e-05
-0.000334989
-1.9295e-05
-0.000319771
0.000149756
0.000244155
9.0293e-05
0.000176424
-6.88433e-05
0.000142869
-0.000269201
0.000142552
0.000225054
9.46768e-05
6.49361e-05
-7.82673e-05
-0.000155634
0.00023782
-0.000110351
-0.000102776
-1.75055e-06
-6.81615e-05
9.05268e-07
-0.000101331
2.69962e-05
-0.000108741
-0.000134064
-1.10334e-05
5.36752e-05
5.12262e-05
-0.000110102
-0.000121301
0.000275852
0.000727854
0.000334935
0.000905169
0.000497193
0.000794563
-0.000241868
0.000172732
0.00131673
0.000345063
-0.000134781
-0.000257424
0.000179049
0.000916877
0.000632742
-0.000110022
-4.89529e-06
6.22773e-06
0.000971265
0.000258384
-2.74313e-06
0.000171935
0.000620271
0.000236087
0.000738941
0.000479972
0.000732177
-0.000218022
0.000177825
0.0010032
0.000287373
-2.61995e-05
0.000227085
0.000709452
0.000264093
0.000834185
0.000486186
-9.17992e-05
4.17672e-05
0.000547326
0.000288067
-6.93084e-06
0.000176785
0.000602461
0.000204026
0.000721153
0.00048082
0.000847571
-0.000346386
0.000185534
0.000615882
0.00042777
-2.24467e-05
-7.53052e-05
2.55094e-05
0.00065299
0.000303523
-1.20808e-05
-0.000347945
0.000166456
0.00129304
0.00031701
-5.64638e-05
0.000655575
-7.01326e-05
2.69512e-05
0.000728345
0.000357517
-2.69497e-05
0.000544762
-9.33439e-05
6.0245e-05
0.000726942
0.000462468
0.000140582
-1.37465e-05
0.000700897
-0.000187819
7.02704e-05
0.00069801
0.000496126
-3.30737e-05
0.000587339
-0.000176763
3.42771e-05
0.00071642
0.000424415
-4.5079e-05
0.000955875
-0.00026304
0.000172672
0.000905145
0.000577683
-4.43644e-05
0.000666851
-0.000155929
5.56928e-05
0.000740579
0.000417646
-3.11236e-05
0.000613937
-0.000240763
0.000176915
0.000878639
0.000434563
-4.87028e-05
0.000719153
-0.000157731
0.000149024
0.00062514
0.000507833
-6.22495e-05
0.000664273
-0.000164832
0.000117969
0.000435685
0.000439328
-3.29861e-05
0.000245996
0.000722411
0.000276876
0.000929446
0.000575952
0.000922219
-0.000200006
0.000136978
0.000801475
0.000364021
0.000514956
-0.000157091
3.86403e-05
0.000731201
0.000303786
9.05152e-05
-3.87807e-05
0.000358869
-9.72335e-05
2.86458e-05
0.000707106
0.000334768
-2.15388e-05
0.000156959
-0.000317989
0.000173062
0.000290368
5.48926e-05
1.3162e-05
-9.72821e-05
0.000257745
0.000824895
0.000338832
0.000901109
0.00062377
0.000611613
-0.00043401
0.00017187
0.00125494
0.00036951
-4.61628e-05
0.000251618
0.000653644
0.000304193
0.000766452
0.000465541
-0.000430629
0.000172562
0.00122591
0.000677956
-8.02173e-05
-0.00024807
9.38389e-05
0.000165381
-4.26259e-05
-5.01237e-05
2.8328e-05
-6.01029e-05
-7.97636e-05
9.90162e-05
-0.00018679
-0.000247215
-3.73219e-05
-5.10338e-05
0.000107699
-0.000159003
-0.000218005
-2.47072e-05
5.02825e-05
4.25339e-05
9.92202e-05
6.56211e-05
1.88784e-05
-2.37181e-05
-0.00020842
0.000178397
5.36739e-05
-7.13131e-05
-0.000220567
4.86759e-05
4.63657e-05
0.000108609
6.05773e-05
1.95357e-05
-5.80701e-05
-0.000207229
0.000131389
-2.72378e-05
-5.1169e-05
-0.000170628
-6.6711e-05
-0.000184681
-2.21569e-05
-0.000184555
-0.000203868
-0.000217025
0.000143753
-3.43882e-05
-0.000213388
-8.47073e-05
-9.4994e-05
-0.00025005
0.000226823
1.55606e-05
-0.000191833
-0.000128099
-3.93559e-05
-3.33845e-05
2.20308e-05
-2.54434e-05
-6.64415e-05
-8.3362e-05
-0.000155948
8.34911e-05
-2.38211e-05
-0.000245957
-5.89366e-05
7.06372e-05
-0.000254601
0.000210543
0.00013377
-0.000216503
-0.000103727
0.000554021
-0.000361178
0.000213662
0.000343257
0.000333651
0.000559099
-5.38668e-05
0.000377646
-0.000270703
0.000152398
0.000386356
0.000186416
0.000161263
-6.97365e-05
-8.04339e-05
-4.00138e-05
2.17442e-05
4.68783e-06
0.000146224
-2.94109e-05
0.000511082
-9.21874e-05
0.00014844
-6.45419e-05
-1.71539e-05
0.00010064
-0.000107559
8.67059e-06
-0.000127268
7.56255e-05
-0.00016723
-0.000124971
-0.000125005
-2.31977e-05
0.000256982
-7.57998e-05
0.00010308
-9.20588e-05
-4.65734e-05
-4.52442e-05
-4.62078e-05
4.83658e-05
-0.000136645
8.60231e-05
-0.000179405
-0.000129265
-0.000102695
-3.5416e-05
-9.45595e-05
9.47435e-05
-0.000248973
-0.000329586
-3.04966e-05
0.00027132
-0.00018963
0.000122677
-9.2296e-05
1.97607e-05
-4.95124e-05
9.21154e-06
-0.000139545
0.000110058
-0.000200069
-0.000124855
-9.48388e-05
-4.12584e-05
3.04457e-05
-0.000169269
8.38019e-05
-0.000182192
-0.000149652
-0.000152151
-2.83968e-05
0.000287264
-9.55202e-05
3.16499e-05
-0.000140623
-9.05888e-05
-0.00011839
-3.86141e-05
0.000452501
-0.000146287
0.000103762
-1.60198e-05
5.83501e-05
0.000128483
-7.04823e-05
0.000167783
-0.00018995
8.27623e-05
-8.33498e-05
-1.15967e-05
-2.37388e-05
-2.27685e-05
-0.000192198
0.000162109
0.000199137
0.000167193
5.62728e-05
-7.67802e-05
0.000296246
-0.000254456
0.000100778
-4.39214e-05
9.20372e-05
-5.64649e-05
0.00044374
-9.06396e-05
0.000156117
-3.74246e-05
8.49601e-05
-8.46385e-05
9.40117e-05
0.000228807
0.000169046
0.000317827
0.000211717
0.000459728
0.000124321
0.000333977
0.000394102
0.000270737
-3.76126e-05
6.64835e-05
0.000120109
9.90542e-05
9.52941e-05
9.88767e-05
0.000126455
9.99293e-06
-9.83886e-05
-2.69554e-05
2.47966e-06
3.73759e-05
8.3917e-05
5.74491e-05
5.98994e-05
6.06065e-05
9.96361e-05
0.00018239
-0.000165123
9.28773e-05
-1.63608e-05
7.49729e-05
0.000349598
0.000147677
0.000393135
0.000251684
5.8352e-05
1.51542e-05
4.54633e-05
-7.46533e-05
0.000290764
3.62461e-06
6.72788e-05
0.000209804
0.000131236
0.000303852
0.000123817
0.000276762
-2.27027e-05
0.00027421
8.99842e-05
0.000105862
-3.46305e-05
4.31232e-05
0.000148645
8.5525e-05
0.000253212
5.52338e-06
0.000311541
-2.81012e-05
0.000370935
0.000124094
9.79183e-05
-3.49502e-05
0.000102961
0.000175227
0.000144921
0.000233953
0.000105371
-5.05696e-05
6.09464e-06
2.39719e-05
-2.95255e-05
-2.90536e-05
1.06121e-06
-2.49164e-05
-4.05061e-05
1.38513e-05
6.78424e-05
0.000234705
-0.000137313
-1.17018e-05
0.000101514
0.000356445
0.000195969
0.000409755
0.00032509
-8.70006e-05
7.22312e-05
0.000160207
5.14626e-05
0.000122911
-2.70092e-05
7.7691e-05
0.00034392
0.000204964
0.0004154
0.000248928
4.47574e-06
5.0652e-06
0.000166277
3.04638e-05
6.58638e-08
-1.99837e-05
6.28121e-05
0.000419873
0.000199883
0.000467222
0.0002773
0.00029569
-0.000131228
0.000185032
2.27436e-05
6.91778e-05
-1.91611e-05
2.20751e-05
0.000162478
0.000147446
0.000290401
6.07336e-05
0.000275625
-0.000122566
0.000179841
0.000139103
-7.37856e-05
-7.01451e-05
5.84781e-05
0.000172389
0.000132122
0.000290281
7.08e-05
0.000103171
-4.70718e-05
0.000287153
-6.11108e-05
4.92722e-05
-6.6304e-05
0.000221959
0.000808688
0.000296743
0.000955514
0.000661855
0.000798661
-6.26695e-05
0.000230145
0.000843757
0.000261026
-9.21296e-05
3.32155e-05
5.80052e-05
8.10578e-05
0.000124245
-3.34262e-05
0.000192819
-9.85887e-06
0.000172121
-0.000106708
-0.000105981
-5.21284e-05
0.000242068
-0.000113593
0.000100176
-3.71907e-05
9.19692e-05
-3.6578e-05
0.000483054
-7.29246e-05
0.000157157
9.1678e-05
2.3955e-05
-0.000131107
9.42609e-05
0.000225349
0.000141631
0.000335503
0.000121457
-9.14709e-05
-9.86012e-05
9.06509e-05
-0.000154035
6.89848e-05
-1.30314e-05
4.17392e-05
0.000103458
0.000103383
0.000203511
8.01559e-06
-8.71172e-05
-5.34036e-06
0.000123013
-0.000217318
-9.72954e-05
-8.87056e-05
-5.28163e-05
-6.68314e-05
0.000150764
-9.72885e-05
-0.000145181
-5.6855e-06
6.52463e-05
0.000167364
0.000160633
0.00028171
5.10994e-05
9.85419e-05
-7.53374e-05
2.27542e-05
-4.34383e-05
7.26835e-05
-2.76901e-05
0.000777677
-0.000154756
0.000161616
8.65274e-05
0.000311171
0.000148407
-3.09835e-05
0.000525165
-0.00012764
0.000128935
8.33335e-05
0.000137724
0.000191023
-3.57364e-05
0.00024543
-0.000154648
6.43034e-05
-6.93209e-05
0.000155648
-7.56176e-05
-1.7587e-05
0.000116487
-5.44546e-06
-1.21923e-05
1.57051e-05
0.000166296
-1.21657e-05
7.18101e-05
-9.78749e-05
0.000146489
-9.13289e-05
-7.58134e-05
-1.32978e-05
0.000639212
-0.000179685
0.000151822
1.43821e-05
0.000120712
-3.56058e-05
-0.000203704
6.12888e-05
-0.000194706
-5.2607e-05
4.78299e-05
-4.61303e-05
0.000388698
-0.00019914
0.000120208
-8.59569e-05
3.13397e-05
6.731e-05
-3.4497e-05
5.86958e-05
0.000149519
0.000139901
0.000219099
6.95866e-05
0.000643242
-0.00020051
4.57778e-05
0.000144911
9.26934e-05
-1.1808e-05
-0.000138953
1.73428e-05
3.12358e-05
-0.000146311
0.000120005
-7.00999e-06
0.000161086
-0.000211799
8.92095e-05
-0.000223381
3.9449e-05
-1.5012e-05
-2.58165e-05
0.000634653
-0.0001685
9.72182e-05
0.000382545
0.000282107
-1.02913e-05
0.00107406
-8.94465e-05
0.00014427
0.000218594
-7.10945e-05
-0.000172056
-0.000196556
9.90839e-05
-0.000146179
-0.000162408
4.89398e-05
7.30464e-05
-0.000256067
-0.000229999
-0.0002181
-0.00014948
-6.22304e-05
-5.57074e-05
0.00045335
0.000362891
2.7136e-05
0.000114399
0.000694218
0.000421696
0.000238862
-0.000111014
0.000294886
-7.6546e-05
-3.98871e-05
0.000600403
0.000662653
0.000802704
-3.69679e-05
4.07044e-05
0.000897044
0.000815725
0.000403192
7.29432e-05
0.000553277
-1.52228e-05
-1.85773e-05
-0.000189216
6.07108e-06
-0.000167887
-0.000186442
4.342e-05
2.72532e-05
-0.000296061
-0.000287074
-0.000255929
-0.000292394
-3.34741e-05
-7.28162e-05
-0.000161089
7.73863e-05
-0.000298233
-7.66602e-05
7.81525e-05
9.4354e-05
-0.000142666
-0.000152283
-0.000275781
-0.000242962
-6.57207e-05
-6.93315e-05
-0.000130105
9.09275e-05
-0.000152607
-0.000131951
3.44387e-05
6.46559e-06
-0.000120345
-0.000150243
-0.000193064
-0.000167634
-0.000122164
-1.42832e-05
-3.92447e-05
0.000166261
-0.000129488
-0.000112928
1.29342e-05
7.71228e-05
-0.000102475
-9.05852e-05
-0.000190814
-0.000107533
-1.22686e-05
-3.30033e-05
-6.51581e-05
0.000149848
-9.90576e-05
-0.000276547
6.75849e-05
4.42375e-05
-9.18264e-05
-0.00012112
-0.000110703
-8.02005e-05
-6.33554e-05
-4.86136e-05
-3.68081e-05
0.000300927
-1.20609e-05
-0.000130873
4.42452e-05
0.000193447
-3.01883e-05
-8.20608e-05
-0.000191024
-3.38927e-05
2.83043e-06
-7.99009e-05
-1.94357e-05
6.62246e-05
0.000260565
-0.000136485
-1.61172e-05
-1.27956e-05
0.000288131
-0.000141299
-0.000248451
-0.000268799
-0.000143487
-1.23013e-06
-2.14857e-06
-9.44424e-05
0.000725884
0.000830364
0.0012212
-0.000295588
0.00016532
0.00139051
0.00113092
0.00108397
9.15211e-05
0.000842971
-0.00022554
0.000116035
-5.8871e-05
3.83557e-05
-0.000145403
-0.000202117
3.56079e-05
-8.86372e-05
-0.000101744
-0.000174396
-0.000177153
-9.87035e-05
-6.506e-05
-0.000118013
7.28918e-05
0.000237278
-8.74245e-05
-9.84441e-05
7.58735e-06
4.48134e-05
-8.78606e-05
-0.000100725
-0.000176465
-0.000104382
-4.51941e-06
-6.06987e-05
-0.000299247
0.000176339
-0.000172053
-0.000134067
7.4229e-05
4.80864e-05
-0.000166145
-0.000194849
-0.000191918
-0.000172348
-1.39564e-05
-5.83467e-05
-6.33043e-05
-3.7934e-05
0.000241411
-2.5332e-05
-0.000189133
5.13208e-05
1.27342e-05
-5.31772e-05
-7.71679e-05
-0.000232787
-4.56553e-05
-3.78741e-06
-1.87047e-05
0.000272328
9.1691e-06
-0.000236001
0.000104628
0.000149262
0.000130925
3.33948e-05
-0.000123382
-6.04463e-05
-0.000116869
5.81226e-05
0.000149043
7.85287e-05
0.000178595
7.70961e-05
0.000129728
8.60759e-05
0.000210753
0.000228936
0.000231053
0.000254953
0.000238141
0.000227076
2.58965e-05
2.77659e-05
1.37383e-05
4.57961e-05
8.96983e-05
7.24668e-05
2.17935e-05
6.81694e-05
7.44988e-05
-2.09592e-05
5.82316e-07
1.69802e-05
3.26016e-05
8.0042e-06
0.000105461
0.000116619
0.000111011
9.87134e-05
5.23277e-05
9.75026e-05
9.18332e-05
1.2292e-05
0.000118329
6.79182e-05
0.000219348
0.00011654
4.52173e-05
7.11548e-05
8.90532e-05
0.00013976
0.000101403
0.000111548
0.000123341
4.05265e-05
8.27474e-05
1.26805e-05
0.000238549
0.000387804
0.000233793
2.58619e-05
0.000297153
8.26308e-05
4.15262e-05
6.36549e-05
6.55499e-05
0.000112181
0.00010533
0.000123853
0.000109429
2.72224e-05
2.19106e-05
