booster[0]:
bias:
-0.0110991
weight:
-0.000566732
-0.000820585
-0.000508697
0.000481842
-0.00086272
-0.00098415
-0.000521726
0.000169024
6.43983e-05
0.000377484
0.000318655
0.000379275
-0.000112293
-0.00090027
-0.000841769
-0.000653043
-0.000364342
-0.000111546
-0.000500622
-0.000658319
-0.000488671
-0.000446123
-0.00153905
-0.00120839
-0.000668016
-0.000827288
-0.000993319
-0.00112259
-0.000378215
-0.000677451
-0.00057841
-0.000517782
-0.000562546
-0.000413174
-0.000583193
-0.000105836
-0.000900876
5.87361e-05
6.52985e-05
-0.0005834
-0.00122965
-0.000752257
-0.00123306
-0.000928588
-0.000994916
-0.000991471
-0.00235192
-0.00156481
-0.000411997
0.000843517
0.000931436
7.84925e-05
-0.000509389
6.09456e-06
-0.000337909
-0.000963825
-0.000520789
-0.00061602
-0.000613191
-0.000821122
-0.000241171
-0.000716141
-0.00102734
-0.00117413
-0.00041651
-7.11853e-05
0.00015579
9.05964e-06
-0.000184914
-0.00102209
-0.00111385
-0.000975836
-0.00109782
-0.00129473
-0.000954562
-0.00122777
-0.000353536
-0.000376576
-0.000500485
-0.00074583
-0.000549585
-0.000910793
-0.00108716
-0.000775408
-0.000772915
-0.000954145
0.00113235
-0.000664462
0.000120938
-1.8429e-05
-0.000142531
-9.74901e-05
-5.31524e-05
3.89906e-05
-3.05512e-05
-0.000201052
-0.00103908
0.000153542
-0.000385194
-0.00105741
-0.000320859
-0.000981876
-0.00072591
-0.000339093
-0.00163051
-0.000981279
6.26744e-05
0.00240856
0.00171298
-0.00105189
-0.00128751
-0.00140001
-0.00121752
-0.000618189
-0.000531058
-0.000620014
-0.00095196
-0.000856546
-0.00104639
-0.00347965
-0.00242303
0.00138641
-0.00198907
-0.000658177
-0.00058098
-0.000282577
0.0205996
0.000255515
0.00766753
-0.000217102
-0.00200136
0.000850647
0.00375667
0.000317339
-0.00100256
-0.0297146
0.00323245
-0.000511039
-0.000798265
-0.000180559
0.00122687
-0.00034356
0.00062415
1.58674e-05
-0.000708457
0.000486216
0.000547982
0.00280567
-0.000835927
-0.000484784
-0.0157331
-0.000341225
-0.00190271
-0.00444387
-0.01581
9.57393e-06
0.000140866
-7.05393e-05
0.000154675
-0.000554712
0.000240104
0.000576016
-9.00211e-06
0.000282107
-2.08988e-05
0.000653066
0.00152439
0.000953987
0.000830321
-0.000499039
0.0025666
0.000183456
0.00020606
-4.77463e-05
-1.253e-05
0.000483013
6.26962e-05
0.00208082
-0.0356339
0.000498174
0.0100346
-0.00688964
-0.00766936
-5.01612e-05
-0.0019639
0.000360971
1.72933e-05
6.24701e-05
0.000605292
-0.000207934
-0.000123948
0.000508493
0.00122795
-0.000108081
0.000624853
0.000928916
0.00137517
-0.00144323
-0.0373908
-0.0153424
-0.0202544
-0.023042
-0.0218927
-0.000195794
0.000842954
0.00622985
-0.00821027
0.00519444
-0.0023942
0.00272474
0.0143543
0.00112711
0.00263821
0.00132547
-0.00113101
0.000555105
0.000182451
0.00353391
-0.00139663
-0.000582538
0.0032854
0.000466318
-0.00020935
-0.00709429
0.0240177
-0.00184147
0.000310164
0.00232794
0.000561377
0.000223023
0.000206147
0.00142143
0.00349608
-0.000336033
-0.000380571
0.00557127
-0.00089232
0.000978267
0.000536304
0.00275758
0.00250122
0.00400408
0.00393218
0.00161197
0.000789259
0.00256941
0.00457695
-0.00590761
-6.50973e-05
0.000347752
0.00148876
0.00202463
0.00210135
0.00141376
9.94282e-05
3.36949e-06
0.000419742
0.00203994
0.00162595
0.000191277
0.000972829
-0.0188396
-0.00165185
0.00209841
0.00207864
-0.000978909
-0.00421355
0.0014134
-0.0244261
-0.0165529
0.000101189
-0.00103878
-0.000487475
-0.0282427
-0.00213227
-0.00201599
-0.000597788
-0.00384856
-0.000934568
0.000312465
-0.00164244
-0.0108559
3.11089e-05
-0.000551093
-0.00350425
-0.00570526
-0.00874267
0.00070935
4.6477e-05
0.00225077
0.00256428
0.000753333
-0.0151904
0.000186843
0.0013438
0.0047445
0.00611589
-0.00217587
0.0026581
-0.000990598
0.000695743
-5.25424e-05
-0.00445263
-0.0053272
-0.00490429
-0.000211532
-0.000217307
-0.00620849
-0.00351646
0.00128583
-0.00156382
-0.000572286
-0.00151798
-0.00678225
0.00013252
-0.00357572
-0.000431566
-0.000179688
-0.00133087
-0.00336429
-1.29534e-06
-0.00127948
-0.000168474
-0.00199136
0.000358023
0.00324754
-0.00315734
-0.00329808
0.00018376
0.000775982
-3.64987e-05
0.000127812
-0.000154838
5.93774e-06
-0.00545573
-0.00132166
-0.00126487
-0.000564773
-0.00024129
-0.000274401
-0.000271802
-0.00114598
0.000277242
-0.00049714
0.00444204
-0.000114685
-0.00556456
0.00356143
-0.000340726
-0.00668346
-0.0019823
-0.00461776
-0.000800363
-0.000736085
-0.000297173
0.00322909
-0.000673313
-0.000310001
-0.00223326
-0.000924926
0.000458866
-0.000138654
-0.00308621
0.000584347
-0.00420012
-0.00187473
-0.000670705
-0.000137619
-0.00395843
0.000472701
-0.000557253
-0.00473521
-0.000416287
-0.00863721
-0.000742667
-0.000495553
0.000402285
-0.0095241
2.33614e-05
6.38505e-05
-0.00228234
-0.00352506
-0.00221408
-0.00505533
-0.00127292
-0.000176675
-0.00988531
-0.00207354
-0.00358246
-8.0801e-05
0.000381734
0.00100741
0.000313619
-0.0552305
-0.0305969
-0.0309008
-0.00624114
-0.00624141
-0.010413
-0.00132322
0.000202103
0.00581211
-0.00443955
0.000233298
-0.00730009
0.000394917
0.022124
0.00534736
0.000127592
0.00473058
0.00733955
0.00172345
0.00383898
0.00149683
0.0161845
-0.000263275
-0.00116215
-0.00238939
8.23514e-05
0.0142512
-0.00494394
0.00115376
0.00126531
0.000821775
0.0128558
0.0048492
0.000526257
-0.00212077
-0.00133635
0.0389933
0.00508229
0.000829208
2.05282e-05
0.000573791
-0.010806
0.000191489
0.000689816
0.000160351
0.00065693
-0.00288713
0.0118909
0.00276173
0.00183015
0.00773153
0.00426031
0.00113493
0.0113834
-0.000726458
0.0120967
-0.0185259
0.00134854
0.000509559
0.00532169
0.000968762
0.00166257
0.000625943
0.00956266
0.00089924
0.0155596
0.000827107
0.00333415
0.000587411
0.014875
0.000968672
0.0173292
0.000599146
-0.00229836
-0.00169659
-0.00252204
-0.000352888
-0.000605236
0.0097453
0.00135431
0.00338041
8.44165e-05
0.00183099
-0.0299371
-0.00134594
-0.000683289
-0.00418484
-0.00195129
-0.0178603
-0.000431187
0.00402179
-0.000233944
-0.00294365
-0.00101928
-0.000298927
0.000178099
-0.0119937
-0.00171859
-0.00063781
-0.0173464
-0.00115778
-0.000131048
-0.000206188
0.00312473
0.0076578
-0.0148225
0.00139361
-0.0108064
-0.0231034
0.0197784
-0.00171429
0.00526317
0.000767849
0.00305358
0.00142439
0.000665386
0.00115242
-0.000946395
0.000101433
4.43645e-05
-6.10294e-05
0.00193792
0.000499032
0.00102684
0.000969874
0.00123597
-0.0178875
0.000412865
0.00042529
0.000189601
-0.000398212
-0.00166874
-0.00240247
-0.00223073
-0.000526953
-3.63031e-05
0.00636884
-0.000317724
0.000715842
-0.0211758
0.00140573
-0.0466818
-0.00195413
0.00551584
0.00112552
-0.000141914
0.00108624
-0.022163
0.00381939
0.00122008
-0.00200828
-0.00185818
0.0060058
-0.0131896
-0.00271599
-0.000193916
-0.000902558
0.00330375
-0.00675888
0.000150764
-0.0195656
6.34668e-05
-0.00091935
0.0105803
-0.000829414
-0.00105425
0.00116452
-0.011726
-0.00686535
-0.00396477
-0.00719177
-4.63552e-05
-0.000166546
-0.000268437
-0.00319371
0.00547064
0.00350447
-0.000249668
-0.000106064
-0.00112283
5.6553e-05
-0.00126675
0.000572694
-0.00129652
0.00013079
-0.0426321
-0.000298374
-0.000725781
0.00354625
-0.000522262
0.00280175
-0.00357053
0.000511382
0.000902098
-0.00367647
0.000660773
-0.00777072
0.0004097
0.00186206
-0.000681267
0.00119578
0.00257561
-0.00982244
-0.0180656
-0.00023837
-0.0105718
-0.0575244
-0.000832169
-0.000612101
-0.00374675
0.000474621
-0.0017822
0.0034716
0.0124573
0.00742477
0.00854216
0.00712387
0.000412509
0.000129832
-0.000308483
1.25223e-05
-0.000197722
0.000728304
0.000564896
-0.000967527
-0.00035684
-0.00074833
-0.00041019
-0.00268833
0.00334267
-0.0016377
-0.000523575
-0.00130595
-0.00102939
-0.00820895
0.0215428
0.00181481
-0.000258394
-0.00119424
-0.000714712
-0.00153806
-0.0131421
-0.0174535
-0.000521417
-0.000104279
-0.00219282
-0.00770156
-0.00680588
-0.00198439
-0.00420394
-0.00351997
-0.00235728
-0.000660493
-0.000593882
-0.000449087
-0.000381372
-0.000549177
-0.00258455
-0.00813613
-3.23746e-05
-0.0628742
-0.00288894
-0.0101974
-0.0232872
0.00317401
0.00305486
-0.00360863
-0.00105724
0.00869461
0.0165745
-0.0109137
-0.00231336
0.00800439
0.0227786
-0.00719139
-0.00125859
0.00270384
-0.00109536
-0.0255394
0.00305377
0.00181532
0.0008664
-0.00156658
0.00259415
-0.00180866
-0.000541725
-0.00563953
0.0315125
-0.00553932
-0.0053153
-0.00592489
-0.00459356
0.000311888
0.00220857
-5.16249e-05
0.000206935
0.000164655
-0.00366748
-0.00298664
0.00293513
-0.00306264
-0.00293134
-0.0169258
-0.0362902
-0.000405316
-0.0167608
-0.0178969
0.00365219
0.00253016
0.00126576
0.00135581
0.00340991
0.0118202
-0.00259868
-0.00343478
-0.00156955
0.00017808
0.000160021
-0.00578891
-0.0140489
-0.00169835
-0.00180545
0.00977833
-0.00397013
0.00459226
0.00251333
0.000212417
-0.000437808
0.00053326
0.000319592
-0.000405736
0.000846637
0.00168524
-0.000335735
0.000645215
0.000394366
0.000173491
0.000244906
0.00127633
0.000298904
-0.0260823
-0.00142058
-0.000567796
0.00881604
-0.00249571
0.00028019
0.00443159
-0.0019924
-0.000941495
0.00820852
-0.000872411
0.0010279
0.00170227
-0.00156468
-0.000179564
-0.00640651
-0.000165667
-0.0140741
0.000248621
-0.00259255
-0.0010173
-0.00155551
-0.00111414
-0.00217581
-0.000222243
-0.000897183
-0.000402153
-0.000137814
0.00057964
0.000355245
1.25554e-05
0.000450505
2.16098e-05
0.000869203
0.000301341
0.000245281
4.78487e-05
-0.000952308
0.000482878
-0.000231099
0.000543925
-0.00107507
0.000179393
0.000540526
0.000118274
0.000181953
0.000909987
0.000989045
0.000893865
0.000247553
0.000580932
-0.000153663
0.000382972
0.000275299
-0.000248343
-0.00125737
-0.000252493
-0.000563809
-0.000261012
-0.000313811
0.000564468
0.000133341
-0.00085828
-0.000362341
-0.000227092
-0.000186224
0.000680738
0.000659458
-0.000288026
0.000772903
0.000122912
0.000220417
-0.00203899
0.000762029
-0.000131142
-9.60385e-05
0.000509669
-0.00060304
0.000617987
0.000137045
-0.000773835
0.00053959
-8.78219e-06
-0.000129644
-0.000423671
1.61446e-05
-3.76826e-06
-0.00116366
7.05799e-05
-0.00405456
-0.00129018
-0.000271484
-0.000599234
-0.00540247
4.54624e-05
-2.74218e-05
-0.000394481
-9.04517e-05
-7.51969e-06
-0.00113003
-0.00292532
-0.00377286
-0.00145434
-0.0049864
-0.0084082
-0.000350333
-0.000449237
-0.00031784
-0.00776918
-9.59572e-06
-0.000295505
0.000113548
-7.0276e-05
0.000818002
8.57883e-05
9.10021e-06
2.39643e-06
-0.00137534
7.08022e-05
-0.000877201
-0.000153066
-0.000734985
0.00013309
-0.000356103
-0.000326631
0.000128977
0.000111838
-3.36791e-05
-0.00049424
-8.2961e-05
2.37553e-05
-0.00723071
-0.000728033
-0.00337586
-0.000320319
1.6037e-05
-0.00332474
-0.000120114
0.000212378
0.000342885
-0.000468943
-0.00116922
5.26381e-05
-8.08255e-05
-0.000423306
-0.000248274
-5.1132e-05
0.00228478
-0.0011219
-0.000624439
-0.000105896
-0.000747155
-0.000148882
-0.000142382
-1.36223e-05
-0.000257092
-0.000243314
-0.000300954
-0.000170502
-9.79791e-05
-1.28725e-05
-0.0473004
-9.01783e-05
0.000315649
-0.000120566
-0.000182032
-3.36742e-05
2.59499e-05
-6.76244e-05
-6.55389e-05
-0.000131988
-0.00111244
-4.34317e-05
-6.06175e-05
-7.2585e-05
-0.000192369
0.000745669
7.35623e-05
8.56756e-06
-4.65345e-06
9.2926e-05
-0.000196661
-0.000695243
0.000213792
-4.65859e-05
-0.000400404
0.000153387
0.000169909
-0.000340477
0.000128505
-9.15902e-05
-0.000223955
0.00010237
-6.24758e-05
3.39786e-07
-3.28793e-05
-0.000406062
-0.000371614
-0.000559908
0.000148633
0.000108267
0.000269709
3.8066e-05
-9.1056e-05
-2.88111e-05
4.3849e-05
-0.000933563
-0.00198791
-0.000622584
-0.000985278
-0.000654527
-0.000471722
-0.000175715
-0.000248941
-0.000579549
0.000673938
3.06708e-05
-0.00139757
-0.00034012
-4.2604e-05
-9.11002e-05
-0.000319281
-0.000174153
0.000553128
-0.0010619
-0.00104207
0.000285145
2.7262e-06
-0.000216621
-7.52546e-05
5.54064e-05
-0.000145716
-0.00276986
-0.00112657
0.000381622
-0.00159174
-0.00371097
-0.00303733
-6.09467e-05
-0.000132683
-0.00527896
0.000124537
-0.0012585
0.00052163
-4.18815e-05
-3.4467e-05
-0.000943698
6.71584e-05
2.16851e-05
-0.00263801
-0.000227335
-0.000493014
-0.000276546
0.000357614
-0.00190949
-0.0022137
-0.00174122
-0.00146777
-0.000720992
-0.000162543
-0.000249952
-0.000136903
-0.000269713
-6.38171e-05
-0.000227657
-0.000497014
-0.000209143
-0.000106927
-0.000420758
-6.23377e-05
0.00022296
-0.000347621
-0.000313214
-0.000175816
-0.000438636
-3.86659e-05
-0.000151444
-0.000754344
-0.00041868
0.000115459
-0.000147813
-0.000174316
-7.23788e-06
-0.00220982
-0.000889816
-0.000217571
-0.000178473
-8.39728e-05
2.24098e-06
-0.000617582
-0.000141566
0.000139348
-7.16989e-05
-0.000348051
1.75645e-05
-0.000204901
-0.000733528
-0.000321368
-7.04013e-06
-0.000103494
-0.000107816
4.87241e-05
5.19912e-06
-0.000636509
-0.00022281
0.000106839
-0.00011961
-0.000382917
2.45615e-05
-0.000124139
-0.000767848
-0.000106373
-2.17732e-05
-0.000534279
-8.04235e-05
-1.55157e-06
6.99079e-05
-0.00024908
0.000124048
-0.000215017
-0.000412323
-0.000623312
-0.000739839
0.000125661
1.37321e-05
-0.000146705
8.67308e-05
5.06537e-05
-0.000409246
-0.000150118
-7.97285e-05
-3.23035e-05
7.07204e-05
7.0199e-05
0.000223786
-0.000260765
-0.000212271
0.000105159
-0.000977475
-0.000639774
-3.69635e-05
-2.16939e-05
-2.40972e-05
-0.000153021
-3.338e-05
5.94795e-05
-0.000237854
7.35547e-05
-0.000165348
-0.000535011
-0.000454981
8.43426e-05
-2.50591e-05
-0.000292428
2.45874e-05
-0.000136034
-0.000438223
-0.00026915
7.1596e-05
-8.66734e-05
-0.000215693
1.081e-05
-0.000108033
-8.53144e-05
0.00021199
1.53768e-05
-0.00024434
-4.34923e-05
5.84647e-06
-0.00242676
0.000404491
9.72335e-05
0.000128953
-4.22594e-05
-0.00145507
7.32497e-05
1.84039e-05
-0.000277035
-6.50725e-05
-1.95353e-05
-0.000256131
0.000492144
-0.000246484
2.81905e-05
-1.55955e-05
-5.16595e-05
-0.000619729
-0.000189395
-0.000155363
7.39243e-05
3.68107e-05
-0.000809147
0.000418101
-0.000135797
-4.76537e-05
-6.22044e-05
-0.000430523
-0.000443364
-0.000181348
-0.000201321
8.56136e-05
4.02785e-05
-0.0012639
1.96615e-05
-0.000648469
-0.000153604
-0.000101129
8.8199e-05
0.000127816
-0.00131913
-0.000196451
-0.000176278
-0.00013395
2.62258e-05
-8.99333e-05
-0.000436336
7.47951e-05
-7.18333e-05
-0.000536752
-0.000104663
-7.07461e-05
-0.000174765
-0.000137781
-9.88933e-05
-6.63437e-05
-0.00328439
0.00306947
0.000986496
0.00271568
0.00041424
0.00121475
0.000779409
-3.83649e-05
-0.000195706
0.000419988
0.000310119
4.58619e-05
-0.000183803
-0.000220139
0.000253185
0.000362382
-9.17831e-05
0.00323004
0.000738058
0.000253971
0.00027816
0.00804719
0.00120861
0.000302562
0.000926386
0.00010681
0.000266919
0.000386506
-6.20313e-05
-0.000156636
0.000116191
0.000209741
0.000175753
0.00155213
0.000448374
0.00134755
0.00016039
0.000441971
0.000640132
0.000262554
0.000875539
0.000245379
0.000931232
0.00131985
0.000311185
0.00106041
0.000101116
0.000308298
0.000333181
-0.000222834
-0.00014931
5.17929e-05
0.000260264
-0.000843482
0.000536063
0.000158464
0.000743256
0.000174651
0.00164214
-0.000277803
-0.000121802
0.000416782
0.000160147
0.000800058
0.000129503
0.000499199
0.000248956
7.21498e-05
0.00025562
-0.00175393
0.000413292
0.000218535
-4.55679e-05
0.000152169
0.000297257
5.57163e-05
0.00176089
0.000117006
4.33017e-05
-0.000108957
8.77973e-05
0.000241096
0.00145743
0.000274638
-1.78559e-05
0.000140629
9.30082e-05
0.000268623
-0.00280339
6.71859e-05
-0.000197181
-0.000144904
4.55585e-05
0.000206547
-0.00175655
0.000211384
-0.000540722
-0.000210309
1.03727e-05
0.000135954
-0.00102808
0.000249231
-0.000518285
-0.000283615
-1.19694e-05
0.000129974
-0.00144837
6.63273e-05
-0.000437543
-0.000235872
5.27724e-05
0.000152287
-0.00156636
0.000221513
-0.00033018
-0.000213053
0.000194701
0.000227157
-0.0028403
0.00202979
0.000533429
0.00184704
0.000260356
0.000557329
0.000522642
-0.000246351
-0.000222594
0.000128892
0.000268051
0.000423951
-0.000534118
-7.20432e-05
6.66626e-05
0.000203488
-0.000248676
-0.00154466
0.000111904
1.40097e-06
-7.12226e-06
8.44853e-05
0.000269703
-0.00190367
-9.36958e-05
-0.00099572
-0.000243923
-0.000162556
4.89456e-05
4.77205e-05
-0.00180843
0.00167891
0.000437605
0.00110177
0.0002443
0.000538648
8.1621e-05
-0.000449712
-0.000242114
7.89712e-05
0.000191471
-0.000430294
0.00181087
0.000534068
0.00146744
0.000246129
0.000589121
-0.000447659
-0.000230159
0.000150063
0.000225334
-0.000726277
-0.000854346
-0.0001681
-0.000179669
1.31049e-05
5.74571e-05
4.06786e-05
-0.00335411
-0.000290386
-1.4623e-05
-0.000267921
-4.10725e-05
-0.000650819
0.000134908
-8.80033e-05
-0.000251022
-3.07057e-05
-0.000298778
3.01217e-05
-0.000109649
-0.000842478
-0.000146145
-8.06898e-05
-6.03243e-05
-0.000375887
-0.000149663
-0.000112823
1.87818e-05
-0.00179091
9.0191e-05
-8.17803e-05
-0.000670794
-0.000130219
-7.80036e-05
-5.46232e-05
-0.000420241
-0.000114371
-7.24459e-05
-8.43049e-06
-0.00327221
-0.000185406
-0.00014209
-0.000751918
-0.000156592
-0.000143555
-0.000177467
-8.88989e-05
-9.53515e-05
3.621e-05
-0.000825922
-0.000125995
-0.00040724
-0.000189604
-0.000147934
2.56477e-05
-0.00165141
-0.000535168
-0.000185797
-0.000971158
-0.00019505
-0.000164225
6.25368e-05
-6.11713e-05
0.000133538
0.000342881
1.40973e-05
0.00227039
-7.76533e-05
-0.000591511
-0.000188947
-0.000217612
-4.45989e-06
-0.00108975
0.00115643
-0.000222485
-0.000202536
0.000466026
0.000256579
0.000242454
0.000212416
2.44874e-05
-0.000337653
-0.000122377
2.70257e-05
0.000194156
0.000111601
-0.000823152
0.000119641
-0.00932544
0.00070694
-0.00226485
0.000114567
-0.000284001
0.000105966
-0.00034083
-0.000219677
-0.00010624
7.40509e-05
9.7588e-05
-0.00107806
-5.74662e-06
-0.000137248
-8.65214e-06
-9.78867e-05
5.27233e-05
6.51505e-06
-0.00139167
5.86578e-06
0.000394208
-5.79673e-05
-7.84982e-05
8.28853e-05
-6.08354e-06
-0.00138387
-1.06145e-05
-1.36393e-07
-2.70435e-05
-0.00010296
7.06555e-05
5.33123e-05
-0.000947246
3.63073e-06
8.16628e-05
-0.000415444
-6.66489e-06
-0.000174499
3.69686e-05
-0.000224513
-7.81386e-05
-6.53464e-05
9.25299e-05
-0.000914757
-5.58244e-05
-7.57895e-05
-9.3053e-05
-5.44419e-05
5.08304e-05
5.00058e-06
-0.000781358
7.98799e-06
-0.000144375
-3.65631e-05
1.44681e-05
6.90199e-05
6.90597e-05
-0.000509014
9.13323e-06
9.35489e-06
0.000195163
-0.000151694
0.000100846
5.16109e-05
-0.00127755
0.000334138
-0.000194614
-0.000115257
0.000136734
0.00013025
0.000160142
0.000349789
5.73178e-05
-3.61727e-05
-8.42301e-05
-0.000156012
0.000121505
0.000142238
0.000572598
-0.00016435
-0.000114861
0.000100957
0.000153125
0.000194139
-0.00112921
0.000315258
-0.000132391
-8.66259e-05
9.74578e-05
0.000163971
-0.000629432
0.00021733
5.49659e-05
-6.60738e-05
0.000138428
9.80361e-05
0.000250764
-0.000282186
-0.000187581
-0.000830246
-0.000199146
-0.000123233
-3.59162e-05
-0.000186319
-0.000142555
-1.96229e-05
7.61811e-05
-0.000318499
-0.00240464
-0.000546526
-0.00235267
-0.000500895
-0.000626387
7.91798e-05
0.00257519
-0.000281347
8.18983e-07
0.00302239
-0.00193261
-0.000424894
-0.00208938
-0.000386284
-0.000466694
1.23252e-05
1.12264e-05
-0.000364666
3.18546e-06
2.72817e-05
-6.44163e-06
-7.78816e-05
-0.000682205
-0.00013906
-6.85807e-05
0.000152336
0.00113155
-0.000193563
-1.56603e-05
-1.93012e-05
-0.000189505
0.000272467
-1.22221e-05
-0.000175033
-8.37992e-05
6.76139e-05
2.43707e-05
-0.000149436
-0.000129608
-0.000120811
4.94919e-05
-0.000235275
0.00014887
1.69624e-05
-0.000238841
-4.40383e-05
0.000131918
3.88903e-05
-0.000116137
-0.00019528
-7.82058e-05
6.04592e-05
-0.000167932
9.00598e-05
-6.28703e-05
-0.00043914
-0.000115449
3.18881e-06
0.000521073
0.00167633
-0.00034752
4.88765e-05
4.34623e-05
0.0130865
0.000184374
0.000223685
0.000649706
-0.00135321
3.33295e-06
-2.40977e-05
0.00179065
-0.000128536
-0.000151658
-0.000873895
-0.000166191
-0.000123788
-0.000110293
-8.31597e-05
-0.000245299
8.67826e-05
8.91004e-05
-0.000897817
-3.91753e-05
-9.58127e-05
-0.000483629
-0.000116814
-6.27703e-05
-1.08809e-05
-8.53153e-05
-0.000121984
-4.26774e-05
5.82645e-05
-9.11338e-05
-8.84654e-05
-0.000124958
-0.000634181
-0.000147495
-8.9052e-05
3.23106e-05
-0.000140903
-0.000101104
-1.46802e-05
7.05461e-05
3.79337e-05
-0.000465008
-7.05333e-05
-0.000531274
-9.20239e-05
-8.38097e-05
-1.7706e-05
6.26736e-06
-0.000101082
-8.98545e-06
3.31358e-05
0.0013859
0.00058209
3.37921e-05
-0.000274416
-5.02248e-05
0.000126432
7.21613e-05
-0.000128746
-0.000168107
-0.000115425
7.14801e-05
-0.000233437
0.00185556
0.000404756
0.00143592
0.000201553
0.000474942
0.000494922
9.57784e-05
-0.000150867
0.000191193
0.000178477
-0.000231208
0.000304643
8.74177e-05
2.29387e-05
-2.07601e-05
0.000239442
0.000378631
-0.00801644
-4.09027e-05
0.000110568
5.80693e-07
0.0018075
0.000127605
-4.33148e-05
-0.000109114
1.6101e-05
8.9265e-05
-0.000694396
0.00028396
-0.000548204
-0.000105978
9.90574e-05
-8.70416e-06
-0.00033338
0.000668424
9.26308e-05
0.000297628
-2.61716e-05
0.000129633
4.17604e-05
-0.000866865
-0.000168402
-0.000587444
1.79818e-07
0.00676677
0.000571341
0.000156469
0.000364947
7.11214e-05
0.000209511
0.000204466
-0.032135
-4.13005e-05
-2.13732e-05
3.3347e-05
-0.000369039
0.000284779
0.00029686
-9.10133e-05
-2.86969e-05
-1.9332e-06
-0.00176744
0.000777852
0.000153963
0.000366321
2.9158e-05
0.000109918
4.59182e-05
0.000132258
-0.000150963
-0.000199357
3.82787e-05
-0.00421016
0.000250976
-4.73503e-05
-8.25222e-05
0.000227218
0.000162007
0.00021028
0.00117031
0.000224063
-6.01596e-05
-3.62325e-05
9.15345e-05
0.000123633
0.000146346
-0.00194234
0.000104121
-4.65884e-05
7.98262e-05
-9.79864e-05
0.000153312
9.57264e-05
0.00426491
0.0001912
-0.0158852
-0.00192725
0.000140452
7.93722e-05
0.00132033
2.20795e-05
-0.000569927
-9.03568e-05
2.63537e-05
6.88296e-05
-0.000895667
0.000326755
-0.000113112
-9.0682e-05
0.000656878
2.04903e-05
3.26047e-05
-0.000135641
3.12012e-05
2.50277e-05
9.83637e-05
2.1144e-05
0.000956075
9.42634e-05
-0.000109286
-8.96979e-05
-6.82115e-06
9.34269e-05
3.92291e-05
-0.000749878
0.00023823
6.72622e-05
6.39721e-05
1.41434e-05
9.55275e-05
0.000266572
-6.51473e-05
-6.8344e-05
0.000113385
-9.01988e-06
0.00266967
-6.37373e-05
0.000127774
-1.467e-05
9.5422e-05
0.000114814
0.00533236
6.66222e-05
1.45292e-05
2.12302e-05
5.04534e-05
9.45205e-05
0.000156872
0.000337365
0.000729066
0.000189352
4.91145e-05
0.000545821
0.000132453
0.0233414
0.000416273
0.000112202
-8.65821e-05
0.000139087
-7.82783e-05
0.000357364
-0.000148473
-0.00010828
-0.000150335
-0.00115441
-9.51238e-05
-0.000248595
-4.64539e-05
-1.51887e-05
-0.000168318
-5.54125e-05
-0.0013826
1.14114e-05
0.000100077
8.21694e-05
-0.00161951
-5.17492e-05
1.94544e-05
9.97962e-06
1.32299e-05
-0.000158405
1.59291e-05
-0.000273728
0.000139934
5.36318e-05
0.000348531
0.000203037
0.00126951
3.86244e-05
0.000494386
9.77263e-05
0.000135844
-0.000117138
0.000182374
0.00257132
0.00128259
-0.000381756
9.81909e-07
-6.05215e-05
-0.00154449
-9.49129e-05
-0.000239933
-8.84132e-05
-6.45035e-05
-0.000176612
-6.93185e-05
-0.00227609
-0.000297919
-0.000134672
0.000138133
-0.000185177
-7.56475e-05
1.28882e-05
-0.000272909
-8.58806e-05
-5.57292e-05
-0.000211844
-9.58132e-05
-0.00836058
0.000148538
-0.000182389
-5.67291e-05
1.86948e-05
-0.000480572
9.72736e-06
5.91854e-05
2.99203e-05
1.56109e-06
-0.000138235
-6.64885e-05
-0.00241971
0.000143472
-0.000480442
-0.000127125
-1.82678e-05
-0.00148505
-0.00023694
-0.000122208
-3.05002e-05
-4.46988e-05
-0.000341034
1.14433e-05
0.0136573
-0.000408079
-0.000167506
-0.000221821
-6.68611e-05
-0.00128462
-0.000279177
-0.000250927
-7.63746e-05
-1.17836e-05
-0.000341678
-1.30109e-05
-0.0018848
-0.000492031
-0.000127125
-0.000106652
2.24627e-05
-0.000697809
-0.000194533
-8.75783e-05
-3.34679e-05
-1.91217e-06
-0.000260873
4.94786e-05
-0.0132537
-0.00920029
-0.00108108
-0.000322581
-0.000348867
-0.000206614
-0.00206088
-0.000104197
-0.000300493
-0.000139887
-0.000166585
-0.000262173
-0.000189802
-0.00139389
0.00345455
-0.000289612
0.000863414
0.000132682
0.000239602
-0.000378272
-0.000252227
0.000200363
0.00039172
0.000430101
-0.000210765
0.00053847
-0.000148768
-0.000212886
-0.000213921
3.92489e-05
-6.31531e-06
-0.000498103
-0.000147259
-6.9683e-05
1.22194e-05
6.14604e-05
-0.000183254
8.4437e-05
2.88198e-05
-8.08938e-05
-0.000222036
6.83958e-05
0.000245174
-0.000314723
0.000126961
-0.000264828
5.61635e-05
9.01733e-05
-0.000255694
0.000176346
0.0111474
-0.000242573
-0.000239448
-0.000132081
-7.88322e-06
-0.000421632
-0.000135151
-0.000136768
-1.18648e-05
5.62364e-05
-0.00017226
6.25864e-05
-0.000251319
-0.000208883
0.000161435
-0.00020995
0.000135015
0.000184728
-0.000454283
0.000131028
0.000316929
8.59569e-05
7.39834e-05
-0.0001782
0.000222287
0.0179907
-0.00128341
-6.64267e-05
-2.45209e-05
-0.000687045
-0.000183304
-0.000138012
2.06005e-05
0.000111245
-0.000183554
-0.00627952
-4.64144e-05
-0.000186312
-9.73639e-05
-6.28291e-05
0.00127591
-0.000699328
-0.000552742
-4.84655e-05
0.000789895
0.000687006
0.00105089
0.000970721
0.00105086
0.000491299
-0.000494296
-0.000481029
-0.000355249
6.05606e-05
0.000321206
-0.00011269
-0.000411557
-0.000173456
-0.000220858
-0.00127851
-0.000951522
-0.00046012
-0.000585102
-0.000902109
-0.000938242
-1.08137e-05
-0.000600765
-0.000312063
-0.000259498
-0.000350222
-0.000164573
-0.000366947
0.000177692
-0.000686291
0.000445748
0.000364881
-0.000410758
-0.000929282
-0.000423973
-0.000987067
-0.000543119
-0.000672477
-0.000652801
-0.00232981
-0.00135368
-0.000279932
0.00133325
0.00158847
0.00052902
-0.000398226
0.000313463
-0.000169512
-0.000929474
-0.000429543
-0.000552494
-0.000527225
-0.000705261
-5.81944e-05
-0.000675202
-0.00102864
-0.00116178
-0.00030701
0.00014921
0.000683247
0.000330104
0.000112489
-0.000899994
-0.000929426
-0.000822192
-0.000929953
-0.00111961
-0.000775502
-0.00111321
-6.45063e-05
-8.86927e-05
-0.000295851
-0.000564815
-0.000528301
-0.000814533
-0.00101811
-0.000649105
-0.000554515
-0.000882425
0.00170009
-0.000509898
0.000192621
0.000216732
1.83159e-05
-1.35992e-05
9.13564e-05
0.000162465
0.000201116
-0.000107682
-0.000975186
0.000290949
-0.000137862
-0.000967791
-0.000101536
-0.000904812
-0.000618367
-0.000258949
-0.00167705
-0.000915151
0.000377047
0.00309924
0.00232533
-0.000946211
-0.00126221
-0.00136625
-0.0011705
-0.00052288
-0.000544526
-0.000465133
-0.000862001
-0.000760538
-0.0008815
-0.0035911
-0.00240491
0.00183459
-0.00216084
-0.00057953
-0.00045375
-2.93316e-05
0.0252412
0.000631707
0.0109755
-0.00046809
-0.00210165
0.00126532
0.00290269
0.000203345
-0.00105984
-0.0389322
0.00310218
-0.000299998
2.82572e-05
0.000205671
0.00185505
-8.68418e-05
0.00161188
0.000293018
-0.000260775
0.000701791
0.000834216
0.00250617
-0.00151821
-0.000521491
-0.0142767
-0.000916447
-0.00283538
-0.00352265
-0.0122819
-0.000243023
-7.43383e-05
-0.000314234
-0.000142027
-0.00124934
0.000432711
0.000975124
0.000272592
0.000687564
0.000159845
0.00109896
0.00180574
0.00122394
0.00136764
-0.000461667
0.00284581
-0.000294229
-0.00021833
0.000147492
7.06614e-05
-0.000181417
-0.000464358
0.00339534
-0.0382486
-5.00384e-05
0.00986618
-0.00783719
-0.00453554
0.000288428
-0.00218815
0.00124137
-9.68943e-05
-7.50863e-05
-0.000192869
-0.000772063
-0.000425135
0.000417816
0.00108399
-0.000548122
0.000204543
0.000675609
0.00104186
-0.00172311
-0.0349157
-0.0197455
-0.0242988
-0.0179118
-0.0221165
-0.000373572
0.00144194
0.00522331
-0.0084802
0.0118171
-0.00175264
0.00225606
0.016167
0.0024997
0.0023106
0.00116081
-0.00230004
0.000732851
-0.000634971
0.00521461
0.000239282
0.00136539
0.00401034
0.00194785
0.000458045
-0.00659915
0.0242458
-0.00188704
0.000802592
0.00231601
0.000362024
0.000214122
0.000199688
0.00154157
0.00603265
-2.29825e-05
-9.43344e-05
0.00400637
-0.00157268
0.000578441
-0.000325754
0.0029872
0.00219494
0.00407125
0.00403324
0.000840256
0.000704999
0.000490602
0.00438592
-0.00435446
-0.000120857
0.000301273
0.00127505
0.00412627
0.00167473
0.00116174
-0.000283669
-2.74104e-05
0.00035573
0.00151343
0.00149692
-0.000103754
0.00078248
-0.0110049
-0.00178385
0.00199762
0.00160158
-0.00166037
-0.00468732
0.00081079
-0.0199296
-0.0196011
0.00019896
-0.00126331
-0.000705714
-0.0216387
-0.00231205
-0.00105531
-0.00149105
-0.00429999
-0.00122911
-0.000587163
-0.00262113
-0.00974748
-0.000316344
-0.000921648
-0.00205204
-0.00597821
-0.00933723
0.000906566
-9.58251e-05
0.0018628
0.00125188
-0.000404758
-0.0149336
4.52782e-05
0.000932296
0.00357271
0.00487327
0.000627487
0.00242324
-0.00114562
0.000225563
0.000451937
-0.00495242
-0.00632892
-0.00562628
-0.000918189
-8.45362e-05
-0.00682281
-0.0035946
0.00133585
-0.00134922
-0.000822743
-0.00143763
-0.00663295
9.32547e-06
-0.00333076
-0.000643795
-0.000380281
-0.00151393
-0.00337466
-0.000425167
-0.00141879
0.000492857
-0.00221671
-4.76156e-05
0.0049512
-0.00271425
-0.00393771
-0.00011516
-0.000146897
-0.000982264
1.26529e-06
-0.000339796
-0.000392735
-0.00533365
-0.00179519
-0.00133532
0.000445849
-0.00029301
-0.00119812
-0.000711988
-0.00135998
-2.9821e-05
-0.00116444
0.00616607
-0.000697881
-0.00607757
0.00395297
-0.000569913
-0.00504728
-0.00230487
-0.00489813
-0.00111772
-0.000890309
-0.000423189
0.00503881
-0.00102406
-0.00102736
-0.00296006
-0.00171503
-0.000521446
-0.00103887
-0.00249081
0.000264646
-0.00408189
-0.00192727
-0.0019503
0.000228923
-0.00464266
0.000185259
-0.000626383
-0.00532598
-0.000889173
-0.0089515
-0.00108481
-0.00135789
-3.458e-06
-0.0101361
-0.000502195
-0.000396208
-0.00202852
-0.00344069
-0.00230069
-0.00442831
-0.00136662
-0.000562451
-0.0125908
-0.00198068
-0.00394128
-0.00018022
-5.61099e-05
0.000614331
0.000376063
-0.0583886
-0.0395051
-0.0399849
-0.00729984
-0.00793214
-0.011474
-0.00184565
0.00010412
0.00338808
-0.00345655
-0.00061872
-0.0101315
0.000170429
0.0258704
0.00485425
-0.000314115
0.00452631
0.00447973
0.00100773
0.00350416
0.00112884
0.013687
3.80029e-05
-0.00260189
-0.00210724
-0.000954074
0.0226891
-0.000322166
0.000644882
0.0010615
0.000481606
0.0104464
0.00580204
-7.32479e-05
-0.00227277
-0.00245041
0.0452208
0.00706995
0.000751534
-0.000268791
0.000135252
-0.00645713
0.000371249
4.30477e-05
-0.000375973
0.000795714
-0.00553922
0.0128112
0.00236555
0.00168108
0.00667335
0.00357803
0.00111328
0.0130405
-0.00122927
0.0109223
-0.0108644
0.001627
0.000408053
0.00459097
0.000876846
0.00117804
0.000388855
0.00937482
0.000800022
0.0134049
0.000571119
0.00294009
0.000412391
0.0149616
0.000833693
0.0159276
0.00045765
-0.00327019
-0.00320228
0.000259695
-0.00134947
-0.00118315
0.0092166
0.000434659
0.00422103
-0.000857377
0.00187246
-0.0379497
-0.00201211
-0.00163719
-0.00584584
-0.00231509
-0.017311
-0.000765381
0.00564175
-0.000533001
-0.00374179
-0.00131663
-0.000607917
4.08797e-06
-0.0117855
-0.00169989
-0.00107506
-0.0206489
-0.00141078
-0.000376313
-0.000386231
0.0028545
0.00589919
-0.00952441
0.000750497
-0.00678646
-0.0172076
0.0151836
-0.00308981
0.00266812
0.000207255
0.00080868
0.000476152
-8.91884e-05
0.00036641
-0.00201468
-0.00103609
-0.00050035
-0.00067131
0.0016128
0.000105721
0.000207071
0.000690996
0.000452226
-0.0257115
0.00015306
0.000204546
-0.000186994
-0.000486066
-0.00171675
-0.00259481
-0.00476779
-0.000641759
-9.70237e-05
0.00594573
-0.00254998
0.000618979
-0.0258353
0.000675608
-0.0709911
-0.00272588
0.00555908
0.0011728
-0.000504639
-0.000178616
-0.024083
0.00411044
0.00110897
-0.00230786
-0.00189334
0.00809539
-0.00964707
-0.0035014
-0.000508547
-0.000340842
0.00459963
-0.00959022
0.000395853
-0.0218106
5.61772e-05
-0.00163606
0.0118109
-0.00220638
0.000324832
0.0012374
-0.0147359
-0.011372
-0.00662404
-0.0119391
-7.35175e-05
-0.000129433
-0.000292875
-0.00264929
0.00650253
0.00382389
-0.000173099
-2.84951e-05
-0.000836397
-0.00124061
-0.000934867
-0.000590127
-0.00117852
0.00032775
-0.0511523
0.00030266
-0.000516554
0.00462688
-0.00125032
0.00298643
-0.00569667
0.000490875
0.00119915
-0.00496231
0.00024199
-0.0126031
0.000565439
0.00152011
-0.000349635
0.00161013
0.00392503
-0.0091033
-0.0125513
-0.000349237
-0.00703686
-0.0535392
-0.00208653
-0.000637285
-0.00430663
0.00115881
-0.00148512
0.00498087
0.0135962
0.00905605
0.00976496
0.00898917
0.000683749
0.000269965
-0.000314177
8.98373e-05
-0.000137525
0.00139223
0.000567278
-0.00115045
-0.000886391
-0.000303826
-0.000415634
-0.00229065
0.00274143
-0.00273211
0.000810104
-0.000489074
-0.000579505
0.000584182
0.0253474
0.00370505
0.000691886
-0.000829472
0.000251686
0.00139287
-0.0167552
-0.0215289
-7.03597e-05
0.000367198
-0.0018011
-0.00303726
0.000101856
-0.00105319
-0.00354225
-0.00316029
-0.00093239
-0.000465158
-0.000416438
-0.000224549
-0.000181657
-0.000295352
-0.00247924
-0.00856602
0.00015507
-0.0455779
-0.00290267
-0.00779178
-0.0238423
0.0107968
0.00447947
0.000749562
-0.000557415
0.0118526
0.018086
-0.00591071
-0.000343021
0.00997959
0.0256581
-0.00833246
-0.000250844
0.00449681
-0.000912927
-0.0251319
0.00396757
0.00234633
0.00122024
-0.000641809
0.00335202
-0.00170472
0.0017731
-0.00720336
0.0302216
-0.00473103
-0.00570483
-0.00647228
-0.00405941
0.000684661
0.00318423
-0.000143043
0.000254053
0.0002319
-0.00283619
-0.00210007
0.00647231
-0.00184688
-0.00215487
-0.0227266
-0.0496583
-0.000455615
-0.0184685
-0.0226344
0.00405041
0.00294178
0.00127821
0.00202466
0.00362051
0.0159743
-0.00232114
-0.00160445
-0.0016071
0.000102622
5.30905e-05
-0.00770078
-0.0195163
-0.00143028
-0.00215811
0.0130758
-0.00406035
0.00507359
0.00371697
0.000658575
-0.000316736
0.000319525
0.000572007
-0.000205837
0.000634652
0.000937454
-0.000134306
0.000532627
0.000788019
0.000552603
0.000624691
0.00188799
0.000722448
-0.02528
-0.00145863
-0.000765478
0.00748649
-0.00283647
0.000121653
0.00362631
-0.00313739
-0.00111157
0.00656751
-0.000930992
0.000849071
0.00101147
-0.00187739
-0.000272011
-0.00633988
-0.000371527
-0.0155585
0.000158664
-0.00291763
-0.00101364
-0.00170821
-0.00109369
-0.00252298
-0.000320083
-0.000986025
-0.000525477
0.000102032
0.000834971
0.000251821
0.000174403
0.000616775
0.000234638
0.00125994
0.000566847
0.00054678
0.000295541
-0.00084432
0.000721955
-3.68012e-05
0.00102121
-0.00197981
0.000531845
0.000956045
0.000465752
0.000557863
0.00137087
0.00146319
0.00135734
0.000461875
0.000891275
5.81084e-05
0.000671626
0.000486638
-2.16724e-05
-0.0012836
-7.45489e-05
-0.000423169
-0.000128391
-0.000148187
0.000843987
0.000309319
-0.00119387
-0.000138875
5.04962e-05
2.81936e-05
0.00101833
0.00093684
-0.000148523
0.00101661
0.000350333
0.000353807
-0.00220019
0.00111378
4.33719e-05
6.95236e-05
0.000650652
-0.00050288
0.000859866
0.000233104
-0.000770958
0.000672804
7.20189e-05
-0.000140625
-0.000412106
-1.25211e-05
-3.44431e-05
-0.00109068
0.000207071
-0.00605085
-0.00115057
-0.000358346
-0.00110078
-0.00742955
0.000126421
-9.14497e-06
-0.000348947
-8.09674e-05
8.39119e-06
-0.00125349
-0.00275182
-0.00319447
-0.00132051
-0.00472786
-0.00894481
-0.000378312
0.000421568
-0.000278945
-0.00817197
5.68626e-05
-0.000379685
0.000236768
-4.38589e-05
0.00234719
0.000271307
-1.38446e-06
-5.34035e-05
-0.00150622
5.96069e-05
-0.00136414
-0.000283592
-0.000617985
0.000380644
-0.000489955
-0.000426957
0.000642277
0.00011901
-2.27404e-05
-0.000477728
-7.97675e-05
3.3029e-05
-0.00847694
-0.000707582
-0.00291368
-4.04859e-05
4.78224e-05
-0.00401464
-0.000145922
0.000358979
0.00108996
-0.000580742
-0.00111891
-3.95315e-05
-0.000224948
-0.000720139
-0.000419274
-0.000142991
0.00537851
-0.00135531
-0.000685314
-0.000110369
-0.000798743
-0.000153777
-0.000167073
-4.89091e-05
-0.000334978
-0.000299051
-0.000334262
-0.000211534
-0.000139378
-2.25097e-05
-0.0456541
-0.000104734
0.000478404
-0.000137929
-0.000280129
-4.4115e-07
-4.04613e-05
-0.000169894
-9.36544e-05
-0.000239123
-0.00162368
0.000225305
-0.000130401
-0.000102919
-0.000241159
0.000784385
9.14409e-05
8.53562e-05
6.26971e-06
0.00010896
-0.00024655
-0.000766638
0.000357584
4.91702e-05
-0.000270761
0.000152004
0.000234816
-0.000394332
0.00016647
1.93052e-05
-0.000296321
0.000139864
-5.00934e-05
-4.32625e-05
-0.000110446
-0.00055422
-0.000515229
-0.000295859
0.000199692
0.000196103
0.00032436
4.91501e-05
-2.01056e-05
-1.76441e-05
4.44346e-05
-0.00112573
-0.00230773
-0.000584801
-0.00102242
-0.000864391
-0.000609705
-0.000192295
-0.000360728
-0.000750007
0.000983057
0.000166935
-0.00141526
-0.000285615
-9.86829e-05
-0.00020093
-0.000498948
-0.000248323
0.00143869
-0.00135293
-0.00125475
0.000274824
6.78256e-06
-0.000217603
-7.90978e-05
5.61086e-05
-0.000220436
-0.00160393
-0.001439
0.000791328
-0.00209638
-0.00465701
-0.00375263
-0.000127795
-0.000257627
-0.00617592
8.34457e-05
-0.00149759
0.000737773
-1.71332e-05
-5.8157e-05
-0.000704634
2.19075e-05
-4.3698e-05
-0.00329031
-0.000398708
-0.000866132
-0.000452042
0.000944512
-0.00223494
-0.00286099
-0.00213121
-0.00177037
-0.000880864
-0.000185397
-0.00025753
-0.000203139
-0.000273182
-0.000159662
-6.14018e-05
-0.000534629
-0.0001937
-0.000146325
-0.000502146
-0.000150665
0.000638985
-0.000416804
-0.000315129
-0.000262528
-0.000491688
-8.2383e-05
-0.000275923
-0.000887877
-0.000522347
0.000209327
-0.000182781
-0.000176046
-6.87949e-05
-0.0026828
-0.00108359
-0.000206924
-0.000267312
-4.68846e-05
-5.87567e-05
-0.000662427
-0.000178839
0.000255618
-7.31727e-05
-0.000332294
-2.14369e-05
-0.000343121
-0.000635867
-0.000423501
6.1613e-05
-0.000123776
-3.93787e-05
2.42362e-05
-3.36131e-05
-0.000636847
-0.000284111
0.000212205
-0.000144337
-0.000348533
-7.23524e-06
-0.000211964
-0.000812275
-9.53036e-05
-1.64754e-05
-0.000543793
-8.01441e-05
1.07548e-05
3.30566e-05
-0.000299544
0.000104418
-0.000149386
-0.000418182
-0.000630959
-0.000814863
0.000155168
6.26716e-06
-0.000122481
7.35132e-05
4.5202e-05
-0.00050585
-0.000197965
-9.37262e-05
-1.78749e-05
5.36324e-05
2.23635e-05
0.000189339
-0.000383477
-0.000329036
8.42438e-05
-0.0013234
-0.000721603
-3.27875e-05
-2.90472e-05
-3.99801e-05
-0.000162996
2.46861e-05
0.000168762
-0.000208241
4.98573e-05
-0.000257479
-4.37108e-05
-0.000635369
0.000169487
4.48865e-06
-0.000265983
-1.68274e-05
-0.000230434
-8.99601e-05
-0.000383303
0.000148524
-0.000109218
-0.000166364
-2.80098e-05
-0.000183218
0.000322837
0.000207634
1.21797e-05
-0.000259984
-4.84465e-05
-8.19686e-06
-0.00294321
0.000576905
0.000276161
0.000445057
-0.00014717
-0.000908647
4.92575e-05
8.2946e-06
-0.000311721
-8.05701e-05
-4.73455e-05
-0.000404861
0.000676487
-0.000363559
7.68039e-05
-0.000100172
-2.47173e-05
-0.0008407
-0.00028229
-0.000204151
4.0064e-05
9.65399e-06
-0.000946359
0.000606678
-0.000190132
-2.37929e-05
-0.00032945
-0.00202564
-0.0010065
-0.000496493
-0.000528046
-6.8128e-05
-0.000103789
-0.00305269
-0.000180988
-0.00132577
-0.000427553
-0.000413069
-3.71517e-05
2.76704e-06
-0.00336763
-0.000722203
-0.000419925
-0.000386267
-8.04735e-05
-0.000280694
-0.00130075
-0.00044668
-0.000249291
-0.00123155
-0.00027979
-0.000253669
-0.000529126
-0.000482998
-0.000335215
-0.000177197
-0.00649682
0.00331076
0.00108947
0.00299122
0.00046687
0.00133685
0.000947865
-0.000294786
-0.000409787
0.000496442
0.000329715
-0.000512406
-0.000449994
-0.000433785
0.000277481
0.000398704
-0.000677041
0.00108946
0.000385244
0.000286365
0.000298436
0.0109381
0.00130884
0.000325155
0.000990613
0.000102544
0.000311154
0.000480997
-0.000360675
-0.000315324
0.000116901
0.000249358
-8.20744e-05
0.00180518
0.000533229
0.00157787
0.000193114
0.000551077
0.000240568
0.000314097
0.0011192
0.00028223
-0.00110251
0.00155629
0.000374728
0.00125825
0.000120384
0.000391862
0.000447047
-0.00043853
-0.000266665
5.50405e-05
0.000329599
-0.00180388
0.000150875
9.13467e-05
0.000939432
0.000198662
0.00206758
-0.000618617
-0.000205065
0.000558627
0.000200063
0.000867102
0.000184348
0.000225484
0.000429627
8.75425e-05
0.000332004
-0.0039968
0.000552102
-7.36513e-05
-6.02215e-05
0.000205415
0.000383833
0.000130201
0.00163841
0.000190077
-0.000173197
-0.000155146
0.000117664
0.000310095
0.00183009
0.000386601
-0.000251431
0.000189027
0.000127593
0.00035962
-0.00521885
0.000122294
-0.000409504
-0.00022343
6.6636e-05
0.000276639
-0.00111234
0.00043146
-0.000372844
-0.000139752
0.000209264
0.000299697
0.00109658
0.000506281
-0.000391568
-0.00024821
0.000116963
0.000264126
-0.000892663
0.000221851
-0.000322493
-0.000219773
0.000205057
0.000271067
-0.00118933
0.000393287
-0.00015179
-0.000126026
0.00043449
0.000342993
-0.00235158
0.00270964
0.000719766
0.00256716
0.000427423
0.000741081
0.000728698
-9.31068e-05
-0.000179112
0.00026756
0.000356246
0.000543119
-0.000401222
0.000204572
0.000185228
0.000271954
-0.000185197
-0.000924111
0.000181196
0.000344677
0.000244616
0.000233527
0.000347006
-0.000615703
-4.12266e-05
-0.00115277
-0.000278477
-0.00012627
7.9961e-05
7.74316e-05
-0.00192655
0.00218838
0.00061662
0.00169418
0.00039566
0.000716243
0.00015259
-0.000442887
-0.000295472
0.000171776
0.000237773
6.63402e-05
0.00232569
0.000686092
0.00203736
0.000377768
0.000733501
-0.000448228
-0.000278453
0.000270556
0.000283979
-0.000691418
-0.00099037
-0.000154163
-0.000149713
2.46066e-05
5.33515e-05
4.99801e-05
-0.00367264
-0.000190975
0.000133011
-0.000252912
-6.65986e-05
-0.000300819
0.000388419
-5.64987e-06
-0.000195309
-4.64958e-05
0.0004437
0.000218167
-7.52135e-05
-0.000757541
-0.000125208
-3.40154e-05
-5.15871e-05
-0.000450535
-0.000171687
-9.30441e-05
2.69315e-05
-0.00228683
0.000298759
-4.05668e-05
-0.000541288
-0.000104083
-3.07839e-05
-4.83042e-05
-0.000492037
-0.000107308
-3.98282e-05
-3.4313e-06
-0.00431409
-0.000126806
-0.00011899
-0.000684629
-0.000137759
-0.000117324
-0.000120989
-4.89568e-05
-1.40338e-05
1.73632e-05
-0.000433624
-0.000139528
-0.000410718
-0.000252638
-0.000140598
7.92358e-06
-0.00193845
-0.00054626
-0.000169505
-0.00092842
-0.000187827
-0.000145836
6.27122e-05
9.54758e-05
0.000403666
0.000666977
-2.23072e-05
0.00426334
-9.07882e-05
-0.000620893
-0.00024578
-0.000243563
-5.34018e-05
-0.00108081
0.0013227
-0.000190013
-0.000283048
0.00056093
0.000255156
0.000297905
0.00120611
5.35444e-05
-0.000342127
-0.000131877
6.84999e-05
0.000204865
0.000119592
-0.000516939
0.000151161
-0.0115794
0.00144144
-0.00282201
4.85984e-05
0.00104564
0.000148028
-0.000187293
-0.000296394
-0.000117432
3.35046e-05
7.07995e-05
-0.00102637
5.08582e-06
-3.32058e-05
7.77226e-05
-9.13661e-05
2.32699e-05
-1.25236e-05
-0.000345803
3.3571e-05
0.000658883
-1.95229e-05
-5.6685e-05
7.61334e-05
-1.80836e-05
-0.0012264
6.96037e-06
0.000126718
4.36173e-05
-9.28445e-05
5.32419e-05
4.66724e-05
-0.00014286
7.87114e-05
0.000252052
-0.000391584
-5.38082e-05
0.00052293
6.75835e-05
-0.000175114
-5.22666e-05
-4.07351e-05
9.62951e-05
-0.000531876
-4.34995e-05
4.08653e-05
-7.01378e-05
-1.65248e-05
3.81264e-05
2.97826e-06
-0.00020625
4.1028e-05
-4.81621e-05
4.63081e-05
8.07668e-05
6.226e-05
6.60989e-05
0.000756966
4.79625e-05
0.000201946
0.000470741
-0.000135605
9.65999e-05
4.60469e-05
-0.000769869
0.000440236
-0.000137708
-8.70349e-05
0.000222212
0.000128067
0.000177438
0.00142498
8.88395e-05
5.41014e-05
-4.27959e-05
-0.000155567
0.000124794
0.000140313
0.00237486
-8.82224e-05
-0.000119727
0.000170288
0.000162049
0.00020564
-0.000894722
0.000384362
-8.87922e-05
-6.48169e-05
0.000178784
0.000174142
-0.000224241
0.000289305
0.000201356
-1.46012e-05
0.000279761
5.87872e-05
0.000888705
-0.000294955
-0.000193108
-0.000846994
-0.000210903
-0.000126659
-2.57316e-05
-0.000200189
-0.000190348
6.04573e-06
2.13427e-05
-3.15614e-05
-0.0024009
-0.000553981
-0.00239181
-0.000517693
-0.000631767
0.00021711
0.00427645
-0.000328677
-0.000234137
0.00268652
-0.00201317
-0.000438115
-0.00218064
-0.000400329
-0.000481918
0.000113413
7.34889e-05
-0.000426468
-5.33828e-05
0.000868246
-0.000139034
-8.73038e-05
-0.00075059
-0.000155564
-8.32638e-05
0.000359695
0.00209492
-0.000236654
-9.36761e-05
-5.14979e-05
5.29866e-05
6.39127e-05
-3.46842e-05
-0.000233858
-9.89117e-05
2.56273e-05
7.45522e-06
-0.000114449
-0.000178206
-0.000142543
-2.55037e-05
-7.37111e-05
-9.58729e-05
-1.11133e-05
-0.000347269
-6.05429e-05
4.09738e-05
2.90467e-05
-7.15317e-05
-0.000288987
-7.8227e-05
-1.16867e-07
0.000110584
6.37446e-05
-7.26637e-05
-0.000443248
-0.000125341
-1.6176e-05
0.000744035
0.00281299
-0.000204534
-4.36119e-05
-6.71054e-05
0.0220392
9.53893e-05
0.000519491
0.00130564
-0.00168707
-8.20264e-05
-0.000172275
0.00476364
-8.00302e-05
-0.000139277
-0.000850431
-0.000160601
-0.000103271
-4.17588e-05
-6.53644e-05
-0.00025797
3.32407e-05
6.3995e-05
-0.000432783
-6.71107e-05
-8.09644e-05
-0.000358057
-0.000106594
-4.59545e-05
-1.96941e-05
-5.16237e-05
-0.000142842
-3.76399e-05
3.44047e-06
0.00110881
-0.000103565
-0.000108038
-0.000531126
-0.000140636
-6.82039e-05
5.61297e-05
-0.000118204
-0.000112432
1.49848e-05
2.42795e-05
0.000922427
-0.000540269
-7.26556e-05
-0.00053408
-9.69574e-05
-9.40873e-05
-1.87185e-06
9.09647e-05
-0.000105724
9.0403e-06
-4.57099e-05
0.00261903
0.00054044
4.43108e-05
-0.000234857
-4.637e-05
0.000125491
7.98867e-05
-0.000131072
-0.000244065
-0.000113159
1.75418e-05
-9.09116e-05
0.0019919
0.000464706
0.00172327
0.000265601
0.000529164
0.000610613
0.00017582
-0.000211223
0.000279768
0.000135663
-0.000188641
0.000226509
8.82665e-05
1.53255e-05
-1.76437e-05
0.00018049
0.000391577
-0.0085055
-1.22429e-05
0.000173222
-0.00011391
0.00350466
0.000128772
5.96668e-05
-0.000129463
4.33295e-05
8.50985e-06
-0.000169774
0.000337324
-0.000510202
-0.000130401
0.00015719
-0.000118476
-0.0002231
0.000586286
8.42343e-05
0.00029874
-3.75651e-05
0.000115074
-2.45394e-06
-0.00096333
-0.000207603
-0.000827401
-0.000100395
0.0112232
0.000429398
0.000145761
0.000359488
7.31021e-05
0.00017098
0.000128208
-0.0386804
5.47829e-06
-3.36092e-05
-6.65063e-05
-0.000133477
0.0002591
0.000431742
-9.77985e-05
-2.22538e-05
-0.000107836
-0.000247179
0.000686787
0.000148033
0.000442673
2.97085e-05
9.07766e-05
2.98317e-06
0.00027669
-0.000148067
-0.000254782
-3.7057e-05
-0.00555154
0.000303508
4.29433e-06
-0.000101422
0.000285456
0.000144674
0.000182393
0.00302415
0.000258683
-6.85453e-06
-1.30977e-05
0.000111779
8.24226e-05
0.00012473
-0.00187468
0.000102434
-4.59936e-06
0.000184324
-0.000128106
0.000128435
-8.51938e-06
0.00787152
0.000203874
-0.0172823
-0.00254365
0.000243668
2.22577e-05
0.00363297
-1.6607e-06
-0.00064403
-9.58495e-05
4.89814e-05
1.07216e-05
-0.00525324
0.000250407
-0.000753436
-0.000334926
0.00026346
-0.000183115
-0.00158779
-0.000514958
-0.000124278
-0.000158807
-3.58173e-05
-8.85484e-05
-0.00102385
3.28237e-06
-0.000483125
-0.000281886
-0.000135433
-9.79558e-06
-5.37236e-05
-0.00333021
-0.000174482
-3.52037e-05
-0.000325352
-8.63242e-05
-6.53558e-06
0.000258869
-0.000482702
-0.000333536
-0.000147966
-0.000114221
0.00222139
-0.000322727
2.41648e-05
-0.000152105
1.84416e-05
7.3493e-05
0.00608305
9.88268e-06
-0.000334633
-6.95505e-05
-7.78833e-05
2.47113e-05
0.000109907
-0.0017997
0.000839279
-2.42856e-05
3.60114e-05
0.000584922
9.88268e-05
0.0295407
0.000494453
-0.000620313
-0.000187958
9.94849e-05
-0.000201137
-9.39281e-05
-0.000252959
-0.000225929
-0.000242887
-0.00198739
-0.000232621
-0.00048577
-0.00013526
-8.71941e-05
-0.000324382
-0.00011882
-0.00293603
-5.43705e-05
0.000102101
6.49581e-05
-0.00280508
-0.000129049
-7.64747e-06
-1.78925e-06
2.70086e-06
-0.000287015
8.79127e-06
-0.000847109
0.00011121
6.13394e-05
0.000391551
0.000230854
0.000667202
-2.46731e-05
0.000688003
9.93741e-05
0.000142606
-0.000207447
0.000212321
0.00317438
0.0018793
-0.000487033
-3.39439e-05
-8.69625e-05
-0.0028545
-0.0001972
-0.000389279
-0.000137457
-9.47651e-05
-0.000313481
-9.55375e-05
-0.00504441
-0.000586993
-0.000183838
0.000132647
-0.000247217
-0.000339269
6.34773e-06
-0.000462292
-0.000132826
-8.74914e-05
-0.000411703
-0.000125812
-0.0142609
9.10612e-05
-0.000236892
-0.000106091
-2.34013e-06
-0.000858782
-9.97848e-06
1.30119e-05
-1.49569e-06
-1.60127e-05
-0.000247079
6.24268e-05
-0.00233886
0.00274805
-0.000233434
4.48068e-05
0.000170741
-0.00130584
0.00014318
0.000224384
8.3385e-05
3.02997e-05
-0.000335279
0.000111864
0.0240256
0.000330196
-3.88557e-05
-0.000113578
6.12098e-05
-0.00149877
-0.000206014
-9.66955e-05
-1.21787e-05
4.01884e-05
-0.000375026
6.9484e-05
-0.00147071
-0.000411833
1.33168e-05
6.71643e-06
0.00012194
-0.000661095
-3.8463e-05
2.49343e-05
1.31623e-05
2.339e-05
-0.000305784
9.13932e-05
-0.0152204
-0.0125448
-0.00106623
-0.000313383
-0.000307367
-0.000207592
-0.00232154
1.91406e-05
-0.000291987
-0.00013803
-0.000178925
-0.000328409
-0.000206706
-0.000802863
0.00911449
-0.000164238
0.00111226
0.000225916
0.000383644
-0.00036752
-0.000330591
0.000335727
0.000496234
0.000539155
-0.000264415
0.000665687
0.000100635
-0.000255904
-0.00016321
5.406e-05
5.07316e-06
-0.00050568
-0.000116964
-3.36378e-05
2.03048e-05
4.63679e-05
-0.000249224
8.71599e-05
0.00103798
-6.80897e-05
-0.000186378
7.23034e-05
0.000270636
-0.000146513
0.000485377
-0.000163846
6.55256e-05
5.21224e-05
-0.000358354
0.000137541
0.0199204
-0.000251552
-0.000259645
-0.000120077
-2.02208e-05
-0.000460396
-0.000151531
-0.000124577
-1.64902e-05
3.90543e-05
-0.00025293
4.67347e-05
0.000229977
0.000745331
0.000379073
-0.000189035
0.000122237
0.000190053
-0.000472254
0.000358617
0.000573924
7.95969e-05
2.38256e-05
-0.00026543
0.000170415
0.0281432
-0.00130713
-6.02724e-05
-2.47428e-05
-0.000808427
-0.000234022
-0.000140446
2.04752e-05
0.000100677
-0.000263121
-0.00850208
-3.25295e-05
-0.000259746
0.000178518
-6.48577e-05
0.00139544
-0.000947712
-0.00047731
-9.12266e-05
0.00111878
0.00115392
0.00128563
0.00141005
0.00136339
0.000916617
-0.000641088
-0.000932113
-0.000527335
-6.59792e-05
0.000195062
-0.000239949
-0.000604001
-0.000246763
-0.000274022
-0.00154851
-0.00117595
-0.000787153
-0.000856771
-0.0012256
-0.000965091
5.37819e-05
-0.000756149
-0.000320084
-0.000388445
-0.000324887
-0.000178341
-0.000650635
0.000213105
-0.000784724
0.000873609
0.0002823
-0.000658533
-0.000771287
-0.000281537
-0.000738756
-0.000247395
-0.000425652
-0.000354239
-0.00245552
-0.00125668
-0.000507788
0.00175791
0.00252609
0.00112146
-0.000616032
0.000724445
-0.000138469
-0.00118784
-0.000594339
-0.000687511
-0.000628912
-0.000761318
-4.90203e-05
-0.000792571
-0.00130038
-0.00139347
-0.000423542
0.000491345
0.00157394
0.000791289
0.000607595
-0.000901872
-0.000840069
-0.000602678
-0.000833518
-0.000936037
-0.000601165
-0.00105614
0.000306729
0.000346175
-0.000138303
-0.000265159
-0.000842212
-0.000819497
-0.00100974
-0.000500966
-0.000288781
-0.000737288
0.00273719
-0.000376107
3.72133e-05
0.00045291
0.000147613
-0.00011614
0.00013368
0.000138683
0.000492408
-0.000173362
-0.000890494
0.000291077
0.00027552
-0.000812717
0.000161145
-0.000893575
-0.00054132
-0.000368528
-0.00179423
-0.000751463
0.000891285
0.00411921
0.00332579
-0.000806565
-0.00116227
-0.00124998
-0.00111133
-0.00062859
-0.000846211
-0.000388017
-0.000841586
-0.000783078
-0.000595061
-0.00361821
-0.00233762
0.00239817
-0.00262906
-0.000500271
-0.000321084
0.000147557
0.0295532
0.000937298
0.0143455
-0.00152978
-0.00272853
0.00208182
0.00230268
-0.000311576
-0.00158327
-0.0651617
0.00278144
-0.000387915
0.00120754
0.000246176
0.00236838
-1.25962e-05
0.000788247
0.000370911
-0.00177627
0.000485914
0.00103903
0.0020076
-0.00296635
-0.000968488
-0.0107454
-0.00194903
-0.00501415
-0.00293964
-0.00423887
-0.000639372
-0.000412195
-0.000706714
-0.000633235
-0.00232404
0.000248219
0.00116888
0.000452667
0.000687695
9.26969e-05
0.00141075
0.00227567
0.00125318
0.0017549
-0.000610287
0.00285606
-0.00138381
-0.000728409
-9.25801e-05
-0.000655208
-0.000948634
-0.000994203
0.00514559
-0.0325376
-0.000730713
0.00848715
-0.00919637
0.00235381
0.000534342
-0.00249368
0.00233547
-0.000326278
-0.000332713
-0.00169657
-0.00129957
-0.000780003
-2.76037e-06
0.000872526
-0.00124331
-0.000759929
0.000334983
0.000504863
-0.00340504
-0.0252466
-0.0317229
-0.0314643
-0.00969887
-0.0198123
-0.000669625
0.00278881
0.00388132
-0.00428029
0.0295226
0.000142046
0.00164715
0.0184035
0.00616253
0.00161378
0.000866197
-0.00333717
0.00107204
-0.00140476
0.00846867
0.00494344
0.00560039
0.00535286
0.00529928
0.00253297
-0.00500358
0.0227057
-0.00138585
0.00220417
0.00193005
0.000103959
0.000196577
0.000151749
0.00178487
0.0124198
0.000166185
0.000877796
0.00288332
-0.00192864
8.40004e-06
-0.00136649
0.0031948
0.00190075
0.00408671
0.00394693
-0.000491232
0.000577528
-0.00130314
0.00425141
0.000155702
-0.000112832
0.000312564
0.00104997
0.00993531
0.00122412
0.000942421
-0.000632705
2.49281e-05
0.000312908
0.00103702
0.00153453
-0.000464521
0.0009803
-0.00360929
-0.00257804
0.00134615
0.000672575
-0.00217631
-0.00631374
-0.000499245
-0.0116919
-0.0246762
-1.33572e-05
-0.00147485
-0.00103897
-0.0113271
-0.00286023
-0.000829485
-0.00261215
-0.00390268
-0.001718
-0.00118642
-0.00399761
-0.0063658
-0.000721699
-0.00112872
-0.000823855
-0.00698816
-0.00922271
0.00132879
-0.000238349
0.00176037
0.000534701
-0.00125507
-0.009585
-9.67888e-05
0.000543472
0.00320134
0.00325474
0.00988864
0.00251553
-0.00160391
-7.61932e-05
0.00180498
-0.0052075
-0.00805523
-0.00641082
-0.00144767
0.000353671
-0.00722507
-0.0032645
0.00171792
9.41094e-05
-0.00102403
-0.000749731
-0.0051316
0.000314819
-0.00158084
-0.000786275
-0.000603858
-0.00220127
-0.00261063
-0.0008359
-0.00139917
0.00299737
-0.000695121
-0.000447393
0.00543994
-0.000536606
-0.0041371
-0.000279694
0.00047795
-0.00294642
-5.4995e-05
-0.00048399
-0.000425725
-0.00325128
-0.00103494
-0.00135609
0.00431999
-0.000690277
-0.00248459
-0.00130615
-0.00149559
-0.000275768
-0.00181539
0.0091853
-0.00115562
-0.00482822
0.00497293
-0.000940208
-9.68157e-05
-0.00220879
-0.00451293
-0.0013906
-0.000915291
-0.000590463
0.00888979
-0.00238531
-0.00186506
-0.00308087
-0.00262371
-0.00113533
-0.00118652
0.000139785
-2.97177e-05
-0.00276337
-0.00160628
-0.00300955
0.000849651
-0.00516862
2.59125e-05
-0.000530222
-0.00505742
-0.00196128
-0.0087872
-0.00143783
-0.00262806
-0.000564668
-0.0100316
-0.00266574
-0.000785533
-0.0020007
-0.0034009
-0.00301615
-0.00568352
-0.00167314
-0.00457798
-0.0227562
-0.0043321
-0.00458152
-0.000213096
-0.000566173
0.000359132
-0.00203451
-0.0612347
-0.0737702
-0.0745726
-0.0119492
-0.0157236
-0.0162938
-0.00230781
5.77653e-05
0.00160584
-0.00137404
-0.00118739
-0.0202484
-0.00300464
0.0139181
0.00524049
-0.000235923
0.00472309
0.00557458
0.00130099
0.00385081
0.00113679
0.0135564
-0.000383718
-0.00279763
-0.00209972
-0.00102113
0.0435738
0.00281644
0.000482596
0.00114181
0.000423866
0.00919504
0.00816218
0.000319076
-0.0021428
-0.00239933
0.0470556
0.0116064
0.00109124
-0.000113188
0.000381043
-0.00192835
-0.00104263
0.000458645
-0.000452231
-0.000160079
-0.00734994
0.0156525
0.00283745
0.00227755
0.00633841
0.00411233
0.00158574
0.017566
-0.00157847
0.00475637
-0.00032698
0.00293192
0.000784115
0.00578887
0.00127108
0.00154091
0.000668405
0.0111401
0.00121546
0.0144458
0.000932519
0.00364281
0.00065031
0.0173597
0.00121163
0.0163141
0.000761965
-0.00404902
-0.000494309
0.00544229
-0.000319624
-0.000714437
0.0101186
0.00191573
0.00447994
0.000415492
0.00341585
-0.0578891
-0.00235977
-0.00150218
-0.00571033
-0.00431397
-0.0139583
-0.000996794
0.0075006
-0.000456401
-0.00304765
-0.00188577
-0.000354659
0.000680105
-0.0078875
-0.00170812
-0.000814262
-0.0278122
-0.00183367
-0.000305449
-0.00031972
0.00268413
0.00541113
-0.00198745
0.00187672
-0.00220818
-0.0096553
0.0177561
0.00100493
0.00641641
0.000843161
0.00966059
0.00152523
0.000994571
0.00154821
-0.00112758
-0.000830821
-9.21134e-05
-0.000608564
0.00235271
0.000658053
0.000342286
0.00148068
0.00575981
-0.0269259
0.000436501
0.000303059
-0.000270876
-9.37829e-05
-0.000850626
-0.00246102
0.00805006
-0.000427771
-2.93769e-05
0.0162973
-0.00162963
0.00132031
-0.0239761
0.0019901
-0.0990374
-0.00191586
0.0175518
0.00141745
0.000540325
0.00322586
-0.0200184
0.00478303
0.00200996
-0.000581716
-0.00172942
0.0116049
-0.00169058
0.000303592
-0.000316915
-0.000751941
0.0107857
-0.00662576
0.000230136
-0.0116196
0.000415455
-1.86103e-05
0.0109691
-0.000508123
0.00248761
0.000628664
-0.0112585
-0.0239647
-0.0146051
-0.0254299
-0.000536711
-0.000506768
-0.000571907
-0.00388381
0.008459
0.00455563
-0.000111011
-6.72501e-05
0.000454997
-0.00133376
-0.000807471
-0.000757836
-0.00240086
0.000228637
-0.0323781
-0.000572865
-0.000220753
0.00809772
0.00125725
0.00908122
-0.00313526
-0.000675558
0.00108886
-0.00229875
0.000700536
-0.025387
0.000536643
0.0025292
0.00265031
0.00218668
0.00298226
-0.002221
-0.00314268
-0.000506215
-0.00146405
-0.0272854
0.00207353
-0.000916852
-0.00189856
0.0011874
-0.00172484
0.00581844
0.0161759
0.0143822
0.0148737
0.0104578
0.000203169
-0.000209894
-0.000485536
-0.000167471
-0.000388707
0.000598651
0.00252784
-0.00025975
-0.00071476
-0.000817834
-0.00102407
-0.00345172
0.00639253
0.00163725
0.000913352
-0.000929094
-0.00112537
0.00570957
0.0244629
0.00420528
0.000658443
-0.00130671
0.000614138
0.0108867
-0.0296724
-0.0339747
-0.000337235
0.000283369
-0.00323288
-0.0018623
0.00323323
-0.00110935
-0.00347815
-0.00466217
0.00116382
-0.000818094
-0.000749002
-0.000496521
-0.000449061
-0.00124128
-0.0031987
-0.0118038
-0.000169591
-0.0197576
-0.00653785
-0.00613962
-0.0206465
0.0191342
0.00252127
0.00466413
-0.00143385
0.012026
0.016174
-0.00277588
-0.000808904
0.00955409
0.0255581
-0.0114694
-0.000117656
0.00608965
-0.000970193
-0.0224071
0.00281209
0.00193697
0.00104465
-0.00118974
0.00341631
-0.00218176
0.00578734
-0.0121563
0.0163615
-0.00226991
-0.00608856
-0.00732637
-0.00219569
0.000622727
0.00385834
-0.000660127
0.000133975
0.00013801
-9.52228e-05
0.000428583
0.0111868
0.00150501
-0.00010296
-0.0418397
-0.08485
-0.000729953
-0.0197515
-0.0345639
0.00408394
0.0031184
0.0010724
0.00324139
0.00351553
0.0108049
-0.00179525
0.00271097
-0.00131741
-9.67968e-05
-0.000190643
-0.0135811
-0.0379688
-0.000832444
-0.00318542
0.0172915
-0.00209611
0.00463027
0.00586172
0.00160845
-0.000142905
-8.73632e-05
0.000826336
0.000194429
0.000251999
-0.000301804
0.000240583
0.000334447
0.00154421
0.00141405
0.00142467
0.00287803
0.00160276
-0.0183402
-0.00150979
-0.00109217
0.00521421
-0.00315842
-0.00017795
0.00230256
-0.00609184
-0.00130379
0.00390684
-0.00119367
0.000558366
-0.000182592
-0.00253694
-0.000449718
-0.00540195
-0.000833549
-0.0147398
-0.000204643
-0.00323939
-0.000861107
-0.0018488
-0.000913787
-0.00314869
-0.000547114
-0.00115114
-0.000850293
0.000320908
0.000800071
-8.8423e-05
0.000133549
0.000536242
0.000342278
0.00156237
0.000710029
0.000712172
0.000348947
-0.000770205
0.000727156
-0.000194048
0.0015828
-0.00472275
0.000789457
0.00121678
0.000764092
0.000893509
0.00147847
0.00163762
0.00152418
0.000361618
0.000812423
0.000124912
0.000489364
0.000524682
0.000150182
-0.0016542
-0.000165375
-0.000774572
-0.000690629
-0.000441722
0.000710256
0.000165408
-0.00296728
-3.67309e-05
0.000297551
0.000212164
0.0011361
0.000861272
-0.000256761
0.000820049
0.000454209
3.33883e-05
-0.00244812
0.0010706
0.00017448
1.48782e-05
0.000405365
-0.000395509
0.000849045
2.92944e-06
-0.00110249
0.000409579
0.000286623
-0.000188012
-0.000215829
-0.000141998
-0.000161841
-0.000699246
0.000554818
-0.0154037
-0.000304171
-0.000627473
-0.00221462
-0.0157565
4.90974e-05
-3.9859e-05
-0.000359079
-0.000100679
-5.27978e-05
-0.00150565
-0.00239952
-0.000977682
-0.000883547
-0.00366691
-0.00863766
-0.000817044
0.00140593
-0.000319466
-0.00873961
-4.72953e-05
-0.000672785
0.000557172
0.000274446
0.00451289
0.000813927
-7.7917e-05
-0.000207995
-0.00217739
-0.000516843
-0.00304033
-0.000576463
-6.66278e-05
0.00124105
-0.000913893
-0.000696525
0.00150356
-4.49852e-05
-3.67616e-05
-0.000428942
-9.08989e-05
-8.8346e-06
-0.0108223
-0.000553233
-0.000437455
0.000305691
3.46835e-05
-0.00545971
-0.000281036
0.000727391
-0.000609878
-0.000864942
-0.000554191
-0.000279539
-0.000508614
-0.00213641
-0.00107515
-0.000369359
0.0154704
-0.00179779
-0.000888617
-0.000163475
-0.000924189
-0.000188697
-0.000284618
-0.000199382
-0.000650941
-0.000479618
-0.000409649
-0.000373872
-0.000330557
-0.000139251
-0.0315218
-0.000210437
0.000820138
-1.97004e-05
-0.000606544
6.58457e-05
-0.000220951
-0.000409857
-0.000264716
-0.000624605
-0.00268531
0.00068076
-0.000400129
-0.000235347
-0.000416688
0.000711679
0.000101117
0.00024458
1.64123e-05
0.000102813
-0.000421613
-0.000998416
0.000622058
0.000361541
-0.000176087
-0.000176252
0.000284013
-0.000680599
0.000169731
0.000233397
-0.000454962
0.000107354
-5.68768e-05
-0.000200426
-0.000340308
-0.00131644
-0.000867783
0.000292046
0.000211175
0.000306047
0.000148661
-3.4506e-06
-8.36167e-05
-4.81403e-05
-4.42431e-05
-0.00171633
-0.00310568
-0.000345412
-0.00100117
-0.00155341
-0.00128346
-0.000316469
-0.000796321
-0.00127293
0.00165019
0.00096218
-0.0018087
-0.00015338
-0.00027238
-0.00046495
-0.00143678
-0.000509947
0.00356434
-0.00230522
-0.00195034
-5.93325e-07
-4.21931e-05
-0.000345273
-0.000118453
-1.46943e-05
-0.00043578
0.00163224
-0.00223955
0.00106899
-0.0036594
-0.00673911
-0.00465347
-0.000381198
-0.000673794
-0.00853399
-0.000105839
-0.00195211
0.00127317
0.000288048
-0.000203346
0.00023789
-0.000126446
-0.000214255
-0.00451227
-0.00110908
-0.00217694
-0.000820291
0.00227556
-0.00297106
-0.00523031
-0.00288738
-0.00275481
-0.00135416
-0.000225401
-0.000217607
-0.000421234
-0.000193805
-0.000352507
0.000453431
-0.000573381
-8.86141e-05
-0.000219655
-0.000682172
-0.000330966
0.00138385
-0.00103657
-0.000925126
-0.00110718
-0.00136201
-0.000390452
-0.000658629
-0.00316933
-0.00107613
-4.65219e-05
-0.000774399
-0.000619944
-0.000343198
-0.00902259
-0.00214493
-0.0008563
-0.00091039
-0.000365223
-0.000277277
-0.00259218
-0.000419769
9.38536e-05
-0.00030051
-0.00084514
-0.000239811
-0.000647156
-0.00253739
-0.000771105
-0.0001934
-0.000437612
-0.00028987
-0.000170036
-0.000249816
-0.0024304
-0.000552776
6.85241e-05
-0.000494376
-0.000834631
-0.000196893
-0.000453159
-0.00267992
-0.000474762
-0.000167024
-0.00101502
-0.000245491
-0.000124215
-0.000213843
-0.0009648
-0.000315877
-0.000364785
-0.00100557
-0.00153148
-0.00201063
5.56376e-05
-0.000299342
-0.00029715
-0.000237181
-5.32134e-05
-0.00134529
-0.00053572
-0.000323942
-0.000251638
-7.46366e-05
-8.29171e-05
5.21916e-05
-0.00120172
-0.000924098
5.60071e-06
-0.00469027
-0.00330789
-0.000421841
-0.000103266
-0.000125466
-0.000327618
-0.000134982
0.000693757
-0.000450182
-8.80278e-05
-0.000470377
-0.00124297
-0.000811488
0.000121032
0.000117276
-0.000491089
-0.000151027
-0.000361431
-0.000428298
-0.000557093
0.000105031
-0.000239634
-0.000321233
-0.000146267
-0.000302309
0.000824698
-5.59164e-05
-8.56099e-05
-0.000554357
-0.000139304
-0.0001135
-0.00403974
0.000650389
0.00127325
0.000735815
-0.000294212
-0.0115181
-0.000141989
-8.48912e-05
-0.00054677
-0.000174518
-0.000134093
-0.000572994
0.000822291
-0.000788929
0.000148096
-0.0002338
-0.000837539
-0.00205757
-0.00070018
-0.000399898
8.05589e-06
1.9436e-05
-0.00272944
0.00075042
-0.000299243
-4.38976e-05
-0.000281989
-0.00134461
-0.00140409
-0.000682182
-0.000610542
2.44501e-05
2.02374e-05
-0.0045438
2.81114e-05
-0.00174281
-0.000527628
-0.000218566
3.78522e-05
8.86897e-05
-0.00534202
-0.000738431
-0.000648309
-0.00042633
-4.37e-05
-0.000215595
-0.00113839
9.05885e-05
-0.000137766
-0.000702994
-0.000190635
-0.000134579
-0.000523384
-0.000808818
-0.000288254
-0.000212888
-0.0138343
0.00420811
0.00141819
0.00416041
0.000882487
0.00162159
0.00136415
-0.000234067
-0.000750781
0.00109632
0.000402072
-0.000246399
-0.000475391
-0.000837355
0.00062829
0.000512156
0.000150297
0.00307217
0.00182004
0.000590895
0.000331213
0.0294357
0.00161829
0.000461954
0.00158204
0.000243443
0.000441222
0.000713839
-0.000325058
-0.000528056
0.000375057
0.000254558
0.00299556
0.00222972
0.000689068
0.00217128
0.000374657
0.000677544
0.000414428
0.00135382
0.00246775
0.000303864
0.00393415
0.00176845
0.000481566
0.00165529
0.000241358
0.00049841
0.000707363
-0.00061348
-0.000428975
0.000188054
0.00036756
-0.00112214
0.000393689
0.000708347
0.00152072
0.000182437
0.00835115
-0.000841182
-0.00030969
0.00110877
0.000183645
0.00330504
0.000266044
0.000618856
0.0018152
0.000322917
0.000348505
-0.00593965
0.000611383
0.000194832
0.000274509
0.000534287
0.00043084
9.7781e-05
0.00828386
0.000299624
-0.00012708
-0.000273894
0.000329124
0.000349244
0.00759354
0.000483135
-0.000227441
0.00107676
0.000337274
0.000391728
-0.00971841
0.000267893
-0.000454012
-0.000357707
0.000247985
0.000337643
0.000272719
0.000549093
-0.000380885
-0.000248009
0.000497729
0.000333287
0.00638922
0.000700429
-0.000441993
-0.000422535
0.000287377
0.000284285
0.00036844
0.000353999
-0.000288961
-0.000408112
0.000411217
0.000306816
-0.000581052
0.000540144
-0.000110221
3.18661e-05
0.000843588
0.000376429
-0.00222245
0.00304031
0.000847528
0.00310998
0.000632423
0.000852869
0.000973462
-1.41665e-05
-8.51529e-05
0.000546619
0.000373
0.000601625
-0.000371289
0.00119988
0.000442294
0.000272625
-0.00024357
0.000681613
0.000209018
0.000717431
0.00113631
0.000604915
0.000372104
0.00252454
-1.0769e-05
-0.00177348
-0.000490239
-0.000111736
3.87123e-05
2.7599e-05
-0.00301495
0.00258706
0.000822616
0.0024588
0.000610839
0.000870389
0.000248702
-0.000623784
-0.000600975
0.000364441
0.000229747
0.00181555
0.00277667
0.000818803
0.00273441
0.000552179
0.000820272
-0.000639876
-0.000549322
0.000545975
0.000320945
-0.000619563
-0.00152423
-0.000128663
-0.000136808
-3.56792e-05
-4.00957e-05
-1.72177e-05
-0.00708467
-6.11826e-05
0.000897931
-0.000307991
-0.000194346
0.000997142
0.000852618
0.000430923
-0.000177007
-0.000151474
0.00342153
0.000247848
-7.68564e-05
-0.000672896
-0.000134882
-3.01963e-05
-9.59082e-05
-0.000770763
-0.000258742
-8.7948e-05
-2.30016e-05
-0.00495235
0.000356561
-2.74509e-05
-0.000349685
-9.80314e-05
-1.75662e-05
-9.07946e-05
-0.000794747
-6.81596e-05
-1.50509e-06
-5.07063e-05
-0.00918989
-0.000384814
-0.000158465
-0.000760419
-0.000168766
-0.00015909
-0.00016162
0.000212504
0.00014883
-8.8518e-05
-0.000391618
-0.000228007
-0.000532759
-0.000508792
-0.000162936
-8.62879e-05
-0.00384863
-0.000797993
-0.000179307
-0.000919503
-0.000203362
-0.000159339
-9.24637e-05
0.000312384
0.00204391
0.00150682
-0.000142748
0.00856145
-0.000139994
-0.000781111
-0.000411106
-0.00031265
-0.000181086
-0.00184494
0.0015372
-0.000215919
-0.000557786
0.000711808
0.000225749
0.000398776
0.00486245
0.000112346
-0.000435509
-6.60113e-05
0.00016828
0.000178706
0.000116225
0.000759452
0.000145166
-0.0191297
0.00486958
-0.00481427
-6.64469e-05
0.00229344
0.000247913
5.62005e-05
-0.000558368
-0.000161586
-6.73572e-05
1.68424e-05
-0.0010928
4.10044e-06
0.000169949
0.000675906
-0.00013535
-6.42983e-05
-8.99581e-05
0.00394078
8.26993e-05
0.00123907
0.00030873
-3.95271e-05
2.17492e-05
-7.55629e-05
-0.00011332
1.3176e-05
0.00036527
0.000541523
-0.00012819
-2.40848e-05
-1.81748e-05
0.00337381
0.000173963
0.00133319
-0.000453389
-0.00019169
0.00316528
0.000101874
-0.000122711
0.000167388
-2.54379e-05
4.30347e-05
0.00127587
-6.69217e-05
0.000245427
0.000117187
-5.81225e-05
-5.36419e-05
-7.57871e-05
0.00235334
4.89729e-05
9.28694e-05
0.000518212
0.000151759
-2.89365e-05
-3.70712e-05
0.00546066
7.46574e-05
0.000535657
0.00179821
-0.000211639
-2.06726e-06
-6.68273e-05
0.00140348
0.000575458
-0.000106111
0.000159174
0.000337067
4.23195e-05
0.000117554
0.00362717
8.42943e-05
0.000154515
0.000208043
-0.000250706
5.29592e-05
4.99097e-05
0.00916055
-1.01272e-05
-8.45161e-05
0.000303447
0.000111273
0.000154535
-0.000259981
0.000456308
-7.48674e-05
9.15066e-05
0.00031573
0.000125429
0.00160905
0.00037298
0.00030308
0.000356195
0.000559826
-7.88564e-05
0.00180658
-0.000453026
-0.000228622
-0.000849182
-0.000248877
-0.0001673
-1.44295e-05
-0.000256443
-0.000317357
6.59206e-05
-0.000106166
0.000792549
-0.00223919
-0.00054711
-0.00221658
-0.000527125
-0.000602106
0.000571553
0.0107319
-0.000465097
-0.000581609
0.00116837
-0.00194102
-0.000431186
-0.00210094
-0.00040095
-0.00046933
0.000373125
0.000609848
-0.00059639
-0.00016631
0.00479269
-0.000347403
-9.85356e-05
-0.000767222
-0.000177675
-0.000102202
0.000920656
0.00560009
-0.000353602
-0.000245404
-0.000113364
-3.63766e-05
-0.000203047
-6.25402e-05
-0.000246238
-0.000110855
-2.60102e-05
1.28803e-06
-4.13987e-05
-0.000224882
-0.000180112
-0.000139713
0.000209968
-0.000467029
-5.73531e-05
-0.000497381
-8.79379e-05
-9.46571e-05
2.33398e-05
1.56975e-05
-0.000561428
-6.91648e-05
-0.000110911
0.000948029
-3.85507e-06
-9.98166e-05
-0.000398594
-0.000149366
-7.0353e-05
0.0012228
0.0072995
0.000250863
-0.000214541
-0.0002597
0.0321149
-0.000123627
0.00107218
0.00434935
-0.00255795
-0.000225152
-0.000487071
0.0148414
-4.69876e-05
-0.00012038
-0.000705951
-0.000154248
-7.56919e-05
6.77114e-05
4.90305e-05
-0.000301318
-0.000107937
-2.57681e-05
0.00141366
-0.000269924
-8.05344e-05
-0.000127976
-0.000106553
-5.89282e-05
-0.000108252
4.75083e-06
-0.000147494
-7.29072e-05
-0.000145616
0.00570957
-0.000331221
-0.000106437
-0.000349663
-0.000148013
-7.13707e-05
4.86837e-05
-0.000128098
-0.000105602
2.55021e-05
-0.000109099
0.00447777
-0.00092444
-0.000135404
-0.000641256
-0.00037072
-0.000409391
-0.000223672
-0.000570074
-0.00049804
-0.000258349
-0.000329613
0.00172007
-0.000341774
-0.000173733
-0.0010799
-0.000256498
-8.23884e-05
-8.81927e-05
-0.000590194
-0.000751637
-0.000511569
-0.000182074
-0.00174203
0.00194811
0.000475475
0.00182793
0.000279101
0.000563002
0.000798405
-0.000114765
-0.000695807
0.000375866
7.58942e-05
-0.00134276
-0.000155425
-1.8911e-05
-0.000345964
-0.00012314
5.96812e-05
0.000401338
-0.0184531
3.4593e-06
-0.000308892
-0.000348618
0.00148677
8.88172e-05
-0.000724791
-0.000489475
-0.000344567
-0.000112985
-0.00595284
0.000433206
-0.00244124
-0.000285347
-6.33508e-06
-0.000258661
-0.00211519
0.000513591
4.41368e-05
0.000265702
-9.30303e-05
0.000113291
-0.000259256
-0.00265223
-0.000702958
-0.00261922
-0.000243582
0.0139003
0.000382699
0.000142337
0.000376982
7.43495e-05
0.000183765
0.000119948
-0.0590501
0.000244369
-0.000334027
-0.000180891
-0.00306536
0.000154408
0.000203392
1.53887e-05
-0.000193208
-0.000192605
-0.0054866
0.000802655
0.00017608
0.000671988
4.15994e-05
0.000129587
1.83252e-05
-0.000334774
-0.00104435
-0.000903922
-9.735e-05
-0.0165158
0.000487533
-0.000419563
-0.000190439
0.000450478
0.000164605
0.000262148
0.00529245
0.00040654
-0.000393719
8.87045e-05
0.000154195
8.0335e-05
0.000170855
-0.00737117
0.000173164
-0.000457755
0.000806455
-0.000339334
0.000139219
9.34103e-06
0.0127104
0.000308643
-0.0259122
-0.00345158
0.000282648
4.8717e-06
-0.00175179
2.66539e-05
-0.00188746
6.38879e-05
-1.55294e-05
-3.03798e-05
-0.000816255
0.000617909
-0.000647031
-2.12882e-05
0.00137348
-3.81141e-05
0.000425702
-0.000470576
0.000572082
-5.12399e-06
6.33474e-05
2.49323e-05
0.00173828
0.000211014
-0.000399459
-6.35932e-05
-5.28003e-05
7.16345e-05
4.51743e-05
-0.00265991
0.000280796
0.000123527
0.000335668
5.84399e-05
0.000145856
0.000516937
-0.000441662
0.000518809
0.000316935
-9.05419e-05
0.0096219
-0.000210299
0.00138233
-4.60471e-05
1.88169e-05
0.00015193
0.0201424
0.000146761
-0.000238026
0.000420252
1.44041e-05
6.10702e-05
0.000149108
-0.000647455
0.00119335
5.60364e-05
0.00104828
0.0013156
0.000124999
0.0404503
0.000805649
-0.00060975
-4.05658e-05
0.00041786
-0.000232295
0.000246697
-0.000281657
-0.000219567
-0.00028842
-0.00264535
-0.000259915
-0.000580939
-0.000198243
-0.000159638
-0.000653312
-0.000174131
-0.00467433
0.000278448
0.000130142
0.000114763
-0.00398327
-6.22389e-05
0.000209962
8.57599e-06
-4.22727e-05
-0.000549769
-1.74291e-05
0.000524984
0.000553531
0.000217254
0.000503956
0.00038823
0.00144826
0.000373065
0.00237393
0.00021007
0.000171989
-0.0003285
0.000253633
0.0105337
0.00561634
-0.000544257
-0.000162039
-0.000176007
-0.00577787
-0.00011367
-0.000535599
-0.000258649
-0.000216983
-0.000663573
-0.000224587
-0.00826126
-0.00104061
-0.000277772
-0.000119277
-0.000395936
-0.000323444
0.000520574
-0.000699794
-0.000216059
-0.000178304
-0.000958959
-0.000265238
-0.029338
0.00046693
-0.000242348
-0.000119199
-6.147e-05
-0.000953446
0.000417051
0.000189539
-5.14692e-05
-0.000127479
-0.000525111
-4.06921e-05
-0.00427355
0.00615853
-0.000188214
-8.3396e-06
0.000105742
-0.00150838
0.000632619
0.000798482
3.8651e-05
-7.51615e-05
-0.000721328
-2.99784e-05
0.0422202
0.00120158
-4.68425e-05
-0.000124066
3.1146e-05
-0.00235272
-0.000285975
6.43759e-05
-6.02167e-05
-5.68505e-05
-0.000775506
-1.25522e-06
-0.00145565
-0.000845205
1.83994e-06
1.49492e-06
7.98701e-05
-0.00072505
0.000276985
0.000157079
-3.96421e-05
-8.27032e-05
-0.000683903
-3.37617e-06
-0.0211908
-0.0280495
-0.0023685
-0.000378831
-0.000342089
-0.00035168
-0.00355101
0.000265276
-0.000326313
-0.000248019
-0.000321569
-0.000677307
-0.000352556
0.000877958
0.0199009
-0.000136586
0.00135928
0.000317732
0.000677151
-0.000406872
-0.000764639
0.000654495
0.000609793
0.000651544
-0.000489054
0.000793146
0.000551169
-0.000423195
-0.000166219
-2.01457e-05
-7.73869e-05
-0.000573771
-5.89586e-05
7.70857e-07
-2.37451e-05
-5.23891e-05
-0.00054175
1.85337e-05
0.00357789
-0.000102681
-0.000151213
6.82595e-06
0.000182615
0.00016078
0.00187507
0.000187267
2.20058e-05
-8.29759e-05
-0.0007687
-1.88675e-05
0.0334798
-0.000298779
-0.00038916
-0.000134393
-0.000106279
-0.000545819
-0.000159301
-8.74618e-05
-6.49879e-05
-3.88911e-05
-0.000580906
-3.18578e-05
0.00177759
0.00369382
0.00119401
-0.000161826
6.16303e-05
0.000145414
-0.000523529
0.00176231
0.00137446
3.11644e-05
-9.95461e-05
-0.000608186
1.30293e-05
0.0374548
-0.00178664
-6.58969e-05
-5.4512e-05
-0.0011198
-0.000384212
-0.000130922
-9.97112e-06
3.89191e-05
-0.000572094
-0.0186328
-5.99313e-05
-0.000386435
0.000519345
-0.000129333
0.00138441
-0.00109677
-0.000288124
-0.000196796
0.00132015
0.0014754
0.00142623
0.0017548
0.00158214
0.00129414
-0.000871089
-0.00146017
-0.000787665
-0.000304544
1.7094e-05
-0.000399029
-0.000867295
-0.000396333
-0.000457392
-0.00191017
-0.00150455
-0.00118995
-0.00117672
-0.00156585
-0.000878438
9.14498e-05
-0.000820934
-0.000306063
-0.000610869
-0.000334847
-0.000228177
-0.00104391
0.000203248
-0.000905183
0.00124969
0.000112032
-0.000970886
-0.00058286
-0.000166605
-0.000271783
1.07926e-05
-0.000131846
2.58609e-05
-0.00223832
-0.000971588
-0.000903901
0.00203553
0.00340238
0.00163617
-0.0008826
0.00119924
-0.000186066
-0.00143374
-0.000803038
-0.00080072
-0.000677206
-0.000715234
1.76481e-05
-0.000841336
-0.00151953
-0.00153281
-0.000590259
0.00092861
0.00244624
0.00131537
0.00124638
-0.000815685
-0.000563207
-0.00011154
-0.000517522
-0.000458982
-0.000156749
-0.00066381
0.000813896
0.000956631
8.04183e-05
0.000327169
-0.00120538
-0.000713053
-0.000778245
-0.000139359
3.22273e-05
-0.000223789
0.00365287
-0.000144656
-7.82513e-05
0.000756583
0.000368653
-0.000176459
0.000224579
0.000142245
0.000901777
-0.000178994
-0.000541689
0.000292215
0.000822148
-0.00042178
0.000480656
-0.000754184
-0.000340581
-0.000346873
-0.00164222
-0.000218758
0.00148634
0.00483475
0.00413303
-0.000435883
-0.000703847
-0.000812394
-0.000729082
-0.000757985
-0.00109985
-0.000303973
-0.000655792
-0.000723111
-0.000103926
-0.00315728
-0.0020878
0.00289289
-0.00281127
-0.00024033
-1.95526e-05
0.000460995
0.0319434
0.00131821
0.0171313
-0.00252602
-0.00272564
0.00334293
0.00228366
-0.000702524
-0.00199019
-0.0752919
0.00240141
-0.000177563
0.00317033
0.000630405
0.00314691
0.000341953
-0.000180527
0.000571731
-0.00303291
0.000347669
0.00122988
0.00159395
-0.00421726
-0.00136152
-0.00608682
-0.00263622
-0.00684891
-0.002994
0.000113237
-0.00089969
-0.000646491
-0.00101393
-0.000897338
-0.00296393
0.000334227
0.00130848
0.00091577
0.00067864
0.000163776
0.00189937
0.00256937
0.00143695
0.00210073
-0.000565557
0.00258917
-0.00243133
-0.00100784
0.000337136
-0.000923214
-0.00127626
-0.00124818
0.00585866
-0.018784
-0.00103514
0.00723337
-0.00564821
0.00764693
0.000500306
-0.00260524
0.00275515
-0.000517551
-0.000532893
-0.00271446
-0.00149771
-0.000975727
-0.000349111
0.000720118
-0.00170857
-0.00151946
0.000198074
0.000222398
-0.00480898
-0.0163884
-0.0385931
-0.0313435
-0.00489783
-0.0143539
-0.000855362
0.00418319
0.00322533
0.0116764
0.0458982
0.00297893
0.00145149
0.0200489
0.0102083
0.00115184
0.000740709
-0.00370011
0.00148312
-0.00160018
0.0114229
0.00996781
0.00903448
0.00668618
0.00860775
0.00507786
-0.00336279
0.0210596
-0.000418721
0.00359619
0.00164333
-3.92934e-05
0.000148855
6.677e-05
0.00198419
0.0189151
0.00110733
0.00211933
0.00244702
-0.00202466
-0.000353689
-0.0019311
0.00326057
0.00181067
0.00396237
0.00365009
-0.00153118
0.000486069
-0.00224621
0.00395381
0.00331225
-0.000124654
0.000312869
0.000875747
0.0161296
0.00100665
0.000810475
-0.00113745
-8.78707e-05
0.000239214
0.000972432
0.00164659
-0.00108493
0.000826787
-0.0029254
-0.00607288
-0.000578788
-0.000845818
-0.00212857
-0.0103975
-0.0024285
-0.0115898
-0.0314734
-0.00134038
-0.00154677
-0.00125667
-0.00913483
-0.00529315
-0.00201521
-0.00305265
-0.00276937
-0.00211813
-0.000822345
-0.00448834
-0.00327097
-0.000815705
-0.000824468
-0.00383696
-0.00992137
-0.00967943
0.0017256
-0.000153608
0.00256148
0.00191618
-0.000502001
-0.00488157
3.80223e-05
0.000853749
0.00499069
0.00298529
0.0165256
0.00345979
-0.00307224
0.000471812
0.00289728
-0.00606055
-0.010853
-0.0082074
-0.000946418
0.000601123
-0.00879937
-0.00418263
0.00268887
0.00206143
-0.000777699
0.000241572
-0.0043719
0.00126872
0.000114657
-0.000454703
-0.000423346
-0.00389791
-0.00184698
-0.000509603
-0.000880888
0.00613501
0.00330938
-6.74543e-05
0.00435312
0.00187943
-0.0030413
0.000383239
0.00422638
-0.00336483
0.000406
-0.000108726
0.0012246
-0.000246385
0.00227727
-0.000755127
0.00939198
-0.00118323
-0.00189486
-0.00106677
-0.000914823
0.000530613
-0.00094442
0.0124749
-0.000267262
-0.000501755
0.00808849
-0.000792297
0.00581621
1.26889e-05
-0.0022516
-0.000662062
-6.36086e-05
-0.000320515
0.013806
-0.0032007
-0.000855652
-0.000897061
-0.00159174
0.000834041
0.00298269
0.0053743
0.000789572
0.0015352
3.24497e-05
-0.000421731
0.00284719
-0.00352111
0.00136035
0.000745011
-0.000499547
-0.00174054
-0.00771478
-0.000551181
-0.00191064
0.000258233
-0.00785811
0.00153133
0.00062682
0.000490007
-0.00150716
-0.000844369
0.00103216
-0.000563627
-0.00195958
-0.0215998
-0.000591058
-0.00268729
0.00110092
0.000289392
0.00117032
-0.00049879
-0.0358392
-0.0657595
-0.0666189
-0.00844689
-0.0165211
-0.00911387
-0.00130025
0.000582111
0.00228697
0.00634073
-0.000846066
-0.0209678
-0.00247736
0.00652184
0.00649146
8.53645e-05
0.00578888
0.00667233
0.00206873
0.00518621
0.00140377
0.014358
0.00236608
-0.0026798
0.00702263
-0.000843143
0.0744396
0.00709151
0.000525172
0.0013161
0.000568148
0.00867776
0.0115323
0.000719508
-0.00164871
-0.00251754
0.0496977
0.0171034
0.00141779
-3.66167e-06
0.000470403
0.000488946
0.000478566
0.000579246
-0.000550193
0.00060769
-0.00862951
0.0190035
0.00301237
0.002588
0.00472629
0.00384879
0.00241721
0.0202973
-0.00153216
0.00258855
0.0065945
0.00409695
0.000948121
0.00586342
0.00138344
0.00141352
0.000649431
0.0118339
0.00132937
0.0136652
0.000913793
0.00367031
0.000621719
0.018085
0.00125304
0.0151045
0.000744898
-0.00513096
-0.000507351
0.00943191
-0.000960057
-0.000940626
0.0083614
0.00151996
0.00543476
6.37867e-05
0.00318559
-0.0500237
-0.00277708
-0.00196377
-0.00695115
-0.00371194
-0.0119848
-0.00128255
0.0109663
-0.000615836
-0.00345433
-0.00212457
-0.000515731
0.000713723
-0.00671319
-0.000703154
-0.00100697
-0.0223527
-0.00145892
-0.000781591
-0.000602921
0.00163276
0.00298026
0.00117641
0.00159842
-6.85512e-05
-0.00450883
0.0141784
0.00385004
0.00603318
0.000578841
0.0136303
0.00109454
0.000775763
0.000946484
-0.00198083
-0.00169654
-0.000433921
-0.0010452
0.00221226
0.000262424
-0.000531455
0.00128779
0.00817175
-0.0203682
0.000254097
-8.1843e-05
-0.000757376
-0.000315856
-0.000869721
-0.00330625
0.0209465
-0.000566417
-0.000139934
0.0200223
-0.000656792
0.00149086
-0.0171427
0.00265635
-0.0829633
-0.00150228
0.0252361
0.00142867
0.000983617
0.00396622
-0.0150815
0.0051066
0.00211916
-6.15966e-05
-0.00183375
0.00633601
0.0012134
0.00353786
-0.00059665
-0.00130047
0.0142489
-0.000390435
-0.000142413
-0.00565785
0.000146073
-0.000268653
0.0104012
-4.67601e-05
0.00235094
0.000316923
-0.00746692
-0.045213
-0.0301331
-0.0486719
-0.000923193
-0.000914201
-0.000801277
-0.00490103
0.0084679
0.00371552
-0.000143172
-0.000149919
0.00117265
-0.00127564
-0.000826621
-0.00115958
-0.00323864
0.00012616
-0.0157555
-0.000968222
-0.00012747
0.00465711
0.00465291
0.0140271
0.00382845
-0.00142546
0.000918771
0.00277555
0.00115293
-0.0432821
0.000438499
0.00343429
0.00553282
0.00255285
0.00235644
0.001039
0.000741274
-0.000761652
0.000455642
-0.0132145
0.00544007
-0.00124341
0.00212716
0.000973852
-0.00212954
0.00580923
0.0175258
0.01813
0.0182671
0.0106721
-0.000245854
-0.000661997
-0.000722976
-0.000448355
-0.000697432
-0.000105717
0.00362232
0.000797518
-0.000453289
-0.00139401
-0.00162693
-0.00418254
0.0082379
0.00747866
0.000452813
-0.00166488
-0.00167237
0.00825794
0.0241071
0.00453429
0.000519439
-0.00175477
0.000734992
0.0197031
-0.0397647
-0.0374155
-0.00063625
7.61491e-05
-0.00435662
-0.00213186
0.00405695
-0.00135404
-0.00358429
-0.00593343
0.00340654
-0.00111986
-0.00104969
-0.000756904
-0.000683697
-0.00234871
-0.00396549
-0.0131093
-0.000421317
-0.00711676
-0.00973475
-0.00543147
-0.013595
0.0130914
-6.15577e-05
0.00794689
-0.00221983
0.012369
0.0156824
-0.000877869
-0.000628784
0.00982427
0.0260007
-0.0114846
7.62634e-05
0.00755462
-0.000913033
-0.0175528
0.00266399
0.00189073
0.00109333
-0.00141606
0.00345324
-0.00241474
0.0098536
-0.0118656
0.00782548
0.00182234
-0.00399763
-0.00540121
0.0010773
0.000515192
0.00427017
-0.00098819
4.91261e-05
6.95077e-05
0.00415022
0.00391985
0.013756
0.00576726
0.00249494
-0.0592308
-0.0901257
-0.000960506
-0.0161139
-0.0394369
0.00395259
0.00307772
0.000941403
0.00484623
0.00333268
0.00489601
-0.0014373
0.00599167
-0.000550347
-0.000272471
-0.000393025
-0.0204515
-0.0615902
-0.000340773
-0.00475516
0.0190946
0.00373087
0.00326956
0.00742626
0.00230276
-2.00133e-05
-0.000443411
0.000896775
0.00053572
-7.31394e-05
-0.00133396
0.000548073
0.000111188
0.00170332
0.00186539
0.00185157
0.00326377
0.00203819
-0.0128921
-0.00188225
-0.00144512
0.00334821
-0.00274958
-0.000464473
0.00104547
-0.0083486
-0.00143303
0.00221114
-0.000994234
0.000336622
-0.00114434
-0.00274349
-0.000638858
-0.00469364
-0.00123686
-0.0116544
-0.000587927
-0.00259281
-0.000671171
-0.00172187
-0.000632072
-0.00304522
-0.000666375
-0.00121582
-0.00107516
0.000571493
0.000976515
-0.000267713
0.000265773
0.000776888
0.000643037
0.00200185
0.000997479
0.00117347
0.000817728
-0.000312541
0.000870802
-0.00011597
0.00224222
-0.00580614
0.00119497
0.00157882
0.00124364
0.0013616
0.00162784
0.00190149
0.00180152
0.000530394
0.0010206
0.0005008
0.000713258
0.000806792
0.000691268
-0.00143317
0.000276102
-0.000827316
-0.000957563
-0.000467171
0.000934834
0.000257816
-0.00429965
0.000456134
0.00108851
0.000814961
0.00165612
0.00105813
0.000118452
0.00082288
0.000861496
-2.171e-05
-0.00174016
0.00112447
0.00063644
0.000198449
0.000532694
7.42309e-05
0.000963726
6.5169e-05
-0.00118702
0.000293275
0.000604126
-0.000396607
0.000541671
-0.000232363
-0.000250059
-0.00239648
0.00104404
-0.0358355
0.00132004
-0.000838816
-0.00299637
-0.0324704
-8.67446e-05
-9.49037e-05
-0.00038503
-0.000143066
-0.000143201
-0.001718
-0.0032925
0.000995345
-0.000614001
-0.00354269
-0.00743062
-0.00158875
0.00160368
-0.000534725
-0.00910428
-0.000207859
-0.00101818
0.000967849
0.0013754
0.0045501
0.00157
-0.000164444
-0.000326965
-0.00344894
-0.00230105
-0.00558758
-0.000821479
-0.00131328
0.00206784
-0.00146845
-0.00102239
0.00130264
-0.000385089
-0.000110422
-0.000498289
-0.00015222
-0.000123451
-0.0135718
-0.000539981
0.00229493
-0.000338189
-0.000100446
-0.00714177
-0.000556799
0.0011548
-0.00531099
-0.00124859
0.000478265
-0.000506214
-0.000725233
-0.00542967
-0.00222557
-0.000588851
0.00335313
-0.00290974
-0.00217718
-0.000598746
-0.00221022
-0.000614701
-0.000733789
-0.000674738
-0.00201525
-0.00119954
-0.00158367
-0.000980008
-0.000914048
-0.000723215
-0.0258621
-0.000669025
0.000191864
-0.000546083
-0.00119931
-0.00063034
-0.000493932
-0.000651911
-0.000783787
-0.00122953
-0.00356075
-0.00463092
-0.00074549
-0.000467366
-0.000821447
0.0006163
2.48047e-05
0.000153526
-6.92278e-05
3.72837e-05
-0.000730997
-0.00390242
0.0005691
0.000132313
-0.000884873
-0.000925001
0.000144581
-0.00170137
0.000130164
-0.00100813
-0.00134537
-7.66463e-05
-0.000575795
-0.000372796
-0.00050357
-0.00491058
-0.00105397
-0.00710691
0.000137057
8.48395e-05
-0.000405682
-0.000152069
-0.000632783
-0.000198574
-0.000194771
-0.00412533
-0.00573009
-0.00213118
-0.00260316
-0.0028441
-0.00333074
-0.00075756
-0.00120867
-0.00158682
0.00145955
0.0014062
-0.00488558
-0.000984726
-0.00041622
-0.000577133
-0.00402962
-0.000837376
-0.00433777
-0.00449225
-0.00467848
-0.000344871
-0.000159493
-0.000683657
-0.000246779
-0.000130465
-0.000606608
0.00142947
-0.0027619
0.000565136
-0.00631897
-0.00945776
-0.00394773
-0.000609319
-0.000922271
-0.0119635
-0.000313077
-0.00190298
0.00136054
0.000493039
-0.000418775
-0.000673507
-0.000212092
-0.000275096
-0.00481898
-0.00251743
-0.00394761
-0.000877555
-0.00274735
-0.0032363
-0.0123994
-0.00272993
-0.00327452
-0.00205419
-0.000188632
-0.000624342
-0.00107145
-9.06754e-05
-0.000315306
-0.00271308
-0.000468002
-0.000441355
-0.00051065
-0.00091017
-0.000293449
-0.00533216
-0.000636717
-0.00053285
-0.00160356
-0.000843897
-0.000267529
-0.000534099
-0.00526128
-0.000841198
0.000489056
-0.000170442
-0.000298873
-0.000242398
-0.0148125
-0.00156866
-0.000605335
-0.0016251
0.000395935
-0.00019474
-0.00465187
-0.000317882
0.000650567
0.000421984
-0.000255034
-0.000188252
-0.00063031
-0.00352077
-0.000727705
0.000206936
-0.000218614
0.000364322
-0.000132946
-0.000218092
-0.00425196
-0.000552299
0.000551156
-0.000256933
-6.86305e-05
-0.000172743
-0.000468732
-0.00419623
0.000298923
4.88161e-05
-8.2621e-05
-4.5798e-05
0.000138446
-0.000169404
-0.000964633
-0.000272447
0.0005904
-0.000120114
-0.000377285
-0.000906036
0.00026495
-7.03327e-05
0.000124726
-4.09453e-05
4.56687e-05
-0.00173884
-0.000655031
-0.000177282
-3.19585e-05
-8.53567e-06
-5.43329e-05
0.000167748
-0.00211764
-0.00149431
5.0193e-05
-0.00810292
-0.00641891
-0.000195434
1.8819e-05
-2.7858e-05
-8.06681e-05
0.000200325
0.00242041
2.07156e-05
-0.000129421
-0.000606078
-0.00137309
-0.00105872
0.000518225
0.00111001
-3.53439e-06
-0.000196007
-0.000452993
0.00168328
-0.000740805
0.000484542
1.26862e-05
0.000301094
-0.000190621
-0.000394501
0.00386477
-3.25401e-05
-9.08211e-05
-0.000417059
-0.000129989
-0.000137733
-0.00499693
0.00133458
0.00411078
0.00257651
-0.00038018
-0.0148637
-0.000107358
-9.8785e-05
-0.00037985
-0.000170842
-0.000162643
-0.000889088
0.00158802
-0.00128944
0.00051337
-0.000321886
-0.00180747
-0.00320375
-0.00128467
-0.000275607
2.96642e-05
6.69561e-05
-0.00448585
0.00145715
-2.70531e-05
0.000261178
-0.000362659
-0.00270307
-0.00206678
-0.00134812
-0.000738136
4.09168e-05
6.91658e-05
-0.00840747
0.000137802
-0.00230935
-0.000922817
0.000152363
5.65431e-05
9.67882e-05
-0.010366
-0.000802867
-0.00125269
-0.000587811
-6.11476e-05
-0.000220949
-0.00135656
8.57834e-05
-0.000124459
-0.000408337
-0.000171127
-0.000129466
-0.000501699
-0.00230164
-0.00023823
-0.000272004
-0.029684
0.00447534
0.00156876
0.00473582
0.00119963
0.00169659
0.00162056
-0.000196393
-0.00160899
0.00194526
0.00045908
-0.0021321
-0.000506744
-0.00183752
0.00109494
0.000593272
0.000511372
0.00552975
0.000160467
0.00102829
0.000383166
0.0300522
0.00178763
0.000578497
0.0020722
0.000400533
0.00054774
0.000935002
-0.000310477
-0.000899512
0.000835441
0.000286531
0.00957104
0.00258466
0.000834049
0.00271148
0.000580213
0.000779379
0.000505135
0.00271401
0.00505567
0.00037516
0.00437461
0.00197682
0.000596402
0.00204245
0.000391399
0.00060148
0.00100182
-0.000808234
-0.000615632
0.000430901
0.000445241
0.000174941
0.000709937
0.000756251
0.0023544
0.000212424
0.0157621
-0.00118629
-0.000464572
0.00194034
0.00021513
0.00561534
0.000402814
0.00118738
0.00525356
0.000880762
0.000411509
-0.0109912
0.000698237
0.000586312
0.00132326
0.00121847
0.000519155
9.34016e-05
0.0105673
0.000453193
-8.75456e-05
-0.000632897
0.000774305
0.000424929
0.0143498
0.000605117
-0.000203979
0.00321218
0.000759843
0.00047288
-0.0175768
0.000482632
-0.000481078
-0.000466262
0.000638171
0.000441915
0.00270229
0.000690072
-0.000361429
-0.000484397
0.00104411
0.0004091
0.0101059
0.00089132
-0.000494413
-0.000626119
0.000619958
0.000345171
0.00265092
0.000526412
-0.000217055
-0.000825658
0.000770826
0.0003756
-0.000178676
0.000691867
-9.65408e-05
0.000592013
0.00150198
0.000439089
-0.00365119
0.00322107
0.00095131
0.00348234
0.000829695
0.000927796
0.00119532
4.77533e-05
0.00044461
0.000946283
0.000405265
0.000659765
-0.00037708
0.00353078
0.000913637
0.000294764
-0.000282785
0.00227795
0.000256326
0.00113115
0.00325429
0.00136043
0.000418357
0.00337414
2.02306e-05
-0.00249947
-0.000794504
-9.19603e-07
1.89473e-05
-7.87891e-06
-0.00595008
0.00288605
0.00100716
0.00315942
0.000828961
0.000998851
0.000398153
-0.00086656
-0.00125039
0.000693357
0.000264528
0.00414739
0.0031744
0.000942407
0.00337268
0.000731521
0.00089235
-0.000894376
-0.00116063
0.00100235
0.000399429
-0.000789059
-0.00214589
0.000135968
1.73836e-05
-6.79444e-05
-9.07146e-05
-5.52369e-05
-0.0158934
0.000191964
0.00308425
-0.000312948
-0.000274847
0.00279829
0.00155475
0.00178933
-5.93454e-05
-0.000218487
0.00837712
0.000259009
-6.66756e-05
-0.000390807
-0.000125391
-2.37511e-05
-0.000150606
-0.00120091
-0.000295614
-3.89281e-05
-6.70646e-05
-0.0107411
0.000329323
-1.757e-05
-3.05755e-05
-8.40703e-05
-1.52119e-05
-0.000155994
-0.00118664
1.14356e-05
5.01271e-05
-9.89897e-05
-0.018386
-0.000717309
-0.000210275
-0.000832105
-0.000208144
-0.000223362
-0.000219681
0.00107947
0.00042882
-0.000170213
-0.00386841
-0.00031688
-0.000665479
-0.000868553
-0.000153082
-0.000159585
-0.00907815
-0.00104788
-0.000178556
-0.000788329
-0.000200627
-0.000168335
-0.000344561
0.000551124
0.00629774
0.00257465
-0.000239101
0.00757047
-0.000174987
-0.000936945
-0.000487653
-0.000290769
-0.000265912
-0.00550003
0.00174437
-0.000303125
-0.000971607
0.000909106
0.000247586
0.000539666
0.00906577
0.000202518
-0.000542334
0.000283296
0.000339655
0.00018193
0.000140182
0.00224323
8.20288e-05
-0.0285046
0.0103876
-0.00715085
-8.6427e-05
-0.00498408
0.000380335
0.000395444
-0.00107649
-0.000161799
-0.000112429
3.03192e-05
-0.00278105
2.08436e-07
0.000489707
0.00222915
-0.000152527
-9.55298e-05
-0.00013958
0.00868923
0.000154031
0.00208642
0.00129476
5.00155e-05
1.62081e-05
-8.85715e-05
0.00268336
2.80042e-05
0.000701397
0.00194591
-0.000136936
-4.5732e-05
-5.13041e-05
0.00838037
0.000275364
0.00439563
-0.000456711
-0.000263405
0.00574007
0.000151977
-3.64738e-05
0.000902241
4.28711e-05
3.67311e-05
0.00433668
-8.39e-05
0.000532104
0.00074839
-0.000121144
-9.17669e-05
-0.000125153
0.00666578
5.41946e-05
0.000264417
0.00177049
0.000247325
-6.91886e-05
-0.000103848
0.0106287
0.000115497
0.00097821
0.00502878
-0.000270197
-4.50891e-05
-0.000141108
0.00408329
0.000720213
-0.000102876
0.00099425
0.000466928
3.06399e-06
8.90812e-05
0.00285342
9.33483e-05
0.000228588
0.00104141
-0.000318054
1.90271e-05
6.44419e-06
0.0179884
4.15577e-05
0.000201072
0.000542489
9.7968e-05
0.000140162
-0.00166084
0.000562272
-0.00010057
0.000554515
0.00055042
0.000106982
0.00461668
0.000220405
-0.00147179
-0.000231454
-0.000314473
-0.000332411
-0.00517564
-0.00116753
-0.0004946
-0.00157304
-0.000510715
-0.000379585
-0.000150366
-0.00102906
-0.00133777
-0.000247367
-0.000256261
-0.00228555
-0.00255446
-0.000742848
-0.00268051
-0.000745988
-0.000768287
0.000126297
0.0123889
-0.00103835
-0.000755674
0.00010658
-0.00219126
-0.000582061
-0.00252787
-0.000579901
-0.000605091
-0.000112303
0.000974447
-0.00140017
-0.000306248
0.00505398
-0.000689708
-0.00023477
-0.00122544
-0.000348364
-0.000226152
0.000407361
0.00085475
-0.00097795
-0.000394318
-0.000218303
-0.00130931
-0.00021571
-0.00012177
-0.000333905
-0.000186499
-3.46203e-05
1.24822e-05
-0.000624174
-0.00091025
-0.000596371
-0.000168064
-0.00200737
-0.000460456
-8.21733e-05
-0.000603578
-0.000136951
-4.70473e-05
6.55857e-05
-0.000498022
-0.00125049
-0.00031645
-0.000123581
-0.00238249
-4.90224e-05
-0.000145773
-0.000474327
-0.000219881
-7.76772e-05
0.000978763
0.0118959
0.000399836
-0.000200258
-0.000220655
0.0161251
-3.96209e-05
-0.000277886
0.00604617
-0.00388586
-0.000171565
-0.000508607
0.0136432
0.000367443
-7.85159e-05
-0.00044896
-0.000141067
1.36315e-05
-0.00039298
-0.000347394
-0.00046859
-4.67354e-05
6.70301e-05
-0.00167779
9.88244e-05
-3.35073e-05
0.000292104
-8.73214e-05
2.12165e-05
-1.91615e-05
-0.00032948
-0.000327857
-0.00025629
-9.12583e-05
0.00531201
0.000127174
-3.59896e-05
0.000138248
-0.000114402
4.61816e-05
0.000178427
-0.000521951
-0.000211072
-8.67557e-05
-2.85813e-05
0.00584425
-0.000645531
-9.29377e-05
-0.000321102
-0.000129267
-0.000115919
0.000177511
-0.000175687
0.000449554
3.14471e-05
-0.000132924
0.00284734
0.000629846
6.34246e-05
7.53266e-05
-6.14732e-05
0.000164445
0.000116071
-0.000510275
-0.0010095
-0.00032858
-2.78468e-05
-0.00281524
0.0030728
0.000819267
0.00322344
0.000625415
0.000900464
0.00134775
0.000159442
-0.00087749
0.00101204
0.000256825
-0.0018802
0.000432874
0.000204794
0.000434371
0.000104603
0.000258399
0.000616594
-0.0175665
0.00094017
-0.000180327
-0.000309028
-0.000522139
0.000277718
-0.0006703
-0.000344433
-0.000118393
-2.87076e-05
-0.0127836
0.000686612
-0.00292564
0.000185559
0.00037414
-0.000202939
-0.00370605
0.000891791
0.000174987
0.000852305
3.28039e-05
0.000234927
-0.000239778
-0.0033698
-0.00134887
-0.00429237
-0.000216885
0.0133937
0.000600702
0.000234482
0.000847348
0.000195069
0.000232932
8.58669e-05
-0.0464058
0.00155087
-0.000469907
-0.000215794
-0.00711732
0.000147974
0.000529255
0.00105392
-8.98809e-05
-0.000231435
-0.00564272
0.000891425
0.00023334
0.00119388
0.000122914
0.000158202
2.94626e-05
-0.000181831
-0.00348124
-0.00120115
-0.00010628
-0.0308786
0.000718795
-0.000364285
1.19944e-05
0.000868516
0.00022897
0.00032777
0.00959703
0.000595453
-0.000273162
0.000822165
0.000434746
0.000106355
0.000225211
-0.0124404
0.000261485
-0.000474748
0.00256187
-0.000191295
0.000181279
-4.86977e-05
0.0162946
0.000393194
-0.0200639
-0.00376483
0.000957046
3.11063e-05
-0.0079109
3.02958e-05
-0.00243802
0.000775935
6.16141e-05
-4.62209e-05
-0.00141405
0.00083148
-0.000881601
0.000569041
0.0024297
-3.86043e-05
-0.000633158
-0.000486123
0.00177995
4.0058e-05
6.427e-05
4.82215e-05
-0.00110813
0.000326621
-0.000368697
0.000310666
-3.50337e-05
8.3704e-05
7.00486e-05
-0.00633053
0.000338147
0.00019339
0.000780079
0.000145283
0.000188787
0.000712684
-0.000565524
0.00188722
0.00115713
-0.000107164
0.0125609
-0.000100226
0.00387554
9.13697e-05
-2.18625e-05
0.000196601
0.0270478
0.000221914
-0.000206889
0.00133945
5.56756e-05
8.11682e-05
0.000149252
-0.00517274
0.00143811
5.0068e-05
0.00369371
0.00241561
0.000163204
0.0243372
0.0010717
-0.00101112
0.000268016
0.0008639
-0.000303182
-0.000413536
-0.000368195
-0.000243765
-0.000338485
-0.00322637
-0.000353168
-0.00054649
-0.00025999
-0.000223611
-0.00118193
-0.000221752
-0.00909958
0.00107626
0.000161405
0.000179209
-0.00489415
0.000164432
0.00068621
6.82456e-05
-4.44727e-05
-0.000883946
3.84601e-08
0.00156376
0.00162922
0.000409843
0.000605585
0.000598997
0.00223846
0.00103849
0.00592844
0.000403015
0.000258469
-0.000344656
0.000346934
0.0172011
0.0096549
-0.000582956
-0.000294238
-0.000265576
-0.0109522
0.000382056
-0.000647599
-0.000369508
-0.000318788
-0.00113236
-0.000345067
-0.0178804
-0.00220572
-0.000385709
-0.000319181
-0.000540589
-0.000250145
0.00194249
-0.000929387
-0.000289393
-0.000249289
-0.00166587
-0.000388408
-0.0532889
0.00147865
-0.000271666
-0.000140918
-0.000131075
-0.0010488
0.00123906
0.000395838
-9.10055e-05
-0.00019351
-0.000916606
-0.000123497
-0.00999182
0.00838841
-0.0001662
-4.93439e-05
1.85392e-05
-0.00184235
0.000839161
0.00178325
3.19994e-05
-0.000134673
-0.00122143
-0.000111642
0.0328502
0.00309081
-6.50419e-05
-0.000129427
-3.66559e-05
-0.00341889
-0.000815023
0.000374206
-8.10391e-05
-0.000109858
-0.00128015
-4.80682e-05
-0.00449166
-0.00107453
2.48561e-05
3.09581e-05
7.99807e-05
-0.000778092
0.00114926
0.000484013
-4.16418e-05
-0.000125255
-0.00120763
-3.88119e-05
-0.0167076
-0.0550351
-0.00333757
-0.000399675
-0.000364981
-0.000476218
-0.00483775
0.000731848
-0.000157328
-0.000343151
-0.000436217
-0.00105166
-0.000463299
0.00266018
0.0158352
-0.000316803
0.00153077
0.000428346
0.00102331
-0.000459233
-0.0018829
0.00112659
0.000739537
0.000771075
-0.000668667
0.000921809
0.000690734
-0.000378037
-0.00015671
-7.35989e-05
-0.000151432
-0.000692725
-4.79771e-05
7.39101e-05
-5.37801e-05
-0.000115033
-0.000924842
-3.05696e-05
0.00353885
-0.000129994
-0.000116716
-3.08618e-05
8.75923e-05
0.000429102
0.00432143
0.000940182
1.637e-06
-0.000158766
-0.00125458
-0.000125361
0.0210697
-0.000296561
-0.000574078
-0.000150106
-0.000203062
-0.000645543
-0.000169889
-8.06165e-06
-0.000119322
-0.000107571
-0.0010658
-0.000110848
0.00239223
0.00456278
0.00266915
-0.000144549
3.09571e-05
9.11916e-05
-0.00070227
0.00518794
0.00252767
7.11522e-06
-0.000173261
-0.00107866
-0.000102142
0.0214637
-0.000903333
-5.71016e-05
-7.96089e-05
-0.00155725
-0.000631919
-2.17766e-05
-1.96905e-05
6.82854e-06
-0.000997815
-0.0377424
-0.00016859
-0.000507642
0.00111049
-0.00014109
0.00174699
-0.00113484
0.000149557
-0.000127233
0.00178332
0.00201115
0.00197018
0.00245812
0.00219433
0.00204352
-0.000961356
-0.00165128
-0.00101252
-0.000267918
0.00018135
-0.000250012
-0.000997547
-0.000342352
-0.000565855
-0.00211738
-0.00167119
-0.0012862
-0.00115297
-0.00177717
-0.000506476
0.000448078
-0.00066405
2.93998e-05
-0.000594802
-0.000133124
-4.12658e-06
-0.00114295
0.000559711
-0.000699511
0.00202161
0.000328526
-0.000989213
-2.24395e-05
0.000320763
0.000664062
0.000639458
0.000559962
0.000799291
-0.00170866
-0.000262417
-0.00118867
0.00282738
0.00484088
0.00267751
-0.000880056
0.00224818
-0.000125159
-0.00141084
-0.000816405
-0.000704555
-0.00050743
-0.000377318
0.000505449
-0.000610111
-0.00152584
-0.00142391
-0.000522396
0.00172667
0.00372873
0.00235807
0.00240649
-0.00060833
9.78401e-05
0.000726865
0.000123959
0.000428596
0.000675678
0.00026721
0.00166389
0.00191441
0.000574517
0.00133789
-0.00140262
-0.000348013
-0.000253122
0.000532794
0.000596107
0.000733687
0.00509602
0.00035841
0.000159268
0.0014397
0.000960358
0.000112051
0.000675414
0.000484248
0.00174372
0.000138477
0.000152788
0.000611064
0.00168993
0.00031507
0.00108055
-0.000354364
0.000130625
0.000138371
-0.00124952
0.000789331
0.00253357
0.00602086
0.00547084
0.000184055
7.68148e-05
-0.000146568
-6.42608e-05
-0.000843176
-0.00113562
-6.01725e-05
-0.000209584
-0.00048871
0.00057189
-0.00246775
-0.00186228
0.0037255
-0.00294303
0.000215907
0.000509224
0.00143078
0.0322775
0.00224872
0.0180124
-0.00327734
-0.0048134
0.00298648
0.00331127
-0.00151031
-0.00337465
-0.0773031
0.0029719
-0.00107342
-0.00269436
0.000179379
-0.000939193
-0.000153599
-0.00915664
0.000120389
-0.010861
-0.000264173
-0.00109432
0.00212334
-0.00469554
-0.00211631
-0.00986293
-0.00267169
-0.00792445
-0.00291111
1.46252e-05
-0.00074585
-0.000336781
-0.000725761
-0.000539349
-0.00268035
0.000261957
-0.00126503
0.00116466
-0.00259288
-1.15495e-05
-0.000681365
0.00412901
0.00174558
-0.00132817
-0.000650488
0.00385005
-0.00199743
-0.000417573
0.000585998
-0.00122713
-0.000387608
-0.000340721
0.00601204
-0.0136745
-0.000407241
0.00621616
-0.0069552
0.00424389
0.00159113
-0.00187638
0.00321161
-0.000237412
-0.000191425
-0.00164519
-0.00023098
-0.000258853
0.000456148
0.0025349
-0.000100192
-3.84504e-05
0.0013445
0.00183181
-0.00509745
-0.0140227
-0.0433445
-0.0295826
-0.00196512
-0.0138893
-0.000307684
0.00695492
0.00646609
0.0298486
0.0570962
0.00790604
0.00416432
0.0250497
0.015983
0.00279072
0.0017982
-0.000652394
0.00333432
4.72359e-05
0.0168766
0.0172148
0.0155952
0.0105029
0.0142219
0.0089303
-1.62726e-05
0.0235987
0.00261771
0.00715365
0.00413581
0.000785364
0.000875828
0.000569767
0.00414364
0.0277864
0.00386103
0.00447417
0.00613915
0.000197191
0.000797817
0.00126963
0.00659547
0.00357407
0.0070287
0.00659625
0.000402337
0.00184889
0.0026867
0.00691776
0.010251
0.00113791
0.00158705
0.00311795
0.0248665
0.00269835
0.00275972
0.00174317
0.00132619
0.00128155
0.00263243
0.00377202
0.00119411
0.00402374
-0.000696075
-0.00220322
0.00229718
0.00268717
0.000213051
-0.0064574
-4.66371e-05
-0.00333718
-0.0215724
0.00193274
-0.000565859
-0.000859752
-0.00366843
-0.00223869
