booster[0]:
bias:
-0.298021
weight:
-0.0355352
0.0144107
-0.0179322
0.0311553
-0.00916035
-0.00525455
0.00127431
0.00346637
0.0128096
0.00101068
0.00901632
0.00260723
0.0026004
-0.00159346
0.00142693
-0.000552584
-0.00172794
0.000852243
-0.00315956
0.00038464
-0.00194517
0.00481133
-0.00738166
-0.0042614
0.00236833
-0.00256774
-0.00512791
-0.00568473
0.00141603
-0.00247954
7.55709e-05
-0.00106539
-2.47851e-05
0.0029025
-0.00539442
0.00207818
-0.000170147
0.00212144
-0.000409673
-0.00437212
-0.0116554
-0.00148894
-0.00487791
-0.00235527
-0.00299411
-0.00458939
-0.00670525
-0.0094958
-0.00339819
-0.000996589
0.0115434
-0.00163624
-0.00295458
0.000297867
0.000969417
-0.00430923
-0.0011437
-0.00103006
0.000258481
-0.000203277
0.00384318
-0.00242685
0.00185817
-0.00289024
0.000923563
0.000902638
-0.00300584
-0.00288884
-0.0044385
-0.00401893
-0.0048193
0.00116466
-0.00284641
0.00210917
-0.0019775
-0.000636986
0.00250901
0.0046064
0.00423736
0.00249561
-0.00553755
-2.81518e-05
-0.00162528
0.00158616
0.00173305
0.000124157
0.00604604
0.00376775
-0.00483309
0.00215789
0.000936362
-0.00161712
0.00343759
0.00377603
0.00354091
0.000937048
-0.000818927
0.00165705
0.00664097
-0.00253
0.00619255
-0.00602592
-0.0030083
-0.00519228
-0.00284181
-0.00173801
-0.000692831
0.0214157
0.015009
3.09224e-05
0.000894649
-0.00353299
-0.000445038
-5.58637e-05
-0.00598352
0.00387819
-0.00702272
0.00211796
0.00324272
-0.0239256
-0.00325241
0.00641444
-0.00894736
0.00140608
-0.00280748
0.00478453
0.0944189
0.00235859
0.0219542
-0.0621722
-0.014075
0.00587867
0.000943723
0.00455669
0.00246889
-0.0378376
0.00642739
0.00508572
-0.0131291
-0.00966544
0.0056339
-0.00782918
-0.0312331
0.0112013
-0.00383222
-0.0011853
-0.00523736
0.0113556
-0.00911293
0.00461994
0.00560357
0.00491774
0.0164023
-0.0113578
0.0707693
0.00414963
0.002269
0.00288504
0.00828863
0.00515018
0.00586192
0.00842021
-0.00280883
0.00857955
0.00924635
0.0042471
-0.00478461
-0.00515038
0.0048738
-0.00130568
0.0175251
-0.0046374
-0.0054348
0.0134803
-0.00638161
0.0107952
0.00516624
0.0381736
0.0471747
0.00147923
0.000740226
-0.000237875
0.00048153
0.0283877
0.00168584
0.0437483
-0.000388178
0.000908053
0.00700202
0.00715099
0.00034783
0.0144236
-0.00615327
-0.00901595
0.0116475
0.010853
0.00589181
-0.0215237
0.0347165
-0.0172549
-0.0207513
0.0612817
0.0825513
0.00168256
0.00652481
0.0156439
-0.0285079
0.0581226
0.0208426
-0.0237769
0.0238629
0.014673
0.0211077
-0.00582263
-0.0262362
0.000223133
-0.00776471
0.0201755
-0.0254053
-0.005242
0.0160152
0.0306853
-0.00225949
0.017374
-0.0292907
-0.0166131
0.00916037
0.00144999
0.00827331
0.00129527
0.00021795
-0.00981729
0.0175004
-0.00292093
-0.000973603
0.0154383
-0.012677
0.0108954
-0.0117266
0.0363424
0.00276777
-0.00556644
-0.0163957
0.0106273
0.00394461
-0.0150375
0.00440277
-0.00120733
-0.00344226
-0.00143543
-0.0220806
0.005269
0.00276145
-0.00850594
0.00446208
-0.00262354
0.00119071
0.00387676
-0.00846319
-0.0255969
-0.0510254
-0.0120871
-0.00439979
0.0297174
0.0088287
-0.0286053
-0.00304131
-0.0335488
-0.0379316
-0.033445
-0.0163651
-0.00849768
-0.0040579
-0.016124
0.0025465
0.0123955
-0.00833997
-0.0684108
0.0138602
0.00173868
-0.00226134
-0.0340589
-0.000583814
-0.0268498
0.0233555
-0.00859948
-0.0556464
0.0196956
0.00147604
0.0191714
-0.0255035
0.0145673
0.0140101
0.00526075
0.0068697
-0.0308474
0.00598104
-0.00518989
0.0162812
-0.00602325
-0.00170673
-0.0388539
0.0107518
0.00153962
0.00492609
-0.0104052
0.0128152
0.0366359
0.0232481
-0.0112192
0.00343576
-0.00566251
-0.0084515
-0.0163948
-0.00233974
-0.00166175
-0.00106905
0.00281441
0.0112466
0.0221069
-0.00842114
0.00357639
0.0542494
0.0210851
0.00384928
0.00837629
-0.0322182
0.0155601
-0.00675422
-0.000646698
0.00149645
-0.0072696
-0.00140948
-0.0316583
0.0100179
-0.0239406
-0.0130313
-0.0254321
0.0117242
0.0354505
-0.00571869
-0.000938135
-0.014666
-0.00646604
-0.0289416
-0.0104765
0.0257214
0.0192278
-0.0020829
-0.00786214
-0.0036063
0.010973
0.00772505
-0.00193469
0.00313023
-0.0204494
-0.0040105
-5.46168e-05
-0.0273927
-0.00971529
0.0284387
0.017891
0.0354561
0.00693181
-0.0460078
0.00531669
0.00290057
0.0208862
-0.0138755
-0.0129968
-0.0181845
-0.0700116
-0.0072069
-0.0581625
0.00525823
-0.00577485
-0.0151429
-0.0108102
0.00530455
-0.011937
0.00481864
-0.0151947
-0.0019476
0.0531269
-0.00675509
-0.0137885
-0.0299929
0.0269719
-0.023591
0.0122638
0.00426503
0.00490433
-0.00294735
-0.0357766
-0.0299998
-0.0347727
0.00507034
-0.0172344
0.0270191
-0.0429261
0.0026564
-0.00898733
-0.0414562
0.0117617
-0.0225597
0.0115541
-0.00790221
0.0184553
-0.00646961
0.025639
0.0243935
0.014713
-0.00330594
0.00964901
0.0404612
0.00183342
-0.0203367
-0.00233635
-0.0034974
0.142804
0.0170135
0.00684993
0.00169468
-0.00418109
0.0340732
0.0409829
-0.0163062
-0.0192736
-0.00157622
0.0333169
0.0137625
-0.00251155
-0.00450133
-0.00737981
-0.00674428
-0.0033131
0.000911959
-0.00911189
0.00673274
-0.00815082
0.0276014
0.0116003
0.0157545
0.00348969
0.0113444
-0.0182787
0.0300253
-0.0178596
0.0028105
-0.0863466
0.0132141
-0.00239559
0.0316427
0.000339429
0.00541488
-0.00195156
0.0174269
-0.00128504
-0.00815348
0.00200175
0.00389691
0.00230441
0.0191443
0.000669008
-0.0110191
0.000345917
-0.0270968
-0.0573883
0.0126344
-0.00752236
-0.00510957
0.0247668
-0.0256221
0.0300458
-0.0160341
-0.0306896
-0.0502411
-0.0144532
0.0143417
0.00904799
0.0012311
-0.019205
-5.34143e-05
0.012762
-0.00273678
0.0379886
-0.000766769
-2.10616e-05
0.000987375
0.11296
0.00221528
-0.00862699
-0.0286081
-0.00341191
-0.00544771
0.000331831
0.0229131
0.0186757
-0.0302827
0.0202488
-0.000365397
-0.00531723
0.0253214
-0.00965321
0.0333733
0.00043408
-0.00717478
0.013286
-0.00516358
-0.000718635
0.00317506
0.0315398
0.011771
0.0133324
0.00117399
0.000283141
-0.00636074
-0.0339004
-0.0258293
-0.0165766
-0.00053715
0.000370325
0.00159318
0.0118134
-0.019867
-0.000262184
-0.0126265
0.00213182
0.0038188
0.0601463
-0.0212333
0.00145612
-0.114271
-0.00171066
-0.0334732
-0.00114995
-0.00107323
0.00870534
-0.00368597
0.03658
-0.0492435
0.0409355
-0.00784741
0.0243883
-0.024778
0.00493756
-0.00263195
-0.0160345
-0.00117333
-0.000890423
0.0161223
0.00338135
0.00680161
0.0246905
0.00750341
0.00412508
0.0170747
-0.00319141
-0.0124725
-0.0418228
-0.0242234
-0.0134072
-0.00979119
-0.0143917
0.00459439
-0.011791
-0.00882164
-0.0182471
0.0119071
0.00916191
-0.000863989
-0.000862419
0.00353627
0.00243118
-0.0160385
0.0114184
0.0141211
-0.00454532
-0.0495848
0.00866755
0.0536432
-0.00186817
0.010234
0.0525534
0.0232908
-0.0225138
0.00079815
0.00414958
0.00241957
-0.0069702
-0.000295001
0.0181288
0.00696811
-0.00894616
0.00547114
0.0361792
-0.0467348
-0.00613085
0.00126585
-0.00852029
0.0721934
-0.00183793
-0.012575
-0.00834335
-0.0196146
-0.0184965
-0.00277662
-0.0512492
-0.0118005
-0.0130571
0.0368349
0.0189166
-0.00315134
0.00640323
-0.00447382
0.0184976
0.0515674
-0.000524868
0.00946857
0.00296528
0.0048622
0.00446033
0.00164584
0.0279215
-0.0210038
0.0156658
-0.0158459
0.0429044
0.0287312
0.0742729
0.0161947
-0.000901947
-0.00741632
-0.0299379
-0.0986077
-0.0804832
-0.0082216
-0.000443359
-0.000624123
-0.00310786
0.0159708
-0.0114007
-0.0107144
0.00565484
-0.0177702
0.00248581
-0.00136619
-0.000833669
0.000511163
0.00333571
-0.0115857
-0.0312951
0.00554679
-0.066456
-0.0294975
-0.0524157
-0.104735
0.00877812
0.0354749
0.0118912
-0.00924595
0.0263271
0.0408336
-0.00237962
0.00720422
0.0309072
0.0423074
-0.0283162
0.00175838
0.0123098
-0.0111623
0.0506111
0.0442053
0.0159515
0.00628571
0.0489216
-0.0266471
-0.0204091
0.0208223
-0.00997966
0.0170547
0.0204123
0.00526168
0.00288746
-0.00493679
-0.00531775
-0.00961449
-0.00889929
0.00392132
-0.00186961
0.0173824
0.0103086
-0.00750101
0.00436572
0.0224297
-0.045584
-0.0914672
-0.00288464
-0.0178575
-0.0200288
0.0288627
0.0119058
-0.000658753
0.00338628
-0.0198643
0.0141304
0.0023045
0.00706433
0.00280021
0.00312756
-0.00193355
-0.0224339
-0.0383355
0.00999917
-0.00619837
-0.0253097
0.0270807
0.033033
0.00437324
-0.00589913
-0.00368011
0.00196397
-0.0129682
0.00422202
0.0058368
-0.0100941
-0.00293398
-0.00193725
-0.0178037
-0.00385709
-0.00412458
0.00444184
-0.00386383
0.00590833
-0.000812669
-0.0119938
-0.0138889
-0.00353
0.000963508
0.00226835
-0.0223058
-0.00668098
-0.0286826
-0.000340815
0.00797842
0.0254393
0.00497929
-0.00090908
-0.0349732
-0.0115114
-0.1021
0.0125968
-0.00123228
0.000150181
-0.000223755
0.00424511
-0.0157176
-0.00249395
-0.0111198
-0.00295879
0.00986748
-0.0161412
0.00213252
0.0135844
-0.00468248
-0.00416989
0.00587805
-0.00481881
-0.000521234
0.000657386
0.00319714
-0.00264679
0.0139205
0.00298666
0.0691496
0.00120766
0.000622083
-0.00633211
0.000324296
0.00656286
0.00345103
0.0124382
0.00235715
0.0035364
0.000460037
0.00260688
-0.00202206
0.00111274
-0.00872536
-0.00011491
0.00333307
0.00467646
0.0183218
-0.00295613
0.0101974
-0.0315535
-0.00765573
-0.00816826
-0.0025159
0.00264398
0.00529887
-0.00956123
0.00302156
0.00430855
0.0130347
-0.0141686
0.0139723
-0.00663043
0.00308799
-0.010682
-0.00455949
0.0122054
-0.00754332
0.0115381
0.00245426
-0.000249294
-0.0014993
-0.00242232
-0.000373394
-0.00073595
-0.00597362
0.00332709
-0.0218674
0.00273167
-0.00360309
-0.00201305
-0.0248605
0.00134766
-0.00121874
-0.00105662
-0.00114227
-0.000348776
-0.00546651
-0.00413981
0.00858929
-0.0143474
-0.0231766
-0.0322203
0.00371485
0.0406275
-0.00414522
-0.0130994
-0.00766716
-0.00161426
0.000803974
-0.000770633
0.0694686
-0.00203906
0.000331845
8.74156e-05
-0.00549014
0.0125236
-0.0040273
-0.000591053
-0.0021625
-0.00227825
0.00128221
0.000110935
0.01273
0.00637537
-5.90833e-05
0.00128108
-0.000660912
0.000993462
0.0169282
-0.00907899
-0.0129661
0.0130443
-0.00241416
-0.0266922
-0.000170756
0.00292464
0.00059185
-0.0044541
0.00276374
-0.00238658
0.00097841
0.00455512
0.000425135
-0.00103342
-0.00826477
-0.00503807
0.00266312
0.000646237
-0.00264026
-0.000411067
0.00144348
-9.05082e-05
0.000392924
-0.000794918
-0.000933821
0.0003423
0.000399271
0.00164445
-0.0432707
0.000789727
0.00452535
0.000414711
-0.000320032
0.000945298
-0.00115528
0.000325426
0.0015413
-0.000708026
-0.0117271
0.00414529
0.00122768
0.000743757
-0.000505428
-0.000448995
0.000577325
0.000395109
0.000150282
0.000639703
-0.00265679
0.000916151
0.000382906
-0.00031596
-2.68553e-05
-0.00638409
0.00130369
-0.00853933
0.00209194
0.00375888
0.000221589
0.000229855
-0.000448123
-0.00110095
0.000571769
0.000291008
-0.00299689
-0.0050205
0.00126646
-0.000801813
-0.00372469
-0.000295648
-0.00241636
-0.000269889
-0.000805264
0.00152251
-0.00924321
-0.00208764
-0.00614636
-0.00122115
-0.00231295
-0.000470724
0.000142729
-0.000194172
0.00729904
-0.00220227
-0.00833853
0.000622668
0.000177535
0.00169322
0.0013061
-0.0015521
-0.00339508
-0.00377296
0.000243216
-0.00114092
-0.000941251
-0.00250038
-0.000910497
-0.000750265
0.00301493
-0.0254723
-0.0055619
-0.0125976
-0.00129093
-0.025352
-0.00806543
0.000801022
0.000446317
-0.0376859
-0.0015878
-0.0106213
0.00262325
-0.000291702
0.00460702
-0.0068514
0.000825513
0.000448094
-0.00864408
0.00142413
-0.00064783
-0.000459956
-0.00197784
-0.0100376
-0.00721985
-0.00501686
-0.00684328
0.0150878
-0.00264308
0.000388845
0.000386061
-0.00106329
0.000277403
0.00493734
-0.00466498
0.00102849
0.000732583
-0.00201531
7.80939e-05
0.00632433
-0.000501763
0.000505899
0.000615228
-0.00106854
0.000150257
8.25777e-05
-0.0014379
0.00161346
0.00115943
-0.00105049
-0.00101485
0.000251592
-0.00580538
-0.00538884
-0.000333295
-0.000764011
0.00165394
9.99858e-05
-0.00167804
0.000313767
0.000842854
0.000730015
-0.00181842
-0.00021911
-0.00172089
0.000579365
0.00255806
0.000908443
0.000289685
-0.00126641
0.0003572
-0.000209058
-0.00342735
0.00130477
0.00124397
0.000390333
-0.00160041
0.000127136
-0.00106312
8.40809e-05
-0.00296392
0.000806562
-0.000353981
0.000812662
0.000903217
-0.000791022
-0.000895705
-0.000644223
-0.000548987
-0.00275967
-0.00219702
-0.00369104
0.00124685
0.000449872
-0.000392308
0.0016772
0.000183232
-0.000331077
4.54182e-05
-0.00121094
0.000329313
0.00110931
0.00095318
0.00310519
0.00122492
-9.39667e-06
-1.17048e-05
0.000791746
-0.00136744
0.00380345
-0.00118781
-0.000458188
-0.000645675
-3.52611e-05
-0.000568596
-0.00196216
0.000442344
0.000396235
-0.00224446
0.00409129
0.000573597
0.000974629
-0.00300452
-9.10356e-05
-0.000598561
0.00157318
0.00304744
0.000496055
0.000605444
-0.00147635
-3.73294e-06
-0.000785505
0.00199234
0.000537846
-0.00130552
-0.000598186
-0.00120012
-0.000477778
0.00377318
0.00056947
-0.00340733
-0.000565222
0.00105108
-0.0258102
0.00202743
-0.000989872
-0.000163891
-0.00133283
0.000611257
0.00132562
0.00109166
-0.000667728
-0.000292127
0.000868241
0.00108855
-0.00102519
6.88196e-05
0.00135353
0.000552753
9.89879e-05
0.000818605
-0.00160883
-0.000963054
-0.0013047
0.000658801
-0.000481349
-0.000645992
-7.09455e-05
0.000358833
0.000400186
6.62433e-05
0.00294392
0.0015254
-0.000581646
0.000771826
0.00222942
0.000470846
-0.000254364
0.00375825
-0.000295778
-0.000129642
-0.000531794
-0.000297226
1.79324e-05
-0.00141964
-0.00203511
-0.00120039
-0.00278782
-0.00098685
-0.00141584
-0.000916918
0.000964778
2.76374e-05
0.00083547
0.00420487
0.00675615
0.00533556
0.0119064
0.0038165
0.00407213
0.00247742
6.78066e-05
0.000941118
0.00413121
-0.00190795
-0.00402891
-0.00133585
0.000363902
0.000696079
-6.24279e-05
-0.00251829
-0.0151317
0.00902931
0.00115424
-0.00121579
-0.00699571
-0.0106834
-0.000492347
-0.0034455
-6.09943e-05
-0.00174274
-0.00141331
-0.000760805
0.000701811
-8.89238e-05
-0.00152348
-0.00247279
-0.00341124
0.00140638
-0.000580042
0.00108447
-0.000297011
0.00122126
0.00479366
0.00726023
-0.00199472
0.0526708
0.00140697
0.000738349
0.00299252
0.000492758
-6.72796e-05
4.56375e-05
-0.00130824
0.000772204
8.69487e-05
-0.000989674
-0.011998
0.00151462
0.00322469
0.00105004
-0.00127028
0.0088785
-0.00314328
0.0010058
0.00381039
-0.00217966
-0.000589152
-0.00040652
0.0037938
0.000218358
-4.18169e-06
-0.000836248
-0.00364445
-0.000878027
0.00108605
0.0011557
0.000402013
-0.000132341
-0.00284785
-0.00190448
-0.000793303
0.000375951
0.00072582
0.000185558
-0.000256664
0.005845
-0.000846773
-0.00159774
0.00151956
0.000187136
-0.000106872
-0.00470473
-0.000166245
-0.00166703
0.000780389
0.00055112
0.000371913
-0.112714
0.0118851
-0.0208487
0.00274164
-0.00135936
0.000845858
-0.062731
-0.00112276
-0.00496429
0.000441731
-0.000264866
4.10992e-05
-0.00436365
-0.00204451
-0.00036178
-0.000897435
0.000753125
0.000288998
-0.00461144
0.00031966
0.00167965
0.000633393
0.000299608
-0.000394926
-0.00261578
0.00278802
0.00323942
0.00812124
0.00227265
0.00213306
0.00122789
0.00115873
0.000570958
0.00213257
0.000226024
-3.20991e-05
-0.000165111
0.000298209
0.00102827
-0.00120249
-0.00329082
0.00789866
-0.000361794
0.00685417
0.00059188
0.000755341
0.000443896
-0.00502729
0.000883033
-0.00289156
-0.00034836
0.0011638
0.00104344
-0.000607942
0.00447783
0.00860962
0.00450311
0.0125246
0.00258254
0.00464705
-0.0011061
-0.00263862
0.000596483
0.00164699
-0.000795417
0.00678129
0.0071555
0.00375416
0.01001
0.0020372
0.00357801
-0.00305617
0.000922481
0.00240579
0.000400634
-0.000224267
-0.00248487
0.0012323
0.000874309
0.000490388
0.000167004
-9.92665e-05
0.0152351
0.000727835
0.000511798
-0.00157578
-0.000792158
0.00155491
0.00449477
0.000704631
-0.00148895
0.000142567
0.00678997
-0.00327706
0.000583246
7.93382e-05
0.000246663
0.000431926
-0.000454079
-0.00141337
-0.000651254
0.00030991
6.86882e-06
-0.00409965
-0.000320302
0.000730283
0.00179406
0.000264009
0.000505483
-0.000411689
-0.00130501
-0.000274332
-7.73451e-05
-6.35594e-05
-0.00744862
0.00421691
-0.00196662
-0.00285532
-0.00161301
-0.00186871
0.000763666
0.000284786
-0.000651616
0.000287475
0.00607976
-0.00108623
-0.000667383
-0.000712932
-0.000342829
3.8596e-05
0.000585673
-0.0116822
-0.00123281
-0.00553293
-0.000983345
-0.0013598
0.000606892
-7.91942e-05
-0.000383997
0.000319563
-0.000546361
0.00543047
-0.000100455
-0.00279892
-0.000232877
-0.000330967
-0.000354279
0.0038367
0.00127544
-0.000621709
0.000124193
-0.000664235
-0.00160198
0.000355024
0.00621272
-3.71145e-05
-0.000514096
0.000493303
0.000706449
-0.00120654
-0.00120341
0.00145813
-0.0013227
-0.0334184
-0.00862625
0.00144663
0.000331298
0.0277596
-0.000750429
0.00499647
-1.19043e-05
-0.00121915
-0.000441389
-0.00177573
0.0007938
6.22922e-05
-0.000437722
-0.000725777
0.000100386
-0.000197039
-0.000515906
-2.54133e-05
-0.000344272
0.00418205
-0.000375827
-0.000180298
-5.6883e-05
-0.000970498
-0.000418828
-0.000207211
0.000301891
-0.000773994
-0.000280746
-0.000130122
-0.000599121
0.00192306
0.000528439
-9.26238e-05
0.000152888
0.000235764
-0.00285986
-0.000409075
-0.000571979
9.83519e-05
2.80375e-06
-0.000392956
7.69633e-05
-0.000405353
4.2821e-05
-0.00065834
4.66268e-05
1.89656e-05
-0.000740446
0.000763636
-0.000213262
0.000269178
-0.00140042
0.000408118
-0.000269477
-0.00111913
0.00918919
-0.000667136
0.00253991
-0.00205358
-0.000147975
-0.000691016
-0.00126124
0.00103913
-0.000349742
-0.000823406
-0.00103776
-0.000436556
-0.000578601
-0.00124643
-0.000925798
0.00033785
0.000699825
-0.000674299
0.000233044
-0.000193759
0.000423191
0.0163119
-0.000197848
0.000496036
0.000372768
-0.000230152
-0.00133502
-0.000810591
0.000335875
-0.000184303
0.000572705
0.000987798
-0.000626443
0.00369574
-0.000767683
0.00160836
0.00107719
0.00015515
-0.000411574
0.000458801
0.00328323
-0.00019821
0.0019127
-0.00063137
0.00120813
-0.000195341
0.000530954
-0.000567354
-0.000174507
-0.000124234
-0.00456365
-0.00573847
-0.00112962
-0.00554531
-0.00150294
-0.00083167
0.00116143
0.0022087
-0.00034806
0.00160449
0.0154494
-0.0110836
-0.00115031
-0.0114328
-0.00134738
-0.000154445
0.0011128
0.000750944
0.000134055
0.000765079
0.00244645
0.00320451
-0.000221909
0.000943022
-0.000519397
5.33999e-05
0.00779756
0.0129456
-0.000463134
0.00072521
-0.00025367
0.00151421
0.00814195
-0.000794121
0.0020691
-0.00120172
0.000326821
-0.0011091
0.000815242
-0.000200978
-0.000849326
0.000482268
0.000518678
-0.00437463
-0.00103622
-0.00404368
-0.00113672
0.000344087
-0.000739814
0.000801557
-0.00126351
-0.000541913
0.000397973
0.00279677
-0.000470782
-0.000885916
-0.00134015
-0.00109759
0.000182573
0.00338859
-0.0011592
-6.22833e-05
0.000445643
0.00129019
0.0328748
0.0010333
0.00346764
-0.006884
0.00153871
-0.000230303
-0.00117314
0.0222131
-0.00283076
-0.000550406
-0.0014512
-0.000593422
0.000464033
0.00128334
-0.000153501
-0.00025171
0.000903037
3.35976e-05
-0.00811152
-0.00685958
-0.000242861
0.00261703
-0.000190428
-0.000289132
-0.00147994
0.00123132
-0.000729339
0.000171255
-0.000292812
0.00269236
-0.00739883
-0.000590966
0.0013956
-0.000414631
-0.000469539
-0.000817118
0.000889587
-0.00027406
-0.000430312
-0.00065935
0.00161038
-0.000467502
0.000234583
0.001593
-6.58558e-05
0.000601407
-0.00168744
0.00181206
-0.000159692
-4.54487e-05
-0.00106061
0.00790182
-0.00256662
-0.000174076
-0.0023572
-0.000334242
-0.000127791
-0.000112336
-0.000115637
-0.000696052
-0.000403831
-2.97603e-05
-0.00143854
0.00565047
0.00314477
0.00972521
0.00213505
0.00321967
0.00270469
0.00117424
-2.41928e-05
0.0021524
-0.00080938
-0.0041522
0.00901034
0.0020083
0.00591795
0.000950603
0.00274509
-0.000608408
-0.0333859
0.00144756
0.0015286
-0.000768817
0.000458671
-0.00097463
0.00206953
7.10901e-05
-0.000866395
0.000470181
0.0112733
-0.000192117
-0.00617628
0.00103747
0.000216065
-0.0007121
-0.00512997
0.00292694
0.00113012
0.00226962
0.000653075
0.000660364
0.000294329
-0.0058541
0.000140299
0.00490425
0.000790046
0.0179829
-0.00312433
0.000806122
-0.000911211
0.000469582
3.02318e-05
-0.00187585
-0.0653266
0.00182929
-0.000412733
-0.000517269
-0.00056234
0.00172675
0.00169345
-0.00140101
-3.93221e-05
0.000205941
0.0530347
-0.00350945
0.00145293
0.00572402
0.000899094
0.000414383
-0.0030581
0.00249583
-0.00824676
-0.00154677
-4.212e-05
-0.00836687
0.000492938
-0.000329972
0.000892947
-0.000885729
-0.000542275
-0.00235771
0.0104483
4.56494e-05
-0.00102177
0.00168965
3.84624e-05
-0.000182142
-0.000272064
0.0043742
0.000853955
-0.000415049
3.95283e-05
0.00193801
-0.000817044
-0.00346663
0.00833417
-0.00189122
-0.0175723
-0.0118716
0.000404263
-9.14311e-05
0.00822366
-0.000562541
-0.00304911
0.000478328
-0.000219441
-5.11341e-05
0.0184985
-0.000315733
-0.00145203
0.000817644
0.00314894
-7.585e-05
-0.00766348
0.000808509
-4.29177e-05
-0.00147092
-0.00144315
-0.00112434
0.000254462
-0.000379311
0.000771658
-0.000211615
-0.00038919
-0.000739809
-0.00148497
-0.00489481
0.00366233
0.00136014
0.00527661
0.00065267
0.00163606
-0.000319987
-0.000399101
-0.00177529
0.00124396
-0.00012503
0.0062052
-0.000425588
-0.00544881
0.000318201
0.000578819
-3.51427e-05
-0.00745509
-1.28618e-05
0.00151688
0.000937892
-0.000347066
-6.39893e-05
-0.000608808
0.00306434
0.000594803
-0.00148784
0.00236092
0.00103566
-0.00153598
-0.0604075
0.000797058
-0.00186425
0.0013044
0.00116659
-0.000148394
-0.00643482
-0.00132815
8.83499e-05
-0.000450785
0.00569085
0.00103835
-0.000223388
5.84684e-05
0.000648232
0.000647475
-0.00055798
0.00467249
0.00194558
0.0018
0.000902759
0.00550254
0.000828206
0.000255519
-0.000338808
-0.000595328
0.000314326
-0.000384015
-0.00318727
0.000997235
-0.000559587
0.00416216
0.000349983
-0.00714584
0.00170278
0.00160699
1.97629e-05
0.000311805
-0.000418037
0.000474705
-0.00569124
-0.0375926
-0.000111718
0.000562434
-0.00141528
0.00906788
-0.000458665
-0.000954811
-0.00057597
-0.000576083
8.55409e-05
-0.00109116
-0.025505
-0.00420503
-0.000794991
0.00447131
-0.000796212
0.00368525
0.000289475
-0.000879935
-0.000672902
8.8506e-05
-0.00244378
-0.000354288
-0.0134272
-0.00014773
-0.00263772
0.0005528
-0.00024166
-0.00197215
0.000243493
0.00051734
3.7225e-05
0.000133748
0.000244438
-0.00779544
-0.0629987
-0.03984
7.2516e-05
0.00188273
-0.00302163
-0.0121025
-0.00607924
-0.00405276
0.00133926
0.00191075
-0.00347964
0.00197218
0.0367854
-0.010955
-0.000519326
-0.000743385
-0.000426848
-0.00564092
-0.000754294
-0.000823079
-0.000892673
2.96095e-05
-0.00210917
-0.0015354
-0.00203765
-0.00445794
0.00127075
7.38133e-05
-0.00197296
-5.15084e-05
0.000335098
-0.0016058
-0.000749346
-3.67857e-05
-0.000714644
-0.000905632
-0.0201509
-0.0253759
0.00544805
-0.00148645
-0.0014726
-0.00105116
-0.00197641
-0.00070749
-0.0016367
-0.00034821
-0.000447374
-0.000917274
-0.00117239
-0.0222451
0.00423763
-0.00263636
0.00870083
0.00328979
0.00222395
-0.000754804
0.000511924
0.00333646
0.00379821
0.00377925
-0.00113412
0.00386458
0.00280691
-0.000532814
0.00110727
-0.00188082
0.000733211
-0.00082572
0.000550571
0.000275339
0.000308685
1.36085e-05
-9.42637e-05
-0.000148614
0.014294
0.000290822
0.000941622
0.000849924
0.00240871
0.00418624
-0.00227213
0.00202292
-0.000231799
9.22815e-05
-0.000100288
-0.00061194
0.0738137
0.00460048
-0.00109657
0.00189785
-0.000706068
-1.36105e-05
-0.000354655
-3.15754e-05
-0.000681056
-0.000178362
9.92245e-05
-0.000862743
-0.00691937
0.0119484
0.00363132
0.00123543
0.00257165
0.00140412
-0.000333803
4.66781e-05
0.00344385
0.000601259
0.000235097
3.44307e-05
0.000261942
-0.028071
-0.0073756
-0.00057876
0.000630534
-0.000767366
0.000299341
0.00109985
0.000824606
0.00074179
-0.0001094
-0.00833263
0.000422329
0.000706367
0.00471041
0.00404425
-0.0044417
-0.00234956
0.00121366
0.00321114
0.00339442
0.00438113
0.000274692
0.00445892
-7.32452e-05
0.000617538
0.000614498
-0.000889348
-0.0034698
0.00149291
0.00171254
-0.000339346
0.0011418
0.00145843
0.00682188
5.73539e-06
0.00383065
0.00487921
-0.00113369
-0.00405509
-0.00267406
0.00162662
-0.00281136
0.000917679
-0.000993209
0.00146017
0.00401981
-0.00326985
0.00319597
0.00145408
0.00155461
-0.00248603
-0.00321375
-0.0123791
-0.00219802
-0.00357316
-0.00193978
-0.00185704
-0.00263718
-0.000413799
-0.0120664
-0.00558255
-0.00242694
0.0110466
-0.000849566
-0.000835257
-0.00198168
0.00345136
-0.00271539
-0.000407463
-0.00163593
0.000148127
-2.43443e-05
0.00439933
-0.00317466
0.00500988
-0.00301639
0.00327707
0.00151209
-0.0026627
-0.00463971
-0.00754705
-0.000287395
-0.00510723
0.00286538
-0.00102567
0.00331699
-0.00251238
-0.00381589
0.00341057
0.00437252
0.00639014
0.00143942
-0.000935822
0.00138757
-0.00147221
0.00232392
0.00200484
-0.000745048
0.00539233
0.0040224
-0.00755067
0.00184435
-0.000251503
-0.00684942
0.00349773
0.00199933
0.000397179
-0.00246544
-0.00292656
-0.000561614
0.00714816
-0.0052014
0.00677321
-0.00513706
-0.00296121
-0.00829988
-0.0012789
-0.0056317
-0.00360756
0.0205021
0.0147841
-0.000681997
0.00136684
-0.00392602
-0.00291293
0.00302538
-0.00499881
0.0053315
-0.00606815
0.00377603
0.00172735
-0.0250626
0.00327632
0.00486166
-0.00699148
-0.000497538
-0.00440184
0.00549538
0.0953366
0.000904157
0.0282816
-0.0602182
-0.0193197
0.00601155
-0.0087683
0.00684222
0.00316632
-0.0240225
0.0048554
0.00688192
-0.0156355
-0.0090023
0.00692565
-0.0146684
-0.0278317
0.012582
-0.00951437
-0.0015939
-0.00617987
0.00470728
-0.00439727
0.00281965
0.00255478
0.00218761
0.0195909
-0.0069708
0.0557017
0.00586264
0.00314815
0.00120545
0.00906153
0.00637994
0.0102851
0.0154682
-0.00534218
0.0174185
0.0123594
0.00717143
0.00264259
-0.00874344
0.00701456
-0.000717469
0.0354039
-0.0154407
-0.00406391
0.0144497
-0.0100697
0.00273809
0.00905299
0.0557504
0.0289544
-0.00674087
0.00487318
-0.00773421
-0.00248804
0.0343765
-4.17369e-05
0.0474855
0.00138435
0.00246684
0.0059671
0.00934904
0.00348622
0.00830033
0.00877981
-0.000182622
0.0256061
0.0124662
0.00550589
-0.00659915
0.0164037
-0.0295943
-0.0228085
0.0474232
0.0586914
0.00601908
-0.0104852
0.0220279
-0.059938
0.0166502
0.0126671
-0.0321732
-0.0232846
0.0118021
0.0239258
-0.00457963
-0.0120249
-0.00472429
-0.0126367
-0.00970427
-0.0483852
-0.0166625
-0.00494433
0.0328589
-0.0183691
0.0326185
-0.0403651
-0.0207248
0.0018103
-0.000740485
0.00716229
0.000756786
9.37027e-05
-0.014077
-0.0112155
-0.00813786
-0.00148899
0.0155853
0.00128813
0.0124632
-0.0141133
0.0240052
0.00202094
-0.0159568
-0.0213943
0.00552517
0.00660982
-0.00377854
0.011215
-0.0047491
-0.00391816
-0.00144504
-0.0266612
-0.0174069
-0.000304797
-0.00182891
0.00786315
-0.0028898
0.00145675
0.00213255
-0.00760597
-0.00950344
-0.0161045
0.000244539
-0.0110483
0.0409512
0.0156347
-0.0247874
0.0129215
-0.0176515
-0.003593
-0.0324755
4.52636e-05
-0.00536677
-0.00179636
-0.00534565
0.00385157
0.0121358
-0.00229687
-0.0322796
0.0281542
-0.00401614
-0.00455858
-0.0173355
-0.000900253
-0.0140381
0.0448386
0.0073134
-0.0318073
0.0317121
0.0041596
0.0222361
-0.0243002
0.00678976
0.0119294
0.00668511
0.00652536
-0.0149617
0.00253852
-0.00675837
0.0273623
-0.0130425
0.00142476
-0.0231874
0.0191809
0.0104075
0.0118368
-0.0130656
0.0149624
0.0390859
0.0238943
0.00552851
0.00388247
-0.00788854
-0.00645148
0.00236957
0.00128071
-0.00334136
0.0010163
0.00384514
0.011082
0.0224306
-0.00703051
0.0118241
0.0336961
0.0288204
0.00616116
0.0127903
-0.0346922
0.0161675
-0.00201912
0.00579097
0.0235515
-0.00999938
-0.000734606
-0.0124997
0.00860625
-0.0179638
-0.0203422
-0.043115
0.00955291
0.0405258
-0.0104439
0.00271094
-0.0176557
0.000991997
-0.0113844
-0.0150084
0.011372
0.000828864
-0.00402964
-0.00881229
-0.0260439
0.00318522
0.00459555
-0.00316081
0.00426553
-0.0521476
-0.0015059
0.0008773
-0.0104676
-0.00259515
0.0295919
0.0197735
0.00453405
0.00812011
-0.0232802
-0.00096186
0.00962229
0.00344992
-0.0213019
-0.0070365
-0.0158307
-0.044861
-0.00682564
-0.0426457
0.00709399
-0.002809
-0.0139134
-0.0161033
-0.00694347
-0.0135964
0.0156616
-0.0100584
0.00966277
0.0586384
-0.00429633
-0.0229114
-0.02487
0.0342775
-0.00337207
0.0138551
0.00590346
0.00593198
0.00371735
-0.0195742
-0.0146795
-0.0232034
0.0180228
-0.0150311
0.0482247
-0.0348446
0.00601142
-0.0130979
-0.0569861
0.0147635
-0.0231527
0.0209961
-0.00732938
-0.00171691
-0.00253482
0.00972944
0.020567
0.0235985
-0.0133333
0.00918045
0.0188011
0.00452987
-0.0138617
-0.0072012
-0.0149114
0.043579
0.0171755
0.0032167
0.00523118
-0.0083587
0.0189992
0.0145342
-0.0118659
-0.0114397
0.00466194
-0.0301511
-0.0132383
-0.00269578
-0.00504255
-0.00542775
-0.000992808
-0.000478281
0.0027364
-0.0120076
0.0104376
-0.00480959
-0.0165323
0.00130514
0.0128956
0.0212934
0.00498149
-0.027311
0.0228106
-0.00717119
0.00793089
-0.0627591
0.0092108
-0.00394445
0.0188028
0.000911193
0.000442796
-0.000549435
-0.0194797
-0.00114096
-0.0194454
0.00450943
-0.0094441
0.00349889
-0.0261919
0.00071062
-0.0478766
0.000557187
-0.0144439
-0.0452396
0.0248045
0.00513346
-0.000820253
0.0434389
-0.0131308
0.0415434
-0.00649224
0.00281722
-0.01434
-0.00601825
0.0174932
0.013721
0.00156444
-0.00236346
0.00166407
0.0271788
-0.00147834
0.0446661
0.00520652
0.000620358
0.00362453
0.090237
0.00202737
-0.00783275
-0.0194917
-0.00270803
-0.00370596
0.00331837
0.0229937
0.0211785
-0.0126338
0.0236576
0.00170102
0.00235889
0.0228732
0.0227481
0.0496243
0.0611551
-0.0438042
0.0237749
0.0213011
0.0300481
0.00642135
0.062152
0.0107755
0.00655562
0.00766271
0.0133075
0.00543165
-0.034232
-0.023262
-0.0778297
0.00225193
0.0128338
-0.0054398
0.02257
-0.0111474
-0.00697621
-0.0771679
0.00302383
0.00513347
0.0429772
-0.0444838
-0.000324898
-0.0595552
-0.00859269
-0.0749872
-0.0159048
-0.0282278
0.00903754
-0.0152923
0.0171033
-0.0127892
0.0237063
-0.0041892
0.0383102
-0.00979045
0.026686
-0.000914987
-0.0270372
-0.00230291
0.000724976
0.014013
-0.0252451
0.00858647
0.0333442
0.0122799
0.00774037
0.00850111
-0.0151902
0.00612982
-0.0564603
-0.0248011
-0.0308983
-0.0202575
-0.0321112
0.00167355
-0.00560349
-0.00658923
-0.0216047
0.0161436
0.0145271
-0.00071052
0.000889842
0.0077614
-0.00400794
-0.0159964
0.00767751
0.0103871
-0.00180852
-0.0367003
-0.00435088
0.0257583
0.022688
-0.0130511
0.0306644
-0.00618978
-0.0377157
-0.00128013
-0.0101109
-0.00211367
-0.0168159
0.00304888
0.0205482
-0.0231874
-0.0206042
-0.0127857
0.0430786
-0.0227988
-0.0189545
0.0042478
-0.00236024
0.018376
-0.00346578
-0.0300286
0.00592314
-0.0205682
0.00245042
-0.00764012
-0.0588
-0.019105
0.0120456
0.0258009
0.00953771
-0.00470569
0.000599698
-0.00762553
0.00674811
0.0251597
-0.00656631
0.00367178
0.00367109
-0.00104276
-0.0294455
-0.034973
-0.00143213
-0.0213397
0.0165879
-0.00289213
0.0270636
-0.0085947
-0.0080074
-0.00493324
-0.0108814
-0.0128702
0.0469137
-0.0247245
-0.0141389
-0.0111048
0.000248503
-0.0146777
0.0144438
0.0181187
0.000371044
-0.012481
0.00149892
-0.0108089
-0.00130466
0.000892667
-0.000519505
0.000216857
0.00281601
-0.00241946
-0.00407637
0.00472783
-0.0276945
-0.028903
-0.0144148
-0.0231967
0.00133084
0.0120199
-0.0162543
-0.0106584
0.00582193
0.0125132
-0.00500362
0.00211753
-0.00361026
-0.00017315
-0.0179697
0.00165993
-0.0137373
-0.00741569
0.07139
0.0323078
0.0255444
0.00489166
0.0336871
-0.0156243
-0.0247311
0.00623659
-0.054908
0.0134124
0.036105
0.00634403
0.00133105
-0.00865834
-0.00423426
-0.0147545
-0.00751793
0.00787687
0.00106573
0.0121591
0.00175213
-0.0155678
-0.00890879
0.0214485
-0.0313866
-0.0630312
-0.00088148
0.00412913
0.0144677
0.0260314
0.0111415
-0.000128612
-0.00119565
-0.0108926
0.0148945
0.00687821
-0.0360395
0.00246886
0.00516186
-0.00055535
-0.0145973
-0.0214517
0.00663786
-0.00628277
-0.0160613
0.0103489
0.0242908
-0.00250173
-0.00756198
-0.0100693
0.00499792
-0.0188754
0.00198735
0.00943846
-0.00635515
-0.00363846
0.000256021
-0.0152758
0.000904869
-0.000220345
0.00282139
0.00357919
0.00383532
-0.00672128
-0.00901729
-0.013633
-0.0114275
0.00353815
0.011508
-0.0460651
-0.00422582
-0.0332974
-3.58198e-05
0.0146785
0.0275046
-0.0032595
0.00160561
-0.0216994
-0.0116891
-0.100896
0.016674
-0.00194102
0.00258789
0.00266854
0.00465944
-0.0201355
0.00081507
-0.00837761
0.000610899
0.0128553
-0.0267284
0.00472378
0.0137971
-0.00813493
-0.00783787
0.00728162
-0.0075624
0.00116775
0.00156503
0.0033752
-0.00192152
0.0156948
0.00515684
0.0650941
0.00310588
0.00246704
-0.00567742
0.00473209
0.0135972
0.00344424
0.0176759
-6.20429e-05
0.00106913
-0.00271888
0.00127455
-0.00557006
-0.0015496
-0.0121353
0.000343976
0.00422826
0.0142455
0.0157851
0.00302082
0.00713951
-0.0209236
-0.00473251
-0.0111086
-0.00365878
0.00128945
0.0068721
-0.0145157
0.00936478
0.00840961
0.0109764
-0.0127629
0.0131504
-0.00750506
0.00839566
-0.0124314
-0.00629696
0.0186341
-0.00896455
0.00993828
0.00775818
-0.000246741
-0.002447
-0.00240395
0.000201344
-7.69694e-05
-0.00514352
0.00408907
-0.0312765
0.00724453
-0.00269507
0.00336826
-0.0325653
0.00866447
1.03877e-05
0.00389606
-0.000350559
0.00158875
-0.00249192
0.023079
0.026464
-0.0140084
-0.000498754
-0.0187062
0.0117688
0.0612727
3.49266e-05
0.00960124
0.00278667
0.00083908
0.00151597
-0.00114496
0.10847
-0.000762406
0.00123733
0.000780575
0.0230517
0.0229235
0.00135847
0.000698033
-0.00244952
0.00359487
0.00563254
0.000866126
0.0298764
0.012467
0.000924472
0.0058014
0.000196942
0.00256639
0.0410631
-0.00431559
0.00316857
0.0225782
0.000525736
-0.0273133
0.00180643
0.00255771
0.0168151
-0.00199746
0.00493901
-0.00100396
0.00245377
0.00960637
0.000183265
-8.92211e-06
-0.00341188
-0.00196703
0.0087627
0.00204478
0.000425378
0.000591248
0.00368625
0.0006221
0.00116674
0.000116151
-0.000345312
0.00139391
0.00085
0.00230111
-0.0209614
0.00197505
0.00498201
9.27256e-05
0.000107329
0.00139919
0.000124528
0.00152683
0.00215495
4.3184e-05
-0.010239
0.00397444
0.00231056
0.00162764
-0.000207447
-0.00211079
0.000193143
-0.00117415
-0.000230205
7.80596e-05
-0.00174306
0.000961734
0.000607749
-0.000786612
0.000943883
-0.00886018
0.00114473
-0.0112364
0.00150111
0.00475872
-0.000573285
-6.90698e-05
-0.00109873
-0.000794087
0.000735931
0.000766169
-0.00298177
-0.00467862
0.00124956
-0.00143336
-0.000568689
0.000718171
-0.000335862
0.000357371
0.000244994
-0.000607005
-0.0101542
-0.00343022
-0.00676136
-0.00264915
-0.00517475
0.000554294
-0.00225007
0.00261932
0.00617319
-0.00462011
-0.00975382
0.00402085
0.000695602
0.00227043
-0.000163211
-0.0023216
-0.00225669
-0.00355432
0.00286042
0.00122006
-0.000634653
-0.00117897
-0.000718487
-0.000140038
0.0044493
-0.0122632
-0.00382017
-0.0140472
-0.00653804
-0.0347106
-0.0122673
0.000797886
0.00184322
-0.0156853
-0.00178567
-0.0104233
0.00159606
-0.000949452
0.0054982
-0.00314844
0.00119213
0.000744088
-0.00941778
0.000894229
0.000529857
1.70457e-05
-0.00621772
-0.00487106
-0.00550924
-0.00140773
0.00191026
0.0152828
-0.00189823
0.000807377
6.42399e-05
0.0004599
0.000327943
0.00867679
-0.00381661
0.000957784
0.000863277
-0.00151975
1.24992e-05
0.00417917
0.000665024
0.00128097
0.000476378
-0.000606087
0.000347666
0.00131467
0.00122559
0.00322822
0.0013567
-0.0024331
-7.31567e-05
0.00066949
-0.00137447
-0.00687851
-0.00144673
-0.00173559
0.00189806
0.000338197
-4.15727e-05
0.000896264
0.00143073
0.000436108
-0.00195934
3.97471e-05
-0.00167167
0.0060642
0.00402832
0.00105463
-0.000283699
-0.000920182
0.00066167
0.000726432
-0.0029907
0.00239121
0.00190808
-0.000118953
-0.00162285
0.000355447
-0.000445609
0.00342617
-0.00741537
2.41936e-05
-0.00258551
0.000176028
-0.000347727
-0.00064019
-0.00135916
0.00405078
-0.00258234
-0.00529241
-0.00563669
-0.00885254
0.0010346
3.59502e-05
-0.00141518
0.00197396
-0.000466417
-0.000634915
-0.000376334
-0.00229881
-0.000509182
0.000696688
0.00114136
0.0030112
0.00162341
-0.000333041
-0.0001333
0.000451393
-0.00107444
0.00523042
-0.00220647
-0.00136797
-0.00132669
0.000459342
-0.00170238
-0.00116377
0.000765511
0.00144237
0.00441431
0.00595878
0.00109522
0.000876544
-0.00278516
0.000174347
6.35205e-05
0.00655715
0.00483092
0.00106289
0.000309319
-0.000716402
0.000172092
0.000114921
0.00633254
0.00326524
-0.000829045
0.0018852
-0.00101511
0.000549077
0.00588822
-5.05227e-05
-0.00673116
0.00259462
0.00175339
-0.0391869
0.00540905
-0.000151346
0.00185286
-0.00096193
0.00185173
0.00219703
-0.00020813
-0.00266382
-0.000277379
0.00128038
-0.00262761
-0.00170973
-0.000436921
0.00139402
0.000199541
-0.000244346
0.00225751
-0.00280212
-0.00206104
-0.00096104
-0.0109965
-0.0763684
-0.0237823
-0.00352167
-0.00825759
0.00112401
-0.00110866
-0.0321483
-0.000755952
-0.00628652
-0.00150335
-0.00386795
0.00121244
-0.000451804
-0.00943482
-0.000165959
-0.00199091
-0.00191113
0.000514318
-0.000259655
-0.0031062
-0.0106029
-0.00288343
-0.0108047
-0.00247591
-0.00351739
-0.000476418
-0.00248579
-0.00189065
0.00109275
-0.00197356
0.00097643
0.00581044
0.00976795
0.00477004
0.00320454
0.00264793
0.000760612
0.000566689
0.00506606
-0.00142509
0.00327618
-0.00168243
-0.000207101
0.000381657
0.000426426
0.00344977
-0.0148406
0.0166011
0.000648929
-0.00156377
0.0399032
-0.014891
0.000163933
-0.00622708
-0.000208207
-0.00217382
-0.00286475
-0.00119299
0.000189907
-0.000700847
-0.00165206
0.0109645
-0.00768906
0.00163819
-0.0042916
0.000929772
-0.00124208
0.00238464
0.00763827
0.00763784
-0.0021582
0.0801689
-0.000986293
0.000844422
0.00432346
0.000442559
0.000104894
-0.000477181
-0.00217766
0.000223159
-0.000393364
-0.00101911
-0.00260102
0.00109282
0.00707564
0.000401323
-0.00136429
0.0300572
-0.00468163
0.00154063
0.00453894
-0.002521
0.00649636
-0.00063146
0.00436617
0.00231054
-0.000731282
-0.000654999
0.00627795
-0.00114329
0.00100739
0.00239487
-0.000103803
2.7158e-05
-0.00287746
0.0147117
-0.000924763
0.000391322
0.000880743
2.48915e-05
1.61015e-05
0.0215839
-0.000349984
-0.0027494
0.00396198
-0.000159963
0.000244479
-0.0012617
-2.74385e-05
-0.00205348
0.000825531
0.000712939
0.000467115
0.00746058
0.000208223
0.00089214
0.000493344
0.000369424
0.000534671
0.00486644
-0.00228911
-0.00188011
0.000974823
8.86916e-05
-0.00101335
0.0100901
-0.00156642
-0.00047202
-0.000159295
-0.000386987
-0.000820776
0.00259359
-0.000379393
-0.00117985
0.00129927
-0.000707882
-0.000266616
0.00312465
-0.00175704
0.00231684
0.00402423
0.0026496
0.000655418
0.000676151
-0.00134888
0.00125698
0.00171908
-0.000603693
-0.000873217
-0.00230518
-0.000317237
0.0003809
-0.00137599
-0.0020499
0.00668425
-0.000942422
0.00332165
2.83025e-05
0.000268754
1.35729e-05
-0.0139155
0.00198453
-0.0021294
-0.000689748
0.0021661
0.00067142
-0.000439267
0.00756209
0.00250102
0.00438998
0.00918731
0.00258064
0.003865
-0.00110618
-0.00369202
0.000512804
0.00177756
-0.00149273
0.007867
0.00373056
0.00376025
0.00788906
0.00226586
0.00356637
-0.00399606
0.00102897
0.00261515
0.000161705
0.000626352
-0.00215565
0.00127474
0.000796676
0.000556379
0.000617814
-4.82121e-05
0.0166923
0.0014267
0.000145015
-0.000599022
-6.33901e-05
0.00280661
0.00448452
0.000487508
0.000922541
0.000593272
0.00880132
-0.00249199
0.000671013
0.00116567
0.000481845
0.000568388
-0.000369087
-0.00175453
-0.00123031
0.000203153
0.000186606
-0.0035808
-0.00146956
0.000826914
0.0025279
0.00066403
0.000540393
-0.000766169
-0.000839198
-0.000965096
-0.00055352
5.71682e-05
-0.00459207
0.00476958
-0.00193389
-0.00120702
-0.00170184
-0.00165726
0.00153314
-0.000427402
-0.00086076
0.00101
0.0100476
-0.000916774
-0.000324982
-0.0018259
-0.000335894
0.000116334
0.00365358
-0.015365
-0.00162288
-0.00620222
-0.00111928
-0.00145905
-5.19227e-05
0.000761302
-0.00487638
0.000224361
3.26907e-05
-0.00179887
-0.0001661
-0.00303417
-0.00106333
-0.000965937
0.000118346
0.00496294
-0.00152592
-0.000653821
-0.000440865
-0.00178279
-0.00141396
-3.11877e-05
0.0117998
-2.56406e-05
-0.00133031
6.33804e-05
0.000732803
-0.00122498
-0.00111085
0.00473412
-0.000643784
-0.0267595
-0.0136421
0.00345569
0.00120033
0.0459588
-0.00127975
0.00566895
-0.000561933
-0.00134837
-0.000185119
-0.00170109
0.00313771
0.000555037
-0.00177474
-0.00104472
0.000672204
0.000601665
2.80882e-05
0.00460664
0.000313318
0.00303699
-0.000297371
0.000192356
0.000461242
-0.000222777
0.00141915
0.000419978
-0.000688323
-0.000997839
0.000243042
0.000487571
0.000613612
0.00175291
0.000318437
-0.000188989
0.00527822
0.000972923
-0.00240426
-0.000169687
-0.00145555
-7.98428e-06
0.000130436
0.000109559
0.000146825
7.40373e-05
-0.000797446
-0.00126749
0.000958254
0.00069721
0.000257305
0.000427593
0.000340505
-0.000828685
-0.00199123
0.00130998
0.000790018
1.02048e-07
0.0123576
-8.79513e-05
0.000906633
-0.00374621
-0.000136955
0.000288085
-9.90884e-05
-0.000230554
-0.000778614
-0.00144229
-0.00225941
1.02227e-05
-2.94241e-05
-0.00096074
0.00138532
0.000938276
0.000367734
-0.0010998
-0.000206658
0.000444668
0.00155904
0.016799
-0.000592876
0.000780711
-0.000526027
-0.000294737
-0.00111342
0.00345722
-0.000367599
-0.000762999
0.0005511
0.000755089
-0.000719468
0.00718584
-0.00112199
0.000872651
0.00086483
0.000639411
-0.0001049
0.00406838
0.00457252
3.24762e-06
0.00334701
-0.000453546
0.00160947
-0.0010501
1.10034e-05
-0.00133474
-0.000486737
-0.000245161
-0.00538919
0.00354779
0.000610188
0.00189909
-0.000473382
0.00160993
-5.9449e-05
0.00998943
0.000783608
6.82716e-05
0.0115585
-0.00491322
-0.000129862
-0.00639501
-0.000506013
0.0013944
0.000276415
0.00122668
0.00215055
0.000871238
0.00510679
0.00262451
-0.000372741
0.000486512
-0.000649828
-5.38425e-05
0.00909285
0.0279419
-0.000689167
0.00120983
-0.00024233
-0.00341967
0.00686301
-0.00121426
0.00179309
-0.00157216
0.000139098
-0.00159042
0.00137918
-0.000674603
-0.00150414
0.00053225
0.000506307
-0.00539883
-0.00107001
-0.00586015
-0.00136829
0.000216203
-0.0013532
0.00101214
-0.00257137
-0.0011063
0.000408313
0.0061474
-0.000489394
-0.000803117
-0.00138596
-0.0011464
0.00041501
0.00166365
0.00381929
-0.000652733
0.000366784
0.000911764
0.0765889
0.000982717
0.000761453
-0.014455
-0.00055251
-0.000327808
-0.000717954
0.0182818
-0.00436139
-0.000599864
-0.00121308
-0.000803608
0.000245092
0.00140855
-0.000638547
-0.000250434
0.000762942
-0.000243984
-0.00719527
-0.00930222
-0.00015915
0.00214461
-5.83009e-05
-0.000463047
-0.00269805
0.00100881
-0.00166027
0.000107091
-0.000215899
0.00731557
-0.0100938
-0.00054568
0.000546867
-0.000467687
-0.00068403
-0.00171268
0.000805149
-0.000833965
-0.000549761
-0.000998569
0.00700296
0.000329077
0.000592813
0.00223233
-5.5673e-05
0.000834399
-0.00246135
0.000493718
-0.000753444
-0.000207991
-0.00142417
0.0105892
-0.00420753
-0.000386503
-0.00312375
-0.000547919
-7.92473e-05
-0.000638439
-0.000805957
-0.00166992
-0.000285145
-5.1885e-05
-0.00235514
0.000704134
0.00278308
0.00627853
0.00218223
0.00261895
0.00109099
0.00145053
-0.000493462
0.00179125
-0.00127051
-0.00510543
0.00797471
0.00206125
0.00511563
0.00101496
0.00264481
-0.00148043
-0.0268268
0.0016957
0.00254351
-0.00102589
0.00645085
-0.00154941
0.00160317
-0.000614811
-0.00156197
0.000531622
0.0195663
-0.00130481
-0.00585588
0.000718007
0.000124525
-0.000446603
-0.00595952
0.00263775
0.00145033
0.00180612
0.000814368
0.00123568
0.000460752
-0.00788935
-0.00104248
0.0078975
0.000475223
0.0149985
-0.0059525
0.0011644
-0.0040551
0.000804646
0.000350815
-0.00197145
-0.04113
0.0022407
-0.000220123
-0.000120021
0.00392552
0.00333875
0.00170937
-0.00309057
0.000481754
0.00123985
0.0720905
-0.00622471
0.00196247
0.00562982
0.00125109
0.000514925
-0.00326173
0.00240866
-0.0122402
-0.000410984
0.000377619
-6.13437e-05
-0.000616166
-0.000732914
0.000996286
-0.00210488
-0.00074602
-0.00271634
0.016711
-0.000512728
-0.001464
0.0023357
-0.000566916
-0.000110882
5.34196e-05
0.0116428
0.00127256
-0.00157931
-0.000576443
0.00294932
-0.000815392
-0.00321586
0.0110868
-0.00192243
-0.000642773
-0.010869
0.00122736
0.000241427
0.00785425
-0.000729626
-0.0048138
0.000213133
0.000490588
0.000338761
-0.342425
0.00947161
-0.0327088
-0.00263907
-0.00546946
0.00592575
-0.0585364
0.000295299
-0.00215428
-0.00334638
0.000467523
-0.0011217
-0.0230234
-0.000762836
0.00186957
-0.00115187
-0.000983279
-0.00038757
-0.0013317
-0.0125864
-0.00288821
0.000111769
0.00184076
-0.000180046
0.00120985
-0.00181101
0.00191248
-0.00504249
-0.00253694
0.000878388
0.031132
0.00074941
-0.00784587
-0.000702915
0.0013288
0.000686481
0.031423
-1.15356e-05
0.00291575
0.00141583
-0.000379247
0.000693855
0.000472379
0.0181436
0.000275362
-0.000216325
0.0044091
0.000601426
-0.0012127
-0.0377831
0.000241266
0.00374964
0.001443
0.00190432
-0.000826218
-0.00273506
-0.00196493
0.000195721
-0.00088798
0.00524238
0.0010576
-0.00136222
-0.000213598
0.000747444
0.000177866
-0.00075815
0.0140986
0.00170806
0.00138085
0.000136274
0.00479091
0.0010462
-0.000951528
-0.000682214
-0.000772687
-0.000683406
-0.000648124
0.00427886
0.0010564
-0.00127299
0.00443628
-0.00157499
-0.00821986
0.0029109
7.00211e-05
-0.000527872
1.74133e-05
-0.0012403
-5.34119e-05
0.0078327
-0.0301346
-0.00105133
0.00155757
-0.00129023
0.00780089
-0.000539489
-0.00141459
-0.000684974
-0.000378638
-0.000530285
-0.00126221
-0.0137038
-0.0038673
-0.000937115
0.00169363
-0.000624056
0.00361466
0.000882019
-0.00130014
-0.000478734
0.000303829
-0.00357853
8.96653e-05
-0.0173359
0.00374274
-0.00328109
0.00100128
-1.85821e-05
-0.00167998
0.000926545
0.000975797
0.000464629
0.000817095
-0.000621847
0.00011887
0.0076729
0.042235
0.000727949
4.40106e-05
0.00158267
-0.00140511
0.00502114
0.00504049
-0.000331619
0.000544074
-0.000422396
0.00150656
0.024189
0.0071112
0.000665615
-0.00108463
0.000145659
-0.00281624
0.000473753
0.00230234
0.000135471
-6.05808e-05
-0.000648224
0.000358098
-0.00288323
0.00103121
0.00193595
0.00028168
-0.00143952
0.00131325
0.00246653
-0.00173818
-0.000500272
-0.000249356
-0.00035232
-0.000800814
0.00559923
-0.011282
0.0149176
-0.00099952
-0.000832247
-3.84451e-05
-0.00356534
-0.0013406
-0.00125151
0.000348165
-0.000352889
-0.000289687
-0.000805851
-0.0378177
-0.000753595
-0.00363737
0.00663262
0.00363562
0.00212269
-0.000382168
0.000603203
0.00353515
0.00343578
0.0035359
-0.00140011
0.00382671
0.00243028
-0.00103813
0.000132204
-0.00156309
0.000845462
-1.52007e-06
0.000833878
-0.000210875
0.000489867
0.000443018
-0.000131722
-0.000258339
0.0175948
0.000676787
0.00163364
0.000933897
0.00185584
0.00696953
-0.00381919
0.00206405
-0.000183499
0.000572118
-0.000184785
-0.000385335
0.0287752
0.0065779
7.81184e-05
0.00251125
-0.000304693
0.000804082
-0.00130704
-2.49977e-05
-0.000131088
3.29849e-06
-0.000285459
-0.000477298
-0.000122651
0.0146242
0.00815931
0.000798074
0.00220215
0.000980284
0.00131594
-0.00260013
0.00286453
0.000711361
0.00140839
-0.000212164
0.00126737
-0.0380421
-0.00634666
-0.000577877
0.000210402
0.000223731
-0.000339536
0.000422463
0.000552193
0.000849956
-0.000475883
-0.00675595
0.000117157
0.000180527
0.00610508
0.00335356
-0.0136602
-0.00581701
0.0017191
0.00447323
-0.00236478
0.00131056
-0.00577252
0.000407364
-0.00539537
-0.00492819
0.00265453
-0.00201303
-0.00323043
0.00066861
-0.00331777
-0.00215249
0.00262021
0.00506042
0.0101813
0.00260997
0.00697598
0.00464099
-0.000932547
-0.00695487
-0.00375261
0.00189388
-0.00644808
-4.55617e-05
-0.00621919
0.00435293
0.00453215
-0.00288822
0.0017996
0.00460885
-0.00100147
-0.00735902
-0.00305142
-0.0185332
-0.00773855
-0.00355287
-0.0034773
-0.00439894
-0.00255589
0.0100161
-0.0211028
-0.00654768
-0.00781162
0.0142812
0.00167979
-0.00129711
-0.0018942
0.00738481
0.000840207
0.0027599
-0.00298941
-0.00200454
-0.00457815
0.00441501
-0.0034772
0.00718149
-0.00227751
0.0049006
0.000254793
-0.000506482
-0.0101849
-0.00947633
0.00501303
-0.0093468
0.00716123
0.0018018
0.00479882
-0.0029077
-0.0076958
0.00493735
0.00976164
0.00880927
0.00262699
0.00203649
0.00422812
0.000519349
0.00384494
0.00259202
4.96179e-05
0.00802748
0.00395016
-0.0135693
-0.00133132
-0.00100381
-0.01331
0.000787345
-0.00170556
-0.00183743
-0.00754709
-0.00353042
-0.00332223
0.0136984
-0.00903358
0.00749324
-0.00279382
-0.00271383
-0.0121782
5.59958e-05
-0.00915019
-0.00644234
0.0154147
0.0167858
-0.00283689
0.00722372
-0.00489127
-0.00553213
0.00710143
-0.0063794
0.00852315
-0.000630701
0.00641069
0.00031267
-0.0260296
0.014181
0.00168236
-0.00448546
-0.00386836
-0.00772984
0.0109457
0.0818247
-0.000660297
0.0353567
-0.0569701
-0.0341085
0.00652424
-0.00783976
0.000991929
0.00358176
-0.0468686
0.0054663
0.00762698
0.0011529
-0.00585011
0.00756735
-0.029644
-0.0349068
0.0103444
-0.0433032
-0.00979985
-0.0121209
-0.000212242
0.000117831
-0.00558867
0.00307666
-0.0040286
0.0151934
-0.000933151
0.0367984
0.00310283
0.000640584
0.00109722
0.00690269
0.00255352
0.0132654
0.0205941
-0.00977758
0.0235126
0.0154313
0.0100563
0.014745
-0.0142869
-0.00502465
0.00123293
0.0581323
-0.0396031
-1.89856e-05
0.0274741
-0.00627103
-0.00326217
0.0136781
0.0707738
0.0075572
-0.0179284
0.00790859
0.0110869
0.0116816
0.0323633
-0.00236115
0.0458398
0.000488076
0.00286556
-0.00193988
0.0163616
0.00386032
-0.00237139
0.030773
0.0102482
0.0327547
0.00847372
0.00552716
0.0187797
-0.0038767
-0.0544387
-0.0288641
0.0206108
0.0126858
0.00444644
-0.0255132
0.024234
-0.0594277
-0.0139899
-0.0287296
-0.0289247
-0.0534748
-0.0020368
0.0128464
-0.0057544
0.000824469
-0.00819199
-0.0130113
-0.0434431
-0.0573517
-0.00892693
-0.0409001
0.0216676
-0.0393445
0.0565718
-0.0431939
-0.0245505
-0.0095027
-0.0130885
0.00521296
-0.00206675
-0.00155452
-0.0196863
-0.0690182
0.0119142
0.00329526
0.0199533
0.0235248
0.00939118
-0.011891
0.00122029
-0.00304486
-0.0377149
-0.0256507
-0.0108579
0.00273204
0.0114443
0.0355012
-0.00264861
-0.00847956
-0.00420649
-0.0341689
-0.0525976
-0.00884442
-0.00348212
0.0105997
-0.00635026
-0.000779523
-0.00144394
-0.0130667
0.00575082
0.0227466
0.00888426
-0.0105524
0.0355718
0.021342
-0.018604
0.0129649
-0.0206432
0.0180499
-0.0314857
0.000687106
-0.00269901
-0.0033755
-0.000464308
0.013121
0.00714062
-0.004681
0.00762436
0.0344278
-0.00914671
-0.0221374
-0.00941074
-0.00509235
0.000204817
0.0518554
-5.59899e-06
0.0110694
0.0307769
0.00376472
0.0253701
-0.0229136
0.000190784
0.0132627
0.00638732
0.00326368
0.000101566
-0.00703016
0.0153176
0.0353507
-0.0174452
0.00595599
-0.00512822
0.023406
0.0218054
0.0186609
-0.0138473
0.00942214
0.0178202
0.013597
0.0220044
0.00869192
-0.00979874
-0.00684571
0.0274286
0.00627993
-0.0152053
0.0022673
0.00401126
0.00155448
0.0124395
-0.00657147
0.0233393
0.0272422
0.0359072
0.00830968
0.0117748
-0.0188039
0.0235297
0.00126739
0.0168578
0.0227312
-0.00920531
0.000845833
0.00985576
0.00994569
0.00757593
-0.0310076
-0.0481209
0.00638271
0.0420988
-0.019727
0.0105086
-0.017671
0.00894948
0.00340377
-0.0182418
0.015282
-8.00472e-05
-0.00810735
-0.00167479
-0.0498277
-0.00259948
0.00655989
-0.00198372
0.00614211
-0.0893182
0.0136606
0.00405526
0.0147905
0.00156543
0.0376639
0.0224244
-0.00885473
0.00716147
0.0134167
-0.00409526
0.0120786
-0.0124999
-0.0220813
-0.00247849
-0.0136697
-0.00593799
-0.0184429
-0.00463509
0.0080196
-0.000564063
-0.0110914
-0.0230213
-0.0501966
0.151231
0.0384901
0.0465015
0.0357563
0.0474973
0.00613507
-0.0223632
-0.148835
0.0434097
0.0301271
0.0163431
0.0167826
0.00821681
0.0157997
-0.0155115
-0.0428926
-0.0461127
-0.0164709
-0.06826
0.00621335
-0.0218137
0.00854141
-0.0279628
-0.0910249
0.00343492
-0.0188901
0.01506
0.00434812
-0.0029414
-0.00459178
-0.00743641
0.0186154
0.0292867
-0.0247112
0.0111276
0.00411415
0.0185868
-0.020266
-0.0221965
-0.0264267
-0.0460158
0.0199834
-0.00336738
0.00967945
-0.0109152
0.00180895
0.00864377
-0.00600604
-0.00818277
0.00431752
-0.0565264
-0.0206052
-0.00236937
-0.00637582
-0.00503964
0.00256297
0.00603237
-0.0055061
-0.0165658
0.0132538
-0.0162999
-0.0295657
-0.00560554
0.0137062
0.0196478
-0.0041733
-0.0415286
0.0341005
0.0149318
0.0109123
-0.0351821
0.0174024
-0.00280838
0.0282687
0.000649276
-0.00270036
0.000394245
-0.0267771
9.03579e-05
-0.0112581
0.00658694
-0.00726356
0.00419336
-0.0342467
0.00250454
-0.0562559
0.00127528
-0.0165326
-0.0233358
0.00336237
0.0121271
-0.00614662
0.0526765
-0.000445189
0.0559025
0.000977452
0.0453403
0.0208998
-0.00627425
0.0107085
-0.007659
-0.00190662
0.00334454
-0.0033193
0.0500065
-0.00492384
0.0328582
0.00345946
0.00193954
0.00493158
0.0476999
-0.00436121
-0.00985596
-0.0193309
0.00233039
0.000502061
0.00650948
0.0213469
0.0197773
0.0018732
0.0231751
0.00247908
0.00495621
0.0187623
0.000555063
0.034647
0.00701404
0.0181608
0.0103319
0.000258194
0.00514968
0.0014935
0.0152056
-0.00549232
-0.0153963
0.00557016
0.00628606
-0.00294492
-0.0427622
0.0428698
0.0296043
0.00375382
0.00415104
-0.00726572
0.0307556
0.000359235
0.00215397
-0.00609777
0.00437014
0.00684441
0.0359651
-0.0388002
0.00571772
0.0697927
0.00344273
0.0378172
-0.0125173
0.00928454
0.00959041
-0.0145681
0.00660977
0.045082
0.0171634
0.0111233
0.0550104
0.0109451
0.0362205
0.00116527
0.0228342
-0.00577513
0.0122167
0.0404522
-0.0114066
0.0147794
0.0346662
0.0195998
0.00856722
0.00646786
-0.0280969
0.0223525
-0.0585548
0.0136402
-0.0127401
-0.0205316
-0.0225995
0.00562843
-0.00151275
-0.00501075
-0.0137187
0.0345797
0.0224937
0.00462234
0.00685203
0.0394706
-0.0143158
-0.00581634
-0.00205591
0.0139302
0.00353571
-0.00468744
-0.0129937
0.0146273
0.0430851
-0.0411802
0.0223845
-0.0210819
-0.0337041
-0.00207934
-0.0128002
-0.00223271
0.0121423
0.0114805
0.0198181
-0.0386312
-0.0163481
-0.0225715
0.0425999
-0.000668444
-0.0228707
0.00611887
0.00217336
-0.00529686
-0.00412336
-0.0309508
0.027001
-0.00798527
0.0290571
0.0097385
-0.0351591
-0.00489161
0.0439569
0.034061
0.0078957
-0.00513705
-0.000733401
-0.00918867
0.0175269
0.0184629
-0.00742868
-0.00858483
0.013389
-0.00719838
-0.0523922
-0.0301201
-0.0123743
-0.0108094
0.0348723
-0.00639626
0.00618064
-0.0310955
-0.0189465
-0.00825415
-0.0134482
-0.0129637
0.0442534
0.0105075
0.0402986
-0.015146
0.00246574
-0.0189836
0.0288648
0.0127899
0.00916271
-0.00467048
-0.00524374
-0.00776852
-0.00181642
-0.00149505
-0.00127177
-0.00107407
-0.0107744
-0.00124485
0.00473081
0.00283705
0.0031464
-0.0370862
0.018718
0.0765036
0.00772896
-0.00246145
-0.0224699
-0.0120135
-0.0102706
-0.0101532
-0.00299124
0.00755571
-0.0172989
-0.031471
-0.000227626
0.01643
-0.0189341
-0.00644708
0.0870078
0.0213851
0.033486
0.0117494
0.00179568
-0.0056996
-0.0182397
0.00984002
-0.0871055
0.0142778
0.0464847
-0.000692457
-0.0183171
-0.0329624
-0.00567921
-0.0156287
-0.00828127
0.00777069
0.00209317
0.0125228
-0.013461
-0.00397655
-0.0227462
0.0266873
-0.0455797
-0.0186721
-0.00157128
-0.00721854
0.0462684
0.0199696
0.00748857
-0.00146385
-0.0118756
-0.012367
0.0168218
0.00206199
-0.0350973
-8.92751e-05
0.00702793
0.00024278
0.00132672
0.005233
-0.00554424
-0.0218551
-0.00248524
-0.0122119
0.019272
0.00212221
-0.00611787
-0.0136895
0.00503904
-0.0180609
0.00124883
0.0128451
-0.000434678
0.00683691
0.000161453
0.00822697
0.0153547
0.0138648
0.0101802
0.0281732
-0.00409339
0.000471754
-0.0104593
-0.00593578
-0.0128397
0.00501529
0.0136133
-0.0609384
0.000820189
-0.0385434
0.0116056
0.0165966
0.0219076
-0.0107014
0.00249844
0.00490419
-0.0159046
-0.0567901
0.016873
0.00075239
0.0116317
0.013135
0.0157861
-0.0282869
0.0044179
-0.00442132
0.00230478
0.0174591
-0.0397035
0.00864285
0.010595
-0.00397101
-0.0175318
0.00572169
-0.0155081
-0.00212431
0.00950093
0.00164012
-0.00653802
0.0094974
0.0113485
0.0445602
0.00147377
0.00349719
-0.010394
0.00775246
0.0166776
0.00122432
0.0186347
-0.00683031
-0.00631374
-0.0101584
0.00280572
-0.0132107
-0.00458555
-0.0196757
-6.04103e-05
0.00329003
0.0263645
-4.06446e-05
0.0120812
-0.00179504
-0.0160545
-0.00233612
-0.0137482
-0.00965619
-0.000836537
0.00638225
-0.0234099
0.0155948
0.0142023
-0.00318825
-0.00699988
0.00933951
-0.0101613
0.0169564
-0.0139671
-0.00805854
0.0212387
-0.0122715
0.0011814
0.0176414
-0.000348736
-0.00547664
-0.00390225
-0.000621848
-0.000770649
-0.0185994
0.00424885
-0.0498362
0.00549375
-0.00398422
0.00554112
-0.0519417
0.013891
0.000778191
0.00863724
-0.000150704
0.00229831
-0.000892573
0.0309528
0.0346939
-0.0305354
-0.00950551
-0.0216251
0.0116099
0.0476659
-0.000349977
0.00217955
0.00650836
-0.00263017
0.00276691
-0.00131528
0.10376
-0.000867299
0.000559943
-8.12202e-05
0.0440387
0.0441123
0.0179923
-0.000836542
-0.00442968
0.013932
0.00404767
0.00260332
0.043154
0.0164912
0.00187086
0.0142345
0.000589169
0.00422597
0.0647549
0.00331816
0.039544
0.0252121
0.00287958
-0.0378438
0.00225973
0.00262992
0.015348
0.000814473
0.00665914
-0.00192009
0.00256722
0.0150208
-0.00347501
-0.000264889
0.000186393
-0.000201871
0.015032
0.00395582
0.0041182
0.00191866
0.00577225
0.00165062
0.00457513
0.00193505
0.00360138
0.00336605
0.00179532
0.00341221
-0.0100302
0.00519078
0.00707958
0.00148635
0.000526425
0.00426059
0.000105152
0.00162974
0.00406246
0.000163898
-0.00912909
0.00350047
0.00365564
0.00316759
0.000523364
-0.00454263
-0.00138102
-0.00145388
-0.000899367
-0.00161328
-0.00141044
0.00692721
0.00103035
-0.000236984
0.00429267
-0.0164336
0.000625269
-0.0185296
0.00156516
0.0064822
-0.00136087
-0.000231062
-0.00318909
-0.000640981
0.0017262
0.000465677
-0.00228491
-0.00806795
0.0021726
-0.00281331
0.00509269
0.00231508
0.00338077
0.00176475
0.00124168
0.00899162
-0.00289668
0.00141344
0.00761055
-0.00382498
-0.0138162
0.0059054
-0.00608628
0.00538522
-2.54162e-05
-0.01288
-0.00845027
0.0142812
0.000918293
0.00250211
-0.00608299
-0.00259209
-0.00128254
-0.000158127
0.0125131
0.00354348
-0.000471314
0.00146401
-0.000925142
0.000400981
0.00615708
-0.00286141
-0.00439035
-0.0146925
-0.0195393
-0.0527191
-0.00851765
0.00141382
0.00200589
-0.018124
-0.00340413
-0.0101828
-0.000529412
-0.00113943
0.0107757
-0.00671398
0.000668567
0.000478342
-0.00666398
0.00079016
0.00394899
-0.000170625
-0.0188396
-0.000928363
-0.0152237
0.00660836
0.00497488
0.0215868
-0.00010718
0.00168563
0.0006234
0.00507253
-0.000227705
0.00967495
-0.00191461
0.0012893
0.00236443
-0.000490809
-0.000669009
-0.0166609
-0.0283889
-0.0297256
-0.0268997
-0.0239423
0.00199628
0.00367759
-0.0567999
0.00426745
0.000984524
-0.0113261
-0.000898168
0.000914697
-0.0588784
-0.0208928
-0.00221618
-0.00984823
-0.000832685
0.00239856
-0.0134999
-0.00240172
0.00781856
-0.00310241
-0.0104069
-0.000356278
-0.00682948
0.0108842
-0.00201253
0.00403864
-0.00313464
-0.00380953
0.00111675
0.000571451
-0.0107329
-0.00205768
0.00592352
-0.00177282
-0.00835138
0.000242827
-0.00256298
0.00851628
-0.0172021
-0.00411222
-0.0104955
-0.00326522
-0.0028272
-0.000620822
-0.00348406
0.0209551
-0.00924945
-0.0167179
-0.0203692
-0.0305842
-0.000430312
-0.0010551
-0.00386849
0.00136884
-0.00226553
-0.00425011
0.000634187
-0.00515508
-0.00379799
-0.00111633
0.000933419
0.00327204
0.000876343
-0.000334826
-0.000888362
-0.022561
-0.00253541
0.00657913
-0.00295936
-0.00306615
-0.00301954
0.00217325
-0.000910003
-0.00294577
0.000390919
0.00125013
0.0314589
0.00382001
0.0033161
0.00497347
-0.00610559
-0.000472763
-0.000774322
0.0298989
0.00403273
0.00313783
0.00106874
-0.00147728
-0.000379371
-0.000214071
0.0282931
0.00918199
-0.000670354
0.00477453
-0.00119266
0.00104207
-0.0110932
0.00125303
-0.00836885
0.00750494
0.000887969
-0.030361
0.00962242
0.000486641
0.00777013
-0.000976072
0.0023404
0.000674613
-0.000976082
-0.0071857
0.00127136
0.000868819
-0.00171219
-0.00999569
-0.000743293
0.003469
0.000135166
0.000769398
-0.00594206
-0.00256194
-0.00340031
-0.00105494
0.000330315
-0.000304198
-0.00498337
-0.00162247
-0.00165727
-1.90993e-05
-0.000620277
0.000429059
0.00153896
-0.00312611
0.00253401
0.0040302
0.000507011
-0.000625774
-0.0106785
-0.00525422
-0.00351878
0.000571485
0.000860312
0.00163013
-0.00300453
-0.00222451
-0.00141575
-0.00263253
-0.000992872
-0.00153148
-0.000505967
0.00239738
0.000870671
0.00172707
0.00621247
-0.0154194
0.00207809
-0.000758751
0.00494909
-0.00321081
-0.00264737
0.00108751
0.00170139
0.00682581
-0.00253243
0.00691703
-0.00275475
-0.000724908
-0.00148459
-0.0021033
0.00906763
-0.0313041
0.028171
-0.000979658
-0.0020773
-0.00678908
-0.0235435
-0.00209108
-0.0112215
-0.00093997
-0.00496354
-0.00676897
-0.0045527
0.00116396
-0.00294732
-0.00236225
0.00493117
-0.0177645
0.000471229
-0.0105011
0.00132363
-0.00302617
-0.00374526
0.0236774
0.00831468
-0.00110651
0.0132518
-0.00561924
0.000338095
0.00183643
0.000387082
-0.000713383
-0.000712935
-0.0033056
0.00161508
-0.00185421
-0.000701592
-0.0126828
-0.00467673
0.0155991
-0.00319891
-0.00145972
0.0396233
-0.00844492
0.00493329
0.00667061
-0.00298528
0.0131679
-0.00116773
0.00308855
0.00435168
-0.00362668
-0.000889455
-0.0101168
-0.002222
-0.00229176
0.00647762
-0.00232478
0.000211338
-0.00337612
-0.00382995
-0.00102713
-0.00220595
0.00176619
-0.00201621
-0.000891911
0.014138
-0.00115252
-0.00709246
0.0101821
-0.00271829
0.000577136
-0.0169005
-2.78623e-05
-0.00284044
0.00167452
-0.00056768
0.000160032
-0.00895204
-0.000348243
3.20187e-05
0.00104135
-0.00167268
4.6592e-05
0.0122621
-0.00304317
-0.00459756
0.00359376
-0.00106028
-0.00171874
-0.0067395
-0.00235658
0.000218391
-0.000948216
-0.00221829
-0.00164104
-0.00773495
-0.000997061
-0.00368773
0.00561952
-0.00375201
-0.000792341
-0.0103044
-0.0139658
0.000778253
-0.00552139
0.00283377
-0.0017882
-0.000876354
-0.00477752
0.00546025
0.00104426
-0.000381027
-0.0019181
-0.00555118
0.00162052
-0.000796775
-0.00182751
-0.00140328
-0.0267737
-0.00129041
-0.00222472
0.00288046
-0.00201592
0.000152619
-0.0403402
0.00265406
-0.00338914
-0.000861641
0.00279469
0.000493624
-0.00044033
-0.00186547
-0.0072322
0.00499871
0.00736474
0.00294012
0.00281469
-0.00126914
-0.0083257
0.00283028
0.0015434
-0.00215967
0.00968232
-0.00559802
0.0038017
0.00578868
0.00236804
0.00196025
-0.00890388
0.00346983
0.00314595
-0.000504917
0.00527844
-0.00402586
0.00444302
-0.000234904
0.000117452
0.000801064
-0.000561621
-0.000597759
0.000618142
0.00320825
-0.000760768
-0.000325468
0.00654587
0.00140966
0.00384261
0.00266775
0.000297268
0.014875
-0.00570228
0.000563634
0.00227612
0.0004462
0.000147476
-0.000714629
-0.00516444
-0.00252435
0.000124433
-0.000329803
-0.00373035
-0.00640402
0.000216323
0.00450834
0.000331501
-0.000838689
-0.00118436
-0.00283923
-0.00197227
-0.00112104
-0.000245665
-0.00557289
0.00642052
-0.00243668
0.0011436
-0.00217067
-0.00205547
-0.000211242
0.00124202
0.00119585
0.00121463
0.0257865
-0.000186751
-0.00163325
-0.00461548
8.30194e-05
-1.72467e-05
0.00646556
-0.0223473
-0.00221692
-0.00775324
-0.001838
-0.00233585
0.000823804
0.00177593
-0.00794974
0.00201733
0.000147137
-0.0197555
0.000448655
-0.00660099
-0.00269021
-0.00244456
-0.000275252
-0.00389543
-0.00558154
-0.00143968
0.00051267
-0.00313396
-0.00122233
0.000187824
0.019952
0.000298411
-0.00415696
0.000844981
0.0012376
-0.00174057
-0.000185209
-0.00264271
0.00134172
-0.0278227
-0.00432652
0.00329147
0.00206326
0.0644884
-0.00187363
0.00852803
-0.00133079
-0.002188
-1.11632e-05
-0.00147801
0.00150311
0.000894269
-0.00551529
-0.000198142
-0.000501201
0.000986921
0.000262085
0.00630482
0.000717805
-0.000558214
-0.000279413
-0.00167906
0.000802467
0.000169821
0.00146205
0.00113889
-0.00280436
-0.000979771
-0.00126372
0.000534002
0.00183018
-0.0123525
-0.000580156
0.003418
0.0138475
0.000401224
-0.00297595
-0.000221823
-0.00332928
0.000735562
-0.00101528
-0.000102157
-0.00268196
5.81716e-05
-0.00210731
-0.00232292
0.00022042
0.000562097
0.000773646
0.000982492
0.00110819
-0.00297574
-0.00361955
0.00165783
0.000769424
0.000359711
0.0233625
-0.000418285
-0.00223287
-0.00717799
-0.00169452
0.00030917
0.0001422
-0.00786643
-0.00265481
-0.00272881
-0.00501014
-0.00113211
-0.00082417
-0.00144911
0.00401405
0.00142101
8.5542e-05
-0.00253391
-0.00280336
0.00070825
0.00287555
-0.00662938
-0.000346439
0.00269221
-0.00333287
-0.000972001
-0.00115922
0.0130118
-0.000677961
-0.00234564
0.001087
-0.000630749
-0.00132653
0.00333719
-0.00120566
-0.000653418
0.00430505
0.00199608
-0.000431477
0.0155072
0.00253019
0.000223664
0.00695396
-0.000254696
0.0016497
-0.00207579
-0.00101234
-0.00311764
-0.00101001
-0.000959862
-0.0110689
0.0128847
0.0021621
0.0144295
0.000789
0.00412951
-0.000720103
0.0236383
0.00269
-0.00336045
0.0129905
0.00103776
0.000974937
0.0015122
0.000175615
0.00359736
-0.00061766
0.00560548
0.00526123
0.000742437
0.00714152
-0.00084159
-0.000208122
0.000932246
-0.00089274
0.000284932
0.0149151
0.0763504
-0.00227305
0.00191325
0.000239824
-0.0210042
0.0051118
-0.00150199
0.0045581
-0.00181565
0.000138623
-0.0017612
0.00311675
-0.00129974
-0.0031955
0.000643746
-0.000964998
-0.0090486
-0.00117351
-0.0060094
-0.0018083
-0.000246149
-0.00161054
0.00234268
-0.00674975
-0.00285592
0.000474677
0.0159172
0.00157192
-0.000595385
0.00178389
-0.00101936
0.000711621
-0.00138622
0.0208097
-0.0029889
2.47641e-05
0.000287975
0.0899386
0.000713454
-0.00513362
-0.0357748
-0.0101533
-0.000165414
-0.000798168
-0.0265441
-0.00593721
-0.000255458
0.000712577
-0.00087091
0.000598794
0.0021529
-0.00273297
-0.000387348
0.000772652
-8.46061e-05
-0.0113744
-0.0146133
8.58418e-05
0.00326794
0.000256265
-0.000395695
-0.00420247
0.00220372
-0.00422852
0.000973514
-5.86465e-05
0.00401407
-0.0129252
-0.00063259
0.00274916
-0.000429652
-0.00112992
-0.00250547
0.00141966
-0.00124705
-0.000385885
-0.00126925
0.0173536
-0.00308062
0.00127633
0.00418369
-0.0161706
0.0168373
-0.00905936
-0.0159877
-0.00896087
-0.00321275
0.0042068
-0.0164055
-0.00800427
0.00251267
-0.00837293
-0.00179847
0.00294722
-0.00216109
-0.000117951
-0.006629
-0.000243246
0.0013578
0.00346123
0.00473482
0.0035937
0.00803686
0.00339558
0.00306936
-0.00105531
0.00490121
-0.00289759
0.00190493
-0.000891561
0.0016966
0.00153554
0.000340747
-0.000703717
0.000286691
-5.72375e-05
-0.00163927
-0.0162601
0.00844336
0.00537141
-0.00210589
0.0398975
-0.00207216
0.00456952
0.00109986
-0.00419564
0.00193195
0.0208571
-0.00166567
0.00137617
0.00418512
0.00154183
0.00124791
-0.00407178
0.00419044
0.00243735
0.00549221
0.00150882
0.00228055
-0.000545669
-0.0103548
0.000652559
0.010192
0.000831654
0.0485525
-0.00812183
0.00110588
-0.00566618
0.00111926
-0.000342251
-0.0023442
-0.0165692
0.009759
-0.000883342
-0.000485168
0.018336
0.00677163
0.00482118
-0.00539449
0.0022442
0.00135245
0.0675881
-0.00925792
0.00278811
0.00734195
0.00200168
0.00070833
-0.00294744
8.45799e-05
-0.0262762
0.00287495
5.95544e-07
0.0127626
-0.000331553
-0.00210457
0.00315251
-0.00516494
-0.000977739
-0.00271693
0.0379033
-0.000547228
-0.00305936
0.00880874
-0.00216237
5.50831e-05
0.000685144
0.0224576
0.00191987
-0.00689408
0.00161895
0.00459169
-0.000782794
-0.00259069
0.0478491
-0.000641874
0.0121306
-0.019557
0.00582531
0.00024915
-0.0018381
-0.000326493
-0.00932348
0.00297865
0.00242036
0.00028284
0.043901
-0.00179499
-0.00321945
0.00605137
0.00446347
0.0020698
0.00484728
-0.00111353
0.00123907
-0.00220635
-0.000420813
2.00912e-05
-0.018822
-0.000206459
1.91278e-05
-0.000307454
-0.000613465
-9.60242e-05
0.000102292
-0.0213184
-0.00136143
0.00241664
0.005163
0.0011196
0.00238373
-0.00208247
-0.000687772
-0.00690541
-0.00377362
0.00259922
0.00408242
0.001037
-0.0275922
-0.000317365
0.00296713
0.00161454
0.0124665
0.00200449
-0.000615802
0.0068
0.000737142
0.000622142
0.00258515
-0.0317222
0.000203056
-0.00492338
0.0148262
-0.00456087
-0.001497
-0.0379929
1.30052e-05
-0.00323022
0.00437676
0.00225845
0.000402085
-0.0141517
-0.00234186
0.000910534
0.000470894
0.012287
0.00225842
0.00025014
0.000131719
0.000700515
-0.00113035
-0.000162523
0.00220065
0.00627769
0.000958997
-0.000371118
0.0210083
0.00260364
-0.00141838
-0.00075525
-0.000966431
-0.00264703
-0.000790068
0.00315313
0.00355958
-0.00128024
0.00378336
-0.00253277
-0.0272672
0.00853905
-0.00571645
-0.00155722
-0.000924389
-0.0020872
-0.000411838
0.00480355
0.00284416
0.000469798
0.000833691
-0.000317205
0.0127067
-0.00210095
-0.000252444
-0.000550822
-0.000506858
-0.000791251
-0.00115003
0.0143784
-0.00114927
-0.00113802
-0.00219001
0.00072435
0.00277491
0.000321567
-0.00109038
-0.000444376
0.00109303
-0.00417282
0.000911193
-0.00685801
0.0105954
-0.00355191
0.00188376
0.000766353
-0.0022418
-0.000660742
0.00302431
0.000335956
0.00106755
-0.00225926
0.000526754
0.00075807
0.0225664
-0.0005979
-0.00120237
0.0012075
-0.00326325
0.0104605
0.00810303
-0.00105533
0.0011892
-0.000941966
0.00177644
-0.00197457
0.00538878
-0.00102434
-0.000584324
-0.00139684
-0.00250215
0.00137051
0.00261123
0.000128806
6.34955e-05
-0.00210648
0.000805708
-0.0271685
-0.0118752
-1.77823e-05
-0.000618229
-0.00310109
0.0019481
0.00995663
-0.00535208
-0.0015063
-0.000382598
-0.00187453
-0.000722076
-0.00943088
0.00641539
-0.0166703
-0.000477118
-0.00168742
0.000702507
-0.00970517
-0.00116567
-0.00118213
0.000109296
-0.000936019
-0.000642608
-0.000540177
-0.0354069
0.0289803
0.00246356
0.00374397
0.00428298
0.00201079
-0.000208559
0.000130257
0.00459962
0.00257694
0.00322938
-0.00340031
0.00328658
0.000705814
-0.00387103
-0.00221839
-0.00118996
-0.000529799
-0.000739307
0.00129043
-0.0029775
-0.000116598
0.000180126
-0.0010526
-0.000747717
0.026487
-0.000706863
0.00185765
0.000615994
0.000685933
0.00972051
-0.00329886
-0.00180111
-0.000922227
0.000101731
-0.00029705
-0.00129952
-0.00830584
0.0135874
0.000215586
0.00358099
-0.000122246
0.000112882
-0.00248315
0.000261669
-3.22067e-05
0.000140829
-0.0025318
-0.000333259
0.00617339
0.0283053
0.0200657
-0.00090816
0.000949457
9.03086e-05
-0.000360497
-0.00338269
0.000264934
-0.00019461
0.00175734
-0.0016683
0.00154725
-0.00525671
-0.021669
-0.000350959
-0.000746147
6.71554e-05
-0.000440152
-0.000914133
0.000210302
0.000291705
-0.00198963
-0.0155362
-0.00152558
-0.00305067
0.0128449
0.00161884
-0.0239395
-0.00714427
-0.000177478
0.00388737
-0.00551119
-0.00261834
-0.00913733
0.000885721
-0.00804138
-0.00768169
-0.00252946
-0.00862597
-0.00673462
-0.00320049
-0.00824952
-0.00527041
-0.00045325
0.00702054
0.00884342
-0.00344479
0.00199483
-0.00403233
-0.00611405
-0.014192
-0.00551934
0.00100495
-0.00689796
-0.000592652
-0.0139184
0.00569031
0.00238591
-0.0119308
0.00206186
0.00282497
-0.00248448
-0.0167373
-0.00667344
-0.0197735
-0.0130628
0.00335422
-0.00534457
-0.0036957
0.00140402
0.011238
-0.0210701
-0.0161133
-0.00877387
0.0249363
0.0079661
-0.00772733
0.000625921
0.00670001
0.000342623
-0.00122631
-0.00654875
-0.00846061
-0.011565
0.00476435
-0.00706163
0.000289879
-0.00819219
-0.00193328
0.00113763
0.00409963
-0.0103113
-0.00512721
0.00399296
-0.0132554
0.0142578
0.00225665
0.0130316
0.000963287
-0.00227451
0.00983047
0.0170433
0.00342403
0.0112719
-0.0153187
0.00468437
-0.00208015
0.00346673
-0.000517373
0.00589926
0.0119593
-0.000845586
-0.0205961
-0.00122232
0.00038471
-0.0230067
-0.00018983
-0.00809735
0.00171176
-0.0153985
-0.00168817
-0.00649254
0.0213926
-0.0125898
0.00657341
-0.000535193
-0.00275889
-0.00946435
-0.00412743
-0.00141212
0.00210668
0.0174489
0.0204292
-0.00158341
0.00962021
-0.00508224
-0.00357442
0.00193168
-0.0139644
0.00751108
0.0063291
0.0025452
0.00496112
-0.0255571
0.0118729
0.00481378
-0.0137647
-0.00197434
-0.00975465
0.01682
0.0563357
-0.00130021
0.0344031
-0.0580823
-0.0331437
0.0190729
0.000611158
-0.00707718
0.000512344
-0.0652689
0.00524217
0.0117584
0.0422244
-0.00540458
0.0179383
-0.0335688
-0.0410625
0.00788283
-0.0646053
-0.0203893
-0.0154705
0.00295801
0.00258338
-0.0159364
0.00366355
-0.00905582
0.00792387
0.00282854
0.0264004
0.00077965
-0.000586927
0.00388179
0.00714195
-0.00315229
0.0141159
0.0239234
-0.00967583
0.0266077
0.0169345
0.0200855
0.0219274
-0.014448
-0.0210431
0.00378059
0.0541246
-0.0586136
-0.00209276
0.0370003
-0.0109266
-0.00443438
0.0139191
0.0442555
-0.000827406
-0.0203444
0.00690216
0.0405693
0.0175144
0.0268927
-0.00417458
0.0240923
-0.0021094
-0.00107797
-0.00986372
0.017197
0.00401838
-0.0110889
0.0281672
0.00332501
0.0178325
0.00546931
0.0061193
-0.00159936
-0.00804702
-0.0571667
-0.0222514
0.0092324
-0.00297936
-0.00101114
-0.00536712
0.0223981
0.0106981
0.0111842
-0.059448
-0.0197702
-0.0281086
-0.0143085
0.00250724
-0.00465737
0.0125124
0.000433058
-0.00813715
-0.0217609
-0.0105863
0.0167765
-0.0344786
0.0228138
-0.0122572
0.0613253
-0.034464
-0.0144504
0.00146124
-0.018399
0.00668012
-0.00550402
-0.00429021
-0.0186673
-0.0339224
0.0210461
0.027527
0.0215747
0.0336904
0.00801752
-0.010559
-0.00391424
-0.00430732
-0.045196
-0.0256926
-0.0263791
-0.00140878
0.0214402
0.0470434
0.0038715
-0.0116671
-0.00405407
-0.0304839
-0.00362805
-0.0127287
-0.00426363
0.0325114
0.122581
0.0185802
0.0909055
0.0304306
0.00700347
0.0521141
0.00809451
-0.0223693
0.0703246
0.0231246
0.0068155
-0.00134801
-0.0350368
0.0156874
-0.0594079
-0.0121452
-0.00933099
-0.00978234
-0.00548288
0.0122081
0.00215833
-0.0232733
0.0197601
0.0195962
-0.0156843
-0.0472145
-0.0138929
-0.0141922
-0.00880994
0.0365548
-0.0541414
-0.0102611
0.0155075
-0.00108842
0.0238158
-0.021886
0.00649664
0.0126067
0.00384759
0.00241306
0.00974306
-0.01361
0.0285547
0.0284669
-0.0141428
0.0157198
-0.0156486
-0.00708162
-0.00392162
-0.00818773
-0.0112889
-0.00577383
0.00327154
0.00248658
0.0182666
0.012406
-0.0155634
-0.00906189
0.0282383
0.0116823
-0.0301125
0.00193583
0.000945794
-0.0140621
-0.00169611
-0.00782549
0.0264078
0.0305879
0.0407288
0.00665773
0.00610475
-0.00289607
0.0230757
-0.00110897
0.0271525
-0.0128654
-0.0017299
0.00287317
0.0189459
0.0117434
0.0252158
-0.0290556
-0.0209757
-0.00499333
0.032398
-0.029296
0.010042
-0.00892611
0.00842834
-0.00274735
-0.0130998
0.0504501
0.0108546
-0.0140336
0.00396172
-0.0420974
-0.00397827
0.00720295
-0.00733893
0.00396809
-0.0547728
0.0129021
-0.00274082
0.0204871
-0.00602232
0.0334287
0.0202766
0.0176747
0.00370241
0.0177053
-0.00143508
0.00212479
-0.00630259
-0.0290078
-0.00754465
-0.0194271
0.00648398
-0.0351319
0.0101239
-0.000656656
-0.0102627
-0.00747557
-0.0434655
-0.0348117
-0.024772
0.0411652
-0.00381119
0.0282111
0.0474434
-0.00787777
-0.00715761
-0.00874601
0.0500995
0.0263854
0.00908254
-3.10933e-05
-8.26183e-05
-0.00813938
-0.0133766
-0.0412856
-0.0395475
0.0264672
-0.035265
0.0174277
-0.0168213
0.00941925
-0.0313118
-0.0653834
0.00377792
-0.0205748
-0.0076556
0.00958994
0.00271733
-0.00283896
-0.00431811
0.0204018
0.0192185
-0.0109728
0.00918478
0.00790724
0.0332365
-0.0267019
0.0145881
-0.0290863
0.0105706
0.0247538
-0.0026012
0.00704858
-0.0129149
-0.00722959
0.0321917
-0.00908929
-0.0060361
0.00245209
-0.0415305
0.0148743
-0.000185719
-0.00435611
-0.0019676
0.00331179
-0.00606992
-0.0016654
-0.0135233
-0.00596007
-0.0263089
-0.000647257
0.00144455
0.0199781
0.006283
-0.00978053
-0.0495664
0.0511975
0.0152847
0.00753487
-0.0192561
0.0262214
-0.00116521
0.0320388
0.00113306
-0.00348217
0.000617878
-0.0173846
-5.63342e-05
-0.000850484
0.00617263
-0.0100229
0.00448299
-0.0243249
0.00260981
-0.0512585
0.00078673
-0.0378245
-0.0134997
-0.0296809
0.0173703
-0.0116656
0.0473439
0.00532443
0.0505297
0.0091024
0.0456177
0.0138918
-0.00772213
0.0130356
-0.0206171
-0.00287903
-0.00305928
-0.00752641
0.0186787
-0.0126724
0.0186591
-0.00493013
-0.00202848
0.00312763
0.0300503
-0.00422409
-0.0103408
0.015266
0.0147654
-0.0128517
0.00180813
0.00610187
0.0184437
0.0064099
0.0275976
0.00247031
0.00301022
0.0169195
0.0211561
0.0149408
0.00502113
0.00986925
0.0137985
-0.00294329
0.00028996
-0.0002308
0.015189
-0.00308257
-0.0177266
0.00390866
8.91326e-06
-0.00596638
-0.0458777
0.039262
0.0443691
0.000887823
0.00168624
-0.0115745
0.0282399
-0.00417875
0.00450616
0.0238243
0.00243973
0.00480157
0.0334541
-0.0309976
0.00170223
0.0881996
-0.0057567
0.0319997
-0.0169593
0.0312424
0.0088713
-0.0235748
-0.00431153
0.0549212
0.0252047
0.0159347
0.0611142
0.0270508
0.0213403
0.00185309
0.0437076
-0.00763047
0.0191349
0.0438215
-0.00299817
0.0153203
0.0130364
0.0188793
0.00691186
0.00962302
-0.0326735
0.0232671
-0.0564016
0.0072154
0.0271105
-0.0139543
-0.007568
0.00696902
-0.00764942
-0.00582828
-0.0154355
0.0226694
0.0197725
0.00348605
0.00738959
0.0397938
-0.0316761
-0.0069934
-0.0356326
0.00645916
0.00404851
0.00969424
-0.0115983
0.0129106
0.0257769
-0.0511409
0.0368737
0.0221795
-0.0267082
-0.00556862
-0.000526561
-0.00514864
0.0554019
0.0121854
0.0140459
-0.0275855
-0.00630848
-0.0246268
0.0330337
0.00491748
-0.0206692
0.00585699
0.00130605
0.00321874
-0.00794194
-0.0225743
0.0261968
-0.0120307
0.0402672
0.0259528
-0.00547121
0.0109259
0.0520894
0.0406635
0.0116284
-0.0056619
-0.00107178
-0.0108557
0.0237231
0.0321372
-0.00131151
-0.016901
0.0124832
-0.0141869
-0.0528351
-0.00611484
0.00874833
-0.0107793
0.0374787
-0.0104998
0.00750742
-0.0278881
0.00482864
-0.00355991
-0.0219275
-0.00978853
0.00502898
0.0358544
0.0664754
-0.0178355
-0.000445364
-0.0205819
0.0295404
0.00750387
0.0068968
-0.00484916
-0.00959504
0.0101535
-0.0065937
-0.00340721
-0.00567656
-0.0060869
-0.028359
-0.0218634
-0.0247475
-0.00205017
0.0112157
-0.0607061
0.0223553
0.0896375
0.0148461
-0.00120706
-0.00658932
-0.0425313
-0.0078934
-0.00685071
0.00172894
0.0160521
0.000479629
-0.0259113
0.0428265
0.0292188
0.0109977
-0.00642473
0.0749367
0.0191685
0.0359166
0.0149788
-0.0149995
-0.0066432
-0.0180131
0.0361041
-0.0429466
0.0108749
0.0434502
0.0116967
-0.0173578
-0.035765
-0.0025372
0.000506362
-0.0132088
0.00753903
-0.000626189
0.0519979
0.00776712
0.017007
0.00385657
0.0523081
-0.0679897
-0.0091263
-0.00684874
-0.0375919
0.00992457
0.0199843
0.0075738
-0.00525685
-0.0176569
-0.0223473
0.0121711
-0.0036388
-0.00854817
0.00769559
0.00604355
-0.00221356
0.0144383
0.0326604
-0.00711013
-0.0399595
0.000388628
0.0168958
0.0200941
0.0158975
0.000209702
-0.0145474
-0.00316892
-0.0153908
6.73585e-05
0.00773434
0.00414529
0.0144949
-0.000623596
0.00942792
0.0169651
0.0151858
0.00159518
0.0339772
-0.00885667
0.00904851
-0.0186946
-4.97312e-05
0.00665437
0.00132454
0.0140352
-0.0521112
-0.00157204
-0.0289906
0.0319591
0.0152441
0.0144566
-0.00367331
-0.00163306
0.0224368
-0.0184345
-0.0146621
0.009571
0.0194059
0.016378
0.022173
0.0235905
-0.0220805
0.00321981
-0.00784665
-0.00277489
0.0187512
-0.0394373
0.00525103
0.0139159
0.00714371
-0.0227162
0.00579749
-0.0182935
0.00209527
0.0195856
0.00491787
-0.0117965
-0.00299957
0.0137957
0.0252315
-0.00135777
-0.00387346
-0.0118755
0.00389054
0.0076883
-0.00873196
0.00716771
-0.00695447
-0.0106676
-0.00807407
0.00515807
-0.0126178
-0.00106781
-0.019724
0.00557816
-0.00518722
0.0236392
-0.0158624
0.0182162
-0.00785501
-0.0376956
0.00212787
-0.00435606
-0.00432537
-0.00104053
0.00532585
-0.0236022
0.0106141
0.0216373
-0.0186192
0.0105125
-0.00784453
-0.00682627
0.020766
-0.0153822
-0.00451291
0.0132704
-0.018051
-0.0127002
0.013591
0.000932006
-0.0327827
-0.00359788
-0.00329852
-0.00322322
-0.0826496
0.00232996
-0.0438661
-0.00249435
-0.00751739
0.00530142
-0.0484627
0.0128913
-7.77894e-05
0.0111135
-0.00154662
0.00128137
-0.00520668
-0.0273075
0.0241193
-0.0578979
-0.0512138
-0.0285782
0.00765947
0.027155
-0.00515166
-0.0172768
-0.00536852
-0.00840299
0.00512303
-0.00594784
0.0688405
-0.00547111
-0.00133072
-0.00240111
0.0246283
0.0418833
0.03786
-0.00498539
-0.00396318
-0.0181273
-0.00125146
0.00430511
0.0319187
0.0117153
0.00136208
0.0174744
-9.7134e-05
0.00335483
0.048606
0.00350778
0.053147
0.018972
0.00123047
-0.0529288
0.000852927
0.00399102
0.00311696
-0.00149519
0.0129684
-0.00653135
0.00167447
-3.08348e-05
-0.0102719
-0.00335904
-0.0132183
0.099029
0.026344
0.0045517
-0.00777129
0.0032266
0.00607778
0.00748124
0.00235356
0.000271684
0.0030268
0.000275731
0.000898091
0.00584379
-0.00991116
0.00592024
0.0214875
0.00691133
-0.00262156
0.00613908
-0.00180488
-0.00116003
0.00240207
-0.00530948
-0.0196453
0.0077628
0.00177056
0.00210297
-6.33567e-05
-0.00556442
-0.000994653
-0.000420563
-0.000942503
-0.00208243
-0.0036355
0.011664
0.00457652
0.000543638
0.00215907
-0.0228288
0.000149147
-0.0275987
0.00516955
0.00682271
0.00807399
0.00111222
-0.00355137
-0.00284656
0.000533904
-0.0233094
-0.00548058
-0.00747085
0.00366479
-0.00349417
0.00292297
0.00243573
0.00107392
0.00136208
0.000993356
0.023684
-0.00335072
0.00982674
0.0169351
-0.00930158
-0.0266272
0.00814206
-0.00930544
-0.00239061
0.000762724
-0.0294137
-0.0298572
0.0241452
-0.00180636
0.000511396
-0.0315308
-0.00501352
-0.017438
-0.00472221
0.0120818
0.000443515
-0.00177668
-0.000139602
-0.00223322
-0.000561139
0.00371256
-0.00115274
-0.0208902
-0.0254995
-0.0389693
-0.0802239
-0.0065079
8.47866e-05
-0.00577947
-0.0520754
-0.00876866
-0.017024
0.00255942
-0.00421292
0.0141225
-0.0112465
-0.00194953
-0.000950886
-0.0209351
-0.000787338
0.00504142
-0.00438527
-0.0226256
-0.0169113
-0.0359542
-0.00139204
-0.0178253
0.0216819
0.00140066
0.00411928
0.00252149
0.0177853
-0.00203354
-0.0017434
-0.00186033
0.00475422
0.00659327
0.00160206
-0.00180847
-0.04886
0.00721001
0.00425717
0.000708535
0.00871071
-0.00222252
0.00133438
-0.00809474
0.0041538
0.00341019
-0.013089
0.00628089
-0.00203254
-0.022532
-0.00455623
-0.00972383
-0.0140702
0.0211931
-0.00177888
-0.00969783
-0.00313782
0.00727755
0.00982744
-0.00911212
-0.00265059
-0.00544256
0.0245361
0.00434894
0.00409814
-0.00019504
0.000176552
-0.00154398
0.000581926
-0.022645
-4.35708e-05
0.00665449
0.000552285
-0.000113767
-0.00254724
-0.00273092
0.00227527
-0.017052
-0.00316175
-0.00592587
-0.00163267
-0.0026823
-0.00195889
0.00688555
0.0311091
0.0054783
-0.00232392
-0.00546292
-0.0146254
0.00291822
0.00575541
0.000937671
0.00842384
-0.00186907
-0.00863734
0.00257309
-0.00302019
-0.00529009
-0.00134471
0.000808877
0.00758166
0.00207929
0.00211606
-0.000422238
-0.0646048
-0.00612603
0.0128857
-0.00293752
-0.00264986
0.00256434
0.00329373
0.00186298
-0.00359189
-0.00146668
0.000766195
0.0137633
0.00553371
0.00452387
0.0112026
-0.00580609
-0.00209924
-0.00142099
0.0335836
0.00547666
0.00490515
0.00410873
-0.0013111
-0.00174112
-0.00125774
0.0499651
0.00700567
-0.00182054
0.00962943
-0.00212547
-0.000102199
-0.0133861
0.00206065
-0.000651965
0.00815801
0.000252421
-0.00869506
0.00922613
3.37295e-05
0.0112638
-0.00165277
0.0014399
-0.00266328
0.000318719
-0.0074627
0.00447092
0.000598612
0.024069
-0.0200574
-0.00469236
0.00995685
4.93347e-05
0.0016176
-0.0368812
0.000360047
-0.00504443
-0.00331555
-0.000408326
-0.0197956
-0.0112841
-0.00920408
-0.00131405
-0.000554694
-0.000606249
-0.022583
0.00406756
-0.00600905
0.00435515
0.0106037
0.000432499
-0.000123655
-0.0345636
-0.000893337
-0.0103414
-0.00251166
0.000104071
0.00351083
-0.00589359
-0.0072783
-0.00169376
-0.00336624
-0.00153074
-0.00150577
0.00377186
-0.0119513
0.00195373
0.00145448
-0.00726575
-0.021048
0.000655292
-0.00191637
0.00692755
-0.00629008
-0.00353634
0.000573796
0.00352661
0.0139
-0.00236437
0.00621345
-0.00508459
-0.00295422
-0.000687163
-0.00357589
0.0135158
-0.0131217
-0.0185844
0.000340705
-0.0010898
0.00908154
-0.0268204
-0.00358796
-0.0100474
-0.0018384
-0.00624596
-0.0059062
-0.00953768
0.00495199
-0.00277877
-0.00236435
0.0321962
-0.017178
0.00061507
-0.00738749
0.002343
-0.00436991
-0.0107596
0.0233446
0.0344777
6.81088e-06
0.00475927
-0.00308964
0.000667368
0.00528355
0.00091443
-0.00103035
0.0034598
-0.00315444
0.005374
-0.00248386
-0.000385725
-0.0138647
-0.009835
0.000274171
-0.000993823
-0.000836057
0.0146127
-0.0175677
0.0126552
0.0149448
-0.00307289
0.00286362
0.00088367
0.00531475
0.00180723
-0.00308744
-0.00014875
-0.0163365
0.000486625
-0.00388559
0.0112024
-0.000998791
0.00140676
-0.00271238
0.00302617
0.000525564
-0.00533096
0.00204184
-0.00116452
-0.000354824
-0.00750719
0.000900837
-0.0109303
0.0155897
-0.00206996
0.00188166
-0.0265414
0.00152503
-0.00247653
0.00469985
0.00040261
0.000687657
-0.0271397
0.00130994
-0.00120446
0.00210707
-0.00160788
0.000334034
0.0212124
-0.000673484
-0.00615465
0.0109193
-0.000539552
-0.00245415
-0.037615
-0.00070501
0.000334024
-0.00470953
-0.00219667
-0.00202301
-0.0273093
0.000836052
-0.00529006
0.016248
-0.00430586
-0.000896657
-0.0221755
-0.0192405
0.000143883
-0.00909783
0.00364074
-0.00347629
0.000888715
-0.00888367
0.017554
0.000162851
-0.000464133
-0.000739439
-0.00829978
0.00174946
-0.000759893
-0.00255484
-0.000721881
-0.0607063
-0.000703619
-0.0104336
-0.000543032
-0.000986345
0.000127589
-0.0245222
0.00425246
-0.00559307
-0.000906951
0.00590567
-4.42751e-05
-0.00110412
-0.0163762
-0.00969196
0.00640995
0.0136227
0.00539035
0.00315441
0.000835054
-0.0135696
0.00788565
0.0051467
-0.00283462
-0.00961377
-0.0073912
0.00331384
0.0101151
0.00365141
0.00117444
-0.0139207
0.00949478
0.00786109
-0.00040969
0.0152456
-0.00716967
0.0101058
-4.66882e-05
-0.000550914
3.15356e-05
-0.00145754
-0.0226049
0.00119373
0.0095958
-0.00336336
-0.00150075
0.0085919
0.00186161
0.00792534
0.00115664
-0.000871688
0.011677
-0.012683
-0.000336214
0.00224266
0.000183187
-0.00133242
-0.0018791
-0.00905744
-0.00820789
-9.38036e-05
-0.00149888
0.00214283
-0.0119081
-0.000955508
0.00657735
-0.000505153
-0.00204745
-0.00252054
-0.00389944
-0.00555205
-0.00214456
-0.00145623
0.00222792
0.00536786
-0.00405774
0.00214129
-0.00339457
-0.00306952
0.00180979
0.00512241
0.00181304
-0.000236379
0.0420647
-0.000427997
-0.0014648
-0.0102661
3.34332e-05
-0.00180948
0.0178388
-0.0323632
-0.00310274
-0.00998471
-0.00273484
-0.00376049
-0.00158019
0.0123907
0.00605334
-0.000732308
-0.00184327
-0.0140079
-0.000572683
-0.00734576
-0.00292295
-0.00478124
-0.00194493
-0.0115887
-0.00854664
-0.00203645
0.00813249
-0.00430044
-0.00209075
0.000474744
0.0239209
0.00158335
-0.0024906
-0.00151545
0.00285469
-0.00267158
-0.000444922
-0.0229654
-9.97919e-05
-0.0361223
0.0139274
0.0176716
0.000757238
0.029653
-0.00223939
0.021786
-0.00753122
-0.00429456
-0.00184025
-0.00209936
-0.0221352
-0.000199849
-0.00548469
-0.00702718
-0.00734461
-0.000369326
-0.00125637
0.0211163
0.000294687
0.0016305
-0.00537302
-0.00791269
-0.000100294
-0.000623013
0.00404882
-0.000192209
-0.00078595
-0.00795227
-0.00720707
-0.000416574
0.00149398
-0.0251089
-0.00147506
0.0135105
0.0139211
-0.00155513
-0.00473691
-0.000775798
-0.00117018
-0.00176823
-0.00435528
-0.000905087
-0.0102433
-0.000911715
0.0015769
-0.00841131
-0.00528022
-0.000195918
0.000273769
0.0122652
0.00136804
-0.00193984
-0.0126599
-0.00155056
0.000175215
0.000131891
0.0245403
-0.000638734
-0.000965757
-0.023985
-0.0069293
0.000574296
8.52736e-05
-0.0192902
-0.00183528
0.0010226
-0.0064108
-0.00342003
-0.00184058
-0.00155412
-0.00586588
0.00270291
0.00221203
-0.00716956
-0.00623691
0.000923408
0.00433823
-0.0159775
0.00383824
0.00870216
-0.00559121
-0.00193254
-0.00144195
0.00197742
0.00157904
-0.00147225
-0.000543752
-0.00152605
-0.00192466
-0.0117025
-0.0125542
-0.0855193
-0.0589461
-0.0034938
0.00528283
-0.0873994
0.012204
-0.000537397
-0.00368609
0.00340003
0.000423177
-0.00207517
1.06824e-05
-0.0204428
-0.000303299
-0.000317964
0.00215365
0.00642946
0.00151117
0.0144693
-0.00210863
0.0026388
0.00710854
-0.0243177
-0.00288246
-0.01149
0.0235463
-0.00844814
-0.000694435
-0.00249076
-0.0025279
0.00099773
0.00289709
0.013471
-0.00186545
-0.000679731
0.0123526
-0.00885483
-0.000589053
-0.00153049
-0.00188807
-0.000930819
0.0314163
0.0520967
-0.00801355
0.000700045
-0.000909984
-0.0348922
0.00414111
-0.00238086
0.010088
-0.00215327
-0.000521522
-0.000366486
0.00428754
-0.000338738
-0.00420166
-0.000282614
0.0100186
-0.0110631
-0.00209905
-0.00437814
-0.00188448
-0.00166654
-0.000411941
0.00237355
-0.0083111
-0.00474648
-0.000649486
0.0283487
-0.00151365
-0.00101893
0.00313513
-0.00129017
0.000458328
0.000859041
0.00811952
0.00153514
-0.00124734
0.000248839
0.0435719
-0.00149367
-0.00396295
-0.0379459
-0.016347
-0.000713244
-0.00316671
-0.013328
-0.0105063
0.001095
0.0071159
0.000149114
0.00122449
0.00166948
-0.00763977
0.00309969
0.000234672
0.000895197
-0.00991511
-0.021278
0.000226768
0.00392736
0.00104399
-0.00147592
-0.00479908
0.00593509
-0.00842183
0.0020415
0.000270064
-0.0148222
-0.0166551
-0.000125049
0.00626333
0.000112829
-0.000976523
-0.00165502
0.00145595
0.00219658
-0.0013301
-0.00119318
0.0286345
-0.0133699
0.0013762
0.00441946
0.000864374
0.000484523
-0.000607562
0.00677971
0.00893468
0.00127858
-0.00169282
0.022216
-0.00895528
0.000111422
0.00229494
-0.000553356
0.00093009
-0.000471328
-0.00205227
-0.00400356
-0.00122159
-0.000938702
0.00176847
-0.00374434
0.00596955
0.0155611
0.00562152
0.0048741
0.00591018
0.00284611
0.000410734
0.00373368
-0.000376457
-0.0102262
0.00214074
0.00180705
0.00671953
0.00183772
-0.00249521
-0.000345887
-0.0165221
0.0240283
0.00144821
-0.00253414
0.00949104
0.000981969
-0.00195046
-0.00448138
-0.00365673
0.00271458
-0.0208078
-0.00143374
0.00330148
0.0114894
0.00277613
0.00112234
-0.0101253
0.00388531
0.00217204
0.00723797
0.00182434
0.00272237
-0.00230969
-0.0140559
-0.00386599
0.0155556
-0.000136812
0.0322115
-0.0125344
0.00090159
-0.00599157
0.00143611
-0.00142445
-0.00329895
-0.00931783
0.0317562
-0.00417397
-0.00108548
0.0157996
0.010041
0.0104707
-0.0108468
0.00593651
0.00117115
0.0283244
-0.0164019
0.00238861
0.00404443
0.00253241
-0.000714206
-0.00323907
-0.00043754
-0.0835925
0.00103867
-6.15995e-05
0.017071
0.00117562
-0.00513974
0.00546907
-0.00747512
-0.00121877
-0.00225472
0.0137876
0.00168115
-0.00134895
0.020111
-0.00253379
-0.000334273
0.00150935
0.0109177
0.00289347
-0.00903899
-0.00528529
0.00595508
-0.000722996
-0.00266733
0.0395334
0.000426954
0.0197193
-0.0226982
0.0147226
0.000579834
-0.00592747
-0.000947246
-0.00484859
0.00817403
0.00256507
0.000285587
0.00732905
-0.00112649
-0.0077107
0.0141251
-0.000262177
0.00326934
-0.00190216
0.000266744
-0.00347439
-0.00517709
-0.000524185
-4.32085e-05
-0.0329317
8.22531e-05
0.00132387
-0.00385943
-0.00192468
-0.000303054
-0.000407483
-0.0200105
-0.00512136
0.00273618
0.01155
0.00234637
0.00142464
-0.00117923
-0.00136546
-0.0251794
-0.00275698
0.00326512
-0.00459606
0.00290893
-0.0760316
-0.00100631
0.00313811
0.00283623
0.0258547
0.00308272
-0.00248165
0.00767036
-0.0015144
0.000584403
0.00309926
-0.0624573
0.0015835
-0.00892728
0.0475489
-0.0092763
-0.0019457
-0.00228622
0.00255632
-0.00740146
0.0128122
0.0052174
-0.000682737
-0.0220789
-0.00517419
-0.000250392
0.00106968
0.0187011
-9.11939e-05
0.000983314
-0.00161564
-0.000724891
-0.000541165
-0.000974686
-0.0258163
0.0108723
0.000586212
0.00128554
0.0394536
0.00746337
0.0016398
6.27401e-05
-0.000843484
-0.00430043
0.000110379
-0.013255
0.0100125
-2.07618e-05
0.00361358
0.000331675
-0.0482886
-0.0017533
-0.00292504
-0.00148893
0.00033598
-0.00105015
0.000462447
0.0170259
0.00395729
0.000685997
-0.000480271
-9.18289e-05
0.00503237
-0.00638542
0.00102658
-0.00243306
-0.00189539
-0.000819461
-0.00253945
-0.0215209
-0.0143002
-0.00322707
-0.00728432
0.00137698
0.00624387
-0.00583002
0.00182827
-0.00151532
0.000445749
-0.00304763
-0.000139301
-0.0388073
0.0162923
-0.00466405
0.00224986
0.00144919
-0.0024016
-0.018137
0.00379303
0.00013234
0.000334183
-0.00352851
-0.0002402
-0.0190397
-0.0169548
-0.00210003
-0.00162989
0.0021448
-0.0103105
-0.00441377
0.0151042
-0.00195236
0.00114726
0.00182499
0.0029092
0.00933214
-0.025703
-0.0021653
1.45775e-06
-0.00154665
-0.00375217
-0.0136182
0.00454119
0.000477494
-0.000440924
-0.00102422
0.00103079
-0.0648073
-0.0397886
0.000119631
-0.000779968
-0.00172738
0.00329516
0.0243432
-0.00617086
-0.00230744
-0.00101861
-0.00154522
-0.00113768
-0.00580557
0.0243583
-0.0480894
-0.00148372
-0.00315707
0.000631445
0.00132396
-0.0122135
-0.000431006
-0.00240279
-0.00303089
0.000365185
-0.00204272
-0.0316755
0.0398011
0.00316096
0.00345696
0.00599622
0.00474664
-0.000424962
-0.0025094
0.00928931
0.00245133
0.00340141
-0.00449202
0.00372091
-0.00337165
-0.00710664
-0.00299513
-0.00122823
-0.00133482
-0.00319439
-0.00516774
-0.00765841
-0.000781678
-0.000834327
-0.00158661
-0.0021565
0.0140047
-0.00889668
0.000893226
-0.000618799
0.000821985
0.0125022
0.00130433
-0.00538357
-0.00279632
-0.00129504
0.00275763
-0.00338463
0.00166371
0.0224376
-0.00202934
0.00438223
-0.000666315
0.00186852
-0.00952904
-0.000136173
-0.000852363
-0.00129179
-0.0052191
-0.00206495
-0.0235553
0.0619765
0.0185444
-0.00134853
0.00105073
-0.000796677
-0.00297053
0.0070079
-0.00480567
-0.00122357
0.00138493
-0.00240447
0.000307807
0.0148061
-0.0218515
0.000751312
-0.00125727
-0.00268644
-0.00222838
-0.00105163
-0.000559573
-0.00058275
-0.00387968
-0.032619
-0.010257
-0.00829791
0.0192486
-0.00229251
-0.0247796
-0.0125534
0.00238368
-0.00209342
-0.00507228
-0.00139742
-0.00557513
0.0052093
-0.00274348
-0.00287322
-0.00848729
-0.0243146
-0.00850984
-0.00982283
-0.0127946
-0.0117593
-0.00592113
0.00789116
0.00772889
-0.0138876
-0.00607162
-0.0126544
-0.0106699
-0.0256585
-0.0043644
0.00639878
-0.00903008
0.00181913
-0.0214883
0.00922562
0.00291851
-0.0245913
0.00492303
0.00427612
0.00652077
-0.0232611
-0.0145986
-0.0171146
-0.0130242
0.0116232
-0.00279378
0.00165619
0.00572874
0.00912357
-0.0169124
-0.0267091
0.00113102
0.0566765
0.0229672
-0.0172312
0.0153407
0.00750541
-0.00211632
-0.00494554
-0.00689973
-0.0124497
-0.0120696
0.0161819
-0.0114091
-0.00462204
-0.0124565
-0.00743026
0.0153049
0.0200173
0.00638389
0.0131213
0.00255248
-0.0074677
0.027305
0.00900855
0.0360581
0.0172311
0.0199388
0.0230193
0.033553
0.00248836
0.0302788
-0.037498
0.00690891
-0.000228119
0.00798981
0.000594613
0.0228696
0.0352439
-0.00309984
-0.0219402
0.00905914
0.00995537
-0.0274122
0.0028576
-0.00974832
0.0175857
-0.0208383
0.00506166
-0.00784921
0.0326174
-0.00460614
0.00959149
0.000534771
0.00154638
0.00333473
-0.0100821
0.0204077
0.0309843
0.0424832
0.04492
-0.00118963
0.0142129
-0.00625683
0.00211504
-0.00536538
-0.0240299
0.0065639
0.0167203
-0.00058865
0.0127309
-0.0126241
0.0032327
0.0239922
-0.0370095
0.00361034
-0.00933712
0.0343461
0.0272117
0.00471972
0.0327433
-0.0495703
-0.160769
-0.0479337
0.0443249
0.0537755
-0.00264309
-0.0590456
0.0111385
0.0231657
0.0741215
0.00680718
0.0918096
-0.0271779
-0.0241077
0.0179858
-0.0374019
-0.0155422
0.0283401
-0.00808622
0.00724952
-0.017498
-0.00164841
-0.0178272
-0.0111538
0.00384656
0.0103889
0.000315691
-0.00300819
-0.00441437
0.0113408
-0.0062237
0.0223603
0.063337
0.00345528
0.0569795
0.0246096
0.0615618
0.0208382
-0.00500017
-0.0180294
0.0164145
0.0255158
-0.0930382
-0.00153744
0.0355674
-0.0122522
-0.00240913
0.0124387
-0.031672
-0.00629552
-0.0213926
0.00287126
0.0194669
0.00378894
0.0174468
-0.0167853
-0.0335818
-0.00472043
-0.00292076
-0.0263754
0.0217668
0.000681676
-0.0306243
0.0175677
-0.0110088
-0.00451517
-0.00265901
0.00527197
-0.00599388
-0.0149116
-0.0623379
-0.0203405
0.00104501
-0.0221886
-0.0054228
0.0476345
0.0191506
0.072922
0.0501742
-0.0403635
-0.004415
0.00858646
0.0194966
-0.00140969
0.00838437
0.0159011
0.0283229
-0.00197524
0.0417404
0.0608789
0.0445355
0.00537787
0.0588953
0.0532903
0.0528202
-0.0195486
0.00908655
0.0427361
-0.00730246
0.0133127
-0.00471835
-0.00264253
-0.0032595
0.11198
0.0406328
0.0789637
0.0202936
0.0301641
0.0139274
-0.00394454
0.00248121
0.00552624
-0.0340611
-0.0125347
-0.0402462
-0.000183206
0.0233547
0.0449536
0.0103722
-0.0107451
-0.00133662
-0.0247409
0.144768
-0.0146818
-0.000364587
0.0135231
-0.0103093
0.000633057
-0.00973571
-0.0123208
-0.0112143
0.0135847
0.00594502
-0.00454998
-0.00183642
0.0199997
-0.00317711
-0.0260639
-0.0768133
0.00730656
-0.0525956
-0.0372754
-0.019356
-0.0194165
-0.0101977
0.0391989
-0.000505584
-0.0196985
0.0317075
0.0170409
-0.0251815
-0.0578976
-0.0136286
-0.0193553
-0.0123092
0.0219778
-0.0725692
-0.0385188
0.00487128
-0.00707071
0.0146464
-0.0245283
0.0108014
0.0205907
0.00404051
-0.00157757
0.0111101
-0.0176564
0.0278936
0.0116573
-0.0221324
0.0205102
-0.0472303
-0.00294349
-0.00723459
-0.00277369
-0.00406061
-0.0278174
0.00388419
-7.14888e-05
0.00142121
0.00956521
-0.0197111
-0.00926089
0.0324938
0.0048838
-0.0448325
-0.00171735
-0.000247017
-0.0264749
-0.0148342
-0.00674236
0.0317534
0.0366714
0.0396964
0.00774024
0.00237692
-0.0104816
0.0234086
-0.000374266
0.0282639
-0.0460422
0.00361838
0.0026144
0.0128869
0.00962122
0.0201483
-0.0346162
0.0129969
-0.0106971
0.0122323
-0.0356177
0.0101824
0.00404739
0.0126447
-0.0285306
-0.00287905
0.0541448
0.00904355
-0.0175678
0.00242065
-0.0498968
-0.00470293
0.0118494
-0.0105398
0.00220417
0.00977216
0.00643557
-0.00163104
0.0291894
-0.00666978
0.0289843
0.0187524
0.0302568
0.00247497
0.021469
0.00136829
0.00706554
0.0028424
-0.0351432
-0.00648806
-0.0181153
0.00916577
-0.0488355
0.0313009
-0.0055953
-0.00657027
-0.000423108
-0.0374991
-0.0311275
-0.0266258
0.0503733
0.000240642
0.0294387
0.0340634
-0.0115264
-0.00851868
0.019125
0.0475893
0.017472
0.00523093
-0.00225913
-0.00604322
-0.0163474
-0.0148716
-0.0464569
-0.0445225
0.031627
-0.0369594
-0.00492003
-0.00576871
0.00756287
-0.0297433
-0.0484312
0.0032475
-0.0359756
-0.00872026
0.0061545
0.0095577
-0.000585473
0.00946402
0.0206794
0.0107351
0.00516495
0.0147333
0.0111688
0.0496859
-0.0368979
0.0282277
-0.0232159
0.0748727
0.0266082
-0.00158368
0.00603608
-0.00682234
-0.0103831
0.0631127
-0.0128647
-0.00593324
0.000307431
-0.0180301
0.0628464
0.00334514
-0.00570816
-0.000963303
0.00322046
0.018703
-0.00765994
-0.0102678
0.00596884
-0.0304524
0.027511
0.00862212
0.0260076
0.0011307
-0.0102492
-0.0502258
0.0594561
0.0340368
0.00418038
-0.00511648
0.0358382
0.0030313
0.0353873
0.00268048
-0.00193153
0.0010994
-0.00423238
0.00184945
0.00282905
0.00753722
-0.00786282
0.00455903
-0.00590297
0.00492505
-0.043373
0.000574065
-0.0668135
-0.00857895
-0.0405188
0.0184255
-0.0161119
0.0286593
0.00122286
0.0423
0.00344264
0.00459368
-0.00460711
-0.0166385
0.0101125
-0.0317022
0.0109883
-0.00529687
-0.00945807
-0.0196773
-0.0186225
-0.00411495
-0.00251304
-0.00648791
-0.00674014
0.026006
-0.00608915
-0.0151061
0.010749
0.0261934
-0.0475589
-0.023428
-0.033585
0.00984328
0.00708503
0.0271048
0.00203593
0.00140475
0.00674448
0.035285
-0.0119374
-0.000392493
-0.033881
0.00697161
-0.0151102
-0.0203363
-0.0101737
0.0136621
0.00335323
-0.0184133
-0.00501951
-0.00925616
-0.0178885
-0.0469926
-0.00653389
0.0255266
-0.00100051
-0.0078039
-0.0163602
0.027925
-0.00927186
0.00219084
0.0228593
-0.00241219
-5.0929e-05
0.0289628
-0.0213673
-0.000766857
0.0635735
-0.02117
0.0249377
-0.0290017
0.0270637
0.00437552
-0.0497419
-0.0231373
0.0437366
0.0331136
0.014516
0.0522841
0.050169
0.00776598
0.00263781
0.0405183
-0.00529513
0.0229496
0.0374114
0.0278418
0.0142307
-0.0107674
0.0136004
0.00491024
0.011217
-0.0265933
0.0200289
-0.0496496
-0.0249161
0.0354338
-0.0296216
-0.0218888
0.00748711
-0.0174773
-0.00447712
-0.0206836
0.000641226
0.0124971
0.00203526
0.00390846
0.0279405
-0.0321376
-0.00936771
-0.0349602
0.00297684
0.00230046
0.0145272
-0.00731908
0.00958633
0.00909967
-0.0680336
0.0304839
0.0628316
-0.0217881
-0.0114967
0.0412231
-0.000775784
0.0712777
0.0102533
0.0116228
-0.0127442
0.0159156
-0.024308
0.0165606
0.00634006
-0.0191413
0.00502798
0.000723608
-0.00419107
-0.0125477
0.0155273
0.0146831
-0.0151958
0.0322263
0.0164445
-0.00113257
0.00667341
0.0385326
0.0395852
0.0101779
-0.00699001
-0.00166054
-0.011477
0.0238467
0.0267912
-0.00202556
-0.0108603
0.0130733
-0.0203926
-0.0462795
-0.000338395
0.00517783
-0.0154191
0.0351823
-0.0151551
0.00373812
-0.0162304
0.0329272
0.00191257
-0.0247591
-0.00595547
0.0133504
0.0274428
0.0484329
-0.0167678
-0.00227205
-0.0242058
0.0270748
0.00152165
0.00917886
-0.000682904
-0.015726
0.0184785
-0.00979895
-0.00676542
-0.00997793
-0.00880188
-0.062018
-0.0452971
-0.0329593
-0.00561053
0.0126714
-0.0464965
0.0217629
0.0714508
0.0162563
-0.0157952
0.00304038
-0.0447361
-0.00219719
0.00154729
0.00505547
0.0207817
0.0126765
-0.0138856
0.0341147
0.0269849
0.0274233
-0.00783917
0.0519439
0.0177937
0.0459387
0.0265133
-0.029804
-0.0169388
-0.0105199
0.0518939
-0.00396869
0.00628428
0.0183086
-0.000981771
-0.0275524
-0.0447144
0.0017867
0.0196793
-0.0171389
0.00581186
-0.00434103
0.0727562
0.017924
0.0267493
0.0161268
0.0703937
-0.0928824
-0.0122049
-0.0161798
-0.0666285
-0.0373096
0.031518
0.019029
-0.00630875
-0.00200752
-0.0348318
0.00626056
-0.0193679
-0.000770797
0.00619373
0.00632399
-0.00365621
-0.0317622
0.0230714
-0.0116406
0.00876592
-0.025774
0.0132476
0.0150877
-0.00403855
-0.00267186
-0.0201326
-0.00829558
-0.0189516
-0.00277978
0.00634618
0.00688
0.0119132
-0.000109722
-0.00311845
0.0110154
0.0131667
-0.0110544
0.0246228
-0.0114611
-0.00726507
-0.0239667
-0.00479352
0.0123419
-0.00111788
0.00896504
-0.0575065
-0.00533651
-0.0239081
0.0429556
0.0177223
0.00783115
-0.00049256
-0.00501264
0.0260771
-0.0207306
0.00496978
0.0112805
0.0377268
0.00926477
0.0195383
0.0153194
-0.130179
0.138454
0.0128712
0.0795301
0.0151511
-0.0264105
0.025258
0.0171808
0.0555575
-0.0118394
0.0347284
-0.00680022
0.0235246
0.031962
0.0250455
0.00234903
-0.00844897
0.0343342
0.0196426
0.012474
0.00145374
-0.00324719
0.0140302
0.00902073
-0.00594234
0.00813332
-0.00161214
-0.011437
0.00420695
0.0139462
-0.00164564
0.0128238
-0.0188745
0.0229072
-0.0136734
0.0156487
-0.0345265
0.0330482
-0.0069697
-0.0422096
0.00272445
0.0119831
0.0154383
0.00195618
0.00816244
-0.0210809
0.00310311
0.0335594
-0.0227959
0.0350279
-0.0183439
0.000672178
0.0225892
-0.010079
0.011592
0.0081492
-0.0296996
-0.0259387
0.0192201
0.00190327
-0.0856763
