booster[0]:
bias:
-0.0807928
weight:
0.000170874
-0.000280856
0.00012441
0.000180393
-0.000359883
-0.000336423
6.58717e-05
0.000216225
0.000193292
0.000117385
0.000151047
0.000180372
8.30962e-06
-4.55165e-05
3.42014e-05
0.000129905
-1.66883e-05
7.38717e-05
-1.89052e-05
1.27504e-05
3.00915e-05
0.000112598
-0.000248576
-0.00016216
-2.51892e-05
-3.99909e-05
-8.24296e-05
-0.000502801
-4.79874e-05
-0.00022149
-0.000187837
3.06947e-05
-0.000144145
-3.37051e-05
-5.5447e-05
3.39801e-05
-0.000145276
7.76694e-05
5.79474e-05
-2.39388e-05
-0.000367591
-0.000276847
-0.000603758
-0.000308493
-0.000381189
-0.000391454
-0.000729248
-0.000463341
0.000168346
0.000189077
4.48837e-06
-4.15004e-05
-5.35424e-05
-7.89174e-05
-5.9332e-05
-0.000208612
-9.46625e-05
-0.000318995
-0.000382567
-0.000468426
-9.20394e-05
-0.000395705
-0.00048524
-0.000466256
-0.000152186
-2.55619e-05
-3.11029e-05
-0.000155898
-0.000211105
-0.000533087
-0.000395174
-0.000520249
-0.000448127
-0.000589784
-0.000466293
-0.000484748
-0.000293018
-0.000365072
-0.000277022
-0.000482726
-2.75916e-05
-0.000425243
-0.000470557
-0.000453289
-0.000322568
-0.00068357
6.89593e-05
-0.000364008
-2.37369e-05
-0.000186292
-0.000207177
-8.47222e-05
-0.000136152
-8.19265e-05
-0.000254466
-0.000124099
-0.000542846
-9.21642e-05
-0.00035534
-0.000504008
-0.000266448
-0.000396192
-0.000389476
-0.000201986
-0.000641336
-0.000519306
-0.000212717
0.000132673
5.06857e-05
-0.000484318
-0.000678749
-0.000609553
-0.00056238
-0.000233755
-0.000100566
-0.00035714
-0.000370676
-0.000397534
-0.000497377
-0.000623755
-0.000349057
7.9907e-05
-0.000507217
-0.000462389
-0.000346775
-8.50124e-05
7.2996e-06
-8.44679e-05
2.36781e-05
3.29793e-05
-0.000242045
0.000511921
3.05939e-05
6.89057e-05
-0.000162726
-0.000319232
3.80261e-05
-0.000100972
-6.44033e-06
-7.84366e-05
0.000128015
-0.000103883
3.51867e-05
-9.8264e-05
3.8641e-05
-2.50411e-05
0.000353948
3.37197e-05
4.80701e-05
-0.000104657
-2.98319e-05
0.000130836
3.70367e-05
1.43774e-06
-6.683e-05
0.000271714
0.000201765
6.98053e-05
0.00011651
0.000114428
-6.46305e-05
0.000206534
-8.53139e-05
0.000129691
-8.45249e-05
0.000158772
1.01704e-05
-2.80504e-05
0.000178347
-0.000178348
-5.62964e-07
1.90721e-05
0.000137393
-5.11371e-05
-4.05822e-05
8.96526e-05
6.71538e-05
-6.24884e-05
-0.000102382
9.9469e-05
-2.8458e-06
-0.000195993
-6.04097e-05
-1.42527e-05
-4.15981e-05
-8.53006e-05
0.000311775
0.00028381
5.0856e-05
5.81592e-05
0.00010315
-4.61985e-05
1.8199e-05
2.52353e-05
1.96184e-05
8.38046e-05
2.22993e-05
-2.55558e-05
-4.05169e-05
-0.000278854
-0.000163527
-4.01303e-05
-8.11061e-05
0.000187073
-0.000123774
8.73676e-06
-0.000279088
-8.49625e-05
-0.000100119
3.96456e-05
-9.31811e-06
-9.32238e-05
0.000110752
0.000204582
3.74916e-05
-5.82013e-05
8.86334e-05
-5.54188e-05
-8.41165e-05
-2.95225e-05
-2.69528e-05
-0.000104105
-0.000311381
-5.6106e-05
3.45396e-06
-3.92604e-05
-2.43733e-05
2.45141e-06
9.80518e-05
0.000152529
0.000504748
1.99079e-05
-0.000150757
-5.79005e-05
-0.000404299
6.19891e-06
5.18534e-05
0.000121819
3.64147e-05
-1.27257e-05
0.0001354
4.62689e-05
4.36685e-05
4.02066e-05
9.67352e-05
1.16671e-05
2.43861e-05
-1.47595e-06
6.82107e-05
7.80212e-05
3.17109e-05
-0.000191655
0.000123426
9.48637e-05
6.30009e-05
6.49881e-05
0.000166231
0.000113422
7.08156e-05
1.50958e-05
2.23699e-05
-1.37167e-05
-0.000116161
5.35163e-05
3.12223e-06
5.93434e-05
-2.5881e-06
2.59005e-05
-4.16589e-05
-0.00024017
2.70414e-06
3.16441e-06
6.63879e-05
-3.03919e-05
-0.00031938
3.26601e-07
3.87229e-05
1.34433e-05
3.00329e-05
2.65112e-05
8.88123e-05
-2.37997e-05
0.000118526
3.77363e-05
-1.85785e-05
-0.000101648
-0.000112517
1.26604e-05
0.000191085
7.85346e-05
3.79737e-05
7.01477e-05
-0.000102933
0.000210721
0.000133107
1.90185e-05
3.52715e-06
-3.9654e-05
5.8167e-05
-7.68272e-05
9.29713e-05
-1.61706e-05
-0.000364928
-0.000484362
-0.000378546
0.000124769
-3.37434e-05
-0.00010186
-8.57686e-05
2.04719e-05
-4.57362e-05
-4.4698e-05
-0.000117306
-2.33311e-05
1.78494e-05
-0.000186746
8.37787e-05
0.000218004
-0.000110186
-5.75544e-05
0.000143746
-7.59322e-05
-6.84027e-06
-2.1372e-06
0.000170479
-5.60681e-06
-0.000105243
-1.10085e-05
0.000123044
1.78048e-06
3.50314e-05
7.98687e-05
0.000133775
3.46683e-05
1.00496e-06
8.11545e-06
-0.000265355
-7.95067e-05
-2.88413e-05
2.54764e-05
0.000126444
3.82633e-05
9.78848e-05
9.90476e-05
4.29628e-06
9.40478e-05
-0.000196644
2.29722e-06
0.000105988
-1.62158e-05
-8.46591e-05
-8.18356e-05
-4.6335e-05
-1.64561e-05
0.000253606
-4.7739e-05
-1.11201e-05
0.000101631
3.53839e-05
5.7231e-05
2.87388e-05
1.53452e-05
-8.95441e-05
0.000139126
-1.05112e-05
-0.000346517
4.09952e-05
-0.000149085
-1.24881e-05
0.000102057
3.34655e-05
2.20643e-06
0.000159459
-3.99706e-05
8.01191e-05
7.70292e-05
0.000122659
-0.000235144
-1.15402e-05
4.24897e-05
-5.80258e-05
-0.000252392
-2.57758e-05
-6.6866e-05
-0.000136928
-3.46514e-05
-0.00120964
-0.000250378
-1.08765e-05
2.34935e-05
7.43174e-05
0.000111445
-3.46769e-05
-8.91306e-05
-0.0002348
-0.000238099
-0.000657264
-0.00102139
-0.000268629
5.15961e-05
7.94788e-05
2.11408e-05
-0.00015149
9.04209e-05
-3.88497e-05
-1.46849e-05
-1.71086e-05
3.97324e-05
0.000159986
5.1859e-05
8.26953e-06
1.64723e-05
2.55584e-05
0.000135906
1.32059e-05
-0.000107067
3.91458e-05
-0.000417662
8.37445e-05
-9.43349e-05
-1.58831e-05
0.000149692
0.000240868
0.000168632
5.2117e-06
-3.51501e-05
1.70223e-05
-5.98764e-05
5.44249e-05
-1.91424e-05
-6.91819e-05
0.00017208
0.000122801
0.00013081
-6.02699e-06
-6.77781e-05
2.83799e-05
0.000147362
-4.34691e-05
9.89248e-06
-1.96443e-05
5.73386e-05
6.77844e-05
5.29814e-06
3.17993e-05
-8.49165e-06
-8.34106e-06
4.32953e-05
-1.0662e-05
-1.58047e-05
-4.46673e-05
0.000139238
3.77505e-05
0.000224822
0.000110875
0.000230113
1.67314e-05
0.000206476
1.0592e-05
0.000203385
4.89684e-05
0.000259422
1.48515e-05
0.000214291
1.37469e-05
0.000240867
2.13942e-05
1.2616e-05
-4.87179e-05
3.35759e-06
4.58952e-05
4.48964e-06
2.39133e-05
0.00011474
2.80678e-05
2.08607e-05
-0.000365712
-5.65501e-06
3.90676e-05
2.21057e-05
-0.000220216
-1.257e-05
0.000144651
0.000135508
7.12042e-05
1.16797e-05
-6.17047e-05
0.000181524
3.17718e-05
-1.35454e-05
-0.000944009
0.000146213
-0.000421709
-0.000418991
2.3451e-05
2.11119e-05
3.58481e-05
1.61304e-05
-4.98459e-06
4.49542e-05
-5.90828e-06
-2.13943e-05
1.01966e-05
-0.000217218
-1.08252e-05
0.000134286
-5.88318e-05
6.479e-05
6.14958e-05
4.27788e-05
2.89913e-05
5.77224e-05
8.68834e-05
9.31969e-05
6.72803e-05
0.000102928
0.000100019
1.6713e-05
-6.56734e-05
-0.000402308
0.000130568
0.000188653
0.0001035
6.00576e-05
8.77064e-06
2.43368e-05
-0.00013689
0.000161977
0.000258532
-1.94598e-05
-7.21208e-05
1.07908e-05
-3.62607e-05
-1.70134e-05
-0.000360225
-0.000129068
-6.08771e-05
8.22481e-05
-5.71607e-05
-1.34597e-05
-1.69613e-05
1.43036e-05
1.46046e-05
1.82176e-05
5.51649e-05
-2.33504e-05
-8.1815e-06
-0.000109396
3.83975e-05
1.72482e-05
-1.55086e-05
-0.0002989
4.84131e-05
-6.58817e-05
3.23194e-05
3.86534e-06
1.33149e-05
-1.60582e-05
2.27998e-06
6.50598e-06
-0.000167664
-0.00222301
-0.00376939
-0.00207668
8.72319e-05
0.000132652
0.000162345
1.64069e-05
1.76907e-06
1.59105e-06
0.00017438
0.000119134
-1.37922e-06
-5.0333e-05
1.91125e-05
-5.3247e-05
3.66896e-05
7.97082e-05
-7.79004e-05
3.92265e-05
5.25523e-06
-3.89392e-05
-0.000273093
-8.89612e-05
-0.000376898
4.45836e-05
7.11935e-05
-0.000420142
-3.06343e-05
-0.00173754
0.000159809
-3.59313e-05
-5.76127e-05
-1.62903e-05
1.22262e-05
-2.05586e-05
-8.11427e-06
3.19955e-05
-6.3401e-06
-4.28138e-05
-3.45002e-05
7.06009e-05
-0.000167233
2.20044e-05
4.51211e-05
1.38629e-05
-2.789e-06
-1.39018e-05
-1.50863e-05
1.09879e-05
6.02184e-05
6.10263e-05
7.26814e-05
8.53656e-05
0.00010442
4.7689e-05
-1.05828e-05
-0.000108271
-8.62197e-05
0.0001033
0.000124351
4.29782e-05
-1.17266e-05
-7.83837e-05
1.32288e-05
3.50465e-05
0.000162746
-2.35642e-05
-1.08339e-06
2.1422e-05
3.59375e-05
0.000151624
-8.70877e-06
-0.000436235
-0.000896169
-0.000599054
9.69791e-05
0.000185107
4.86364e-05
-2.19624e-07
-5.62558e-06
1.71274e-05
-4.47553e-05
2.93748e-05
-0.00018032
0.000134394
0.000141822
0.000152928
0.000160579
5.17484e-05
8.88316e-06
-2.94181e-05
0.000164856
-3.61974e-05
-2.30725e-05
-1.45385e-05
-2.07372e-05
-0.000107656
-3.32263e-05
-1.80733e-05
-1.08518e-05
-2.93038e-06
4.1962e-06
-7.87366e-06
4.47596e-06
2.50627e-06
-3.34078e-06
-0.000437599
7.39385e-06
-1.53529e-05
6.72154e-05
1.51479e-09
6.27267e-06
5.93816e-05
0.000108444
9.14712e-06
4.07992e-05
-1.59348e-06
1.9793e-06
-9.41983e-05
-6.05984e-06
-0.00024655
-0.000460115
-0.00042566
-0.000287284
-3.51342e-05
-4.23759e-05
0.000100473
0.000153397
0.000161774
-0.00025269
-0.000223025
-4.6868e-05
-0.000183538
-0.000259211
-0.000433113
-0.000434376
7.64408e-05
-0.000255897
-0.000431817
0.000144848
0.000104887
0.000197197
0.00021593
3.84834e-05
-3.00002e-05
-0.000168069
-2.19921e-05
-0.00047941
0.000204852
0.000222347
-0.00173233
-0.00130621
-0.000371821
-0.00225124
-2.75214e-06
-0.000277225
9.41077e-06
-2.45052e-05
-8.86156e-05
-4.14895e-05
0.00015884
-4.03143e-07
-8.25968e-05
0.000153508
7.13239e-05
-5.36337e-05
0.000189644
3.21324e-05
-1.18814e-07
-1.2248e-05
1.0311e-06
2.56961e-06
-3.01129e-05
-3.39973e-05
9.47569e-05
1.45836e-05
-8.3017e-05
0.000231268
2.99992e-05
-3.73751e-05
0.000150373
2.43091e-05
-5.60327e-05
0.000147016
4.80609e-05
-8.28031e-05
0.000151708
-3.25509e-05
9.46157e-05
-2.34087e-05
9.34527e-05
-0.000231145
-5.58978e-05
-9.2518e-05
-8.00661e-05
-0.000305624
0.000146064
8.92648e-05
0.000140236
-4.56091e-05
-3.21973e-05
0.000170192
-8.5715e-05
-2.06227e-05
-7.05511e-05
-5.4718e-05
-5.46377e-05
-6.77106e-05
-5.39989e-05
-0.000170683
-3.16743e-05
-6.77847e-05
-6.35081e-05
2.78187e-06
-6.30665e-05
-4.14741e-05
-7.13944e-05
-6.00266e-05
-1.99726e-05
-2.38311e-05
-3.25749e-05
-6.54924e-05
-3.72682e-05
-9.78664e-05
-4.31474e-05
-5.81124e-05
-0.000114782
-0.000132341
-9.89297e-05
-8.60786e-05
-3.62761e-05
-6.06964e-05
-3.63106e-05
-8.396e-05
-2.36976e-06
-9.64315e-05
-0.00011095
-0.00011996
-4.81533e-05
-4.23305e-05
-7.90561e-05
6.32282e-06
-7.1018e-05
-3.58704e-05
-0.000241585
-3.93389e-05
-9.02576e-05
-6.96598e-05
-4.19189e-05
-0.000164967
-1.95728e-05
-2.83852e-05
-8.388e-05
-1.64576e-05
0.000102751
-0.000250343
-0.0014844
0.000276352
0.00040945
-0.0015611
-2.82324e-05
-0.000821995
-0.00034794
-8.72615e-05
0.00012096
-0.00115676
3.161e-05
6.82282e-05
-0.000188882
-0.000149627
0.000255919
-0.000623645
-0.000132794
-0.000214114
-0.000305225
-9.65653e-05
-0.000162065
-0.000137596
-3.31916e-05
-0.000231404
-8.63931e-05
3.40226e-05
-0.000168346
0.000153334
-0.000146357
-3.66884e-05
-1.4666e-05
0.000183481
0.000457187
-0.000103148
-3.22037e-05
-0.000168321
0.000187948
-0.00178659
6.74719e-06
-5.43635e-05
8.5491e-06
-9.87286e-05
-6.51346e-05
-0.00044373
-0.000442342
-0.000701136
-0.000128356
-0.000187881
-0.000318891
-0.000257336
-0.000219062
4.47229e-06
-0.000320699
-0.000366929
0.000268625
-5.67078e-05
-0.000125434
-0.00068767
0.000325823
0.000260101
-0.000379448
-0.000657386
0.000248804
-0.000358077
-0.000129157
-0.000191814
-0.000619512
-0.000341827
-0.000920104
-0.000293874
0.000220687
-8.5408e-05
-0.00043679
-0.000551835
-0.0003533
-5.49844e-05
0.000158288
-6.26151e-05
-0.000412151
0.000412368
0.000191059
-7.08787e-05
-0.000318249
0.000396719
0.000342004
-3.27385e-05
0.000173743
1.11248e-05
-0.000820032
0.000458156
0.000143214
-0.000237442
-1.73077e-05
-0.000491237
-0.000266875
-0.000698113
-0.000302949
-0.000114225
-0.00040676
-0.000106025
-0.000392879
-0.000228813
7.78076e-05
-3.7843e-05
-6.37667e-05
-0.000392181
2.86206e-05
0.000169315
2.26208e-05
0.000186794
0.000254231
0.000450081
-0.000595984
4.29642e-05
-0.00141893
0.000279942
0.000102851
0.000165618
0.000331896
1.73151e-05
9.22627e-05
0.000488296
3.75302e-05
-7.96316e-05
-6.34633e-05
8.82029e-06
-0.000192732
-0.000132726
3.92339e-05
0.000173817
-4.88126e-05
0.000372787
8.2559e-05
-2.57643e-05
-0.000373929
0.000374847
0.000265199
-3.33743e-05
0.000173271
-0.000663548
-0.000278778
-0.000255111
0.000177187
1.20177e-05
-0.000146367
-0.000356515
0.000339169
-0.000231085
-3.716e-05
-6.62204e-05
-6.51168e-06
-3.05598e-06
-0.000192034
-4.47592e-05
6.08521e-05
7.6183e-05
-7.77506e-05
0.0004383
-0.000302991
0.000484513
7.14125e-05
0.000148156
-0.000433547
0.000474723
0.000533882
-0.000115789
-9.74722e-05
-0.000249952
5.51526e-05
-0.000601388
-0.000194602
-5.83e-05
-0.0001176
-8.57831e-05
-3.76386e-05
-0.000433364
-0.000847812
-0.000672151
-0.000765801
0.000405769
-0.00188897
-0.0007402
-0.000655812
-0.000570901
-0.00133236
0.000288614
-0.000875628
-0.00048632
-0.0013533
-0.00100457
-0.00207882
-0.000436005
0.000103607
-0.00314182
-0.000316812
1.57982e-05
-0.000401084
-0.000907903
0.00047279
-0.00152656
-0.00107381
-0.000351535
-0.000730554
-0.00150599
0.000496116
-0.00283929
-0.000405598
-4.83048e-05
-0.000362733
-0.00172857
0.000260227
7.42943e-05
-0.0021676
-0.000216148
-0.00036168
-0.000393965
-0.00108055
0.000427581
0.000335654
-0.00263636
-0.000205629
-0.000107349
-0.000571869
-0.0016925
0.000380397
0.000199236
-0.00285187
-0.000168103
-0.00055603
-0.000395698
-0.000769602
-0.000371769
0.000344375
-0.000450213
0.000262759
-0.00116591
-0.00131262
-0.000926363
-0.00123696
-0.000323332
-0.0003883
-0.00109626
-0.000238032
-6.09561e-05
-0.000838226
-8.35437e-05
-0.000503933
-0.000504216
-9.04508e-05
0.000440074
-0.000122771
-0.000766025
-0.00034673
0.000374441
-0.000409896
-0.00193454
-0.000259298
-0.000368894
-0.000410563
-0.000730677
-0.000520092
0.000238782
-0.00135876
0.000548558
0.000197715
-0.00118799
-8.98415e-05
-0.000117172
-0.000273168
-0.00143338
0.000371448
0.000152369
-0.00179315
-0.000162931
-8.67697e-05
-0.000505849
-0.00120751
0.000189327
7.14693e-05
-0.00207708
4.78592e-05
6.74973e-05
-0.000216998
-8.07741e-05
0.000213559
-0.00011082
0.000347054
5.80545e-05
-0.000187758
0.000387368
-0.000207488
-2.41642e-05
2.72392e-05
-0.000243285
-0.000161552
0.000102036
0.000191772
0.000539919
0.000244797
0.000522317
0.000580768
-0.000393816
-0.00146903
-0.000792716
-0.00175875
-0.000129731
1.00592e-05
-0.00245822
-4.91803e-05
-0.000333425
-0.000233026
0.000333403
-0.00132654
-0.00130322
-0.000811301
-0.00197683
1.01449e-05
-8.80532e-05
-0.00188283
-0.000888921
-0.00181841
-0.000754384
-0.00161338
0.000203318
0.000208637
-0.00169662
-0.000615881
-0.000742064
-0.000838343
0.000450689
9.78381e-05
-0.00239026
-9.01739e-05
-0.000616892
-0.000344577
-0.000809167
-0.00045409
-0.000214292
-0.00174541
-0.00104431
0.000284604
-0.0019851
0.000162637
0.00047523
0.000139529
0.000291279
0.00043769
0.000650705
-0.000383975
-0.000693041
8.77732e-05
0.000585089
-0.00171158
-0.000873993
-0.000513779
1.24553e-05
0.000658286
-0.00224564
-6.69886e-06
-0.000233742
0.000226326
0.000434213
-0.000222817
0.000196627
0.000485015
0.000141165
0.000191358
0.000616169
0.000243025
-0.000332908
-0.000734508
-1.60339e-05
0.000561489
-0.00152468
0.000160832
0.000466126
0.000133742
0.000180165
0.000534328
0.000107989
-0.000230164
-0.000322388
0.0004752
-0.000260712
0.000184864
0.000478328
0.000145615
7.80024e-05
0.00054909
0.000190344
-0.000587934
-0.00058711
0.000333087
0.000581248
-0.00114744
-6.26376e-05
-0.000523843
0.00037395
0.000421285
-0.000872018
-0.000567757
-0.000387663
0.000177156
0.000540686
-0.00133244
0.000208927
0.000110544
-6.7594e-05
-0.000457325
0.000478045
-0.000670124
0.000484783
-7.52965e-06
-0.000259982
-0.000239195
0.000457447
0.000283668
-0.000419927
0.000258019
-0.000129975
-0.0001895
-0.000189043
0.000566875
-0.000856491
0.00043929
-0.000132366
-0.000532239
-0.000290361
0.000288654
-0.00108113
-0.000145822
-0.000716798
-0.000719775
-0.000409412
0.000291754
-0.00133677
0.000353432
-0.00047427
-0.000220237
-0.000170817
0.00041595
-0.000709725
0.000363377
-0.000651799
-0.000686083
-0.00019583
0.000572866
-0.00149471
5.76327e-05
-0.000835803
-0.000600825
-1.51311e-05
0.000540468
-0.00161773
0.000346726
1.39127e-05
-0.000359618
0.000174131
0.000503289
-0.000861399
0.000160077
0.000500883
0.00013013
0.000210988
0.000502083
0.000368895
-0.000160092
-0.000549976
0.000442779
0.000512227
0.000451407
-0.000445075
-0.000262214
-0.00016833
0.000498579
3.52513e-05
-0.00107184
0.000272276
0.000141709
-0.000210167
-0.000277562
0.00042908
-0.000577181
-0.00097929
-0.00234339
-0.000707947
-0.00152731
0.000192471
0.000299864
-0.00202448
9.04279e-05
0.000190392
-1.50186e-05
7.50105e-05
0.000302341
0.000132887
-0.000857511
-0.000675476
-0.000272506
0.000486294
-0.00201685
0.000100244
0.000357844
6.0199e-05
0.000195849
0.00038452
-0.000810896
-0.000934956
-0.00024885
0.000376888
-0.0033387
-0.00177826
-0.000533287
-0.00125741
-2.3433e-05
0.000313858
8.77019e-05
-0.000992858
-0.000348897
-3.3504e-05
-0.00079436
0.000380711
-0.00201549
0.000183703
-0.000180109
-0.000377971
0.000343889
-0.00155915
-0.000105728
-0.00061051
-0.000559836
-0.000798146
-0.000398802
4.96789e-05
-0.00095198
-0.000201013
-0.000590694
0.000510202
-0.00245732
-0.000109719
-0.000590834
-0.000467077
-0.000754705
-0.000448373
0.000275068
-0.000690388
0.000121059
-5.49738e-05
0.000691666
-0.00201634
-0.000104379
-0.000797354
-0.000377428
-0.000958061
-0.000662127
-2.4465e-05
3.26798e-05
-0.000521264
0.000481952
-0.0011477
-0.000394443
-0.000843532
-0.000565111
-0.000847349
0.000412955
-0.00214292
-0.000115522
-0.000975121
-0.00051566
-0.00118513
-0.000727811
0.000313173
0.000106899
0.000272412
0.000184619
0.000601991
-0.000440618
-1.2365e-05
-0.00105634
-0.00059509
-0.00136089
0.0004766
-0.00170592
0.000429873
-0.000567043
-0.000189242
0.000490162
0.000544074
0.000302381
-0.00140638
-0.000422199
-0.000359277
-0.000436314
-0.000454146
0.000335649
0.000376604
-0.00183629
-5.80554e-05
-0.00056107
-5.98957e-05
-0.000766383
0.000168027
-0.000540627
-0.000107018
-0.000345745
-0.000842254
-0.000610021
9.24612e-05
8.0976e-05
-0.00206159
-0.000111503
-0.000162569
-5.87585e-06
-0.000574716
0.000237265
0.00024933
-0.000761847
-0.000201861
0.00022269
-8.1892e-05
-0.000708763
0.000216245
0.000143263
-0.00166406
-0.000101464
3.07704e-05
6.39132e-05
-0.000610185
0.000291874
0.000448196
-0.00106847
0.000122014
0.000254868
-0.000135791
0.000406667
-0.00140742
0.000153031
-0.000296718
-0.000148826
-0.000661054
0.000241844
-0.00165083
-0.000268757
-0.000159856
-7.94058e-05
-0.000229291
0.000232407
0.000336375
-0.00148386
9.31627e-05
-0.000127087
0.000122314
-0.000231239
0.000344932
0.000455431
-0.000898204
2.30359e-05
6.74099e-07
0.000135154
-0.000909435
0.000232179
0.000330524
-0.00120928
0.000298479
8.78893e-05
0.000155643
0.000537584
0.000619435
0.000656346
-0.000794657
4.59251e-05
0.000194128
-0.000146788
-0.00110562
0.00034321
0.000317004
-0.000746208
-0.000188549
-0.000389634
-0.000137006
0.000366262
0.000530425
-0.00164953
-2.13686e-05
-0.000123544
-0.000505643
-0.000315653
0.000289444
-0.00178972
0.000214274
0.000104855
0.000159277
0.000198826
0.000544156
-0.000800844
-0.000104781
-0.000777902
-0.000517045
-0.0010013
-0.000283126
-0.000585509
-0.000450974
-0.000195165
-0.000315502
0.000474102
-0.00162278
-0.000243516
-0.000968337
-0.00050554
-0.00117844
-0.00077306
5.13713e-05
-5.03303e-05
-0.000529822
9.5742e-06
-0.000134936
-0.000233288
-0.000767473
-0.00049324
-0.00100567
-0.000567731
-7.79654e-05
3.9904e-05
-0.000591035
0.000322391
-0.00148152
-5.49581e-05
-0.0007189
-0.000491202
-0.00115893
-0.000501991
-0.000310322
-0.000294773
-0.0014387
-0.000318163
0.000101856
-0.000424375
9.93136e-07
-0.000392922
-0.000202889
-0.000762643
-0.000107384
-0.000276844
-0.000571123
-0.000319571
-0.000556738
0.000433105
-0.00117079
1.34024e-05
-0.000228865
-0.000173457
-0.000524216
0.000121038
-0.000189706
-0.00032853
8.25895e-05
-0.000492042
0.000479991
-0.00185414
-1.38968e-05
-0.000210555
-0.000281874
-0.000448764
0.000108869
0.000295462
-9.3608e-05
-0.000576395
0.000295424
0.000221091
-8.90238e-05
0.000249139
-8.88418e-05
-0.000119443
-0.00167675
0.000184747
0.000389759
-0.000465064
-0.000145723
-0.00107076
-0.000698513
-0.00127
-0.000768514
-0.000537468
-0.000539343
-0.00169132
9.72141e-05
8.99215e-05
-0.00131398
-2.23172e-05
-0.000579233
-0.000349162
-0.000739627
-0.000257635
-0.00019545
0.000192939
2.92422e-05
0.000408206
0.000510185
-0.000995006
-3.54285e-05
-0.000817277
-0.000455297
-0.00105723
-0.000454729
-0.00028931
-0.000307123
-5.15982e-05
-5.9265e-05
0.000505382
-0.00140846
-0.000114288
-0.000457286
-0.000411923
-0.000541717
-0.000209766
-0.000215453
0.000248072
-6.5151e-05
0.000246587
0.000454875
-0.000727235
8.19958e-05
-0.000192621
-0.000287807
-0.00057397
0.000222572
0.000159848
-9.99502e-05
0.000115084
-0.000629673
0.000464413
-0.00114401
0.000136657
0.000301123
3.82204e-05
-4.105e-05
0.000404751
-2.33806e-05
-1.33429e-06
-0.000589823
8.83048e-05
0.000482146
-0.000702738
-6.48897e-05
-0.000322476
-0.000217904
-0.000574112
5.52532e-06
0.000332177
-0.000146519
0.000180058
-2.57382e-05
0.000359469
-0.0005528
1.46624e-05
-0.000252391
-0.00035681
-0.000401609
0.000428963
-0.000906929
0.000461929
-9.50003e-05
0.000128428
-8.4085e-06
0.000292493
-0.00125243
8.88364e-05
-1.57746e-06
-2.91119e-05
-0.000196239
0.000315595
2.94041e-05
-0.000363204
-0.000325455
-0.000772209
0.00025203
-0.000248077
1.62976e-05
-4.67644e-05
-9.88067e-05
-0.000181607
0.000147794
0.000231341
-0.000162278
2.63908e-05
-1.83085e-05
0.000472951
-0.000901538
-4.99846e-06
0.00035191
7.83349e-05
-0.000491784
0.000436742
-0.000369067
5.18327e-05
0.000165965
-0.000106917
2.93065e-05
0.000379569
0.000391461
-4.93613e-05
-0.000452777
-0.00064718
0.000411878
-0.0010956
0.000229458
-0.00013528
-0.000408735
0.000129325
0.000345096
0.000467841
-0.000774763
1.6431e-06
-6.1355e-05
-0.000403493
-0.000240722
0.000422212
0.000489927
-0.000877684
-6.0246e-05
0.000159673
3.53253e-05
-0.000763541
0.000496345
0.000386503
-0.000381441
0.000192227
-0.000115621
-6.86804e-05
-0.00047291
0.000334404
-0.000275453
0.000489789
-0.000243281
0.000120349
-4.27627e-05
0.000570897
-0.000417861
0.0003699
-0.000241031
-0.000152234
-1.29681e-05
0.000291249
-0.00100467
-0.000229595
0.000157138
-8.40674e-05
0.000510463
0.000479607
-0.000641488
-4.56269e-05
-0.000330318
-0.000297342
-0.000318841
0.000409161
0.000391065
-0.00072754
2.90409e-05
-9.91644e-05
-0.000120731
-0.000249819
6.54089e-05
0.000327656
-0.000230737
-1.7812e-05
-0.000560431
0.000323863
-0.000493368
-0.000231049
0.000107871
-0.000483989
0.000396562
0.000512912
-0.000278723
4.06105e-05
-5.71581e-06
-0.000109163
-6.0536e-05
0.000335547
0.00049145
-0.000551944
0.000444899
0.00045638
0.000248014
9.37675e-05
0.000501591
-5.29512e-05
0.000585789
0.000112927
0.000239406
0.000369588
0.000235071
-0.00079968
0.000100977
-0.000269933
-0.000206868
-0.0025036
-0.00051657
-0.00112852
-0.000150384
0.000101923
-0.000838641
8.80828e-05
-0.00141231
0.000271266
0.000112627
-3.50938e-05
-0.00171284
-0.000571842
-0.000439298
0.000220286
0.00037896
-0.000644928
0.000384881
-0.00162062
-3.79844e-05
-0.000147443
7.96086e-05
-0.000133427
8.89115e-05
-0.000356919
-0.000486684
-0.000153644
7.19338e-05
-0.000489701
0.000358311
-0.000586229
5.67207e-05
-0.000630416
0.000172822
0.000247346
-0.00186017
-0.00027896
-0.00100845
6.77801e-05
0.000420019
-0.000551975
0.000568199
-0.000518259
-9.66121e-05
0.000257268
8.56631e-05
-9.09196e-05
-0.000109807
-5.69223e-05
-0.000949269
6.04487e-05
0.000379915
-0.000243822
0.000347923
-0.00112729
-1.48421e-05
-0.000417616
-0.00037129
-0.000253571
-0.000791291
-0.000229486
-0.00065523
-3.8665e-05
0.000370206
-0.000737524
0.000157609
-0.00137925
-6.95994e-06
-0.000738536
6.57646e-05
-0.000212028
-0.000437645
-0.00051279
-0.00070261
-6.68848e-05
0.000510233
-0.000687177
0.00010769
-0.000135166
-9.54207e-05
-0.000326509
-0.000420172
-0.000381857
-0.00263041
-0.000636354
-0.0010952
-0.000225526
0.000283983
-0.000974376
-0.000101903
-0.00111534
-0.000595417
-0.000426862
-0.000231004
-0.000194919
-0.00151284
-0.000395025
-0.000823203
-0.000204532
0.0002985
-0.000944726
0.000173855
-0.000131651
-0.00113298
-0.000280083
-0.00105751
-0.000879272
-0.000159972
-0.000396653
-0.000336322
-0.00117593
-0.000244474
-0.000106029
-0.000412749
-0.000104277
2.01784e-05
-0.000174494
1.5918e-05
0.000473027
-0.000118789
-5.29332e-05
-0.00101827
-0.00112718
-7.09832e-05
0.000530977
0.000444762
-0.000800764
0.000615077
-0.00159404
-0.000783409
-0.000631002
0.000107471
-0.000386952
-0.000807941
-0.000575656
-0.000774937
-0.000140555
0.000296164
-0.000739508
0.000158005
-0.00080453
-0.000312427
-0.000714901
6.83896e-05
2.18165e-05
-0.000128751
-0.000164469
-0.00111827
-4.07839e-06
0.000291567
-0.000594597
0.000370224
-0.000124729
-0.000111435
-0.000265829
-0.000474235
-0.000236389
-0.000841087
-0.00037953
-0.00117107
-0.000227821
0.000301995
-0.000759624
0.000257805
-3.7917e-05
-0.000852709
-2.63407e-05
-0.000760505
-5.391e-05
0.000134888
-0.000450297
0.00025964
-0.000379268
3.94724e-05
0.000397951
-0.0005507
0.000488487
-7.48479e-05
-6.48735e-05
-0.00043478
-0.000699122
-0.00153199
-0.000617756
-0.00149034
-0.000384527
0.00025942
-0.000881523
-0.000964312
-0.000303723
0.000143524
-0.000180255
0.000111187
0.000160547
-0.00024499
-0.000221236
7.02877e-05
0.000185396
0.00016653
0.000117264
0.00014282
0.000162935
3.95249e-05
-2.02146e-05
4.88479e-05
0.000112507
8.65119e-06
6.90736e-05
4.62923e-06
2.83305e-05
4.19256e-05
9.47473e-05
-0.00016696
-0.00010348
5.56154e-07
-1.20954e-05
-4.29604e-05
-0.000337352
-1.35919e-05
-0.00014565
-0.000118755
3.7609e-05
-8.54723e-05
-4.40215e-06
-2.31598e-05
4.62378e-05
-8.6226e-05
8.59472e-05
6.11636e-05
-7.58859e-07
-0.000237674
-0.000175318
-0.000407715
-0.000195253
-0.000247384
-0.000256861
-0.000500931
-0.00030687
0.000133078
0.000175405
3.48377e-05
6.74423e-06
-1.47695e-05
-1.55977e-05
-3.08311e-05
-0.000126146
-5.10667e-05
-0.000214201
-0.000262429
-0.000316668
-4.33679e-05
-0.000260113
-0.000329159
-0.000315783
-8.77579e-05
1.40128e-05
1.17124e-05
-7.49848e-05
-0.000112698
-0.000367723
-0.000264283
-0.000349586
-0.000305351
-0.000401261
-0.000314204
-0.000325904
-0.000188372
-0.00024154
-0.000177228
-0.000323011
1.69247e-06
-0.000285099
-0.000316243
-0.000302183
-0.000205556
-0.000467281
8.58218e-05
-0.000237509
6.07397e-06
-0.000111469
-0.000126459
-3.92519e-05
-7.61238e-05
-3.74964e-05
-0.000160149
-6.82224e-05
-0.000369019
-4.4334e-05
-0.000233984
-0.000335412
-0.000170467
-0.000268109
-0.000263917
-0.000128268
-0.000442681
-0.00035071
-0.000122077
0.000134524
7.15543e-05
-0.00032673
-0.000462899
-0.000412086
-0.00038342
-0.000154803
-5.49832e-05
-0.000234687
-0.00025079
-0.000266497
-0.00033315
-0.000421588
-0.000228777
8.91457e-05
-0.000348826
-0.000307431
-0.000226753
-4.78321e-05
5.89061e-06
-4.98532e-05
1.80277e-05
2.30455e-05
-0.00016689
0.000385562
2.77752e-05
4.84315e-05
-0.000105955
-0.000222784
3.29222e-05
-6.70777e-05
-7.83708e-06
-5.08362e-05
8.92271e-05
-6.75749e-05
2.56462e-05
-6.26949e-05
2.65045e-05
-1.15117e-05
0.000262811
3.24244e-05
4.16551e-05
-6.52274e-05
-2.18288e-05
0.000109149
3.02802e-05
1.49812e-06
-4.38868e-05
0.000237981
0.000178276
6.82745e-05
0.000104113
9.66721e-05
-4.09338e-05
0.000149266
-5.4341e-05
9.03915e-05
-5.39824e-05
0.000108928
1.22961e-05
-1.39249e-05
0.000126923
-0.000116941
3.9983e-06
2.23926e-05
0.000123564
-3.37461e-05
-2.64286e-05
8.08005e-05
6.14961e-05
-3.87108e-05
-7.11066e-05
9.18145e-05
-1.94799e-06
-0.000137763
-4.28612e-05
-1.33357e-08
-1.97559e-05
-5.45919e-05
0.000263195
0.000241968
4.40855e-05
5.35893e-05
9.64655e-05
-1.93882e-05
1.97297e-05
2.44733e-05
1.88633e-05
7.61692e-05
2.50021e-05
-1.52482e-05
-2.84695e-05
-0.000193703
-0.000113024
-2.73742e-05
-5.65872e-05
0.000163053
-6.65886e-05
8.25362e-06
-0.000187102
-5.31928e-05
-6.08645e-05
3.81971e-05
-1.50251e-06
-4.7554e-05
0.00010014
0.000181177
3.51543e-05
-1.97659e-05
8.07696e-05
-2.88149e-05
-4.75986e-05
-1.42169e-05
-5.13094e-06
-6.41503e-05
-0.000195101
-3.48054e-05
5.30242e-06
-9.03014e-06
-3.11289e-08
7.959e-06
0.00010593
0.000151328
0.000428456
3.62523e-05
-8.49462e-05
-3.66284e-05
-0.00024094
5.96285e-06
4.84958e-05
0.000113965
3.80373e-05
-2.51719e-07
0.000124603
4.77675e-05
4.43653e-05
3.63437e-05
9.72831e-05
1.13858e-05
2.13279e-05
1.53653e-06
7.51035e-05
8.52594e-05
3.82381e-05
-0.000112052
0.000113425
8.83592e-05
6.07277e-05
7.23116e-05
0.00015828
0.000103743
6.98082e-05
1.65389e-05
2.08406e-05
-9.57727e-06
-8.01641e-05
4.66351e-05
3.5464e-06
5.18177e-05
-7.75805e-07
2.37649e-05
-2.84965e-05
-0.000168301
6.30656e-06
1.72552e-05
6.91753e-05
-2.12599e-05
-0.000223415
6.68045e-07
3.23567e-05
1.42053e-05
3.32723e-05
2.32549e-05
7.53878e-05
-1.20778e-05
0.000102268
3.7498e-05
-1.20594e-05
-6.99194e-05
-7.56897e-05
2.05139e-05
0.00017352
7.29371e-05
3.50069e-05
6.37716e-05
-6.95256e-05
0.000187206
0.000119699
1.76176e-05
3.86585e-06
-2.5682e-05
5.49196e-05
-5.09494e-05
8.65132e-05
-4.54345e-06
-0.000251542
-0.000334874
-0.000262445
0.000112743
-1.60138e-05
-7.07211e-05
-5.86329e-05
2.66489e-05
-2.91018e-05
-1.27289e-05
-7.49458e-05
-1.44579e-05
2.60342e-05
-0.00012605
9.10739e-05
0.00019277
-7.50713e-05
-3.7848e-05
0.00012681
-3.86341e-05
-3.6389e-06
2.07026e-06
0.00015232
-3.76925e-06
-7.29794e-05
-3.02691e-06
0.000112341
4.12213e-06
3.0292e-05
9.1084e-05
0.000134395
3.44779e-05
1.64197e-06
1.1711e-05
-0.000159759
-4.94241e-05
-1.5423e-05
2.1738e-05
0.000112405
5.21015e-05
9.43188e-05
8.8556e-05
5.73837e-06
8.95628e-05
-0.00013385
4.70303e-06
0.00011208
-9.28688e-06
-5.22239e-05
-5.28807e-05
-1.02707e-05
1.53303e-05
0.000232332
-1.97618e-05
-5.21906e-06
8.97174e-05
3.34967e-05
5.24368e-05
2.56939e-05
1.61849e-05
-5.87534e-05
0.000128203
-2.72488e-06
-0.000229799
3.7466e-05
-9.24403e-05
-2.24161e-06
9.39567e-05
4.59575e-05
4.40909e-06
0.000134383
-2.79087e-05
7.56099e-05
6.43665e-05
0.000109363
-0.000161977
-5.71136e-06
4.28546e-05
-2.54097e-05
-0.000149933
-7.46685e-06
-4.33904e-05
-6.71033e-05
-2.24763e-05
-0.000834292
-0.000172795
1.83298e-06
3.5065e-05
7.05231e-05
0.000101765
-2.11587e-05
-6.21218e-05
-0.000163209
-0.000165407
-0.000453497
-0.000708141
-0.000183376
4.91726e-05
8.79747e-05
1.86865e-05
-0.000101431
7.90431e-05
-2.63226e-05
-7.98363e-06
-1.14899e-05
4.09723e-05
0.0001448
5.18365e-05
7.60889e-06
1.43308e-05
2.79223e-05
0.000126431
1.26714e-05
-6.78496e-05
3.506e-05
-0.000276665
7.6873e-05
-6.0846e-05
-1.06824e-05
0.000133305
0.000216286
0.000154053
4.84621e-06
-1.30858e-05
1.46368e-05
-3.29035e-05
4.91257e-05
-1.11134e-05
-3.55008e-05
0.000164736
0.000116943
0.000118461
-4.0636e-06
-4.3654e-05
2.79974e-05
0.000129294
-2.46768e-05
1.03956e-05
-9.6242e-06
6.11852e-05
7.44394e-05
5.65037e-06
3.00929e-05
6.73875e-06
-3.18375e-06
4.24544e-05
-7.08817e-06
-1.05311e-05
-3.71241e-06
0.000141703
3.90083e-05
0.000204141
0.000102842
0.000207332
2.03059e-05
0.000190593
1.07335e-05
0.000183014
5.05579e-05
0.000233307
1.67722e-05
0.00019659
1.44071e-05
0.000217067
2.22362e-05
1.20176e-05
-3.21088e-05
3.25943e-06
4.02409e-05
4.52698e-06
2.13062e-05
8.22563e-05
2.58595e-05
2.04492e-05
-0.000250709
-2.67592e-06
3.28431e-05
1.94041e-05
-0.000153849
-8.37995e-06
0.000117033
0.000101414
6.17643e-05
1.09409e-05
-3.35686e-05
0.000164096
4.03617e-05
-2.48848e-06
-0.000650505
0.00012958
-0.000292738
-0.000301076
3.20972e-05
3.46254e-05
3.12635e-05
1.40327e-05
-3.48428e-06
4.3455e-05
-4.03936e-06
-1.42918e-05
8.44605e-06
-0.00014698
-6.73921e-06
0.000120943
-4.12484e-05
5.85101e-05
5.81133e-05
3.87044e-05
2.57304e-05
4.94477e-05
7.95022e-05
8.44475e-05
6.10782e-05
9.14789e-05
7.993e-05
1.45416e-05
-4.39574e-05
-0.000275421
0.000118331
0.000163812
9.1204e-05
5.471e-05
1.24213e-05
2.257e-05
-9.74348e-05
0.000139564
0.000228366
-1.28917e-05
-5.13792e-05
1.95853e-05
-2.5203e-05
-7.91281e-06
-0.000247102
-8.16932e-05
-4.29742e-05
7.82662e-05
-3.31142e-05
-8.19943e-06
-1.11252e-05
1.38475e-05
1.53052e-05
1.75768e-05
4.94926e-05
-1.45096e-05
-5.63272e-06
-7.47859e-05
3.65909e-05
1.57987e-05
-7.61693e-06
-0.000208124
4.40882e-05
-4.53818e-05
2.90908e-05
3.25899e-06
1.24042e-05
-1.0398e-05
2.63829e-06
5.81228e-06
-0.000114902
-0.00156321
-0.00275619
-0.00145936
7.76524e-05
0.000117681
0.000144732
1.53717e-05
5.21017e-06
2.30841e-06
0.000148742
0.000111329
5.53063e-06
-3.6204e-05
2.13789e-05
-3.84487e-05
3.25278e-05
7.66961e-05
-5.52159e-05
3.62788e-05
6.49878e-06
-2.47589e-05
-0.000187586
-6.0247e-05
-0.000264219
3.99677e-05
6.93953e-05
-0.000290568
-1.82737e-05
-0.00121282
0.000146515
-2.41061e-05
-3.67374e-05
-1.22496e-06
1.18787e-05
-1.30121e-05
-5.69914e-06
3.61186e-05
-4.25971e-06
-2.95745e-05
-2.24434e-05
8.1367e-05
-0.000111533
2.09026e-05
4.62266e-05
1.57798e-05
-4.82389e-07
-7.81814e-06
-9.40659e-06
1.18547e-05
5.68927e-05
5.88252e-05
8.28402e-05
8.72095e-05
0.00010361
4.38566e-05
-4.32262e-06
-6.55975e-05
-5.81666e-05
9.49642e-05
0.000109724
4.07133e-05
-7.44675e-06
-5.43298e-05
1.51636e-05
3.38532e-05
0.000149355
-1.49892e-05
8.29264e-07
2.8737e-05
4.6649e-05
0.000140383
2.00252e-05
-0.00028205
-0.000609915
-0.000405806
9.81863e-05
0.000170772
4.54404e-05
1.03025e-06
-2.93774e-06
1.74231e-05
-2.8327e-05
2.79433e-05
-0.000111591
0.000127674
0.000134755
0.000144701
0.000149448
4.90185e-05
1.98509e-05
-1.9181e-05
0.000152924
-2.4314e-05
-1.52221e-05
-6.92041e-06
-1.35391e-05
-6.99384e-05
-1.77978e-05
-1.18079e-05
-2.6051e-06
-2.7262e-07
5.46246e-06
-3.97219e-06
6.25502e-06
5.39576e-06
-2.83139e-07
-0.000297642
1.19543e-05
-2.37651e-06
7.94434e-05
1.49206e-06
6.5453e-06
5.32453e-05
9.64678e-05
9.4597e-06
4.02738e-05
1.4278e-05
3.40834e-06
-6.43251e-05
-4.02522e-06
-0.000169933
-0.000318543
-0.000296486
-0.000196373
-7.32189e-06
-2.0553e-05
9.55716e-05
0.000152134
0.000156103
-0.000173273
-0.000151536
-3.01459e-05
-0.000124545
-0.000175063
-0.000300887
-0.000296511
7.93188e-05
-0.000175657
-0.000298303
0.000134548
0.000106346
0.000180563
0.000157903
3.80813e-05
-2.02174e-05
-0.000105407
-1.42719e-05
-0.000315348
0.000194288
0.000207741
-0.00122137
-0.000903524
-0.000252658
-0.00152001
5.68188e-07
-0.000188767
9.13054e-06
-1.22434e-05
-4.63587e-05
-2.45744e-05
0.000142793
4.39056e-06
-5.26715e-05
0.000137564
6.23127e-05
-3.17243e-05
0.000176839
3.03839e-05
1.01065e-05
1.28929e-06
7.40603e-06
1.00857e-05
-2.07958e-05
-2.26024e-05
8.92769e-05
1.36621e-05
-5.44002e-05
0.000207803
2.74621e-05
-2.45361e-05
0.000143328
2.20703e-05
-3.54545e-05
0.000135736
4.46225e-05
-5.39052e-05
0.000141913
-1.5805e-05
8.43229e-05
-1.34829e-05
8.66793e-05
-0.000157306
-3.43039e-05
-6.10036e-05
-5.26224e-05
-0.000209207
0.000134372
9.25345e-05
0.000127506
-2.76031e-05
-1.91509e-05
0.000153526
-5.57806e-05
-8.75411e-06
-4.23928e-05
-3.16092e-05
-3.06652e-05
-4.11678e-05
-3.2624e-05
-0.000114459
-1.40817e-05
-4.26129e-05
-3.70024e-05
2.78541e-06
-3.62647e-05
-2.09358e-05
-4.12573e-05
-3.26473e-05
-7.07139e-06
-9.83484e-06
-1.51758e-05
-4.05867e-05
-2.1181e-05
-6.19756e-05
-2.57298e-05
-3.2301e-05
-7.26127e-05
-8.77406e-05
-6.42799e-05
-5.65987e-05
-2.09653e-05
-3.89544e-05
-2.03342e-05
-5.23188e-05
1.54008e-06
-6.11269e-05
-7.21775e-05
-7.73698e-05
-2.88692e-05
-2.57649e-05
-5.19601e-05
1.11753e-05
-4.26906e-05
-1.98696e-05
-0.000164798
-2.25587e-05
-5.46739e-05
-4.34146e-05
-2.44578e-05
-0.000109026
-7.24377e-06
-1.57267e-05
-5.66228e-05
-5.27365e-06
5.82964e-05
-0.000198901
-0.00115475
0.000233764
0.000351265
-0.00104636
-3.19877e-05
-0.000565368
-0.000247913
-6.01918e-05
9.39176e-05
-0.000770826
3.5206e-05
8.5333e-05
-0.000126099
-9.90734e-05
0.000232644
-0.000434609
-9.03349e-05
-0.000148298
-0.000212102
-6.64826e-05
-0.000113166
-8.59837e-05
-2.14014e-05
-0.000152579
-5.98589e-05
2.69892e-05
-9.33282e-05
0.000111711
-0.000128192
-2.2712e-05
1.04672e-05
0.000164201
0.000375023
-6.38673e-05
-2.45393e-05
-0.000121883
0.000156042
-0.00121875
1.05676e-06
-1.6761e-05
2.50484e-05
-6.09378e-05
-3.23448e-05
-0.000325933
-0.000304238
-0.000573184
-5.86058e-05
-0.00012814
-0.000210755
-0.000175781
-0.000147236
3.54218e-05
-0.000220261
-0.000236087
0.000196664
-3.91285e-05
-5.68399e-05
-0.000486136
0.000241405
0.000195729
-0.000265066
-0.000521447
0.000211147
-0.000237039
-6.39778e-05
-0.000123367
-0.000434243
-0.000232049
-0.000696502
-0.000180188
0.000204515
-4.32947e-05
-0.000308567
-0.000408237
-0.000238742
-7.02363e-06
0.000151326
-4.3126e-05
-0.000276231
0.000305659
0.00013381
-3.27841e-05
-0.000252404
0.000316944
0.000286414
4.51081e-06
0.000147118
1.529e-05
-0.000571178
0.000390211
0.000167393
-0.000147085
1.11381e-05
-0.000343494
-0.000169656
-0.000534642
-0.000183726
-6.0004e-05
-0.00028198
-4.10563e-05
-0.0002761
-0.000147338
6.74855e-05
1.77747e-05
-3.9182e-05
-0.000258125
1.4196e-05
0.000111781
6.49682e-05
0.000158767
0.000212875
0.000368647
-0.00044663
6.07292e-05
-0.000964912
0.000267376
0.000108151
0.000130156
0.000291249
2.09031e-05
0.000100328
0.000414612
2.7519e-05
-5.54613e-05
-4.81918e-05
6.73821e-06
-0.000141811
-0.000101235
3.4629e-05
0.000142933
-2.10574e-05
0.00028626
4.61953e-05
-1.70102e-05
-0.000269937
0.000306494
0.000212017
-2.98672e-05
0.000142517
-0.000451216
-0.000194178
-0.000181026
0.000145329
4.09246e-05
-8.99746e-05
-0.000286947
0.000308397
-0.000171984
-2.50679e-05
-3.69319e-05
-1.36269e-06
3.01988e-07
-0.000131786
-2.85332e-05
5.29941e-05
7.31229e-05
-5.47162e-05
0.000336314
-0.000205176
0.000364736
3.35991e-05
0.00011849
-0.000304739
0.000389036
0.000441075
-8.00029e-05
-8.20785e-05
-0.00018257
5.00302e-05
-0.000409137
-0.000130193
-4.19039e-05
-7.76358e-05
-5.83745e-05
-2.49379e-05
-0.00031592
-0.000718792
-0.000650802
-0.000581328
0.000341335
-0.00129923
-0.000531035
-0.00054367
-0.000524642
-0.00107162
0.000239947
-0.00059415
-0.000351858
-0.00111127
-0.000933929
-0.00166788
-0.000313882
9.99004e-05
-0.00224643
-0.000209275
-7.62143e-06
-0.000327129
-0.000799114
0.000391009
-0.0010261
-0.000764652
-0.000279372
-0.000772514
-0.00127615
0.000413099
-0.00201738
-0.000267124
-6.12551e-05
-0.00032612
-0.00136057
0.000221945
7.41363e-05
-0.00148396
-0.000123148
-0.000327199
-0.000365049
-0.000882805
0.000368894
0.000290217
-0.00184712
-0.000114335
-0.000110183
-0.000507426
-0.00131206
0.000321529
0.000171393
-0.00199958
-9.94391e-05
-0.000375722
-0.000263686
-0.000569451
-0.000227808
0.000291026
-0.000307057
0.000210401
-0.000847762
-0.000958379
-0.000652357
-0.000889552
-0.000199018
-0.000255974
-0.000796277
-0.000159273
1.41119e-06
-0.000720255
-0.000107033
-0.000343834
-0.000404133
-5.7953e-05
0.000372195
-6.61415e-05
-0.000590165
-0.000286224
0.000334148
-0.000288723
-0.0013713
-0.00020004
-0.000231268
-0.000260804
-0.000511899
-0.000451716
0.0001614
-0.00107211
0.000465248
0.000168588
-0.000796299
-4.58788e-05
-0.000120867
-0.000237991
-0.00111507
0.00031274
0.000135028
-0.00120803
-8.60776e-05
-9.67932e-05
-0.000444435
-0.000918161
0.000164724
7.4376e-05
-0.00141477
4.50956e-05
8.06e-05
-0.000148241
-4.1946e-05
0.000194761
-7.4402e-05
0.000262805
2.98878e-05
-0.000129036
0.000305588
-0.000141025
-6.60223e-06
4.49087e-05
-0.000167244
-0.000107193
0.00010596
0.000168506
0.000410574
0.000181282
0.000441584
0.000473739
-0.000278512
-0.00120684
-0.000692667
-0.00154273
-7.35784e-05
5.05612e-05
-0.00168507
-1.23123e-05
-0.000309412
-0.000186626
0.000237721
-0.000915701
-0.00120419
-0.000777847
-0.00191361
-8.98811e-06
-7.53801e-05
-0.00128448
-0.000702599
-0.00154871
-0.000716456
-0.00136843
0.000160567
0.000182655
-0.00116146
-0.000527615
-0.000759686
-0.000809958
0.000359377
5.27625e-05
-0.00167464
-5.39919e-05
-0.000475052
-0.000244018
-0.000656959
-0.000331737
-0.00025189
-0.00141938
-0.000906986
0.000230681
-0.0013818
0.000147791
0.000434818
0.000130857
0.000296498
0.000392972
0.000575392
-0.00041575
-0.000690676
0.000111067
0.00050585
-0.00122825
-0.000845355
-0.00053082
4.5497e-05
0.000590818
-0.00158439
-1.34501e-05
-0.000170523
0.000238454
0.000377573
-0.000148069
0.000171704
0.000455018
0.000130382
0.000214412
0.000558834
0.000267345
-0.000311418
-0.00070571
1.23589e-05
0.000495038
-0.00102755
0.000146381
0.000440717
0.000126295
0.000214352
0.000485533
4.43006e-05
-0.000193993
-0.000215771
0.000412895
-0.000173055
0.000163951
0.000456687
0.00013439
0.000123408
0.000511671
0.000237189
-0.000617382
-0.00057013
0.000331612
0.00052249
-0.000773307
-8.4286e-05
-0.000389478
0.000325364
0.000357271
-0.000585335
-0.000513233
-0.000404258
0.000190706
0.000476546
-0.000923242
0.000248836
6.25035e-05
-6.62731e-05
-0.000367536
0.000446012
-0.000449132
0.000455709
-2.51926e-05
-0.000224972
-0.000161675
0.000433101
0.000282239
-0.000280532
0.000296858
-0.00014856
-0.000189481
-0.000131161
0.000518455
-0.000575315
0.000440582
-0.000135891
-0.000392525
-0.000210454
0.000297396
-0.000728763
-5.38683e-05
-0.000639723
-0.000691176
-0.000358897
0.000311298
-0.000883269
0.000392184
-0.000367945
-0.000171863
-5.06097e-05
0.000423927
-0.000469488
0.000387048
-0.000513815
-0.000603939
-9.63015e-05
0.000546443
-0.000993765
0.000167168
-0.000675081
-0.000544718
8.20606e-05
0.000529576
-0.00108278
0.00038602
1.20115e-05
-0.000292346
0.000228339
0.000484215
-0.000569601
0.000152733
0.000497775
0.000133049
0.00029176
0.000488156
0.000401687
-0.000122913
-0.00044568
0.000483556
0.000474658
0.000441491
-0.000321857
-0.000188261
-5.99258e-05
0.000471391
8.69593e-05
-0.000707025
0.000315652
0.000106508
-0.000153027
-0.00014173
0.000427732
-0.000379224
-0.000763335
-0.0019103
-0.000638508
-0.00136296
0.000204579
0.000297832
-0.00136771
9.88559e-05
0.000243157
2.63549e-05
0.000159926
0.00031747
0.00020219
-0.000713333
-0.000625789
-0.000178221
0.000453745
-0.0013652
0.000105857
0.000364885
7.93028e-05
0.000256587
0.000372904
-0.000673642
-0.000865297
-0.000145641
0.00038106
-0.00239577
-0.00143889
-0.000438193
-0.00102847
2.47159e-05
0.000297478
0.000132383
-0.00066661
-0.000261114
-3.01476e-05
-0.000640667
0.000329552
-0.00136388
0.000150177
-0.00014425
-0.000273332
0.000304231
-0.00103644
-4.79111e-05
-0.000436979
-0.000375563
-0.000635257
-0.000247367
0.000103805
-0.000895229
-0.000191625
-0.000506816
0.000483391
-0.00176517
-5.08808e-05
-0.000407729
-0.000307601
-0.000570417
-0.000280598
0.000298028
-0.000606176
0.000107234
-4.39716e-06
0.000651741
-0.00142093
-5.16805e-05
-0.000575569
-0.000244101
-0.000731347
-0.000455494
-3.51252e-05
1.73115e-05
-0.000387654
0.000427781
-0.000784138
-0.000256985
-0.000682222
-0.000556076
-0.000739661
0.000375601
-0.00148441
-5.75609e-05
-0.000714663
-0.00034036
-0.000943596
-0.000501529
0.000267365
7.46783e-05
0.000186134
0.000153423
0.000525348
-0.000302286
4.60881e-05
-0.000818891
-0.000544657
-0.00123872
0.00041983
-0.00117083
0.000389763
-0.000476631
-0.000194912
0.00044843
0.000491828
0.000327287
-0.000939498
-0.000283477
-0.000300087
-0.000381914
-0.000382363
0.000329559
0.000366436
-0.00122788
7.41056e-06
-0.000386142
-4.53495e-05
-0.000535039
0.000146217
-0.000364357
-6.85424e-06
-0.000249622
-0.000736816
-0.000496408
0.000131315
0.000119767
-0.00139903
-4.55689e-05
-0.000113496
-1.58247e-05
-0.00043745
0.00021201
0.000231455
-0.00049832
-0.00012744
0.000172712
-7.86109e-05
-0.000570989
0.000202003
0.000148354
-0.00110058
-3.71005e-05
2.43379e-05
3.59443e-05
-0.000480965
0.000261424
0.00039551
-0.000700567
0.000101343
0.000178132
-8.59536e-05
0.000343319
-0.000938332
0.000181208
-0.000239215
-0.000135808
-0.000559425
0.000231861
-0.0010935
-0.000194715
-0.000118388
-7.95124e-05
-0.000153624
0.000209442
0.00030731
-0.000980306
0.000120821
-9.17671e-05
7.98755e-05
-0.000166476
0.000302021
0.000392105
-0.000591039
8.05726e-05
7.37811e-06
8.75671e-05
-0.000724888
0.000214669
0.000296289
-0.000794157
0.000314777
5.70116e-05
0.000105713
0.000482307
0.000547582
0.000577932
-0.000531747
0.000102293
0.000137439
-0.000127028
-0.000887408
0.000318119
0.000285905
-0.000487266
-0.000154365
-0.000355988
-7.27269e-05
0.000349818
0.000477388
-0.00110624
4.09635e-05
-0.000126285
-0.00043378
-0.000223243
0.000283627
-0.00119337
0.00024465
8.08493e-05
0.000107099
0.0001713
0.000466411
-0.000551779
-5.8361e-05
-0.000595393
-0.000356905
-0.000817687
-0.000173196
-0.000437605
-0.000438879
-0.000205961
-0.000255536
0.000401138
-0.00109863
-0.000159245
-0.000698029
-0.000344818
-0.000882389
-0.000538004
4.69047e-05
-3.62252e-05
-0.000414789
-3.9701e-06
-8.9989e-05
-0.000153442
-0.000550966
-0.000337723
-0.00075539
-0.000390565
-5.52332e-05
1.64353e-05
-0.000446743
0.000271571
-0.000981196
-2.7533e-05
-0.000568744
-0.00034076
-0.00101774
-0.000367552
-0.000232033
-0.000202558
-0.00124891
-0.000220213
0.000113572
-0.000285786
2.18122e-05
-0.000264745
-0.000125521
-0.000585694
-3.20149e-05
-0.000169163
-0.000488187
-0.000305396
-0.000434669
0.000368482
-0.00079367
2.8643e-05
-0.000132525
-0.000106743
-0.000385364
0.000138807
-0.000100854
-0.000283336
6.17023e-05
-0.0003804
0.000409003
-0.00128476
3.03371e-06
-0.000133245
-0.000192521
-0.000345094
0.000122942
0.000212361
-6.53528e-05
-0.000410458
0.000242901
0.000181115
-5.84242e-05
0.000225696
-6.00579e-05
-8.41503e-05
-0.00121449
0.000153785
0.000318933
-0.000301632
-8.61995e-05
-0.00083971
-0.000485356
-0.00105467
-0.000561326
-0.000443448
-0.000430193
-0.00143028
0.000100054
9.38217e-05
-0.00086805
3.88165e-06
-0.000425639
-0.000230716
-0.00060095
-0.000146982
-0.000101194
0.000142684
3.31097e-06
0.00040833
0.000427252
-0.000654453
-6.1233e-06
-0.000632668
-0.000306569
-0.000899245
-0.000303172
-0.000178571
-0.000284229
-6.64066e-05
-2.61165e-05
0.000425375
-0.00093355
-6.22049e-05
-0.000332776
-0.000277317
-0.000443535
-0.000116649
-0.000117219
0.000182311
-7.33838e-05
0.000253381
0.000388594
-0.000488855
7.44055e-05
-0.000133675
-0.000195359
-0.000499125
0.000215965
0.000173902
-0.000118352
8.26271e-05
-0.000523979
0.00038537
-0.000792839
0.000126208
0.000315823
5.49171e-05
3.76691e-05
0.000392854
6.2776e-05
-3.23153e-05
-0.000562335
0.000143965
0.000427299
-0.000476156
-2.64267e-05
-0.000197188
-0.000137485
-0.000407307
4.81613e-05
0.000313097
-0.000100088
0.000119952
-1.45008e-05
0.000300468
-0.000377026
7.24747e-05
-0.000180827
-0.000293407
-0.000298101
0.000362635
-0.000611835
0.000444632
-6.88522e-05
7.67851e-05
1.02178e-05
0.000258185
-0.00088622
8.74569e-05
5.06939e-05
1.24284e-06
-0.000126539
0.000302883
4.30326e-05
-0.000258622
-0.000260204
-0.000583605
0.000205118
-0.000166592
3.22408e-05
1.80684e-05
-5.07661e-05
-9.25662e-05
0.000166481
0.00021692
-0.000112119
-6.94354e-07
-3.48197e-06
0.000396555
-0.000624582
1.60834e-05
0.00025425
4.35015e-05
-0.000404418
0.00036517
-0.000246237
6.1654e-05
0.000196531
-5.41733e-05
7.92037e-05
0.000363387
0.000371968
-3.66584e-05
-0.000318353
-0.000466364
0.000350331
-0.000726395
0.000265503
-0.000117127
-0.000371973
0.000144802
0.000324161
0.000419723
-0.000513846
6.69513e-05
-6.06995e-05
-0.000338759
-0.000160174
0.000376099
0.000443194
-0.000583603
1.01828e-05
0.00011436
1.10938e-05
-0.000562538
0.000435996
0.000331415
-0.000252153
0.000204401
-8.10646e-05
-3.68974e-05
-0.000343128
0.000283257
-0.000184982
0.000452631
-0.000182759
7.11438e-05
-2.49447e-05
0.000483524
-0.000279568
0.000347131
-0.000222848
-0.000177108
-9.78134e-06
0.000249736
-0.000681104
-0.000274423
7.85911e-05
-0.000103946
0.000415182
0.000405843
-0.000439746
-1.44476e-05
-0.000346725
-0.000295244
-0.000338682
0.000336098
0.000330564
-0.000490868
3.48136e-05
-5.61098e-05
-7.84725e-05
-0.000191183
8.17967e-05
0.000312991
-0.000227322
-3.53665e-05
-0.000419283
0.000274727
-0.000333349
-0.000276734
5.57348e-05
-0.000445252
0.000329249
0.00043627
-0.000186478
5.44068e-05
-5.7053e-05
-0.000133037
-6.53525e-05
0.000270332
0.000402816
-0.000372038
0.000409087
0.000286433
0.000150165
0.000100018
0.000431994
-3.7382e-05
0.000547575
6.49358e-05
0.00014319
0.000300763
0.000198065
-0.000581491
0.000109391
-0.000199245
-0.000132314
-0.00196251
-0.000466499
-0.000954646
-0.000134814
9.27443e-05
-0.000803099
9.19123e-05
-0.000965155
0.000176927
0.000152993
3.95567e-05
-0.00127969
-0.000552875
-0.000309766
0.000244523
0.000366177
-0.000560561
0.000373972
-0.00110322
-5.10354e-05
-4.23315e-05
0.000121831
-2.56706e-05
5.13534e-05
-0.000290327
-0.000329566
-8.01337e-05
0.000109587
-0.000380713
0.000352748
-0.000394285
3.6273e-05
-0.000449704
0.000165348
0.000249187
-0.00141705
-0.000236428
-0.000841208
8.25705e-05
0.000381284
-0.000463596
0.000502167
-0.000357837
-8.68795e-05
0.000232814
7.42247e-05
-3.48512e-05
-0.000128212
-7.94407e-05
-0.000819604
6.1885e-05
0.000332817
-0.000194168
0.000311584
-0.000766915
-1.9004e-05
-0.000280313
-0.000280112
-0.000166461
-0.000637962
-0.000193556
-0.000540426
-3.36501e-05
0.000302976
-0.000669219
0.000162726
-0.000946897
-4.89514e-06
-0.000495721
8.58107e-05
-0.000110367
-0.000317367
-0.000366478
-0.000503671
-2.5292e-05
0.000441275
-0.000539448
0.000116511
-9.07577e-05
-6.62665e-05
-0.000200474
-0.000287837
-0.000240825
-0.00210298
-0.000507847
-0.000826952
-0.000151009
0.000258847
-0.000778465
-3.05636e-05
-0.000746668
-0.000420952
-0.000260075
-0.000132945
-8.60284e-05
-0.00117615
-0.000294134
-0.000621655
-0.000127073
0.000267589
-0.000791537
0.000185017
-9.02747e-05
-0.000775061
-0.00019046
-0.000819631
-0.000628176
-5.53492e-05
-0.000292029
-0.000250697
-0.000958381
-0.00014465
-2.60268e-05
-0.000303317
-1.79763e-05
1.29944e-05
-0.000115539
6.05093e-06
0.000451809
-2.04596e-05
5.94082e-05
-0.000876982
-0.00110588
1.87141e-05
0.000527721
0.000459842
-0.000684908
0.000570833
-0.00112739
-0.000687167
-0.000424082
0.000108768
-0.000247346
-0.000636956
-0.000441024
-0.000624937
-9.5965e-05
0.000259769
-0.00063051
0.000164371
-0.00054318
-0.000251033
-0.000486131
8.57534e-05
6.21035e-05
-9.56825e-05
-0.000115824
-0.000804105
2.40955e-05
0.000247456
-0.000464758
0.000321809
-8.22725e-05
-8.01048e-05
-0.000151005
-0.000329116
-0.000132182
-0.00070885
-0.000331316
-0.000976542
-0.000166501
0.000279032
-0.000639437
0.000255528
-2.63001e-05
-0.000575805
-2.06398e-05
-0.000521241
-1.65712e-05
0.000164927
-0.000348399
0.00017719
-0.000250464
5.67745e-05
0.000336404
-0.000444152
0.000415972
-5.0592e-05
-4.45574e-05
-0.000294753
-0.000528009
-0.00124045
-0.000537687
-0.0012564
-0.000298669
0.000247558
-0.000769413
-0.00065188
-0.000231702
9.36554e-05
-6.56584e-05
8.1094e-05
0.00012822
-0.000111274
-9.1071e-05
6.49842e-05
0.000132459
0.000119294
0.000107498
0.000118415
0.000130096
6.3073e-05
-2.43509e-06
6.03142e-05
7.55065e-05
3.09046e-05
5.39751e-05
2.59437e-05
3.3647e-05
4.43598e-05
5.46297e-05
-7.55958e-05
-4.00606e-05
2.28467e-05
1.3643e-05
-8.89244e-06
-0.000143648
1.71217e-05
-6.29791e-05
-4.39962e-05
3.45979e-05
-2.6957e-05
1.86433e-05
8.80587e-06
5.08776e-05
-2.34193e-05
7.91605e-05
5.71607e-05
1.85188e-05
-8.72105e-05
-5.88377e-05
-0.000175291
-6.49244e-05
-9.22266e-05
-0.000100381
-0.000229874
-0.0001231
7.97208e-05
0.000146329
5.88997e-05
5.56213e-05
2.36152e-05
5.0147e-05
-1.55075e-05
-3.28475e-05
-7.2471e-06
-9.36809e-05
-0.000122477
-0.00013934
6.77529e-06
-9.96903e-05
-0.000143638
-0.000138007
-1.87631e-05
4.61678e-05
5.5485e-05
1.46825e-05
-1.64249e-06
-0.000177591
-0.000111674
-0.000147263
-0.000138624
-0.000178981
-0.000136058
-0.000139099
-6.73443e-05
-9.75823e-05
-6.2773e-05
-0.000134223
3.13924e-05
-0.000120975
-0.000134778
-0.000123863
-6.97781e-05
-0.000206187
9.71394e-05
-9.00391e-05
3.77145e-05
-2.64344e-05
-3.4365e-05
1.14166e-05
-8.46938e-06
1.12296e-05
-5.08538e-05
-5.24338e-06
-0.000162462
8.73281e-06
-9.23166e-05
-0.000135506
-5.94397e-05
-0.000117141
-0.000115898
-4.35182e-05
-0.000204341
-0.000149496
-1.94119e-05
0.000127723
8.86643e-05
-0.000139852
-0.000202997
-0.000175597
-0.00016968
-6.98459e-05
-4.12991e-06
-9.15157e-05
-0.000109643
-0.000112292
-0.000138569
-0.000182317
-8.888e-05
9.29685e-05
-0.00016066
-0.000122049
-8.47009e-05
-7.3763e-06
3.79159e-06
-1.27914e-05
9.45588e-06
9.15877e-06
-8.20675e-05
0.000196795
2.45844e-05
2.19461e-05
-4.29087e-05
-0.000109219
2.63313e-05
-2.9768e-05
-1.3501e-05
-2.0632e-05
3.39834e-05
-2.75302e-05
1.15918e-05
-2.38853e-05
9.31807e-06
1.16053e-06
0.000130344
3.07241e-05
3.37619e-05
-2.27245e-05
-1.26095e-05
8.30964e-05
2.16643e-05
1.4426e-06
-1.76397e-05
0.000195753
0.000148354
6.53079e-05
8.97912e-05
7.59022e-05
-1.53182e-05
6.77583e-05
-2.06192e-05
3.51967e-05
-2.12436e-05
3.91873e-05
1.39734e-05
1.20448e-07
5.47299e-05
-4.8179e-05
8.67374e-06
2.527e-05
0.000106762
-1.4555e-05
-1.12791e-05
6.97959e-05
5.44441e-05
-1.18236e-05
-3.42504e-05
8.23167e-05
-9.18266e-07
-6.92069e-05
-2.22756e-05
1.64277e-05
5.53303e-06
-1.91005e-05
0.000201581
0.000189822
3.52385e-05
4.79829e-05
8.82743e-05
1.1271e-05
2.10603e-05
2.32302e-05
1.74481e-05
6.66022e-05
2.76878e-05
-4.72609e-06
-1.43659e-05
-9.33219e-05
-5.36258e-05
-1.24842e-05
-2.79506e-05
0.000133539
-9.26641e-07
7.6289e-06
-7.99847e-05
-1.67901e-05
-1.56604e-05
3.58793e-05
7.16956e-06
2.92853e-06
8.65278e-05
0.000151111
3.23033e-05
2.35273e-05
7.15381e-05
1.3034e-06
-5.59693e-06
3.31999e-06
1.86951e-05
-1.84583e-05
-5.96211e-05
-9.69033e-06
7.1784e-06
2.51762e-05
2.73352e-05
1.38724e-05
0.000113576
0.000144405
0.000320148
5.38676e-05
-1.06829e-05
-1.29454e-05
-4.93711e-05
5.61908e-06
4.46523e-05
0.000103436
3.94907e-05
1.35681e-05
0.000111456
4.86092e-05
4.43022e-05
3.12618e-05
9.61189e-05
1.09922e-05
1.75114e-05
4.9802e-06
8.1525e-05
9.21992e-05
4.50431e-05
-2.1426e-05
0.000101228
8.00403e-05
5.75079e-05
7.88942e-05
0.000146379
9.22543e-05
6.80982e-05
1.73845e-05
1.88331e-05
-4.78721e-06
-3.99561e-05
3.70208e-05
3.89732e-06
4.23827e-05
8.7789e-07
2.06309e-05
-1.33856e-05
-8.39066e-05
9.81726e-06
3.23945e-05
7.0082e-05
-1.06506e-05
-0.000113225
9.29643e-07
2.47801e-05
1.50932e-05
3.52328e-05
1.95418e-05
5.85163e-05
1.47837e-06
8.25816e-05
3.67622e-05
-5.21524e-06
-3.43428e-05
-3.27236e-05
2.84092e-05
0.000149698
6.58729e-05
3.14079e-05
5.62287e-05
-3.02849e-05
0.000156721
0.000103499
1.59059e-05
4.15794e-06
-9.40601e-06
5.07354e-05
-2.21733e-05
7.83705e-05
8.49891e-06
-0.000118161
-0.000158404
-0.000125728
9.85694e-05
4.35357e-06
-3.41256e-05
-2.6924e-05
3.33715e-05
-9.72591e-06
2.42546e-05
-2.52594e-05
-4.04807e-06
3.58222e-05
-5.45531e-05
9.83365e-05
0.000160044
-3.54125e-05
-1.48145e-05
0.000106481
5.09008e-06
2.93644e-07
6.90467e-06
0.000130519
-1.65056e-06
-3.49705e-05
6.2997e-06
9.89077e-05
6.8582e-06
2.4005e-05
0.000103278
0.000133493
3.35487e-05
2.30387e-06
1.56453e-05
-4.01945e-05
-1.46429e-05
-1.62974e-06
1.67448e-05
9.45033e-05
6.68493e-05
8.87183e-05
7.56157e-05
6.93082e-06
8.38477e-05
-6.01148e-05
7.1118e-06
0.000116764
-1.32912e-06
-1.45552e-05
-1.90067e-05
3.23749e-05
5.2e-05
0.000199444
1.10584e-05
5.55845e-07
7.5537e-05
3.13249e-05
4.62789e-05
2.22145e-05
1.7047e-05
-2.27684e-05
0.000114935
6.2895e-06
-9.21975e-05
3.31636e-05
-2.76153e-05
9.64609e-06
8.39376e-05
5.95535e-05
6.83354e-06
0.000102461
-1.38978e-05
6.97078e-05
4.9643e-05
9.29816e-05
-7.52815e-05
9.28991e-07
4.38781e-05
1.16392e-05
-3.1593e-05
1.22488e-05
-1.66557e-05
1.32878e-05
-1.05736e-05
-0.000389778
-8.63195e-05
1.59393e-05
4.79729e-05
6.54931e-05
9.01385e-05
-8.79217e-06
-3.07136e-05
-7.99341e-05
-8.08431e-05
-0.000215134
-0.000337788
-8.46137e-05
4.50744e-05
9.45139e-05
1.55847e-05
-4.43311e-05
6.49966e-05
-1.30743e-05
-3.04127e-06
-5.3449e-06
4.16447e-05
0.000127493
5.02737e-05
6.91981e-06
1.19235e-05
2.99561e-05
0.000114104
1.19595e-05
-2.58287e-05
3.04827e-05
-0.000115659
6.88231e-05
-2.30638e-05
-4.68859e-06
0.000112597
0.000183522
0.000135282
4.38711e-06
1.14453e-05
1.21393e-05
-2.40226e-06
4.32203e-05
-2.23577e-06
2.1824e-06
0.000153269
0.000108835
0.000103802
-1.8099e-06
-1.83932e-05
2.75674e-05
0.00010767
-6.2845e-06
1.05651e-05
1.58714e-06
6.45733e-05
8.12984e-05
5.84194e-06
2.7475e-05
2.1861e-05
2.7577e-06
3.89824e-05
-3.11008e-06
-4.39357e-06
4.16762e-05
0.000141631
4.01929e-05
0.000177035
9.26836e-05
0.000179706
2.38395e-05
0.000169274
1.06864e-05
0.000158556
5.13609e-05
0.000200437
1.83556e-05
0.000173563
1.47158e-05
0.000186469
2.13752e-05
1.13073e-05
-1.35329e-05
3.00456e-06
3.33319e-05
4.36427e-06
1.79984e-05
3.39287e-05
2.33299e-05
1.89685e-05
-0.000116789
-4.71683e-07
2.51659e-05
1.61651e-05
-8.05468e-05
-3.74197e-06
7.99873e-05
4.97532e-05
4.81907e-05
9.69782e-06
-5.7411e-06
0.000142965
4.91937e-05
1.05186e-05
-0.00030738
0.000110473
-0.000141205
-0.000160292
3.93619e-05
4.65911e-05
2.38154e-05
1.10875e-05
-1.76344e-06
4.16803e-05
-1.87701e-06
-6.20841e-06
6.61586e-06
-5.59983e-05
-1.12604e-06
0.000107286
-1.85014e-05
5.21921e-05
5.65797e-05
3.45328e-05
2.22285e-05
4.03897e-05
7.08834e-05
7.40494e-05
5.48993e-05
7.88035e-05
5.79185e-05
1.20604e-05
-1.58155e-05
-0.000118958
0.000107205
0.000134762
7.72477e-05
4.86749e-05
1.75902e-05
2.03972e-05
-4.74002e-05
0.000114367
0.000192501
-4.57899e-06
-2.23473e-05
3.15996e-05
-1.12178e-05
6.95483e-06
-0.000110127
-1.99432e-05
-2.02486e-05
7.45767e-05
-6.74254e-07
-1.26453e-06
-3.83055e-06
1.33433e-05
1.65697e-05
1.72435e-05
4.25291e-05
-4.95998e-06
-2.5009e-06
-3.08584e-05
3.55198e-05
1.38982e-05
3.09039e-06
-9.45913e-05
3.84246e-05
-2.0226e-05
2.54986e-05
2.68788e-06
1.11432e-05
-1.99131e-06
3.00992e-06
4.91176e-06
-4.94792e-05
-0.000716058
-0.00129531
-0.000669536
6.57362e-05
9.86346e-05
0.00012255
1.37247e-05
9.75408e-06
3.25104e-06
0.000118091
0.000101057
1.4238e-05
-1.61293e-05
2.38479e-05
-1.78759e-05
2.68715e-05
7.19284e-05
-2.69093e-05
3.21154e-05
8.12511e-06
-9.09159e-06
-8.01118e-05
-2.44145e-05
-0.000123333
3.38334e-05
6.61519e-05
-0.000130115
-4.03689e-07
-0.000553338
0.00012885
-7.31036e-06
-1.1288e-05
1.66499e-05
1.125e-05
-3.87669e-06
-2.81561e-06
4.15901e-05
-1.78749e-06
-1.34316e-05
-7.54481e-06
9.3227e-05
-4.28058e-05
1.88338e-05
4.55067e-05
1.7547e-05
2.3322e-06
-3.65825e-07
-2.42453e-06
1.26561e-05
5.12853e-05
5.46112e-05
9.39905e-05
8.72477e-05
0.000100413
3.80228e-05
3.56373e-06
-1.08683e-05
-2.09252e-05
8.21607e-05
8.9397e-05
3.69879e-05
-1.9116e-06
-2.39016e-05
1.64705e-05
3.11001e-05
0.000126438
-5.45829e-06
2.78416e-06
3.54196e-05
5.58778e-05
0.000120478
4.68549e-05
-0.000111265
-0.000275146
-0.000181505
9.09477e-05
0.000141507
3.91629e-05
2.26941e-06
-5.96894e-08
1.6224e-05
-1.14654e-05
2.48297e-05
-3.49961e-05
0.000112297
0.000118368
0.00012663
0.000128279
3.87495e-05
2.70118e-05
-9.20454e-06
0.000131457
-1.07014e-05
-7.88292e-06
1.0025e-06
-5.93259e-06
-2.82431e-05
-2.09815e-06
-4.72762e-06
3.12855e-06
2.4074e-06
6.4803e-06
1.3694e-07
7.59003e-06
7.96571e-06
2.91245e-06
-0.000135716
1.54833e-05
1.11961e-05
8.69073e-05
2.53131e-06
6.54448e-06
4.3555e-05
7.7083e-05
9.1448e-06
3.8278e-05
2.62123e-05
3.65927e-06
-2.96551e-05
-1.8885e-06
-8.19436e-05
-0.000154415
-0.000146628
-9.17987e-05
2.11154e-05
2.45233e-06
8.50133e-05
0.000140911
0.000140478
-8.23015e-05
-7.01139e-05
-1.16907e-05
-5.73942e-05
-7.88946e-05
-0.000146709
-0.000135541
7.3665e-05
-8.29136e-05
-0.000142919
0.000115018
9.99523e-05
0.000154244
7.24926e-05
3.62256e-05
-9.27671e-06
-3.56571e-05
-5.62092e-06
-0.00012466
0.0001713
0.000181633
-0.000594405
-0.000424174
-0.000116581
-0.000620487
3.48393e-06
-8.6379e-05
7.82835e-06
5.66701e-07
-1.24006e-06
-1.06057e-05
0.000118705
5.17411e-06
-2.32366e-05
0.00011436
4.9966e-05
-9.75042e-06
0.000154921
2.33503e-05
1.64788e-05
1.08639e-05
1.07887e-05
1.3811e-05
-1.03737e-05
-1.30559e-05
7.76759e-05
1.20119e-05
-2.33735e-05
0.000172218
2.36233e-05
-1.14771e-05
0.000122333
1.87608e-05
-1.41779e-05
0.000118751
3.8997e-05
-2.34824e-05
0.000123058
2.53617e-06
6.83704e-05
-2.40752e-06
7.31684e-05
-7.46882e-05
-1.45952e-05
-2.89568e-05
-2.54292e-05
-0.000100567
0.000115634
9.17326e-05
0.000107001
-1.11584e-05
-7.39604e-06
0.000128259
-2.53045e-05
1.28439e-06
-1.45777e-05
-9.45947e-06
-8.23563e-06
-1.451e-05
-1.12176e-05
-5.32656e-05
8.86964e-07
-1.66914e-05
-1.0612e-05
2.31994e-06
-9.80443e-06
-1.4083e-06
-1.115e-05
-6.16647e-06
3.8275e-06
2.23719e-06
1.10644e-06
-1.67441e-05
-6.56167e-06
-2.5907e-05
-8.90075e-06
-8.53784e-06
-2.87336e-05
-3.9295e-05
-2.77424e-05
-2.62246e-05
-6.09798e-06
-1.72267e-05
-5.41007e-06
-2.07541e-05
3.89628e-06
-2.41639e-05
-3.08874e-05
-3.24724e-05
-1.02053e-05
-1.0503e-05
-2.42153e-05
1.22967e-05
-1.4224e-05
-4.94144e-06
-7.82019e-05
-6.11772e-06
-1.7963e-05
-1.68877e-05
-7.73328e-06
-4.82389e-05
2.72124e-06
-4.59495e-06
-2.83559e-05
3.68489e-06
-6.46006e-05
-0.000132567
-0.000650614
0.000118623
0.000203363
-0.00043787
-7.92122e-05
-0.000261708
-0.00013661
-4.5804e-05
5.8888e-05
-0.000324046
2.51318e-05
5.45993e-05
-6.52537e-05
-6.38902e-05
0.000153967
-0.000210473
-4.35041e-05
-7.31628e-05
-0.000108908
-3.34822e-05
-5.7387e-05
-3.2101e-05
-9.08797e-06
-7.19454e-05
-2.98673e-05
5.682e-06
-1.2508e-05
-6.49243e-06
-0.00010849
-8.25104e-06
-5.69969e-07
6.8511e-05
0.000213095
-2.16229e-05
-1.79054e-05
-6.57576e-05
0.00010142
-0.000531988
-1.7198e-05
1.77573e-05
2.20125e-05
-2.2259e-05
-3.06855e-06
-0.000170407
-0.000148051
-0.000347122
3.65784e-06
-5.93119e-05
-8.93982e-05
-8.25104e-05
-6.58962e-05
5.32327e-05
-0.000104704
-8.0494e-05
5.23945e-05
-1.8983e-05
1.36551e-05
-0.000246293
0.000110497
0.000102674
-0.00012828
-0.000288581
0.000136318
-0.000100836
5.59823e-06
-4.68843e-05
-0.000194966
-0.00010619
-0.000359485
-5.01724e-05
0.000146076
-3.97572e-06
-0.00013284
-0.000213275
-8.96865e-05
3.74063e-05
0.000106325
-2.05443e-05
-0.000107892
0.000119965
1.82903e-07
1.08996e-05
-0.000169385
0.000177551
0.000192559
3.52707e-05
9.36508e-05
1.67761e-05
-0.000280425
0.000265029
0.000163523
-2.74385e-05
3.92344e-05
-0.000130285
-5.86226e-05
-0.000258546
-3.08972e-05
-8.8247e-06
-0.000135865
2.50712e-05
-0.000128871
-5.60935e-05
4.54748e-05
7.0034e-05
-2.3878e-05
-9.42447e-05
-3.38251e-05
-1.80672e-05
9.67705e-05
6.35188e-05
0.000126734
0.000236942
-0.000242003
7.08872e-05
-0.00042704
0.000211399
9.03735e-05
7.38616e-05
0.000174989
1.05131e-05
5.55717e-05
0.000260611
1.19782e-05
-3.01955e-05
-3.45448e-05
1.40049e-07
-8.36455e-05
-6.70846e-05
8.88363e-06
9.29338e-05
4.56449e-06
0.000145485
-1.12881e-05
-8.67112e-06
-0.000153228
0.000169863
0.00012365
-3.15868e-05
7.35556e-05
-0.000208185
-9.77496e-05
-9.60749e-05
8.87915e-05
3.11428e-05
-3.94527e-05
-0.000186772
0.000202065
-0.000111267
-1.18774e-05
-8.32419e-06
1.65736e-06
8.89722e-07
-6.4021e-05
-1.07701e-05
2.6793e-05
5.43239e-05
-2.83398e-05
0.000170394
-9.35918e-05
0.000163955
-3.82846e-05
6.79559e-05
-0.000156877
0.000207221
0.000256956
-3.9742e-05
-6.47267e-05
-9.84242e-05
3.08277e-05
-0.000189501
-5.81865e-05
-2.54366e-05
-3.36473e-05
-2.83115e-05
-1.28343e-05
-0.000161849
-0.000498919
-0.000455425
-0.000323643
0.000226378
-0.000561033
-0.000261293
-0.000378932
-0.000355622
-0.00063059
0.000152083
-0.000266868
-0.000188804
-0.000732667
-0.000610703
-0.000981659
-0.000162324
7.63665e-05
-0.000992848
-8.88963e-05
-0.00011801
-0.000212522
-0.000587677
0.000215743
-0.000442452
-0.000373097
-0.000231373
-0.000621226
-0.000812661
0.000243535
-0.000902376
-9.97198e-05
-0.000150589
-0.000242286
-0.000802934
0.000103014
6.11287e-05
-0.000644624
-2.01822e-05
-0.000326033
-0.000276031
-0.000568125
0.000193918
0.000179623
-0.000814625
-1.4195e-05
-0.000179585
-0.000337323
-0.000762634
0.000165452
0.000113717
-0.000873478
-2.37247e-05
-0.000145571
-0.000112201
-0.000277009
-5.81787e-05
0.0001849
-0.000135501
0.00013403
-0.000428167
-0.000489919
-0.000321244
-0.000455598
-5.07379e-05
-0.000102126
-0.000388934
-7.30002e-05
6.67886e-05
-0.000535854
-0.000162646
-0.000139185
-0.00024902
-3.85544e-05
0.000246459
-6.27118e-06
-0.000318357
-0.000183425
0.000234201
-0.000148906
-0.000668991
-0.000125445
-5.70234e-05
-7.29488e-05
-0.000225047
-0.000380973
3.07028e-05
-0.000637907
0.000246947
0.000105023
-0.000344473
1.95835e-06
-0.000185247
-0.000177038
-0.000653735
0.000165866
9.57269e-05
-0.000510512
-1.01559e-06
-0.000172838
-0.000294449
-0.00052404
7.45369e-05
5.70618e-05
-0.000597265
2.59035e-05
4.1825e-05
-8.3685e-05
-3.90097e-05
0.000123236
-3.38586e-05
9.50024e-05
-1.41473e-05
-7.64793e-05
0.000173659
-6.56594e-05
-7.47326e-08
2.14276e-05
-9.21116e-05
-7.2125e-05
7.48082e-05
0.000123115
0.00018598
4.86554e-05
0.000223188
0.000280501
-0.000149478
-0.000771602
-0.000434025
-0.000967061
-8.7635e-06
8.85719e-05
-0.000707627
-2.11847e-05
-0.000236815
-0.000158916
0.00014991
-0.000398149
-0.000787354
-0.000479386
-0.00124161
3.85284e-05
2.77609e-05
-0.000528165
-0.000305349
-0.000921562
-0.000441619
-0.000752585
0.00014786
0.000184905
-0.000490129
-0.000320461
-0.000511385
-0.000523825
0.000254539
3.92498e-05
-0.00070083
7.29518e-07
-0.00019812
-0.00010036
-0.000314434
-0.000111195
-0.000221162
-0.000726221
-0.000510876
0.000180408
-0.000619125
0.000133025
0.000383799
0.000125638
0.000321984
0.000337434
0.000459586
-0.000358483
-0.000456612
0.000180155
0.000397279
-0.000575948
-0.000622695
-0.000374434
0.000137121
0.000483009
-0.000695822
-1.62929e-05
-8.59396e-05
0.000270962
0.00030369
-6.00091e-05
0.000143972
0.000410295
0.000123385
0.000276024
0.000467234
0.000297695
-0.000223694
-0.000451275
0.000110529
0.000398009
-0.000407361
0.000130755
0.000399798
0.000120954
0.000282665
0.000411977
-1.6641e-05
-0.000122388
-5.47902e-05
0.000324687
-6.99752e-05
0.000139455
0.000414461
0.000123631
0.000222786
0.000444091
0.000298495
-0.000499787
-0.000376747
0.000305974
0.000426382
-0.000318138
-8.84541e-05
-0.000197767
0.000257852
0.000270805
-0.000241242
-0.000363193
-0.000298182
0.000221336
0.000372278
-0.000400473
0.00030406
1.37465e-05
-5.36985e-05
-0.00012316
0.000386181
-0.000187383
0.000399475
-3.29308e-05
-0.000143969
1.00878e-05
0.00038158
0.000270628
-0.000116439
0.000339352
-0.000140044
-0.000129511
1.72721e-05
0.000426114
-0.000239231
0.000415625
-0.000115801
-0.000197036
-1.95953e-05
0.000296683
-0.000307225
0.00013609
-0.000450491
-0.000445692
-0.000150145
0.000324414
-0.000361498
0.000388087
-0.000265011
-0.000108263
8.06759e-05
0.000373415
-0.000200853
0.000363928
-0.000360199
-0.000392322
3.17018e-05
0.000442505
-0.000412828
0.000272814
-0.000469879
-0.00036658
0.000162209
0.000440984
-0.000458455
0.000380588
-3.67126e-05
-0.000199398
0.000227154
0.000398937
-0.000239748
0.000131792
0.00043587
0.000122527
0.000335727
0.000420891
0.00038692
-0.00012123
-0.000275239
0.00040012
0.000381637
0.000384519
-0.000203999
-0.000112575
5.92801e-05
0.000386132
0.000130987
-0.00029204
0.000319599
3.51355e-05
-0.00010012
1.95205e-05
0.000369312
-0.000157469
-0.000375186
-0.00114582
-0.000425647
-0.000893009
0.000157807
0.000234723
-0.000582338
9.50305e-05
0.000251301
5.67198e-05
0.000206108
0.000285721
0.00024547
-0.000524621
-0.00043714
-5.66834e-05
0.000338651
-0.000572751
9.78688e-05
0.000317109
8.36266e-05
0.000264357
0.000314261
-0.0005003
-0.000572236
-2.69898e-05
0.000308111
-0.00103644
-0.000876852
-0.000278708
-0.000591729
4.12207e-05
0.000215956
0.000146711
-0.000293665
-0.000193271
-5.99441e-05
-0.000411708
0.000205084
-0.000571348
6.066e-05
-0.000119067
-0.000170229
0.000184527
-0.000424742
8.28326e-06
-0.000197524
-0.000167236
-0.000351029
-7.06738e-05
0.00012368
-0.000700776
-0.000190776
-0.000337947
0.000322142
-0.000877065
7.61117e-06
-0.000165519
-0.000130102
-0.000282875
-8.13038e-05
0.000247234
-0.000462904
1.96185e-06
3.42202e-06
0.00043762
-0.000698883
9.76488e-07
-0.00027252
-9.89888e-05
-0.000381949
-0.000193482
-0.000103458
-5.44375e-05
-0.00022393
0.000281727
-0.000365637
-7.60483e-05
-0.000470189
-0.000420627
-0.000501024
0.000248854
-0.000680733
2.07177e-06
-0.000329537
-0.000143527
-0.000503773
-0.00019712
0.000184606
-1.13727e-05
5.35792e-05
7.73316e-05
0.000349355
-0.000148666
9.13108e-05
-0.000510104
-0.000374748
-0.000831126
0.000281515
-0.000532177
0.00031119
-0.000388475
-0.000204822
0.000336424
0.000376637
0.000306191
-0.000398912
-7.47267e-05
-0.000258625
-0.000271904
-0.000256968
0.000250404
0.000285681
-0.00050598
6.13432e-05
-0.000187597
-3.64625e-05
-0.000263692
0.000101493
-0.000165719
0.000107553
-0.000159511
-0.000463782
-0.000302345
0.000148016
0.000142486
-0.000601431
1.34247e-05
-9.81619e-05
-5.52946e-05
-0.000248553
0.000131049
0.00015317
-0.000202216
-4.01613e-05
6.77673e-05
-9.95688e-05
-0.000346845
0.00012634
0.000109251
-0.000442625
2.22421e-05
-3.75623e-05
-3.57709e-05
-0.000286806
0.000166664
0.000256379
-0.000283176
3.54327e-06
4.18686e-05
-5.35246e-05
0.00020642
-0.000393411
0.00015434
-0.000207678
-0.000133951
-0.000368499
0.000157164
-0.000441613
-9.49547e-05
-0.000113924
-0.000103615
-8.06733e-05
0.0001301
0.000205646
-0.000397763
0.000104031
-9.91382e-05
-1.54386e-05
-0.000106075
0.000186659
0.00024997
-0.000245078
0.000121475
-2.44178e-05
7.01338e-06
-0.000420685
0.000147651
0.000207326
-0.000320189
0.000283051
-3.74592e-05
-2.3478e-07
0.000308759
0.00037742
0.000412317
-0.00023936
0.000145468
3.18211e-06
-0.00011452
-0.00050202
0.000226424
0.00020871
-0.000197324
-0.000155537
-0.000265968
-1.44965e-05
0.000263349
0.000352523
-0.000469207
9.80526e-05
-0.000184584
-0.000283525
-0.000120953
0.000212687
-0.000485898
0.000237394
1.34884e-05
-1.04331e-05
7.8853e-05
0.000319936
-0.000274501
-1.06281e-05
-0.000316816
-0.000171049
-0.000474758
-4.59196e-05
-0.000197705
-0.000418571
-0.000216013
-0.000176121
0.000260346
-0.000468718
-6.50424e-05
-0.00034623
-0.000161574
-0.00046421
-0.00024933
-1.86761e-05
-2.50494e-05
-0.000258572
-2.27655e-05
-4.02649e-05
-6.49875e-05
-0.000278631
-0.000160894
-0.00040933
-0.000181673
-8.32161e-05
-5.17959e-05
-0.000268858
0.000152374
-0.000399229
-2.04484e-06
-0.000325904
-0.000168324
-0.000663432
-0.000183259
-0.000165843
-0.0001007
-0.000790011
-0.000105593
8.43465e-05
-0.00012891
4.04015e-05
-9.94677e-05
-4.20099e-05
-0.000301584
4.66002e-05
-3.06978e-05
-0.000394728
-0.000250759
-0.000248508
0.000243059
-0.000348724
4.04277e-05
-1.99496e-05
-3.59157e-05
-0.000182389
0.000144173
7.37128e-06
-0.000264561
-5.52667e-05
-0.000215697
0.000264579
-0.00057392
1.37206e-05
-5.34799e-05
-9.58918e-05
-0.000197448
0.000111822
5.94724e-05
-3.94753e-05
-0.000216324
0.000151706
0.000114385
-2.4759e-05
0.00018096
-4.95257e-05
-5.06468e-05
-0.0006168
0.000100143
0.000208796
-0.000119197
-2.14266e-05
-0.000463395
-0.000233842
-0.000630115
-0.000271583
-0.000340646
-0.000255877
-0.000874095
8.30791e-05
7.49937e-05
-0.000353159
2.89447e-05
-0.000201146
-9.74259e-05
-0.000342833
-1.6974e-05
6.40331e-06
-1.44586e-05
-7.17576e-05
0.000248872
0.000278946
-0.000267579
2.31933e-05
-0.000332211
-0.00013519
-0.000547729
-0.000104383
-3.33049e-05
-0.000287306
-0.00011404
-2.94323e-05
0.000279918
-0.000380985
-6.78047e-06
-0.000145739
-0.000121825
-0.0002834
-2.4432e-05
-1.14154e-05
1.11663e-05
-0.000116316
0.000126967
0.000260693
-0.00023314
5.30378e-05
-0.000105037
-0.000103693
-0.000385802
0.000150375
0.00012147
-0.000251124
-8.05584e-05
-0.000381229
0.000223653
-0.000385876
0.000102959
0.000273809
5.88203e-05
8.93808e-05
0.000327074
0.000140995
-0.000171444
-0.000417528
0.000131376
0.00031344
-0.000230632
1.0467e-05
-5.55276e-05
-5.26904e-05
-0.000186134
8.50031e-05
0.000254264
-5.23836e-05
-2.31432e-05
-4.89615e-05
0.000190846
-0.000185329
0.000113676
-0.000144654
-0.000207201
-0.000189102
0.000238798
-0.000278615
0.00033808
-6.38515e-05
-4.07241e-05
-3.59868e-05
0.000187696
-0.000465083
7.59053e-05
8.25485e-05
2.43755e-05
-4.95453e-05
0.000243551
3.36783e-05
-0.000163935
-0.000181487
-0.000357183
0.000114721
-7.96012e-05
4.38126e-05
7.42288e-05
-4.11328e-06
2.02207e-06
0.000166126
0.000180199
-5.55889e-05
-6.22655e-05
-4.85266e-05
0.000258248
-0.000313844
2.63368e-05
5.9385e-05
-3.98755e-05
-0.000297814
0.000242555
-0.000108971
6.56034e-05
0.000194366
-3.48536e-06
0.000101328
0.000295198
0.000300058
-6.09302e-05
-0.000162429
-0.000253095
0.000229112
-0.000304819
0.00026037
-0.000152359
-0.00028253
0.000111368
0.000236137
0.000315799
-0.000220781
0.000126781
-0.000117126
-0.000234581
-7.42082e-05
0.000264939
0.000323662
-0.000249859
8.30744e-05
8.94135e-07
-4.30907e-05
-0.000300418
0.000287701
0.000241457
-0.000111202
0.000181824
-4.26329e-05
-6.36631e-06
-0.000195504
0.000178834
-8.40071e-05
0.000326335
-0.000137535
-3.444e-05
-5.98533e-05
0.000302898
-0.000115744
0.000334527
-0.000160584
-0.00014506
1.5526e-05
0.000214731
-0.00028941
-0.000246171
-6.81845e-06
-4.86569e-05
0.000296869
0.000297631
-0.000194075
9.9441e-05
-0.000283112
-0.00020509
-0.000219772
0.000252716
0.000262759
-0.000207051
5.23557e-05
5.32506e-05
-8.51293e-06
-3.0128e-05
0.000132458
0.000310124
-0.000178743
-4.01079e-05
-0.000188409
0.000225407
-0.000142024
-0.000263541
3.86276e-06
-0.000245566
0.000251237
0.000331395
-7.7064e-05
0.00012162
-8.69297e-05
-0.000121199
-1.45481e-05
0.000196935
0.000290598
-0.000157474
0.000362529
7.6661e-05
3.1806e-05
0.000123316
0.000344801
-1.83493e-05
0.000478697
1.46908e-05
1.48828e-06
0.000192026
0.000166992
-0.000289304
0.000132659
-7.18159e-05
1.9537e-05
-0.00108609
-0.000284442
-0.000527338
-5.61726e-05
0.000106102
-0.000501756
0.000124844
-0.000412826
6.28592e-05
0.00020908
0.000156917
-0.000658107
-0.000357003
-5.63996e-05
0.000286517
0.000343929
-0.000285459
0.000353331
-0.000462078
-4.30868e-05
0.000138138
0.000184736
0.000147063
1.06691e-05
-0.000168472
-7.63446e-05
8.33351e-05
0.000176733
-0.000145114
0.000340119
-0.000165137
1.40672e-05
-0.000164162
0.000160284
0.000252089
-0.000752515
-0.000144283
-0.000444192
0.000119659
0.00031646
-0.000240193
0.000387101
-0.000163643
-5.88798e-05
0.000205315
6.18941e-05
6.34511e-05
-0.000115394
-8.504e-05
-0.000467209
8.71282e-05
0.000262697
-0.000102338
0.000259536
-0.000336095
-1.60882e-05
-7.3465e-05
-0.00011704
-2.09464e-05
-0.000388758
-0.00012442
-0.00028971
3.75222e-06
0.000215445
-0.000392758
0.00015078
-0.000439651
-4.6344e-06
-0.000191348
9.00234e-05
8.34778e-06
-0.000192514
-0.00019069
-0.000249486
1.0171e-05
0.000309297
-0.000291287
0.000117249
-4.22121e-05
-3.65501e-05
-4.41375e-05
-0.000121405
-6.06184e-05
-0.00120502
-0.00030503
-0.000436087
-5.92094e-05
0.000194802
-0.000414377
5.02322e-05
-0.00032334
-0.000205754
-5.73876e-05
-2.26357e-05
4.4716e-05
-0.000695573
-0.000168193
-0.00031049
-3.10584e-05
0.000200685
-0.000451097
0.00018116
-4.27234e-05
-0.000357959
-8.71279e-05
-0.000381737
-0.000266241
7.33462e-05
-0.000173344
-0.000145076
-0.000514963
-4.03831e-06
7.22221e-05
-0.000128406
8.96383e-05
1.1332e-06
-4.97334e-05
-1.57048e-05
0.000386837
8.7768e-05
0.000201711
-0.000646251
-0.000756921
0.00011785
0.000445456
0.000412787
-0.000375778
0.000456846
-0.000542716
-0.000413826
-0.000163836
8.29759e-05
-6.49562e-05
-0.000414255
-0.000248494
-0.000366109
-5.21352e-05
0.000173392
-0.000365395
0.000140993
-0.000247526
-0.000161848
-0.00018328
8.82879e-05
9.41087e-05
-8.25051e-05
-6.4602e-05
-0.000396762
2.89568e-05
0.000166742
-0.000250597
0.000236291
-3.50812e-05
-5.4555e-05
-1.74189e-05
-0.000150939
2.44439e-06
-0.000509475
-0.000236839
-0.000583721
-9.24301e-05
0.000198302
-0.000370863
0.000213342
-1.68276e-05
-0.000259539
-2.35253e-05
-0.000218115
1.4948e-05
0.000176759
-0.00024678
5.14953e-05
-0.000105228
4.8967e-05
0.000226929
-0.000254129
0.00030073
-2.35721e-05
-2.21985e-05
-0.000118842
-0.000234522
-0.000767519
-0.000347699
-0.000737849
-0.000161119
0.000190303
-0.000458708
-0.000291663
-0.000139658
6.52991e-05
-1.74172e-05
6.28814e-05
0.000108513
-5.47055e-05
-3.70984e-05
5.78933e-05
0.000101264
9.15191e-05
9.73325e-05
9.94122e-05
0.000108782
6.55136e-05
2.77721e-07
6.17917e-05
5.32283e-05
3.66842e-05
4.37293e-05
3.26098e-05
3.02787e-05
3.98549e-05
3.07609e-05
-3.74964e-05
-1.45035e-05
2.95411e-05
2.22743e-05
1.6442e-06
-6.17081e-05
2.58796e-05
-2.96943e-05
-1.45265e-05
2.91342e-05
-6.80358e-06
2.31201e-05
1.99174e-05
4.79167e-05
1.2124e-06
6.7274e-05
5.15836e-05
2.3428e-05
-2.41641e-05
-1.01234e-05
-7.54668e-05
-1.06631e-05
-2.71728e-05
-3.42261e-05
-0.000113271
-4.44396e-05
5.19882e-05
0.000124249
6.21236e-05
7.00332e-05
3.55039e-05
7.07134e-05
-1.83808e-05
4.436e-06
7.83232e-06
-4.48187e-05
-6.45194e-05
-6.55993e-05
2.44324e-05
-3.46098e-05
-6.51608e-05
-6.24449e-05
6.57727e-06
5.09972e-05
6.86363e-05
4.77322e-05
4.06162e-05
-0.000100478
-4.64418e-05
-6.08152e-05
-6.69835e-05
-8.35921e-05
-6.03027e-05
-5.97736e-05
-1.69456e-05
-3.69356e-05
-1.55258e-05
-5.35528e-05
4.05955e-05
-5.17172e-05
-5.81908e-05
-4.82216e-05
-1.33435e-05
-9.31619e-05
9.51679e-05
-2.84894e-05
4.91381e-05
8.2321e-06
3.30456e-06
3.15427e-05
1.88327e-05
3.00674e-05
-5.19908e-06
2.02662e-05
-7.37988e-05
2.92817e-05
-3.2774e-05
-5.01847e-05
-1.31092e-05
-5.24335e-05
-5.24023e-05
-8.24325e-06
-0.000100415
-6.29998e-05
2.04998e-05
0.000117067
8.92563e-05
-5.94405e-05
-9.13369e-05
-7.38243e-05
-7.70196e-05
-3.84076e-05
1.56071e-05
-3.15481e-05
-4.93878e-05
-4.69837e-05
-5.5597e-05
-7.94484e-05
-3.02221e-05
8.89105e-05
-7.98738e-05
-4.34776e-05
-2.42439e-05
6.76376e-06
2.4986e-06
-1.18639e-07
4.51461e-06
2.33793e-06
-4.79506e-05
9.22718e-05
2.32096e-05
1.06251e-05
-1.93283e-05
-5.97936e-05
2.26303e-05
-1.5733e-05
-1.73531e-05
-9.45862e-06
5.23144e-06
-1.24598e-05
3.7978e-06
-9.67268e-06
3.45054e-07
4.09259e-06
5.76586e-05
2.94553e-05
2.95122e-05
-7.8705e-06
-8.51764e-06
7.04736e-05
1.70288e-05
1.33615e-06
-7.31311e-06
0.000173211
0.000131456
6.16942e-05
8.32348e-05
6.62463e-05
-6.20254e-06
2.41633e-05
-8.43853e-06
6.589e-06
-9.85809e-06
3.7752e-06
1.39274e-05
3.88353e-06
1.70518e-05
-2.20159e-05
9.86794e-06
2.50218e-05
9.77317e-05
-7.37213e-06
-6.00617e-06
6.35917e-05
5.03323e-05
-1.38732e-06
-1.83008e-05
7.65734e-05
-4.91566e-07
-3.94291e-05
-1.32969e-05
2.30731e-05
1.54956e-05
-4.54196e-06
0.000171083
0.000164005
2.98898e-05
4.46235e-05
8.3125e-05
2.30098e-05
2.07727e-05
2.19789e-05
1.60572e-05
6.14338e-05
2.79804e-05
-1.54501e-06
-8.24852e-06
-4.97662e-05
-2.79145e-05
-6.15943e-06
-1.5626e-05
0.000119245
2.4406e-05
7.25606e-06
-3.55533e-05
-2.39183e-06
2.86085e-06
3.37424e-05
1.00356e-05
2.07343e-05
7.88131e-05
0.000134618
3.0709e-05
3.88584e-05
6.69036e-05
1.26419e-05
1.10085e-05
1.00736e-05
2.60613e-05
-2.76207e-07
-5.19658e-06
1.06932e-06
7.52165e-06
3.75713e-05
3.7014e-05
1.56229e-05
0.000113134
0.000135301
0.000262159
5.90865e-05
1.7306e-05
-4.09788e-06
2.64556e-05
5.32528e-06
4.26003e-05
9.6276e-05
3.92651e-05
1.81505e-05
0.00010435
4.7379e-05
4.28566e-05
2.8161e-05
9.30097e-05
1.05959e-05
1.53049e-05
6.22991e-06
8.21382e-05
9.2755e-05
4.6432e-05
1.35038e-05
9.4579e-05
7.52934e-05
5.48279e-05
7.91124e-05
0.000137799
8.67698e-05
6.63472e-05
1.66425e-05
1.75338e-05
-2.8291e-06
-2.60365e-05
3.0594e-05
3.83117e-06
3.75821e-05
8.31619e-07
1.83204e-05
-7.39058e-06
-4.88377e-05
1.02912e-05
3.73314e-05
6.75792e-05
-6.29327e-06
-7.11565e-05
8.58702e-07
2.09791e-05
1.53051e-05
3.34513e-05
1.77107e-05
4.9837e-05
6.8696e-06
7.2424e-05
3.57078e-05
-3.32483e-06
-2.08386e-05
-1.58782e-05
3.0184e-05
0.000134653
6.20229e-05
2.95832e-05
5.26722e-05
-1.41193e-05
0.000140141
9.52499e-05
1.50192e-05
4.10118e-06
-3.07579e-06
4.80525e-05
-1.28298e-05
7.35933e-05
1.29539e-05
-6.28085e-05
-8.46747e-05
-6.87964e-05
9.19002e-05
1.15013e-05
-1.90461e-05
-1.41924e-05
3.5165e-05
-2.04291e-06
3.76869e-05
-4.94772e-06
-2.96605e-08
3.97107e-05
-2.48137e-05
9.9086e-05
0.000142506
-2.13191e-05
-5.67859e-06
9.61682e-05
2.23483e-05
1.95527e-06
8.7273e-06
0.000120214
-8.12711e-07
-1.9067e-05
9.62719e-06
9.18318e-05
7.95473e-06
2.02145e-05
0.000105594
0.000129897
3.21444e-05
2.44958e-06
1.6811e-05
3.40577e-06
-1.39944e-06
1.13236e-06
1.36458e-05
8.36758e-05
6.93189e-05
8.40314e-05
6.91793e-05
6.76606e-06
8.02604e-05
-3.01601e-05
7.29124e-06
0.000112958
1.64516e-06
-3.16297e-07
-5.56081e-06
4.92295e-05
6.57201e-05
0.000178445
2.12917e-05
1.18421e-06
6.90397e-05
3.0383e-05
4.27419e-05
2.06299e-05
1.7205e-05
-8.37824e-06
0.000108333
9.9745e-06
-3.65672e-05
3.1122e-05
-2.73977e-06
1.38365e-05
7.91369e-05
6.38117e-05
7.60122e-06
8.54717e-05
-8.44254e-06
6.60313e-05
4.31413e-05
8.47002e-05
-3.85928e-05
4.68954e-06
4.47979e-05
2.83443e-05
2.0812e-05
2.2952e-05
-3.71176e-06
5.01738e-05
-4.52419e-06
-0.000191213
-4.6076e-05
2.25009e-05
5.48541e-05
6.40944e-05
8.56779e-05
-2.97521e-06
-1.64792e-05
-4.24339e-05
-4.28071e-05
-0.000108179
-0.000171747
-4.00768e-05
4.41002e-05
9.76779e-05
1.40094e-05
-1.94576e-05
5.81972e-05
-6.47518e-06
-6.75912e-07
-2.75878e-06
4.09732e-05
0.000119297
4.84166e-05
6.55411e-06
1.08126e-05
3.00341e-05
0.000106741
1.14085e-05
-6.85549e-06
2.79741e-05
-4.58033e-05
6.44427e-05
-7.00147e-06
-2.07122e-06
0.000101379
0.000165696
0.000124954
4.12726e-06
2.12705e-05
1.09637e-05
1.11264e-05
4.01992e-05
1.39473e-06
1.72467e-05
0.000145862
0.000103519
9.61484e-05
-8.48442e-07
-7.27959e-06
2.67546e-05
9.67157e-05
1.45971e-06
1.03479e-05
5.96236e-06
6.42077e-05
8.22418e-05
5.82538e-06
2.55495e-05
2.70414e-05
5.11441e-06
3.69444e-05
-1.49316e-06
-1.6409e-06
5.9482e-05
0.000137889
3.9939e-05
0.000162573
8.6162e-05
0.000165275
2.44976e-05
0.000157127
1.0322e-05
0.00014596
5.02045e-05
0.000182874
1.84169e-05
0.00016072
1.43583e-05
0.000170018
2.04816e-05
1.08478e-05
-5.55011e-06
2.97014e-06
3.00944e-05
4.13472e-06
1.62214e-05
1.18767e-05
2.19665e-05
1.77972e-05
-5.84821e-05
8.07252e-07
2.17893e-05
1.45835e-05
-4.731e-05
-1.70086e-06
6.50866e-05
2.3817e-05
4.32455e-05
9.07391e-06
5.75913e-06
0.000130873
5.22643e-05
1.56431e-05
-0.000159194
0.000101563
-7.28731e-05
-8.80889e-05
4.12831e-05
5.05117e-05
1.98461e-05
9.42184e-06
-1.01522e-06
3.99992e-05
-9.41652e-07
-2.89433e-06
5.41995e-06
-1.82493e-05
1.0712e-06
9.88127e-05
-9.18137e-06
4.82199e-05
5.38115e-05
3.19541e-05
2.01332e-05
3.54326e-05
6.60223e-05
6.80335e-05
5.00651e-05
7.21639e-05
4.69529e-05
1.07334e-05
-4.59638e-06
-5.30862e-05
9.95476e-05
0.000118979
6.95129e-05
4.48654e-05
1.90814e-05
1.9067e-05
-2.59691e-05
0.000101135
0.000171849
-1.11146e-06
-1.08988e-05
3.50227e-05
-5.49486e-06
1.14502e-05
-5.22515e-05
5.08231e-06
-1.06542e-05
7.11338e-05
1.22602e-05
1.56115e-06
-9.79633e-07
1.29382e-05
1.6373e-05
1.6528e-05
3.85158e-05
-1.881e-06
-1.17433e-06
-1.22851e-05
3.43223e-05
1.28878e-05
7.07348e-06
-4.68294e-05
3.53395e-05
-9.67645e-06
2.3432e-05
2.36478e-06
1.04993e-05
1.51283e-06
2.99421e-06
4.45515e-06
-2.18981e-05
-0.00034993
-0.000634416
-0.00032836
5.96244e-05
8.85418e-05
0.000110952
1.28022e-05
1.13795e-05
3.51333e-06
0.00010401
9.50249e-05
1.75445e-05
-8.45781e-06
2.44051e-05
-9.98533e-06
2.40468e-05
6.92452e-05
-1.45429e-05
3.00795e-05
8.64278e-06
-3.72366e-06
-3.46131e-05
-9.38295e-06
-6.28254e-05
3.07646e-05
6.42269e-05
-6.23331e-05
5.92379e-06
-0.000270127
0.000119351
-1.11463e-06
-8.3369e-07
2.35805e-05
1.09022e-05
-2.43143e-07
-1.59098e-06
4.2556e-05
-7.77074e-07
-6.58697e-06
-1.5603e-06
9.67129e-05
-1.44533e-05
1.77081e-05
4.43326e-05
1.77879e-05
3.2696e-06
2.4761e-06
2.97132e-07
1.26132e-05
4.77336e-05
5.14636e-05
9.6081e-05
8.50636e-05
9.67755e-05
3.49149e-05
6.2298e-06
1.09443e-05
-5.95491e-06
7.57082e-05
7.88868e-05
3.50422e-05
1.95487e-07
-1.14968e-05
1.68017e-05
2.95829e-05
0.000115043
-1.46652e-06
3.507e-06
3.80755e-05
5.93536e-05
0.000110391
5.6608e-05
-4.66664e-05
-0.00013265
-8.63962e-05
8.61912e-05
0.000126136
3.60176e-05
2.79146e-06
1.11083e-06
1.56988e-05
-3.71101e-06
2.32871e-05
-3.53647e-06
0.000104505
0.000109647
0.000117364
0.000118174
3.17281e-05
2.90656e-05
-5.05402e-06
0.000121325
-5.04696e-06
-5.1662e-06
4.1701e-06
-2.88828e-06
-1.21613e-05
3.56143e-06
-1.75866e-06
4.53331e-06
3.38244e-06
6.72029e-06
1.74361e-06
7.9121e-06
8.72298e-06
4.10918e-06
-6.66403e-05
1.65328e-05
1.64419e-05
8.93783e-05
2.66051e-06
6.50636e-06
3.91643e-05
6.8057e-05
8.84554e-06
3.73485e-05
2.97279e-05
3.91228e-06
-1.45677e-05
-1.05918e-06
-4.40307e-05
-8.3499e-05
-8.15908e-05
-4.69052e-05
3.29166e-05
1.18856e-05
7.96605e-05
0.000134767
0.000132524
-4.31568e-05
-3.53567e-05
-3.94065e-06
-2.87387e-05
-3.7776e-05
-7.95129e-05
-6.70316e-05
7.09289e-05
-4.28904e-05
-7.58983e-05
0.000103272
9.38408e-05
0.000141305
2.85227e-05
3.53363e-05
-4.813e-06
-5.7311e-06
-2.10996e-06
-4.3364e-05
0.000158534
0.000167721
-0.000314713
-0.000215888
-5.80383e-05
-0.000262956
4.38767e-06
-4.28916e-05
6.92465e-06
5.4959e-06
1.65517e-05
-5.00317e-06
0.000107723
4.81741e-06
-1.12799e-05
0.00010431
4.401e-05
-1.3401e-06
0.000143067
1.88148e-05
1.75513e-05
1.31699e-05
1.1094e-05
1.39161e-05
-5.87152e-06
-9.41766e-06
7.29408e-05
1.11004e-05
-1.03148e-05
0.000154899
2.17116e-05
-6.17239e-06
0.000111961
1.71973e-05
-5.63322e-06
0.000111361
3.61329e-05
-1.08193e-05
0.000113639
1.03308e-05
6.18839e-05
2.77539e-06
6.73458e-05
-3.96144e-05
-6.50442e-06
-1.54714e-05
-1.42066e-05
-5.39548e-05
0.000108154
9.1771e-05
9.80981e-05
-4.91354e-06
-2.83915e-06
0.000117131
-1.30511e-05
5.02512e-06
-3.6199e-06
-1.04361e-06
3.83774e-07
-4.05103e-06
-2.76664e-06
-2.77651e-05
5.98504e-06
-6.3894e-06
-8.17122e-07
1.90434e-06
-1.27949e-07
5.50454e-06
-4.42717e-09
3.32951e-06
7.06781e-06
6.07014e-06
6.65829e-06
-7.28222e-06
-1.22401e-06
-1.14905e-05
-2.61185e-06
5.71111e-07
-1.08927e-05
-1.93537e-05
-1.28663e-05
-1.41386e-05
-6.59301e-07
-8.61343e-06
1.81414e-08
-8.34943e-06
4.02652e-06
-9.1344e-06
-1.40449e-05
-1.40676e-05
-3.00677e-06
-4.83772e-06
-1.28525e-05
1.14231e-05
-3.15239e-06
5.54531e-07
-4.17221e-05
-2.62449e-07
-3.2854e-06
-6.5457e-06
-1.486e-06
-2.31862e-05
5.80183e-06
-4.02461e-07
-1.67071e-05
6.24229e-06
-0.00012532
-9.7409e-05
-0.000393408
5.79531e-05
0.000122205
-0.000197851
-0.000104886
-0.000133412
-8.8287e-05
-3.66103e-05
4.48904e-05
-0.000146675
1.80541e-05
2.66024e-05
-4.05211e-05
-5.54477e-05
0.00010473
-0.000111241
-2.42136e-05
-4.11092e-05
-6.56236e-05
-1.96895e-05
-3.34145e-05
-1.06471e-05
-4.07328e-06
-3.97716e-05
-1.69271e-05
-4.61516e-06
2.14138e-05
-7.21971e-05
-9.40225e-05
-2.89125e-06
-2.2316e-05
8.80738e-06
0.00013574
-4.65572e-06
-1.37684e-05
-3.774e-05
8.0648e-05
-0.000256277
-2.53181e-05
2.90679e-05
1.67491e-05
-7.99141e-06
7.99672e-06
-9.64344e-05
-8.09874e-05
-0.000217677
2.47937e-05
-3.03602e-05
-3.92003e-05
-4.29434e-05
-3.21731e-05
5.49344e-05
-5.49254e-05
-1.437e-05
-2.43131e-05
-1.04562e-05
3.80768e-05
-0.000139753
5.14011e-05
6.81759e-05
-6.81614e-05
-0.000159569
0.00010197
-4.83924e-05
2.87474e-05
-1.62891e-05
-9.19619e-05
-5.46314e-05
-0.000201127
1.68775e-06
9.70796e-05
4.86322e-07
-6.07631e-05
-0.000133589
-2.98536e-05
4.3818e-05
6.85269e-05
-1.12092e-05
-3.74718e-05
5.82145e-06
-6.72649e-05
2.6214e-05
-0.00015288
0.000100057
0.000143728
3.77365e-05
6.39944e-05
1.76996e-05
-0.000168039
0.000190165
0.000138401
1.58221e-05
4.90473e-05
-3.28203e-05
-1.34967e-05
-0.000118612
3.27832e-05
3.09938e-06
-7.795e-05
4.23176e-05
-7.57705e-05
-2.0863e-05
3.11316e-05
7.68363e-05
-2.64523e-05
-2.57343e-05
-7.39628e-05
-8.15671e-05
9.28545e-05
-1.43498e-05
7.38655e-05
0.000169025
-0.000150585
7.28126e-05
-0.000215885
0.000161257
6.70148e-05
4.17201e-05
9.08434e-05
-1.77395e-06
2.25915e-06
0.0001624
3.37318e-06
-2.10086e-05
-3.07927e-05
-4.94672e-06
-5.96431e-05
-5.26206e-05
-1.1478e-05
7.0054e-05
1.44512e-05
5.93564e-05
-3.59127e-05
-5.89147e-06
-0.000112682
9.11546e-05
8.30071e-05
-3.21777e-05
3.4686e-05
-0.000112959
-5.93964e-05
-6.10902e-05
5.43077e-05
-3.66268e-06
-2.74749e-05
-0.000152972
0.000119213
-8.79253e-05
-6.75959e-06
1.8365e-06
1.41179e-06
-4.60415e-07
-3.64318e-05
-3.13497e-06
1.13278e-05
4.12777e-05
-1.68018e-05
7.97881e-05
-4.62715e-05
4.69539e-05
-6.83132e-05
4.17318e-05
-9.58699e-05
9.85476e-05
0.000153588
-2.22688e-05
-5.35624e-05
-5.6682e-05
2.57651e-05
-0.000103296
-2.86336e-05
-1.92912e-05
-1.56059e-05
-1.57408e-05
-8.42272e-06
-9.31054e-05
-0.00038792
-0.000301552
-0.000204428
0.000175333
-0.000264778
-0.000132384
-0.000304838
-0.000241742
-0.000394916
0.000118738
-0.000138058
-9.26013e-05
-0.000476974
-0.000355589
-0.00057555
-5.9586e-05
8.01017e-05
-0.000446681
-2.17022e-05
-0.00013923
-0.000139729
-0.000402253
0.000150682
-0.000203396
-0.000181849
-0.000183263
-0.000397996
-0.000494497
0.000179445
-0.000418942
-1.05726e-05
-0.000162173
-0.000167901
-0.000482677
6.72258e-05
6.4079e-05
-0.000297266
2.86146e-05
-0.000280049
-0.00019215
-0.000365452
0.000115868
0.000132219
-0.000377018
3.23377e-05
-0.000181215
-0.0002135
-0.000458274
0.0001034
9.67015e-05
-0.000395732
1.31807e-05
-2.27025e-05
-3.88108e-05
-0.000106992
2.74726e-05
0.00013745
-5.34032e-05
9.62245e-05
-0.000218973
-0.000258925
-0.000166491
-0.000248177
2.31319e-05
-2.8435e-05
-0.000181588
-2.75254e-05
0.000105413
-0.0003921
-0.000158455
-3.76695e-05
-0.000148398
-1.00867e-05
0.000195269
2.33821e-05
-0.000171332
-0.000108653
0.000187969
-8.38547e-05
-0.00036026
-7.91662e-05
2.57262e-05
1.44031e-05
-8.6277e-05
-0.000306025
-2.05542e-05
-0.000393093
0.000132932
7.87252e-05
-0.000161933
2.17999e-05
-0.000190025
-0.000129815
-0.000399895
9.83298e-05
8.36879e-05
-0.000229244
3.54677e-05
-0.000185456
-0.000191328
-0.000317016
3.935e-05
5.56989e-05
-0.000266653
1.77992e-05
2.19375e-05
-5.27524e-05
-3.56486e-05
8.5536e-05
-1.67371e-05
1.47758e-05
-2.90547e-05
-5.34431e-05
0.000119142
-3.41425e-05
2.95553e-06
9.14389e-06
-5.67908e-05
-5.19417e-05
5.79021e-05
9.73103e-05
7.44145e-05
-7.93914e-06
9.96914e-05
0.000185607
-9.30268e-05
-0.000506204
-0.000267304
-0.000566589
3.36797e-05
0.00011216
-0.000306967
-3.57589e-05
-0.000174809
-0.000136151
0.000100153
-0.000193317
-0.000543743
-0.000299148
-0.000750469
5.04871e-05
6.93564e-05
-0.000230451
-0.000108658
-0.000591925
-0.00027914
-0.000420528
0.000132082
0.000176191
-0.000223158
-0.000232829
-0.00033533
-0.000352579
0.000190057
3.04747e-05
-0.000313738
2.21773e-05
-6.87975e-05
-3.9584e-05
-0.000142861
-1.4517e-05
-0.000211597
-0.000384114
-0.000301973
0.000156699
-0.000303435
0.000120312
0.000336467
0.000116223
0.000299058
0.000294821
0.000371306
-0.000326197
-0.000296855
0.000167661
0.000329411
-0.000313492
-0.000488233
-0.000260853
0.000147147
0.000398975
-0.000338911
-1.67091e-05
-5.07934e-05
0.000248038
0.000258114
-2.67955e-05
0.000125935
0.000355352
0.000113268
0.000268778
0.000390952
0.000285194
-0.000192505
-0.000288597
0.000119219
0.000335255
-0.000171811
0.000118323
0.000353659
0.000112271
0.000281328
0.000354576
-4.72775e-05
-9.0005e-05
4.7223e-06
0.000267864
-3.01949e-05
0.000123051
0.000363076
0.000112651
0.000243161
0.000382163
0.000295975
-0.0004256
-0.000250798
0.000220784
0.000359458
-0.000141151
-8.95013e-05
-0.000116107
0.000194767
0.000219859
-0.000109792
-0.000293644
-0.000220748
0.000188407
0.000302799
-0.000199755
0.000305284
-1.6008e-05
-4.81091e-05
-1.24592e-05
0.000336455
-8.4927e-05
0.000351528
-4.54333e-05
-0.000105438
6.78289e-05
0.000334134
0.000250045
-5.28533e-05
0.00033021
-0.0001449
-9.07142e-05
6.47651e-05
0.000354669
-0.000110558
0.00037342
-0.000115984
-0.000112863
5.51693e-05
0.000279677
-0.000140039
0.000216191
-0.000357307
-0.000280932
-4.32528e-05
0.000305235
-0.000158809
0.000359098
-0.000221775
-6.68691e-05
0.000111305
0.000326322
-9.67238e-05
0.000325698
-0.000289532
-0.000255485
7.54952e-05
0.000368596
-0.000185741
0.000298633
-0.000366643
-0.000234683
0.000167596
0.000372443
-0.000212182
0.000350979
-7.16452e-05
-0.000146394
0.000189105
0.00033846
-0.000110345
0.000117946
0.000381525
0.000112795
0.000325681
0.000367603
0.000350596
-0.000130192
-0.000181826
0.000286288
0.000324187
0.000339089
-0.00016084
-7.89367e-05
9.12013e-05
0.000330926
0.000145288
-0.000130471
0.0002995
-5.10056e-06
-7.57652e-05
7.31748e-05
0.000321208
-7.11575e-05
-0.000152538
-0.000722369
-0.00027793
-0.000552858
0.000127029
0.000194018
-0.000267339
8.98089e-05
0.000233641
6.52049e-05
0.000201368
0.000254272
0.000247855
-0.000418561
-0.000293756
-4.68706e-06
0.000267407
-0.000259547
9.05746e-05
0.000275948
8.07267e-05
0.000240913
0.000272464
-0.000403473
-0.000361024
1.50263e-05
0.000253205
-0.00046241
-0.000571371
-0.000187842
-0.00033877
4.68442e-05
0.000171637
0.000149452
-0.000143224
-0.000171504
-7.18121e-05
-0.000283761
0.000145107
-0.000257579
3.50516e-06
-0.000103686
-0.000125977
0.00012385
-0.000187862
3.12685e-05
-7.70645e-05
-7.58089e-05
-0.000184575
8.31176e-06
0.000120233
-0.00053529
-0.000173268
-0.0002308
0.000211758
-0.000489191
3.14789e-05
-4.83057e-05
-5.31055e-05
-0.000128441
7.75545e-06
0.000200185
-0.000369675
-5.56791e-05
-1.49374e-05
0.000285568
-0.00038924
2.23727e-05
-0.000121593
-3.70553e-05
-0.000194767
-6.96073e-05
-0.000140363
-8.50122e-05
-0.000151699
0.000200628
-0.000195979
1.57509e-05
-0.00035863
-0.00028815
-0.000342909
0.000176523
-0.000346685
2.70538e-05
-0.000131348
-5.84686e-05
-0.000248294
-4.97601e-05
0.000142996
-6.23113e-05
-3.2038e-06
3.08676e-05
0.000251444
-8.68438e-05
0.000109193
-0.000362341
-0.000251538
-0.00052151
0.000207389
-0.00027116
0.000262052
-0.000346555
-0.000184455
0.000262491
0.000310805
0.000279477
-0.000189096
3.51768e-05
-0.000238837
-0.000198494
-0.000180184
0.000194837
0.00023039
-0.000223729
7.61874e-05
-0.000104767
-3.20283e-05
-0.000145126
8.83954e-05
-8.61899e-05
0.0001553
-0.00012563
-0.000293181
-0.000190652
0.000150679
0.000148811
-0.000282897
3.9532e-05
-0.000104565
-6.98102e-05
-0.000154567
9.26107e-05
0.00011025
-8.88176e-05
5.11857e-06
5.31798e-06
-0.000103631
-0.000223153
8.61719e-05
8.82464e-05
-0.000188715
4.7509e-05
-7.98865e-05
-6.55165e-05
-0.000185375
0.000116979
0.000177775
-0.000123361
-5.90903e-05
-1.8311e-05
-4.58413e-05
0.000139441
-0.000182488
0.000123164
-0.000200097
-0.000125368
-0.000252751
0.000111871
-0.000190223
-3.87759e-05
-0.000124798
-0.000108541
-5.44192e-05
9.06318e-05
0.000146508
-0.000174048
8.38815e-05
-0.000117875
-5.68116e-05
-8.41853e-05
0.000125583
0.000173176
-0.000112402
0.000129941
-5.13321e-05
-2.67636e-05
-0.000256813
0.000111238
0.000157206
-0.000138529
0.000246029
-9.29862e-05
-4.60956e-05
0.000187555
0.000275225
0.000312911
-0.000127218
0.000156524
-7.16737e-05
-0.000103284
-0.000290312
0.000169975
0.000165236
-8.69085e-05
-0.000163052
-0.000199081
-1.88048e-06
0.000205279
0.000276155
-0.000217518
0.000117737
-0.000215583
-0.000193397
-8.14582e-05
0.000163731
-0.000210178
0.000204474
-4.24295e-05
-6.87928e-05
2.40396e-06
0.000231239
-0.000172306
7.32631e-06
-0.000181272
-9.35762e-05
-0.000287843
5.10838e-06
-7.96582e-05
-0.00042413
-0.000207209
-0.000166998
0.000178553
-0.000233084
-2.60245e-05
-0.000188858
-8.56704e-05
-0.000269333
-0.000125141
-8.51495e-05
-2.09805e-05
-0.000202253
-2.36343e-05
-1.98489e-05
-2.83561e-05
-0.000158353
-8.74521e-05
-0.000249055
-9.35964e-05
-0.000133464
-8.60408e-05
-0.000196812
8.06034e-05
-0.000177803
6.85442e-06
-0.000206126
-9.71398e-05
-0.000438128
-0.000101955
-0.000153714
-5.97909e-05
-0.000513308
-5.6487e-05
5.15606e-05
-6.53164e-05
4.66552e-05
-2.7866e-05
-9.30626e-06
-0.000159955
7.4947e-05
2.80823e-05
-0.000371365
-0.000207717
-0.000174231
0.000173209
-0.000185391
4.36867e-05
2.47353e-05
-8.17149e-06
-8.75263e-05
0.000140826
5.01889e-05
-0.000284629
-0.000129238
-0.000154073
0.000180614
-0.00029164
1.46636e-05
-2.96293e-05
-5.79496e-05
-0.000134757
9.36508e-05
-3.23887e-05
-2.9829e-05
-0.000132046
0.00010893
8.68121e-05
-1.18645e-05
0.000155618
-5.97153e-05
-3.8499e-05
-0.000337986
8.15378e-05
0.000153189
-5.05399e-05
5.39289e-06
-0.000268055
-0.000126353
-0.000385366
-0.000134488
-0.000307238
-0.00017141
-0.000551122
7.37407e-05
6.2619e-05
-0.000155257
3.79326e-05
-9.86227e-05
-4.32185e-05
-0.000206576
3.13042e-05
4.75656e-05
-0.000133569
-0.000107533
7.3159e-05
0.000197805
-0.000120318
3.47752e-05
-0.000178945
-6.32353e-05
-0.000334228
-1.71194e-05
2.73875e-05
-0.000313233
-0.000135127
-7.6852e-05
0.000201113
-0.000170144
1.52634e-05
-5.94409e-05
-5.71255e-05
-0.000140059
4.02614e-05
5.71898e-05
-5.28221e-05
-0.000111055
5.99959e-05
0.000209822
-0.000128689
4.99349e-05
-5.0015e-05
-4.98235e-05
-0.000245743
0.000136068
0.000110424
-0.000270971
-0.000135773
-0.000255071
0.000166859
-0.000210955
9.55094e-05
0.000258702
6.54989e-05
0.000133343
0.000296683
0.000178665
-0.000202803
-0.000272856
0.000121352
0.000266292
-0.000126035
3.15603e-05
2.76636e-05
-7.38098e-06
-4.97121e-05
0.000107087
0.000228409
-3.10997e-05
-7.23661e-05
-5.43308e-05
0.000151487
-0.00010482
0.000145531
-0.000120936
-0.000146519
-0.00012085
0.000194152
-0.000140663
0.000279424
-5.72337e-05
-7.7149e-05
-4.89994e-05
0.000165125
-0.000278745
7.46758e-05
0.00011415
4.12159e-05
2.27979e-05
0.000219881
3.81812e-05
-0.000114118
-0.00013026
-0.000231139
9.66098e-05
-4.36898e-05
5.22335e-05
0.000111055
2.2186e-05
6.51407e-05
0.000169315
0.000163036
-3.04712e-05
-7.64371e-05
-6.07278e-05
0.000201383
-0.00018072
3.51766e-05
-2.34533e-05
-6.42734e-05
-0.000209558
0.000193861
-5.2974e-05
6.90414e-05
0.000195194
2.32697e-05
0.000122192
0.000259145
0.000259232
-6.7662e-05
-9.11157e-05
-0.00014631
0.000185294
-0.000135512
0.000255128
-0.000151218
-0.00020204
9.16334e-05
0.000199682
0.000262975
-0.000103254
0.000163006
-0.000127886
-0.000163003
-2.11241e-05
0.000217884
0.00026602
-0.00011496
0.000128293
-4.55225e-05
-5.76686e-05
-0.000160765
0.000218917
0.000197022
-5.52202e-05
0.000170117
-2.48669e-05
9.84568e-06
-0.000119929
0.000145292
-4.25724e-05
0.000255798
-0.000109861
-7.0362e-05
-6.88794e-05
0.000220215
-5.28346e-05
0.000298191
-0.000143445
-0.000124797
1.54971e-05
0.000196921
-0.000137411
-0.000232528
-4.78799e-05
-4.00342e-05
0.000223517
0.000215705
-9.73514e-05
0.000144138
-0.000251212
-0.000155134
-0.000151055
0.000197427
0.000214079
-9.65478e-05
5.88785e-05
0.000100082
2.13146e-05
4.7385e-05
0.000149544
0.000279475
-0.000167013
-4.16526e-05
-9.14196e-05
0.000200938
-6.81193e-05
-0.00025712
-1.9248e-05
-0.000144393
0.000207012
0.000264026
-3.58861e-05
0.000141087
-0.000111636
-0.000112669
-8.62054e-06
0.000149637
0.000226376
-7.34872e-05
0.0003191
-3.29997e-05
-2.09198e-05
0.000111403
0.000295527
-1.12927e-05
0.000408247
-1.41071e-05
-6.87557e-05
9.48993e-05
0.000146175
-0.000181715
0.000136306
-1.42367e-05
9.23052e-05
-0.000656674
-0.000185541
-0.000296057
-1.23436e-05
0.000112911
-0.000281524
0.000140147
-0.000191277
9.84914e-06
0.000222015
0.000197351
-0.00037393
-0.000231148
5.22125e-05
0.000290632
0.000320424
-0.000120793
0.000327626
-0.000212199
-3.83692e-05
0.000207758
0.000200525
0.00021217
-9.60742e-06
-0.000112427
1.44409e-05
0.000151801
0.000199542
-2.23055e-05
0.000316224
-7.71487e-05
4.20685e-06
-2.89637e-05
0.000149276
0.000238026
-0.000439377
-0.000100493
-0.000230317
0.000130815
0.000272549
-0.000115995
0.000312464
-8.49954e-05
-4.56951e-05
0.000183931
5.35326e-05
0.000107394
-0.000111141
-8.43995e-05
-0.000271678
9.44615e-05
0.000218804
-5.35717e-05
0.000227316
-0.000161445
-1.40936e-05
1.96688e-05
-4.07844e-05
4.8459e-05
-0.000276975
-9.14445e-05
-0.000172238
2.40151e-05
0.000176741
-0.000210901
0.0001449
-0.000230296
-4.43706e-06
-5.37299e-05
8.86374e-05
6.13431e-05
-0.00014083
-0.000113339
-0.000137526
2.77133e-05
0.000240684
-0.000155252
0.000121196
-2.31259e-05
-2.33097e-05
2.80127e-05
-4.1489e-05
2.20995e-05
-0.000729613
-0.00020027
-0.000247691
-9.19172e-06
0.00016376
-0.000211848
8.90995e-05
-0.000155463
-0.000109024
3.52585e-05
2.59451e-05
0.000103227
-0.00045864
-0.000109484
-0.000154079
1.9797e-05
0.000171253
-0.000243906
0.000179598
-2.23869e-05
-0.000183897
-4.29498e-05
-0.000138672
-9.08116e-05
0.000125585
-0.000118333
-9.66652e-05
-0.000270885
6.46739e-05
0.000118078
-3.41297e-05
0.000138546
-4.07602e-06
-2.37948e-05
-2.35584e-05
0.000338059
0.000127606
0.000249032
-0.000504748
-0.00046509
0.000136407
0.000371728
0.000358228
-0.000175061
0.000379584
-0.000308752
-0.000237593
-4.30303e-05
6.77671e-05
2.45059e-05
-0.000305088
-0.000154781
-0.00022317
-2.41618e-05
0.000133296
-0.000191121
0.000129445
-0.00013012
-0.000110466
-4.20471e-05
8.65335e-05
0.000102997
-8.17426e-05
-4.25361e-05
-0.000213744
2.85132e-05
0.000132687
-0.000132435
0.000195121
-1.65579e-05
-4.26612e-05
4.09998e-05
-6.6215e-05
6.8199e-05
-0.000396067
-0.000175056
-0.000352301
-4.91838e-05
0.000153962
-0.000200297
0.000188207
-1.31562e-05
-0.000132236
-2.39315e-05
-7.59292e-05
2.90853e-05
0.000176485
-0.000204245
-2.92987e-06
-4.85855e-05
4.6179e-05
0.00017953
-0.000140522
0.000246338
-1.25363e-05
-1.22892e-05
-3.54067e-05
-7.06301e-05
-0.000512084
-0.000229827
-0.000419915
-7.4774e-05
0.000159989
-0.00024745
-0.000144537
-9.13583e-05
5.04976e-05
8.19776e-06
5.46226e-05
9.46329e-05
-2.20452e-05
-8.00574e-06
5.24422e-05
8.21874e-05
7.49347e-05
8.83709e-05
8.50628e-05
9.38229e-05
6.27943e-05
1.89436e-06
5.98842e-05
4.18891e-05
3.82668e-05
3.83585e-05
3.55228e-05
2.76379e-05
3.57969e-05
1.99367e-05
-1.66873e-05
-4.87914e-07
3.28566e-05
2.6995e-05
9.05299e-06
-1.76888e-05
3.05895e-05
-8.26887e-06
1.44801e-06
2.7748e-05
4.38847e-06
2.50204e-05
2.57316e-05
4.50852e-05
1.52873e-05
5.8466e-05
4.78139e-05
2.60218e-05
7.77323e-06
1.50973e-05
-2.31918e-05
1.68766e-05
6.07075e-06
1.753e-07
-5.17604e-05
-3.52335e-06
3.84716e-05
0.000106788
6.18174e-05
7.31369e-05
