booster[0]:
bias:
-0.0944789
weight:
0.000140458
-0.000250689
0.000100122
9.32714e-05
-0.000499715
-0.000367998
7.0779e-05
0.000113981
5.80632e-05
-7.1378e-07
8.94151e-06
9.08094e-05
-0.000150208
-5.75513e-05
3.31687e-05
0.000112059
-1.24206e-05
0.000120503
1.01702e-05
-2.10323e-05
2.00882e-06
3.73825e-05
-0.0002944
-0.00019435
-4.82708e-05
-7.37248e-05
-0.000141701
-0.000554612
-3.12025e-06
-0.000365551
-0.000180181
1.16829e-05
-0.000223052
-1.25597e-05
-4.30942e-05
7.1613e-05
-0.000174093
-7.42391e-05
4.92031e-05
-2.30711e-05
-0.000343635
-0.000253109
-0.000615313
-0.000281461
-0.000369737
-0.000379355
-0.000810384
-0.000449898
0.000140159
8.04292e-05
-0.000151578
-0.000167442
-5.47573e-05
-0.00028072
-0.000103192
-0.000256434
-0.000191009
-0.000408135
-0.000434792
-0.000491408
-8.35747e-05
-0.00058921
-0.000585497
-0.000550506
-0.00017066
-0.000254731
-0.000195558
-0.000366748
-0.000426006
-0.000609879
-0.000382527
-0.000566657
-0.000429074
-0.000565386
-0.000461309
-0.000496871
-0.000297877
-0.000380719
-0.000255363
-0.000517618
-4.03178e-05
-0.000468178
-0.00050416
-0.000457175
-0.000304814
-0.000728787
-7.42286e-05
-0.000353778
-1.88342e-05
-0.000205785
-0.000232427
-9.30629e-05
-0.000146789
-9.2376e-05
-0.000282397
-0.000140071
-0.000545794
-7.73173e-05
-0.000368628
-0.000497326
-0.000237856
-0.000429093
-0.00041161
-0.000190688
-0.000656336
-0.000559657
-0.000382201
-3.54984e-05
-0.000103701
-0.000463198
-0.000708617
-0.000609034
-0.000552724
-0.000230517
-9.54135e-05
-0.000397791
-0.000387567
-0.000434614
-0.000499498
-0.000653713
-0.000351612
-1.26859e-05
-0.000589317
-0.000506311
-0.000342781
-0.000142388
6.30378e-06
-0.000136429
3.84325e-05
8.8721e-05
-0.000301451
0.00074064
5.23825e-05
0.000134744
-0.000231036
-0.000359542
5.69573e-05
-0.0001419
1.33888e-05
-9.33711e-05
0.000208976
-0.000124819
5.30734e-05
-0.000121949
4.57394e-05
-4.21602e-05
0.00048716
6.15508e-05
4.97128e-05
-0.000181417
-3.78344e-05
0.000164003
3.19132e-05
1.42416e-06
-7.85343e-05
0.000333595
0.000246091
9.70952e-05
0.000149068
0.000160085
-7.66205e-05
0.000247635
-0.000104334
0.000152222
-0.000112213
0.000230983
2.8108e-05
-3.60225e-05
0.000237285
-0.000224848
1.5207e-05
3.17504e-05
0.000192972
-6.65292e-05
-5.62249e-05
0.000140704
0.000124846
-5.41722e-05
-0.000115683
0.000170982
-9.85412e-07
-0.000233598
-6.83852e-05
-2.55581e-05
-1.71092e-05
-8.04272e-05
0.000394506
0.00036249
7.53866e-05
0.000107713
0.000162068
-1.41053e-05
3.001e-05
3.21995e-05
2.59483e-05
0.000129871
5.81224e-05
-3.98561e-05
-4.79671e-05
-0.000321603
-0.000184079
-4.30489e-05
-9.06943e-05
0.000259302
-0.000227173
1.05289e-05
-0.000375341
-0.000152925
-0.000177734
3.73612e-05
-3.74386e-05
-0.000240947
9.19798e-05
0.000190882
5.67313e-05
-0.000142633
0.000127402
-0.000118875
-0.000141016
-5.44236e-05
-0.000101986
-0.000170102
-0.000481898
-6.16408e-05
-1.3953e-05
-0.000116288
-0.000111662
-1.53682e-05
7.6258e-05
0.000100329
0.000467473
-2.30371e-05
-0.000298776
-9.03888e-05
-0.000648181
5.06367e-06
8.86675e-05
0.00010566
3.84297e-05
-4.37757e-05
0.000135051
2.21318e-06
1.27386e-06
3.00637e-05
7.76028e-05
1.60737e-05
9.77321e-06
-9.8175e-06
5.6851e-05
6.84702e-05
7.51212e-06
-0.000344889
0.000129284
0.000106539
5.15495e-05
4.43797e-05
0.000155632
0.000127168
7.44696e-05
3.74971e-05
2.86513e-05
-1.4786e-05
-0.000154226
7.08276e-05
2.79646e-06
8.60197e-05
-7.15309e-07
3.60148e-05
-4.32624e-05
-0.000271879
8.70827e-06
4.01698e-05
0.000142127
-3.22284e-05
-0.000389421
-2.87931e-07
6.93791e-05
3.55142e-05
6.14523e-05
4.42219e-05
0.000119656
-1.88327e-05
0.000191119
7.75469e-05
-2.27874e-05
-9.45765e-05
-0.000132124
3.01577e-05
0.000246796
0.000106818
5.82411e-05
0.000104405
-0.000124578
0.000297816
0.000190075
2.37966e-05
4.98949e-07
-6.32776e-05
6.47179e-05
-0.000114559
0.000126384
-2.2104e-05
-0.000444625
-0.000578542
-0.000459124
0.000177782
-5.19991e-05
-0.000135731
-0.00011906
2.39874e-05
-4.7151e-05
-2.91974e-05
-0.000120452
-2.75186e-05
4.77691e-05
-0.000229062
0.000136199
0.000266205
-0.00015668
-8.28608e-05
0.000192098
-9.72331e-05
-2.38443e-06
6.84637e-07
0.00021628
-7.85251e-06
-0.000114637
-2.71064e-05
0.000159459
8.20908e-06
3.00433e-05
0.0001422
0.000224091
3.84261e-05
-6.16526e-07
1.71023e-05
-0.000333777
-0.0001238
-6.97893e-05
1.90555e-05
0.000121879
-3.36291e-05
9.35757e-05
0.000129597
-3.58658e-06
0.000117519
-0.000259124
-1.03636e-05
5.16596e-05
-2.22355e-05
-0.000127656
-0.000103835
-3.61812e-05
-1.56586e-05
0.00028603
-0.00011648
-3.27401e-05
0.000130336
6.36289e-05
6.84206e-05
4.14026e-05
2.25738e-05
-0.000116996
0.000175621
-5.53715e-06
-0.000437648
5.83141e-05
-0.000177905
-3.02567e-05
0.000127795
3.60751e-05
3.13471e-06
0.0001327
-4.93373e-05
0.000128183
0.000101594
0.000144908
-0.00025371
4.83466e-07
8.53313e-05
-3.82706e-05
-0.000224059
5.31537e-06
-5.87238e-05
-5.25714e-05
-4.43527e-05
-0.00126028
-0.000281211
8.16252e-07
7.21724e-05
0.00013956
0.000183569
-5.2238e-05
-0.000101425
-0.00026319
-0.000266695
-0.000727374
-0.0011266
-0.00029148
8.40809e-05
0.000171654
2.25459e-05
-0.000184924
0.000117174
-5.88857e-05
-2.70991e-05
-1.7875e-05
9.76623e-06
0.000205434
3.34983e-06
1.23562e-05
2.71291e-05
1.58614e-06
0.000127929
1.29776e-05
-0.000155271
5.55788e-05
-0.000617404
0.00011248
-0.000186275
-2.22517e-05
0.00014218
0.000202728
0.000154601
5.00959e-06
-0.000100578
3.41588e-05
-7.93033e-05
7.12305e-05
-5.1365e-05
-0.000161657
0.000138321
0.00014258
0.000151642
-5.37161e-06
-0.000103325
3.91055e-05
0.000173733
-8.15826e-05
4.98566e-06
-4.33538e-05
1.92074e-05
4.99142e-05
7.36386e-06
1.58572e-05
-6.3194e-05
-8.59658e-06
5.20355e-05
-1.1091e-05
-1.72098e-05
-0.000170181
9.76174e-05
1.30834e-05
0.000192671
9.1624e-05
0.000250977
-1.81443e-05
0.000174949
5.61166e-07
0.000224197
1.78559e-05
0.000263821
-1.32251e-05
0.000198356
-9.17704e-06
0.000229352
2.32726e-05
2.06207e-05
-5.43972e-05
1.22585e-05
7.86687e-05
6.84288e-06
2.95056e-05
0.000175496
4.75533e-05
2.95828e-05
-0.000394201
3.73262e-06
5.92099e-05
3.28088e-05
-0.000267974
-1.38933e-05
0.00020308
0.000193719
0.000142208
9.80009e-06
-6.34901e-05
0.000255141
5.80029e-05
-2.88388e-07
-0.00099872
0.000218906
-0.000441495
-0.000528854
1.97758e-05
1.35918e-05
4.14909e-05
2.14945e-05
-3.73641e-06
7.10282e-05
-6.0943e-06
-2.37786e-05
1.18482e-05
-0.000241954
-4.95065e-06
0.000193876
-5.64749e-05
8.96609e-05
9.65407e-05
4.67374e-05
4.67378e-05
7.63641e-05
0.000129652
0.00014145
0.000115989
0.000119264
0.000117221
3.19104e-05
-6.04859e-05
-0.00043418
0.000184014
0.000225864
0.000147622
8.69868e-05
2.61244e-05
3.7422e-05
-0.000144379
0.000227903
0.000329733
-2.27374e-05
-9.09804e-05
4.36553e-05
-4.42582e-05
-2.46504e-05
-0.000378279
-0.000125346
-5.99889e-05
0.000151479
-4.54918e-05
-1.07722e-05
-1.69931e-05
2.57731e-05
1.84629e-05
2.44228e-05
8.09763e-05
-2.71076e-05
-8.28879e-06
-0.00011986
3.30807e-05
2.50914e-05
-3.38753e-05
-0.00036674
6.77295e-05
-7.4014e-05
4.39404e-05
2.92522e-06
1.96697e-05
-2.92277e-05
5.06001e-06
1.13145e-05
-0.000190945
-0.00242702
-0.00411774
-0.00227556
0.000107334
0.00015171
0.000206642
2.52189e-05
5.68717e-07
1.96247e-06
0.000212605
0.000165503
6.25054e-06
-7.45094e-05
3.32363e-05
-7.95795e-05
4.68032e-05
0.000131531
-8.88968e-05
6.12189e-05
7.2537e-07
-4.55011e-05
-0.000288463
-9.3951e-05
-0.000411044
5.90937e-05
0.00011681
-0.000471729
-4.06794e-05
-0.00188742
0.000235782
-3.95253e-05
-6.41246e-05
-2.23919e-05
1.64448e-05
-2.59388e-05
-6.64295e-06
-2.18973e-06
-6.18928e-06
-4.77785e-05
-4.96967e-05
5.38576e-05
-0.000237047
3.31719e-05
6.90421e-05
1.66813e-05
-7.98177e-06
-2.13578e-05
-2.25151e-05
7.48255e-06
7.59151e-05
7.01394e-05
5.08233e-05
8.27242e-05
0.000100181
6.13972e-05
-2.88462e-05
-0.000189683
-0.000131897
0.000135531
0.00013499
6.55105e-05
-2.37646e-05
-0.000117064
2.65709e-05
5.49346e-05
0.000166893
-3.15062e-05
-9.12589e-06
2.58954e-05
5.38397e-05
0.000188756
-2.90879e-05
-0.000493699
-0.00100262
-0.000674323
7.25642e-05
0.000169145
6.67356e-05
1.16324e-06
-7.84631e-06
3.13968e-05
-4.53883e-05
4.26181e-05
-0.000236599
0.000182647
0.000191621
0.000190225
0.000205048
5.22004e-06
1.49297e-05
-3.3556e-05
0.000202535
-3.6233e-05
-3.613e-05
-8.50913e-06
-2.38308e-05
-0.000123006
-3.1104e-05
-2.43326e-05
-2.83663e-05
-7.68199e-06
-1.19229e-06
-1.20901e-05
4.004e-06
-4.5503e-06
-1.35481e-05
-0.000541911
1.06833e-05
-2.3352e-05
8.26492e-05
-1.12941e-06
1.07208e-05
6.4602e-05
0.000111878
6.40006e-06
5.45131e-05
-1.76376e-05
-1.68128e-05
-0.000103543
-5.14541e-06
-0.000264726
-0.000505337
-0.000467993
-0.00030979
-1.98194e-05
-3.27356e-05
0.000152681
0.000231394
0.000230781
-0.00027632
-0.000250941
-5.11842e-05
-0.000206
-0.000282564
-0.000495765
-0.000470829
0.000119871
-0.000282633
-0.0004778
9.12943e-05
3.2295e-05
0.000215218
0.000318702
5.80762e-05
-3.22391e-05
-0.000147145
-3.31832e-05
-0.000616819
0.000257164
0.000239045
-0.00189702
-0.00138709
-0.000371002
-0.00252173
-8.03935e-06
-0.000348561
7.98939e-06
-3.32785e-05
-0.000127588
-7.40283e-05
0.00022064
-1.05013e-05
-0.000112534
0.000227937
8.02566e-05
-8.52618e-05
0.000200996
-4.66614e-06
-4.93129e-05
-6.22438e-05
-3.40409e-05
-3.81179e-05
-3.99204e-05
-6.28569e-05
0.000161921
2.03389e-05
-0.000111366
0.000321586
3.856e-05
-5.47736e-05
0.000181487
3.15228e-05
-6.93514e-05
0.000215797
5.77315e-05
-0.000123692
0.000181705
-3.8185e-05
0.000105452
-3.59487e-05
0.000100669
-0.000291262
-0.000108498
-0.000151185
-0.000132362
-0.000379968
0.000180743
0.000109289
0.00019253
-7.16367e-05
-4.27889e-05
0.000267911
-0.000116584
-2.3539e-05
-8.5291e-05
-6.40802e-05
-6.50145e-05
-7.66019e-05
-6.29275e-05
-0.00020485
-4.22053e-05
-9.42258e-05
-0.000105811
-8.56059e-07
-0.000108393
-7.65655e-05
-0.000117677
-0.000107309
-4.69688e-05
-5.33487e-05
-6.2921e-05
-7.78607e-05
-5.08388e-05
-0.000127275
-5.57041e-05
-7.80439e-05
-0.000145992
-0.000176254
-0.000120921
-0.00011688
-5.897e-05
-9.90827e-05
-4.72577e-05
-0.000114767
-1.58598e-05
-0.000118202
-0.000130927
-0.000146565
-5.74264e-05
-5.62266e-05
-9.77238e-05
-4.92588e-06
-9.37932e-05
-7.19485e-05
-0.000297176
-6.6011e-05
-0.000106168
-9.29373e-05
-5.03127e-05
-0.000204892
-3.84144e-05
-4.17449e-05
-0.000119067
-3.26769e-05
0.00015307
-0.000343677
-0.0017712
0.000506607
0.000617451
-0.0017862
9.40832e-05
-0.000939562
-0.000436759
3.88514e-05
0.00018638
-0.00130151
6.40398e-05
0.000148424
-0.00020764
-0.000159437
0.000349914
-0.000713039
-0.000184989
-0.00025566
-0.00039003
-0.000133188
-0.000203451
-0.000196901
-4.14949e-05
-0.00031168
-0.000100702
6.75116e-05
-0.00019016
0.000264342
-0.00023129
-4.98812e-05
-3.80108e-05
0.000347345
0.000693446
-0.000118643
-8.37296e-05
-0.000233865
0.000310391
-0.00206889
-3.17464e-05
-5.8349e-05
-0.000212724
-0.000157039
-2.43668e-05
-0.000392297
-0.000479619
-0.000715286
-2.93761e-05
-0.000223282
-0.000427753
-0.000297895
-0.000250666
-1.99725e-05
-0.000351913
-0.000425087
0.000450716
-6.21968e-05
-0.000241562
-0.000758281
0.000518308
0.000440758
-0.00047993
-0.000859015
0.000416869
-0.000403301
-0.000144391
-0.000180746
-0.000603079
-0.00035868
-0.000970448
-0.000259311
0.000221782
-0.000315247
-0.000645544
-0.000846324
-0.000501304
-0.000161289
2.57491e-05
-7.19306e-05
-0.000448742
0.000592472
3.15214e-05
-0.000210601
-0.000532707
0.000631327
0.000479888
-0.000144835
0.000129987
3.91104e-05
-0.00104584
0.000491495
9.54486e-05
-0.000447607
3.81657e-05
-0.000420514
-0.000253418
-0.000677245
-0.000219464
-0.00012859
-0.000530408
-0.000154393
-0.0006105
-0.000245706
5.63075e-05
-8.2982e-05
-0.000119949
-0.000316794
8.20668e-05
-6.38457e-05
-1.91698e-05
1.56622e-05
0.000448168
0.000577872
-0.000865807
0.000117752
-0.0016075
0.000248971
-2.66351e-05
0.000277836
0.000572791
9.76631e-05
0.00024227
0.000736337
-4.69376e-05
-0.00014819
-0.000181194
-7.05009e-05
-0.000426496
-0.00028238
-0.000107795
7.12336e-05
-3.762e-05
0.000517831
4.66609e-05
-6.42586e-05
-0.000463203
0.000566442
0.000396208
-0.000136184
7.93568e-05
-0.000801369
-0.000432136
-0.000405601
0.00026303
9.64499e-05
-0.000135495
-0.00039278
0.000484475
-0.00019851
-5.60569e-05
-0.000123617
-3.13694e-05
-4.89153e-05
-0.000278222
-6.44984e-05
-4.65574e-05
1.08765e-05
-9.60991e-05
0.000565089
-0.000354832
0.000739957
-1.24867e-05
-2.18834e-05
-0.000503691
0.000704723
0.000762949
-0.000158552
-0.000296874
-0.000328781
0.000122775
-0.000744268
-0.000238451
-9.66152e-05
-0.00016151
-0.000125225
-0.000110769
-0.000426874
-0.00104469
-0.000925021
-0.00089118
0.000638606
-0.00217546
-0.000611646
-0.000816388
-0.000782716
-0.00139402
0.000537098
-0.00103761
-0.000548207
-0.00144929
-0.00129659
-0.00224773
-0.00031005
0.000251525
-0.00358368
-0.000334541
6.49863e-05
-0.000547382
-0.00108162
0.000719586
-0.00173577
-0.00125611
-0.00039153
-0.00106581
-0.00168728
0.000765976
-0.00329172
-0.000407424
6.31221e-05
-0.000505646
-0.00185356
0.000479648
0.000181943
-0.00247491
-0.000215961
-0.000360675
-0.000569309
-0.00127546
0.000660903
0.000478073
-0.00304737
-0.000192912
-2.38805e-05
-0.000744955
-0.00180925
0.000613007
0.000339173
-0.00324033
-0.00012828
-0.000470676
-0.000395481
-0.000761413
-0.000289794
0.000432655
-0.000577893
0.000284615
-0.00124564
-0.00145365
-0.00101392
-0.00134185
-0.000229431
-0.000332486
-0.00111751
-0.000156564
4.62339e-05
-0.00120153
-0.000338667
-0.000514325
-0.000690075
7.69463e-05
0.000677301
2.31217e-05
-0.00102944
-0.000554914
0.000566536
-0.000526889
-0.00221033
-0.000410484
-0.000332711
-0.000328359
-0.000775821
-0.00054071
0.000225633
-0.00154842
0.000810006
0.000195188
-0.00135453
-5.28112e-05
-6.38114e-05
-0.000367917
-0.0015223
0.000606639
0.00029536
-0.00201377
-0.000157843
-5.34081e-05
-0.00066452
-0.00129944
0.000392994
0.000175691
-0.00232952
9.23412e-05
0.000140535
-0.000234594
-7.73539e-05
0.000280386
-0.00013875
0.000579554
5.96029e-05
-0.000269692
0.000565397
-0.000240742
-5.27949e-06
7.49595e-05
-0.000281825
-0.000201673
0.000129895
0.000161637
0.000757344
4.30853e-05
0.00035389
0.00075601
-0.000584813
-0.00185091
-0.00101538
-0.00191907
6.66687e-05
0.000175578
-0.00275372
5.2647e-05
-0.000539078
-0.000329441
0.000520894
-0.00155377
-0.00170209
-0.00106487
-0.00223748
0.000205307
7.54545e-05
-0.00209384
-0.000807723
-0.00215495
-0.000981736
-0.00168003
0.000444294
0.00043945
-0.0018721
-0.000695469
-0.00105606
-0.00103236
0.000630811
0.000136371
-0.00272358
-6.76542e-05
-0.000607482
-0.000363802
-0.000849039
-0.000431683
-0.000355714
-0.00204402
-0.00125006
0.000449601
-0.00216484
4.80331e-05
0.000147067
-5.89052e-06
-0.000164781
0.000188742
0.000177966
-0.000237932
-0.00094638
-0.000562058
0.000546713
-0.00200567
-0.000901042
-0.00078487
-0.000521098
0.000429996
-0.00247976
3.24959e-05
-0.000271407
-0.000339858
0.000387742
-0.000247119
0.000113078
0.00021991
1.98143e-05
-0.000151006
0.000354632
-0.000224002
-0.000181233
-0.00101358
-0.000598266
0.000492652
-0.00170203
3.87271e-05
0.000140239
-1.14691e-05
-0.00022716
0.000259129
0.000283032
-0.000301314
-0.000739232
0.00043608
-0.000283361
9.56031e-05
0.000214529
3.68081e-05
-0.000261263
0.000303039
-0.000266297
-0.000836587
-0.00084002
-9.71306e-05
0.000446556
-0.00129826
0.000115485
-0.000613162
-1.06602e-05
0.000465685
-0.00100137
-0.000483738
-0.000625168
-0.000414219
0.000510929
-0.00151464
-0.000138656
0.000285241
-8.01851e-05
-0.000949827
0.0003386
-0.000731348
0.000232058
0.000171092
-0.000366029
-0.000740635
0.000280858
0.00014726
-0.000458009
-7.69941e-05
8.33123e-05
-0.000345003
-0.000621557
0.000429169
-0.000956053
0.000147819
0.000108691
-0.000600367
-0.000736151
0.000149078
-0.00116652
-0.000572073
-0.000562834
-0.000970033
-0.000872126
9.07489e-05
-0.00147258
2.63678e-05
-0.000334343
-0.000379335
-0.00067095
0.000243464
-0.000780617
9.83282e-06
-0.000484027
-0.000934391
-0.000632472
0.000453281
-0.00163097
-0.000343689
-0.000741378
-0.000863362
-0.000432591
0.00038066
-0.00176744
5.49125e-06
0.000217432
-0.000516296
-0.000227988
0.000373743
-0.000940047
4.72381e-05
0.000179424
-4.70323e-06
-0.000204602
0.000209455
-0.000106731
5.34222e-05
-0.00071638
-8.79472e-05
0.000438503
0.000202158
-0.000264378
-0.000312699
-0.000633525
0.000417895
-4.55839e-05
-0.00116945
6.74398e-06
0.000304445
-0.000272823
-0.000803633
0.000286201
-0.000632419
-0.00096665
-0.00274043
-0.000950533
-0.00165305
0.000412256
0.00049557
-0.00224094
-3.60064e-06
-0.000109921
-0.000149437
-0.000241903
5.76033e-05
-0.000162503
-0.000769807
-0.000931405
-0.000727353
0.00047615
-0.00230092
6.82248e-06
0.000131451
-5.69225e-05
-7.23312e-05
0.000195073
-0.000709566
-0.00122454
-0.000739762
0.000258078
-0.0037922
-0.0021577
-0.000702064
-0.00130729
0.000200166
0.000593044
0.000340776
-0.00109862
-0.000354661
-0.000112769
-0.000796502
0.000635698
-0.00232343
0.00031122
-0.000291751
-0.000359278
0.000587849
-0.00179307
-3.81515e-05
-0.000519418
-0.000575497
-0.000780951
-0.000279384
9.38874e-05
-0.0014604
-0.000462137
-0.000739242
0.000686044
-0.00283076
-5.0596e-05
-0.000500467
-0.000476293
-0.000726996
-0.000338063
0.000308071
-0.00110942
-8.66432e-05
-0.000170298
0.000816269
-0.00229055
-6.59278e-05
-0.000752795
-0.000377054
-0.000950291
-0.000620556
6.04425e-05
-0.000117434
-0.000661319
0.000669263
-0.00132698
-0.000410719
-0.000910542
-0.000856554
-0.00103965
0.000584516
-0.00242082
-7.38483e-05
-0.000960553
-0.000525355
-0.00123928
-0.000706827
0.00031977
0.000157799
0.00026052
0.000131491
0.000793456
-0.000530898
-3.3892e-05
-0.00110953
-0.000856627
-0.00156687
0.000673215
-0.00196667
0.000170721
-0.000420797
-0.000445028
0.000263589
0.000508492
5.19418e-05
-0.0015629
-0.000480271
-0.000427199
-0.000611354
-0.000643415
0.000473931
0.000446524
-0.00206427
1.4993e-05
-0.000616537
-7.16452e-05
-0.000835148
0.000372367
-0.000608183
-0.000325918
-0.000209004
-0.00108239
-0.000755312
0.000185629
7.03305e-05
-0.00229173
-0.00012723
-4.36116e-05
-8.26565e-05
-0.000677856
0.000440518
0.000334022
-0.000847952
-0.000303561
0.000421443
-0.000202956
-0.000868534
0.000381158
0.000226183
-0.00185072
-0.000155577
0.000179906
-2.18961e-05
-0.000734701
0.000482551
0.000560647
-0.00119457
0.000199646
0.000220731
-7.57726e-05
0.000649728
-0.00163561
8.70391e-05
-0.000250295
-0.000300723
-0.000810138
0.000406154
-0.00185227
-0.000356375
-3.97401e-05
-0.000223838
-0.000305107
0.000417705
0.000414081
-0.00166274
6.81859e-05
-6.7114e-05
3.75154e-05
-0.00033058
0.000536565
0.00059206
-0.00100626
-0.000101763
0.000134353
0.000134345
-0.00107571
0.000423151
0.000442714
-0.00135526
0.000108711
0.000151634
5.9268e-05
0.000375225
0.000714416
0.000661966
-0.000895888
9.63918e-05
0.000272568
-0.000260933
-0.00121034
0.00055356
0.000495919
-0.000823478
-5.93741e-05
-0.000592757
-0.000471915
0.0003717
0.00050604
-0.00182859
-4.98283e-05
-7.59253e-05
-0.000686488
-0.000403156
0.000421467
-0.00200197
0.000126699
0.000248039
2.90717e-05
4.72518e-05
0.000666702
-0.000925755
-0.000104448
-0.00083503
-0.000590479
-0.00110776
-0.000276287
-0.000732571
-0.000778402
-0.000462956
-0.000514643
0.000682451
-0.00191342
-0.000211454
-0.000876025
-0.000488805
-0.00109935
-0.000687118
0.000138806
-5.9593e-05
-0.000534991
0.000148398
-0.000121687
-0.000194117
-0.000612057
-0.000464799
-0.000855546
-0.000421374
-4.82154e-05
-8.12633e-05
-0.000577862
0.000553589
-0.00168677
-8.33908e-06
-0.000688779
-0.000518986
-0.00122787
-0.000463917
-0.000174454
-0.00032862
-0.00162678
-0.000173937
0.000154234
-0.000433323
-1.15985e-05
-0.000474454
-0.000262398
-0.000914193
-0.000152614
-0.000385735
-0.000561098
-0.000563856
-0.000846008
0.000605905
-0.00141009
4.15881e-06
-0.00027351
-0.000217009
-0.000614308
0.000122115
-0.000291655
-0.00028854
-0.000255993
-0.00076966
0.000656323
-0.00220608
2.06415e-05
-0.000166779
-0.000302825
-0.000487899
0.000181064
0.000524433
-9.85922e-05
-0.000626006
0.00053063
0.000447431
-0.000102245
0.000234749
-8.94339e-06
-0.000137507
-0.00179557
0.00033409
0.000486646
-0.000514133
-0.000112016
-0.00106654
-0.000764323
-0.00131746
-0.000738012
-0.000493589
-0.000692814
-0.00182946
0.000308018
0.00023408
-0.00148228
2.86795e-05
-0.000526262
-0.000369372
-0.000763909
-0.000151091
-0.000116947
4.8263e-05
-0.000133455
0.000224763
0.000763577
-0.00113166
2.9734e-05
-0.000767942
-0.000479126
-0.0011006
-0.000345536
-0.000268
-0.000454823
-0.000252917
-0.000196046
0.000740957
-0.00161869
-0.000151059
-0.000629335
-0.00054721
-0.000787682
-0.000355497
-0.000462116
0.000262243
-0.000198608
-5.8859e-05
0.000600032
-0.000801806
0.000124516
-0.000151588
-0.000325505
-0.00064146
0.000320607
0.000143662
-0.00034672
-0.000187863
-0.000711913
0.000675517
-0.00146538
5.79784e-05
5.25675e-05
-7.53417e-05
-0.000371982
0.000163218
-0.000454803
0.000206875
-0.000867555
-0.000444035
0.000494897
-0.000962443
-9.36848e-05
-0.00041208
-0.000278842
-0.00073345
-2.138e-05
0.000287509
-0.000152952
4.03475e-05
-0.000166831
0.000451211
-0.000624124
-3.01684e-06
-0.000141353
-0.00049012
-0.000609633
0.000618235
-0.00100801
0.000302172
-5.23399e-05
-1.42435e-05
-0.000266776
0.00039698
-0.00146069
0.000127308
3.46384e-05
-2.59791e-05
-0.000281455
0.000366477
8.35778e-05
-0.000341864
-0.000450986
-0.000889632
0.000472913
-0.000276946
9.57456e-06
-7.79811e-05
-0.00013913
-0.000263637
0.000134362
0.000203416
-0.000179779
-7.93671e-05
-0.000186943
0.000608774
-0.00105765
-1.48338e-05
0.000539866
-3.19985e-05
-0.000610622
0.000632054
-0.000419707
7.01646e-05
0.000181797
-0.000147567
-6.84293e-05
0.000389177
0.000399696
-2.7446e-06
-0.000512105
-0.000773517
0.000641257
-0.00120686
-7.52617e-05
3.658e-06
-0.000613555
-0.000104918
0.000350224
0.000440894
-0.000855467
-0.000199585
7.93517e-05
-0.000546016
-0.000490322
0.000509445
0.000481904
-0.000957497
1.33073e-05
0.000222319
-1.79309e-05
-0.000783441
0.000627891
0.000445867
-0.000422111
0.000182786
-0.000116791
-0.000130582
-0.000653288
0.000544149
-0.000308613
0.000440195
-0.000309985
-9.82327e-06
-0.000230362
0.000792764
-0.000468202
9.84167e-05
-0.000143466
-0.000293315
-0.000151767
0.000357399
-0.00111783
-0.0003658
0.000101184
-0.000194253
0.000701933
0.000536083
-0.000730684
-0.000116419
-0.000385423
-0.000455046
-0.000469137
0.000568185
0.000483501
-0.00081732
-2.75043e-05
-0.000287503
-0.000238332
-0.000477752
-7.5373e-05
6.24429e-05
-0.000121925
-5.70603e-05
-0.000793078
0.00038955
-0.000546834
-0.000157206
9.0134e-05
-0.000774914
0.000495996
0.00052992
-0.000304101
5.25766e-05
1.78397e-05
-0.000226373
-6.06536e-05
0.00051312
0.00068616
-0.000615871
0.000162038
0.000760385
0.000212793
-0.000271852
0.00051945
-6.07842e-05
0.000258867
0.000208326
7.79623e-05
3.46852e-05
0.000175335
-0.000914399
0.000122829
-0.000176035
-0.000167268
-0.00274192
-0.000693786
-0.00137185
-4.40031e-05
0.000262818
-0.00107953
0.000197753
-0.0015924
0.000216002
4.40513e-05
-0.000283622
-0.00195293
-0.000783795
-0.00084721
7.51522e-05
0.000348641
-0.000897326
0.000290311
-0.00180853
-0.000171567
-0.000614011
-0.000153731
-0.000663392
0.000180258
-0.000460274
-0.00129282
-0.000606853
-0.00014147
-0.000776115
6.5982e-05
-0.000671958
5.47502e-05
-0.00067403
0.000245198
0.000274114
-0.00222555
-0.000396832
-0.00120903
0.000151341
0.00053355
-0.000736352
0.00065121
-0.000605003
-0.000185345
0.000193969
0.000125474
-0.000146138
-0.000197745
-0.000160829
-0.00140284
-1.01672e-05
0.000411058
-0.000331718
0.000382851
-0.00121495
-4.96696e-05
-0.000398691
-0.000299405
-0.000157222
-0.000741366
-0.000294887
-0.000736737
0.000105566
0.000562308
-0.000962902
0.000302762
-0.00155125
-1.28138e-05
-0.000675612
0.000239346
-3.2883e-05
-0.000462209
-0.000592258
-0.000729094
0.000177051
0.000767818
-0.00086146
0.000336531
-0.000150133
-0.000132489
-0.000233701
-0.000282645
-0.000272081
-0.00303821
-0.000825259
-0.00117164
-4.87587e-06
0.000546736
-0.00121763
0.000102057
-0.00125705
-0.000729018
-0.00035841
-0.000158456
-0.000140355
-0.00153756
-0.000470285
-0.000918436
-7.8114e-05
0.000507553
-0.00118988
0.000343875
-0.000154278
-0.00123851
-0.000326429
-0.00142801
-0.00118609
-0.000325702
-0.000523414
-0.000423212
-0.00174481
-0.000429636
-0.000182539
-0.000563688
-0.000212951
-1.20758e-05
-0.000198133
-6.18393e-05
0.000129833
-0.00041028
-0.000586314
-0.00097732
-0.00144782
-0.000668258
0.000227282
0.000126739
-0.00116964
0.000331928
-0.00156671
-0.00115741
-0.00050896
0.000312495
-0.000168058
-0.000896187
-0.00068455
-0.000750995
7.36897e-05
0.000586473
-0.000930102
0.000432932
-0.000910081
-0.000479776
-0.00063534
0.000231556
0.000210604
-7.34585e-05
-0.00018092
-0.00114882
0.000235374
0.00056295
-0.000753404
0.000630397
-0.000135201
-0.000227042
-0.000275179
-0.000399012
-0.000190046
-0.00100277
-0.000583539
-0.00133537
-0.000134792
0.00048253
-0.000973484
0.000383229
-7.22904e-05
-0.000952652
-6.31475e-05
-0.000646587
8.1384e-05
0.00035179
-0.000541288
0.000264581
-0.000356758
0.000265716
0.000656643
-0.000693671
0.00071588
-8.29104e-05
-7.89158e-05
-0.000347348
-0.000632985
-0.00184091
-0.000825259
-0.00158924
-0.000245568
0.000490616
-0.0011137
-0.00104774
-0.000440101
0.000142925
-0.000131858
0.000114542
0.000101697
-0.000319628
-0.000216374
9.86148e-05
0.00011861
7.41764e-05
3.58609e-05
4.39808e-05
0.000104955
-6.95185e-05
-1.01822e-05
6.58311e-05
0.000117655
3.17891e-05
0.000127984
5.02001e-05
2.48779e-05
4.15683e-05
5.7541e-05
-0.000183352
-0.000108522
1.29358e-06
-1.88449e-05
-6.23466e-05
-0.000346903
4.4518e-05
-0.000228379
-8.64545e-05
4.22139e-05
-0.000123995
3.71435e-05
5.66922e-06
0.000101347
-8.87763e-05
-1.98037e-05
7.28827e-05
2.25622e-05
-0.000195395
-0.000132761
-0.00038909
-0.00015159
-0.000214432
-0.000223928
-0.000542729
-0.000272926
0.000125396
9.71537e-05
-7.77443e-05
-7.81392e-05
6.93587e-06
-0.00016159
-4.37994e-05
-0.000140703
-0.000105412
-0.000258577
-0.000274791
-0.000309423
-1.77901e-05
-0.000387616
-0.000385807
-0.000358408
-7.99275e-05
-0.000153191
-0.000110342
-0.00023147
-0.00027155
-0.000403826
-0.000233402
-0.000361528
-0.000268155
-0.000361623
-0.000288035
-0.000316292
-0.000171727
-0.000231274
-0.000138812
-0.000329026
5.92935e-06
-0.000299226
-0.000321065
-0.000280683
-0.000172021
-0.000477621
-1.86357e-05
-0.000207246
2.45102e-05
-0.000110343
-0.000128623
-3.16331e-05
-6.83678e-05
-3.07716e-05
-0.000165002
-6.59769e-05
-0.000348935
-1.56938e-05
-0.000224485
-0.000307808
-0.000127667
-0.000275923
-0.00026164
-0.000104573
-0.000432929
-0.000362422
-0.000246653
8.22145e-06
-4.22858e-05
-0.0002881
-0.00046228
-0.000387458
-0.000353093
-0.000131579
-3.68995e-05
-0.000250744
-0.000247162
-0.000278756
-0.000314926
-0.000430845
-0.000217495
2.04085e-05
-0.000393695
-0.00031659
-0.000202236
-8.57356e-05
5.41061e-06
-8.42492e-05
2.98132e-05
6.90938e-05
-0.000205727
0.000559789
4.89498e-05
0.000109881
-0.000148667
-0.000250422
5.08312e-05
-9.19828e-05
1.06128e-05
-5.74077e-05
0.000150122
-7.67137e-05
3.89196e-05
-7.28444e-05
3.01011e-05
-1.83851e-05
0.000359907
5.92756e-05
4.42487e-05
-0.000114797
-2.70104e-05
0.000144251
2.83514e-05
1.86438e-06
-5.12768e-05
0.0003022
0.000226801
0.000101671
0.000142084
0.000141244
-4.41311e-05
0.000172635
-6.21181e-05
0.000102255
-6.80418e-05
0.000161451
2.98625e-05
-1.32414e-05
0.000167629
-0.000140956
1.98059e-05
3.74889e-05
0.00017949
-4.20959e-05
-3.48449e-05
0.000131748
0.000117395
-2.74989e-05
-8.0018e-05
0.000162605
-1.53059e-07
-0.000161494
-4.75986e-05
-4.85665e-06
8.55666e-06
-4.58482e-05
0.000344661
0.00031926
6.86021e-05
0.000102275
0.000155514
1.58379e-05
3.32897e-05
3.3288e-05
2.69057e-05
0.000121851
6.0134e-05
-2.26924e-05
-3.34412e-05
-0.000221576
-0.000124898
-2.88242e-05
-6.24213e-05
0.00023502
-0.000142446
1.04059e-05
-0.00025883
-0.000106598
-0.000119256
3.93869e-05
-2.30363e-05
-0.000161275
8.68286e-05
0.0001772
5.39891e-05
-7.86892e-05
0.000119153
-7.6508e-05
-8.97345e-05
-3.26951e-05
-6.14095e-05
-0.000113088
-0.00032213
-3.60015e-05
-8.71402e-06
-6.23513e-05
-6.4681e-05
-3.93175e-06
0.000100424
0.000118798
0.000402272
8.80462e-06
-0.000199151
-5.87735e-05
-0.000419174
5.39232e-06
8.46104e-05
0.000108205
4.35193e-05
-2.19738e-05
0.000129517
1.44329e-05
1.11883e-05
3.00908e-05
9.22526e-05
1.61601e-05
8.87658e-06
-4.28247e-06
7.56375e-05
8.65558e-05
2.43074e-05
-0.000229233
0.000123787
0.000104057
5.41166e-05
6.44443e-05
0.000158671
0.000119533
7.87025e-05
3.97226e-05
2.82117e-05
-1.02336e-05
-0.000104361
6.44664e-05
3.62772e-06
7.91587e-05
1.93653e-06
3.46303e-05
-2.85202e-05
-0.000188081
1.40176e-05
5.78112e-05
0.000146564
-2.19669e-05
-0.000268075
5.47291e-07
6.31145e-05
3.61889e-05
6.78926e-05
4.13263e-05
0.000108167
-5.01938e-06
0.000175794
7.64074e-05
-1.44033e-05
-5.827e-05
-8.72398e-05
4.18645e-05
0.000236413
0.000102667
5.5005e-05
9.80011e-05
-8.38508e-05
0.000275444
0.000176704
2.3129e-05
1.85695e-06
-4.18346e-05
6.42709e-05
-7.43278e-05
0.000123621
-3.2782e-06
-0.000304194
-0.000397598
-0.000315848
0.000166225
-2.40676e-05
-9.34675e-05
-8.07321e-05
3.56736e-05
-2.66559e-05
1.57315e-05
-6.83946e-05
-1.58662e-05
5.85948e-05
-0.000152121
0.000151025
0.000249178
-0.000103965
-5.34699e-05
0.000178334
-4.3571e-05
1.55204e-06
6.67758e-06
0.000199944
-5.20588e-06
-7.5185e-05
-1.1716e-05
0.00015297
1.11113e-05
2.80193e-05
0.000162746
0.000229727
4.19588e-05
7.7471e-07
2.21021e-05
-0.000195202
-7.85333e-05
-4.10094e-05
1.82499e-05
0.00011736
6.82415e-06
0.000101914
0.000121266
1.34115e-06
0.000119424
-0.000176751
-3.52508e-06
8.76957e-05
-1.25604e-05
-7.83048e-05
-6.42455e-05
1.39739e-05
3.0896e-05
0.000277239
-6.9783e-05
-1.7933e-05
0.000119496
6.18054e-05
6.65609e-05
3.89304e-05
2.46715e-05
-7.57778e-05
0.000168686
4.05357e-06
-0.000286656
5.48595e-05
-0.000105487
-1.14093e-05
0.000121935
5.84062e-05
6.67867e-06
0.000121081
-3.29339e-05
0.000127
8.87403e-05
0.000135925
-0.000168925
7.09079e-06
8.49325e-05
-1.12316e-06
-0.000110878
2.8413e-05
-3.16232e-05
2.16833e-05
-2.61413e-05
-0.000860616
-0.000187224
1.68526e-05
8.6474e-05
0.000135605
0.000173258
-2.96405e-05
-7.03313e-05
-0.000181924
-0.000184263
-0.000495184
-0.000773223
-0.000194563
8.4011e-05
0.000183188
2.07886e-05
-0.000122721
0.000107264
-3.92121e-05
-1.29415e-05
-1.22021e-05
2.01839e-05
0.00019021
1.49973e-05
1.16272e-05
2.5333e-05
9.92724e-06
0.000129838
1.3532e-05
-0.000100402
5.19148e-05
-0.000426345
0.000107353
-0.000131103
-1.54972e-05
0.000134691
0.000193673
0.000152961
5.07843e-06
-6.11102e-05
3.22156e-05
-3.9136e-05
6.65105e-05
-3.68135e-05
-0.000107459
0.000147749
0.00014409
0.000142239
-3.36922e-06
-6.69068e-05
4.1298e-05
0.000160166
-4.89521e-05
7.23875e-06
-2.69858e-05
3.59375e-05
6.86559e-05
8.37455e-06
1.8943e-05
-2.89773e-05
-1.68368e-06
5.90495e-05
-7.44741e-06
-1.09313e-05
-9.54665e-05
0.000121317
2.14526e-05
0.000187571
9.34479e-05
0.000233297
-5.45603e-06
0.000174959
3.33585e-06
0.000208044
3.16452e-05
0.00024693
-4.2689e-06
0.000193101
-3.40085e-06
0.000218405
2.66383e-05
2.03593e-05
-3.44201e-05
1.13326e-05
7.41393e-05
7.21685e-06
2.80417e-05
0.000133606
4.5495e-05
3.09293e-05
-0.000268729
9.54485e-06
5.42293e-05
3.00458e-05
-0.000183341
-8.214e-06
0.000180786
0.00014487
0.000134182
1.12128e-05
-2.04819e-05
0.000239181
7.19949e-05
1.1232e-05
-0.000668052
0.000201367
-0.000302855
-0.000359256
3.87266e-05
4.23342e-05
4.14543e-05
2.03341e-05
-2.28861e-06
7.03397e-05
-4.01007e-06
-1.58913e-05
1.04149e-05
-0.000157312
-1.30498e-07
0.000182135
-3.69586e-05
8.49828e-05
9.55794e-05
4.32508e-05
4.34574e-05
6.83016e-05
0.000121948
0.000132559
0.000111331
0.000107925
9.90993e-05
2.9683e-05
-3.54141e-05
-0.000294152
0.000176113
0.000203917
0.000136157
8.29762e-05
3.21194e-05
3.56554e-05
-0.000100675
0.000205138
0.000303028
-1.51183e-05
-6.11986e-05
5.71345e-05
-2.93838e-05
-6.96288e-06
-0.000259488
-6.63418e-05
-4.01418e-05
0.000148086
-1.3619e-05
-4.33242e-06
-9.40652e-06
2.5678e-05
2.15812e-05
2.55862e-05
7.64442e-05
-1.7112e-05
-5.54295e-06
-7.72768e-05
3.68599e-05
2.36774e-05
-1.90108e-05
-0.000255124
6.41186e-05
-5.0484e-05
4.23601e-05
2.91111e-06
1.87005e-05
-1.84605e-05
5.64842e-06
1.06513e-05
-0.000129088
-0.00170585
-0.00301027
-0.00159787
0.000100557
0.000140526
0.000194718
2.42741e-05
6.80076e-06
3.38878e-06
0.000191075
0.000163219
1.49493e-05
-5.01338e-05
3.82975e-05
-5.36038e-05
4.37286e-05
0.000131223
-6.27511e-05
5.82861e-05
4.35947e-06
-2.92924e-05
-0.000191682
-6.11767e-05
-0.000283238
5.57415e-05
0.000116159
-0.000321635
-1.86629e-05
-0.00131492
0.000226519
-2.0149e-05
-3.72483e-05
2.34788e-07
1.66919e-05
-1.63469e-05
-4.26561e-06
1.65098e-05
-3.97615e-06
-3.28447e-05
-3.27383e-05
7.75135e-05
-0.000158744
3.38411e-05
7.31877e-05
2.06199e-05
-3.40386e-06
-1.1771e-05
-1.39254e-05
1.07362e-05
7.67664e-05
7.48049e-05
8.2963e-05
9.87588e-05
0.00011439
5.91825e-05
-1.5779e-05
-0.000117199
-8.68378e-05
0.000128099
0.000127533
6.34454e-05
-1.56363e-05
-8.10217e-05
2.93241e-05
5.44658e-05
0.000162649
-2.00491e-05
-5.62991e-06
3.74305e-05
6.95736e-05
0.000183489
1.88645e-05
-0.000319346
-0.000681561
-0.000456223
9.31843e-05
0.000176417
6.58329e-05
2.33995e-06
-4.25795e-06
3.37352e-05
-2.09089e-05
4.18476e-05
-0.000145657
0.000180652
0.000189112
0.000188184
0.000199177
2.13341e-05
3.21947e-05
-2.15399e-05
0.000196135
-2.39019e-05
-2.20258e-05
1.07187e-07
-1.44897e-05
-7.99073e-05
-1.19122e-05
-1.55744e-05
-1.06943e-05
-3.25938e-06
1.78722e-06
-6.37585e-06
7.55869e-06
1.4294e-06
-8.07394e-06
-0.000369303
1.84953e-05
-3.84143e-06
0.000106974
1.67337e-06
1.12519e-05
5.96473e-05
0.000105292
8.5535e-06
5.43761e-05
1.49649e-05
-9.73604e-06
-7.03574e-05
-3.5704e-06
-0.000179428
-0.000345652
-0.000322814
-0.000208265
1.39211e-05
-6.45463e-06
0.000147842
0.000231699
0.000226573
-0.000186199
-0.00016796
-3.15563e-05
-0.000137642
-0.000187145
-0.000343602
-0.000321478
0.000128621
-0.000192152
-0.000328835
9.67544e-05
5.45061e-05
0.000202647
0.000234847
5.76844e-05
-2.20418e-05
-7.90362e-05
-2.20496e-05
-0.000408053
0.000250518
0.000229407
-0.00133469
-0.000960298
-0.000238476
-0.00170228
-2.18256e-06
-0.0002383
9.60479e-06
-1.59076e-05
-6.79948e-05
-4.40747e-05
0.000202371
1.60099e-06
-6.89962e-05
0.000208741
7.10863e-05
-5.35975e-05
0.000193704
3.8185e-06
-2.49184e-05
-3.40174e-05
-1.81089e-05
-1.87035e-05
-2.76643e-05
-4.22649e-05
0.000152812
1.94841e-05
-7.31218e-05
0.000293471
3.60237e-05
-3.521e-05
0.000182543
2.92145e-05
-4.27263e-05
0.000200854
5.48175e-05
-8.14884e-05
0.00017579
-1.69429e-05
9.80761e-05
-2.0893e-05
9.93626e-05
-0.000198168
-6.98179e-05
-0.000101128
-8.8559e-05
-0.000259345
0.000170964
0.000118772
0.00017774
-4.31661e-05
-2.31976e-05
0.000246087
-7.32424e-05
-5.86593e-06
-4.71434e-05
-3.22521e-05
-3.15831e-05
-4.21485e-05
-3.45553e-05
-0.000133952
-1.49061e-05
-5.88327e-05
-6.58991e-05
8.96304e-07
-6.74368e-05
-4.46339e-05
-7.28517e-05
-6.49217e-05
-2.47339e-05
-2.91858e-05
-3.52832e-05
-4.29602e-05
-2.67846e-05
-7.70516e-05
-3.05701e-05
-3.88373e-05
-8.90845e-05
-0.000115632
-7.54293e-05
-7.53113e-05
-3.42647e-05
-6.39412e-05
-2.34597e-05
-6.86673e-05
-5.58668e-06
-7.22484e-05
-8.17999e-05
-8.98622e-05
-3.07272e-05
-3.15062e-05
-6.14102e-05
6.98174e-06
-5.31466e-05
-4.25091e-05
-0.000201428
-3.93024e-05
-5.8537e-05
-5.57724e-05
-2.5037e-05
-0.000132515
-1.67696e-05
-2.09053e-05
-7.87944e-05
-1.12691e-05
0.000106063
-0.000276479
-0.00137269
0.000465464
0.000564071
-0.00119948
7.25106e-05
-0.000649875
-0.000310401
5.99799e-05
0.00015015
-0.000869022
7.32655e-05
0.000186228
-0.000125391
-7.41124e-05
0.000338447
-0.000485716
-0.000126211
-0.000175547
-0.000268372
-9.1489e-05
-0.00014169
-0.000122433
-2.58272e-05
-0.000200235
-6.88642e-05
5.89255e-05
-9.17493e-05
0.000214888
-0.000204349
-3.04514e-05
5.79022e-06
0.000344595
0.000604769
-7.1752e-05
-6.1164e-05
-0.000166937
0.000279366
-0.00141524
-2.74315e-05
-4.78782e-06
-0.000136203
-9.93451e-05
1.70983e-05
-0.000232442
-0.000310792
-0.000536691
6.58694e-05
-0.000150817
-0.000277611
-0.000198962
-0.000163914
4.13756e-05
-0.000237967
-0.000253384
0.00034542
-4.30513e-05
-0.000120303
-0.000528187
0.000417264
0.000363461
-0.000332439
-0.000671557
0.000384007
-0.000267653
-5.8255e-05
-9.95558e-05
-0.000375637
-0.000225991
-0.000687674
-0.000119765
0.000240953
-0.000205227
-0.000440989
-0.000617439
-0.000321354
-5.77322e-05
6.83755e-05
-4.9457e-05
-0.00027302
0.000448327
-1.05105e-05
-0.000118966
-0.000410847
0.000544785
0.000425947
-5.31121e-05
0.000135712
4.54335e-05
-0.000732178
0.000447972
0.000174708
-0.000280494
7.39389e-05
-0.000224113
-0.000134284
-0.000456353
-5.90306e-05
-4.28784e-05
-0.000360309
-4.95666e-05
-0.000423028
-0.000147426
6.25705e-05
2.03351e-05
-7.2441e-05
-0.00016281
5.99202e-05
-9.77255e-05
6.69231e-05
3.08694e-05
0.000411739
0.000499529
-0.000647697
0.000146864
-0.00109217
0.000279635
2.86306e-05
0.000233693
0.000538921
0.000101401
0.000279836
0.000659319
-3.20932e-05
-0.000102509
-0.000131933
-4.87759e-05
-0.000310578
-0.000209923
-6.69609e-05
7.3096e-05
9.7225e-09
0.000395622
1.56226e-05
-4.38586e-05
-0.000323217
0.000501237
0.000344876
-0.000103209
8.46255e-05
-0.000546983
-0.000301348
-0.000287622
0.00022897
0.000158154
-5.99376e-05
-0.000275324
0.000469052
-0.000124008
-3.76969e-05
-7.16236e-05
-1.7398e-05
-3.07861e-05
-0.000189534
-4.04742e-05
-1.4662e-05
3.73757e-05
-6.67849e-05
0.000457508
-0.000233772
0.000572216
-3.85946e-05
-1.85149e-06
-0.000349887
0.000619183
0.000668267
-0.000107064
-0.000231116
-0.000234448
0.00012864
-0.000508023
-0.00015524
-6.80739e-05
-0.000104266
-8.37391e-05
-7.57231e-05
-0.000264546
-0.000870823
-0.000897545
-0.000658522
0.000577108
-0.00149614
-0.000382319
-0.000664957
-0.000721341
-0.00108607
0.000490922
-0.000705278
-0.000371339
-0.0011721
-0.00120928
-0.00177375
-0.000153476
0.00025458
-0.00256314
-0.000192417
4.60655e-05
-0.000449105
-0.000929865
0.000638841
-0.00116779
-0.000875889
-0.000306557
-0.001126
-0.00139633
0.000684084
-0.00234028
-0.0002302
4.79337e-05
-0.00045614
-0.00143289
0.000450736
0.000184541
-0.00169613
-9.85458e-05
-0.000309126
-0.000526466
-0.00102049
0.000615127
0.000451538
-0.00213686
-7.95533e-05
-2.54823e-05
-0.000664518
-0.00137679
0.000564775
0.000319863
-0.00227383
-4.89458e-05
-0.000250849
-0.000239093
-0.000503269
-0.000115962
0.000397647
-0.000375287
0.000239755
-0.000866529
-0.00103044
-0.000693208
-0.000941625
-8.26614e-05
-0.000177987
-0.000764762
-6.57261e-05
0.000154128
-0.00102351
-0.000351536
-0.000302407
-0.00053039
0.000140532
0.000614653
7.98954e-05
-0.000784969
-0.000441643
0.000552784
-0.000367908
-0.00156517
-0.000310806
-0.000145312
-0.000137249
-0.000499973
-0.000447218
0.00014638
-0.00119959
0.00073448
0.000197468
-0.000908567
-1.00714e-06
-5.65567e-05
-0.000321381
-0.00115617
0.00055769
0.000289987
-0.00135698
-5.17161e-05
-4.96246e-05
-0.000585387
-0.000962144
0.000387579
0.000205689
-0.00158506
9.58646e-05
0.000181902
-0.000141515
3.55335e-06
0.000284267
-9.16329e-05
0.000456176
2.75291e-05
-0.000182829
0.000479571
-0.000163905
2.43441e-05
0.000121865
-0.000177413
-0.00010117
0.000162165
0.000166833
0.000588654
1.6515e-05
0.000302947
0.000649501
-0.000416571
-0.00151174
-0.000890633
-0.00164446
0.000154785
0.000261205
-0.00188821
8.03508e-05
-0.000495881
-0.000246019
0.000429234
-0.00107441
-0.0015517
-0.00101968
-0.00213249
0.000221596
0.000136276
-0.00142925
-0.000573685
-0.00182804
-0.000932087
-0.00138575
0.00042471
0.000433857
-0.00128182
-0.000586682
-0.00107406
-0.000968253
0.000555923
0.000115102
-0.00190977
-2.14938e-05
-0.000421821
-0.000240187
-0.00064408
-0.000271475
-0.000370757
-0.00166851
-0.00105597
0.000400083
-0.0015079
6.28545e-05
0.000177926
2.25873e-05
-8.62549e-05
0.000203167
0.000189731
-0.000264535
-0.000937864
-0.00046293
0.000488548
-0.00143865
-0.000835515
-0.000795767
-0.000421477
0.000410305
-0.00174657
1.75268e-05
-0.000199184
-0.000255917
0.000351897
-0.000164701
0.000110031
0.000242812
4.12485e-05
-8.45344e-05
0.000347864
-0.000111345
-0.000160082
-0.000971648
-0.000524362
0.000448877
-0.0011465
5.24915e-05
0.000175768
1.53741e-05
-0.000141913
0.0002649
0.000185853
-0.00025364
-0.000544172
0.000394008
-0.000188451
9.60823e-05
0.000242543
5.33349e-05
-0.00017578
0.000313313
-0.000146613
-0.000813379
-0.000812098
-7.71422e-05
0.000416425
-0.000875973
5.96703e-05
-0.000458926
1.35083e-05
0.000419319
-0.000672757
-0.000420608
-0.00063741
-0.000335522
0.000471248
-0.00104837
-4.43912e-05
0.000205837
-8.22778e-05
-0.000811989
0.000337454
-0.000490774
0.000249208
0.000124715
-0.000317222
-0.00060543
0.000290948
0.000181344
-0.000306523
6.47332e-06
4.37791e-05
-0.000334068
-0.000524838
0.000410721
-0.000642552
0.000195392
7.44024e-05
-0.00044841
-0.000612452
0.000188749
-0.000786872
-0.000454479
-0.000479045
-0.000938806
-0.000806909
0.000143618
-0.000973409
0.000125516
-0.000226464
-0.000306585
-0.000488255
0.000290321
-0.000517167
9.8164e-05
-0.000345491
-0.000828172
-0.000501484
0.000458036
-0.00108353
-0.000171294
-0.000558959
-0.000792661
-0.000281966
0.000403763
-0.00118293
0.000103206
0.000190614
-0.000425573
-0.000102241
0.000384444
-0.00062234
6.63443e-05
0.000237698
3.03163e-05
-6.02242e-05
0.000253013
7.37675e-06
6.51814e-05
-0.000590959
-2.79687e-06
0.000418587
0.00023656
-0.000161921
-0.000230213
-0.000485975
0.000408599
2.77191e-05
-0.000772218
0.000102657
0.000238309
-0.000206102
-0.000605328
0.000311915
-0.000416784
-0.000699209
-0.00224709
-0.000875165
-0.00144833
0.000440809
0.000513353
-0.00151752
2.82859e-05
-9.15417e-07
-7.43422e-05
-0.0001069
0.000122059
-4.86312e-05
-0.000617614
-0.000879519
-0.000618994
0.000456379
-0.00156448
3.42449e-05
0.000181607
-1.01852e-05
3.19078e-05
0.000221115
-0.000569598
-0.0011543
-0.000612696
0.000285761
-0.00273377
-0.00176208
-0.000595183
-0.00103966
0.000264823
0.000573126
0.000397038
-0.000740575
-0.000272321
-0.000106614
-0.000622084
0.000573009
-0.00158182
0.000241985
-0.000248671
-0.000243669
0.000541699
-0.00119969
2.236e-05
-0.000316022
-0.000367963
-0.000581628
-0.000107356
0.000180372
-0.00139667
-0.000468486
-0.000633138
0.000672806
-0.00204569
1.1304e-05
-0.000288927
-0.000295862
-0.000506736
-0.000149356
0.000360195
-0.000994326
-9.93305e-05
-9.81567e-05
0.000790771
-0.00162266
-1.13673e-05
-0.000505307
-0.000229628
-0.000692537
-0.000390929
2.64165e-05
-0.000129218
-0.000493762
0.000608562
-0.000912681
-0.000241143
-0.000739304
-0.000870789
-0.000906253
0.000546557
-0.00168564
-1.13685e-05
-0.000663839
-0.000330562
-0.00095737
-0.000447385
0.000284671
0.000105375
0.000167122
0.000112203
0.000710138
-0.000367766
5.43604e-05
-0.000867551
-0.000808756
-0.00142649
0.000610521
-0.00135798
0.000172029
-0.000332276
-0.000456977
0.00025495
0.000458883
0.000107747
-0.0010485
-0.00030026
-0.000358813
-0.000553453
-0.000555795
0.0004717
0.000455202
-0.0013868
9.51645e-05
-0.000426346
-5.90541e-05
-0.000580903
0.000333947
-0.00041173
-0.00017727
-0.000142134
-0.000968258
-0.000609624
0.000227889
0.000128815
-0.00155987
-2.98058e-05
-2.07012e-05
-8.90865e-05
-0.000508725
0.000412152
0.000334009
-0.000557052
-0.00019339
0.000323094
-0.00019443
-0.000697951
0.000369963
0.000250988
-0.00122852
-5.58751e-05
0.000139402
-4.62142e-05
-0.000573129
0.000452151
0.000521903
-0.000786586
0.00016344
0.000139493
-2.96912e-05
0.000576641
-0.00109764
0.000148601
-0.000201954
-0.000281012
-0.00068146
0.000401619
-0.00123196
-0.000244006
-2.23667e-05
-0.000214675
-0.000201099
0.000397312
0.000406231
-0.00110284
0.000129067
-4.3382e-05
-6.68106e-07
-0.000237065
0.000495552
0.000538351
-0.000664762
-3.08481e-06
0.000110227
7.77828e-05
-0.000850045
0.000405941
0.000422548
-0.000893532
0.000176442
0.000114813
1.69136e-05
0.000355348
0.000650106
0.000602298
-0.000603381
0.000189219
0.00019144
-0.000230812
-0.00095032
0.000535857
0.000473314
-0.000539098
-3.98771e-05
-0.000551628
-0.000360428
0.000375314
0.000476181
-0.0012295
5.03262e-05
-8.20502e-05
-0.000602609
-0.000279691
0.000429034
-0.00133936
0.000200648
0.000189984
-1.12598e-05
5.25453e-05
0.000588209
-0.000642814
-4.41899e-05
-0.000605989
-0.000396949
-0.000875052
-0.000136014
-0.000525922
-0.000744768
-0.000481566
-0.000419715
0.0006066
-0.00131008
-0.000121592
-0.000586118
-0.000316801
-0.000779384
-0.000436619
0.000117164
-4.5593e-05
-0.000394077
0.000122492
-7.55228e-05
-0.000110155
-0.000389025
-0.000300646
-0.000593073
-0.000240774
-3.01708e-05
-9.48543e-05
-0.000417809
0.000503006
-0.00112249
2.51044e-05
-0.000498896
-0.000343503
-0.0010442
-0.000292287
-0.000124355
-0.000228439
-0.00139527
-6.57201e-05
0.000203327
-0.000286647
2.25407e-05
-0.000298205
-0.000157038
-0.000681811
-4.12459e-05
-0.000222134
-0.000469074
-0.000542776
-0.000661183
0.000544346
-0.000967085
3.22602e-05
-0.000135969
-0.000126435
-0.000426589
0.00016186
-0.000146805
-0.00023551
-0.000297973
-0.000596421
0.000590672
-0.00153592
4.56149e-05
-5.87459e-05
-0.000191623
-0.000342219
0.000214947
0.000388005
-7.19793e-05
-0.000436088
0.000472981
0.000399829
-6.81685e-05
0.000224068
3.38988e-06
-9.95145e-05
-0.00129504
0.00030071
0.000414842
-0.000334536
-4.28456e-05
-0.000790252
-0.000517292
-0.00105452
-0.000490744
-0.000405468
-0.000559081
-0.00152381
0.000317002
0.000259168
-0.000982176
6.09542e-05
-0.000333422
-0.000228044
-0.000580942
-1.14732e-05
6.32418e-06
2.03017e-05
-0.000147578
0.000242112
0.000679464
-0.00074744
6.28651e-05
-0.000541312
-0.000305127
-0.000896497
-0.00016268
-0.000111295
-0.000401655
-0.0002552
-0.000129387
0.000662093
-0.00107722
-7.58486e-05
-0.000442518
-0.000363966
-0.000635002
-0.000202438
-0.000289817
0.000202183
-0.000195353
-1.26851e-05
0.000538791
-0.000537595
0.000123569
-5.16989e-05
-0.000206147
-0.000521689
0.000340549
0.000212684
-0.00033726
-0.000232855
-0.0005679
0.000601475
-0.00102433
6.79888e-05
0.000121106
-2.75516e-05
-0.000240392
0.000203195
-0.000287718
0.000168647
-0.000831857
-0.000337996
0.000455449
-0.000660402
-3.50998e-05
-0.000235047
-0.000168657
-0.000503496
5.02448e-05
0.000305009
-0.000103217
-4.19859e-06
-0.000116493
0.000398373
-0.000427391
0.000104547
-9.27184e-05
-0.000404866
-0.000452623
0.000554239
-0.000680456
0.000339744
-3.57344e-05
-4.70946e-05
-0.00019517
0.000369195
-0.00103503
0.000136276
0.000133608
2.47053e-05
-0.000153481
0.000390679
0.000127156
-0.000241596
-0.000359872
-0.000655614
0.000429852
-0.000186739
3.95641e-05
2.98365e-05
-6.72989e-05
-0.00012209
0.000185436
0.000212791
-0.000123817
-8.88605e-05
-0.000125882
0.000535959
-0.000734967
2.82481e-05
0.000398471
-5.25807e-05
-0.000478941
0.000560022
-0.00028134
9.11591e-05
0.000256205
-6.76697e-05
3.54732e-05
0.000412554
0.000418407
1.13037e-06
-0.000362595
-0.000547881
0.000581443
-0.000801471
2.9935e-05
9.71254e-06
-0.000557565
-2.86838e-05
0.000363063
0.000425622
-0.000568024
-6.74117e-05
6.44906e-05
-0.000460008
-0.000342599
0.000485831
0.000474087
-0.000637181
0.000129132
0.00016906
-3.45025e-05
-0.000546893
0.000589863
0.000403342
-0.000279528
0.000240061
-8.11487e-05
-7.45365e-05
-0.000469629
0.00049885
-0.000207378
0.000451374
-0.000232631
-4.09143e-05
-0.00017334
0.000708756
-0.00031413
0.000138517
-0.000139499
-0.000308884
-0.000109412
0.000324841
-0.000758503
-0.000385196
2.07536e-05
-0.000177596
0.00062629
0.000503443
-0.000501168
-2.74542e-05
-0.00038367
-0.000441135
-0.00045569
0.000520194
0.000461153
-0.000552152
1.966e-06
-0.000182261
-0.000156525
-0.000354642
-4.94859e-06
0.000115167
-0.000130061
-6.902e-05
-0.000583087
0.000351922
-0.00036925
-0.00019404
3.80489e-05
-0.00067504
0.000448403
0.000497119
-0.000202812
0.0001257
-3.58076e-05
-0.000236466
-2.55983e-05
0.000484158
0.000621303
-0.000415319
0.000191849
0.000558041
0.000116583
-0.000183024
0.000476156
-4.32549e-05
0.000297311
0.000142397
-5.85668e-06
8.9819e-06
0.000180019
-0.000659618
0.000171137
-6.24357e-05
-3.34366e-05
-0.00213174
-0.00061646
-0.00112108
2.46749e-05
0.000291697
-0.00100472
0.000251573
-0.0010871
0.000134059
0.000131942
-0.000138406
-0.00144619
-0.0007497
-0.000639191
0.00015013
0.000373407
-0.000761557
0.000325925
-0.00122961
-0.000153542
-0.000421316
-3.76188e-05
-0.000451723
0.000127373
-0.000370672
-0.000986974
-0.000466097
-4.52198e-05
-0.000604485
0.000127301
-0.000451941
3.4028e-05
-0.000431853
0.000269633
0.000325888
-0.0016855
-0.000329101
-0.000967346
0.00021408
0.000532181
-0.00059473
0.000623542
-0.000418228
-0.000151138
0.000220732
0.000126929
-3.3388e-05
-0.000178965
-0.000167006
-0.00118388
5.39351e-05
0.000409561
-0.000247431
0.000386377
-0.000826787
-4.2978e-05
-0.00021845
-0.000163791
-3.31759e-05
-0.000589574
-0.000247017
-0.000569914
0.000148232
0.000507276
-0.00084945
0.000334255
-0.00106327
-8.29078e-06
-0.000386545
0.00028356
8.68822e-05
-0.000331672
-0.000421545
-0.000485953
0.000245937
0.000715505
-0.000653995
0.000350279
-0.000100895
-8.99985e-05
-5.63274e-05
-0.000108387
-8.90006e-05
-0.00242958
-0.000655751
-0.000845728
0.000110487
0.000539357
-0.000951666
0.000202651
-0.000841954
-0.000511278
-0.000155939
-2.39504e-05
9.18053e-06
-0.0011805
-0.000349791
-0.000653465
4.0682e-05
0.000490917
-0.000981102
0.000375359
-0.000105634
-0.000848124
-0.000220739
-0.00109875
-0.000837933
-0.000152576
-0.000376285
-0.0003149
-0.00143662
-0.000265463
-5.08801e-05
-0.000403275
-6.96863e-05
-1.00378e-05
-0.000131436
-4.7924e-05
0.00018724
-0.000234403
-0.00041313
-0.000802693
-0.0014207
-0.000524127
0.000283478
0.000203642
-0.0010107
0.000349551
-0.00108212
-0.00102417
-0.00027104
0.000327407
-5.17717e-06
-0.000702666
-0.000527987
-0.000550368
0.000159149
0.000558943
-0.000774471
0.000465088
-0.00061597
-0.000380272
-0.000363292
0.000261289
0.000258484
-5.53285e-05
-0.000129547
-0.000800687
0.000285387
0.000516278
-0.000577146
0.000580223
-8.97074e-05
-0.000163935
-0.000123487
-0.000226582
-4.84552e-05
-0.00083305
-0.000512368
-0.00108403
-3.52521e-05
0.000473327
-0.000810504
0.000405611
-4.99524e-05
-0.0006451
-4.69072e-05
-0.000379447
0.00012804
0.000404789
-0.000421191
0.000175721
-0.00020734
0.000302558
0.00059252
-0.000548155
0.000639949
-5.66052e-05
-5.42974e-05
-0.000173053
-0.000409879
-0.00149512
-0.000725843
-0.00129948
-0.000116524
0.000496678
-0.000961608
-0.000709833
-0.000335651
0.000117763
-4.93516e-06
0.000107562
9.98881e-05
-0.000118073
-5.33104e-05
0.000111547
0.00010295
7.33605e-05
6.66245e-05
6.72277e-05
0.000105333
8.54485e-06
2.61359e-05
9.21519e-05
9.84089e-05
6.89137e-05
0.000119193
8.2972e-05
5.69117e-05
6.86806e-05
5.47718e-05
-6.2909e-05
-1.8931e-05
4.53218e-05
3.21738e-05
1.05545e-05
-0.000111969
8.19729e-05
-7.87951e-05
8.23654e-06
6.00702e-05
-2.52317e-05
7.54312e-05
5.12698e-05
0.000118095
-1.0183e-06
2.53795e-05
8.78976e-05
6.16105e-05
-2.94305e-05
3.45487e-08
-0.000127343
-6.56826e-06
-3.91317e-05
-4.82934e-05
-0.00022859
-7.00825e-05
9.228e-05
0.000104116
-3.06889e-06
1.76069e-05
6.7201e-05
-2.73005e-05
3.07442e-06
-1.2771e-05
-1.47567e-05
-8.89611e-05
-9.27341e-05
-0.000101644
4.84463e-05
-0.00014794
-0.000150908
-0.000134165
1.66696e-05
-4.2631e-05
-1.30679e-05
-7.30921e-05
-8.98157e-05
-0.000167662
-6.23795e-05
-0.000121078
-8.3528e-05
-0.000125372
-8.83072e-05
-0.000106443
-2.73224e-05
-5.86934e-05
-6.21792e-06
-0.00010795
5.52719e-05
-0.000101904
-0.00010669
-7.39654e-05
-1.81795e-05
-0.000176238
4.25357e-05
-3.71855e-05
7.26624e-05
-9.41514e-07
-9.30452e-06
3.86554e-05
2.15308e-05
3.91686e-05
-2.85836e-05
1.93423e-05
-0.000116571
5.38743e-05
-5.61535e-05
-8.35175e-05
-5.92345e-07
-9.55528e-05
-8.49496e-05
-5.92754e-06
-0.000165251
-0.000127721
-8.73193e-05
5.72287e-05
2.8013e-05
-8.13068e-05
-0.000164658
-0.000121757
-0.000115521
-2.20267e-05
2.97316e-05
-7.72916e-05
-8.15355e-05
-9.43806e-05
-9.57413e-05
-0.00016581
-5.87169e-05
5.72339e-05
-0.000159002
-8.89187e-05
-3.58618e-05
-2.1457e-05
4.13904e-06
-2.57453e-05
1.73397e-05
4.36616e-05
-9.60763e-05
0.000297735
4.51299e-05
8.07076e-05
-5.50514e-05
-0.000121678
4.33464e-05
-3.59345e-05
2.17099e-06
-1.75069e-05
6.93934e-05
-2.25228e-05
1.91958e-05
-1.78e-05
9.00418e-06
6.68475e-06
0.00018137
5.69688e-05
3.92371e-05
-3.92153e-05
-1.45229e-05
0.000122878
2.42728e-05
2.37871e-06
-1.99322e-05
0.000267759
0.000205455
0.00010663
0.000136901
0.000121213
-8.20783e-06
7.04605e-05
-1.48419e-05
3.4859e-05
-1.89879e-05
6.73401e-05
3.14895e-05
1.12347e-05
7.33059e-05
-4.48634e-05
2.46037e-05
4.35804e-05
0.000164854
-1.46581e-05
-1.12025e-05
0.000121519
0.000108975
2.29512e-06
-3.80807e-05
0.000153086
7.6661e-07
-7.70054e-05
-2.35553e-05
1.99968e-05
3.92183e-05
-6.15054e-06
0.000285948
0.000269583
6.04218e-05
9.62524e-05
0.000149174
5.04128e-05
3.71928e-05
3.48188e-05
2.8023e-05
0.00011313
6.23793e-05
-4.10612e-06
-1.64294e-05
-0.000103436
-5.50988e-05
-1.21586e-05
-2.94366e-05
0.0002086
-4.08753e-05
1.03909e-05
-0.000120948
-5.16045e-05
-4.90519e-05
4.23457e-05
-5.69249e-06
-6.60966e-05
8.23251e-05
0.000163273
5.12187e-05
-1.80509e-06
0.000110352
-2.59554e-05
-2.88535e-05
-6.83869e-06
-1.27651e-05
-4.51994e-05
-0.000130703
-5.28549e-06
-2.36463e-06
2.68599e-06
-7.91931e-06
1.01748e-05
0.000131584
0.000141191
0.000316527
4.71266e-05
-8.16768e-05
-2.30456e-05
-0.000142161
5.82354e-06
8.03716e-05
0.000112701
4.98691e-05
4.31649e-06
0.000124825
2.97436e-05
2.38136e-05
3.06808e-05
0.000110345
1.63869e-05
8.2915e-06
2.35973e-06
9.8163e-05
0.000108721
4.46768e-05
-9.29791e-05
0.000118786
0.000102003
5.78789e-05
8.80365e-05
0.000163001
0.000111787
8.44586e-05
4.15229e-05
2.77694e-05
-4.95543e-06
-4.84713e-05
5.59e-05
4.52765e-06
7.07047e-05
4.80389e-06
3.24699e-05
-1.15484e-05
-8.97485e-05
1.96858e-05
7.71251e-05
0.000149775
-1.00508e-05
-0.000128478
1.41767e-06
5.59863e-05
3.70972e-05
7.43114e-05
3.82895e-05
9.431e-05
1.10225e-05
0.000158505
7.50362e-05
-5.25068e-06
-1.76474e-05
-3.46174e-05
5.46857e-05
0.000221438
9.75267e-05
5.10227e-05
9.0437e-05
-3.60928e-05
0.000245812
0.000160797
2.23269e-05
3.41492e-06
-1.67571e-05
6.36221e-05
-2.98094e-05
0.000120048
1.76391e-05
-0.000139951
-0.000185087
-0.000148244
0.000152697
7.94708e-06
-4.42496e-05
-3.63267e-05
4.83817e-05
-3.19877e-06
6.67584e-05
-8.18263e-06
-2.22781e-06
7.12564e-05
-6.24031e-05
0.000166546
0.000225954
-4.49118e-05
-1.95185e-05
0.000161994
1.88705e-05
6.22529e-06
1.34845e-05
0.000180931
-2.164e-06
-2.97981e-05
6.16826e-06
0.000144739
1.44187e-05
2.52297e-05
0.000184163
0.000233151
4.53732e-05
2.25734e-06
2.73975e-05
-3.76763e-05
-2.62072e-05
-1.03141e-05
1.67657e-05
0.000111198
5.33337e-05
0.000110619
0.000111001
6.32491e-06
0.000120944
-8.11152e-05
3.91599e-06
0.000128357
-1.58322e-06
-2.17434e-05
-1.85812e-05
7.17796e-05
8.3367e-05
0.000257751
-1.65083e-05
-2.79233e-06
0.000106647
5.96183e-05
6.39652e-05
3.61715e-05
2.69097e-05
-2.82898e-05
0.000160268
1.49759e-05
-0.00011048
5.0608e-05
-2.34521e-05
1.03065e-05
0.000114787
8.35949e-05
1.06066e-05
0.000105766
-1.40834e-05
0.000123756
7.38238e-05
0.00012472
-6.96922e-05
1.45093e-05
8.46693e-05
4.07676e-05
1.92389e-05
5.26854e-05
-1.49826e-06
0.000104491
-8.81613e-06
-0.00039074
-8.45554e-05
3.42566e-05
0.000101612
0.000129418
0.000160415
-8.314e-06
-3.46305e-05
-8.85324e-05
-8.951e-05
-0.000226713
-0.000359854
-8.39198e-05
8.19878e-05
0.000190334
1.85496e-05
-5.2243e-05
9.47793e-05
-1.90232e-05
-7.57555e-07
-6.01362e-06
3.22125e-05
0.000173284
2.81684e-05
1.08313e-05
2.33941e-05
1.98653e-05
0.000131936
1.41834e-05
-4.16098e-05
4.78793e-05
-0.000205669
0.000101247
-6.72276e-05
-7.6528e-06
0.000125651
0.000181163
0.000150964
5.13734e-06
-1.5488e-05
3.02827e-05
7.35553e-06
6.14523e-05
-1.99817e-05
-4.45291e-05
0.000157958
0.000144496
0.000131932
-1.0834e-06
-2.86637e-05
4.39986e-05
0.00014482
-1.57842e-05
9.66176e-06
-8.07335e-06
5.56447e-05
9.10234e-05
9.45009e-06
2.25265e-05
8.79268e-06
6.22903e-06
6.39845e-05
-3.36901e-06
-3.67575e-06
-8.28291e-06
0.000148659
3.16452e-05
0.000181601
9.63964e-05
0.000214152
9.37375e-06
0.000175152
6.58209e-06
0.000190773
4.78224e-05
0.00022818
6.06446e-06
0.000187951
3.28136e-06
0.00020616
2.8982e-05
2.00595e-05
-1.18872e-05
1.01061e-05
6.88198e-05
7.38408e-06
2.62864e-05
7.23186e-05
4.32728e-05
3.13188e-05
-0.000123195
1.50308e-05
4.8215e-05
2.70037e-05
-9.0957e-05
-1.87498e-06
0.000150691
7.3839e-05
0.000122825
1.26377e-05
2.31961e-05
0.000220612
8.69507e-05
2.47465e-05
-0.000285083
0.000182145
-0.000141765
-0.00016038
5.68517e-05
7.05353e-05
3.84437e-05
1.83425e-05
-6.50793e-07
6.94938e-05
-1.61514e-06
-6.91449e-06
9.06995e-06
-4.92831e-05
6.17551e-06
0.00017181
-1.2958e-05
8.12442e-05
9.73415e-05
4.05382e-05
4.0248e-05
6.04343e-05
0.000113623
0.000122905
0.000107399
9.71632e-05
8.09381e-05
2.74987e-05
-4.32536e-06
-0.000122037
0.000171747
0.000180662
0.000124335
7.99336e-05
4.10867e-05
3.38329e-05
-4.6842e-05
0.000181835
0.000276088
-5.57006e-06
-2.22127e-05
7.45825e-05
-1.07897e-05
1.75571e-05
-0.000115738
9.0302e-06
-1.5967e-05
0.00014527
2.74789e-05
3.78435e-06
-2.31022e-07
2.57035e-05
2.59593e-05
2.75863e-05
7.17581e-05
-6.11913e-06
-2.1926e-06
-2.46358e-05
4.33692e-05
2.19609e-05
4.04105e-07
-0.000116683
5.97936e-05
-2.19231e-05
4.09852e-05
3.13345e-06
1.7419e-05
-3.7166e-06
6.36023e-06
9.86683e-06
-5.3425e-05
-0.000782654
-0.00141834
-0.000733982
9.28617e-05
0.000127071
0.000180669
2.28267e-05
1.4674e-05
5.20266e-06
0.000166958
0.000160594
2.58577e-05
-1.83475e-05
4.42228e-05
-2.04063e-05
3.97854e-05
0.00013016
-3.06186e-05
5.43461e-05
9.02175e-06
-1.114e-05
-7.30082e-05
-2.14721e-05
-0.000127058
5.15605e-05
0.000114411
-0.000138208
9.96726e-06
-0.000598167
0.000213809
4.50791e-06
-5.40521e-06
2.69635e-05
1.68443e-05
-4.79911e-06
-1.45593e-06
4.03676e-05
-1.35108e-06
-1.47529e-05
-1.21968e-05
0.000106116
-6.2676e-05
3.425e-05
7.71723e-05
2.47818e-05
1.83376e-06
-5.73692e-07
-3.83995e-06
1.43257e-05
7.67617e-05
7.95258e-05
0.000122133
0.00011711
0.000130907
5.56681e-05
1.0636e-07
-2.68142e-05
-2.96081e-05
0.000117149
0.000117592
6.01113e-05
-5.68619e-06
-3.68733e-05
3.16368e-05
5.28029e-05
0.000150378
-7.39021e-06
-1.77821e-06
4.87853e-05
8.45021e-05
0.00017111
6.69982e-05
-0.000125749
-0.000307009
-0.000203697
0.000109072
0.000172423
6.23556e-05
3.54532e-06
-3.45397e-07
3.52794e-05
5.717e-06
3.97354e-05
-4.42167e-05
0.000171553
0.000178842
0.000178633
0.000185367
3.30051e-05
4.57731e-05
-1.01851e-05
0.000182856
-9.77208e-06
-8.26711e-06
9.35004e-06
-4.33314e-06
-3.20006e-05
7.95092e-06
-5.77649e-06
5.21462e-06
1.49173e-06
4.89044e-06
-1.104e-07
1.10888e-05
7.60995e-06
-1.99328e-06
-0.000169616
2.61021e-05
1.73243e-05
0.000132332
4.36263e-06
1.1685e-05
5.29658e-05
9.48924e-05
1.07466e-05
5.38377e-05
4.74458e-05
-2.54033e-06
-3.20954e-05
-1.90892e-06
-8.19743e-05
-0.00016127
-0.000155232
-9.18294e-05
5.10983e-05
2.22108e-05
0.000140768
0.000228931
0.000218906
-8.30878e-05
-7.31536e-05
-9.61947e-06
-5.95878e-05
-7.74276e-05
-0.000166442
-0.000147057
0.000136754
-8.73637e-05
-0.000155523
0.000101954
7.9047e-05
0.000188232
0.000115746
5.72796e-05
-1.04619e-05
-9.47179e-07
-9.40053e-06
-0.000160216
0.000242106
0.00021972
-0.000642629
-0.000451207
-8.49051e-05
-0.000686996
3.62418e-06
-0.000110155
1.10003e-05
3.11755e-06
-3.41179e-07
-1.30463e-05
0.00018195
1.20932e-05
-2.23498e-05
0.000187682
6.14465e-05
-1.89263e-05
0.000187612
1.11881e-05
7.82597e-07
-4.28051e-06
-1.60321e-06
1.22103e-06
-1.35955e-05
-2.09856e-05
0.000143954
1.85765e-05
-3.02334e-05
0.000262454
3.34668e-05
-1.43001e-05
0.000183767
2.6851e-05
-1.36938e-05
0.000186091
5.21628e-05
-3.42217e-05
0.000170132
8.65442e-06
9.13103e-05
-2.7374e-06
9.95413e-05
-9.1197e-05
-2.69732e-05
-4.44674e-05
-3.96742e-05
-0.000119112
0.000163258
0.000133716
0.000162959
-1.27901e-05
-2.61621e-06
0.000222871
-2.56073e-05
1.25152e-05
-5.2514e-06
1.88016e-06
4.62705e-06
-4.42859e-06
-3.57957e-06
-5.3815e-05
1.39177e-05
-1.94985e-05
-2.164e-05
2.71016e-06
-2.19846e-05
-9.43322e-06
-2.29869e-05
-1.78193e-05
-9.55855e-07
-3.23285e-06
-4.95941e-06
-5.29051e-06
-1.2799e-06
-2.16194e-05
-3.58804e-06
3.48499e-06
-2.50982e-05
-4.69587e-05
-2.48144e-05
-2.94582e-05
-7.5098e-06
-2.53169e-05
1.76109e-06
-1.84796e-05
4.90061e-06
-2.0744e-05
-2.6787e-05
-2.61556e-05
-1.88526e-06
-5.37322e-06
-2.14931e-05
1.8393e-05
-8.16521e-06
-1.0319e-05
-9.09165e-05
-1.02385e-05
-5.24713e-06
-1.49706e-05
2.01031e-06
-5.03043e-05
5.97842e-06
1.27817e-06
-3.44034e-05
1.07066e-05
-2.95254e-05
-0.000181566
-0.000762982
0.000365386
0.000438495
-0.000502192
-1.26789e-05
-0.000304407
-0.000170091
7.90386e-05
0.000110445
-0.00036614
7.53059e-05
0.000198355
-3.56432e-05
3.36398e-05
0.000288303
-0.000202264
-5.90132e-05
-8.34632e-05
-0.000130106
-4.42536e-05
-7.08493e-05
-3.55291e-05
-8.06497e-06
-7.17136e-05
-3.22858e-05
4.29189e-05
3.18439e-05
7.15264e-05
-0.000164722
-8.94122e-06
1.45973e-05
0.000279593
0.000448492
-1.50992e-05
-3.51565e-05
-8.34066e-05
0.000242618
-0.000621813
-3.36402e-05
5.74036e-05
-3.486e-05
-3.49829e-05
6.06001e-05
-9.09266e-06
-0.000114534
-0.000219074
0.000169744
-6.7166e-05
-0.000101426
-8.48272e-05
-6.4212e-05
0.000104759
-0.000105036
-3.85732e-05
0.000138792
-2.10605e-05
2.46926e-05
-0.000258736
0.000271157
0.000266148
-0.000155419
-0.00035151
0.000324927
-0.000114602
4.09019e-05
-5.46221e-06
-7.44398e-05
-7.10198e-05
-0.000261238
4.91072e-05
0.000240778
-6.84246e-05
-0.000147319
-0.000298993
-7.40668e-05
7.0433e-05
0.000105316
-2.33878e-05
-5.09656e-05
0.000198267
-0.000106607
1.85899e-05
-0.000239232
0.00040287
0.000346902
5.78688e-05
0.000130658
5.39292e-05
-0.000363986
0.000361268
0.000258822
-3.29532e-05
0.000113017
5.79159e-05
3.60524e-06
-9.30943e-05
0.000150871
5.51945e-05
-0.000164525
6.63054e-05
-0.000181035
-3.661e-05
6.28446e-05
0.000137922
-2.86557e-05
2.24916e-05
-1.28865e-05
-0.000167206
0.000157255
1.51838e-06
0.000333942
0.00038089
-0.000348116
0.000178493
-0.00048384
0.000285111
7.93892e-05
0.000166292
0.000424245
8.96592e-05
0.000268749
0.000496574
-1.90283e-05
-5.20535e-05
-7.90611e-05
-2.78045e-05
-0.000166043
-0.000124702
-2.87607e-05
6.9336e-05
4.21971e-05
0.000200653
-3.9037e-05
-2.15687e-05
-0.000168219
0.000371365
0.00026891
-6.82604e-05
7.22758e-05
-0.000255331
-0.000148194
-0.000149979
0.000170113
0.000193293
1.28262e-05
-9.28113e-05
0.000380463
-4.10621e-05
-1.72361e-05
-1.33012e-05
-3.57442e-06
-1.24755e-05
-8.78488e-05
-1.23834e-05
1.61611e-05
6.18198e-05
-3.25322e-05
0.000284653
-9.20713e-05
0.0002884
-9.47809e-05
1.39856e-05
-0.000176038
0.000434373
0.0004832
-4.73811e-05
-0.0001386
-0.000117277
0.000132337
-0.000237879
-5.99028e-05
-3.8149e-05
-3.83495e-05
-3.58498e-05
-3.70789e-05
-4.16732e-05
-0.000593848
-0.000633349
-0.000340195
0.000472663
-0.00064618
-8.16861e-05
-0.000457327
-0.000494708
-0.000585428
0.000411225
-0.000319214
-0.000154201
-0.000755436
-0.000798032
-0.00100945
4.96086e-05
0.000247151
-0.0011309
-2.51244e-05
-7.62466e-05
-0.000295171
-0.000651365
0.000465739
-0.000504248
-0.000395211
-0.000255623
-0.00089784
-0.00085179
0.000516081
-0.00104655
-7.40939e-06
-6.84076e-05
-0.000340996
-0.00081241
0.000344135
0.000182949
-0.00073814
3.82922e-05
-0.000305181
-0.000395435
-0.000629744
0.000449852
0.000365474
-0.000943538
5.20237e-05
-0.000116271
-0.000450802
-0.000770199
0.000418697
0.000279441
-0.000994632
3.91871e-05
2.75825e-05
-6.02523e-05
-0.000134012
8.97631e-05
0.000317085
-0.000135391
0.000171399
-0.000380721
-0.000485409
-0.000314029
-0.000454775
8.95765e-05
-3.39548e-06
-0.000296786
2.87767e-05
0.000273667
-0.000742815
-0.00034925
-3.91134e-05
-0.000290719
0.00019383
0.000498405
0.000136223
-0.00040949
-0.000250088
0.000481268
-0.000186103
-0.000764662
-0.000186383
8.71338e-05
9.4872e-05
-0.000148673
-0.000362551
2.85242e-06
-0.000686824
0.000512009
0.000179337
-0.000394185
5.93654e-05
-0.000129875
-0.000244769
-0.000644003
0.000416878
0.000272499
-0.000573941
7.33785e-05
-0.000130644
-0.000396178
-0.000518956
0.000316859
0.000228258
-0.000667385
8.29156e-05
0.000175153
-5.06007e-05
6.13326e-05
0.000238637
-3.82748e-05
0.000213959
-2.77467e-05
-0.000103512
0.00034706
-7.70622e-05
4.43854e-05
0.000132964
-7.05886e-05
-3.1915e-06
0.00016618
0.000160974
0.00029192
-5.97948e-05
0.00012412
0.000456065
-0.000226414
-0.000964493
-0.000572855
-0.000975399
0.000255129
0.000350957
-0.000793424
3.70137e-05
-0.000373844
-0.000179575
0.000339118
-0.000470728
-0.00101918
-0.000644872
-0.00134148
0.000303247
0.000293534
-0.000588087
-0.000120764
-0.00109893
-0.000589265
-0.000703009
0.000429801
0.000451305
-0.000540323
-0.000356386
-0.000733248
-0.000593388
0.000471216
0.000137845
-0.00080086
4.5694e-05
-8.13184e-05
-6.80398e-05
-0.000218065
1.83354e-06
-0.000303085
-0.000866935
-0.000556787
0.000356586
-0.000676086
8.92932e-05
0.000241268
6.80935e-05
9.25903e-05
0.00023674
0.000227483
-0.000227271
-0.000626556
-0.000190396
0.000421642
-0.000673901
-0.000568359
-0.000556829
-0.000155545
0.000395698
-0.000763053
2.64452e-06
-0.000102817
-4.62679e-05
0.000315735
-6.72664e-05
0.000112257
0.000294078
7.66632e-05
9.41799e-05
0.000347317
6.72075e-05
-9.83574e-05
-0.000632053
-0.000252622
0.000394229
-0.000453445
7.50462e-05
0.000238042
5.56507e-05
5.28783e-05
0.000279627
7.12481e-05
-0.000163319
-0.000256688
0.000340979
-7.65242e-05
0.000100816
0.000290596
7.90102e-05
3.28957e-05
0.000328739
5.39862e-05
-0.000589531
-0.000545529
2.24634e-05
0.000373948
-0.000361087
-5.87114e-07
-0.000239746
6.46624e-05
0.000357397
-0.000278328
-0.000283794
-0.000466445
-0.000136713
0.000407394
-0.000455471
0.000127161
0.000105177
-7.28781e-05
-0.000417705
0.000333755
-0.000205266
0.000272246
6.57162e-05
-0.000208422
-0.000279824
0.000304229
0.00022838
-0.00012775
0.000155357
-1.82631e-06
-0.000221314
-0.000243031
0.000377716
-0.000267277
0.000264358
3.09292e-05
-0.000234207
-0.000283744
0.000245009
-0.000331739
-0.000145863
-0.000311476
-0.000622902
-0.000471119
0.000230727
-0.000398115
0.000222983
-0.000151744
-0.000192493
-0.000209341
0.000304685
-0.000222091
0.00017986
-0.000224023
-0.000548849
-0.000253734
0.00040759
-0.00044781
5.8007e-05
-0.000353213
-0.000542646
-7.40935e-05
0.000378526
-0.000499136
0.0002029
8.98024e-05
-0.000293846
2.1402e-05
0.000354494
-0.000261872
8.07371e-05
0.000278046
6.22482e-05
0.000112934
0.000279068
0.000136922
1.32166e-05
-0.000377299
6.79185e-05
0.000366408
0.000259567
-8.75986e-05
-0.000145518
-0.000229564
0.000366738
0.000109326
-0.000317993
0.000208572
0.000119927
-0.000140277
-0.000281468
0.000315909
-0.00017353
-0.00022626
-0.00136529
-0.000597146
-0.0008876
0.000417587
0.000477331
-0.000646673
5.88754e-05
0.000115327
3.48293e-06
5.44431e-05
0.000180069
0.000107208
-0.000434639
-0.00061646
-0.000369588
0.000386203
-0.000658545
5.99337e-05
0.000219891
3.56384e-05
0.00014263
0.000235222
-0.000407588
-0.000774176
-0.000354091
0.000286171
-0.00118716
-0.00108576
-0.000388401
-0.000531993
0.000310593
0.000496454
0.000434034
-0.00032751
-0.000213426
-0.000121654
-0.000347214
0.000449403
-0.000666584
0.000101821
-0.000195851
-0.000117736
0.000429069
-0.000495033
8.80972e-05
-1.42727e-05
-0.000122653
-0.000211688
0.000115336
0.000275937
-0.00107809
-0.000401827
-0.000379418
0.000547103
-0.0010249
7.98238e-05
1.44003e-05
-8.43934e-05
-0.000138206
9.65314e-05
0.000379866
-0.000739684
-0.000146695
-1.88948e-05
0.000618888
-0.000803785
5.09948e-05
-0.000140865
-5.8459e-05
-0.000266946
-7.3096e-05
-7.34267e-05
-0.000162912
-0.00026258
0.000479107
-0.000428032
1.80379e-05
-0.00050145
-0.00065672
-0.000571161
0.000445862
-0.000776219
6.13548e-05
-0.000193355
-0.000100089
-0.000410435
-6.6905e-05
0.000231032
-8.94549e-06
2.71077e-05
5.78279e-05
0.000548471
-0.000182861
0.000180969
-0.000544676
-0.000560839
-0.000913397
0.000488815
-0.000620294
0.000174802
-0.00025676
-0.000393892
0.000227984
0.000384926
0.000183217
-0.000444828
1.33452e-05
-0.000302055
-0.000394978
-0.000335286
0.000425909
0.000429658
-0.000572792
0.000182998
-0.00020776
-5.00216e-05
-0.000279122
0.000287526
-0.000187565
6.34357e-05
-9.26863e-05
-0.000619903
-0.000317874
0.000279242
0.000206612
-0.000668934
0.000104816
-4.61578e-05
-0.000112421
-0.000252167
0.00034845
0.000302922
-0.000226622
-6.71897e-06
0.000150302
-0.000186308
-0.000390173
0.000321658
0.000263145
-0.000494267
8.92862e-05
2.4017e-05
-0.000101062
-0.000305042
0.000376631
0.000420085
-0.000318722
4.41745e-05
1.277e-06
8.58823e-07
0.000442394
-0.00046384
0.000212314
-0.000189576
-0.000240739
-0.00040852
0.000353672
-0.000498814
-4.87969e-05
-5.94567e-05
-0.000202456
-7.6469e-05
0.000339151
0.000353681
-0.000448405
0.000188367
-7.36378e-05
-8.06704e-05
-0.000117996
0.000398799
0.000423607
-0.00027619
0.000138126
3.23761e-05
-1.29223e-05
-0.000460991
0.000355041
0.000366861
-0.000361223
0.000247243
3.85627e-06
-6.97471e-05
0.000253971
0.000509649
0.000481968
-0.000273605
0.000298802
1.73406e-05
-0.00019141
-0.0004903
0.000462864
0.000414312
-0.000217598
-7.43452e-05
-0.000406719
-0.000178792
0.00034191
0.000404961
-0.000521169
0.000175471
-0.000155647
-0.000402071
-0.000122845
0.00039161
-0.000545754
0.000276703
7.38125e-05
-0.000101079
1.26228e-05
0.000456644
-0.0003223
2.4877e-05
-0.000240602
-0.000165028
-0.00042877
4.47983e-05
-0.000169985
-0.000636946
-0.000426552
-0.00024738
0.0004733
-0.000571555
-1.73588e-05
-0.00019788
-0.000116567
-0.000318303
-0.000118557
1.85789e-05
-3.34803e-05
-0.000194639
9.45718e-05
-2.31914e-05
-1.4031e-05
-0.000101923
-0.000110713
-0.000226074
-2.134e-05
-7.2378e-05
-0.000138741
-0.000218635
0.00038853
-0.00045981
6.07736e-05
-0.000186739
-0.000137947
-0.000595142
-4.6994e-05
-0.000104392
-0.00011587
-0.00084493
6.93513e-05
0.000239693
-0.000119131
6.07472e-05
-5.14111e-05
-3.64725e-05
-0.000292224
9.45365e-05
1.06058e-05
-0.000373583
-0.00042447
-0.000356529
0.000431992
-0.000433066
6.21937e-05
4.58564e-05
-2.4596e-05
-0.000135311
0.000203571
5.66698e-05
-0.000219379
-0.000343913
-0.000315813
0.000459433
-0.000688686
6.80326e-05
6.87948e-05
-6.70744e-05
-0.000121935
0.000234472
0.000153273
-4.76493e-05
-0.000215083
0.000379931
0.000327787
-2.98188e-05
0.000203246
-1.2611e-05
-6.38519e-05
-0.000649422
0.000252509
0.000310001
-0.000132645
3.48398e-05
-0.000343225
-0.00022369
-0.000545975
-0.000142796
-0.000325675
-0.00034057
-0.000891602
0.000310148
0.000268114
-0.00040078
9.44648e-05
-5.20738e-05
-6.68235e-05
-0.000248326
0.000156711
0.000152003
-0.000108279
-0.000187954
0.000138003
0.000527711
-0.000307789
9.7517e-05
-0.000179653
-0.000103166
-0.000462232
7.67394e-05
0.000100283
-0.000362327
-0.000256199
-7.0566e-05
0.000515497
-0.000442404
8.52031e-06
-0.000146279
-0.000148458
-0.000345634
-1.17622e-05
-5.41622e-05
2.43775e-05
-0.000214977
-3.14835e-05
0.000425446
-0.000252456
0.000111413
3.85628e-05
-8.1926e-05
-0.000320061
0.000312574
0.000245869
-0.000407775
-0.000339587
-0.000367699
0.000449915
-0.000501039
7.39635e-05
0.000179238
1.8192e-05
-6.55421e-05
0.000228645
-6.81871e-05
-2.77705e-06
-0.000614194
-0.00019345
0.000378832
-0.000316573
2.7459e-05
-1.749e-05
-4.68263e-05
-0.000180137
0.000128
0.000302026
-5.21305e-05
-0.000122529
-0.000101102
0.000306395
-0.000211006
0.000221899
-9.48342e-05
-0.000285377
-0.000265871
0.000441646
-0.000308418
0.000331944
-4.52377e-05
-0.000134883
-0.00015297
0.000317607
-0.000539806
0.00013952
0.000237342
7.44059e-05
3.28632e-05
0.000385737
0.000152989
-0.00015645
-0.000248583
-0.000377369
0.000350147
-8.97163e-05
7.05449e-05
0.000153227
1.01823e-05
5.90302e-05
0.000234342
0.000213058
-6.05861e-05
-0.000131054
-0.000100304
0.000412242
-0.000369439
6.52926e-05
0.000134247
-0.000116929
-0.000306795
0.000444841
-0.000125456
0.000111077
0.000322461
1.78634e-05
0.000159811
0.00040383
0.000403293
-3.94699e-05
-0.000189075
-0.000279991
0.000467809
-0.000335742
0.000161942
-5.87562e-05
-0.000415541
3.31436e-05
0.000337732
0.000378385
-0.00024342
0.000106791
-2.82321e-05
-0.000321456
-0.00014732
0.000414678
0.000419691
-0.00027194
0.000264306
3.40077e-05
-8.46657e-05
-0.000246452
0.000477048
0.000335578
-0.000123126
0.000281045
-4.17867e-05
-1.45995e-05
-0.000255563
0.000405863
-9.38746e-05
0.000400139
-0.000171797
-0.000122129
-0.000144395
0.000532142
-0.000130433
0.000255071
-0.000101097
-0.000234998
-2.97144e-05
0.000307843
-0.000321815
-0.000309599
-5.51588e-05
-4.64083e-05
0.000527957
0.000459958
-0.000221204
0.000187765
-0.000297151
-0.000306348
-0.000241653
0.000464682
0.000443319
-0.000233367
4.77525e-05
2.09645e-05
-3.87977e-05
-8.47572e-05
0.000118619
0.000235884
-0.000111508
-6.61347e-05
-0.000263222
0.000314129
-0.000156884
-0.000189859
-1.52711e-05
-0.000353776
0.000385297
0.000442244
-8.29822e-05
0.000266352
-8.15085e-05
-0.000199236
6.63385e-05
0.00043383
0.000518479
-0.000175951
0.000235209
0.000272696
-3.40775e-06
-4.63362e-05
0.000411453
-2.21161e-05
0.000353433
6.30315e-05
-0.000113519
-6.58172e-06
0.00019397
-0.000327526
0.000228079
9.36474e-05
0.000172346
-0.00116867
-0.000387214
-0.000588142
0.000141886
0.00032213
-0.000610925
0.000320812
-0.000464583
2.76186e-05
0.000234872
7.01364e-05
-0.00073669
-0.000503531
-0.000258188
0.00025513
0.000384022
-0.000389809
0.00035487
-0.000513837
-0.000110402
-9.882e-05
0.00011233
-0.00011662
6.10868e-05
-0.000224297
-0.00049372
-0.000170476
9.64776e-05
-0.000270008
0.000208361
-0.000190691
1.05014e-05
-8.89696e-05
0.000284047
0.000370349
-0.000892557
-0.00020859
-0.000473393
0.000284093
0.000486641
-0.000294946
0.000532769
-0.000192631
-9.77938e-05
0.000246365
0.000120677
0.000122348
-0.000132563
-0.000153583
-0.000670454
0.000150055
0.000375891
-0.000121568
0.000364509
-0.000362766
-3.13014e-05
2.20136e-05
2.99472e-05
0.000131833
-0.000361358
-0.000168237
-0.000268363
0.000199775
0.000407728
-0.000486121
0.000322334
-0.000495685
-7.70377e-06
-5.318e-05
0.000285945
0.000194542
-0.000207126
-0.000228536
-0.000209314
0.000269185
0.000565087
-0.000340791
0.000329327
-4.76658e-05
-5.04708e-05
0.000132477
7.70324e-05
0.000110844
-0.00141338
-0.000406326
-0.000409435
0.000211237
0.000461416
-0.000492455
0.000285624
-0.000366055
-0.000252149
7.04574e-05
0.000109714
0.000167917
-0.000696598
-0.000211121
-0.000281246
0.000159983
0.000414944
-0.000552602
0.000373777
-5.05554e-05
-0.000393989
-0.000101464
-0.000509585
-0.00034329
6.20501e-05
-0.000213704
-0.000190845
-0.000808174
-3.30352e-05
0.000107571
-0.000162164
0.000107779
-1.34733e-05
-5.69442e-05
-4.9892e-05
0.000227814
-1.18094e-05
-0.000122546
-0.000558631
-0.000991522
-0.000263428
0.000303337
0.000261337
-0.000583549
0.000328129
-0.000492942
-0.000643236
8.68291e-06
0.000297108
0.000178365
-0.000466106
-0.00031123
-0.000254097
0.000217614
0.000453952
-0.000427479
0.000440039
-0.000283358
-0.000242287
-1.91743e-05
0.000267099
0.000279963
-7.02188e-05
-7.78966e-05
-0.000367342
0.000289942
0.000415707
-0.000298194
0.000476092
-3.88832e-05
-0.000105217
4.84319e-05
-2.29076e-05
0.000126639
-0.000587874
-0.000366551
-0.000606339
7.82094e-05
0.0003963
-0.000455947
0.00038588
-2.95263e-05
-0.000292704
-4.11525e-05
-5.17939e-05
0.000165449
0.000426937
-0.00030435
3.35437e-05
-5.05842e-05
0.000300187
0.000469137
-0.000295899
0.000513215
-2.70117e-05
-2.73272e-05
4.10371e-05
-5.66899e-05
-0.000934202
-0.000482624
-0.000700337
6.62184e-05
0.000446645
-0.000554297
-0.000318582
-0.00020128
9.67487e-05
4.42872e-05
9.63688e-05
9.49347e-05
-3.6375e-05
1.03193e-05
0.000108198
8.86322e-05
6.69775e-05
7.62561e-05
7.07556e-05
9.9269e-05
3.58147e-05
3.4401e-05
9.76849e-05
8.00924e-05
7.85133e-05
0.000108067
9.10697e-05
6.18966e-05
7.22801e-05
4.52993e-05
-1.36831e-05
1.63749e-05
5.97233e-05
4.95235e-05
3.45946e-05
-1.58295e-05
8.91802e-05
-1.90027e-05
4.19206e-05
6.14495e-05
9.64657e-06
8.21728e-05
6.58949e-05
0.000115902
3.22014e-05
3.71624e-05
8.86152e-05
7.16429e-05
3.68858e-05
5.25315e-05
-1.85571e-05
5.13372e-05
3.15168e-05
2.27436e-05
-9.42925e-05
1.34204e-05
7.24427e-05
0.000100021
2.32838e-05
5.27631e-05
8.53965e-05
2.67411e-05
1.07732e-05
3.65971e-05
1.97256e-05
-2.15727e-05
-1.99884e-05
-1.84156e-05
7.06733e-05
-4.92641e-05
-5.25481e-05
-4.07786e-05
5.09357e-05
-9.75627e-07
2.71768e-05
-5.9991e-06
-1.27417e-05
-7.39841e-05
7.5883e-06
-2.1133e-05
-8.17387e-06
-2.89785e-05
-7.41547e-06
-2.0584e-05
3.04626e-05
1.12334e-05
4.62065e-05
-1.61802e-05
7.21527e-05
-2.03454e-05
-1.86056e-05
1.03658e-05
4.37962e-05
-4.96095e-05
6.43498e-05
3.08713e-05
9.03451e-05
4.26058e-05
3.799e-05
6.64434e-05
5.69655e-05
6.62383e-05
2.66765e-05
5.35551e-05
-2.09453e-05
7.96017e-05
1.21698e-05
8.95534e-06
4.95572e-05
-2.06251e-05
-1.20848e-05
3.25094e-05
-5.17264e-05
-3.00444e-05
-2.13486e-05
7.43012e-05
5.40684e-05
3.85762e-06
-3.97423e-05
-1.08226e-05
-1.67558e-05
1.65412e-05
5.40539e-05
-6.08494e-06
-1.36048e-05
-1.83742e-05
-5.0282e-06
-5.33998e-05
7.61384e-06
6.97284e-05
-5.97733e-05
3.71456e-06
3.15117e-05
2.86839e-06
3.23851e-06
-3.99103e-06
9.96319e-06
2.96021e-05
-5.20534e-05
0.000152378
4.31155e-05
6.7049e-05
-1.94264e-05
-6.6116e-05
3.87721e-05
-1.48077e-05
-5.30238e-06
-3.00887e-06
2.62271e-05
-2.36244e-06
8.24752e-06
2.33899e-06
-1.89152e-06
1.42366e-05
8.39447e-05
5.48259e-05
3.61625e-05
-1.09755e-05
-9.29249e-06
0.000111868
2.16062e-05
2.52337e-06
-7.62376e-06
0.00024825
0.00019179
0.000104948
0.000133706
0.000111468
4.47197e-06
1.69972e-05
2.23831e-06
2.4693e-07
-1.70714e-06
1.83875e-05
3.07807e-05
1.84045e-05
2.38564e-05
-8.60043e-06
2.51391e-05
4.38611e-05
0.000156144
-4.3803e-06
-2.74485e-06
0.000114741
0.000103154
1.25963e-05
-2.01985e-05
0.000145601
1.05318e-06
-4.1635e-05
-1.36133e-05
3.0013e-05
5.01363e-05
8.93268e-06
0.000256174
0.000244481
5.45485e-05
9.17779e-05
0.000143978
6.22276e-05
3.77245e-05
3.46576e-05
2.75357e-05
0.000107538
6.14958e-05
2.21788e-06
-9.23403e-06
-5.30306e-05
-2.54958e-05
-5.20601e-06
-1.56091e-05
0.000194838
2.05309e-06
1.03176e-05
-6.21175e-05
-2.79124e-05
-1.83029e-05
4.29721e-05
1.65913e-06
-2.60341e-05
7.98528e-05
0.000155507
4.96239e-05
2.99421e-05
0.000105695
-4.48023e-06
-3.123e-06
4.02954e-06
7.21527e-06
-1.60123e-05
-4.89257e-05
7.66356e-06
3.52518e-07
2.96582e-05
1.61567e-05
1.59327e-05
0.000143044
0.000147468
0.000272876
6.26778e-05
-3.2581e-05
-9.16503e-06
-2.50908e-05
5.93503e-06
7.78817e-05
0.000113308
5.20846e-05
1.53844e-05
0.000122714
3.6222e-05
2.93651e-05
3.0767e-05
0.000116861
1.62961e-05
8.12883e-06
5.13213e-06
0.000106643
0.000117037
5.29111e-05
-3.59243e-05
0.000116395
0.000100749
5.91466e-05
9.6717e-05
0.000163574
0.000109013
8.67393e-05
4.07863e-05
2.72614e-05
-2.81208e-06
-2.84939e-05
4.9889e-05
4.73937e-06
6.63224e-05
5.40331e-06
3.05432e-05
-4.83693e-06
-4.92993e-05
2.10766e-05
8.35798e-05
0.000147852
-5.20831e-06
-7.47347e-05
1.6012e-06
5.23546e-05
3.71888e-05
7.41481e-05
3.66794e-05
8.69407e-05
1.74188e-05
0.000150543
7.40072e-05
-2.28821e-06
-2.61066e-06
-1.35417e-05
5.90076e-05
0.000210767
9.49275e-05
4.90964e-05
8.70899e-05
-1.63559e-05
0.000230522
0.000153668
2.19696e-05
4.02441e-06
-6.53379e-06
6.32106e-05
-1.40516e-05
0.000118128
2.53041e-05
-7.21509e-05
-9.67756e-05
-7.9044e-05
0.000146995
2.01657e-05
-2.40537e-05
-1.83851e-05
5.29522e-05
6.1727e-06
8.62957e-05
1.64388e-05
3.25187e-06
7.68959e-05
-2.52294e-05
0.000172039
0.000214742
-2.28059e-05
-5.85284e-06
0.000155397
4.43799e-05
8.09808e-06
1.62015e-05
0.000174423
-9.22121e-07
-1.13201e-05
1.35594e-05
0.000141576
1.588e-05
2.33901e-05
0.000190733
0.000231868
4.63359e-05
2.76805e-06
2.91962e-05
2.20457e-05
-5.21005e-06
-1.69388e-07
1.55882e-05
0.000108012
7.12534e-05
0.000113695
0.000106844
7.57018e-06
0.000121204
-4.23756e-05
6.264e-06
0.000143652
2.64317e-06
2.91061e-07
-3.40785e-07
9.56091e-05
0.00010473
0.000245937
4.36745e-06
1.77558e-06
0.000101964
5.89526e-05
6.26573e-05
3.51791e-05
2.78432e-05
-9.2463e-06
0.000158108
1.96303e-05
-3.85859e-05
4.89937e-05
8.45466e-06
1.91879e-05
0.000112756
9.44179e-05
1.21913e-05
9.7678e-05
-6.59623e-06
0.000121723
6.8606e-05
0.000120696
-2.79425e-05
1.87269e-05
8.53759e-05
6.05849e-05
7.85241e-05
6.64445e-05
1.28165e-05
0.00014272
-2.73418e-07
-0.000181213
-3.71733e-05
4.32788e-05
0.000110512
0.000128209
0.000156624
1.83685e-06
-1.8579e-05
-4.68063e-05
-4.72135e-05
-0.000106858
-0.000175488
-3.43373e-05
8.28317e-05
0.000193759
1.76877e-05
-2.12709e-05
8.98532e-05
-9.09076e-06
4.82351e-06
-3.22582e-06
3.83641e-05
0.00016761
3.52627e-05
1.04793e-05
2.27476e-05
2.52408e-05
0.000134056
1.452e-05
-1.40517e-05
4.61172e-05
-0.00010525
9.85249e-05
-3.78707e-05
-4.11061e-06
0.000122668
0.000176898
0.000151982
5.18231e-06
5.62427e-06
2.94978e-05
2.91585e-05
5.95647e-05
-1.2136e-05
-1.58427e-05
0.00016448
0.000144731
0.000128161
-1.18459e-07
-1.14671e-05
4.50457e-05
0.000138752
-9.73699e-07
1.0852e-05
4.08216e-07
6.48259e-05
0.000101296
9.97276e-06
2.43637e-05
2.56787e-05
9.39332e-06
6.60203e-05
-1.64067e-06
-4.85813e-07
3.20293e-05
0.00016085
3.66818e-05
0.00018095
9.80596e-05
0.000206663
1.62649e-05
0.000176668
8.09889e-06
0.000184078
5.5246e-05
0.000220764
1.09429e-05
0.000186849
6.49392e-06
0.000201717
3.01004e-05
1.98099e-05
-2.12342e-06
9.47378e-06
6.63253e-05
7.26507e-06
2.54384e-05
4.28817e-05
4.2078e-05
3.09734e-05
-5.97484e-05
1.78334e-05
4.57089e-05
2.56981e-05
-4.92217e-05
9.26118e-07
0.000139381
3.80126e-05
0.000118797
1.34749e-05
4.14364e-05
0.000209241
9.24404e-05
2.99716e-05
-0.00012231
0.000173027
-7.00248e-05
-6.31538e-05
6.29038e-05
8.07278e-05
3.5562e-05
1.68394e-05
1.95403e-08
6.79098e-05
-5.96372e-07
-3.20578e-06
7.93285e-06
-5.48595e-06
8.15069e-06
0.000163582
-4.25255e-06
7.78969e-05
9.46805e-05
3.91054e-05
3.80825e-05
5.60257e-05
0.000108352
0.00011634
0.00010193
9.19458e-05
7.12001e-05
2.60145e-05
6.72718e-06
-4.98311e-05
0.00016565
0.000166895
0.000116657
7.7129e-05
4.38098e-05
3.25175e-05
-2.49312e-05
0.000168128
0.000258266
-1.64115e-06
-7.45451e-06
7.86799e-05
-3.41429e-06
2.50689e-05
-5.47796e-05
3.82027e-05
-6.55618e-06
0.000140235
4.22833e-05
6.73907e-06
2.90731e-06
2.52254e-05
2.67178e-05
2.74319e-05
6.83543e-05
-2.38332e-06
-7.96752e-07
-3.20374e-06
4.55496e-05
2.0921e-05
8.14036e-06
-5.81965e-05
5.6953e-05
-1.00024e-05
3.95858e-05
3.13819e-06
1.66471e-05
2.3458e-06
6.422e-06
9.31402e-06
-2.1804e-05
-0.000382116
-0.000694922
-0.000359435
8.84376e-05
0.0001191
0.00017186
2.18575e-05
1.7593e-05
5.77502e-06
0.00015492
0.000156482
2.96295e-05
-6.00814e-06
4.57182e-05
-7.63383e-06
3.74078e-05
0.000127901
-1.6725e-05
5.20153e-05
1.08774e-05
-4.6514e-06
-2.48451e-05
-5.58249e-06
-6.21265e-05
4.91931e-05
0.000112034
-6.17402e-05
2.02075e-05
-0.000289641
0.000203879
1.31296e-05
6.91081e-06
3.71854e-05
1.67307e-05
-1.96209e-07
-3.17903e-07
4.91334e-05
-2.92832e-07
-7.10949e-06
-3.94169e-06
0.000116444
-2.26299e-05
3.37027e-05
7.74289e-05
2.57044e-05
3.4704e-06
3.39879e-06
-1.65838e-07
1.52243e-05
7.49862e-05
7.95948e-05
0.000135367
0.000121878
0.000135195
5.32396e-05
5.89475e-06
9.56055e-06
-6.40708e-06
0.000110819
0.000111172
5.78505e-05
-1.89792e-06
-1.90921e-05
3.19749e-05
5.12357e-05
0.000143142
-2.16564e-06
-1.51342e-07
5.28835e-05
8.95227e-05
0.000163073
8.47032e-05
-5.20867e-05
-0.000147049
-9.6289e-05
0.00011383
0.000166852
5.98319e-05
4.02293e-06
1.25716e-06
3.54547e-05
1.68336e-05
3.82907e-05
-2.93808e-06
0.000164746
0.000170952
0.000171755
0.000177049
3.4529e-05
4.94634e-05
-5.62036e-06
0.000175319
-3.94168e-06
-3.15819e-06
1.28502e-05
-4.59467e-07
-1.33109e-05
1.49402e-05
-1.84986e-06
1.05743e-05
3.26446e-06
5.98686e-06
2.35465e-06
1.21955e-05
9.67731e-06
4.57901e-07
-8.50005e-05
2.83588e-05
2.50697e-05
0.000141042
4.90374e-06
1.16872e-05
4.99094e-05
8.93971e-05
1.14835e-05
5.32291e-05
5.86906e-05
6.36707e-07
-1.56925e-05
-1.16443e-06
-4.11732e-05
-8.3342e-05
-8.40848e-05
-4.3256e-05
6.52392e-05
3.28171e-05
0.000135283
0.000223674
0.000212069
-3.99928e-05
-3.37625e-05
-8.32186e-07
-2.71743e-05
-3.16767e-05
-9.00926e-05
-7.28765e-05
0.000137188
-4.28905e-05
-8.15395e-05
0.000102048
8.74961e-05
0.000179966
5.36665e-05
5.65187e-05
-5.54953e-06
3.03238e-05
-4.35914e-06
-5.55342e-05
0.000232928
0.000212508
-0.000334867
-0.000229463
-2.16588e-05
-0.000281774
5.27726e-06
-5.63883e-05
1.0981e-05
9.92808e-06
2.57913e-05
-8.38037e-07
0.000171061
1.5134e-05
-4.02019e-06
0.000176742
5.6686e-05
-5.13018e-06
0.000182194
1.32759e-05
1.04367e-05
6.96545e-06
4.60272e-06
8.54875e-06
-7.52271e-06
-1.25024e-05
0.000137928
1.77681e-05
-1.27351e-05
0.000243929
3.19319e-05
-6.20015e-06
0.000178787
2.5534e-05
-2.30372e-06
0.000177904
5.02839e-05
-1.48605e-05
0.000164111
1.92778e-05
8.80986e-05
5.32636e-06
9.86766e-05
-4.64047e-05
-9.23874e-06
-2.07237e-05
-1.94035e-05
-5.98113e-05
0.000159147
0.000139167
0.00015454
-1.22641e-06
4.95215e-06
0.000209486
-7.04495e-06
1.87105e-05
1.06057e-05
1.40731e-05
1.79958e-05
9.63416e-06
7.94349e-06
-2.10867e-05
2.36988e-05
-4.04313e-06
-4.34146e-06
3.25481e-06
-4.31493e-06
4.07537e-06
-3.62823e-06
4.72993e-07
7.73029e-06
6.31567e-06
6.39148e-06
8.71954e-06
7.97161e-06
-9.82243e-08
6.27218e-06
1.89347e-05
2.42534e-07
-1.91941e-05
-5.04068e-06
-1.13317e-05
2.40986e-06
-1.00613e-05
1.06484e-05
6.67439e-07
8.41285e-06
-4.52424e-07
-5.14013e-06
-1.00711e-06
8.67427e-06
4.11248e-06
-5.81937e-06
2.12808e-05
8.7473e-06
1.75527e-06
-4.50694e-05
5.63367e-07
1.48167e-05
5.00446e-07
1.13565e-05
-1.7217e-05
1.37708e-05
9.33859e-06
-1.66123e-05
1.76524e-05
-0.000112351
-0.000135879
-0.000466696
0.000284795
0.000342116
-0.000225546
-7.01885e-05
-0.000157736
-0.000111876
7.80792e-05
9.05124e-05
-0.00016531
6.8916e-05
0.000172025
-3.33527e-06
5.8831e-05
0.000238065
-8.20281e-05
-3.16725e-05
-4.5331e-05
-7.44608e-05
-2.48893e-05
-4.08623e-05
-3.31332e-06
-1.5885e-06
-2.50429e-05
-1.72465e-05
3.04743e-05
7.58678e-05
-2.36934e-05
-0.000142937
-1.4977e-06
-1.34399e-05
0.000203554
0.000350393
7.07954e-06
-2.40805e-05
-4.69425e-05
0.000216005
-0.000300591
-3.90386e-05
7.36694e-05
2.81319e-06
-1.14557e-05
7.2132e-05
7.2412e-05
-3.69083e-05
-7.03549e-05
0.000190491
-3.32022e-05
-3.19571e-05
-3.82512e-05
-2.54832e-05
0.000116847
-5.04265e-05
4.14217e-05
2.00545e-05
-1.18079e-05
7.33627e-05
-0.00014499
0.000188374
0.000217101
-8.12122e-05
-0.000190053
0.000277018
-5.4908e-05
7.10648e-05
2.95675e-05
4.38088e-05
-1.07891e-05
-7.61565e-05
0.000110193
0.000205537
-2.78107e-05
-3.13091e-05
-0.000169067
1.93974e-05
0.000102887
9.61124e-05
-1.26025e-05
3.14172e-05
4.64063e-05
-0.000154844
6.49478e-05
-0.000191847
0.000308097
0.000296117
8.61759e-05
0.000113175
5.47873e-05
-0.000217843
0.000291644
0.000259426
6.05711e-05
0.000123492
0.000168402
5.553e-05
6.85632e-05
0.000224104
8.21595e-05
-9.06554e-05
9.72769e-05
-9.17369e-05
3.72448e-06
5.47291e-05
0.000162696
-2.20687e-05
8.60208e-05
-7.06142e-05
-0.000195957
0.000167521
-5.45842e-05
0.000268816
0.000312067
-0.000214917
0.000182673
-0.000243026
0.000250733
8.06374e-05
0.00012569
0.000324444
7.312e-05
0.000212349
0.000380904
-1.64593e-05
-3.25697e-05
-5.91896e-05
-2.17903e-05
-0.000104054
-8.76424e-05
-2.18747e-05
6.69526e-05
5.66245e-05
8.53909e-05
-6.3492e-05
-1.30331e-05
-0.000118121
0.000282993
0.000228528
-5.46122e-05
5.66519e-05
-0.000138632
-8.57327e-05
-9.22384e-05
0.000131176
0.000167143
3.08062e-05
-2.80733e-05
0.000293874
-1.23471e-05
-9.28183e-06
8.72361e-06
2.77982e-07
-6.61938e-06
-4.62616e-05
-6.2155e-07
2.4157e-05
6.61162e-05
-1.75885e-05
0.00018214
-3.38181e-05
0.000121415
-0.000118006
1.57991e-05
-0.000106481
0.000308918
0.000367504
-2.19396e-05
-9.61924e-05
-6.4796e-05
0.000131062
-0.00012965
-2.14648e-05
-2.66483e-05
-1.139e-05
-1.55823e-05
-2.1457e-05
5.37259e-05
-0.00045888
-0.000427202
-0.000202071
0.000414754
-0.000302867
5.43623e-05
-0.000367828
-0.000343418
-0.00033689
0.000369452
-0.00016564
-3.6535e-05
-0.00049189
-0.000477435
-0.000581843
0.000160085
0.000249843
-0.000506243
5.84691e-05
-0.000116782
-0.00019979
-0.000440768
0.000387396
-0.000231582
-0.000168937
-0.000213712
-0.000582729
-0.000513245
0.00043734
-0.000483702
9.93615e-05
-0.000110176
-0.000243971
-0.000477737
0.000298778
0.000186176
-0.000340265
9.74142e-05
-0.000271123
-0.000279638
-0.000401408
0.000358739
0.000317248
-0.000435413
0.000108451
-0.000142521
-0.000295831
-0.00045352
0.000345529
0.000263055
-0.000449875
7.92089e-05
0.000163159
2.26721e-05
6.18781e-05
0.000184996
0.000275792
-3.14109e-05
0.000133762
-0.000155442
-0.00023202
-0.00014654
-0.00023391
0.000161286
6.61256e-05
-7.70782e-05
6.45839e-05
0.000319127
-0.000544579
-0.000294026
7.31746e-05
-0.000159583
0.000215839
0.000439647
0.000151197
-0.000215563
-0.000135254
0.000428223
-0.000104119
-0.000412694
-0.000117937
0.000179272
0.000182716
5.14215e-06
-0.000294121
-5.21363e-05
-0.000415796
0.000375385
0.000168887
-0.000185265
8.09114e-05
-0.000153704
-0.000185827
-0.000381626
0.000335061
0.00026132
-0.000256967
0.000122341
-0.000159819
-0.000266586
-0.000303351
0.000272143
0.000233774
-0.000295894
7.531e-05
0.000160972
-1.05662e-05
8.17135e-05
0.00020703
-1.61627e-05
8.54155e-05
-4.64243e-05
-7.17284e-05
0.000285457
-4.03783e-05
5.16266e-05
0.000129946
-2.34215e-05
4.02199e-05
0.000160572
0.000149905
0.000135063
-8.27934e-05
2.13326e-05
0.000351591
-0.000140962
-0.000640154
-0.000365654
-0.000544784
0.000291644
0.000374028
-0.000342505
-4.24785e-06
-0.000275255
-0.000150399
0.000278123
-0.00022957
-0.000713106
-0.000415866
-0.000798301
0.000307135
0.000333638
-0.000255363
7.79266e-05
-0.000720218
-0.000385467
-0.000366923
0.000399119
0.000427892
-0.000244743
-0.000267169
-0.000490775
-0.000391387
0.00040015
0.00013611
-0.000357394
7.04148e-05
6.4923e-05
1.55384e-06
-2.07563e-05
0.000111835
-0.000281692
-0.000470022
-0.000315704
0.000326647
-0.000331169
9.68111e-05
0.000254439
8.33095e-05
0.000157364
0.000240164
0.000226529
-0.000228901
-0.000415266
-7.50379e-05
0.000375175
-0.000363936
-0.000433198
-0.000387248
-3.68268e-05
0.000363955
-0.000367881
-4.8252e-06
-6.27954e-05
4.37453e-05
0.000290796
-3.0027e-05
0.000109568
0.000292884
8.69724e-05
0.000161755
0.000323095
0.00014099
-9.80247e-05
-0.000413138
-0.000117479
0.000356454
-0.000189108
8.24521e-05
0.000251453
7.00448e-05
0.00013328
0.000272767
8.28034e-06
-0.000122241
-0.000132524
0.000304517
-3.29751e-05
0.00010021
0.00029254
8.65638e-05
0.000126703
0.000315969
0.000137316
-0.000465005
-0.000368876
3.79692e-05
0.000340837
-0.000158978
-3.50101e-05
-0.000145459
6.85751e-05
0.000319241
-0.000126241
-0.000235285
-0.000340229
-5.47091e-05
0.000360913
-0.000225931
0.000201036
4.39448e-05
-6.84179e-05
-0.000203554
0.00032036
-9.2631e-05
0.000274827
2.10159e-05
-0.000154587
-0.000121916
0.000299299
0.000242652
-5.77709e-05
0.000217826
-4.79865e-05
-0.000145975
-0.00010133
0.00034531
-0.000122471
0.000283401
-1.2487e-05
-0.000140816
-0.000111862
0.00026505
-0.000150253
3.16939e-05
-0.000247186
-0.000403272
-0.000252703
0.000261712
-0.000173326
0.000259319
-0.0001381
-0.000114875
-7.77196e-05
0.000299796
-0.000106553
0.000207571
-0.000186083
-0.000363633
-0.000109349
0.000368935
-0.000198582
0.000165054
-0.000267123
-0.000352395
1.84217e-05
0.000351573
-0.000228415
0.000240814
1.91579e-05
-0.000217313
5.62879e-05
0.000330029
-0.000119559
8.6164e-05
0.000285267
7.49904e-05
0.000185557
0.000281172
0.000189602
-3.41623e-05
-0.000257779
7.01782e-05
0.000335919
0.000263605
-7.69158e-05
-0.000107108
-9.88574e-05
0.000339437
0.000145024
-0.000140558
0.000245931
5.09439e-05
-0.000109226
-0.000124732
0.000306011
-7.80511e-05
1.9621e-05
-0.000874097
-0.000399627
-0.000515443
0.00038064
0.000431264
-0.000295363
7.12757e-05
0.000159075
3.49555e-05
0.000117687
0.000198042
0.000176287
-0.000347829
-0.000416775
-0.000210659
0.000338231
-0.000297246
6.98843e-05
0.000227067
5.33208e-05
0.000178464
0.000233789
-0.00033195
-0.000496272
-0.000204849
0.00027229
-0.000527733
-0.000715571
-0.000269633
-0.000267529
0.000305597
0.000436031
0.000424349
-0.000159659
-0.000200398
-0.000125235
-0.000212697
0.000377661
-0.000300039
1.68854e-05
-0.000165453
-7.55318e-05
0.000357717
-0.000218969
0.000112537
0.000120537
-1.81041e-05
-1.75931e-05
0.000202142
0.000291819
-0.000807459
-0.000326238
-0.000238582
0.000431722
-0.000574903
0.000105258
0.000145516
4.20252e-06
4.07839e-05
0.00019421
0.000351694
-0.000572489
-0.000164749
-1.06505e-05
0.000468616
-0.000450114
7.45923e-05
2.71274e-05
1.18314e-05
-5.56467e-05
6.63745e-05
-0.000131186
-0.000170906
-0.000169666
0.000393719
-0.000229365
0.000136574
-0.000381764
-0.000451937
-0.00037116
0.000372318
-0.000395626
8.99295e-05
3.50329e-05
-3.19089e-06
-0.000110344
0.000106835
0.000199852
-7.67027e-05
-3.31338e-05
1.73545e-05
0.000445573
-0.000106991
0.000229805
-0.000394279
-0.000381727
-0.000546461
0.000410201
-0.000316376
0.000172838
-0.000240357
-0.000317728
0.000201347
0.000342776
0.000212803
-0.000209219
0.000163873
-0.000280955
-0.000291198
-0.000207317
0.000374783
0.000387878
-0.000252025
0.0002005
-0.000116601
-4.52641e-05
-0.000150885
0.000265543
-9.71642e-05
0.00017492
-8.46399e-05
-0.00040125
-0.000165628
0.000292028
0.000233777
-0.000311303
0.000157699
-8.02593e-05
-0.000118746
-0.000137315
0.000306421
0.000271048
-9.89263e-05
8.46763e-05
4.96934e-05
-0.000173981
-0.000233903
0.000283145
0.000255153
-0.000208851
0.000149172
-5.21074e-05
-0.000121844
-0.000177498
0.000324886
0.000347722
-0.000137988
-3.56002e-05
-5.91946e-05
-5.42724e-07
0.000363899
-0.000215359
0.000222222
-0.000199855
-0.000209105
-0.000258005
0.000309613
-0.00021357
4.89774e-05
-9.92341e-05
-0.000186557
-3.58213e-05
0.000298346
0.000307527
-0.000194981
0.000196469
-0.000112009
-0.000113722
-7.84859e-05
0.000334348
0.000348202
-0.000125867
0.000195758
-2.24928e-05
-5.11855e-05
-0.00026441
0.000315795
0.000321927
-0.000155398
0.000258938
-6.8086e-05
-0.000104876
0.000164535
0.000415466
0.000400458
-0.000145536
0.000328331
-8.16011e-05
-0.000165495
-0.000259524
0.000400504
0.000363815
-9.44944e-05
-0.000110562
-0.000302315
-0.00010012
0.000305757
0.000351106
-0.000239667
0.000216748
-0.000204673
-0.000280805
-7.13081e-05
0.000347349
-0.000234174
0.000280173
-6.57432e-06
-0.000143875
-4.11193e-05
0.000374466
-0.00019978
5.25339e-05
-6.44263e-05
-6.68211e-05
-0.000189546
0.000120314
3.69765e-07
-0.000575949
-0.000360159
-0.000190771
0.000390961
-0.000286306
2.67414e-05
-2.2691e-05
-3.20718e-05
-0.000101976
2.08938e-05
-6.54136e-05
-2.83657e-05
-0.000122555
8.57945e-05
-2.41182e-06
2.67845e-05
2.57264e-05
-3.01564e-05
-5.56982e-05
7.23528e-05
-0.000129384
-0.000157656
-0.000142341
0.000316992
-0.000204208
7.51014e-05
-3.28075e-05
-5.08216e-05
-0.00031359
6.45942e-05
-0.000116704
-6.96838e-05
-0.000522533
0.000124515
0.000237943
-5.1693e-05
7.73211e-05
6.35644e-05
1.44259e-05
-9.04514e-05
0.000153886
0.00011626
-0.000348659
-0.000331637
-0.000222228
0.000371732
-0.000227148
7.52739e-05
0.000129186
1.86691e-05
9.96898e-06
0.000221839
0.000148339
-0.000242181
-0.000332093
-0.000194757
0.000385402
-0.000345519
7.71797e-05
0.000121419
-1.35599e-05
-1.56461e-05
0.000236183
2.14428e-05
-3.78098e-05
-0.000122156
0.000337052
0.000297225
-1.43047e-05
0.000194718
-3.64001e-05
-5.00422e-05
-0.000350497
0.000244381
0.000260472
-5.57583e-05
6.91948e-05
-0.000107415
-9.43159e-05
-0.000249947
2.66289e-05
-0.000300708
-0.000230803
-0.000531241
0.000305881
0.00026646
-0.000174578
0.000109312
8.36916e-05
3.09321e-06
-6.47437e-05
0.000227119
0.000209574
-0.000204508
-0.000197245
1.22701e-05
0.000446594
-0.000137816
0.000113063
8.78861e-06
-1.44786e-05
-0.000195149
0.000186087
0.000193687
-0.000358492
-0.00024101
-7.89909e-05
0.000439101
-0.000196222
4.62828e-05
7.71469e-06
-5.3239e-05
-0.000119392
0.000105796
8.30831e-05
-4.96692e-05
-0.000188738
-2.4458e-05
0.000380305
-0.000136571
0.000112091
0.000116027
-1.43723e-05
-0.000137191
0.000310852
0.000269485
-0.000386954
-0.000320811
-0.00022334
0.000389941
-0.000273688
8.28629e-05
0.000224435
4.63698e-05
5.93157e-05
0.000253334
5.2836e-05
-7.07267e-05
-0.000407398
-8.92153e-05
0.000350879
-0.000167511
5.89959e-05
9.71577e-05
1.32852e-05
1.2947e-06
0.000166745
0.000298238
-3.01906e-05
-0.000152672
-8.70834e-05
0.000271228
-0.000119479
0.000277981
-9.73671e-05
-0.00020588
-0.000167153
0.000390393
-0.000154654
0.000317532
-4.84554e-05
-0.000152282
-0.000125002
0.000295668
-0.000322426
0.000141063
0.00028644
9.84867e-05
0.00014498
0.000374237
0.000159434
-0.00011572
-0.000181224
-0.00023823
0.000317988
-4.96507e-05
8.49958e-05
0.000210485
4.68528e-05
0.000151011
0.000252766
0.00020716
-3.29132e-05
-0.000133902
-8.7769e-05
0.000350068
-0.000212656
7.91239e-05
8.38336e-06
-0.000129751
-0.00020671
0.000384017
-6.13907e-05
0.000118366
0.000339456
5.62125e-05
0.000216539
0.000382312
0.000373445
-5.99232e-05
-0.000110596
-0.00015838
0.000404962
-0.000148354
0.000222119
-9.12444e-05
-0.000301864
4.90072e-05
0.000313627
0.000340297
-0.000113241
0.000187242
-7.23741e-05
-0.000231574
-5.50827e-05
0.000367363
0.00037579
-0.000124278
0.000313441
-3.28047e-05
-9.733e-05
-0.000109922
0.000400691
0.000290121
-6.1026e-05
0.000280711
-2.42704e-05
1.24665e-05
-0.00015836
0.000353948
-4.73206e-05
0.000350558
-0.000140754
-0.000143716
-0.000130542
0.000426554
-5.94721e-05
0.000274349
-0.000107761
-0.000196733
-1.29452e-05
0.000289914
-0.000152113
-0.000287275
-9.52446e-05
-2.32508e-05
0.000438704
0.000381986
-0.000110693
0.000261166
-0.000269589
-0.000234432
-0.000141343
0.000398537
0.00039494
-0.000108605
6.46725e-05
0.000104469
9.14492e-06
3.7454e-05
0.000162816
0.000261147
-0.000128519
-6.51522e-05
-0.000134858
0.000289379
-7.46509e-05
-0.000209194
-4.0247e-05
-0.000202791
0.000337785
0.000383994
-3.7872e-05
0.000299914
-0.0001239
-0.000177771
6.72334e-05
0.000372013
0.00043885
-8.14864e-05
0.000240462
0.000106376
-5.66899e-05
-2.87115e-06
0.000370788
-1.3985e-05
0.000352302
1.66779e-05
-0.000161535
-4.83763e-05
0.000192909
-0.0002052
0.000240211
0.000151371
0.000254131
-0.000704094
-0.000261674
-0.000319404
0.000181807
0.000319273
-0.000337411
0.000335325
-0.000213186
-2.28882e-05
0.000268026
0.000158102
-0.000416323
-0.000338833
-7.85819e-05
0.000291321
0.000374108
-0.00017003
0.000353181
-0.000232859
-8.85567e-05
5.97095e-05
0.000175444
4.9197e-05
2.49129e-05
-0.000155067
-0.000263393
-6.86787e-06
0.000165519
-8.95356e-05
0.000244429
-8.88922e-05
3.99713e-07
6.55517e-05
0.00027528
0.000366275
-0.000521411
-0.000149395
-0.000225228
0.000296038
0.000440799
-0.000134491
0.000460518
-9.95965e-05
-7.30837e-05
0.000251538
0.000113088
0.000189978
-0.000119617
-0.000140058
-0.000388116
0.000189716
0.000346714
-5.91259e-05
0.000343341
-0.000173483
-2.54363e-05
0.000129163
0.000115917
0.000202781
-0.000265069
-0.000128461
-0.000138099
0.000216464
0.00036071
-0.000252944
0.000311437
-0.000259345
-7.2341e-06
9.27986e-05
0.000278563
0.000232319
-0.000156982
-0.000141751
-9.98765e-05
0.000265057
0.000479748
-0.000175313
0.000315985
-2.61957e-05
-3.29791e-05
0.000212971
0.000158919
0.000191831
-0.000871949
-0.000273164
-0.000212638
0.000250192
0.000414657
-0.000242253
0.00031394
-0.000175299
-0.000136153
0.000171009
0.000166009
0.000233403
-0.000463543
-0.000144088
-0.000106979
0.000212335
0.00037741
-0.000296354
0.000368355
-2.69684e-05
-0.000202936
-5.09341e-05
-0.000176553
-9.54097e-05
0.000158476
-0.000140656
-0.000132146
-0.000449618
8.95692e-05
0.000187237
-3.33036e-05
0.000194305
-1.46278e-05
-2.7037e-05
-4.86355e-05
0.000243527
9.90068e-05
4.22818e-05
-0.000423888
-0.000619918
-0.000108861
0.000304261
0.000284116
-0.000294118
0.000314991
-0.00026568
-0.000385467
0.000133448
0.000276191
0.000254885
-0.000351051
-0.000201909
-0.000113396
0.000235145
0.000396704
-0.000206492
0.000412514
-0.000149047
-0.000164627
0.00013846
0.000264369
0.000273272
-8.33954e-05
-5.46335e-05
-0.000184078
0.000274735
0.000366644
-0.000149844
0.000419086
-1.84966e-05
-7.75575e-05
0.000124017
7.2674e-05
0.000208924
-0.000452021
-0.000268654
-0.000339322
0.000134704
0.000351174
-0.000236329
0.000368808
-2.13401e-05
-0.000149143
-3.78891e-05
9.59511e-05
0.000179646
0.000418252
-0.000255392
-2.70033e-05
-6.32396e-07
0.000286163
0.000411024
-0.000152946
0.000450442
-1.44748e-05
-1.54471e-05
0.000139113
0.000122996
-0.000628624
-0.000326069
-0.000357031
0.00016189
0.00041127
-0.000285359
-0.000157503
-0.00013291
8.69507e-05
6.90222e-05
9.30159e-05
9.21142e-05
9.71788e-06
4.34398e-05
0.000103909
8.21561e-05
6.57022e-05
8.18625e-05
7.2644e-05
9.57239e-05
4.98507e-05
3.98562e-05
9.77234e-05
7.10308e-05
8.20657e-05
0.000101411
9.39008e-05
6.41658e-05
7.32502e-05
4.48863e-05
1.38622e-05
3.62659e-05
6.77889e-05
5.91938e-05
4.95291e-05
3.46928e-05
9.15405e-05
1.73683e-05
5.86095e-05
6.41936e-05
2.9007e-05
8.39835e-05
7.30533e-05
0.000111545
5.09021e-05
4.45007e-05
8.81298e-05
7.57918e-05
6.89461e-05
7.8532e-05
3.66995e-05
7.97124e-05
6.63147e-05
5.85574e-05
-2.17835e-05
5.55243e-05
6.54423e-05
9.58662e-05
3.8697e-05
6.89884e-05
9.1357e-05
5.39702e-05
1.60744e-05
6.01683e-05
3.96892e-05
1.61494e-05
2.02717e-05
2.47789e-05
8.15424e-05
1.55226e-06
1.0195e-06
