booster[0]:
bias:
-0.0903601
weight:
0.000141259
-0.000236792
9.3038e-05
8.52632e-05
-0.000462528
-0.000340879
7.36026e-05
0.00010847
5.807e-05
-3.33503e-06
8.46335e-06
8.39249e-05
-0.000139572
-5.32998e-05
3.22032e-05
0.000102822
-1.24605e-05
0.000120446
1.3765e-05
-1.7718e-05
1.60668e-06
4.35238e-05
-0.000270511
-0.000175454
-4.81113e-05
-6.69881e-05
-0.000128634
-0.000520947
-6.73146e-06
-0.000338278
-0.000162614
1.45433e-05
-0.0002069
-4.57576e-06
-4.15637e-05
7.30129e-05
-0.00016363
-6.69358e-05
5.29215e-05
-1.39957e-05
-0.000327319
-0.000239924
-0.000582291
-0.000271379
-0.000349206
-0.000358482
-0.000761051
-0.000428115
0.000132591
6.65147e-05
-0.000148229
-0.000157845
-5.30811e-05
-0.000265176
-9.96102e-05
-0.000237827
-0.000169427
-0.000381547
-0.000376577
-0.000442986
-8.01926e-05
-0.00055347
-0.000556801
-0.00052274
-0.000158945
-0.000235958
-0.000191126
-0.000351655
-0.000406629
-0.000578619
-0.000361287
-0.000536973
-0.000402684
-0.000546391
-0.000441605
-0.000472905
-0.000278837
-0.000358922
-0.000240313
-0.000489159
-4.01573e-05
-0.000445471
-0.000470714
-0.00042791
-0.000293398
-0.00069381
-7.20034e-05
-0.000337756
-2.18766e-05
-0.000197491
-0.000221944
-9.21874e-05
-0.000138888
-8.89564e-05
-0.00026804
-0.000134742
-0.000515646
-8.02065e-05
-0.000347465
-0.00047547
-0.000229088
-0.000400638
-0.000384543
-0.000187902
-0.000614788
-0.000532002
-0.000362632
-3.95673e-05
-0.000104019
-0.000438151
-0.000667038
-0.000573437
-0.000521276
-0.000221601
-9.56145e-05
-0.000380314
-0.000371098
-0.000412323
-0.00046982
-0.000632262
-0.000329455
-2.02764e-05
-0.000542056
-0.000477316
-0.00032438
-0.000129874
6.27175e-06
-0.000123227
3.22891e-05
6.69482e-05
-0.000279202
0.00063126
4.91423e-05
0.000118077
-0.000205412
-0.000349821
5.03293e-05
-0.000126644
6.8684e-06
-8.41487e-05
0.000181764
-0.000110814
4.75315e-05
-0.000105231
4.64843e-05
-3.51552e-05
0.000430894
5.0411e-05
3.98404e-05
-0.000159755
-3.79377e-05
0.000148004
3.03672e-05
5.36629e-07
-7.60552e-05
0.000286495
0.000212851
7.92918e-05
0.000124971
0.000144779
-6.72983e-05
0.00023298
-9.31848e-05
0.000152549
-9.89576e-05
0.000212894
2.23436e-05
-3.13946e-05
0.000219409
-0.0002027
1.1482e-05
2.84119e-05
0.000172966
-5.90857e-05
-4.79705e-05
0.000129579
0.000115183
-5.01855e-05
-0.000109464
0.000156637
-1.19055e-06
-0.000216828
-6.30175e-05
-2.73006e-05
-1.99017e-05
-7.7246e-05
0.000344408
0.000315723
6.85969e-05
0.00010089
0.000142069
-1.86438e-05
2.80038e-05
3.0231e-05
2.42978e-05
0.000117502
5.05944e-05
-3.16407e-05
-4.3954e-05
-0.000300068
-0.000170975
-4.10437e-05
-8.32636e-05
0.000230757
-0.000216787
9.84356e-06
-0.000356135
-0.000144534
-0.000175044
3.17557e-05
-3.61625e-05
-0.000225882
8.11149e-05
0.000171345
5.09135e-05
-0.000138271
0.000117219
-0.000112143
-0.000134182
-5.28594e-05
-9.86894e-05
-0.00016597
-0.000458209
-6.00166e-05
-1.3435e-05
-0.000116337
-0.000109963
-1.6545e-05
5.77171e-05
7.90995e-05
0.000412697
-2.83863e-05
-0.000280559
-8.14649e-05
-0.000619487
4.32567e-06
8.271e-05
9.40963e-05
3.30613e-05
-4.5503e-05
0.00011695
4.38908e-07
-3.21098e-06
2.82567e-05
7.04176e-05
1.35616e-05
9.31866e-06
-1.03008e-05
4.11452e-05
5.05762e-05
2.38716e-06
-0.000324456
0.000112354
9.49042e-05
4.01858e-05
3.06549e-05
0.00012857
0.000111018
6.51846e-05
3.44788e-05
2.69985e-05
-1.41895e-05
-0.000140233
6.27975e-05
1.88822e-06
8.34657e-05
-1.19605e-06
3.24565e-05
-4.21607e-05
-0.00025782
7.17704e-06
2.43568e-05
0.000117453
-3.1778e-05
-0.000359345
-1.69055e-07
6.56202e-05
3.43282e-05
5.60109e-05
4.05942e-05
0.000112361
-1.95933e-05
0.000169437
6.44288e-05
-2.14913e-05
-8.61425e-05
-0.000126087
2.77389e-05
0.000221813
9.6906e-05
5.15364e-05
9.62912e-05
-0.000118283
0.000254265
0.000162665
2.21749e-05
4.77695e-07
-6.12069e-05
5.59981e-05
-0.000101464
0.000114072
-2.03683e-05
-0.000422743
-0.000550725
-0.000436094
0.000161566
-5.04048e-05
-0.000126381
-0.000110816
2.14692e-05
-4.62053e-05
-3.5766e-05
-0.000116156
-2.6718e-05
4.10192e-05
-0.000216585
0.000114409
0.000235949
-0.000140196
-7.74526e-05
0.000173765
-9.22989e-05
-2.55896e-06
1.09303e-07
0.000190048
-7.34848e-06
-0.000108418
-2.45553e-05
0.00014477
6.37636e-06
2.90966e-05
0.000118305
0.00018895
3.43277e-05
-1.00536e-06
1.1671e-05
-0.000328971
-0.000120547
-5.93344e-05
1.86878e-05
0.0001029
-3.37328e-05
8.2315e-05
0.00011577
-3.74034e-06
0.000106582
-0.000244785
-1.02397e-05
3.87648e-05
-2.08138e-05
-0.000119101
-9.86632e-05
-4.61709e-05
-2.91359e-05
0.000238871
-0.000107665
-2.59809e-05
0.000117092
5.98539e-05
6.12471e-05
3.76792e-05
1.99169e-05
-0.00011167
0.000150208
-8.56375e-06
-0.000418362
5.20128e-05
-0.000175391
-2.83271e-05
0.000114102
2.6591e-05
9.03636e-07
0.000128669
-4.68136e-05
0.000108263
8.87806e-05
0.000130071
-0.000241808
-1.46951e-06
7.22479e-05
-4.14286e-05
-0.00022708
7.00546e-06
-5.64806e-05
-6.3863e-05
-3.81813e-05
-0.00119919
-0.000258635
9.16256e-07
6.21352e-05
0.000123266
0.000159639
-4.33262e-05
-9.59374e-05
-0.000249293
-0.000252747
-0.000695346
-0.00107608
-0.000277449
7.56522e-05
0.000143727
2.04836e-05
-0.000179971
0.00010507
-5.44723e-05
-1.92018e-05
-1.82469e-05
8.2205e-06
0.00017782
1.45501e-06
1.1184e-05
2.4338e-05
-1.40529e-06
0.000114619
1.19406e-05
-0.000142159
4.82354e-05
-0.000578866
0.000103692
-0.00017408
-2.10261e-05
0.000126967
0.000184048
0.000137105
4.68844e-06
-9.47637e-05
3.01554e-05
-7.99435e-05
6.23781e-05
-4.80132e-05
-0.000153328
0.000114271
0.00012534
0.000132259
-5.51746e-06
-9.13439e-05
3.44277e-05
0.000157216
-7.00905e-05
3.96497e-06
-4.07899e-05
1.59524e-05
3.88309e-05
6.0418e-06
1.53081e-05
-5.70697e-05
-7.80151e-06
5.22864e-05
-1.11693e-05
-1.69465e-05
-0.000162787
7.49602e-05
9.88801e-06
0.000164568
8.00951e-05
0.000215363
-1.71812e-05
0.000148635
2.22609e-07
0.000193934
1.58959e-05
0.000225832
-1.16716e-05
0.000167939
-8.30381e-06
0.000196164
1.85882e-05
1.8454e-05
-5.51897e-05
8.80761e-06
7.25594e-05
6.41466e-06
2.68941e-05
0.000153724
4.15644e-05
2.77137e-05
-0.000380248
2.91051e-06
5.66073e-05
2.82966e-05
-0.000246757
-1.31062e-05
0.000196448
0.000156107
0.000124106
9.20769e-06
-5.38475e-05
0.000221744
4.81771e-05
-2.33736e-06
-0.000964958
0.000195938
-0.000425909
-0.000499114
1.64589e-05
1.20436e-05
3.86576e-05
1.98008e-05
-4.04327e-06
6.39539e-05
-6.04493e-06
-2.32538e-05
1.0499e-05
-0.000234404
-4.31717e-06
0.000174158
-5.19702e-05
8.02219e-05
8.72549e-05
3.59074e-05
3.86603e-05
6.46107e-05
0.000118502
0.000129658
0.000103051
9.94364e-05
0.000104955
2.80438e-05
-5.60111e-05
-0.000418926
0.000162113
0.000203867
0.000132752
7.82346e-05
2.11745e-05
3.19977e-05
-0.000136484
0.00020121
0.000278407
-2.18872e-05
-7.99779e-05
3.69302e-05
-4.59872e-05
-1.99242e-05
-0.000365424
-0.000122011
-5.70414e-05
0.000126843
-4.72317e-05
-1.15823e-05
-1.90621e-05
2.43399e-05
1.792e-05
2.14532e-05
7.3851e-05
-2.83704e-05
-8.13199e-06
-0.000115515
2.96062e-05
2.25109e-05
-3.38752e-05
-0.00035238
6.04269e-05
-6.99331e-05
4.00042e-05
3.07294e-06
1.79834e-05
-2.58677e-05
3.86746e-06
9.93394e-06
-0.000181005
-0.00233593
-0.0039642
-0.002189
9.52513e-05
0.00013892
0.000187642
2.16014e-05
-5.51285e-07
1.49295e-06
0.000190975
0.000141252
2.93011e-06
-6.40652e-05
2.9249e-05
-6.70488e-05
4.35089e-05
0.000111774
-8.47115e-05
5.62773e-05
8.89188e-07
-4.67086e-05
-0.000273677
-8.71184e-05
-0.000390282
5.35724e-05
9.80351e-05
-0.000453592
-3.52892e-05
-0.00181472
0.000203388
-3.36521e-05
-6.35297e-05
-2.29952e-05
1.46912e-05
-2.58069e-05
-6.96661e-06
-3.96185e-06
-6.20167e-06
-4.58497e-05
-4.74073e-05
3.7835e-05
-0.000230659
2.93839e-05
5.84406e-05
1.49913e-05
-7.37519e-06
-1.98209e-05
-2.10525e-05
7.24981e-06
6.78118e-05
6.20275e-05
4.08264e-05
6.88193e-05
8.4491e-05
5.5193e-05
-2.69731e-05
-0.000174818
-0.000118672
0.000118192
0.000115157
6.05966e-05
-2.19674e-05
-0.000109097
2.09092e-05
4.65928e-05
0.000147094
-3.01827e-05
-9.05501e-06
1.83808e-05
4.02023e-05
0.000171216
-3.13217e-05
-0.000482274
-0.000963429
-0.000648131
6.20999e-05
0.000161209
5.97832e-05
-2.00694e-07
-7.58026e-06
2.69224e-05
-4.86064e-05
3.55577e-05
-0.000226563
0.00015353
0.000160911
0.000159458
0.000173342
6.79365e-06
8.30316e-06
-3.33259e-05
0.000171793
-3.60629e-05
-2.90676e-05
-1.09984e-05
-2.59236e-05
-0.000121269
-3.72338e-05
-2.35466e-05
-2.03287e-05
-7.89959e-06
-1.74327e-06
-1.1698e-05
3.05995e-06
-4.92764e-06
-1.33631e-05
-0.000514244
6.867e-06
-2.38536e-05
5.69243e-05
-2.97109e-06
9.57588e-06
4.96445e-05
9.19114e-05
5.67481e-06
4.78156e-05
-9.42115e-06
-1.78079e-05
-0.000102841
-5.62743e-06
-0.000249864
-0.00047877
-0.000442361
-0.000294444
-2.52392e-05
-3.30792e-05
0.000130632
0.000190739
0.000190664
-0.000262535
-0.000239123
-4.93823e-05
-0.000196288
-0.000272048
-0.000472063
-0.000452997
9.31558e-05
-0.000271197
-0.000456946
7.58488e-05
2.2526e-05
0.000181304
0.000273154
5.20956e-05
-3.19735e-05
-0.000149504
-3.10303e-05
-0.000589216
0.000215211
0.000203745
-0.0018037
-0.0013316
-0.000358642
-0.00244917
-7.4002e-06
-0.000330587
7.40447e-06
-3.18128e-05
-0.000120074
-6.51204e-05
0.000191203
-6.55894e-06
-0.000101365
0.000198111
7.05581e-05
-7.70788e-05
0.000171079
1.11947e-06
-4.1827e-05
-5.3894e-05
-2.87803e-05
-3.10058e-05
-3.90099e-05
-5.36522e-05
0.000138266
1.75935e-05
-0.000101466
0.000278158
3.46387e-05
-4.73641e-05
0.000153688
2.86547e-05
-6.24185e-05
0.000185812
5.08251e-05
-0.000112091
0.000153523
-3.92487e-05
9.37847e-05
-3.72699e-05
9.18058e-05
-0.000270587
-9.65568e-05
-0.000136837
-0.000118503
-0.000354059
0.000153676
8.68238e-05
0.000166409
-6.12188e-05
-3.76729e-05
0.000232112
-0.000104018
-2.06511e-05
-7.67713e-05
-5.81755e-05
-5.64938e-05
-6.82086e-05
-5.61419e-05
-0.000187355
-3.50819e-05
-8.30958e-05
-9.50591e-05
2.72777e-07
-9.70932e-05
-6.81085e-05
-0.000106318
-9.53158e-05
-3.96258e-05
-4.59513e-05
-5.48802e-05
-6.80161e-05
-4.34939e-05
-0.000113767
-4.81511e-05
-6.87997e-05
-0.000132515
-0.000160175
-0.000109831
-0.000103079
-4.91419e-05
-8.59267e-05
-4.00936e-05
-0.00010138
-8.49232e-06
-0.000107223
-0.000120077
-0.000132491
-5.06212e-05
-4.72266e-05
-8.6632e-05
-5.03372e-07
-8.27221e-05
-6.14137e-05
-0.000274868
-5.64738e-05
-9.48404e-05
-8.20646e-05
-4.34394e-05
-0.000186616
-2.99022e-05
-3.33898e-05
-0.000104326
-2.47523e-05
0.000134498
-0.000314313
-0.0016161
0.000431826
0.000542773
-0.00173868
4.50624e-05
-0.000900887
-0.000386788
1.56244e-05
0.000165839
-0.00126111
5.27031e-05
0.000118989
-0.000204192
-0.000162859
0.000310457
-0.00068467
-0.000175675
-0.000241327
-0.000368907
-0.00012476
-0.000191035
-0.000189817
-3.94426e-05
-0.000297676
-9.53149e-05
5.38048e-05
-0.000198657
0.000213349
-0.000217238
-4.73321e-05
-1.99075e-05
0.000295678
0.000620206
-0.000123006
-8.15478e-05
-0.000225062
0.000271975
-0.00202842
-4.44159e-05
-6.60797e-05
-0.000199284
-0.000146338
-2.8992e-05
-0.00038928
-0.00045754
-0.000691986
-5.02331e-05
-0.00020883
-0.000406293
-0.000286071
-0.000240263
-2.73219e-05
-0.000342687
-0.000414989
0.000381465
-5.91355e-05
-0.000229833
-0.000708013
0.00046606
0.000386764
-0.00044665
-0.000806569
0.000362033
-0.000396804
-0.000155271
-0.000171548
-0.000568482
-0.000337271
-0.000912163
-0.000247119
0.000214124
-0.000245782
-0.000581457
-0.000751099
-0.000455464
-0.000131122
3.94903e-05
-6.89491e-05
-0.000424041
0.000521631
4.31876e-05
-0.000193901
-0.000433423
0.000576761
0.000423217
-0.000118409
0.000119407
2.57687e-05
-0.0010445
0.000456042
0.000102229
-0.000391892
2.85112e-05
-0.000398836
-0.000239233
-0.000635411
-0.000215901
-0.000132896
-0.000465903
-0.00014965
-0.000538055
-0.000236411
4.79442e-05
-6.94166e-05
-0.000120769
-0.000299864
5.67639e-05
-4.61355e-05
-1.11947e-05
8.72291e-05
0.000407445
0.00051989
-0.000807512
8.0869e-05
-0.00159034
0.000241836
-1.25885e-05
0.000249872
0.000519805
8.56894e-05
0.000224035
0.00066774
-2.46684e-05
-0.000135428
-0.000153854
-5.049e-05
-0.000387926
-0.000264008
-8.0002e-05
5.84981e-05
-4.85876e-05
0.000436548
4.72891e-05
-5.95989e-05
-0.000392361
0.0005197
0.000357734
-0.000135219
7.96817e-05
-0.000793231
-0.000406623
-0.000378841
0.00023049
6.54821e-05
-0.000143202
-0.00038419
0.00042171
-0.000197949
-5.23827e-05
-0.000116969
-2.77912e-05
-4.14362e-05
-0.000261578
-6.45093e-05
-3.63725e-05
6.57586e-06
-9.64446e-05
0.000516663
-0.000345731
0.000632628
-3.04135e-06
5.53353e-06
-0.000464054
0.000630795
0.000687789
-0.000155156
-0.000270562
-0.000310355
9.89812e-05
-0.000737752
-0.000227651
-9.2646e-05
-0.000160551
-0.000126362
-9.83155e-05
-0.000403841
-0.000987786
-0.000862187
-0.000785926
0.000581133
-0.00212628
-0.000602368
-0.00078376
-0.000729994
-0.00128056
0.000484342
-0.0010239
-0.000496447
-0.00140631
-0.00121568
-0.00209018
-0.000335456
0.000215418
-0.0034853
-0.000317542
3.34559e-05
-0.000520702
-0.000953862
0.000657323
-0.00168833
-0.00118032
-0.000407087
-0.000991374
-0.00151372
0.000694615
-0.00320406
-0.000399015
2.67033e-05
-0.000462216
-0.00175449
0.000417014
0.000145827
-0.00241843
-0.000224913
-0.000365035
-0.000526606
-0.00116392
0.000581736
0.00043039
-0.00297361
-0.000201498
-5.09589e-05
-0.000693857
-0.00170334
0.000543836
0.000297145
-0.00315763
-0.000123977
-0.000449757
-0.000370292
-0.000715328
-0.000285014
0.000395088
-0.0005129
0.000268952
-0.00116024
-0.00134664
-0.0009407
-0.00124248
-0.000236019
-0.000309851
-0.00105218
-0.000146501
3.28726e-05
-0.00111233
-0.000299748
-0.000472096
-0.000567267
7.27079e-05
0.000605477
3.43142e-06
-0.000952955
-0.000517144
0.000521548
-0.000482224
-0.00219893
-0.000378177
-0.000316586
-0.000319374
-0.00072411
-0.000534248
0.00022004
-0.00144222
0.000719875
0.000188174
-0.00132737
-6.12233e-05
-8.61862e-05
-0.000333571
-0.0014385
0.000537628
0.000255116
-0.0019746
-0.000156711
-6.977e-05
-0.000617091
-0.00121625
0.000339078
0.000153839
-0.00229852
7.99361e-05
0.00011036
-0.000227513
-8.91442e-05
0.000245824
-0.00013453
0.00048336
5.52169e-05
-0.000233966
0.000516139
-0.000237254
-1.16337e-05
5.18283e-05
-0.000272415
-0.000204169
0.000107116
0.000143989
0.000656813
4.77088e-05
0.000375981
0.000693267
-0.000587732
-0.00176657
-0.000951699
-0.00175417
3.26201e-05
0.000158272
-0.00267719
-3.61794e-05
-0.000503421
-0.000281922
0.00046741
-0.00152385
-0.00160338
-0.000992864
-0.00203842
0.000165314
5.56529e-05
-0.00203366
-0.000766647
-0.00206056
-0.000913183
-0.00151849
0.000390674
0.000382803
-0.00182745
-0.000737844
-0.000979008
-0.000890225
0.000584696
0.000145627
-0.00266405
-7.08841e-05
-0.000580024
-0.000344829
-0.000799919
-0.000419682
-0.000329893
-0.00192196
-0.00111987
0.000390671
-0.00211469
3.98714e-05
0.000123739
-9.17575e-06
-0.000147427
0.000161318
0.000146078
-0.000246252
-0.000875281
-0.000516559
0.000478949
-0.00199181
-0.000863433
-0.000723076
-0.000491169
0.000375331
-0.00244491
2.08606e-05
-0.000253137
-0.000304092
0.00034126
-0.000243973
0.00010075
0.000188022
1.23912e-05
-0.000143142
0.000325825
-0.000220147
-0.000211046
-0.000939061
-0.000545039
0.000439109
-0.00167432
3.29593e-05
0.000117264
-1.55075e-05
-0.000218249
0.0002329
0.000227749
-0.00027558
-0.000685599
0.000386404
-0.000276489
8.44009e-05
0.000190073
2.80995e-05
-0.000245823
0.000273785
-0.000255477
-0.000781257
-0.000773005
-7.47846e-05
0.000397668
-0.00127195
6.57113e-05
-0.000576823
5.73984e-06
0.000416273
-0.000981464
-0.00048631
-0.00057366
-0.000356572
0.000456131
-0.0015149
-0.000146593
0.00022941
-6.1823e-05
-0.000885291
0.000294502
-0.000714053
0.000194997
0.000118124
-0.000332144
-0.000686805
0.000242892
0.000115935
-0.000449523
-7.92735e-05
3.05944e-05
-0.000317048
-0.000578868
0.000387931
-0.000942995
0.000126554
5.34894e-05
-0.00055855
-0.000683277
0.00011455
-0.00113763
-0.000537165
-0.000567121
-0.000902204
-0.000813191
6.55385e-05
-0.0014378
-3.27835e-07
-0.000357811
-0.000357505
-0.00062802
0.000200839
-0.000769988
-3.96044e-06
-0.000499692
-0.000872538
-0.000595787
0.000400382
-0.00159937
-0.00034259
-0.000724188
-0.000807579
-0.000405109
0.00033139
-0.00173463
-1.42236e-05
0.000168402
-0.000474401
-0.00020239
0.000322615
-0.00092041
3.6075e-05
0.000141623
-1.28174e-05
-0.000208156
0.000168946
-0.000124262
6.03219e-06
-0.000664307
-6.86771e-05
0.000373553
0.000160744
-0.000306408
-0.000289368
-0.000595653
0.00036005
-6.96588e-05
-0.00114399
-2.29809e-05
0.000255166
-0.000246032
-0.000747792
0.000238507
-0.000618673
-0.000910319
-0.00262202
-0.000892578
-0.00149973
0.000354736
0.000440658
-0.0021894
-9.70791e-06
-0.00012997
-0.000148073
-0.000253614
2.88382e-05
-0.000175744
-0.000764238
-0.000871886
-0.00067591
0.000421445
-0.00224572
-4.69289e-07
9.87489e-05
-6.16566e-05
-8.92907e-05
0.000162343
-0.000707708
-0.00115598
-0.00068029
0.000222488
-0.0036898
-0.002024
-0.000653463
-0.00116887
0.000181874
0.000521589
0.000295924
-0.00107645
-0.000375135
-0.000102733
-0.00070761
0.000571345
-0.00227045
0.000238456
-0.000270943
-0.000290237
0.000530322
-0.00175338
-4.30453e-05
-0.000488424
-0.00054075
-0.000725216
-0.000273796
8.53176e-05
-0.00131897
-0.000418993
-0.000618644
0.00064043
-0.00277936
-5.50764e-05
-0.000478299
-0.000447891
-0.000682561
-0.000335846
0.000287675
-0.000980041
-5.88641e-05
-8.03738e-05
0.000772526
-0.00223824
-7.54917e-05
-0.000741647
-0.000369564
-0.000922847
-0.000616589
4.0053e-05
-9.294e-05
-0.000556767
0.000603397
-0.00131429
-0.000409045
-0.000877574
-0.000794194
-0.000926932
0.000522725
-0.00237965
-8.39837e-05
-0.000935434
-0.000509312
-0.00118919
-0.000698679
0.000290822
0.000131348
0.000250282
0.00016488
0.000723923
-0.000534527
-4.26717e-05
-0.00108061
-0.00080324
-0.00146302
0.000601263
-0.00193328
0.000143701
-0.00041625
-0.000401351
0.00024917
0.000454438
4.30861e-05
-0.00153985
-0.000451884
-0.000421519
-0.000567134
-0.000557572
0.000408884
0.000410613
-0.00200964
2.89009e-05
-0.000598535
-6.46887e-05
-0.00076687
0.000318961
-0.000593661
-0.000316473
-0.000255812
-0.00101711
-0.000697368
0.000130351
3.95917e-05
-0.00223947
-8.07539e-05
-0.000108162
-6.85902e-05
-0.000573584
0.000402367
0.00034489
-0.000827899
-0.000248024
0.000327477
-0.000176939
-0.000752595
0.000347355
0.000233203
-0.00180236
-0.000104329
0.000111482
-6.61137e-06
-0.000622366
0.000447342
0.00055906
-0.0011654
0.000144888
0.000217513
-4.40935e-05
0.000594621
-0.00160251
0.000124698
-0.000273669
-0.000269276
-0.000696194
0.00036744
-0.00180497
-0.00028712
-0.000104197
-0.000193602
-0.000219319
0.000386297
0.000422404
-0.00162529
0.000113892
-0.000112446
5.12504e-05
-0.000229646
0.000500229
0.000581867
-0.000987716
-6.02928e-05
6.99409e-05
0.000135539
-0.0009507
0.000382965
0.0004339
-0.00131937
0.000106017
0.000140543
7.37376e-05
0.000412706
0.000656739
0.000617413
-0.000892444
0.00010016
0.000242732
-0.000225124
-0.00106957
0.000502778
0.000456412
-0.000808557
-9.35752e-05
-0.000541857
-0.000392895
0.000329972
0.000470684
-0.00178595
-3.69463e-05
-8.5916e-05
-0.000636833
-0.000304718
0.000375686
-0.00194945
0.000124845
0.000197618
4.33039e-05
0.00010533
0.000608707
-0.000934075
-9.33491e-05
-0.000769684
-0.000544851
-0.00102621
-0.000256835
-0.000675993
-0.000727382
-0.00040927
-0.000413074
0.000618062
-0.00189805
-0.000200206
-0.000837696
-0.000462244
-0.00105361
-0.000661015
7.40457e-05
-5.63039e-05
-0.000478934
0.000131875
-0.000126639
-0.000186974
-0.000607996
-0.000443942
-0.000844498
-0.000426365
-8.8765e-05
-5.93476e-05
-0.000513742
0.000509087
-0.00164699
3.11672e-06
-0.000613311
-0.000469876
-0.00112377
-0.000399467
-0.000233081
-0.000315704
-0.00144706
-0.000166739
0.000194384
-0.000427839
-1.55147e-05
-0.000448107
-0.000244939
-0.000855914
-0.000152821
-0.000363869
-0.000544719
-0.000503627
-0.000734214
0.000550718
-0.00140341
1.23724e-06
-0.000262321
-0.000203801
-0.000580999
0.000102698
-0.000272278
-0.000288538
-0.000203949
-0.00065891
0.000601083
-0.0021668
2.48977e-05
-0.000145806
-0.000274902
-0.000442561
0.000172093
0.000427037
-9.14017e-05
-0.000572363
0.000461045
0.000383459
-0.000102543
0.000217908
-5.92545e-05
-0.000136375
-0.00169401
0.000302347
0.000458015
-0.000500282
-0.00010786
-0.0010018
-0.000715155
-0.00123846
-0.000700241
-0.000513161
-0.000643801
-0.00167246
0.000250739
0.000206813
-0.00144202
3.00419e-05
-0.000461886
-0.000332576
-0.00067909
-0.000122425
-8.11333e-05
5.59201e-05
-9.79303e-05
0.000295925
0.000697403
-0.00110443
2.39959e-05
-0.000701694
-0.000441867
-0.00100858
-0.00032031
-0.000215831
-0.00043258
-0.000209325
-7.38184e-05
0.000674968
-0.00157956
-0.000145657
-0.00058043
-0.00051047
-0.000713124
-0.000325989
-0.00043389
0.000236464
-0.000160922
2.78476e-05
0.000526953
-0.000823638
0.000116057
-0.000126239
-0.000298656
-0.000582402
0.000302711
0.000169675
-0.000310733
-0.000141048
-0.00058514
0.00061698
-0.00146073
5.26063e-05
4.83039e-05
-6.99981e-05
-0.00033666
0.000149093
-0.000436425
0.000173474
-0.000796655
-0.000375843
0.000437073
-0.000965155
-8.77879e-05
-0.00038261
-0.000257205
-0.000673614
-2.65015e-05
0.000255038
-0.000152948
5.315e-05
-0.0001187
0.000405054
-0.000624646
2.58068e-05
-0.000196569
-0.000450274
-0.000492335
0.000560923
-0.000987004
0.000301944
-7.0737e-05
7.70957e-06
-0.000193678
0.000346773
-0.00145138
0.000118045
4.639e-05
-1.93706e-05
-0.000232954
0.0003498
9.12156e-05
-0.000362742
-0.000425271
-0.000769814
0.000421782
-0.000278936
9.62731e-06
-5.95415e-05
-0.000123662
-0.000219892
0.000128591
0.000180363
-0.000173996
-7.29871e-05
-0.000127592
0.000554222
-0.00105021
1.72349e-06
0.000475219
-7.06933e-06
-0.00050214
0.000564256
-0.000410827
6.78042e-05
0.000193205
-0.000125078
-1.87103e-05
0.000388358
0.000385748
-3.75169e-05
-0.000481867
-0.000668355
0.000575316
-0.00117089
-6.01539e-05
-3.28112e-05
-0.000558148
-5.39003e-05
0.000308364
0.000397133
-0.000839883
-0.000190609
4.29074e-05
-0.00049936
-0.000418805
0.000457034
0.000446653
-0.000934327
1.60011e-05
0.000188577
-4.02033e-06
-0.000677958
0.00057835
0.000397557
-0.00042025
0.00020369
-0.000115985
-0.000130186
-0.00054247
0.000485355
-0.000301044
0.000447243
-0.000312305
6.50327e-06
-0.000132474
0.000723669
-0.000456599
9.71011e-05
-0.000176701
-0.000261287
-0.000113766
0.000304666
-0.00109608
-0.000361926
0.000107299
-9.06545e-05
0.000660123
0.000552129
-0.00071716
-6.87861e-05
-0.000396634
-0.00041972
-0.000365321
0.000532156
0.000475412
-0.000797238
-2.68738e-05
-0.000269393
-0.000220661
-0.000439778
-7.46971e-05
7.05571e-05
-0.000159725
-4.43507e-05
-0.000716665
0.000336375
-0.000538648
-0.000152385
9.87713e-05
-0.000671514
0.000445039
0.000501075
-0.000302796
7.77767e-05
-1.72434e-05
-0.000196339
2.13504e-05
0.000485044
0.000639744
-0.000599228
0.0001317
0.000692658
0.000209056
-0.000230648
0.000465375
-6.29662e-05
0.000237329
0.000181628
9.49764e-05
9.48433e-05
0.00015107
-0.000934348
0.000102418
-0.000182206
-0.000175933
-0.00262162
-0.000638872
-0.00122166
-3.62439e-05
0.00023137
-0.00101447
0.000172228
-0.00154755
0.000227448
2.18137e-06
-0.000291643
-0.00182684
-0.000733191
-0.000806529
4.61593e-05
0.000291419
-0.000857372
0.000242009
-0.00176821
-0.000153981
-0.000582926
-0.000172448
-0.000637848
0.000159906
-0.000420503
-0.00118131
-0.00057283
-0.000152187
-0.000729075
4.07887e-05
-0.00066186
5.23253e-05
-0.000650305
0.000213453
0.000242045
-0.00213565
-0.00035595
-0.00109094
0.000130331
0.000477191
-0.00069635
0.000594182
-0.000591091
-0.000169579
0.000187081
0.000104311
-0.000154218
-0.000202045
-0.000138488
-0.00127005
-5.62892e-06
0.000382581
-0.000308144
0.000343198
-0.00118214
-4.64208e-05
-0.000397691
-0.000300349
-0.000170688
-0.000727635
-0.000260129
-0.000628875
9.3385e-05
0.000495814
-0.000903153
0.000249764
-0.00153531
-1.38124e-05
-0.00061933
0.000202999
-3.06394e-05
-0.000458811
-0.000552973
-0.000590565
0.000164949
0.000684764
-0.000816427
0.00028563
-0.000151367
-0.000122634
-0.000179586
-0.000272931
-0.000208918
-0.00291846
-0.000771546
-0.00098746
1.24094e-05
0.000488703
-0.00115569
0.000112481
-0.00122913
-0.000684296
-0.000372214
-0.000184156
-0.000169845
-0.00148973
-0.000432307
-0.000858256
-0.00010754
0.000427511
-0.00112695
0.000271449
-0.000144865
-0.00120923
-0.000309383
-0.00136669
-0.00114875
-0.000340553
-0.000510943
-0.000393665
-0.00161166
-0.000434126
-0.000212082
-0.000549003
-0.000240272
-7.94961e-06
-0.000195114
-4.8125e-05
9.60167e-05
-0.000414943
-0.000567557
-0.000940491
-0.0013622
-0.000624158
0.000184616
8.20682e-05
-0.00110296
0.000282364
-0.00160165
-0.00107813
-0.000500822
0.000264261
-0.000194549
-0.000879684
-0.000637274
-0.00065768
5.82454e-05
0.000508362
-0.00088636
0.000376647
-0.000908828
-0.000444099
-0.000623162
0.000172776
0.000175655
-8.98321e-05
-0.000166402
-0.00102265
0.000201481
0.000475763
-0.000716074
0.000535537
-0.000133511
-0.000200933
-0.000268682
-0.000414201
-0.000212027
-0.000949494
-0.000532178
-0.00122333
-0.000142503
0.00041559
-0.000924477
0.000327934
-6.06105e-05
-0.000950471
-6.01982e-05
-0.000630487
4.10374e-05
0.000296606
-0.000512928
0.000256843
-0.000280026
0.000232095
0.000568909
-0.000661186
0.000622286
-8.3813e-05
-7.53079e-05
-0.000365251
-0.0006035
-0.00174482
-0.000767208
-0.00144786
-0.000244512
0.000425024
-0.00105584
-0.00102372
-0.000402509
0.000141828
-0.00012652
0.000107355
9.25731e-05
-0.000295096
-0.000200266
9.64358e-05
0.000113409
7.28815e-05
3.06621e-05
4.13455e-05
9.74672e-05
-6.46231e-05
-7.10958e-06
6.05065e-05
0.000109827
2.78238e-05
0.000126308
4.9713e-05
2.54403e-05
3.87298e-05
6.26824e-05
-0.000167476
-9.60024e-05
-1.06078e-06
-1.66436e-05
-5.36166e-05
-0.000325786
3.89032e-05
-0.000209752
-7.61876e-05
4.349e-05
-0.000114502
4.13496e-05
3.29663e-06
9.91229e-05
-8.2714e-05
-1.61338e-05
7.36621e-05
2.68321e-05
-0.000189581
-0.000128645
-0.000370949
-0.000150258
-0.000205296
-0.000213842
-0.000508096
-0.000262242
0.000119879
8.30323e-05
-7.72785e-05
-7.54967e-05
4.29976e-06
-0.00015381
-3.99556e-05
-0.000131662
-9.06332e-05
-0.000240757
-0.000229905
-0.000273551
-1.6627e-05
-0.000362773
-0.000365818
-0.000339882
-7.3993e-05
-0.000139839
-0.000109987
-0.000224059
-0.000261014
-0.000381469
-0.000221406
-0.000343804
-0.000251102
-0.000351772
-0.000277342
-0.000302727
-0.000161475
-0.000218697
-0.000131312
-0.000311598
2.97632e-06
-0.000286113
-0.000299491
-0.000262637
-0.000168007
-0.000455779
-2.00227e-05
-0.000199641
1.92144e-05
-0.000107329
-0.000123847
-3.3755e-05
-6.50004e-05
-3.04759e-05
-0.000157714
-6.40763e-05
-0.000329608
-2.11458e-05
-0.000211349
-0.000295646
-0.000124019
-0.000257255
-0.000243461
-0.000105268
-0.000403027
-0.0003449
-0.000233721
2.09232e-06
-4.55506e-05
-0.00027213
-0.000434224
-0.000363857
-0.000332294
-0.000123881
-3.9293e-05
-0.000240608
-0.000237122
-0.000264584
-0.000295232
-0.000417566
-0.00019883
1.39312e-05
-0.00035728
-0.000298188
-0.000191589
-7.80851e-05
5.82923e-06
-7.49496e-05
2.54802e-05
5.27994e-05
-0.000188991
0.000480973
4.61546e-05
0.000100292
-0.000131378
-0.000243333
4.51711e-05
-8.11229e-05
8.25978e-06
-5.13453e-05
0.000133621
-6.72165e-05
3.59012e-05
-6.18488e-05
3.30685e-05
-1.42947e-05
0.000324729
4.96041e-05
3.66969e-05
-9.97013e-05
-2.68394e-05
0.000132082
2.727e-05
1.2342e-06
-4.98566e-05
0.000262852
0.000198648
8.64329e-05
0.000122684
0.000129336
-3.82751e-05
0.000169624
-5.48695e-05
0.000109611
-5.92013e-05
0.000155157
2.5032e-05
-1.06847e-05
0.000160764
-0.00012644
1.60265e-05
3.39397e-05
0.000161712
-3.69019e-05
-2.90951e-05
0.000121517
0.000108895
-2.58488e-05
-7.56557e-05
0.000149411
-3.74838e-07
-0.000149524
-4.37049e-05
-7.12942e-06
5.27877e-06
-4.47458e-05
0.000303167
0.000280072
6.28327e-05
9.62006e-05
0.000138131
1.04414e-05
3.14136e-05
3.16681e-05
2.54595e-05
0.000110937
5.32418e-05
-1.76136e-05
-3.04469e-05
-0.000205736
-0.000115229
-2.74503e-05
-5.69528e-05
0.000211879
-0.00013586
9.82766e-06
-0.000245366
-0.000100593
-0.00011788
3.41285e-05
-2.22917e-05
-0.000150662
7.76765e-05
0.000159792
4.88419e-05
-7.73654e-05
0.000110199
-7.21643e-05
-8.55432e-05
-3.20933e-05
-5.97183e-05
-0.000110698
-0.00030607
-3.51585e-05
-8.40922e-06
-6.39806e-05
-6.45091e-05
-5.00873e-06
8.33068e-05
9.98103e-05
0.000356743
2.40529e-06
-0.000186936
-5.28905e-05
-0.000402226
4.67325e-06
7.93323e-05
9.75586e-05
3.83763e-05
-2.39472e-05
0.000113248
1.22807e-05
7.14239e-06
2.88669e-05
8.37594e-05
1.39797e-05
8.93525e-06
-4.90782e-06
6.14732e-05
7.02964e-05
1.89593e-05
-0.000215525
0.00010855
9.29889e-05
4.37976e-05
5.18853e-05
0.000134394
0.000105018
6.96395e-05
3.66941e-05
2.66799e-05
-9.83548e-06
-9.40896e-05
5.80231e-05
2.84505e-06
7.61953e-05
1.4199e-06
3.13718e-05
-2.78883e-05
-0.000178058
1.23062e-05
4.41331e-05
0.000125403
-2.17618e-05
-0.000246711
5.59635e-07
6.00904e-05
3.49663e-05
6.28746e-05
3.81054e-05
0.000101614
-6.29499e-06
0.000157733
6.47775e-05
-1.34449e-05
-5.30373e-05
-8.24109e-05
3.85376e-05
0.000213039
9.29417e-05
4.87928e-05
9.03381e-05
-7.98034e-05
0.000236261
0.000151692
2.16246e-05
1.74282e-06
-4.11962e-05
5.59854e-05
-6.53359e-05
0.000111629
-3.48875e-06
-0.00029013
-0.000379439
-0.00030079
0.000151254
-2.45487e-05
-8.72546e-05
-7.54451e-05
3.20559e-05
-2.69273e-05
6.56606e-06
-6.72048e-05
-1.54697e-05
5.14226e-05
-0.000144625
0.000129795
0.000221565
-9.29777e-05
-5.04338e-05
0.000161744
-4.2281e-05
1.07796e-06
5.71678e-06
0.000177165
-4.89808e-06
-7.16883e-05
-9.73307e-06
0.000138631
9.32399e-06
2.69196e-05
0.000138771
0.000196588
3.78229e-05
3.3872e-07
1.68127e-05
-0.000195543
-7.74275e-05
-3.42939e-05
1.73895e-05
0.000101041
5.15069e-06
9.00014e-05
0.000108498
8.51175e-07
0.000108273
-0.000167075
-3.83686e-06
7.45423e-05
-1.17459e-05
-7.31539e-05
-6.15755e-05
2.73097e-06
1.63012e-05
0.000234072
-6.46924e-05
-1.40455e-05
0.000107603
5.81248e-05
5.99095e-05
3.54424e-05
2.19393e-05
-7.27034e-05
0.000145104
8.69682e-07
-0.000275705
4.89176e-05
-0.000105803
-1.02466e-05
0.000108698
4.79912e-05
4.5772e-06
0.000116508
-3.13699e-05
0.000108087
7.80708e-05
0.000121505
-0.000161498
4.98683e-06
7.2637e-05
-5.90124e-06
-0.000118959
2.80255e-05
-3.10738e-05
7.11701e-06
-2.21931e-05
-0.000818923
-0.000172313
1.65553e-05
7.56985e-05
0.000119945
0.000150924
-2.46431e-05
-6.65867e-05
-0.000172434
-0.000174759
-0.000474343
-0.000740012
-0.000185809
7.53166e-05
0.000155521
1.88802e-05
-0.000120495
9.61716e-05
-3.64969e-05
-8.47562e-06
-1.24826e-05
1.76413e-05
0.000164856
1.23372e-05
1.05384e-05
2.28316e-05
6.51087e-06
0.000116306
1.24464e-05
-9.17625e-05
4.49245e-05
-0.000400231
9.8585e-05
-0.000122752
-1.46404e-05
0.000120188
0.000174538
0.000135667
4.77522e-06
-5.81715e-05
2.8454e-05
-4.1485e-05
5.82696e-05
-3.44202e-05
-0.000102477
0.000123771
0.000126979
0.000124096
-3.54409e-06
-5.95773e-05
3.65187e-05
0.000144813
-4.25775e-05
5.98996e-06
-2.55855e-05
3.12021e-05
5.655e-05
7.17676e-06
1.81093e-05
-2.65274e-05
-1.38239e-06
5.60035e-05
-7.51694e-06
-1.08987e-05
-9.37251e-05
9.80716e-05
1.76727e-05
0.0001606
8.1548e-05
0.000200248
-5.6379e-06
0.000149453
2.74222e-06
0.000180033
2.81517e-05
0.000211769
-3.6432e-06
0.000164288
-3.14695e-06
0.000187208
2.20152e-05
1.82371e-05
-3.59683e-05
8.38275e-06
6.82645e-05
6.68178e-06
2.53808e-05
0.000117974
3.98673e-05
2.84026e-05
-0.000259834
8.58856e-06
5.16238e-05
2.60219e-05
-0.000169061
-7.80453e-06
0.000174685
0.000117282
0.000117892
1.07151e-05
-1.65652e-05
0.000208383
6.12363e-05
8.77544e-06
-0.000647668
0.000180564
-0.000292734
-0.000339582
3.23268e-05
3.61452e-05
3.77672e-05
1.86173e-05
-2.64039e-06
6.31718e-05
-4.02635e-06
-1.55488e-05
9.01793e-06
-0.000155273
-2.45098e-07
0.000161226
-3.42938e-05
7.47933e-05
8.41298e-05
3.25867e-05
3.52439e-05
5.70979e-05
0.000110317
0.000120024
9.71636e-05
8.90376e-05
8.74054e-05
2.57277e-05
-3.33309e-05
-0.000284856
0.000152869
0.000181527
0.000121139
7.38226e-05
2.66362e-05
3.03139e-05
-9.53918e-05
0.000179224
0.000253604
-1.4696e-05
-5.43409e-05
4.85211e-05
-3.14244e-05
-5.69367e-06
-0.000250727
-6.77579e-05
-3.85392e-05
0.000123559
-1.82048e-05
-5.60244e-06
-1.16366e-05
2.4002e-05
2.05491e-05
2.21718e-05
6.87487e-05
-1.78693e-05
-5.47022e-06
-7.59236e-05
3.26607e-05
2.11327e-05
-2.03582e-05
-0.000245889
5.69465e-05
-4.75698e-05
3.8038e-05
2.93803e-06
1.70577e-05
-1.6352e-05
4.35471e-06
9.25226e-06
-0.000122268
-0.00164207
-0.00289847
-0.00153737
8.91197e-05
0.000127562
0.000175356
2.08018e-05
5.04074e-06
2.79987e-06
0.000170688
0.000139599
1.11996e-05
-4.31727e-05
3.38408e-05
-4.54056e-05
4.04488e-05
0.000111653
-5.98669e-05
5.33622e-05
4.33563e-06
-2.99728e-05
-0.000182942
-5.65452e-05
-0.000269396
5.04586e-05
9.78681e-05
-0.000309736
-1.6147e-05
-0.00126415
0.000194704
-1.73042e-05
-3.80636e-05
-1.74492e-06
1.49837e-05
-1.65568e-05
-4.66888e-06
1.34346e-05
-4.03779e-06
-3.15564e-05
-3.12755e-05
6.09673e-05
-0.000155783
3.0129e-05
6.25704e-05
1.86214e-05
-3.14435e-06
-1.08607e-05
-1.29843e-05
1.02124e-05
6.86174e-05
6.63883e-05
7.01744e-05
8.4035e-05
9.77082e-05
5.30698e-05
-1.50082e-05
-0.000108871
-7.76969e-05
0.000111334
0.000109585
5.83527e-05
-1.43666e-05
-7.53269e-05
2.36755e-05
4.63805e-05
0.000144544
-1.91892e-05
-5.66996e-06
3.02272e-05
5.64958e-05
0.000167072
1.35093e-05
-0.000312585
-0.000654633
-0.00043835
8.26029e-05
0.000166497
5.94938e-05
1.10781e-06
-4.10487e-06
2.95993e-05
-2.42932e-05
3.53309e-05
-0.000140249
0.00015413
0.000161065
0.00016001
0.000170473
2.1805e-05
2.56903e-05
-2.13988e-05
0.000168314
-2.39385e-05
-1.74906e-05
-2.37159e-06
-1.65841e-05
-7.89021e-05
-1.73005e-05
-1.50743e-05
-6.10719e-06
-3.65118e-06
1.12645e-06
-6.31404e-06
6.43597e-06
7.96231e-07
-8.09073e-06
-0.000349481
1.46494e-05
-5.09517e-06
8.32256e-05
-1.17043e-07
1.02098e-05
4.67162e-05
8.81069e-05
7.89452e-06
4.82874e-05
1.85616e-05
-1.01924e-05
-7.01375e-05
-3.87576e-06
-0.000168845
-0.000326834
-0.000304364
-0.000197534
7.85245e-06
-7.5995e-06
0.000127975
0.000195815
0.000191255
-0.000176524
-0.000159841
-3.05639e-05
-0.000130955
-0.000180322
-0.000326379
-0.000308867
0.00010745
-0.000184118
-0.000313854
8.27712e-05
4.52787e-05
0.000173342
0.000204562
5.24216e-05
-2.17745e-05
-8.21724e-05
-2.03973e-05
-0.000388409
0.000214594
0.000199416
-0.00126292
-0.000919478
-0.000229682
-0.00165303
-1.87028e-06
-0.00022494
9.15215e-06
-1.51108e-05
-6.30538e-05
-3.6344e-05
0.000177849
4.9079e-06
-6.0081e-05
0.000183759
6.35041e-05
-4.69553e-05
0.000168396
8.83952e-06
-1.87839e-05
-2.72046e-05
-1.34049e-05
-1.30812e-05
-2.68091e-05
-3.43177e-05
0.00013433
1.71647e-05
-6.53755e-05
0.000257032
3.26697e-05
-2.95585e-05
0.000160974
2.67957e-05
-3.75336e-05
0.000174881
4.90183e-05
-7.23114e-05
0.000152451
-1.79622e-05
8.92607e-05
-2.17748e-05
9.28957e-05
-0.000181684
-5.94808e-05
-8.91142e-05
-7.69242e-05
-0.000238667
0.000149054
0.000100473
0.000156542
-3.48326e-05
-1.88373e-05
0.000215596
-6.3349e-05
-3.49093e-06
-4.07577e-05
-2.79818e-05
-2.53591e-05
-3.60435e-05
-2.94205e-05
-0.000120314
-9.94211e-06
-5.00948e-05
-5.73038e-05
1.52536e-06
-5.84223e-05
-3.7969e-05
-6.38328e-05
-5.57521e-05
-1.92047e-05
-2.35033e-05
-2.91285e-05
-3.55861e-05
-2.12442e-05
-6.67894e-05
-2.52347e-05
-3.22545e-05
-7.92738e-05
-0.000103307
-6.72239e-05
-6.4624e-05
-2.7177e-05
-5.35015e-05
-1.85563e-05
-5.87687e-05
-1.10156e-06
-6.42006e-05
-7.3695e-05
-7.96533e-05
-2.56772e-05
-2.4715e-05
-5.24569e-05
9.97616e-06
-4.55872e-05
-3.46093e-05
-0.000184562
-3.24526e-05
-5.11476e-05
-4.80335e-05
-2.0579e-05
-0.000119219
-1.08776e-05
-1.44728e-05
-6.70061e-05
-6.47258e-06
0.000120216
-0.000247627
-0.00123551
0.000413784
0.000512012
-0.00116666
4.92924e-05
-0.000620963
-0.000269402
5.12637e-05
0.000135279
-0.000841389
6.77718e-05
0.000173195
-0.000118151
-6.32122e-05
0.00031469
-0.000460673
-0.00011887
-0.000164832
-0.000251145
-8.46984e-05
-0.000132156
-0.000117005
-2.39739e-05
-0.000185582
-6.4495e-05
5.57736e-05
-0.000100474
0.000196242
-0.000186264
-2.85462e-05
3.30916e-05
0.000313791
0.000554808
-7.49047e-05
-5.68052e-05
-0.0001576
0.00025052
-0.0013863
-3.18426e-05
-1.23202e-05
-0.000118683
-9.11554e-05
1.24929e-05
-0.00022643
-0.000292654
-0.000509388
4.84868e-05
-0.000140561
-0.000262183
-0.000190637
-0.000157765
3.60055e-05
-0.000230714
-0.000251833
0.000310364
-4.07484e-05
-0.000113026
-0.000489884
0.000383402
0.000323641
-0.000306536
-0.000624357
0.000339732
-0.000262985
-7.02226e-05
-9.44547e-05
-0.000352511
-0.000211187
-0.000641805
-0.000115256
0.000237827
-0.000147607
-0.000389994
-0.000539134
-0.000287345
-3.45419e-05
8.20073e-05
-4.72461e-05
-0.00025901
0.00041179
7.01852e-06
-0.000105346
-0.000311367
0.000506353
0.000381825
-3.32092e-05
0.000127792
3.42758e-05
-0.00072744
0.000416236
0.000175523
-0.000237419
6.21139e-05
-0.000213426
-0.000126807
-0.000425186
-6.50425e-05
-4.60229e-05
-0.000313064
-5.20052e-05
-0.000365392
-0.000143635
5.62913e-05
2.62747e-05
-6.9132e-05
-0.00015888
5.31992e-05
-7.50178e-05
6.69885e-05
0.000107895
0.000381172
0.000454664
-0.000599647
0.000112774
-0.00108064
0.00026868
3.78849e-05
0.000214227
0.000501313
9.5527e-05
0.000273114
0.000606886
-1.34915e-05
-9.18274e-05
-0.000108228
-3.15156e-05
-0.000278261
-0.000191324
-3.63628e-05
6.42207e-05
-1.27211e-05
0.000341838
1.85862e-05
-3.99293e-05
-0.000260218
0.000470254
0.000317217
-9.8755e-05
9.10406e-05
-0.000540618
-0.000280453
-0.000265659
0.000204069
0.000135234
-6.51397e-05
-0.000262133
0.000418227
-0.000123963
-3.50971e-05
-6.83406e-05
-1.50992e-05
-2.48585e-05
-0.000177622
-4.11386e-05
-4.27373e-06
3.24696e-05
-6.68831e-05
0.000426021
-0.000230337
0.000498965
-2.72944e-05
2.00364e-05
-0.000319108
0.00056373
0.000610382
-0.000104842
-0.000206322
-0.000219651
0.000106534
-0.000502314
-0.000149107
-6.42907e-05
-0.00010447
-8.47973e-05
-6.6447e-05
-0.000243444
-0.000803087
-0.000834334
-0.000563928
0.000525994
-0.00146306
-0.000377538
-0.000620334
-0.000670492
-0.000981512
0.000445074
-0.000696112
-0.000332463
-0.00111742
-0.00113095
-0.00163406
-0.000178611
0.000219134
-0.00249361
-0.000184788
4.17473e-05
-0.000425742
-0.000796629
0.000589362
-0.00113569
-0.000821566
-0.000301081
-0.00104506
-0.00123634
0.000623352
-0.00227867
-0.000234399
3.8478e-05
-0.000415892
-0.00134498
0.000400716
0.000150127
-0.00165771
-0.000113858
-0.000289445
-0.00048577
-0.000915025
0.000550093
0.000407575
-0.00208549
-9.52732e-05
-2.57155e-05
-0.000617473
-0.00128569
0.000507962
0.000280647
-0.00221641
-5.11003e-05
-0.000247943
-0.000225136
-0.000476655
-0.000125334
0.00036463
-0.000329507
0.0002249
-0.000808175
-0.000953947
-0.000643032
-0.000869995
-0.00010121
-0.000168338
-0.000724093
-6.28228e-05
0.000127364
-0.00092631
-0.000311789
-0.000279454
-0.000419065
0.000133575
0.000548762
5.52574e-05
-0.000724066
-0.000409812
0.000503975
-0.00033564
-0.00155673
-0.000284253
-0.000146916
-0.000145092
-0.000470612
-0.000425116
0.00014379
-0.00110745
0.000659574
0.000187603
-0.000890434
-1.28497e-05
-5.5474e-05
-0.000291793
-0.0010835
0.000500235
0.000250282
-0.00133149
-5.94856e-05
-4.34192e-05
-0.00054353
-0.000892399
0.000341915
0.000180605
-0.00156643
8.59863e-05
0.000157373
-0.000135438
-4.78231e-06
0.000255396
-8.97996e-05
0.000390999
2.56448e-05
-0.000152297
0.000440483
-0.000161301
1.84606e-05
0.000102794
-0.000170383
-0.000102812
0.000141261
0.000145113
0.000519197
2.53969e-05
0.000334696
0.000599439
-0.000415645
-0.00142869
-0.00083523
-0.00149443
0.000116556
0.000231322
-0.00183684
1.94028e-05
-0.000463314
-0.000193789
0.000380542
-0.00105448
-0.001448
-0.000958985
-0.00194496
0.000172551
9.70213e-05
-0.00139026
-0.000564036
-0.00173331
-0.000873633
-0.00125298
0.000364209
0.00036627
-0.00125316
-0.000610226
-0.00100251
-0.000832087
0.00050839
0.000119962
-0.00187222
-3.00786e-05
-0.000415366
-0.000231435
-0.000616718
-0.000277327
-0.000325151
-0.00156989
-0.000947665
0.000340197
-0.00147373
5.00002e-05
0.000141537
1.36659e-05
-8.65796e-05
0.000166549
0.000145845
-0.000248234
-0.000871056
-0.000432582
0.000418505
-0.00143041
-0.000782405
-0.000737378
-0.000407787
0.000347875
-0.00172544
1.01887e-05
-0.000185841
-0.000233119
0.000302394
-0.00016281
9.52361e-05
0.000201796
3.05266e-05
-8.86173e-05
0.000309986
-0.000124349
-0.000171791
-0.000902422
-0.000479387
0.000392912
-0.0011312
4.31826e-05
0.000141637
7.48445e-06
-0.00014722
0.00022955
0.000151179
-0.000232971
-0.000507984
0.000344169
-0.000184116
8.26083e-05
0.000207502
4.17514e-05
-0.000174106
0.000274229
-0.000154478
-0.000745071
-0.000749727
-5.94402e-05
0.00036411
-0.000859551
2.92951e-05
-0.000431334
2.41969e-05
0.000372337
-0.00066017
-0.000407315
-0.000587117
-0.000287491
0.000415321
-0.00105128
-6.78088e-05
0.000168876
-6.72713e-05
-0.00076022
0.000288527
-0.000479363
0.000204301
9.03865e-05
-0.000289391
-0.000565349
0.000247606
0.000143219
-0.000301023
-1.16924e-05
1.35867e-05
-0.000310404
-0.000491329
0.000367989
-0.000634813
0.000160889
4.31921e-05
-0.000416607
-0.00056977
0.0001481
-0.000767831
-0.000438455
-0.000465015
-0.000874293
-0.000753289
0.000110709
-0.000951874
9.30015e-05
-0.000236011
-0.000285775
-0.00045262
0.000251248
-0.00051084
7.79836e-05
-0.000346265
-0.000768079
-0.000466564
0.000411951
-0.00106488
-0.000181501
-0.000529392
-0.000736549
-0.000258746
0.000359928
-0.0011631
7.6947e-05
0.000162441
-0.000387027
-8.10703e-05
0.000339731
-0.000610133
5.47006e-05
0.000196858
2.11261e-05
-7.2403e-05
0.000210791
-1.72936e-05
3.83182e-05
-0.000543675
1.444e-05
0.000361011
0.000194868
-0.000188292
-0.000210341
-0.000452734
0.000357279
4.18671e-06
-0.000756582
6.85888e-05
0.000205315
-0.000183158
-0.000560865
0.000266866
-0.000408038
-0.00066195
-0.00213581
-0.000817886
-0.00129932
0.000390576
0.000459129
-0.00148494
2.14746e-05
-2.17595e-05
-7.4673e-05
-0.000120426
9.40269e-05
-6.92185e-05
-0.000598045
-0.000819017
-0.000566795
0.000411588
-0.00152918
2.65185e-05
0.000149534
-1.56213e-05
1.33555e-05
0.000189655
-0.000553107
-0.00108575
-0.000554689
0.000256038
-0.0026635
-0.0016374
-0.000550692
-0.000915314
0.000249832
0.000511307
0.000351667
-0.000726341
-0.000278832
-9.53777e-05
-0.000534443
0.00052463
-0.00154773
0.000190792
-0.000228464
-0.000178291
0.000499325
-0.00117466
1.41507e-05
-0.000293176
-0.00034426
-0.000532449
-0.000108277
0.000165982
-0.00124431
-0.000420355
-0.000509693
0.000634736
-0.00200857
3.38668e-06
-0.000276328
-0.000277408
-0.000471606
-0.000155193
0.000336162
-0.000859838
-6.76336e-05
-5.71545e-06
0.000755011
-0.00158451
-2.19531e-05
-0.000503813
-0.00022716
-0.000674805
-0.000395518
2.85839e-05
-0.000102285
-0.000400776
0.00055733
-0.000904895
-0.00024675
-0.000692647
-0.000800493
-0.000792625
0.000497744
-0.00165837
-2.26911e-05
-0.00064928
-0.000321313
-0.000916644
-0.000448193
0.000258624
9.66386e-05
0.000162501
0.000144394
0.00065512
-0.000370188
4.45708e-05
-0.000828319
-0.000752885
-0.00131596
0.000553691
-0.00133591
0.000146594
-0.000310935
-0.000408344
0.000243485
0.000416162
9.84112e-05
-0.00103495
-0.000283411
-0.000340145
-0.0005098
-0.000464361
0.000419258
0.000421913
-0.00135132
0.000100508
-0.000413303
-5.24888e-05
-0.00052988
0.000293533
-0.000402033
-0.000177928
-0.000174213
-0.000905185
-0.000552533
0.00017993
9.89413e-05
-0.00152658
1.15591e-05
-6.62293e-05
-7.48278e-05
-0.000414548
0.00038665
0.000347739
-0.000544428
-0.000141928
0.000253978
-0.000169325
-0.000589244
0.000347432
0.000259918
-0.00119815
-1.10486e-05
9.27454e-05
-3.1282e-05
-0.000469756
0.000427419
0.000523322
-0.000768427
0.000129032
0.000139524
-1.23072e-07
0.00053541
-0.00107681
0.000183365
-0.000210233
-0.000251804
-0.000569289
0.000372684
-0.00120228
-0.000181689
-6.82445e-05
-0.00018736
-0.000125863
0.000375005
0.000414842
-0.00108013
0.000169294
-7.36655e-05
1.19488e-05
-0.000145156
0.000468366
0.000530747
-0.000653988
2.84632e-05
6.35849e-05
7.98872e-05
-0.000740833
0.00037275
0.000412873
-0.000871152
0.000162123
0.000118497
2.97165e-05
0.000389915
0.000600776
0.000559989
-0.000602077
0.000181668
0.000180099
-0.000201719
-0.000829866
0.000490366
0.000433967
-0.000531182
-6.0052e-05
-0.000506553
-0.000294303
0.000335229
0.000438893
-0.0012032
4.90681e-05
-7.66948e-05
-0.000560968
-0.000193788
0.000387616
-0.00130704
0.000184426
0.000158191
4.24781e-07
0.000102126
0.000537631
-0.000650118
-3.85214e-05
-0.000556647
-0.0003647
-0.000808796
-0.000127333
-0.000490846
-0.000687538
-0.00043051
-0.000324362
0.000550112
-0.00130473
-0.000115515
-0.000561746
-0.000299148
-0.000747531
-0.000422034
6.85931e-05
-4.30846e-05
-0.000344025
0.00010988
-8.0245e-05
-0.000107681
-0.000392969
-0.00028782
-0.000590543
-0.000251776
-5.97106e-05
-7.89366e-05
-0.000365419
0.000464789
-0.00109873
3.15861e-05
-0.000437584
-0.000308481
-0.000950911
-0.000243453
-0.000169351
-0.000219976
-0.00123012
-6.37735e-05
0.000235832
-0.000284516
1.50624e-05
-0.000289177
-0.000148704
-0.000644418
-5.37212e-05
-0.000220278
-0.000446121
-0.0004909
-0.000571445
0.000492454
-0.000966312
2.54195e-05
-0.00013994
-0.000121154
-0.000411206
0.000135154
-0.000147511
-0.000228015
-0.000247714
-0.00050724
0.000538504
-0.00151442
4.59891e-05
-4.8338e-05
-0.000173199
-0.000309909
0.00019969
0.000315246
-6.70101e-05
-0.000397964
0.000408002
0.000339992
-6.85696e-05
0.000202721
-3.51529e-05
-9.95039e-05
-0.00122064
0.000272137
0.000387607
-0.000326404
-4.53973e-05
-0.000747062
-0.000485466
-0.000995108
-0.00047298
-0.000415415
-0.000523957
-0.0013887
0.00025962
0.000225042
-0.000957839
5.66241e-05
-0.000289075
-0.000204889
-0.000512795
6.01205e-08
2.06729e-05
3.50387e-05
-0.000120906
0.000314477
0.000617401
-0.000731084
5.25981e-05
-0.000495393
-0.000282498
-0.000821365
-0.000156147
-8.30123e-05
-0.000375349
-0.000221086
-1.48629e-05
0.000600114
-0.00105382
-7.76557e-05
-0.000415014
-0.000342415
-0.000579683
-0.000192385
-0.000286114
0.000186483
-0.00016738
6.40756e-05
0.000467959
-0.000557702
0.000112522
-3.88955e-05
-0.000190338
-0.00047428
0.000313783
0.000220184
-0.00029685
-0.000189545
-0.000455139
0.000546945
-0.00102598
5.93726e-05
0.00010418
-2.78702e-05
-0.000222097
0.000178624
-0.000288884
0.000149788
-0.000769621
-0.000286122
0.000396963
-0.000667685
-3.64294e-05
-0.000227101
-0.000158377
-0.00046981
3.44509e-05
0.000262231
-0.000103448
3.61798e-06
-7.80721e-05
0.000356077
-0.000429274
0.00011265
-0.000133374
-0.000376269
-0.000358065
0.000501146
-0.000667958
0.000322475
-4.62822e-05
-3.11993e-05
-0.000133218
0.000321214
-0.00103096
0.000123104
0.000128684
2.37016e-05
-0.00012323
0.000361783
0.000123789
-0.000255413
-0.00034276
-0.000559459
0.000384517
-0.000188804
3.44989e-05
3.02664e-05
-6.08265e-05
-9.94982e-05
0.000167088
0.0001826
-0.000120046
-8.64118e-05
-7.70119e-05
0.000485568
-0.000732152
3.39339e-05
0.000356656
-3.52545e-05
-0.000385068
0.0004971
-0.000275796
8.36366e-05
0.000249684
-5.62938e-05
6.65954e-05
0.000395704
0.000391245
-2.19761e-05
-0.000341988
-0.000467609
0.000520828
-0.000778916
2.34289e-05
-1.52971e-05
-0.00051303
4.84965e-06
0.000315862
0.000375588
-0.000559208
-7.94677e-05
4.11155e-05
-0.000424807
-0.000292225
0.000432223
0.000431232
-0.000623106
0.000113625
0.000147323
-2.59415e-05
-0.000466906
0.000540484
0.000354733
-0.000279505
0.000242972
-8.08027e-05
-7.71054e-05
-0.000384627
0.000445673
-0.000202609
0.000445776
-0.000231029
-2.98135e-05
-8.44067e-05
0.000647434
-0.000307013
0.00011693
-0.000158034
-0.000284676
-8.23874e-05
0.000271676
-0.000745977
-0.000372756
2.34326e-05
-8.67845e-05
0.00058078
0.000508119
-0.000493844
-4.47699e-06
-0.000385991
-0.000416783
-0.000359246
0.000479863
0.000441358
-0.000540278
-4.18678e-06
-0.000185654
-0.000150087
-0.000340492
-2.18947e-05
9.91911e-05
-0.000153963
-6.1146e-05
-0.00053171
0.000297583
-0.000365217
-0.000180128
4.26067e-05
-0.000594801
0.000391386
0.000453922
-0.000203291
0.000124318
-6.04589e-05
-0.000217726
3.96368e-05
0.000448235
0.000566371
-0.000405525
0.000146616
0.000514274
0.000110932
-0.00016051
0.000416646
-4.48744e-05
0.000252212
0.000126579
3.76249e-06
5.78469e-05
0.000146385
-0.000676377
0.000133951
-8.63275e-05
-7.041e-05
-0.00203597
-0.000578739
-0.00100813
1.246e-05
0.000245306
-0.000956169
0.000205996
-0.00106011
0.000141303
7.73816e-05
-0.000168036
-0.00135477
-0.000712624
-0.000626837
0.000100325
0.000302832
-0.000741011
0.000261432
-0.00120709
-0.000143255
-0.000419664
-7.24577e-05
-0.000454064
0.000113542
-0.000345219
-0.00091129
-0.000457328
-7.48201e-05
-0.00057996
8.37785e-05
-0.000447678
3.20981e-05
-0.000437559
0.000226429
0.000270729
-0.00162171
-0.000302628
-0.000886131
0.000172078
0.000459813
-0.000572653
0.000550381
-0.000410076
-0.000141981
0.000198507
0.000102837
-6.23536e-05
-0.000181351
-0.000153296
-0.00108349
4.02393e-05
0.000369351
-0.000233613
0.000334369
-0.000805898
-4.16888e-05
-0.000237873
-0.000180832
-6.70188e-05
-0.000571371
-0.000223782
-0.000489036
0.000123997
0.000440094
-0.000804908
0.000275967
-0.00105599
-9.00822e-06
-0.000357544
0.000245725
7.3866e-05
-0.00032453
-0.000393877
-0.000380472
0.000228548
0.000638957
-0.000620274
0.000298478
-0.000102093
-8.28219e-05
-2.32964e-05
-0.000108419
-5.05766e-05
-0.00232815
-0.000615071
-0.000698481
0.000119852
0.000483613
-0.000904141
0.000199135
-0.000825545
-0.000479228
-0.00018329
-5.43775e-05
-3.28281e-05
-0.00113293
-0.000321677
-0.000612883
4.81911e-06
0.000415257
-0.000929808
0.000301428
-9.91543e-05
-0.000829159
-0.000209053
-0.0010608
-0.000822365
-0.000180625
-0.000366369
-0.000292932
-0.0013268
-0.000282594
-8.92796e-05
-0.000397429
-0.000108006
-6.68502e-06
-0.000129832
-3.63207e-05
0.000145207
-0.000250861
-0.000414933
-0.000757545
-0.00133853
-0.000493871
0.000234914
0.000151028
-0.000955918
0.00029476
-0.0011124
-0.000954653
-0.0002799
0.000281024
-4.63585e-05
-0.000682457
-0.000491978
-0.000474651
0.000137785
0.00048545
-0.000740167
0.000403203
-0.000617379
-0.000351058
-0.000371338
0.000205053
0.000216944
-6.10611e-05
-0.000119106
-0.000708649
0.00025071
0.000436179
-0.000549187
0.00049067
-8.87286e-05
-0.000142152
-0.000131978
-0.000248157
-8.45217e-05
-0.00077408
-0.000468315
-0.000992558
-4.98326e-05
0.000409303
-0.000769599
0.000345479
-4.16516e-05
-0.000645939
-4.40355e-05
-0.000381496
8.91912e-05
0.000340694
-0.000389033
0.000170045
-0.000152698
0.000267947
0.000512656
-0.000523117
0.000553194
-5.7408e-05
-5.16868e-05
-0.000199585
-0.000403811
-0.00140519
-0.000676627
-0.0011814
-0.000124966
0.000431059
-0.000913115
-0.000694315
-0.00030596
0.000115408
-8.7803e-06
0.000100753
8.99226e-05
-0.000109291
-4.99674e-05
0.000104251
9.83464e-05
7.08227e-05
5.85478e-05
6.21083e-05
9.71657e-05
7.1635e-06
2.7908e-05
8.20891e-05
9.24116e-05
6.11762e-05
0.000115948
7.82991e-05
5.48494e-05
6.37392e-05
5.89721e-05
-5.59981e-05
-1.35944e-05
4.05299e-05
2.96654e-05
1.44197e-05
-0.000105608
7.43306e-05
-7.0949e-05
1.02024e-05
5.98951e-05
-2.33519e-05
7.46342e-05
4.46161e-05
0.000111498
-4.13671e-07
2.4628e-05
8.52574e-05
6.01619e-05
-3.57718e-05
-6.3983e-06
-0.000126864
-1.54131e-05
-4.35956e-05
-5.16633e-05
-0.000212656
-7.31401e-05
8.84984e-05
8.94019e-05
-6.29535e-06
1.15048e-05
5.86707e-05
-2.97525e-05
5.84987e-06
-1.60829e-05
-9.67341e-06
-8.40128e-05
-6.77956e-05
-8.39189e-05
4.4635e-05
-0.000139944
-0.000144564
-0.000129445
1.30318e-05
-3.95133e-05
-1.89205e-05
-7.66171e-05
-9.18476e-05
-0.000159117
-6.35821e-05
-0.000120323
-8.04369e-05
-0.000128683
-9.07544e-05
-0.000107289
-3.01339e-05
-5.99427e-05
-1.06553e-05
-0.000106611
4.64215e-05
-0.000102859
-0.000103045
-7.35438e-05
-2.61972e-05
-0.000174571
3.38567e-05
-4.33322e-05
6.13274e-05
-7.49167e-06
-1.52053e-05
2.97539e-05
1.59488e-05
3.20357e-05
-3.3253e-05
1.31654e-05
-0.000114687
4.14956e-05
-5.71463e-05
-8.78016e-05
-7.36756e-06
-9.27104e-05
-8.23389e-05
-1.44386e-05
-0.000155336
-0.000127191
-8.65495e-05
4.44637e-05
1.69753e-05
-8.14372e-05
-0.000159818
-0.000119196
-0.000113316
-2.25912e-05
2.01083e-05
-8.08276e-05
-8.41212e-05
-9.51223e-05
-9.3678e-05
-0.000166825
-5.05639e-05
4.68359e-05
-0.00014276
-9.06527e-05
-4.02918e-05
-2.25618e-05
4.69075e-06
-2.42604e-05
1.48795e-05
3.2245e-05
-8.92533e-05
0.000255932
4.21317e-05
7.3599e-05
-5.14159e-05
-0.000118164
3.77284e-05
-3.28559e-05
2.90016e-06
-1.69252e-05
6.43355e-05
-2.11023e-05
1.86446e-05
-1.66298e-05
1.36303e-05
4.65231e-06
0.000169367
4.73615e-05
3.17689e-05
-3.66038e-05
-1.43321e-05
0.000110845
2.25171e-05
1.81262e-06
-1.99626e-05
0.000229614
0.000177371
9.03113e-05
0.000117477
0.00010946
-8.48214e-06
7.83755e-05
-1.47179e-05
4.78511e-05
-1.83026e-05
7.22679e-05
2.60177e-05
8.77743e-06
7.70122e-05
-4.39456e-05
2.01425e-05
3.84547e-05
0.000145946
-1.34457e-05
-9.78934e-06
0.000109989
9.96877e-05
5.70808e-07
-3.61684e-05
0.00013797
4.77141e-07
-7.18055e-05
-2.16583e-05
1.53307e-05
3.28243e-05
-8.40283e-06
0.000245993
0.000231453
5.40548e-05
8.9048e-05
0.000130601
4.16296e-05
3.4171e-05
3.23513e-05
2.5756e-05
0.000100853
5.47154e-05
-3.75031e-06
-1.48752e-05
-9.59141e-05
-5.0647e-05
-1.1844e-05
-2.67994e-05
0.000184303
-4.15365e-05
9.6292e-06
-0.000115461
-4.90015e-05
-5.05807e-05
3.60291e-05
-6.19049e-06
-6.34913e-05
7.21103e-05
0.00014284
4.56715e-05
-7.58071e-06
0.000100426
-2.5712e-05
-2.89086e-05
-8.04656e-06
-1.50303e-05
-4.60476e-05
-0.000126901
-6.68934e-06
-2.6066e-06
-4.08129e-06
-1.19232e-05
7.91708e-06
0.000110279
0.000116668
0.000270716
3.68784e-05
-7.81022e-05
-2.18514e-05
-0.000144611
4.97083e-06
7.425e-05
9.95112e-05
4.35978e-05
8.16236e-07
0.000107347
2.53575e-05
1.86165e-05
2.88221e-05
9.58362e-05
1.41263e-05
8.18094e-06
1.25492e-06
8.10186e-05
8.9538e-05
3.70829e-05
-8.8823e-05
0.000102353
8.88132e-05
4.67971e-05
7.22256e-05
0.000136118
9.64552e-05
7.32616e-05
3.7298e-05
2.57323e-05
-4.80549e-06
-4.43778e-05
4.98276e-05
3.7154e-06
6.58596e-05
3.70064e-06
2.88748e-05
-1.16118e-05
-8.52852e-05
1.70749e-05
6.24172e-05
0.000127327
-1.01401e-05
-0.000119752
1.23332e-06
5.20815e-05
3.51132e-05
6.75673e-05
3.46104e-05
8.60849e-05
8.71193e-06
0.000140162
6.33173e-05
-5.04965e-06
-1.69746e-05
-3.22976e-05
4.85374e-05
0.000195279
8.63868e-05
4.4699e-05
8.20755e-05
-3.50254e-05
0.000206944
0.000135971
2.05617e-05
3.03922e-06
-1.78762e-05
5.47318e-05
-2.69204e-05
0.000106359
1.47472e-05
-0.000135576
-0.000178778
-0.000142983
0.000136823
4.12962e-06
-4.19398e-05
-3.47866e-05
4.27416e-05
-5.24136e-06
5.24866e-05
-1.14786e-05
-2.77008e-06
6.21061e-05
-6.10628e-05
0.0001426
0.000197124
-4.12854e-05
-1.9549e-05
0.000144438
1.4517e-05
5.18789e-06
1.18127e-05
0.000158879
-2.10211e-06
-2.96711e-05
6.61633e-06
0.000128163
1.2398e-05
2.32749e-05
0.00015671
0.000198353
4.05437e-05
1.70977e-06
2.19502e-05
-4.51374e-05
-2.78267e-05
-9.21878e-06
1.48501e-05
9.52749e-05
4.70699e-05
9.57916e-05
9.78444e-05
5.48781e-06
0.000107849
-7.69273e-05
2.94316e-06
0.000110507
-1.55132e-06
-2.10729e-05
-1.93011e-05
5.71744e-05
6.53942e-05
0.000214776
-1.60575e-05
-2.68956e-06
9.46493e-05
5.53383e-05
5.69634e-05
3.24428e-05
2.38086e-05
-2.78662e-05
0.000136593
1.1295e-05
-0.000109578
4.4518e-05
-2.71745e-05
9.89012e-06
0.000100573
7.05295e-05
8.42515e-06
9.839e-05
-1.39432e-05
0.000104708
6.43891e-05
0.000109185
-6.79186e-05
1.15739e-05
7.14569e-05
3.26422e-05
2.71468e-06
4.8466e-05
-3.29737e-06
8.35395e-05
-7.58623e-06
-0.00037171
-7.86557e-05
3.24471e-05
8.8172e-05
0.000112512
0.000137765
-8.02877e-06
-3.28119e-05
-8.39195e-05
-8.49139e-05
-0.000218667
-0.000346142
-8.11854e-05
7.20568e-05
0.000161118
1.65666e-05
-5.29315e-05
8.37769e-05
-1.81678e-05
-2.51156e-07
-6.1041e-06
2.80161e-05
0.000148287
2.40523e-05
9.71755e-06
2.0878e-05
1.54094e-05
0.000116587
1.28712e-05
-3.8307e-05
4.0689e-05
-0.000193223
9.15949e-05
-6.29807e-05
-7.20678e-06
0.000110558
0.000159813
0.00013211
4.76048e-06
-1.59212e-05
2.64305e-05
2.3021e-06
5.31011e-05
-1.85619e-05
-4.3314e-05
0.000132512
0.000126103
0.00011381
-1.28819e-06
-2.64985e-05
3.86754e-05
0.000129292
-1.51146e-05
8.03531e-06
-7.99189e-06
4.86499e-05
7.68284e-05
8.33708e-06
2.09704e-05
6.73829e-06
5.851e-06
5.6577e-05
-3.38675e-06
-3.88995e-06
-1.33916e-05
0.00012303
2.68137e-05
0.000154235
8.3024e-05
0.000181842
7.76128e-06
0.00014877
5.63801e-06
0.000163323
4.20439e-05
0.000193795
5.57196e-06
0.000158854
2.80042e-06
0.000174971
2.41069e-05
1.78045e-05
-1.41061e-05
7.62834e-06
6.2523e-05
6.75962e-06
2.33176e-05
6.47061e-05
3.76506e-05
2.8093e-05
-0.000119663
1.36864e-05
4.5074e-05
2.31583e-05
-8.42902e-05
-1.92763e-06
0.000143376
5.97387e-05
0.000107432
1.20287e-05
2.01683e-05
0.000190761
7.44786e-05
2.16502e-05
-0.000279046
0.000162019
-0.000137361
-0.000152282
4.67957e-05
5.87753e-05
3.39701e-05
1.65545e-05
-1.01916e-06
6.18013e-05
-1.697e-06
-6.75324e-06
7.81392e-06
-5.24238e-05
5.48144e-06
0.000151528
-1.19991e-05
7.11383e-05
8.48592e-05
3.09271e-05
3.26991e-05
5.07179e-05
0.000102388
0.000110426
9.32526e-05
8.00937e-05
7.05262e-05
2.37101e-05
-4.47037e-06
-0.000119404
0.000148345
0.000158717
0.000110059
7.08681e-05
3.52926e-05
2.87106e-05
-4.45521e-05
0.000157385
0.000230203
-5.64728e-06
-2.04249e-05
6.43509e-05
-1.28891e-05
1.45613e-05
-0.000111913
2.11264e-06
-1.5762e-05
0.000121456
1.96366e-05
2.05131e-06
-2.44429e-06
2.37897e-05
2.41836e-05
2.36363e-05
6.31505e-05
-6.32317e-06
-2.22475e-06
-2.65462e-05
3.80002e-05
1.94264e-05
-2.45808e-06
-0.000113974
5.25431e-05
-2.05091e-05
3.59128e-05
2.93106e-06
1.57739e-05
-3.41489e-06
4.97248e-06
8.37758e-06
-5.06515e-05
-0.000755162
-0.00136872
-0.000707855
8.15079e-05
0.000113021
0.000159902
1.94384e-05
1.20754e-05
4.42335e-06
0.000146372
0.000136709
2.1297e-05
-1.66051e-05
3.90098e-05
-1.81227e-05
3.62577e-05
0.000110315
-2.93595e-05
4.92855e-05
8.47937e-06
-1.12755e-05
-7.20858e-05
-1.95967e-05
-0.000122006
4.62401e-05
9.6224e-05
-0.000134804
7.61387e-06
-0.000576054
0.000181599
2.86417e-06
-7.74852e-06
2.33673e-05
1.50814e-05
-5.40507e-06
-1.90779e-06
3.4833e-05
-1.47343e-06
-1.42677e-05
-1.1786e-05
8.7971e-05
-6.40868e-05
3.04781e-05
6.59228e-05
2.24292e-05
1.79684e-06
-2.80768e-07
-3.40418e-06
1.35052e-05
6.81217e-05
7.01929e-05
0.000104117
0.000100439
0.000111858
4.9514e-05
-5.90115e-07
-2.75002e-05
-2.71484e-05
0.000100794
0.000100759
5.47055e-05
-5.13392e-06
-3.42579e-05
2.59523e-05
4.47798e-05
0.00013205
-7.19844e-06
-2.05691e-06
4.11767e-05
7.07883e-05
0.000153882
5.66102e-05
-0.000124279
-0.000295856
-0.000196493
9.54789e-05
0.000156532
5.58298e-05
2.37696e-06
-3.82637e-07
3.0828e-05
1.05046e-06
3.32369e-05
-4.51393e-05
0.000145552
0.000151478
0.000150769
0.000157137
3.04994e-05
3.79946e-05
-1.05753e-05
0.000155605
-1.00839e-05
-7.11431e-06
6.58119e-06
-6.50545e-06
-3.19779e-05
2.85994e-06
-5.68216e-06
4.53713e-06
7.8927e-07
3.95344e-06
-5.60423e-07
9.51125e-06
6.46788e-06
-2.38208e-06
-0.000160984
2.15178e-05
1.46186e-05
0.000107079
2.47529e-06
1.05478e-05
4.09386e-05
7.81052e-05
9.72151e-06
4.73974e-05
4.25272e-05
-3.13999e-06
-3.24016e-05
-2.01829e-06
-7.75962e-05
-0.000153639
-0.000147146
-8.82122e-05
4.11816e-05
1.84218e-05
0.000120103
0.000191717
0.000182919
-8.01114e-05
-7.12108e-05
-1.0253e-05
-5.79962e-05
-7.71429e-05
-0.000158707
-0.000141587
0.000114484
-8.46951e-05
-0.000149153
8.56164e-05
6.57763e-05
0.000158783
0.000102252
5.13381e-05
-1.0312e-05
-8.54481e-06
-8.60783e-06
-0.000156458
0.000204996
0.000188058
-0.000606621
-0.000431432
-8.46866e-05
-0.000672991
3.3471e-06
-0.000104254
1.00607e-05
2.42102e-06
-1.46308e-06
-1.14118e-05
0.000157626
1.10051e-05
-2.07737e-05
0.000162861
5.40475e-05
-1.70794e-05
0.000160438
1.16213e-05
9.63591e-07
-3.99338e-06
-5.80082e-07
1.34431e-06
-1.32352e-05
-1.74659e-05
0.00012496
1.61416e-05
-2.76123e-05
0.000225741
2.97264e-05
-1.24295e-05
0.000157206
2.41427e-05
-1.28044e-05
0.000159676
4.57786e-05
-3.12095e-05
0.000144727
5.76478e-06
8.08186e-05
-4.38275e-06
8.91881e-05
-8.45159e-05
-2.42903e-05
-4.05204e-05
-3.5693e-05
-0.000111062
0.000140163
0.000113336
0.000140436
-1.09837e-05
-2.30564e-06
0.000191458
-2.32634e-05
1.07149e-05
-6.03491e-06
1.51057e-07
3.2307e-06
-4.83993e-06
-3.67381e-06
-4.96291e-05
1.15804e-05
-1.69423e-05
-1.96623e-05
2.44346e-06
-1.9907e-05
-8.74747e-06
-2.11847e-05
-1.6526e-05
-6.3483e-07
-2.8816e-06
-4.23057e-06
-5.41147e-06
-1.21139e-06
-2.03595e-05
-3.64394e-06
1.24845e-06
-2.47222e-05
-4.30081e-05
-2.37519e-05
-2.60711e-05
-6.16626e-06
-2.15383e-05
1.01758e-06
-1.74333e-05
4.56758e-06
-2.01042e-05
-2.57158e-05
-2.53639e-05
-2.17188e-06
-4.41266e-06
-1.87179e-05
1.63229e-05
-8.98872e-06
-9.08741e-06
-8.46708e-05
-9.11323e-06
-7.22176e-06
-1.45582e-05
5.53777e-07
-4.78243e-05
5.24392e-06
2.05212e-06
-2.96952e-05
8.56955e-06
5.25945e-06
-0.000169487
-0.00068055
0.00032
0.000391977
-0.000491498
-1.59851e-05
-0.000292426
-0.000145559
7.09904e-05
9.68588e-05
-0.000356355
6.79662e-05
0.000180889
-3.49473e-05
3.25851e-05
0.000263535
-0.00019584
-5.59743e-05
-7.88005e-05
-0.000122179
-4.0844e-05
-6.59391e-05
-3.79869e-05
-7.7868e-06
-6.82791e-05
-3.03452e-05
4.39203e-05
1.12434e-05
7.88263e-05
-0.000157844
-8.86459e-06
3.69806e-05
0.000254526
0.000407453
-2.0342e-05
-3.23316e-05
-7.95032e-05
0.000210727
-0.000612709
-3.41942e-05
4.30724e-05
-3.27968e-05
-3.28105e-05
4.96786e-05
-2.44239e-05
-0.000111221
-0.000218
0.000138935
-6.3237e-05
-0.000100961
-8.31484e-05
-6.54737e-05
8.91896e-05
-0.000104004
-5.90829e-05
0.000136303
-2.00962e-05
1.40665e-05
-0.000239445
0.000247234
0.000231673
-0.000143928
-0.000330203
0.000279767
-0.000113074
2.23647e-05
-9.80175e-06
-8.31728e-05
-7.0275e-05
-0.000256294
3.38173e-05
0.00022663
-4.28e-05
-0.000135547
-0.000262613
-7.40511e-05
6.73466e-05
0.000101396
-2.23834e-05
-6.23168e-05
0.000196514
-9.5249e-05
9.88405e-06
-0.000168238
0.000372312
0.000307944
5.42758e-05
0.000115775
4.1852e-05
-0.000361478
0.000324807
0.000235257
-2.83637e-05
9.48786e-05
3.6493e-05
-2.40995e-06
-9.90754e-05
0.000119395
4.44299e-05
-0.000142849
4.88142e-05
-0.000155322
-4.20063e-05
5.46573e-05
0.0001227
-2.69151e-05
3.78525e-06
-4.64069e-06
-0.000150006
0.000138321
6.52261e-05
0.000307546
0.000345039
-0.000323325
0.000142755
-0.000482624
0.000260447
7.40454e-05
0.000153335
0.000396767
8.61364e-05
0.000263269
0.000457613
-7.86601e-06
-4.60783e-05
-6.3625e-05
-1.6887e-05
-0.000149508
-0.000111507
-6.70089e-06
5.95886e-05
2.5695e-05
0.00017698
-3.6765e-05
-1.95796e-05
-0.000124806
0.0003525
0.000248309
-6.3896e-05
7.68568e-05
-0.000253571
-0.00013767
-0.000137816
0.000151058
0.000171819
5.98682e-06
-8.85965e-05
0.000339959
-4.53925e-05
-1.61673e-05
-1.55384e-05
-3.32271e-06
-9.81239e-06
-8.31904e-05
-1.42362e-05
2.05194e-05
5.31273e-05
-3.27782e-05
0.000268518
-9.61183e-05
0.000254435
-8.74199e-05
2.35505e-05
-0.000158235
0.000399036
0.000443405
-4.74929e-05
-0.000123221
-0.00010983
0.000109748
-0.000235696
-6.00654e-05
-3.5628e-05
-4.06879e-05
-3.74685e-05
-3.27891e-05
-3.49314e-05
-0.000532252
-0.000595182
-0.000274551
0.00042794
-0.000637103
-8.90692e-05
-0.000413443
-0.000465648
-0.000513208
0.000371952
-0.000317718
-0.000140611
-0.000704378
-0.000755351
-0.000921402
1.60698e-05
0.00020829
-0.00110891
-3.52135e-05
-5.50025e-05
-0.000285346
-0.000544069
0.000427571
-0.000493321
-0.000376336
-0.000233005
-0.000845419
-0.000746684
0.000465918
-0.00102666
-3.16026e-05
-5.14801e-05
-0.000319407
-0.000756635
0.000306624
0.000148504
-0.000726512
1.36001e-05
-0.000265278
-0.000373628
-0.000554891
0.000402403
0.000323526
-0.000927243
2.64714e-05
-9.01078e-05
-0.000425775
-0.000712821
0.000377489
0.000242247
-0.000976096
2.81837e-05
1.97351e-06
-6.17071e-05
-0.000143149
5.9812e-05
0.000288119
-0.000118894
0.000157405
-0.000364021
-0.000455292
-0.000295449
-0.000422897
5.45027e-05
-1.21699e-05
-0.000294523
2.10442e-05
0.000227604
-0.000654962
-0.000320068
-4.5178e-05
-0.000214997
0.00018146
0.000443749
0.000106263
-0.00037793
-0.000232191
0.000430311
-0.000170006
-0.000763983
-0.000169534
6.1086e-05
6.48261e-05
-0.000151054
-0.00032661
4.45008e-06
-0.00062436
0.00046633
0.000166533
-0.000388241
4.50003e-05
-0.000101081
-0.000227442
-0.00059425
0.000380737
0.000237004
-0.000566911
5.64721e-05
-9.83754e-05
-0.000372029
-0.000472949
0.000287844
0.00020215
-0.000665935
7.64014e-05
0.000160293
-4.6319e-05
5.89003e-05
0.00021886
-3.89582e-05
0.000188517
-2.67963e-05
-8.05067e-05
0.000323424
-7.58779e-05
3.93163e-05
0.000120743
-6.67551e-05
-2.80375e-06
0.000149605
0.000137834
0.000263027
-4.55088e-05
0.000166327
0.000427348
-0.000222604
-0.000897679
-0.000540938
-0.000877683
0.000216451
0.000307389
-0.000776052
1.3301e-05
-0.000351302
-0.000125482
0.000314567
-0.000462673
-0.000925556
-0.000605339
-0.00120686
0.000264729
0.000247385
-0.000574056
-0.000143101
-0.00101582
-0.000551493
-0.000621898
0.000379693
0.000386225
-0.000530682
-0.000356706
-0.000683362
-0.000485216
0.000438727
0.000143915
-0.000790809
3.3774e-05
-9.5909e-05
-6.91669e-05
-0.000217985
-2.05336e-05
-0.000242533
-0.00081532
-0.000492212
0.000306341
-0.000662614
7.37286e-05
0.000197881
5.49039e-05
7.20005e-05
0.00019575
0.000178954
-0.000183233
-0.000582807
-0.000179746
0.000359813
-0.000673934
-0.000502479
-0.000516952
-0.00016061
0.000336098
-0.000759076
2.07546e-07
-9.59521e-05
-3.94522e-05
0.00027124
-6.67333e-05
9.69575e-05
0.000250541
6.43426e-05
7.67542e-05
0.000306163
3.94859e-05
-8.82928e-05
-0.000587269
-0.000224291
0.000343946
-0.000452516
6.36817e-05
0.000197756
4.537e-05
3.1992e-05
0.000240059
6.10882e-05
-0.00015086
-0.000240586
0.000298571
-7.502e-05
8.65631e-05
0.000249044
6.61513e-05
1.70465e-05
0.000284816
2.6705e-05
-0.000514978
-0.000504586
3.32255e-05
0.000325667
-0.000356383
-8.38546e-06
-0.000225297
7.08955e-05
0.000320637
-0.000274574
-0.000254108
-0.00043075
-0.000104871
0.000358944
-0.000461314
8.80819e-05
9.13391e-05
-6.36096e-05
-0.000391631
0.000286225
-0.000200901
0.000224237
5.42479e-05
-0.000191816
-0.000263289
0.00026099
0.000187073
-0.000125808
0.000119549
-3.3794e-06
-0.000209369
-0.000226808
0.000339991
-0.00026595
0.000218899
2.97329e-05
-0.000217197
-0.000260099
0.000203336
-0.000324552
-0.000160497
-0.000275904
-0.000580239
-0.000434927
0.000194605
-0.000391144
0.000179001
-0.000140062
-0.000183942
-0.00019319
0.000266678
-0.000220286
0.000147675
-0.000201783
-0.000509278
-0.000231799
0.000366925
-0.000443252
2.60992e-05
-0.000305821
-0.000506128
-6.42524e-05
0.000338823
-0.000493699
0.000164136
9.12597e-05
-0.000268806
3.255e-05
0.00031456
-0.000257915
6.76456e-05
0.000231632
5.08522e-05
8.49658e-05
0.000232704
9.96763e-05
1.64241e-05
-0.00034773
7.843e-05
0.00031468
0.000213802
-9.04913e-05
-0.000133605
-0.00021244
0.000319662
8.26458e-05
-0.000313168
0.00016443
0.000109116
-0.000126361
-0.000261965
0.000271023
-0.000170272
-0.000231409
-0.00127181
-0.000559047
-0.000776671
0.000376564
0.000421836
-0.000635815
5.03119e-05
9.22757e-05
4.06939e-07
3.81342e-05
0.000151515
7.03525e-05
-0.000391296
-0.000575455
-0.000325671
0.000351517
-0.000647092
5.09233e-05
0.000187696
2.88932e-05
0.000121224
0.000203442
-0.00036502
-0.000728184
-0.000306419
0.000262649
-0.00116236
-0.000981509
-0.000360288
-0.000448989
0.000296442
0.000445615
0.000383461
-0.000322129
-0.000195808
-0.000112324
-0.000271866
0.000418264
-0.000655534
8.35591e-05
-0.000182148
-6.24305e-05
0.000403778
-0.000487316
7.40392e-05
-1.24482e-05
-0.00011511
-0.000186203
9.96752e-05
0.000246262
-0.000930339
-0.000362545
-0.000276287
0.000518841
-0.00100598
6.58112e-05
5.22899e-06
-8.04451e-05
-0.000128273
7.40285e-05
0.000344763
-0.000613359
-0.000119066
6.05891e-05
0.000593176
-0.00078342
3.67443e-05
-0.000160594
-6.47401e-05
-0.000273592
-9.63524e-05
-3.86573e-05
-0.000141148
-0.000196609
0.000440511
-0.000426256
-9.85366e-06
-0.000437212
-0.000605571
-0.000480217
0.000408097
-0.000766789
4.57812e-05
-0.000206287
-0.000102453
-0.000400919
-8.96237e-05
0.000204442
8.43457e-06
2.87582e-05
8.71807e-05
0.000506769
-0.000183966
0.00015851
-0.000491201
-0.00052386
-0.000819712
0.000445714
-0.000612479
0.000146082
-0.000208445
-0.000357303
0.000213008
0.000348614
0.000162709
-0.000442335
-2.34777e-06
-0.000262146
-0.000367289
-0.000255831
0.000385741
0.000391599
-0.000560735
0.0001703
-0.000200532
-4.57761e-05
-0.000251604
0.000255832
-0.000183818
3.78835e-05
-0.000102476
-0.000581859
-0.000275327
0.000233436
0.000170006
-0.000658519
0.000127154
-5.97092e-05
-0.0001026
-0.000185145
0.000333082
0.000311393
-0.000222463
2.52297e-05
0.000119063
-0.000169651
-0.000308142
0.000309798
0.000266721
-0.000484675
0.000114004
1.42892e-05
-8.99407e-05
-0.000227045
0.000363047
0.000420878
-0.000312781
4.65314e-05
5.54069e-06
2.80768e-05
0.000417629
-0.000457081
0.000236151
-0.000168075
-0.000221015
-0.00031371
0.000337812
-0.000488954
-7.63417e-06
-7.03695e-05
-0.000183948
-2.02043e-05
0.000327556
0.000359093
-0.000441658
0.00021531
-7.38116e-05
-7.01465e-05
-4.54138e-05
0.000383979
0.000417719
-0.000273398
0.000150553
1.62428e-05
-9.73953e-06
-0.000383476
0.000331325
0.000354419
-0.000353459
0.000218722
3.56024e-05
-5.81052e-05
0.000288452
0.000475205
0.000444714
-0.000272622
0.000275632
4.03688e-05
-0.000172582
-0.000408841
0.000429889
0.000377106
-0.00021617
-6.32709e-05
-0.000376326
-0.000130874
0.000310169
0.000368071
-0.000512247
0.000155889
-0.000115143
-0.000376882
-5.49677e-05
0.000363348
-0.00053502
0.000245673
7.2871e-05
-8.76179e-05
5.81128e-05
0.000419622
-0.000324122
2.52637e-05
-0.00021213
-0.000146564
-0.00038536
4.29093e-05
-0.000165144
-0.000554769
-0.000385505
-0.000161579
0.00043311
-0.000571684
-1.63598e-05
-0.000186466
-0.000107317
-0.000299016
-0.000113609
8.51632e-06
-3.15061e-05
-0.000143896
8.62485e-05
-2.73175e-05
-1.52439e-05
-0.000107883
-0.000104254
-0.000223987
-3.22041e-05
-6.8681e-05
-0.000124174
-0.000174016
0.000370386
-0.000451857
6.35335e-05
-0.000139803
-0.000115939
-0.000517192
-1.27164e-05
-0.000118474
-0.000111388
-0.000711768
6.98589e-05
0.000269066
-0.000119654
5.11223e-05
-5.56888e-05
-3.48933e-05
-0.000274965
7.44496e-05
-4.84082e-06
-0.000321359
-0.000385102
-0.000290122
0.000395096
-0.000431193
5.34182e-05
3.335e-05
-2.4379e-05
-0.000132106
0.000174396
4.03879e-05
-0.000180273
-0.000291701
-0.000248425
0.000424622
-0.000682517
6.82162e-05
7.92874e-05
-5.37689e-05
-9.18317e-05
0.000223327
0.000126731
-4.41297e-05
-0.000191692
0.000330866
0.000281107
-2.99032e-05
0.000182284
-2.81845e-05
-6.26866e-05
-0.00060741
0.000236268
0.000290931
-0.00012982
2.79332e-05
-0.000316961
-0.000206181
-0.000503051
-0.000138156
-0.000300671
-0.000318093
-0.000786363
0.000265331
0.000238502
-0.000391946
8.69788e-05
-2.12644e-05
-5.42482e-05
-0.000192591
0.000159153
0.000147835
-5.8054e-05
-0.000164646
0.000231016
0.00048582
-0.000301679
8.53534e-05
-0.000149121
-9.18584e-05
-0.000402052
7.25924e-05
0.000107491
-0.00030449
-0.000227086
4.19969e-05
0.000474995
-0.000433943
2.46101e-06
-0.000133686
-0.000138357
-0.000316862
-2.02909e-05
-7.60744e-05
3.66506e-05
-0.000195709
3.51797e-05
0.000365354
-0.000266418
9.98537e-05
4.44028e-05
-7.52247e-05
-0.000283934
0.000284245
0.000235872
-0.000343266
-0.00029936
-0.000276008
0.000409142
-0.00050398
6.33073e-05
0.000153407
1.38252e-05
-6.38456e-05
0.000197295
-8.9774e-05
1.41631e-05
-0.000573746
-0.000160659
0.000324634
-0.000323058
1.92937e-05
-3.20647e-05
-4.77923e-05
-0.000177918
0.000102623
0.00025298
-5.1719e-05
-0.000112654
-6.72754e-05
0.000273675
-0.000212671
0.000205714
-0.000108074
-0.000270147
-0.000200469
0.000398443
-0.000304907
0.000299511
-4.31034e-05
-0.000121725
-9.95571e-05
0.000275655
-0.000536869
0.00012321
0.000214562
6.63599e-05
3.71904e-05
0.000346819
0.000140339
-0.000156912
-0.00023929
-0.000310741
0.000315841
-9.11141e-05
6.05791e-05
0.000134467
7.74453e-06
5.60159e-05
0.00020457
0.000178367
-5.88584e-05
-0.000126912
-5.80808e-05
0.000372272
-0.000369272
6.00728e-05
0.000130646
-0.000105259
-0.000234546
0.000392334
-0.000123423
9.83463e-05
0.000296022
1.76276e-05
0.000164252
0.000371047
0.000364208
-4.25284e-05
-0.000179865
-0.000230455
0.000419184
-0.000327926
0.00013105
-5.90787e-05
-0.000390038
4.8486e-05
0.000290963
0.000325662
-0.000241558
7.13111e-05
-2.61008e-05
-0.000302457
-0.000123561
0.000365528
0.000372738
-0.000267681
0.00022733
3.48969e-05
-7.96603e-05
-0.000201557
0.000434383
0.000289547
-0.000124362
0.000263028
-4.16988e-05
-1.92878e-05
-0.000202527
0.000364239
-9.22816e-05
0.000382536
-0.000161705
-0.000113034
-6.94142e-05
0.000488006
-0.000128093
0.000214297
-9.96359e-05
-0.000220738
-1.33759e-05
0.000261193
-0.000318734
-0.000284182
-5.27743e-05
2.2636e-05
0.000492602
0.000459453
-0.000219811
0.000181873
-0.000281106
-0.000293237
-0.000163488
0.000433377
0.000419946
-0.0002298
3.77488e-05
3.02041e-06
-4.07042e-05
-9.05745e-05
9.28305e-05
0.000202241
-0.000110712
-6.0755e-05
-0.00023653
0.000269656
-0.000156283
-0.000154852
-1.11539e-05
-0.000300878
0.000338562
0.000401805
-8.42988e-05
0.000245459
-8.31891e-05
-0.000187163
0.00011768
0.000410022
0.000470969
-0.000172617
0.000189376
0.000271873
-2.05778e-06
-3.4499e-05
0.00036591
-2.26651e-05
0.000301517
6.36935e-05
-0.00010017
4.2541e-05
0.000167125
-0.000331407
0.00018811
6.8867e-05
0.000123529
-0.00110018
-0.000362914
-0.000520718
0.000128472
0.000282392
-0.000578631
0.000274559
-0.000455034
4.037e-05
0.000182624
3.30847e-05
-0.000683835
-0.000476606
-0.000264841
0.000203636
0.000320425
-0.000381974
0.000294338
-0.000507604
-9.85373e-05
-0.000115401
7.73229e-05
-0.000135917
5.7804e-05
-0.000208925
-0.000452609
-0.000173159
6.64304e-05
-0.000260193
0.000165644
-0.000190509
1.07244e-05
-0.000111993
0.000244686
0.000311785
-0.000856683
-0.000191535
-0.00043186
0.000241544
0.000422425
-0.00028228
0.000466946
-0.000189381
-8.94038e-05
0.000225212
0.000101017
8.83697e-05
-0.000120946
-0.000141614
-0.000609438
0.000136964
0.00034604
-0.0001108
0.000319537
-0.000354422
-2.81179e-05
-4.92372e-06
1.26465e-05
9.20139e-05
-0.000329598
-0.000153502
-0.000214756
0.000182707
0.000360545
-0.000456128
0.000271696
-0.000494975
-7.42917e-06
-5.11871e-05
0.000257292
0.000170456
-0.000192784
-0.000213381
-0.000144868
0.000256494
0.000511822
-0.000319132
0.000284459
-4.84909e-05
-4.52252e-05
0.000144414
7.36325e-05
0.000121492
-0.00134048
-0.000382969
-0.000316897
0.000219362
0.000421669
-0.000464479
0.00027144
-0.000361205
-0.000234235
3.48882e-05
8.27095e-05
0.000120063
-0.000646586
-0.000194656
-0.000261556
0.000128354
0.000359241
-0.000519063
0.000310566
-4.72779e-05
-0.000386029
-9.5591e-05
-0.000500132
-0.000348294
2.82236e-05
-0.000204567
-0.000176831
-0.000738619
-5.44227e-05
7.20142e-05
-0.000161251
6.82485e-05
-1.01778e-05
-5.66103e-05
-3.82664e-05
0.000187221
-3.07451e-05
-0.000144113
-0.000494012
-0.000932162
-0.000242988
0.000265688
0.00021816
-0.000548084
0.000283232
-0.000506059
-0.000592562
-1.15298e-05
0.000267605
0.00013123
-0.000432875
-0.000289485
-0.000199317
0.000208134
0.000405967
-0.000403064
0.000389308
-0.000285422
-0.000216548
-4.32048e-05
0.00022574
0.000240548
-5.91505e-05
-7.17544e-05
-0.000317426
0.000270612
0.000359416
-0.000278839
0.000406656
-3.85254e-05
-8.57213e-05
3.02918e-05
-4.16088e-05
8.47874e-05
-0.000516873
-0.000334394
-0.000546361
6.94104e-05
0.000354106
-0.000426751
0.000335747
-2.40882e-05
-0.000295449
-3.60672e-05
-6.90406e-05
0.000137363
0.000365935
-0.000262222
3.47606e-05
-1.96131e-05
0.000279844
0.000414555
-0.000276939
0.000447144
-2.74714e-05
-2.55321e-05
1.57859e-05
-7.50502e-05
-0.000852741
-0.000449479
-0.000624772
5.89367e-05
0.000399825
-0.000520454
-0.000312515
-0.000178692
9.62455e-05
3.90632e-05
9.19462e-05
8.6839e-05
-3.18232e-05
1.07049e-05
0.000101721
8.65256e-05
6.59274e-05
6.95062e-05
6.7152e-05
9.30962e-05
3.41461e-05
3.75752e-05
8.80129e-05
7.68606e-05
7.19303e-05
0.00010633
8.7109e-05
6.09721e-05
6.87724e-05
5.07339e-05
-8.87037e-06
2.03885e-05
5.58974e-05
4.68372e-05
3.80415e-05
-1.39996e-05
8.2702e-05
-1.43016e-05
4.24504e-05
6.22515e-05
1.04979e-05
8.1543e-05
5.9982e-05
0.000110159
3.2251e-05
3.67349e-05
8.67361e-05
7.00761e-05
2.75664e-05
4.38791e-05
-2.34116e-05
4.03867e-05
2.33666e-05
1.59673e-05
-8.48971e-05
6.71012e-06
7.16854e-05
8.7898e-05
2.13568e-05
4.56916e-05
7.77478e-05
2.28085e-05
1.59148e-05
3.10089e-05
2.30687e-05
-1.91231e-05
-1.5704e-06
-6.53407e-06
6.74793e-05
-4.51629e-05
-4.94895e-05
-3.91644e-05
4.66806e-05
7.13369e-07
2.08463e-05
-1.16054e-05
-1.75279e-05
-6.83167e-05
3.2266e-06
-2.49658e-05
-8.49174e-06
-3.49869e-05
-1.26258e-05
-2.52393e-05
2.45841e-05
6.83105e-06
3.92636e-05
-1.92082e-05
6.34101e-05
-2.45208e-05
-2.00543e-05
6.15553e-06
3.29999e-05
-5.3307e-05
5.55679e-05
2.17755e-05
7.93752e-05
3.48078e-05
3.05727e-05
5.7332e-05
5.03309e-05
5.87783e-05
1.9615e-05
4.66782e-05
-2.36135e-05
6.73443e-05
7.90476e-06
5.16107e-07
4.11069e-05
-2.19501e-05
-1.31587e-05
2.34659e-05
-4.78076e-05
-3.40301e-05
-2.32522e-05
6.19431e-05
4.31465e-05
-2.7072e-07
-4.19372e-05
-1.44431e-05
-1.94725e-05
1.62198e-05
4.4364e-05
-1.23677e-05
-1.85875e-05
-2.24522e-05
-7.94804e-06
-5.80649e-05
1.32352e-05
6.04346e-05
-5.00998e-05
-2.94499e-06
2.36669e-05
-9.65377e-07
3.96848e-06
-5.06554e-06
8.61165e-06
2.21352e-05
-4.90339e-05
0.000130757
4.03797e-05
6.33354e-05
-2.06544e-05
-6.40199e-05
3.41432e-05
-1.46151e-05
-3.01152e-06
-4.35721e-06
2.65901e-05
-3.69826e-06
8.8588e-06
9.11428e-08
3.1919e-06
1.02453e-05
8.34195e-05
4.65009e-05
3.01044e-05
-1.27912e-05
-9.00768e-06
0.000101937
2.01162e-05
2.07756e-06
-7.9883e-06
0.000214967
0.000167228
9.08445e-05
0.000116947
0.000101351
2.11497e-06
2.92325e-05
-3.9759e-08
1.48925e-05
-3.73473e-06
2.76888e-05
2.62354e-05
1.45547e-05
3.18588e-05
-1.24001e-05
2.12216e-05
3.92035e-05
0.000138771
-4.57281e-06
-2.92423e-06
0.000103999
9.47287e-05
1.04719e-05
-1.9232e-05
0.000131426
7.9816e-07
-3.88772e-05
-1.2443e-05
2.50405e-05
4.38665e-05
6.26036e-06
0.000221774
0.000211095
4.90972e-05
8.50238e-05
0.00012713
5.37478e-05
3.4842e-05
3.22786e-05
2.54004e-05
9.61417e-05
5.46243e-05
8.17264e-07
-8.25935e-06
-4.87478e-05
-2.30198e-05
-5.19006e-06
-1.40786e-05
0.000173176
-4.86924e-07
9.55321e-06
-5.96365e-05
-2.65146e-05
-2.02598e-05
3.69677e-05
9.69345e-07
-2.57611e-05
7.04708e-05
0.00013612
4.44013e-05
2.2762e-05
9.62173e-05
-5.40618e-06
-4.45967e-06
2.37821e-06
4.42104e-06
-1.73371e-05
-4.895e-05
5.78604e-06
4.26635e-08
2.20659e-05
1.1473e-05
1.38242e-05
0.000122769
0.000124521
0.000233143
5.22469e-05
-3.19871e-05
-9.53043e-06
-3.328e-05
5.11732e-06
7.19587e-05
0.000100808
4.59474e-05
1.20286e-05
0.000106202
3.15712e-05
2.44145e-05
2.89662e-05
0.000101516
1.42623e-05
8.24057e-06
3.98711e-06
9.05121e-05
9.90162e-05
4.55457e-05
-3.51585e-05
0.000100961
8.7741e-05
4.81927e-05
8.09055e-05
0.000137228
9.38343e-05
7.51073e-05
3.6618e-05
2.51128e-05
-2.72775e-06
-2.67444e-05
4.45655e-05
3.96633e-06
6.06173e-05
4.26187e-06
2.71468e-05
-5.02034e-06
-4.68512e-05
1.83619e-05
6.99627e-05
0.000127006
-5.3001e-06
-7.08671e-05
1.38074e-06
4.85228e-05
3.50246e-05
6.76662e-05
3.3058e-05
7.87337e-05
1.48568e-05
0.00013353
6.29564e-05
-2.22618e-06
-3.32885e-06
-1.20934e-05
5.21224e-05
0.000185782
8.36785e-05
4.30321e-05
7.8759e-05
-1.62763e-05
0.00019468
0.000130322
2.0143e-05
3.59344e-06
-7.95329e-06
5.4601e-05
-1.34373e-05
0.000104464
2.20366e-05
-7.07594e-05
-9.43112e-05
-7.68837e-05
0.000131281
1.56775e-05
-2.29972e-05
-1.7946e-05
4.71507e-05
3.92325e-06
7.17072e-05
1.21421e-05
2.48758e-06
6.75631e-05
-2.57551e-05
0.000148776
0.000187644
-2.19355e-05
-6.70654e-06
0.000138642
3.88223e-05
6.97278e-06
1.43878e-05
0.000153612
-9.1914e-07
-1.20112e-05
1.34209e-05
0.00012467
1.38996e-05
2.12307e-05
0.000163966
0.000198693
4.15808e-05
2.26002e-06
2.41206e-05
1.31223e-05
-7.38497e-06
-1.29833e-06
1.3321e-05
9.32517e-05
6.41995e-05
9.83515e-05
9.40848e-05
6.87952e-06
0.000107854
-3.99425e-05
5.26906e-06
0.000125331
2.48399e-06
-2.71321e-07
-1.98059e-06
8.06584e-05
8.66828e-05
0.00020605
3.25141e-06
5.21976e-07
9.0265e-05
5.44697e-05
5.58965e-05
3.14427e-05
2.47104e-05
-9.529e-06
0.000135111
1.59783e-05
-4.0639e-05
4.29938e-05
4.10862e-06
1.81158e-05
9.83706e-05
8.07313e-05
1.00708e-05
8.94544e-05
-7.01773e-06
0.00010356
6.00007e-05
0.000105105
-2.82958e-05
1.59397e-05
7.30198e-05
5.2004e-05
6.00435e-05
6.13349e-05
1.03798e-05
0.000121425
-1.59516e-07
-0.000171877
-3.50592e-05
4.11266e-05
9.70387e-05
0.000112227
0.00013532
1.42521e-07
-1.76128e-05
-4.43595e-05
-4.47927e-05
-0.000104126
-0.000169971
-3.41277e-05
7.28189e-05
0.000166046
1.57771e-05
-2.28935e-05
7.9481e-05
-8.91352e-06
3.50948e-06
-3.22497e-06
3.38222e-05
0.000143919
3.08707e-05
9.41972e-06
2.03629e-05
2.08114e-05
0.000118897
1.32159e-05
-1.3412e-05
3.93123e-05
-9.89359e-05
8.89534e-05
-3.53849e-05
-3.85643e-06
0.000108056
0.000155498
0.000133384
4.75989e-06
3.92174e-06
2.57538e-05
2.35619e-05
5.14801e-05
-1.11471e-05
-1.61091e-05
0.000139466
0.000126576
0.000110698
-3.1833e-07
-1.18629e-05
3.97751e-05
0.00012362
-3.08189e-06
9.11611e-06
3.1874e-08
5.7134e-05
8.68284e-05
8.91662e-06
2.24377e-05
2.20038e-05
8.8498e-06
5.66764e-05
-1.63421e-06
-7.92341e-07
2.42561e-05
0.000135401
3.15204e-05
0.000154231
8.46164e-05
0.000175695
1.41993e-05
0.000150865
7.07156e-06
0.000157764
4.8813e-05
0.000188051
1.00011e-05
0.000158718
5.73176e-06
0.000171766
2.5252e-05
1.76015e-05
-4.42104e-06
7.42956e-06
6.01365e-05
6.68781e-06
2.24911e-05
3.89318e-05
3.67486e-05
2.77406e-05
-5.85069e-05
1.64094e-05
4.24812e-05
2.21323e-05
-4.67415e-05
7.00862e-07
0.000131418
3.03929e-05
0.000104324
1.27693e-05
3.50375e-05
0.000181287
7.99751e-05
2.67664e-05
-0.000121714
0.000154139
-6.81245e-05
-6.15067e-05
5.19457e-05
6.73525e-05
3.13032e-05
1.5212e-05
-2.99755e-07
6.04798e-05
-6.92634e-07
-3.13032e-06
6.83153e-06
-1.04032e-05
7.32548e-06
0.000144003
-3.79763e-06
6.80383e-05
8.22369e-05
3.01895e-05
3.10657e-05
4.71509e-05
9.74514e-05
0.000104235
8.86281e-05
7.59983e-05
6.17656e-05
2.2406e-05
6.01611e-06
-4.97933e-05
0.000143043
0.00014579
0.000103263
6.85313e-05
3.82557e-05
2.77155e-05
-2.3692e-05
0.000145537
0.000216492
-1.88764e-06
-7.63995e-06
6.86622e-05
-5.1309e-06
2.06333e-05
-5.30751e-05
2.99134e-05
-6.69559e-06
0.000118507
3.41853e-05
5.07185e-06
1.09686e-06
2.33698e-05
2.47702e-05
2.36142e-05
5.97461e-05
-2.40232e-06
-8.63862e-07
-5.77922e-06
4.01026e-05
1.85354e-05
5.10318e-06
-5.77643e-05
5.01831e-05
-9.21349e-06
3.45782e-05
2.85653e-06
1.50927e-05
2.07297e-06
5.16222e-06
7.87568e-06
-2.05838e-05
-0.000369708
-0.000672497
-0.000347652
7.79239e-05
0.000105568
0.000152117
1.87515e-05
1.49653e-05
5.00329e-06
0.000135773
0.000134619
2.52873e-05
-6.45676e-06
4.07636e-05
-7.71462e-06
3.4139e-05
0.000109605
-1.60912e-05
4.72129e-05
1.01178e-05
-4.61296e-06
-2.63019e-05
-4.60453e-06
-6.01294e-05
4.42383e-05
9.51268e-05
-6.15393e-05
1.60291e-05
-0.000279546
0.000173793
9.89083e-06
4.46319e-06
3.35243e-05
1.50125e-05
-8.07166e-07
-7.0944e-07
4.32696e-05
-4.21388e-07
-6.93308e-06
-3.81117e-06
9.90976e-05
-2.51015e-05
3.0351e-05
6.68529e-05
2.35395e-05
3.51835e-06
3.68742e-06
2.62847e-07
1.45302e-05
6.69572e-05
7.08205e-05
0.00011696
0.000106024
0.000116778
4.75574e-05
4.93925e-06
6.1294e-06
-6.74621e-06
9.5708e-05
9.62028e-05
5.26715e-05
-1.49407e-06
-1.74341e-05
2.68036e-05
4.3836e-05
0.000126074
-2.15936e-06
-5.13153e-07
4.56399e-05
7.65488e-05
0.000146984
7.35793e-05
-5.20016e-05
-0.000142223
-9.32574e-05
0.000100271
0.000150009
5.38729e-05
2.98024e-06
1.16911e-06
3.13772e-05
1.25425e-05
3.23452e-05
-5.50495e-06
0.00014105
0.000146205
0.00014626
0.000151281
3.20451e-05
4.23258e-05
-5.99121e-06
0.000150372
-4.29536e-06
-3.33123e-06
1.03018e-05
-2.2432e-06
-1.35012e-05
1.03993e-05
-1.81089e-06
7.79982e-06
2.56571e-06
5.06064e-06
1.80757e-06
1.06315e-05
8.58107e-06
-5.34034e-09
-8.03894e-05
2.40809e-05
2.23618e-05
0.000117477
3.30169e-06
1.06165e-05
3.90385e-05
7.41072e-05
1.03819e-05
4.70076e-05
5.0913e-05
7.1569e-08
-1.58601e-05
-1.18088e-06
-3.90073e-05
-7.97466e-05
-7.99179e-05
-4.20369e-05
5.49722e-05
2.86934e-05
0.000116365
0.000189634
0.000179147
-3.92437e-05
-3.37252e-05
-1.83871e-06
-2.71467e-05
-3.32522e-05
-8.58981e-05
-7.02172e-05
0.000117924
-4.19002e-05
-7.82763e-05
8.66291e-05
7.44752e-05
0.000152996
4.86335e-05
5.07442e-05
-5.42333e-06
2.24972e-05
-3.77921e-06
-5.65372e-05
0.000199408
0.000183457
-0.00031394
-0.000218723
-2.33101e-05
-0.000279132
5.10461e-06
-5.29735e-05
1.01247e-05
9.19865e-06
2.36082e-05
-1.40326e-06
0.000149074
1.26697e-05
-5.01014e-06
0.000154233
5.01829e-05
-4.98537e-06
0.000157194
1.21816e-05
8.67018e-06
5.09231e-06
4.46403e-06
6.83065e-06
-7.31793e-06
-1.07767e-05
0.000121288
1.55545e-05
-1.18782e-05
0.000210924
2.84058e-05
-5.62123e-06
0.000154624
2.30107e-05
-3.01246e-06
0.000153462
4.42689e-05
-1.40694e-05
0.000141027
1.6208e-05
7.84941e-05
3.72664e-06
8.86623e-05
-4.34376e-05
-9.1657e-06
-1.96414e-05
-1.82292e-05
-5.64443e-05
0.000138314
0.000120554
0.000134278
-1.60243e-06
4.0588e-06
0.000180802
-7.46381e-06
1.59679e-05
7.50722e-06
1.0559e-05
1.42091e-05
7.20575e-06
6.28175e-06
-2.04276e-05
1.92035e-05
-3.58703e-06
-4.66499e-06
2.69746e-06
-4.67828e-06
2.76353e-06
-4.32299e-06
-9.55613e-07
6.2744e-06
4.90672e-06
5.34475e-06
6.26045e-06
6.27432e-06
-1.78129e-06
4.4336e-06
1.40591e-05
-2.38859e-06
-1.83464e-05
-6.25082e-06
-1.06893e-05
1.75455e-06
-8.72783e-06
8.12234e-06
-1.32302e-06
6.31609e-06
-2.05873e-06
-6.37182e-06
-3.28509e-06
6.82531e-06
3.2282e-06
-5.11755e-06
1.78345e-05
5.40023e-06
8.53031e-07
-4.26319e-05
-2.41594e-07
1.0289e-05
-1.33369e-06
8.38094e-06
-1.82325e-05
1.11146e-05
8.51412e-06
-1.43772e-05
1.34205e-05
-6.63972e-05
-0.000127689
-0.000406633
0.000258757
0.000314887
-0.000221608
-6.17521e-05
-0.000151903
-9.37663e-05
7.7546e-05
8.01521e-05
-0.000161475
6.49808e-05
0.000166227
-9.57793e-07
6.63976e-05
0.000224281
-7.85044e-05
-2.95877e-05
-4.25169e-05
-6.84162e-05
-2.23885e-05
-3.76017e-05
-5.57123e-06
-1.42131e-06
-2.12254e-05
-1.59397e-05
3.57573e-05
5.85956e-05
-9.44025e-07
-0.00013631
-1.55147e-06
1.17496e-05
0.000198373
0.000327522
2.88251e-06
-2.08831e-05
-4.37496e-05
0.000192461
-0.000297178
-3.56706e-05
6.22562e-05
5.67461e-06
-1.00765e-05
6.30192e-05
6.26306e-05
-3.49558e-05
-6.63236e-05
0.000167066
-3.12498e-05
-3.38382e-05
-3.78756e-05
-2.77053e-05
0.000104032
-5.01671e-05
2.11348e-05
3.3902e-05
-1.12927e-05
6.17954e-05
-0.000132201
0.00017736
0.000193458
-7.45263e-05
-0.000176002
0.000243567
-5.4308e-05
5.36024e-05
2.34052e-05
2.86665e-05
-1.35705e-05
-8.19198e-05
9.18865e-05
0.000194455
-1.32359e-05
-3.18453e-05
-0.00014841
1.04156e-05
9.42169e-05
9.07209e-05
-1.20527e-05
1.53891e-05
6.13266e-05
-0.000142332
5.3639e-05
-0.000132601
0.000289917
0.000267272
7.84626e-05
0.000100929
4.45143e-05
-0.000214762
0.000260983
0.000234083
5.46617e-05
0.000106059
0.000143346
4.74504e-05
5.55255e-05
0.000191738
7.38559e-05
-7.82153e-05
7.90856e-05
-7.58362e-05
-3.24095e-06
4.90198e-05
0.000146244
-1.76446e-05
6.4916e-05
-5.5195e-05
-0.000178157
0.000148265
5.70907e-06
0.000254322
0.000288416
-0.000198534
0.000152462
-0.000243776
0.000229302
7.51023e-05
0.000119081
0.000313201
7.39267e-05
0.000218764
0.000359004
-8.30995e-06
-2.79121e-05
-4.69271e-05
-1.33054e-05
-9.17484e-05
-7.57095e-05
-9.16493e-07
6.01772e-05
4.24884e-05
7.78157e-05
-5.98851e-05
-1.14172e-05
-8.25724e-05
0.000278558
0.00021785
-4.85922e-05
6.5499e-05
-0.000137846
-7.82391e-05
-8.33198e-05
0.000118919
0.000158896
2.75971e-05
-1.66493e-05
0.000270283
-1.44688e-05
-8.61637e-06
6.13008e-06
4.1987e-07
-4.71411e-06
-4.36573e-05
-2.25016e-06
2.98602e-05
6.00641e-05
-1.75533e-05
0.000178926
-3.8382e-05
0.000109386
-0.000110158
2.22928e-05
-9.35287e-05
0.000294022
0.000346616
-2.21718e-05
-8.28801e-05
-5.97916e-05
0.000113846
-0.000128022
-2.27536e-05
-2.41575e-05
-1.34232e-05
-1.66305e-05
-1.85985e-05
6.11041e-05
-0.000400574
-0.000402148
-0.000149039
0.000381914
-0.00030063
4.78956e-05
-0.000323458
-0.00032398
-0.000278961
0.000341938
-0.000165529
-2.84679e-05
-0.000441582
-0.000450274
-0.000515657
0.000139783
0.000220107
-0.000498654
4.85517e-05
-8.03962e-05
-0.000191856
-0.00034736
0.000367761
-0.000227048
-0.000160111
-0.000181278
-0.000546185
-0.000432757
0.000406148
-0.000476356
7.72877e-05
-7.87479e-05
-0.000228181
-0.000432619
0.00028031
0.000159039
-0.00033635
7.51965e-05
-0.000221151
-0.000263786
-0.00033888
0.000334387
0.000287235
-0.000429842
8.56341e-05
-0.00010317
-0.000279195
-0.000408925
0.000323666
0.000234315
-0.000443603
6.70071e-05
0.000133349
1.74492e-05
4.49026e-05
0.000153132
0.000255467
-2.38191e-05
0.000122568
-0.000152102
-0.000218473
-0.000138673
-0.000217036
0.000125958
5.42945e-05
-8.6012e-05
5.62129e-05
0.000273325
-0.000468063
-0.000270131
5.99328e-05
-0.000102068
0.000208584
0.000397464
0.000123879
-0.00019676
-0.000122108
0.000384037
-9.44709e-05
-0.000412381
-0.000105064
0.00014955
0.000150535
-6.47739e-06
-0.000253965
-4.78696e-05
-0.000367349
0.000351457
0.000157459
-0.000183084
6.79939e-05
-0.000114063
-0.000174117
-0.000341722
0.000315449
0.000232637
-0.000255114
0.000105403
-0.000117667
-0.00025094
-0.000267183
0.00025773
0.000212326
-0.000297765
7.20004e-05
0.00015585
-5.55576e-06
8.71707e-05
0.000195469
-1.72166e-05
7.92267e-05
-4.40026e-05
-5.23141e-05
0.000271483
-3.97024e-05
4.85879e-05
0.000125572
-1.94052e-05
4.60794e-05
0.000149897
0.000130041
0.000125714
-6.67103e-05
6.56146e-05
0.000336262
-0.000136322
-0.000587005
-0.000346175
-0.000479065
0.000260957
0.000331724
-0.000336669
-9.81042e-06
-0.000258351
-9.83417e-05
0.000264841
-0.00022607
-0.000635159
-0.000391412
-0.000707205
0.00027885
0.000289306
-0.000250098
4.41768e-05
-0.000650075
-0.000361339
-0.000313814
0.000359956
0.000369908
-0.00024147
-0.000256157
-0.000457741
-0.000307605
0.000378654
0.000142283
-0.000355742
5.83823e-05
4.57548e-05
-2.41408e-06
-2.90209e-05
8.7284e-05
-0.000218935
-0.000443111
-0.000272589
0.0002851
-0.000325279
8.15843e-05
0.000213227
7.00087e-05
0.000132922
0.000201829
0.000183336
-0.000174466
-0.000386853
-6.72335e-05
0.000323366
-0.000365042
-0.000364545
-0.000360043
-4.33874e-05
0.000314229
-0.000367657
-5.25238e-06
-5.88766e-05
4.76582e-05
0.000253281
-2.98203e-05
9.55099e-05
0.00025482
7.56577e-05
0.000144062
0.000286489
0.000111607
-7.79782e-05
-0.00038398
-9.43816e-05
0.000314119
-0.000191405
7.1727e-05
0.000214761
6.03853e-05
0.000111097
0.000236415
8.59753e-06
-0.000114058
-0.000123221
0.000271061
-3.23654e-05
8.73209e-05
0.000254932
7.49572e-05
0.000108245
0.000276231
0.000107196
-0.000392606
-0.000341893
5.06297e-05
0.000300103
-0.000157832
-3.35691e-05
-0.000137117
7.67218e-05
0.000292442
-0.000125131
-0.00020015
-0.000314621
-2.67728e-05
0.000323145
-0.00023026
0.000162292
4.05826e-05
-6.21343e-05
-0.00018744
0.000279299
-9.07369e-05
0.000230721
2.00634e-05
-0.000143606
-0.000112927
0.000262219
0.000204593
-5.69655e-05
0.000180185
-3.64721e-05
-0.000139956
-8.97143e-05
0.00031575
-0.000122697
0.000239378
-5.27237e-07
-0.000131054
-9.47564e-05
0.00022804
-0.000147276
6.12331e-06
-0.000203763
-0.000375918
-0.000224395
0.000230643
-0.000171073
0.000216129
-0.000117805
-0.000112559
-6.72774e-05
0.000268283
-0.000106023
0.000175293
-0.000154657
-0.000337868
-9.03825e-05
0.000336799
-0.000198103
0.000128948
-0.000214088
-0.000329944
2.60171e-05
0.000320058
-0.000227284
0.000202144
3.35776e-05
-0.000200162
6.569e-05
0.000297853
-0.000118288
7.40587e-05
0.000243422
6.42759e-05
0.000157089
0.000239461
0.000153203
-1.81795e-05
-0.00023842
8.25706e-05
0.000292711
0.000221775
-6.89126e-05
-9.92752e-05
-8.57816e-05
0.000300227
0.000119776
-0.000139072
0.000205151
4.99867e-05
-0.000100032
-0.000113814
0.000267592
-7.66558e-05
-1.59501e-06
-0.000798024
-0.000374603
-0.000432455
0.000352869
0.000383612
-0.000291791
6.37532e-05
0.000142214
3.26693e-05
0.000107793
0.000175583
0.000139792
-0.000296973
-0.000389541
-0.000167974
0.000315075
-0.000293629
6.21555e-05
0.00020144
4.79464e-05
0.000162783
0.000207259
-0.000281173
-0.000466525
-0.000160515
0.00025852
-0.000519572
-0.000631467
-0.000250558
-0.000207711
0.000299355
0.000398909
0.000379827
-0.000157364
-0.000173618
-0.000116732
-0.000146592
0.000360203
-0.000296617
1.37921e-05
-0.000154748
-2.68531e-05
0.000346441
-0.000216736
9.81114e-05
0.000117463
-1.58103e-05
-9.36388e-07
0.000185736
0.000262543
-0.000682475
-0.000295145
-0.000153499
0.00041774
-0.000563483
9.0587e-05
0.000132183
3.69259e-06
4.30654e-05
0.000170642
0.000319014
-0.000464844
-0.000140654
5.84331e-05
0.00045722
-0.000437328
6.07805e-05
4.94527e-06
4.03949e-06
-6.72319e-05
4.17216e-05
-8.54659e-05
-0.000152218
-0.000117667
0.000368857
-0.00022903
0.000105466
-0.000315229
-0.000416562
-0.000296112
0.000348695
-0.00039203
7.46663e-05
1.60114e-05
-8.38366e-06
-0.000111495
8.09979e-05
0.000176451
-4.94506e-05
-2.85659e-05
4.47035e-05
0.000417741
-0.000107402
0.000208022
-0.000338335
-0.000356494
-0.00046815
0.000381756
-0.000313119
0.000146748
-0.000182762
-0.000290321
0.000189221
0.000315269
0.000192182
-0.000209334
0.000139251
-0.000235543
-0.000272512
-0.00013664
0.00034917
0.000355414
-0.000248017
0.000184235
-0.000111796
-4.2215e-05
-0.000133869
0.000242284
-9.56832e-05
0.000145347
-8.44639e-05
-0.000378088
-0.000128255
0.000254752
0.000200538
-0.000308399
0.000172722
-7.90682e-05
-0.000110995
-8.64286e-05
0.000300458
0.000279107
-9.76468e-05
0.000107606
3.67197e-05
-0.000161629
-0.000170034
0.000281444
0.000259068
-0.00020621
0.000165569
-4.54848e-05
-0.000112546
-0.000116483
0.00032127
0.000350903
-0.000136162
-1.67834e-05
-5.29413e-05
2.41598e-05
0.000351991
-0.000213302
0.000242993
-0.000167306
-0.00019452
-0.000179362
0.000305778
-0.000210439
7.90073e-05
-9.43753e-05
-0.000172726
8.88407e-06
0.000296408
0.00031408
-0.00019333
0.000217967
-9.92607e-05
-0.000104291
-1.95366e-05
0.000330285
0.000346329
-0.000125583
0.000201528
-2.46228e-05
-4.75696e-05
-0.00020651
0.000302239
0.000312168
-0.000152746
0.000230777
-2.74435e-05
-9.40608e-05
0.000198999
0.000394352
0.000370753
-0.000144052
0.000303157
-4.67351e-05
-0.000152152
-0.000201845
0.000379809
0.000333409
-9.48298e-05
-8.77635e-05
-0.000281727
-6.13719e-05
0.000284936
0.000320354
-0.000236723
0.000194722
-0.000153018
-0.000264907
-1.50254e-05
0.000332054
-0.000230871
0.000241704
2.2723e-06
-0.000132696
-4.60558e-06
0.000341248
-0.000200366
4.93449e-05
-5.40349e-05
-5.73175e-05
-0.000169298
0.000109757
-1.44532e-05
-0.000503182
-0.000334445
-0.000127417
0.00035418
-0.000288926
2.41908e-05
-2.37907e-05
-2.88666e-05
-9.71786e-05
1.6357e-05
-6.54578e-05
-2.72758e-05
-8.55474e-05
7.72332e-05
-6.21918e-06
2.24403e-05
1.25365e-05
-2.92411e-05
-6.2437e-05
5.66062e-05
-0.000120196
-0.000147846
-0.000111573
0.000299372
-0.000202481
7.3979e-05
-8.34507e-06
-3.88249e-05
-0.000267192
7.95793e-05
-0.000122425
-6.7801e-05
-0.000431687
0.000118277
0.000251891
-5.3481e-05
6.54074e-05
4.62746e-05
1.02552e-05
-9.37546e-05
0.000126517
8.76824e-05
-0.000300564
-0.000308625
-0.000181248
0.000335452
-0.000227257
6.41304e-05
0.000105922
1.39398e-05
-2.83229e-06
0.000189001
0.000118811
-0.000204526
-0.000295927
-0.000152935
0.00035132
-0.000346879
7.43216e-05
0.000121184
-6.89149e-06
-1.77051e-06
0.000220174
9.96369e-06
-3.60034e-05
-0.000108503
0.000291463
0.000253858
-1.42959e-05
0.00017151
-4.4397e-05
-4.95155e-05
-0.00032771
0.000226388
0.000240336
-5.49649e-05
5.85609e-05
-0.000102702
-8.7689e-05
-0.000233078
1.56947e-05
-0.000274368
-0.00021973
-0.000463782
0.000262149
0.000233192
-0.000172155
9.8442e-05
9.27827e-05
6.93979e-06
-3.66118e-05
0.000215143
0.000190693
-0.000156217
-0.000183237
8.76447e-05
0.000406639
-0.000136244
9.81472e-05
1.51404e-05
-1.26577e-05
-0.000166632
0.00016655
0.000180266
-0.000307066
-0.00022381
3.70927e-06
0.000400178
-0.000194307
3.57818e-05
-1.06003e-07
-5.25619e-05
-0.000107961
8.95767e-05
5.30062e-05
-3.01672e-05
-0.000175116
2.82402e-05
0.000329441
-0.000146346
0.000101025
0.000118634
-1.14143e-05
-0.000109734
0.000285402
0.000254217
-0.000321052
-0.00028842
-0.000151691
0.000358611
-0.000275871
7.2343e-05
0.00019864
4.11128e-05
5.49e-05
0.000223059
2.73401e-05
-4.18226e-05
-0.000381312
-6.58154e-05
0.000304941
-0.000171716
4.95422e-05
7.78137e-05
9.14404e-06
-6.17236e-06
0.000141468
0.000253404
-2.94357e-05
-0.000141628
-5.63454e-05
0.000246766
-0.000120303
0.000256739
-9.7777e-05
-0.000195924
-0.000116854
0.000358218
-0.000153777
0.000286997
-4.12603e-05
-0.000139758
-7.56905e-05
0.000262581
-0.000317799
0.00012607
0.000264217
9.0269e-05
0.000144557
0.000339367
0.000146912
-0.000110195
-0.000174095
-0.000186801
0.000295901
-5.02909e-05
7.53016e-05
0.000191417
4.30576e-05
0.000144254
0.000225189
0.000176978
-3.18923e-05
-0.000127426
-4.69935e-05
0.000322587
-0.000211922
7.24428e-05
2.14441e-05
-0.000118858
-0.00014441
0.000344863
-6.04106e-05
0.000105997
0.000314283
5.3821e-05
0.000217565
0.000352024
0.000338953
-5.31159e-05
-0.000105432
-0.000121558
0.000372781
-0.000145113
0.000192792
-7.90942e-05
-0.000283419
6.27426e-05
0.000281438
0.000298037
-0.000112844
0.000154194
-5.76791e-05
-0.000217789
-3.60672e-05
0.000333349
0.000340094
-0.000122693
0.000279084
-2.05284e-05
-9.14979e-05
-7.73971e-05
0.000375307
0.000253956
-6.17715e-05
0.000263604
-2.40944e-05
8.9911e-06
-0.000117702
0.000330001
-4.6668e-05
0.000337818
-0.000125997
-0.000132711
-6.14344e-05
0.000403515
-5.84643e-05
0.000239095
-9.39286e-05
-0.000184043
1.8157e-06
0.000253706
-0.000151062
-0.000251655
-8.97024e-05
3.77651e-05
0.000419812
0.000388798
-0.000110532
0.0002519
-0.000241202
-0.000223678
-7.05456e-05
0.000383294
0.000380128
-0.000107348
5.55662e-05
8.96479e-05
6.71718e-06
3.23235e-05
0.000141601
0.000231727
-0.000113368
-6.03426e-05
-0.000115386
0.00025498
-7.4547e-05
-0.000163113
-3.56907e-05
-0.000158903
0.000303176
0.000354047
-3.88352e-05
0.000278552
-0.000112345
-0.00016755
0.000114432
0.0003639
0.000402527
-8.00795e-05
0.000201158
0.000126949
-5.17542e-05
7.62025e-06
0.000338062
-1.40053e-05
0.00030754
2.5087e-05
-0.000145668
2.04528e-06
0.000172949
-0.000200759
0.000204584
0.000132896
0.000208292
-0.000649535
-0.000244216
-0.000273552
0.000175899
0.000291011
-0.000314743
0.000297334
-0.000209499
-8.38957e-06
0.000222695
0.000123291
-0.000380924
-0.000318354
-8.76348e-05
0.000247196
0.000320594
-0.000167279
0.000301249
-0.000230935
-7.64863e-05
3.85555e-05
0.000145015
2.5301e-05
2.64623e-05
-0.000144944
-0.000237042
-1.15205e-05
0.000138914
-8.7419e-05
0.000205703
-8.9543e-05
1.40671e-06
3.91058e-05
0.000241366
0.000313046
-0.000497845
-0.000137702
-0.000201184
0.000259636
0.000386733
-0.000126881
0.000404287
-9.79896e-05
-6.54945e-05
0.000232865
9.67946e-05
0.000156893
-0.000102278
-0.000130086
-0.000348175
0.000178959
0.000323297
-5.14185e-05
0.000303516
-0.000169727
-2.19114e-05
0.000101055
0.000100071
0.00016303
-0.000228702
-0.000118619
-9.77305e-05
0.000204918
0.000324077
-0.000234055
0.000266486
-0.000259549
-6.64589e-06
8.36904e-05
0.000255545
0.000204731
-0.000140113
-0.000132876
-5.49718e-05
0.000256376
0.00043965
-0.000161343
0.00027496
-2.66947e-05
-2.89343e-05
0.000214988
0.000154627
0.000189036
-0.000815149
-0.000259005
-0.00014903
0.000257282
0.000383351
-0.000226309
0.000294525
-0.00017382
-0.000125237
0.000133734
0.000141859
0.000185766
-0.000414432
-0.000134
-9.59268e-05
0.000184659
0.000331452
-0.000275862
0.000311255
-2.51256e-05
-0.000198925
-4.7829e-05
-0.000182333
-0.000110089
0.000122986
-0.000132065
-0.000123276
-0.000403989
6.59527e-05
0.000152554
-3.75019e-05
0.00015418
-1.16294e-05
-2.7026e-05
-3.84636e-05
0.000203929
7.774e-05
9.97034e-06
-0.000355051
-0.000583461
-9.51129e-05
0.000271468
0.000245091
-0.000276322
0.000273327
-0.000267317
-0.000352515
0.000107438
0.000251802
0.000204966
-0.000315107
-0.000189295
-7.33172e-05
0.000228743
0.000358247
-0.000193502
0.000365679
-0.000150388
-0.000144629
0.000105682
0.00022812
0.000234652
-6.70279e-05
-5.11573e-05
-0.000154272
0.000259794
0.000318758
-0.00013879
0.000357479
-1.82891e-05
-6.17405e-05
0.00010005
5.22796e-05
0.00016244
-0.000382737
-0.000247076
-0.000301125
0.000124405
0.000315541
-0.000219833
0.000320339
-1.74376e-05
-0.000151457
-3.29624e-05
7.03928e-05
0.000153837
0.000357643
-0.00021277
-2.34883e-05
1.88698e-05
0.000268792
0.00036396
-0.000141801
0.000390929
-1.4646e-05
-1.42425e-05
0.000111472
8.95521e-05
-0.000558525
-0.000305465
-0.00031052
0.000150762
0.000370279
-0.000266407
-0.000154788
-0.00011629
8.55906e-05
6.23547e-05
8.8145e-05
8.36473e-05
1.04284e-05
4.12928e-05
9.6936e-05
7.97031e-05
6.38002e-05
7.44565e-05
6.82916e-05
8.91762e-05
4.67009e-05
4.22984e-05
8.75656e-05
6.73226e-05
7.5107e-05
9.91615e-05
8.93426e-05
6.24032e-05
6.92598e-05
4.90522e-05
1.66093e-05
3.84159e-05
6.34617e-05
5.54034e-05
5.12794e-05
3.31251e-05
8.48687e-05
1.88531e-05
5.77156e-05
6.41824e-05
2.82033e-05
8.24777e-05
6.68353e-05
0.000105518
4.92541e-05
4.28407e-05
8.54292e-05
7.30799e-05
5.78592e-05
6.83261e-05
2.88224e-05
6.74005e-05
5.59873e-05
4.96592e-05
-1.7128e-05
4.65029e-05
6.48335e-05
8.41948e-05
3.64407e-05
6.07069e-05
8.3453e-05
4.79977e-05
2.09173e-05
5.27405e-05
